{
  "config" : {
    "algorithm" : "ListNet",
    "numIterations" : 500,
    "batchSize" : 0,
    "verbose" : true,
    "nomodel" : false,
    "params" : {
      "regularization" : {
        "rate" : 0.01,
        "regularizer" : "L2"
      },
      "layers" : [ {
        "activator" : "ReLu",
        "num" : 46
      }, {
        "activator" : "Sigmoid",
        "num" : 1
      } ],
      "optimizer" : "adam",
      "learningRate" : 0.001,
      "weightInit" : "xavier"
    },
    "dataSet" : {
      "training" : "../../../MQ2008/Fold5/train.txt",
      "validation" : "../../../MQ2008/Fold5/vali.txt",
      "test" : "../../../MQ2008/Fold5/test.txt"
    },
    "model" : {
      "format" : "json",
      "file" : "../../../MQ2008/Fold5/models/ltr4l_120.json"
    },
    "evaluation" : {
      "evaluator" : "NDCG",
      "params" : {
        "k" : 10
      }
    },
    "report" : {
      "format" : "csv",
      "file" : "../../../MQ2008/Fold5/reports/ltr4l-report_120.csv"
    }
  },
  "weights" : [ [ [ -11.693148895356341, 0.9889523953133055, -0.14015750971767674, -0.38162506940601004, 0.4062297176212013, 0.9782553150980027, -3.626185979628799E-5, 6.1010468292605825E-5, 6.052774626927617E-5, 3.0030015286013502E-5, 8.083267702118557E-5, 0.9853094957171672, 0.09255934676965952, -0.3121450350370889, 0.3938543223320129, 0.9674495366311994, 1.0709962274634288, 1.2770579089580552, 0.050564702800481434, -0.4401789695990566, 1.0691040606530227, 0.5644598368514933, 0.3388525337245015, 0.983469110149894, 0.328690684469286, 0.8695749079762024, 0.7174360189310411, 0.936021148637356, 0.6815061920346998, -0.21062727838297368, -0.1268562427478807, -0.1372905815003388, -0.20741810917688053, 0.08372583665539561, -0.5652172267142819, -0.5177026938903145, -0.5644116460175348, 0.5410643890311008, 0.28474696529437155, 0.9716611111226435, 0.3311130818401722, 1.37339879652364, 0.018018259514065257, 7.044941389114312E-5, 0.842204553796126, 0.27532822209028424, 0.6030661916445711 ], [ -11.629438597766312, 0.5799116026962181, -0.7447419872219024, -0.10133793512944769, 1.4957537779238912, 0.554422078292086, 2.2880089085849518E-5, 3.4616332245478785E-6, -3.66599802807654E-5, -1.1638301603716424E-5, -1.6613154536602934E-5, 0.981214823097067, -0.7467404350560871, -0.007457983228188834, 1.490252082895945, 1.0022727211157112, 0.7005452075953389, -0.0038932711410492567, 0.928084519937265, 1.2732671836802607, 0.7035587155947094, 1.0580961466795518, 0.2211222034809457, 0.7037749509791661, -0.03873419022218133, -0.3790464996372113, 0.1431443071302359, 0.5106561601964783, -0.6778066703920619, 0.12878496581799032, -0.35608783101214747, -0.15054371075561002, -0.2563378838645889, 1.3785526362673723, -1.638203160443359, 0.30468717855998145, -1.3117300782557715, 0.9836856522418982, 0.05899811388992182, 0.620077361697114, -0.07167032062723691, 1.9233126065961936, 0.6626701810998067, 4.536731010249657E-5, 0.4761982630716823, 1.6960562987024512, 0.8249252767880377 ], [ 8.047618413167383, -0.23438683298608354, -0.3454312327376368, -0.07936118783025052, -0.7509190064493545, -0.21332346792498355, 3.2716866042783626E-5, 1.912734401569527E-6, 1.9477963023302253E-6, -4.655063513576822E-5, 1.3472652595612837E-4, -0.5870239867894725, -0.4493116720431063, -6.212993072190208E-4, -0.7503661429785571, -0.5677543223861242, -0.3937057333804967, -1.3407811830601648, -0.6836083727433049, -1.1173792757703913, -0.400429445948263, -0.3493560178236035, 0.10295388332227376, -0.1947100176887377, 0.037615631894794055, -0.31318814621437163, -0.28218172989390583, -0.6736238649192589, -0.2761115877372086, 0.6700867484858539, 0.7793899862324841, 0.3275349325842096, 0.6243657994875486, -0.6964333180438383, -0.08539180590285562, -0.6596256525147747, -0.5906496766084837, -0.3142375584507388, 0.09274617403646092, -0.1847031789334127, 0.03851989295422319, -1.1944600401924856, -1.6619742322239963, 4.953525172068202E-5, -0.14678278946352177, -0.41350276221216903, -0.7054843907535367 ], [ 7.535439204770225, -0.2427552527832647, -0.27502180248854136, -0.07488960460734376, -0.6832600763392443, -0.22714155385197465, -7.854176608850494E-7, 3.230540261882627E-5, -6.14633063634958E-5, 4.176492510540621E-6, 3.450137684717878E-5, -0.5326313802492476, -0.37086760027629717, -0.006257636974939096, -0.6825594113407347, -0.5179000591016352, -0.36198856525164597, -1.2462969789114826, -0.5969734937046934, -1.0078770193519555, -0.36788772063603553, -0.36574135621113596, 0.0618621259691893, -0.21623106016975538, 0.023145384629214782, -0.24196689805357685, -0.2588584166012899, -0.6009428358379975, -0.2545976390190686, 0.5256764812558141, 0.6515312424520331, 0.2632328149328448, 0.537809518140642, -0.6322830051488919, -0.06293961886462451, -0.6571185175465137, -0.5809596368363419, -0.340876505134883, 0.05864630401848596, -0.20884949470375444, 0.025052989575438937, -1.120150626993654, -1.6128767030960638, -2.114104096943073E-5, -0.08436634637001487, -0.3263108721433688, -0.5936951927125282 ], [ 7.980948919642475, -0.23395476554496125, -0.33827364911169905, -0.09142441853577106, -0.750513145527463, -0.21265945389776839, -7.31992350546048E-5, 3.1356052290331966E-5, 1.8431542266018618E-5, 1.4196747964319918E-5, -1.679206285464649E-5, -0.5960485220056284, -0.4480533799996578, -0.008607978500933063, -0.7498317317795401, -0.5765033697039645, -0.3854916519098528, -1.3287081522878288, -0.6951886705735978, -1.1077765863697542, -0.3920678889069292, -0.35260057475010936, 0.10744517869381259, -0.1899347480767304, 0.03863624573232211, -0.29703470651090785, -0.2659503079913934, -0.6773585880131815, -0.26150356509118716, 0.6585408089791036, 0.772806649903671, 0.32105668623666794, 0.6234376778365132, -0.6930793309829479, -0.05653583298107714, -0.6367408514280332, -0.5645155443555867, -0.3160172105823163, 0.0968353424775457, -0.18014652233253348, 0.04008937597728506, -1.1949766586497863, -1.6453845110031802, 4.2946646863374814E-5, -0.12320331625470327, -0.40562002293258936, -0.6967654534724211 ], [ 7.96822126405257, -0.22043280643032573, -0.3260158517686523, -0.07635211055881526, -0.7511933534929635, -0.19891250040214983, -2.665436667814777E-5, 4.376372269645634E-6, -8.530464772495906E-5, -5.2702997334070186E-5, -6.226521188521365E-5, -0.5957412109465986, -0.4372188812970169, 0.004762702703442412, -0.7504586780261782, -0.576196219782123, -0.3819457717720667, -1.326317083439154, -0.6774205446891756, -1.1225482516599954, -0.3887756957809402, -0.33033906815009006, 0.1279027527794647, -0.1785015262639681, 0.05558603596948517, -0.340274335265395, -0.27852588015153446, -0.6699642220769844, -0.2728528953799078, 0.6898171268227009, 0.7999682964066985, 0.3432186164863487, 0.638803132129933, -0.6938691353521635, -0.020556890814064255, -0.6250975040644001, -0.5531014813131381, -0.29947886154365844, 0.11005974418306687, -0.1724139074880473, 0.04915542747338979, -1.203657347148993, -1.640042858715289, 7.673652105859538E-5, -0.14375709144671447, -0.4049935377482853, -0.6934749511753068 ], [ -12.842352812531816, -0.08188088662485994, 0.020878216220396338, -0.962666925347504, 1.1856443859746713, -0.3800049222516383, 3.0135255338810397E-5, -1.3991856881456935E-6, 8.411894379264508E-5, -9.414953150369895E-6, -4.953255141151168E-5, -1.0272296610829377, 0.2801941492203384, -0.3290108635218284, 1.1900266812926172, -0.8737389252883185, 0.2517404052008094, 0.4534406565158365, 0.5264948532220938, 1.1777419539623686, 0.2559049384322807, 0.8253532104803314, 0.5314599407554415, 0.7811710609508061, 0.348473139259657, 1.011103514360662, 0.3635535795176217, 0.48257627223612437, 0.19404305051387663, -0.20897668802701705, 0.01453366998078759, -0.049057262097363705, -0.010279991381616662, 1.019993460825927, 0.7542363890721059, 1.0881255609193146, 0.9015022159031334, 0.8713660387849376, 0.5355286363973962, 0.7448185496697606, 0.4783211745036295, 1.4546971621765, 1.195492583974565, -5.951699255535646E-5, 0.6795234301208455, -0.8796982293102151, -0.5388614912210717 ], [ -11.912309262187595, 0.6264043852140699, -0.01682738915283582, -0.09762636294311197, 1.669716541606046, 0.32260301945577285, -3.0100893057189597E-5, -5.934815082811732E-5, -1.7229684157543742E-5, 1.2616990704802254E-5, -1.6781612920663958E-5, 0.8221945783621007, 0.06410292362520371, 0.47864104714242434, 1.6724378919331617, 0.8317677146033067, -0.4533194299497012, 0.4452019723549235, 0.5193280439315896, 1.4071020257406266, -0.45931145540467444, -0.8683174309483672, -1.1521036802685498, -0.906032008737893, -1.1761797302459658, 0.20160866123947133, 0.30367656187410125, 0.22662651978983261, 0.30853100568183994, 0.1084334456760677, -0.338564841137305, 0.2278914810662581, -0.04072861476980689, 1.651019847481453, 1.7192318319755746, 1.6786946077433165, 1.6849323132736864, -0.20205163770723028, -0.34722038104296876, -0.14772499506226613, -0.18631285824297028, 1.5682220288351094, 1.602577876306534, 4.1590261056850616E-5, -0.31181735335337424, 0.9744573933802563, -1.9611856623691302 ], [ -15.485760103842134, -0.7906605422832446, 0.0914903240784612, -0.6684020180826842, 2.0682305483217496, -1.5093845832132482, 5.0125902912406936E-5, 9.406685453690386E-6, -2.3493639534333043E-5, 8.42204452793647E-6, -9.535464523658398E-5, 0.241460802410475, 0.38867542224576557, 0.3274045515101899, 2.072674202410888, 0.3387545424318458, 0.20714153602191113, 0.40824741824515637, 0.9847735755180707, 2.0505526272111396, 0.1862788499694229, 0.5914139590393963, -0.7017578027128296, 0.2467632075188947, -1.1806727933581618, 1.2049922837765417, 0.39487889562842304, 0.6424922113078905, 0.07985061217990737, 0.07491573028331773, -0.7913047916337311, -0.02160440675787677, -0.2655720462700213, 1.93026313362995, 0.6823057358718128, 1.6527180527925698, 0.7810827495702902, 1.0148585481488728, -0.18666110131486865, 0.5703567839208232, -0.35285161145563576, 2.2444919661896967, 2.1003641876616697, -1.7553523218957217E-5, 1.0555978731846711, -0.017688366183882198, 0.009800040175753642 ], [ 7.517427036353401, -0.24548273643365595, -0.2685286181001579, -0.08127265702703916, -0.6674232243428884, -0.23072362022296206, -1.0997470205052254E-6, -7.845252559477907E-5, -9.84868141636852E-5, 2.51381910589529E-5, -1.3148726019825863E-5, -0.5153272340139111, -0.3629616575221672, -0.02376827956600915, -0.6667196350278152, -0.5015640128680517, -0.3571684796267207, -1.2412619422073372, -0.605695523745539, -1.0110136298471497, -0.36275424205494583, -0.34961256542555585, 0.05759185271642782, -0.21596278289954454, 0.017578115396029007, -0.27178302910758245, -0.28813890914201157, -0.6013262298405203, -0.2823010417967599, 0.49044985676762753, 0.6341125936303247, 0.2513697053149056, 0.5214298718588506, -0.6191371389903557, -0.11480105278161787, -0.6896265604278711, -0.61912606486676, -0.3317810013350093, 0.04895385074340171, -0.21292702797291196, 0.014100164839355068, -1.0981514463795727, -1.6013396138994058, -1.2102732366503902E-5, -0.12296972876073067, -0.34281154765750643, -0.5926720301922995 ], [ -11.417675196154264, 0.9685109972252249, -0.11897061811187147, -0.36024725753439785, 0.3706914269829024, 0.9578449677293749, 7.607864730483525E-5, 1.2010707622142658E-5, 1.2625515189566615E-5, -1.1484733368246036E-5, 4.930300893790426E-6, 0.9819739346781888, 0.11672678553358334, -0.28131864682102964, 0.36120795597250277, 0.9658633460384859, 1.0529463204690526, 1.2952232911916406, -0.05396657956317935, -0.5138616504021817, 1.0509466876877795, 0.5767299581494902, 0.3230326089037075, 0.9824093253391994, 0.3272813944932647, 0.9132476541628117, 0.7067794801870164, 0.9245401430784762, 0.6728833265260957, -0.18758780115079143, -0.10308305060589887, -0.12228093758209947, -0.20013785341244061, 0.023982903895237308, -0.5861606290485862, -0.5718586711702839, -0.5863599995680504, 0.5569313257315435, 0.2806480305388607, 0.970704448748408, 0.3309499616465457, 1.3486572581476484, -0.011729649395201254, 7.085895941394203E-5, 0.9130225594064691, 0.13608527831277242, 0.6487350533698126 ], [ -11.386934874684838, 0.9777415569681629, -0.0913669296602903, -0.3527380423389467, 0.3702146624936615, 0.9675473439485619, -6.105071173701479E-5, -2.2409151511974404E-6, 5.868758626849283E-5, -4.185750588474108E-5, -3.27420231169993E-6, 0.9843670604522861, 0.1458499871260321, -0.2771157001140322, 0.3544598252920073, 0.9674268465817081, 1.0596883984338004, 1.31749714884233, -0.04573465792194446, -0.4964888416902442, 1.0577167534875598, 0.5770149514258894, 0.3245275905008131, 0.9786254506547523, 0.3303283751897863, 0.9487516910138313, 0.7314974513684365, 0.9447055988261535, 0.6958135008385805, -0.1820679015977019, -0.10601320290633151, -0.12722008852091696, -0.1948682650885409, 0.01589221785328134, -0.7150327852111555, -0.7066169749394169, -0.7157593354089736, 0.5586191231593136, 0.28041082417495017, 0.9671035728912218, 0.3326406847355298, 1.3314091740720384, 0.028820513469832457, -4.863316328429624E-5, 0.9050271500577834, 0.10414593828261276, 0.6415848822988924 ], [ -4.160265281201222, -0.39447050599087846, -0.2061572041725686, -0.45425341649220125, 0.35693063283718773, -0.44175217296036956, -7.994504639019425E-5, 6.836822415349083E-6, 3.293795228875425E-5, 1.8754281476359799E-6, -5.8397760184826556E-5, -0.6022073701082916, -0.10903689839811974, -0.4640755586225526, 0.3577086079341257, -0.5945889072142192, 0.24410434394780509, -0.47119429800158164, -0.8677235193368334, 0.24965682572459605, 0.19943597744719144, 0.33387904987701156, 0.354012073491105, 0.4032465765975329, 0.3266808579091286, 0.5887579473690893, -0.6366665696618545, -0.6019326063246981, -0.6467192712656197, -0.4744724323527989, -0.060221096610661135, -0.021902624122479928, -0.026906756413780396, 0.37085931994481774, 0.417266813485688, 0.3934148407276374, 0.4158692979854128, 0.36503214180957955, 0.42109202700872544, 0.4351185079804445, 0.4209766210468402, 0.1318926277329427, 0.2591045239239222, -3.009473580287768E-6, 0.8478449943098085, -1.098828219351472, -0.05505131656753326 ], [ -4.210144210715936, -0.4432068303664862, -0.2316230162087053, -0.45496733540360695, 0.37132798799266925, -0.4757956859021177, -6.6681299438385665E-6, -5.232479298001482E-5, -2.7416094666689635E-5, 1.7646809763343642E-5, -2.7822061946951206E-5, -0.6406116088315933, -0.12784645958315002, -0.46445727050470903, 0.3718780387150764, -0.629422203071288, 0.24575224464035905, -0.4984545774787888, -0.92592618150987, 0.27077531069564026, 0.2000109525614836, 0.34225639508548017, 0.36261855769857765, 0.4186269693280571, 0.3355563166119332, 0.6056896272470502, -0.6591502019786781, -0.62691441244991, -0.6748113492994482, -0.4891123613945112, -0.03378091771467832, -0.009255690044357716, -0.012918374810561973, 0.3806760701952943, 0.42472277303005346, 0.4037310348842588, 0.42443875677419596, 0.3717469881406626, 0.4272490403371733, 0.44793816185028273, 0.42719941632788017, 0.15289355097211804, 0.2772229140818081, 5.169551176830869E-5, 0.8387827433087265, -1.081551365841273, -0.06829186977809495 ], [ 7.9505920184439836, -0.24583628027250315, -0.31270368423358297, -0.1009397014985532, -0.7506634946781571, -0.22511354365894418, 2.2129046091139197E-5, 4.341900799758529E-5, 4.710093792474645E-6, -1.3151369766473161E-5, 4.4500282156579145E-5, -0.583144014787599, -0.41989175961023234, -0.021390296186661186, -0.749982685110084, -0.5645639885723357, -0.4052720550880962, -1.313523901322284, -0.6935977429568283, -1.1190990402199832, -0.411938314427074, -0.3461392124182074, 0.09337687820137719, -0.2057275893585395, 0.03346154394371295, -0.3081003806025187, -0.26810770331437067, -0.6518065813841233, -0.26301268306614917, 0.632483283831983, 0.768151812898079, 0.3159725297009054, 0.6143084470566409, -0.694991088537716, -0.08869634573300468, -0.6575831856485571, -0.5871935222089124, -0.31750157879833973, 0.08027738876647063, -0.19961467484738002, 0.03000317664472486, -1.1942339581675503, -1.6564343832191715, 1.1621349801685997E-5, -0.15587546618463774, -0.41332397375591134, -0.7079312300250865 ], [ -12.80719453027384, -0.08691102632387662, 0.016841764804313406, -0.9513731146036091, 1.179098890582248, -0.38480372821093395, 5.10428242714452E-5, 1.227554046739896E-4, 5.273484947983619E-6, -5.937567858653179E-5, -3.232442156805226E-5, -1.0349391075568992, 0.27720934249122436, -0.3217265695651394, 1.1832474349233129, -0.8838735710677934, 0.2565188000922071, 0.4573335577805088, 0.5161264377665634, 1.1661301022270685, 0.2601853987600259, 0.8180823966685722, 0.5290858552550823, 0.7799647671369934, 0.34578962447927003, 1.0118837758233397, 0.36769399023624727, 0.4802263865105189, 0.2000549056977341, -0.2110531696399504, -0.005307567261166489, -0.048022120301333855, -0.012611149813459193, 1.0135284523646162, 0.7560574758940845, 1.0887020499908273, 0.9036758964225767, 0.8617835145641971, 0.5373471396651576, 0.7483933953400395, 0.47999392451739015, 1.446299475112533, 1.1840622411488966, 1.1305138238983214E-5, 0.6798037938513082, -0.8700817379145984, -0.5484217514489738 ], [ -11.588972256901757, 0.9907451658593831, -0.12035990248774706, -0.41241615031753753, 0.39280966817641505, 0.9804989339078978, -3.835890703515598E-5, -4.674079713337218E-6, -1.0603936108053832E-5, 2.8298559422321322E-5, -3.1692046102113074E-5, 0.9913175005499099, 0.11571507702854021, -0.34919577293803294, 0.3798741132156328, 0.9735396542272283, 1.074190177327188, 1.3132547575888134, 0.02708167846320142, -0.46615978185970675, 1.0721932567519485, 0.5719375127302934, 0.3368147002863729, 0.9883685590471935, 0.33573868170445287, 0.903129877315102, 0.7268567221091117, 0.9488796620120847, 0.6926492332920954, -0.2390614267621712, -0.12582010549516748, -0.13610176563155568, -0.21840852503865843, 0.06185352542916894, -0.6722669067010493, -0.6376909762304206, -0.673699601432151, 0.5505915180172338, 0.2874727127259408, 0.9763583141717819, 0.3393304862038976, 1.3631057060557465, 0.040571646864289324, -3.564625716708332E-5, 0.8928291272992053, 0.23204609903917167, 0.6297502759667256 ], [ -4.963582674327651, -0.8942803457254759, -0.5845828675837019, -0.0368730187728114, 0.3742923634974562, -0.7325068371128832, 4.596774415239855E-5, -1.0882968060622792E-5, 6.769647207776323E-5, -3.625214955893847E-5, 1.837450909656562E-5, -0.4671543629586216, -0.47221258688864015, 0.00217404605926686, 0.37495773651309056, -0.4288662650077765, -0.04107538829203818, -0.7239424415459909, -0.5534045666290374, 0.2715208602756101, -0.05945016200290455, 0.3445504664609641, 0.38443584198232966, 0.1935517847400666, 0.3571339061509548, 0.8630330276246946, -0.048166249789755956, -0.6407069263531102, 0.024092495238319786, 0.006808702781270261, 0.3214807616869648, -0.1164654281176691, 0.197495536233749, 0.38281450154872376, 0.4218781698202996, 0.4030031962756473, 0.42398392974855237, 0.3568587855548279, 0.4232601578573598, 0.35286874691594294, 0.4235364876892099, 0.23131216113541558, 0.2951773135299755, -1.1070688845775238E-5, 0.661115193380577, -0.9679764100504816, -0.45041782216253157 ], [ -14.248795982782115, -0.18090587040643386, 0.06694152082718814, -1.0814638157078988, 1.646163103693863, -0.5751828848752895, -7.6521575655085E-6, -5.095936763437749E-6, 8.4313445074703E-5, 8.059288268158276E-6, -1.264727080879404E-5, 0.035691863434124615, 0.34411327876525094, -0.1734208050384368, 1.6495240011924424, 0.17065504572501652, 0.16545415109565975, 0.38775340612897163, 0.6820852037350552, 1.642370645956041, 0.1456398230381536, 1.2033657309846346, -0.13585746887086575, 0.7357101589098961, -0.5643962583662441, 1.202470616096572, 0.298530329980411, 0.5548799802766857, -0.026292067389663668, -0.0071790056825793225, -0.293411368147021, -0.1152435491332268, -0.09628098511749995, 1.4957517453559166, 0.04594381923315227, 1.2394126767061284, 0.20639898722737118, 1.2838746804641965, -0.0900466449195642, 0.6437925710444287, -0.3246738813713503, 1.9102703677503343, 1.6825661939374676, 7.557847536948103E-5, 1.1272601074059627, 0.04686951565465023, 0.238515809142307 ], [ -11.61333729070886, 0.9947293674170997, -0.12804207096588344, -0.42325351041668496, 0.406291201160443, 0.9844736208532338, 5.9750642582114704E-5, -1.1830734426492428E-4, 1.8269844698343482E-5, -7.7237807511065E-6, 3.3106419214307776E-5, 0.9961822250955277, 0.10668942938350068, -0.3563381359931526, 0.3934026632143521, 0.9783927300980968, 1.0779346538608363, 1.3021312571680648, 0.023194811499401426, -0.4577171042010663, 1.07595838269358, 0.5717393655230165, 0.3403215969672193, 0.9927957003498813, 0.3367030382423642, 0.8892762196728609, 0.7274241489533212, 0.9453999038769761, 0.6930867823867273, -0.24048763408612, -0.14762225110481114, -0.15892012264381128, -0.23669823856074612, 0.07741028487682922, -0.6616795119159569, -0.6193551457084934, -0.6615337140069872, 0.5492855763866653, 0.2899771936195612, 0.9807887922419138, 0.3404255211229461, 1.3757746924573242, 0.02734028631692779, -1.8690977787184504E-5, 0.8818993238431007, 0.25990003985803, 0.6277550842844972 ], [ 8.008199510622418, -0.22489885307508656, -0.3057670355006733, -0.07532663380006102, -0.7523264834353016, -0.20350081541830448, -9.168498100435361E-6, -3.439190818343194E-5, -4.05411179380643E-5, -1.2717123504175344E-5, -3.306112662997362E-5, -0.6067024312116326, -0.4090548558676462, 0.014801329354397198, -0.7517257876066127, -0.5865872753964684, -0.39742110033534944, -1.3387523207864807, -0.6890829312585469, -1.1295504779597245, -0.404416814579044, -0.34828262341298116, 0.1180537718741228, -0.18400413883007807, 0.04510792787103246, -0.28951311996477114, -0.24352315143271694, -0.6449446164427429, -0.23611186505582113, 0.6987161147909018, 0.8128460945662179, 0.35390682200789975, 0.6509789464745802, -0.6942979388768574, -0.039514908961909304, -0.6431357138875787, -0.5707489407705708, -0.30900263875283357, 0.10619632824386298, -0.17280861598419164, 0.04603048022200642, -1.2111526749011947, -1.6892408509165195, 4.515825503566495E-5, -0.12065035569954816, -0.39796349082367555, -0.7026164132444213 ], [ -16.005778948887187, 0.6056202681179065, -1.6977831505251755, -0.2155689547967455, 2.3443026922318055, 0.5506223799500435, -5.614617559999543E-5, -1.3195917854028942E-4, -3.569830971790285E-5, 3.4858704718632995E-5, -3.75906413274349E-5, 0.8071355230410497, -1.1544847553435738, 0.3174909300324815, 2.3459250744139317, 0.838866616384657, 0.5716153356101653, -0.3291623363719415, 1.3936994828701623, 2.150150524510216, 0.5770908952132527, 0.6445693644250754, -0.1699164681085334, 0.5412789619451072, -0.34394375839392716, 0.11001024413120851, -0.23834740499378226, 0.3127195886228683, -0.8589658613987661, 0.018742722682081308, -0.5148947478139146, 0.025174072626739197, -0.22259819060236985, 2.202147585437657, 0.31050127261665805, 1.6372762350351382, 0.5842193363370594, 0.9811514451135128, 0.20115806563412908, 0.8387364505452461, 0.2563768757464175, 2.5164906994106033, 1.8333800480503752, 1.786165480041247E-5, 0.8899701154274494, 1.7055720743963783, 0.5391965781066351 ], [ -11.928452817096124, 0.9140789151895475, -2.5633148174316145, -0.2662186876336571, 1.8738046220101683, 0.9092997260650154, -1.4531900813109277E-5, -1.0845242646860443E-5, -6.120766730799892E-6, 8.86713450210783E-6, -6.088248912996442E-5, 0.8359362396558594, -2.577904232773159, 0.06523132525813412, 1.869036769515943, 0.8301427575914994, 0.7885861146745844, 0.2529692418943057, 0.6594424848195013, 1.5732160309913215, 0.7888624079598292, -0.2121242809696168, -0.6151429408203296, 0.1620263861903194, -0.8657030662017342, -2.1805171890698296, 1.250052318994131, 1.6007875070642739, 1.1255873610497413, -0.528428620229035, -0.6236433792250973, -0.2484566189219003, -0.40539257669970813, 1.8332656135969976, 0.4808352192904308, 1.6194593081122939, 0.48355766073307965, 0.19723615401402314, -0.18512614513965778, 0.5072714573096283, -0.19905535148060902, 1.9526030974933057, 1.3154632899058516, 3.967084376798178E-5, -0.006945182024505309, 1.764363753518354, -1.006802871607078 ], [ 8.025710993843916, -0.2509601805662132, -0.2582413871089697, -0.09844742710251685, -0.7239760900345612, -0.2310489363103298, -3.406504766243789E-5, -1.6173961051213423E-5, -1.891567554806563E-5, -4.312116712674561E-5, 6.341299982864233E-5, -0.6068331028328747, -0.3606727105867498, -0.0069613601520305156, -0.7232879527074849, -0.5881008037380636, -0.39469438429327947, -1.295285888504484, -0.6811846376082271, -1.1125817853637754, -0.40131753575762164, -0.3756600803566278, 0.07667914162924928, -0.21849006068273205, 0.011258732689326869, -0.29026009626071414, -0.2645201426184868, -0.6080555758817978, -0.25808136929958586, 0.6240548032191838, 0.7541960100472701, 0.3150812000391659, 0.611729965749209, -0.6651661692392827, -0.07901552574176603, -0.6815302381746302, -0.6030085896754394, -0.34014015468755976, 0.06626038000345047, -0.20852179723055644, 0.011931796297687614, -1.2007133937476018, -1.6455354021772146, 8.942884666941969E-5, -0.11621872885348064, -0.38585566869967475, -0.6684060880372198 ], [ 7.968252180779463, -0.2317105946725499, -0.3411902934344293, -0.07183489990032021, -0.7939627636317645, -0.2103039501122502, -2.6997730420799642E-5, 9.254167685126146E-5, 2.5284484712071732E-6, 6.230171516565022E-5, -6.322553920083137E-6, -0.5966329328829264, -0.4484721198435043, 0.008616116901748024, -0.7933381438733134, -0.5773915593133724, -0.39285934470741307, -1.281535197703281, -0.6544029923542701, -1.1317196547451331, -0.39944083715294215, -0.34451574565619175, 0.10638619175420048, -0.1892306166766487, 0.04517205857177868, -0.3592627714428068, -0.2995659540249336, -0.6602128952373908, -0.2971170183177557, 0.6774904218965145, 0.7842021945485533, 0.3360939378099845, 0.6259876136209724, -0.7370057133227976, -0.05043488040137272, -0.620370076150148, -0.5501148595727375, -0.3157664709166692, 0.09257204527969799, -0.18288212940541615, 0.039219232360942324, -1.2418140354345921, -1.6289435833197494, 1.42931657405666E-5, -0.11525806761067338, -0.36637533575172154, -0.6533710872868688 ], [ 8.042863421465569, -0.24596077524145504, -0.33918977469898587, -0.08062742612331378, -0.7666332476113233, -0.22404363381908549, -3.170925053234928E-5, 2.7414744064692393E-5, -1.8850783040567284E-5, 1.6699299667346192E-5, 4.644447218789096E-5, -0.6115498261591792, -0.44117756779027684, 0.0026653411205665232, -0.7658789781141865, -0.5912978154714411, -0.403887262426483, -1.3119018636888522, -0.7001791480462246, -1.1163894210360943, -0.4106941038602918, -0.3544358112793302, 0.0995681600560207, -0.18943766951357752, 0.03279596534958529, -0.28482671188489483, -0.2607214390158909, -0.6553955577347568, -0.2531193929615321, 0.6900768989400959, 0.8143403382543986, 0.3505022429680824, 0.6611355062409754, -0.7104479639149216, -0.03829492257138921, -0.6178320531956307, -0.5441307186979295, -0.31644812461957206, 0.09179698967769848, -0.17823793848208136, 0.03540237412321739, -1.2120640306727697, -1.6425127148403236, 4.98078282328362E-6, -0.10264904956424827, -0.3817831195936661, -0.6758733604695056 ], [ -4.199201919171096, -0.3732900610197229, -0.22788011964307195, -0.4811533163209845, 0.36075014264043886, -0.4229262031484184, -1.1710279566845534E-5, 6.184897851614182E-5, 2.4078339415538663E-5, 3.439268757753413E-5, -3.6827994056640684E-5, -0.6408121952278739, -0.1221403821578632, -0.49580482749008287, 0.36123418675858926, -0.6356358998213522, 0.30774099164072444, -0.47212593053113516, -0.8268322331063691, 0.25445629178078183, 0.2599160058670222, 0.3427298904230796, 0.35739905647426684, 0.41331183232798036, 0.3291407912828984, 0.6095386685244022, -0.5778195911560429, -0.5402037837034322, -0.6081667795578481, -0.522052119784292, -0.05007456056034221, -0.022990429400446613, -0.02691813851594591, 0.3635883932977093, 0.41054526364556504, 0.3931467742547417, 0.4104184783923952, 0.36962028844821004, 0.42224264217475493, 0.4410034445416175, 0.4214616992736555, 0.15004154323197003, 0.26239783769551056, -1.3564536972124988E-5, 0.8425410129514641, -1.0432982035429286, 0.025470058263129102 ], [ -13.418377834834809, -0.13302054080105738, -0.4898021856406303, -0.6057968572906484, 1.8007364688420358, -0.800099060208181, -5.898916299073851E-5, 2.786091050459022E-5, -1.612780779373459E-5, 1.4464100105770457E-5, 3.171934236722339E-5, 0.03361972402404854, -0.045259510335818855, 0.45844126353693754, 1.8034732382018852, 0.11327835103539045, 0.7525769456364143, -0.21841401942168806, 1.0015582272084385, 1.825667086743779, 0.7188048545274314, 0.6617401418631365, -0.6349640767879998, 0.20401463170459305, -0.9667116823092992, 0.9999436460241258, 0.05088848923326401, 0.4269456035150425, -0.3523475820339377, 0.0598474251805483, -0.8037386140172877, 0.41674288535320236, -0.05457557263422358, 1.6858521318579138, 0.10139841807711499, 1.3112148099328245, 0.25592357005555394, 1.0203152491975946, -0.2390848180811498, 0.469244261849662, -0.34470113846727773, 1.9352055899017115, 1.8683420995547777, -8.466565284258704E-5, 0.9817945076231088, -0.0729344494262727, 0.18574441726684351 ], [ -11.350307034887228, 0.9677843847122076, -0.09515914692320715, -0.38838722816667065, 0.3575750518864562, 0.9572530710371177, -1.2783455727661808E-5, 6.368447301999076E-6, 4.6441447767075965E-5, 5.354116315529065E-5, 1.109750724315862E-4, 0.973587960342634, 0.14288594851355604, -0.3099799165029356, 0.34150786427591506, 0.9575863743792665, 1.0475716766356125, 1.3070278282557226, -0.08670144838080553, -0.5137236904452717, 1.0455525609525462, 0.5712975684285316, 0.3196961782211684, 0.9712224590798545, 0.32430807043324894, 0.9412663998233148, 0.7153540330367508, 0.9357254970943547, 0.681894415280771, -0.21741035827577923, -0.1409524899930726, -0.1617093535142541, -0.23578210603435648, 0.009477207516149078, -0.5877980733127477, -0.5951177270320421, -0.5941049778050977, 0.5518018881520876, 0.2744341863848963, 0.9598098823691056, 0.3243802625601976, 1.3200668023553144, 0.007646385748745924, -1.9758007835266103E-5, 0.8878657426624225, 0.09237602752795013, 0.6291495977853077 ], [ -15.465410192687763, -0.794654958908613, 0.09390719942052829, -0.6675573791082485, 2.070236941810545, -1.5164445902767263, -2.6312588797451352E-5, 4.16883458796063E-5, 2.514735148002351E-5, 6.285255958550729E-5, 1.375828570639506E-5, 0.23809262119027938, 0.39145641665027625, 0.33755828603094484, 2.074252838966448, 0.3356153355677085, 0.2186363576740106, 0.40943495848369277, 0.9694116354247584, 2.046754399425498, 0.19782694574120743, 0.5918034968831062, -0.7012099910623251, 0.24835638487576966, -1.1809647376359094, 1.2076028124313412, 0.40206613112389794, 0.6458600591567122, 0.08643876644547027, 0.08769496088221346, -0.7801324945666749, -0.012842855625070206, -0.2618611849871377, 1.931059943201285, 0.6835412317448576, 1.649927377778528, 0.7822812586869243, 1.0154320923895443, -0.18624309282775842, 0.5721477115321255, -0.35318737057401384, 2.2398036740545386, 2.0965729039489482, 2.8274298793280676E-5, 1.0642199786190536, -0.02136114912763648, 0.004450061936722073 ], [ 7.80880309513204, -0.24412436654946507, -0.3140002082318332, -0.08325346450749926, -0.7240911573766693, -0.22567942692280255, -1.1976413226199227E-4, -3.575889054283827E-5, 1.1580024752059854E-8, 1.5017006621795204E-5, -8.603258030684755E-7, -0.5541183495839821, -0.4094275269017632, -0.014885949440000148, -0.7234217693908765, -0.5369030810567901, -0.37554885751562, -1.2876122447359302, -0.6626273086956428, -1.0621379999910687, -0.3817481642894513, -0.3412554849726731, 0.09860678475079603, -0.1884202658918025, 0.04109618639941938, -0.273168949217649, -0.27190386687081475, -0.6272480753370635, -0.26616472447961603, 0.6005431715506634, 0.7190955224491872, 0.2936352508855445, 0.5863734010742784, -0.6719313031995399, -0.10995165869807322, -0.6624633494266662, -0.5922803986020875, -0.3111107550964346, 0.09025546706290266, -0.17924651978537198, 0.04373498834363977, -1.1531372907060125, -1.66330894827951, 2.2211200070497914E-5, -0.11536750484091109, -0.38387170589625136, -0.6570587474870501 ], [ 7.17004237239596, -0.2316254064415544, -0.23051474636740543, -0.0746482584797443, -0.581478056469448, -0.22013855358312032, 4.249891336636296E-5, -2.531149350506202E-5, 8.325504510813114E-5, 2.093756417666531E-5, 4.855643463077694E-5, -0.5026450040905801, -0.32457406146440787, -0.016463628563561292, -0.580842127101667, -0.492725298139618, -0.3313973178050065, -1.18037109915124, -0.5087731003911363, -0.9104240526560586, -0.33639054907928145, -0.35778209470418987, 0.007975084467203552, -0.24332023388951632, -0.017841136361172592, -0.22724950060950247, -0.267869552565199, -0.5717560119328859, -0.2618400347567943, 0.3272620373746709, 0.48798093093347555, 0.17665306834744893, 0.39642405740908526, -0.5379274963920186, -0.19851030913629497, -0.7112977442045032, -0.6467937311955767, -0.34700238433168595, 0.004233058007267538, -0.24325515477403337, -0.0203816682978315, -0.9884499846573805, -1.6289714138120552, -5.199178766085578E-6, -0.0717985750321638, -0.2838913591501718, -0.5153135560749661 ], [ -16.432377292407423, 0.6206096569945356, -1.4587846366423063, -0.24129872267137784, 2.3305449286444233, 0.5619450535386649, 8.579249627356657E-5, -4.550825919737765E-5, -2.6720522372165263E-5, 5.4087458484362494E-5, 1.8080566859051218E-5, 0.8261913253505568, -0.9787184091359538, 0.2827316225598766, 2.3325656047450076, 0.8578853156188025, 0.5964963447038925, -0.2496266272259038, 1.3328399450409876, 2.13204883105035, 0.601439301960076, 0.6675433982564488, -0.12866607067441108, 0.5692107139969993, -0.30735005695947915, 0.1712575751165565, -0.1445386354326465, 0.3604167842215451, -0.6967770323525947, 0.046793740397245945, -0.4989280018515017, 5.769229836888737E-4, -0.22036452246360208, 2.1899442212328886, 0.31261747963137226, 1.6325235574104016, 0.5958378251326988, 0.998023865830715, 0.22918753431590713, 0.8549002857920057, 0.27445405574614956, 2.5061782752695985, 1.8161462235425903, -5.083202253349582E-5, 0.897849485853771, 1.6765682159006055, 0.5078546436631253 ], [ 7.7680176234307075, -0.2628833790603327, -0.2764522653077724, -0.06133921017631534, -0.7244281650669314, -0.2457593885235082, -4.0756206052969427E-5, 1.0949213331511081E-5, 1.2638302550509605E-5, 4.187972997750138E-5, -2.8128129234032857E-5, -0.5615276783334232, -0.37435208621494304, 0.007293328622092555, -0.7238692888295609, -0.5454324735470453, -0.38781766027867365, -1.284069969049218, -0.5998937268305286, -1.0330347704247838, -0.39396033201318476, -0.35594240161008733, 0.08914641348657211, -0.21326018073314126, 0.04075825458604344, -0.2346852264833159, -0.27621089267246, -0.6076100382354946, -0.2723386240275907, 0.5702855424972527, 0.6827833658723405, 0.286619816900914, 0.5590471241055659, -0.6748845214663917, -0.06788324533277967, -0.6788853000415197, -0.6047248487729515, -0.3259057662383934, 0.0842226881945358, -0.20287837450005083, 0.04458505819117318, -1.170248032959176, -1.6435260114080605, 1.4556062687295206E-5, -0.0757602926766363, -0.33817726788457075, -0.5959443611555372 ], [ 8.0421422682811, -0.2855669133366106, -0.2597128611552775, -0.0983682063742003, -0.7112106803811646, -0.2625690235949621, -1.4303169079093135E-5, -6.0637950373676406E-5, 2.331164112622738E-5, -2.801981369843187E-5, 2.983090586166776E-5, -0.5807176669565898, -0.37580506550158127, -0.02391505536205642, -0.7106777376360045, -0.5610511605563001, -0.41601634443379415, -1.2384423342352515, -0.6772131846125319, -1.0877665754754242, -0.4225926766218671, -0.35109442128286283, 0.0861033410314774, -0.2058679701022876, 0.03566439831720134, -0.32884937257990093, -0.24030811718758888, -0.6027407381064627, -0.23281449346771044, 0.5878777131490043, 0.7812471724261005, 0.3209486104095978, 0.62060472041085, -0.6549727742443123, -0.11019780765827775, -0.6905342243571826, -0.6141026871763563, -0.31479207449406776, 0.08203606468968518, -0.19250118230754132, 0.03484445701658624, -1.216397261084294, -1.6397681456522881, -6.099245473167013E-5, -0.1589621126499732, -0.38719650226592206, -0.679292849746215 ], [ -13.509273963985036, 0.7360703096142893, -1.0836090591073713, 0.20526329825637232, 2.1030100177562057, 0.7117010968090528, -1.3383170932478955E-5, -2.5068575244493947E-5, 4.188843262889605E-5, 3.202956015336404E-5, 3.622785895673908E-5, 1.130104647406733, -1.0526954123918266, 0.558035354437019, 2.0988588537534483, 1.1569122506900387, 0.7370527553299645, 0.05910095819649781, 1.134094468550659, 1.8223729017330994, 0.7415596234777281, 0.2625839995794722, -0.6632956071787683, 0.24477999622087254, -0.8533913484814948, -0.6927691072882486, -0.4972429221084659, 0.3126700317916541, -1.438015921114957, 0.3194577910910634, -0.41599589732628317, 0.09041584996261842, -0.16283752034515972, 2.0157614373225683, -0.20461955657214034, 1.1905331488846862, 0.008326153899380434, 0.5936759556375335, -0.2586596382256108, 0.5176328460889844, -0.23904816142417004, 2.293771534240697, 1.446934621768115, 3.7310863925546614E-5, 0.5572278336914934, 2.0698466402262286, 0.6049070689873093 ], [ -0.0012359879053171277, -7.007096351580531E-4, -2.7883908511304353E-4, -7.40664197798392E-4, -7.123440894304662E-4, -7.014233352061013E-4, -8.606686578307244E-6, -3.4943310736466974E-5, 4.227181614468464E-5, -2.6817678701299494E-5, 3.3111610344596805E-5, -6.419079999258543E-4, -2.468375248421231E-4, -8.217629108627431E-4, -6.914101301981765E-4, -5.376121413604734E-4, -7.009644828725444E-4, 1.6530062395542287E-4, -3.5195726728918966E-4, 2.555419655108252E-4, -7.650720115901977E-4, -7.305287791984871E-4, -8.630416639076433E-4, -7.724410969461461E-4, -7.838599085236223E-4, -8.590378415994921E-4, -5.097142778856783E-4, -3.685042609912879E-4, -1.200730407500107E-4, -0.0010191196878693914, -0.0010650455591902526, -9.889064203864768E-4, -0.001020378063383219, -7.841060499263657E-4, -9.007948413634846E-4, -7.349381038768291E-4, -8.329899130243627E-4, -6.762212108011199E-4, -7.788774565592155E-4, -8.521858949619495E-4, -7.737415579459761E-4, -3.77445788891717E-5, -3.573765795287756E-5, -9.992897143484878E-5, 3.630193765922013E-4, 8.885156759899317E-6, -4.8770117947094803E-4 ], [ -13.51695699425793, 0.7348146711393095, -1.0790870588384727, 0.203960036787133, 2.102002792080832, 0.7106334089216294, -1.7584074553286988E-6, -7.831470235777494E-5, 3.2414424398568844E-5, -3.7435060249704494E-5, 4.340600612025425E-5, 1.1288218535252146, -1.048812848194143, 0.553225441563519, 2.0977267594673283, 1.155670221148811, 0.7381358058749745, 0.06934743000877762, 1.1366247388777715, 1.8203788893610195, 0.7424177800192351, 0.2639005966191237, -0.660867353419512, 0.2454894364349039, -0.8504289107261999, -0.6904440542587876, -0.48278626968496946, 0.3232074698288229, -1.475951822856282, 0.31284214363843144, -0.41859781969832194, 0.08910252015249841, -0.16346500716520826, 2.0148047795801673, -0.20254082088734962, 1.192512416992666, 0.010423516399011885, 0.5959215396502895, -0.25596163250452103, 0.5184622872076192, -0.2361776045715237, 2.2941191512726236, 1.4439458371640168, 7.087861086493678E-5, 0.5567069875875185, 2.0672928156425, 0.6012620538038582 ], [ -15.45671385806467, -0.7858140438641086, 0.09608523950770072, -0.667611157874415, 2.064613906418294, -1.5020459719083015, 3.402898371003146E-5, -8.69595171335552E-7, 4.935345659491619E-5, 6.0640408795706584E-5, 2.354220730198345E-5, 0.23372971126645273, 0.3927284388998188, 0.3332799485142314, 2.066898577672352, 0.3307684896302895, 0.22181123277522413, 0.40647901937902864, 0.9684936101952206, 2.042548077205855, 0.2004338344102549, 0.5894860625106434, -0.7013729947287652, 0.2460611747469576, -1.1809676115019563, 1.2051389772542567, 0.3972116767044929, 0.6437909800334851, 0.08246006195099542, 0.08050828133934618, -0.7712188064878118, -0.003118577456824934, -0.24895413602958058, 1.9235979226109812, 0.6763032870648314, 1.6416953148748838, 0.7747101565128839, 1.0119776599227408, -0.18670515859451284, 0.5697712729276155, -0.3539062923843112, 2.2350699894900146, 2.0942500797910046, 2.3784959988478296E-5, 1.0525490307923093, -0.02282371160941026, 0.002137152266672896 ], [ 7.9306419675462, -0.21599981801699544, -0.3450228054791725, -0.08082617175766144, -0.7664354720575853, -0.1943033724591365, 2.7052899642585625E-5, 6.685728749556003E-5, 1.3991659591759544E-5, 2.6134872123365652E-5, -3.719359719390653E-5, -0.5965337461132882, -0.44808024597941576, 0.0011351056731969925, -0.7656759786970655, -0.5766869782736673, -0.38046688419870545, -1.3062951086407353, -0.6971446544500725, -1.13628273451623, -0.3873373516801563, -0.3447602058201355, 0.11507455218159598, -0.17875576390601441, 0.04197641942026127, -0.31672664033159176, -0.24942539624551, -0.6586580525736443, -0.24629594684133432, 0.6956578296106726, 0.8052803824350581, 0.3439697720715614, 0.6443501610968735, -0.7082611695794035, -0.03145499997437015, -0.6074470511189577, -0.5373730132978425, -0.30987426283779906, 0.10116828283949558, -0.16996622834448072, 0.040794530855433365, -1.2131976787486798, -1.6325952598715365, -2.698845817126488E-6, -0.1468312652337551, -0.41434408942159556, -0.705756733134585 ], [ -0.3460985291035565, 0.020094389625492676, -0.011745589962720552, -0.011396730192947126, 0.022655932030838304, 0.018635393815786227, 3.6313119814705245E-5, 2.0461871338495472E-5, 8.144086494936087E-6, 7.687247449044495E-5, -3.343460711150355E-5, 0.014291863704990674, -0.011605676260443261, 0.0026208852388812398, 0.0240905235865957, 0.014543495022485793, 0.029840129415009735, 0.012566638326112455, 0.0338169407293255, 0.0501827975977115, 0.029965202300191982, 0.005144071868099188, -0.02469117954062034, -0.014403220141859671, -0.019641948764264786, 5.764264712892047E-4, 0.006880955611205447, 0.01939904784835186, -7.372293907848299E-4, 0.015182667083683814, 0.005976087755546225, 0.02206430020053459, -0.0021025406675484405, 0.020250622577916357, -0.015149547949778634, -4.292767271732655E-4, -0.014035290313163681, 0.012912548681000268, -0.0223336145915156, -0.013707065020231864, -0.014696224669573443, 0.05255260952950888, 0.046748317891535024, -1.8670520097219706E-5, 0.009620655231893668, 0.010406420373944555, 0.01888247274328633 ], [ -4.68194962825023, -0.2774749907809581, -0.2788799678593606, -0.4809751631082352, 0.37871064312114905, -0.3380789592340785, -8.607557335247625E-5, 8.624140338391047E-5, 1.4355054178109048E-5, 4.154447498522346E-5, 5.132063125346351E-5, -0.7199790594516906, -0.1283532907165378, -0.4579346772475846, 0.37934870123228254, -0.7040803618858861, 0.2845436375808664, -0.388805519944606, -0.4919617541140138, 0.28556926297690377, 0.24075198119633576, 0.37080493943681325, 0.3957445165705076, 0.4542225152270827, 0.3744150745659644, 0.7263643111508535, -0.3993504180156366, -0.3519516434879667, -0.4933633394920867, -0.4843058585951462, 0.060524489794074536, 0.03332811210859589, 0.06289550103453706, 0.3444701608814624, 0.42677047201247076, 0.4109846880562427, 0.40993196067882987, 0.38990322227006363, 0.4534910081987943, 0.48035093430960446, 0.45837347304370796, 0.2144664875560693, 0.2827089867683959, -1.3101532890048398E-5, 0.8235158376582119, -0.866348858766677, 0.21610382420196583 ], [ -0.0015553150303792504, -8.323715438640944E-4, -5.644087599037925E-4, -3.500797074907619E-5, -6.562982008288249E-4, -8.633605358860654E-4, -1.80571529597055E-5, -6.734986240810234E-5, 6.288024790183209E-5, -7.682307235265578E-6, 3.363386643969975E-5, 2.798209351064694E-4, -6.309557438202748E-4, -2.9250420130746643E-4, -7.997739793313072E-4, 2.430684497837836E-4, -9.62772102872023E-4, -4.639875364526621E-4, 6.802752064909829E-6, 1.3385315740698146E-4, -9.994235165219194E-4, -2.741650357583055E-4, -6.492573535683583E-4, -8.640460244127087E-4, -8.001053910323092E-4, -8.103352886996863E-4, -8.81208503114106E-4, -6.526617124411145E-4, -7.927439342330632E-4, -3.895052405580485E-4, -5.594851620170148E-4, -4.7679474967459714E-4, -4.876164490307484E-4, -6.721798952662895E-4, -7.635964053970529E-4, -9.280611408284786E-4, -0.0010203457043356109, -1.0996050059630555E-4, -5.768659533080067E-4, -7.586573097976637E-4, -6.879702457724165E-4, 2.5537298247073424E-4, -3.930592471492079E-5, -2.9357886266684238E-5, -3.405206433598584E-4, -5.202930445933108E-4, -1.868157536031499E-4 ], [ 8.099299213591863, -0.25439279464097436, -0.3682628290270796, -0.08462375001819332, -0.7634716090846476, -0.23302452589803707, 3.431805913819411E-5, 5.663114886116763E-6, 1.8605489402153683E-5, -2.1303652935756722E-7, 1.8518760549539801E-6, -0.6125662343108015, -0.4683665096844747, -0.003290318708090525, -0.7626909305921195, -0.5925900381506702, -0.40095904851890557, -1.2978380205190938, -0.7094112845711091, -1.1351916575252072, -0.40741313464083334, -0.3538804640707428, 0.09768187469329559, -0.18495192891410675, 0.033335223980575694, -0.29969262431144544, -0.2952483074901941, -0.6855231190526833, -0.2878264803559818, 0.687419874082023, 0.8114148261436439, 0.34931709296526764, 0.6644154647699438, -0.7074877829977739, -0.12048510556652776, -0.6719399547951972, -0.6001584917012494, -0.31837866277798155, 0.09087673074817063, -0.1732205360806686, 0.036487675205143205, -1.2236961658063246, -1.6825348666738518, 8.053785668774095E-5, -0.09235051780379146, -0.387517648972086, -0.6881135846005302 ], [ 7.860687966799264, -0.22617709800349134, -0.3062636711452705, -0.08073464555181559, -0.7451584540319999, -0.20522490624016157, -2.280916693841957E-5, -3.864578774089772E-6, -2.669924331749358E-5, -2.15666598853509E-5, 4.851472383977498E-5, -0.5804567481035567, -0.4169139437401497, -3.5251353262792423E-4, -0.744468134964619, -0.5612821847511967, -0.38005613021744045, -1.3438626051565923, -0.6631483699362749, -1.0815437326550028, -0.38672416326287085, -0.337894621199475, 0.1235764163023198, -0.18352521059482704, 0.06021676124115603, -0.28387949755168457, -0.24654473398432888, -0.6566675466590207, -0.24578866252014667, 0.6591793092902094, 0.765107943821509, 0.3214808687902317, 0.6123258054835072, -0.6908370950474708, -0.06551153045781351, -0.6431282581686346, -0.572898816452311, -0.3058702803264849, 0.11009808183654209, -0.1755923943436983, 0.05742036658411155, -1.1843367257479622, -1.6194055579474338, -2.5129327859451034E-5, -0.11997016641133369, -0.40439327947864545, -0.6971374126665846 ], [ 5.412631016018805, -0.21784756897635554, -0.30539442084570256, -0.09506439857462877, -0.4783237150016906, -0.20656753593456378, -7.625809792780879E-6, -1.5594193470513248E-4, -3.5402050454338846E-6, -1.6520343359534128E-5, -9.297940114171797E-5, -0.4328265162450947, -0.32002703132389176, -0.045446119753669474, -0.4778038678482674, -0.42448610234686895, -0.28751071996748356, -0.9797608290466633, -0.45032290684352055, -0.7505330244278121, -0.2912575616242234, -0.2955744909075527, -0.06684114818618422, -0.19325474161131062, -0.0984706674349489, -0.17352321267338808, -0.26001532739225147, -0.4600340786407414, -0.25074107431739173, 0.21878340663974655, 0.338374233109696, 0.09516926309326808, 0.25961207205788983, -0.4408989191893823, -0.20481766857487735, -0.5739842701665795, -0.5195409957999235, -0.29360358043000095, -0.08224603206537541, -0.19906136589566364, -0.11350594138708736, -0.7822482872566121, -1.1751944414180497, -1.8577298083856425E-5, -0.15161527552907822, -0.2956415359199189, -0.42383469782978705 ] ], [ [ 21.20818119006466, -1.1724051022628847, -1.7387318786981583, 0.4962455629922153, 0.3525693373517974, 0.5272808927051559, 0.5854621863429521, -1.0394136341501106, -3.22917862614858, -1.0214808216596496, 0.2954328570357084, -1.1659294720936515, -1.1564308806616683, -0.9089499515742224, -0.9033034701180419, 0.5232645523007584, -1.0667513585143233, -1.179999806971419, -1.0331989021283414, -0.8090482319356331, -1.1921389039979058, 0.5802745515893094, -0.5165022431791115, -2.8325581127266863, 0.581478095679542, 0.4628870696712626, 0.5647279056067798, -0.9064083544262245, -1.8610949890078334, -1.1440771993658694, -1.0221496699361199, 0.4188115605674513, 0.17016385446344467, -0.4011658146058528, 0.41588860783122206, 0.5970902940160216, -1.4746160578271568, -2.8616421308178612, -1.412030114178524, -1.0082132803132038, 0.5623718798197229, -2.571790966885494, -0.8868307868330877, -2.8616552292994406, 0.5180072068685222, 0.4982337142743991, -0.4887319917307556 ] ], [ [ 85.40572071286306, 1.0105865396092193 ] ] ]
}