{
  "config" : {
    "algorithm" : "ListNet",
    "numIterations" : 1000,
    "batchSize" : 0,
    "verbose" : true,
    "nomodel" : false,
    "params" : {
      "regularization" : {
        "rate" : 0.01,
        "regularizer" : "L2"
      },
      "layers" : [ {
        "activator" : "ReLu",
        "num" : 46
      }, {
        "activator" : "Sigmoid",
        "num" : 1
      } ],
      "optimizer" : "adam",
      "learningRate" : 0.075,
      "weightInit" : "xavier"
    },
    "dataSet" : {
      "training" : "../../../MQ2008/Fold5/train.txt",
      "validation" : "../../../MQ2008/Fold5/vali.txt",
      "test" : "../../../MQ2008/Fold5/test.txt"
    },
    "model" : {
      "format" : "json",
      "file" : "../../../MQ2008/Fold5/models/ltr4l_252.json"
    },
    "evaluation" : {
      "evaluator" : "NDCG",
      "params" : {
        "k" : 10
      }
    },
    "report" : {
      "format" : "csv",
      "file" : "../../../MQ2008/Fold5/reports/ltr4l-report_252.csv"
    }
  },
  "weights" : [ [ [ -4.987719246652863E-154, -1.8605197687069982E-154, -1.1362004004791149E-154, -9.108386269365479E-155, 2.4621047588363918E-155, -1.866738170458371E-154, 3.782594695337651E-157, -6.667630023895929E-157, -5.697212937463795E-158, -4.82814501271049E-158, -2.5100083972779164E-157, -2.158182022323202E-154, -1.093839845832019E-154, -8.228861436839698E-155, 2.0346158657064215E-155, -2.1686752017017926E-154, -1.7928676383789056E-154, -2.79081714931803E-154, -1.6380341163381602E-154, -1.4164277856991767E-154, -1.7952455238260708E-154, -3.158188045401488E-154, -2.9572712024669014E-154, -3.0421406770601E-154, -3.039267808586878E-154, -4.755161324501773E-155, 7.413628187903942E-155, 4.575870963775641E-155, 7.337092729317582E-155, -9.507864188788044E-155, -1.2731969940626328E-154, -1.0029306508387123E-154, -1.3069390011352831E-154, 1.2778637720116826E-155, 1.0264503406401102E-154, 1.0276245931479309E-154, 1.0280503839431939E-154, -3.28204108689648E-154, -3.114603026916441E-154, -3.169290268837256E-154, -3.181359447002794E-154, -1.1977218214895593E-154, -1.420406460694123E-154, 1.4599735514563945E-158, -2.1549780649968705E-154, -3.138631317871643E-154, -2.5744379342562852E-154 ], [ -2.5130318613128E-154, -3.307353001965233E-154, -3.536731867503364E-154, -1.6605288976689886E-154, -2.072261841092578E-154, -3.303229970190756E-154, 3.612341803934847E-157, 6.239703191323809E-157, -9.326605579551826E-158, 9.256480179441154E-158, -1.4370060145849177E-158, -3.251916684866001E-154, -3.521796366947613E-154, -1.8920450571879582E-154, -2.070276155155195E-154, -3.2517139289106426E-154, -3.162262629631538E-154, -4.32884041111647E-154, -5.768486505879194E-154, 1.0258048387339513E-154, -3.162542547087353E-154, -3.161275167760583E-154, -3.083157838381826E-154, -2.9414462974920362E-154, -3.1386382741476035E-154, -3.716067366656949E-154, -3.6316152697272716E-154, -3.770072889245267E-154, -3.514307175552436E-154, -1.8393257645341063E-154, -2.9142699952272267E-154, -2.945516889724866E-154, -2.9071770397982148E-154, -2.3028776894547393E-154, -3.0418925249589765E-154, -3.021842564667479E-154, -3.0471174032998823E-154, -3.182834539258908E-154, -3.05569079279221E-154, -2.9494745416037215E-154, -3.1042830073458915E-154, -1.2323508398734801E-155, 8.239861054946014E-155, -8.067552113700315E-158, -1.5412384396918124E-154, -3.414286995670317E-154, -4.6866243026959916E-154 ], [ -1.6653613508891086E-153, -7.391561263547366E-154, -2.648315897571796E-154, -4.794620485021852E-153, -2.1279965680598554E-153, -7.652690720021502E-154, 4.7160247834806854E-157, -2.803062097809892E-157, 1.2493589145215671E-157, -3.0010219389813885E-157, 1.8646043895598447E-158, -3.983553029747006E-153, -2.2290080464350886E-155, -2.656541201325049E-153, -2.1795224490026285E-153, -3.890668659553214E-153, -6.047866656432363E-153, -4.721189435160219E-153, -3.6294097199864987E-153, -4.5971296054675244E-153, -6.132482219607248E-153, -2.8672424387240735E-153, -3.449838086168487E-153, -3.212307827905533E-153, -3.2004240858125813E-153, 1.3266867481533987E-153, 1.1541812574351254E-153, -2.961018710729503E-154, 9.806146665643283E-154, -2.676874887732754E-153, -1.6759209275099668E-153, -3.6926258515452134E-154, -9.827507706838219E-154, -2.3374815435299152E-153, -2.5541352247618744E-153, -2.5588434939127656E-153, -2.4994991694626995E-153, -2.94397413008432E-153, -3.511856465066312E-153, -3.1119390238300484E-153, -3.3720913531484275E-153, -2.950733601242637E-153, -4.606353061573187E-153, 2.8145385044794154E-157, -2.828862056508488E-153, 1.1629245041779278E-153, 1.8891227291665037E-155 ], [ -7.905806284665299E-151, -3.336120901639879E-151, -4.176671341882938E-151, -2.383315204316779E-151, -2.9081218795240226E-151, -3.5813939855947865E-151, -1.8804293297360557E-157, 1.3806931658965174E-157, 3.0392070894732423E-157, -8.831559270019638E-157, -1.8312724103341493E-157, -3.1920111891314864E-151, -4.1021938174938445E-151, -2.8987144529525686E-151, -2.7669704277586642E-151, -3.218315574892141E-151, -2.2025603278088163E-151, -2.73895948935162E-151, -1.117268240854795E-151, -4.96451303712164E-152, -2.067012912317274E-151, -3.1864866940875407E-151, -3.351294026103011E-151, -3.912591154477806E-151, -3.363756766618631E-151, -3.8572178892216564E-151, -3.9308584664884886E-151, -4.01835737922908E-151, -4.001858605495278E-151, -2.646038947931192E-151, -1.9829681608893064E-151, -1.1702078271534614E-151, -2.0328352896254186E-151, -2.868550469434566E-151, 3.8473345310177695E-151, 3.8883950221095636E-151, 3.834844251310388E-151, -3.0331604121517327E-151, -3.383862728437809E-151, -3.936099858689467E-151, -3.374484701720699E-151, -5.273505120101222E-152, -4.839586682550137E-152, -5.008973723219084E-157, -3.1442565536811326E-151, -3.6196218637617956E-151, -2.592183183538099E-151 ], [ 4.014742958221595, 0.033873270569969735, 0.11997730746100536, 0.1314021301476878, 0.038091956595784356, 0.03795036034765688, 3.789275604324179E-157, -3.1960637627716983E-157, 2.538322954718866E-157, 2.0032229934900748E-157, -2.245391542430695E-157, 0.05817804154714977, 0.12399634314491945, 0.1371106519003535, 0.03839146537379489, 0.06186924737318215, -0.015298009500762018, 0.01239573746481902, -0.026660716088327714, -0.11803739777605281, -0.015458071194461156, 0.20127099716675498, 0.19992002206407908, 0.2343184697146104, 0.19376055227586064, 0.12024841799716757, 0.10674203322707328, 0.10926650657575987, 0.10843416624834408, 0.12775188021260045, 0.12112077071021857, 0.11234551600158475, 0.12499188984065335, 0.048940972371974874, 0.04315752856081009, 0.039838556582281595, 0.04462468641427187, 0.20141119796210777, 0.2074493445407243, 0.24051942580433447, 0.19925471385891785, -0.12962702568481538, -0.11000028295391201, 2.335329536577476E-157, 0.015387549684340522, 0.019237524711343355, -0.003023563864776019 ], [ -4.949251982839762E-153, -1.6995894699859717E-153, -3.566610750119579E-153, -1.9616828362997698E-153, -2.052889014800087E-153, -1.757478910302656E-153, -3.1461903688667715E-157, 3.437299042725842E-158, -2.0285267249272465E-157, 5.095417698126121E-158, -4.302070832152275E-157, -4.904029507172249E-153, -3.38795533148287E-153, -2.2806625354870458E-153, -2.429213180470199E-153, -5.275794920261506E-153, -2.561479416535799E-154, 2.732790602338452E-153, -1.2972798060155985E-153, 1.0816579095351241E-153, -2.2962057859524086E-154, -2.2692939631236562E-153, -2.1421888833740723E-153, -2.3116437313495602E-153, -2.078267429114912E-153, -2.269639108990624E-153, -3.2427117131391715E-153, -2.3561895604738694E-153, -3.234323874024611E-153, -1.7035060515072318E-153, -1.945684049598722E-153, -2.021666889512855E-153, -1.9342176530762475E-153, -2.09884001388671E-153, -1.0978792599655784E-153, -3.736088750917501E-153, -1.2235854986885206E-153, -2.294327623598272E-153, -2.5621625524991076E-153, -2.419145176750573E-153, -2.3750205564308002E-153, 6.778289420112101E-154, 1.9648468305032502E-154, 9.948188748543903E-158, -3.136069189531301E-154, 9.558941743348371E-154, 5.227480466843233E-154 ], [ -1.1448041620565551E-151, -1.2951801540673035E-152, -5.290456843219944E-152, -1.01434225724155E-151, -9.199542277973083E-152, -2.0075181492277213E-152, -2.088955967492157E-158, 5.261947748364881E-158, -4.6407904461234843E-157, -1.738290423502358E-157, -8.103494202290761E-157, 1.5964987183008862E-152, -6.549308643424598E-152, -1.195246117263761E-151, -7.143059148522262E-152, 1.8405654527648105E-152, -4.69702661646742E-152, -4.127054782208382E-152, 3.5376578736299975E-152, -3.455135233509903E-152, -4.699159301823236E-152, 2.5677508531290635E-153, -3.652896783890716E-152, -7.581869832025433E-153, -3.6820735674351404E-152, -7.060994362033029E-152, -1.61923686258474E-152, -6.528366638171651E-152, -5.806780529229707E-152, -9.80774865304344E-152, -5.778014935284948E-152, -1.846121290276708E-152, -5.261593853198892E-152, -6.412425546520687E-152, -5.545168770909668E-152, -5.285411848467001E-152, -5.588685874341097E-152, -1.3792853840023876E-152, -4.858527730442057E-152, -4.766645581611967E-152, -5.495857016770683E-152, -3.7477651435004206E-152, -2.5310784298778012E-152, -4.040985474718395E-158, -3.1489294062384766E-152, -2.186626765247669E-152, 5.410294971244592E-152 ], [ -2.4219195598651434E-151, -7.421740660260516E-151, -1.1178592108664903E-150, -5.935704495015822E-154, -7.369213711913593E-151, -7.572072237889598E-151, 1.9406432912217817E-158, -4.005174678629223E-158, 3.3868687233169364E-157, 5.746803443837738E-157, 4.0474950603611844E-157, -8.478461331152522E-151, -9.133528908664336E-151, -3.0551207386529266E-154, -8.264997662194056E-151, -9.680588450149334E-151, -7.722016939179247E-151, -5.36065133335775E-152, -1.1738033788084396E-150, -4.327544709323438E-151, -7.731570409228553E-151, 4.264270097399426E-151, -3.878647766537893E-152, -6.847776350524812E-151, 1.756068249998229E-151, -2.929629488207244E-151, -7.300559641783766E-151, -1.1584033482185826E-150, -8.644035422959009E-151, 6.603569351443592E-154, 4.794724410785363E-154, -1.0245567637811463E-157, -1.6466940103812567E-153, -8.640618069844481E-151, -1.0195439898311014E-150, -9.336003701335153E-151, -9.862768721573774E-151, 3.973011841061377E-151, -1.6757881409680163E-151, -6.195723141699044E-151, -7.491898584412222E-152, -8.51789363332738E-151, -9.631558066827301E-151, -4.773096107477437E-158, -7.408464532387938E-151, 4.626796572690254E-151, -1.699858310336775E-150 ], [ -5.725350013644239E-152, 2.1903918518131442E-153, -3.549172603778043E-154, -4.77582423403728E-153, 2.1279424078458258E-153, 2.2045023657598985E-153, -7.817352906407374E-157, 1.6647724432517873E-157, 6.461700280287994E-157, -4.909287863000803E-157, 5.745274276491727E-158, -4.50919367552375E-154, -3.4462610510819905E-154, -4.929053026064142E-153, 2.1410728206033898E-153, -2.683133980629631E-154, 4.1352943812086224E-153, -4.02964888762611E-154, -2.6160203158226037E-153, 3.377487801953105E-153, 4.1397759475863994E-153, -4.860330789183732E-154, -9.464163609311101E-154, -2.1930796630096295E-154, -4.0378083441997536E-154, -2.1503539019778855E-154, -2.8908552751020052E-154, -2.8585734587130984E-154, -2.9257768781345843E-154, -3.7424714346770695E-153, -1.5803846376921146E-153, -2.1867882802165012E-153, -1.4719211329415343E-153, 1.9388302464262823E-153, 2.2423577540654706E-153, 2.2815640205913412E-153, 2.2252908559770407E-153, -6.98540815285997E-154, -9.553229665761612E-154, -2.318803337954589E-154, -4.371783834365405E-154, 4.2896584061187765E-153, 3.3710360986511244E-153, 2.2956463663996088E-157, -2.256357034772214E-154, -1.4738039865421866E-153, -1.1893284940270314E-153 ], [ -8.383624269929462E-154, -2.1225354093988157E-154, -2.7642576257051862E-154, 1.5312080999450305E-154, -1.9309760646841425E-154, -2.1508106990330785E-154, -2.470717224000275E-157, -2.7786172631880687E-158, -6.96767400887341E-157, 1.7911606289129108E-157, 2.0379497421468557E-157, -4.6364641021114034E-154, -3.01906151180815E-154, -1.1721827653563535E-154, -2.0792208664761553E-154, -4.5983553126747456E-154, -4.210688941940695E-155, -2.145055116201689E-154, 7.206434384330635E-155, 2.9316357609684176E-154, -4.206465256387105E-155, -3.847731012367142E-154, -3.145807429219716E-154, -3.955815070919407E-154, -2.9187372453558133E-154, -3.73891327374245E-154, -3.907618520394059E-154, -1.4142446178538164E-154, -1.8819057596903962E-154, -1.5729554104770644E-154, -3.941415383120196E-155, -7.074984099896801E-155, -1.6769414868294295E-156, -2.1277238204327795E-154, -3.1401481279322877E-154, -3.1660120942828544E-154, -3.131248015924595E-154, -3.7557920051526774E-154, -3.213843619181628E-154, -3.9797330813329574E-154, -2.969075021092955E-154, 1.927236149372792E-154, 2.3242492932234834E-154, -2.7083218737366954E-157, -1.1452868839225133E-154, -2.2143638465352172E-154, -1.4414515722135986E-154 ], [ 7.583177513045976E-152, -6.817126480547192E-151, -2.097425660656828E-152, 9.979615172740767E-153, 3.4921389323165915E-152, -6.911849370937718E-151, 1.9769102396733083E-157, -7.851593667946021E-157, -1.2363819207019754E-157, 3.9186072035843316E-158, 2.2803344334134695E-157, -9.579698466834365E-151, -2.5969286116691783E-152, -4.258534160321003E-152, 8.3392702496864E-152, -9.688280613542654E-151, -5.257409034384896E-151, -5.82138258471771E-151, -6.16238247990623E-151, -1.1386009559931752E-150, -4.660267497802486E-151, -1.0125500613127462E-150, -1.2892939624371832E-150, -9.709021440560812E-151, -5.6269072385240364E-151, -3.320071783952868E-152, -9.603263566061068E-153, -8.14665604897072E-153, -4.7281557758286404E-153, -4.880792382055251E-152, -3.122634646610297E-152, -4.168841884374814E-152, -3.0264392548430997E-152, 4.719326732240043E-152, -7.6149597063178294E-152, 1.142669251936812E-151, -2.702150646279345E-152, -7.745018483709082E-151, -9.806952180598889E-151, -9.81898676291289E-151, -3.3977315627868574E-151, -9.704034760178594E-151, -1.1685114681290986E-150, 1.1299232219440487E-157, -1.4183306431781806E-151, -6.972472514211766E-151, -4.78436055458569E-151 ], [ -4.69635111520596E-154, -2.107592505677377E-154, -9.710905920873873E-155, -7.71470277445351E-155, 1.992498626099068E-155, -2.1169892306493228E-154, 3.596774892553611E-157, 3.451642592909411E-157, 1.9052499726659825E-157, 7.540941749582733E-157, 1.0280020469352622E-157, -2.221001966877198E-154, -9.372762280551497E-155, -6.875473582832632E-155, 1.530721576311036E-155, -2.238159462574899E-154, -2.0544281838106252E-154, -2.9158542394231838E-154, -1.7638776702093455E-154, -1.7188427267813397E-154, -2.050875917874436E-154, -3.104046399382637E-154, -2.9279821476740842E-154, -2.994041631900492E-154, -2.9990556167389127E-154, -3.957416823317297E-155, 6.226894141471234E-155, 3.7180490214438735E-155, 6.102278064199528E-155, -8.085903839839759E-155, -1.1021861912677056E-154, -8.508538011785363E-155, -1.1348003673480102E-154, 1.0149860147892663E-155, 8.788953799070042E-155, 8.745399048672417E-155, 8.788545141064874E-155, -3.203215053703819E-154, -3.063960316432992E-154, -3.111324070169483E-154, -3.114472096291948E-154, -1.620428932202563E-154, -1.8781756676978187E-154, 7.990615623516774E-158, -2.9232849187736194E-154, -3.0943495954502935E-154, -2.613748193027482E-154 ], [ -1.5983556020405573E-154, 1.115412753524951E-155, -3.273507682708923E-155, -2.4539636591614767E-155, 4.989131092921363E-156, 9.800411618205104E-156, -2.842601364519868E-157, -2.4524653923481206E-158, 5.0856844380591455E-157, -1.9078637962528957E-157, 6.482667091736824E-157, 1.057155574279374E-155, -3.1529980898735308E-155, -2.082408381624316E-155, 3.8181710951791503E-156, 1.0187942715784732E-155, 1.0472773073737842E-155, -4.208013388616197E-155, -5.6952845849358936E-157, 2.1176672122651943E-155, 9.740793567472599E-156, -1.4147746050280793E-155, -5.470657740025416E-156, -8.916786110020161E-156, -8.727956225111464E-156, -1.0177238267171847E-155, 1.896987546762065E-155, 1.0559059785616816E-155, 1.7769910759949964E-155, -2.620408590646815E-155, -3.933447741731373E-155, -2.76930748230055E-155, -4.071112407319886E-155, 2.478562497856973E-156, 2.8867678510990276E-155, 2.9038438348981443E-155, 2.8434125100654326E-155, -2.00004206958278E-155, -1.2438610033844446E-155, -1.429644622581202E-155, -1.4832612210193665E-155, 3.1905097112159934E-155, 7.182529491534084E-156, 3.6938694193048724E-157, -5.481600909808741E-155, -4.8121648147310525E-155, 7.726073058968045E-156 ], [ -3.230990892729365E-153, -2.814452553242485E-153, -3.3479206341098826E-154, -4.883100694285576E-153, -2.188476101807511E-153, -2.831600936535134E-153, 1.919181252747152E-157, -3.714307083145433E-157, 9.219399053282213E-158, 2.928633396584514E-157, 1.5966014526486696E-158, -2.8288328226851346E-153, -3.313409914765148E-154, -2.1105520356860644E-153, -2.0685960822011183E-153, -2.863601329344946E-153, -1.6422020008688492E-153, -2.696452644347681E-153, 1.4998768400244796E-153, -2.2116663338948053E-153, -1.6350118550003677E-153, -2.9680122213809936E-153, -2.95591117903375E-153, -2.987378961200209E-153, -2.963428145368815E-153, -6.063173255125243E-154, 5.748632290806638E-155, 3.354962991965772E-155, 8.697761934719193E-156, -9.848604394074445E-153, -1.1129312279957677E-152, 1.7695702838190336E-153, -1.104190684558569E-152, -2.0965475766668459E-153, 2.8970096685544924E-153, 2.975555388108017E-153, 2.8990952505523964E-153, -2.977457437205172E-153, -3.002809554407227E-153, -3.028853569611623E-153, -2.970803923224829E-153, -2.4144763944621834E-153, -2.1689288883669824E-153, 9.494249202682909E-158, -2.8475617440649447E-153, -3.0093810296911947E-153, -1.755035730789192E-153 ], [ -7.849252353996186E-155, -4.978951167955388E-154, -1.7137041185549662E-154, -1.5380191857613617E-154, -1.384412701802292E-154, -4.9932809481417516E-154, 4.214419348984837E-158, -1.1587366796172109E-157, -7.755021222893963E-158, 7.934691377892937E-158, 5.004317130253445E-157, -4.723989409039136E-154, -1.7957904246857384E-154, -2.0869641987937226E-154, -1.4199893665794064E-154, -4.636531643272983E-154, -4.91176185875292E-154, -3.16052752987084E-154, -2.0227478226669998E-154, -2.944251176286892E-154, -4.929400070768273E-154, -4.661606674564344E-154, -4.554866285251327E-154, -4.511565349863695E-154, -4.5709247645899425E-154, -1.6013985673965848E-154, -2.0130584435138282E-154, -1.8816072332657715E-154, -2.0862144849601475E-154, -1.8634157946734678E-154, -2.2892961894216295E-154, -2.1674980866101088E-154, -2.3190978708944285E-154, -1.3209402801306056E-154, -1.481122810427962E-154, -1.5223004776716627E-154, -1.4384838390737733E-154, -4.61411748195341E-154, -4.529515710991335E-154, -4.491266028720634E-154, -4.539746497291543E-154, -2.791936956891582E-154, -2.4130458787590576E-154, -4.6748577976959306E-158, -2.0509615916675354E-154, -2.1654700432296393E-154, -2.9465104630880013E-154 ], [ -2.8784389298530355E-151, -5.360993047193822E-153, -1.6368836970552598E-152, -2.094888892308556E-152, -3.4798056714445563E-152, -5.54530013424696E-153, -2.3611253036477975E-157, 9.929121354944889E-157, -5.224198668824915E-157, -4.82534363753552E-157, 4.663433579147317E-158, -1.5832267373327923E-152, -1.6695837435353977E-152, -1.8457843953245543E-152, -3.344220741787573E-152, -1.5852517262382864E-152, -1.0793496210292727E-152, -3.4209600382709372E-152, 1.2111018570206493E-151, -2.846705368763716E-152, -1.0967837048670769E-152, -1.6130500962950726E-152, -1.7724960730195403E-152, -1.7509775707486271E-152, -1.7705711866301614E-152, -4.901726302660942E-153, -1.368942815153704E-152, -1.736302769508393E-152, -1.4943651561708498E-152, -2.0728407230747874E-152, -1.0732722300800464E-152, -8.155777379655653E-153, -1.0764921951694146E-152, -3.232540701872146E-152, -1.5714350801383517E-153, -1.4519169593809406E-153, -7.276264538731077E-154, -1.6373648661117101E-152, -1.788462859781446E-152, -1.7276497126963181E-152, -1.8449699224066905E-152, -2.8187346880174233E-152, -3.0426768978538904E-152, 1.611863819013854E-157, -2.602444073808681E-152, -6.245435615795922E-152, 1.5514095384316965E-152 ], [ -1.4429181779142833E-154, 8.732701160534208E-156, -2.7726552241879914E-155, -1.9741352860149626E-155, 3.9730896409196783E-156, 8.534314232629087E-156, 8.70976126414296E-157, -1.2937706580677783E-158, -6.854646490672975E-158, 1.4290365760643569E-157, 4.253129058322345E-157, 8.601421132593561E-156, -2.5980520264268255E-155, -1.7494829319537149E-155, 3.4261727289479093E-156, 8.049862631118074E-156, 8.499067860814365E-156, -3.463533039213361E-155, -1.254139050390851E-156, 1.7593723499794008E-155, 8.912287014017273E-156, -1.207317483436148E-155, -4.801118220595141E-156, -6.960241603778056E-156, -6.907471768478396E-156, -9.302317838566125E-156, 1.5611608996865235E-155, 8.944161042065117E-156, 1.474321740235138E-155, -2.1254763509152785E-155, -3.34366141145463E-155, -2.3294705226813065E-155, -3.3714970109949465E-155, 1.9163261265601683E-156, 2.3622449982746468E-155, 2.3975758002550444E-155, 2.396181012650346E-155, -1.7569098918245286E-155, -9.932434364413542E-156, -1.169596886303059E-155, -1.2592257272042795E-155, 2.642497601813659E-155, 6.202821237034168E-156, -5.246951640726547E-158, -4.694254177707394E-155, -3.9859097964675255E-155, 6.381998260324825E-156 ], [ -1.3380653379980464E-154, 8.066451836382867E-156, -2.458279076065638E-155, -1.8187815394685724E-155, 3.8129288071441285E-156, 6.405739531636593E-156, -4.634834383806108E-158, -2.3881933916161418E-157, -2.655074206056426E-157, 2.1313068434881924E-158, -4.681961521871667E-157, 7.954725215206079E-156, -2.2693275339746207E-155, -1.559364250459583E-155, 3.1061733355079463E-156, 7.75162919667585E-156, 6.951952012728913E-156, -3.1102435391874405E-155, -1.3305678380477564E-156, 1.5347339898906707E-155, 7.094165268870073E-156, -1.0305208595945087E-155, -3.741914918763365E-156, -5.828978853888372E-156, -6.135819782531271E-156, -7.820676715679514E-156, 1.2936591123881291E-155, 7.456871807717027E-156, 1.3692330153126822E-155, -1.9163162394734197E-155, -2.9173487028568425E-155, -2.0516526238975817E-155, -2.9885022788070872E-155, 1.725070999194851E-156, 2.040046705648749E-155, 2.0773894273401276E-155, 2.1141125140752508E-155, -1.5169054826884623E-155, -8.258601302222873E-156, -1.1073741939737018E-155, -1.1265627740958601E-155, 2.2905319310657633E-155, 5.685900293802096E-156, 3.5444902083341314E-157, -4.15242721750382E-155, -3.5162020855630927E-155, 5.672635357890043E-156 ], [ -1.973228583894972E-155, 2.3403977695340367E-154, -4.22789351247375E-155, -4.1492773938141056E-154, -4.627880144134455E-154, 2.5271848036493707E-154, 1.0121105591426422E-157, -6.34845644669256E-158, 1.0744276965659504E-157, -3.2204691463112196E-157, -1.3521234421793304E-157, -6.1707215444042726E-155, -1.0018801170519189E-154, -4.4119627729482907E-154, -4.6306935907271996E-154, -7.940264183342754E-155, -1.5104330829407403E-154, -1.2803765027503713E-154, -9.443335779561474E-154, -4.2424839407596746E-154, -1.5693904759662293E-154, -7.836115858648899E-156, -2.4831603580588743E-154, -2.6983114743445465E-155, -1.592178797257512E-154, -3.783005531242239E-154, -2.2845381850676502E-154, -3.843707566503533E-154, -9.81026689145948E-155, -4.619214273085682E-154, -4.35484621861552E-154, -5.13476593970402E-154, -3.7282450935539886E-154, -4.28914338583825E-154, -3.837419552121035E-154, -4.583644113241603E-154, -3.6844110484183206E-154, -9.772350978017523E-156, -2.3778866673360326E-154, -4.313050731494196E-155, -1.52912740001417E-154, -4.904931578535412E-154, -4.4236944694754464E-154, -1.3178159002475716E-157, -3.096057957081845E-154, -6.945394594464179E-155, -2.8846682148232842E-154 ], [ -7.028641339132594E-155, -4.3710123701564894E-154, -1.4343089272692743E-154, -1.5082476796777272E-154, -1.4916181370993346E-154, -4.393261557083925E-154, 4.4639712857761044E-157, 1.0580631683205935E-157, -1.7886442125371996E-157, -1.385646503962946E-157, -1.4879729941871213E-157, -4.7263935727331005E-154, -1.397422855679693E-154, -2.0329473146362648E-154, -1.417086773008337E-154, -4.7217702740165705E-154, -4.3767774742007577E-154, -2.9346640867478493E-154, -2.209009200195963E-154, -3.482739974955354E-154, -4.396938903188931E-154, -4.782242494945621E-154, -4.743461701548417E-154, -4.6301041260283566E-154, -4.724745081612944E-154, -1.3734705916965854E-154, -1.4930241700997442E-154, -1.4787234145426838E-154, -1.555821952709195E-154, -1.6016616301879914E-154, -2.2586342527327164E-154, -1.994799547392636E-154, -2.4340089689168494E-154, -1.2288165594423616E-154, -1.284652353919814E-154, -1.4127681821827961E-154, -1.2012426208482634E-154, -4.750497986844529E-154, -4.7027908472065726E-154, -4.6041582994572507E-154, -4.695224965088312E-154, -3.187926441404451E-154, -3.6500854753403684E-154, 5.204111154950732E-157, -1.7652498181297136E-154, -2.004107702319971E-154, -2.987511085265511E-154 ], [ -5.06736826222113E-154, -1.559926422317908E-154, -1.184287228753585E-154, -9.580804623373362E-155, 2.6730258009213944E-155, -1.5644448507974132E-154, 5.518642402063415E-158, -4.642805663777331E-158, 1.101176281388597E-157, -7.366637846772204E-158, -1.9477737140659647E-157, -2.0824430450071648E-154, -1.1361569814586487E-154, -8.672090282450847E-155, 2.1702422280102636E-155, -2.106107062360445E-154, -1.4312140903307318E-154, -2.5334691760684874E-154, -9.687754836564515E-155, -8.965281760723532E-155, -1.4294739389608541E-154, -3.17583654168489E-154, -2.9636844124155337E-154, -3.0574718055029986E-154, -3.056953493975953E-154, -5.074452815936384E-155, 7.762466563210666E-155, 4.8832669943481706E-155, 7.741763588702755E-155, -9.925370817943573E-155, -1.3223386356541862E-154, -1.0485196702952713E-154, -1.3574177475258749E-154, 1.361695653533522E-155, 1.0710123273719836E-154, 1.0764170554875743E-154, 1.0746047123999613E-154, -3.300417124483809E-154, -3.135005687101285E-154, -3.187527669717202E-154, -3.19753319043661E-154, -6.224331391991321E-155, -7.442374852054266E-155, -4.1134024716503366E-157, -1.3947162360610797E-154, -3.107755317312469E-154, -2.5614211966544888E-154 ], [ -2.7982268055273004E-143, -1.3209588064543007E-144, -4.622458217188683E-144, -1.3849760382281623E-145, -3.6445051877246547E-144, -1.390707546200755E-144, -7.419575437749529E-157, -5.993654815172194E-157, -4.7297141769082895E-158, 1.5797016508249248E-157, 2.3602202649462683E-157, -4.011230831876368E-145, -4.580373068776994E-144, -3.324165988046662E-145, -3.564643914714086E-144, -3.801269066593622E-145, -5.634217245559015E-145, -1.7232352870474995E-144, -3.534989455492873E-144, -9.521296709939254E-145, -5.579507094930407E-145, -3.976552895989621E-144, -4.4734753105474585E-144, -4.723958791098319E-144, -4.622736488179815E-144, -4.193367080218106E-144, -3.836900883143108E-144, -3.8525830582946875E-144, -3.900148474777184E-144, -3.0426335237477635E-145, -3.55673456487139E-145, -1.01356513894738E-145, -3.802051872538927E-145, -3.747917267357209E-144, -5.15949262526728E-144, -4.413040240859756E-144, -5.0467046019515037E-144, -3.856640586263371E-144, -4.382680324895281E-144, -4.6459713446980897E-144, -4.4667148272245616E-144, 2.3146757035433728E-144, 8.49369808880289E-145, -3.816927659277969E-157, -1.1655326842284011E-144, -1.1034596388456606E-144, -3.4335317716107873E-144 ], [ -5.0700919054680564E-154, -1.571652704453646E-154, -1.1820034863941022E-154, -9.543869129983074E-155, 2.708879420159675E-155, -1.570294236200048E-154, 6.875604376366255E-157, -3.748042993556476E-157, -4.254194627583597E-157, 8.648298370585948E-158, -3.9970242623390236E-158, -2.0806460914120334E-154, -1.1396909819115896E-154, -8.645481141385405E-155, 2.0909617712875447E-155, -2.103755645050393E-154, -1.4426778143036949E-154, -2.5466269775146725E-154, -1.005069751190432E-154, -9.224607510669074E-155, -1.4474047044519086E-154, -3.184700378265145E-154, -2.9690483371159743E-154, -3.0611286379742645E-154, -3.063341294951475E-154, -5.098271459312802E-155, 7.904731800456037E-155, 4.9019758108961606E-155, 7.725493279344643E-155, -1.002528172598448E-154, -1.3256446551139641E-154, -1.0547588698076842E-154, -1.3564835975571794E-154, 1.3229793236395432E-155, 1.0783094118985013E-154, 1.0817126669366037E-154, 1.0788561337555027E-154, -3.2952616235814385E-154, -3.135007173312669E-154, -3.190042645095017E-154, -3.206712325579083E-154, -6.45141506980073E-155, -7.707630557871373E-155, -1.4182990778644194E-157, -1.4360210686755966E-154, -3.113904766152518E-154, -2.5604691475738432E-154 ], [ -2.4337172425269683E-154, -1.43892726905568E-153, -2.8125046118046244E-153, -2.0584689911592023E-153, -1.7118042083962307E-153, -1.5278370701960237E-153, 1.1224148729389175E-157, -6.720250406089905E-157, 1.516125669608928E-157, -1.8453693882001057E-157, -3.4944946906690646E-157, -2.64103931602705E-153, -2.857859887456639E-153, -2.266617838423705E-153, -2.2033436558537203E-153, -2.792428498694115E-153, -2.9274741059347307E-153, -1.9019734023324884E-153, -1.4876148860957723E-153, -1.501196402246108E-154, -2.913865458326964E-153, -2.4188292726851405E-153, -1.651285701027504E-153, -1.9032224623473988E-153, -1.5008748449998264E-153, -1.5405358587885164E-153, -2.795955688366548E-153, -2.293415517478208E-153, -2.3286999254608903E-153, -2.1429495104865094E-153, -1.7793338896236394E-153, -1.8169636253349255E-153, -1.8325493297643445E-153, -2.325114007570765E-153, -2.705931798479471E-153, -3.6412291156096163E-153, -1.3921573988059774E-153, -2.401784920008931E-153, -1.9129457396038843E-153, -2.0886948052461361E-153, -1.7525101880977068E-153, 3.88829405543949E-154, -4.967245133505201E-154, -1.2365191358351644E-159, 7.573855344662247E-154, -5.018987454756153E-154, 1.1518847254072146E-154 ], [ -8.142504085198746E-153, -2.509428564190479E-152, -2.9352187058575927E-152, -3.966440811111624E-152, -3.5410946492196933E-152, -2.6622736235060795E-152, -6.025440522254423E-157, -4.9117180038919024E-157, -2.8239870380664195E-157, 2.100457720730268E-157, 4.849522367710171E-157, -2.9922301982276006E-152, -2.8712814768096E-152, -4.353391178395959E-152, -4.545258242480118E-152, -3.213402137259876E-152, -1.5291295674452572E-152, -3.021738292161438E-152, -3.0675308362842436E-152, -3.820983627298146E-152, -1.4321878030334403E-152, -3.358062815770732E-152, -3.0058843875239553E-152, -3.2693810357611483E-152, -2.484891214058854E-152, -4.064732241553107E-152, -4.400581586341077E-152, -3.3055710404737814E-152, -4.295694241598367E-152, -5.000920778062107E-152, 6.000423831230827E-153, 5.213703273354459E-153, 6.722726902394886E-153, -4.543968207642312E-152, -4.224986127668972E-152, -2.9625115543959576E-152, -4.05496416102377E-152, -2.9905409090958847E-152, -3.215938898605753E-152, -3.483573660159042E-152, -2.7641107272466742E-152, -6.24987413295198E-152, -3.4738469285842386E-152, -2.357130821967696E-158, -5.244470394989456E-152, -4.883298978313739E-152, -3.7634905080230993E-152 ], [ -3.6368452652164035E-151, -1.0615840866795763E-150, -5.531874840704869E-155, -6.335527620672865E-153, -5.128501432278745E-151, -1.102822642835369E-150, -2.4952005066597714E-158, -4.0092656667601715E-157, -3.62226765871414E-157, 1.823974183220582E-157, 2.824385118057719E-157, -9.152591746858679E-151, 4.279887028967074E-154, -5.900739343848829E-153, -6.133145990376434E-151, -9.343559624943307E-151, -1.4925863732697738E-150, 4.4246913473010936E-151, -1.3259492789857427E-150, -1.0966310322320055E-150, -1.4620522404545323E-150, -8.243672946661732E-152, -1.222816857675429E-150, -1.336209319929925E-150, -1.2935956737832392E-150, 2.9153436421675757E-153, 2.199561077087828E-153, -2.7941178856184994E-154, 2.508517434965931E-153, -5.646206086092291E-153, -6.753047937011274E-153, -3.835495671507825E-154, -2.701102415427982E-153, -5.2190408522216636E-151, -5.11736627842343E-151, -5.222646806077422E-151, -5.092692059797108E-151, -1.4758783788882745E-150, -1.3296016791805305E-150, -1.2872936642677669E-150, -1.462542802599646E-150, -1.1720640121495454E-150, -1.3982605573925472E-150, 6.732298237934687E-158, -8.977131297231171E-151, 8.902423736942461E-151, 1.9861209619222795E-151 ], [ -1.0501233623735166E-154, 4.747114112743637E-156, -1.7302432585516144E-155, -1.2203790422061178E-155, 2.71540860618777E-156, 5.203833768462173E-156, -6.383074067697675E-157, -1.5950546602279784E-157, 5.918772788416419E-157, -2.7159399697202506E-157, 4.287460930384332E-158, 4.342233117187245E-156, -1.6295252275535117E-155, -1.0789125199383116E-155, 2.4200864181217897E-156, 4.3712663422618757E-156, 4.172433486635625E-156, -2.1846669637572577E-155, -8.722695636678525E-157, 1.0781018876809143E-155, 4.847743508761066E-156, -7.296781425129278E-156, -2.7819843801497E-156, -4.2725338185595206E-156, -4.034588576712938E-156, -5.64052537060956E-156, 9.269985786221126E-156, 5.245917014460671E-156, 9.086292547599016E-156, -1.364236936196489E-155, -2.0061023549432866E-155, -1.3986444226810044E-155, -2.1507116174272954E-155, 1.2966525455303905E-156, 1.498515221123228E-155, 1.4291464097132188E-155, 1.3944945754775014E-155, -1.0261892684526996E-155, -5.863356032879266E-156, -7.06841869850758E-156, -7.230947757084326E-156, 1.5276354869155977E-155, 3.2926192008589264E-156, 2.996442567674656E-157, -2.9154406189134893E-155, -2.4439525417831426E-155, 3.3086743624328146E-156 ], [ 1.224924368787325E-154, -3.854736722143769E-154, -3.03451282083361E-154, -3.173299725571442E-154, 2.8910473890731306E-156, -3.853742374757135E-154, -5.74309081963301E-158, 2.5507558168210845E-157, -5.32882867700093E-158, -3.403644408270017E-158, -3.097409380937992E-157, -4.612163502285784E-154, -3.043451591909206E-154, -3.1824282838090106E-154, -2.9953327043073975E-156, -4.594311455412136E-154, -3.288278245401792E-154, -5.3816976303461064E-154, -1.036057313783812E-153, -5.521863574788211E-154, -3.284725390408695E-154, -7.055677697545944E-154, -7.30370313824089E-154, -3.277576208661866E-154, -8.613838837878457E-154, -3.1337462131404804E-154, -3.211616856519203E-154, -3.271658834408096E-154, -3.218588242419869E-154, -3.184139957549846E-154, -2.087019485403428E-154, -2.3902312512278504E-154, -1.9062685397961375E-154, -1.1217555628593286E-155, 3.763171598813594E-155, -1.845126813765953E-154, -1.1440971058168479E-154, -6.456484034683226E-154, -6.720198139930509E-154, -3.21133670775267E-154, -7.706017504628888E-154, -5.472406083231641E-154, -5.412423240946374E-154, 3.996510099758974E-157, -4.381901053262966E-154, -3.1500370807634846E-154, -7.318730245071038E-154 ], [ -3.416324361475955E-153, -2.734007143887262E-153, -5.339208694457111E-155, -3.081515840331115E-154, -4.7352300580753267E-153, -2.7368410277797445E-153, -4.6526196165185245E-157, 3.574555619942818E-157, -2.040819823057234E-157, -2.745329224119014E-157, -2.488404515329636E-157, -2.730899443130627E-153, -5.086548042069498E-155, 4.988126255727325E-156, -4.707743177654326E-153, -2.7326469667187104E-153, -1.3938032667390628E-153, -2.9622006277755514E-153, -3.1689429359357215E-154, -2.53624909114144E-153, -1.388325710846732E-153, -2.9536086444691857E-153, -3.1616841886880127E-153, -2.936625011423957E-153, -2.937030673226754E-153, -1.52826820288704E-155, 3.5180887946843472E-155, 2.0733986571945418E-155, 3.485495511295158E-155, -8.40603590553461E-154, -5.720026384862432E-155, 9.714491978925828E-154, -5.882685531703957E-155, -4.720238667506379E-153, -3.149981802367318E-153, -3.149721240449888E-153, -3.1500851612218105E-153, -2.9651982622607985E-153, -3.1554317884617715E-153, -2.9477746345362376E-153, -2.9487032170707713E-153, -2.4360988219755275E-153, -2.519499183092599E-153, -1.3356128821640114E-157, -5.745275105824248E-153, -2.982382318367269E-153, 1.571120790215601E-155 ], [ -4.338949396292728E-155, 1.6843793589765355E-156, -5.542071291513412E-156, -4.421890654297312E-156, 3.143497655821963E-157, 1.40908083190344E-156, 2.3635782366629203E-157, 4.530061414337061E-157, 1.3640460682418719E-157, 2.646423484358989E-157, -4.8917514267651417E-157, 2.163801927375366E-156, -4.980508312266838E-156, -3.558400680768964E-156, 1.0349939777805082E-156, 2.512089063089952E-156, 1.7831251571291021E-156, -7.648466922305777E-156, 2.2280365513433187E-158, 3.5132777232156166E-156, 1.177902101516316E-156, -2.868445356001331E-156, -8.543279462100395E-157, -1.4733160938780697E-156, -1.710163490191078E-156, -1.3483586110639365E-156, 3.093590884701842E-156, 1.8235262084077166E-156, 2.820278113601637E-156, -4.932430933047911E-156, -6.492122471284615E-156, -4.6136441443050256E-156, -7.557727879912628E-156, 2.8206444058844018E-157, 4.914579139816429E-156, 4.695465721808834E-156, 4.320982234316181E-156, -3.239400124704956E-156, -1.5042091635530764E-156, -3.3748489744913976E-156, -3.1831597165952444E-156, 5.129633651372113E-156, 8.955143952079545E-157, 4.098785796200196E-157, -1.0944285498843962E-155, -8.609377352320461E-156, 7.080329148570415E-157 ], [ -1.1594559959788063E-154, 6.534564568973824E-156, -1.9337532957226353E-155, -1.4393712181207793E-155, 2.492327627396753E-156, 6.109747213267808E-156, 3.921866719698112E-157, -6.537788777634668E-157, 2.936153478720668E-157, 2.5074910689959394E-157, 5.6303361282888004E-158, 5.969596117880087E-156, -1.8123103197901837E-155, -1.2139112203350824E-155, 2.4919994065912994E-156, 6.391554318904092E-156, 5.55220262094025E-156, -2.517679845372917E-155, -8.044167777920938E-157, 1.2388844275535432E-155, 5.725656928561101E-156, -8.678883371905948E-156, -3.2161270428220973E-156, -5.168608627727716E-156, -5.303214390032673E-156, -6.265747745273281E-156, 1.111536378531672E-155, 5.956808981957677E-156, 1.0274233569487188E-155, -1.4685065191261618E-155, -2.311598092284864E-155, -1.602108093073041E-155, -2.4055279300570796E-155, 1.4370445182060969E-156, 1.6983348474872788E-155, 1.7128595381696628E-155, 1.6912234366395734E-155, -1.1714661347349208E-155, -6.924520091124089E-156, -8.97888917477401E-156, -8.080636760682671E-156, 1.8548859784183818E-155, 4.3407908384138935E-156, 3.163013360433594E-157, -3.4113972092424453E-155, -2.8539181225988757E-155, 4.167835049885642E-156 ], [ -7.617428477163944E-151, -3.375534833989234E-151, -4.0533653376925204E-151, -2.5199979072518324E-151, -2.9565193869452263E-151, -3.609819142204407E-151, 2.833857545505985E-157, -1.4826723129258584E-157, 2.507600432610092E-157, -6.539566673545411E-157, 4.408604904823168E-158, -3.271617708906554E-151, -4.0118722665446414E-151, -2.998966315367103E-151, -2.8190371829481695E-151, -3.295737066178192E-151, -2.2908732852977746E-151, -2.755177038428572E-151, -1.2784331488965568E-151, -6.949512000623756E-152, -2.1604626624274986E-151, -3.21295905401055E-151, -3.369011037059329E-151, -3.9154000360604905E-151, -3.3817517211985855E-151, -3.758779637210965E-151, -3.872272940064903E-151, -3.964332325911863E-151, -3.9529838954580135E-151, -2.7483647933891986E-151, -1.9365960172667995E-151, -1.1389357299487599E-151, -1.9755032851557597E-151, -2.9091582764595548E-151, 3.816124827325863E-151, 3.84674066914502E-151, 3.8072669281443796E-151, -3.080855211290802E-151, -3.415766378174733E-151, -3.94388439450664E-151, -3.408785427175224E-151, -6.811198850320223E-152, -6.848417199428066E-152, 1.5923895828171056E-157, -3.193441696192351E-151, -3.549142361957505E-151, -2.5956196043382895E-151 ], [ -5.051554142997422E-154, -1.7537100162583732E-154, -1.1717770420388637E-154, -9.463542300153931E-155, 2.6264896700935058E-155, -1.7618262596490516E-154, 1.6067504816732728E-157, 4.106741326789857E-158, -4.0201193992306895E-159, -1.0263676776592498E-157, -2.128579980146365E-157, -2.1273875960073823E-154, -1.1239931950689455E-154, -8.455605316971588E-155, 2.114715922074769E-155, -2.1428494534385067E-154, -1.6683636456269488E-154, -2.706917954777107E-154, -1.4121058799338177E-154, -1.2340352816590624E-154, -1.6727635479713833E-154, -3.175353581128557E-154, -2.960806577935367E-154, -3.05243014804263E-154, -3.057078318022938E-154, -4.96895762144099E-155, 7.730693710008267E-155, 4.860016873542492E-155, 7.520932534564866E-155, -9.838674614245075E-155, -1.311905722335367E-154, -1.0339634542987583E-154, -1.3423259793528678E-154, 1.2408938200950473E-155, 1.0610568471181277E-154, 1.0670545135061323E-154, 1.0618923221680056E-154, -3.2970074491770316E-154, -3.129839346413287E-154, -3.1875689420736454E-154, -3.19102827638483E-154, -9.94774616071718E-155, -1.181113347894243E-154, 2.63501135096077E-157, -1.8937554259857922E-154, -3.130465821641813E-154, -2.5569354364975E-154 ], [ -1.1579069107900904E-152, -3.1680520024185234E-153, -3.45807573708313E-153, -1.3035643456710935E-153, -2.461279045798131E-152, -3.286798427662464E-153, 4.597399060283336E-157, 1.2818695727244358E-157, 2.7494116102682103E-157, 3.259995231162221E-157, 2.6019637211231105E-157, 3.193585725948387E-153, -3.468914487386358E-153, -1.686575684696749E-153, -1.6703002596421177E-152, 3.381951493938083E-153, -3.8119151216498053E-153, -1.6221944581949939E-152, -3.256953722938546E-153, -1.3124919786275672E-152, -3.8211679452871973E-153, 1.0363620346549585E-153, 2.3308922845740921E-153, -1.6866345985344784E-153, 2.4214487059384605E-153, -2.5534848318675895E-153, -3.1664158921592746E-153, -3.4851951138657914E-153, -3.08461508539626E-153, -5.7347237372459256E-154, 3.282667206995128E-154, -1.0678349477280251E-153, -6.91801565302253E-154, -1.2072098407581143E-152, 2.63838103280435E-153, 3.715289772445507E-153, 2.9729420192827116E-153, 6.95263796376286E-154, 9.531516452711262E-154, -1.7398041789710562E-153, 6.98698795891728E-154, -8.399490228035064E-153, -1.5345974423858435E-152, 8.919013710636803E-158, -1.06710250755194E-152, -3.6525476874155738E-152, 2.0594105663273107E-154 ], [ -3.7939685883457146E-151, -3.717606341931229E-151, -3.508522247394253E-151, -3.499409536961424E-151, -3.048348750677823E-151, -3.76259971311039E-151, 6.089644069409855E-157, -6.7941218059978295E-158, 5.530043564117501E-158, -4.525583505471371E-157, 1.389221052974827E-157, -3.697076697668265E-151, -3.4930637191787684E-151, -3.562992862652129E-151, -2.8853701492421688E-151, -3.68846322474338E-151, -2.998828468848449E-151, -3.575052059765015E-151, -3.315629373423038E-151, -3.2629834832414585E-151, -2.9666650408072903E-151, -3.504586551910676E-151, -3.63144040043181E-151, -3.796110443380562E-151, -3.6475607299415265E-151, -3.3540765964065384E-151, -3.152032016905965E-151, -3.3847334058873305E-151, -3.2672335961189967E-151, -3.486770371604215E-151, -1.6067588160238368E-152, 7.410287422809724E-153, -1.672403864470599E-152, -2.8864884222200275E-151, 3.822595311509749E-151, 3.865276753484055E-151, 3.822617350552611E-151, -3.491234968453599E-151, -3.6485390465803285E-151, -3.796628304887736E-151, -3.6800652682988855E-151, -3.2730408701418826E-151, -3.253275894137411E-151, 1.3052216217428956E-158, -3.351786016755639E-151, -3.505173178919551E-151, -3.521096614194823E-151 ], [ -1.77215015683917E-154, 1.345683201125213E-155, -4.055170214233337E-155, -3.0321687970115665E-155, 6.188797771146559E-156, 1.296025678852982E-155, -6.34762815199873E-157, -1.1340175146448593E-157, 4.696490429794351E-157, 5.811889158677669E-157, -5.834854292997496E-157, 1.3570096455754393E-155, -3.881677888724011E-155, -2.635098388712534E-155, 5.300269040530447E-156, 1.313123936951734E-155, 1.1843967757722304E-155, -5.0548107675700096E-155, -1.377720801725926E-156, 2.6669910442010302E-155, 1.3000183298547411E-155, -1.7906395680010984E-155, -6.846905564700126E-156, -1.1205250239516292E-155, -1.0601011356573261E-155, -1.4263393383607287E-155, 2.341776659846104E-155, 1.3040740872075755E-155, 2.2607135354104815E-155, -3.161290226898362E-155, -4.750361271062947E-155, -3.408759277909385E-155, -4.892239124197449E-155, 3.48896508681761E-156, 3.5472948494410558E-155, 3.5500525960265705E-155, 3.4754880046356445E-155, -2.5210955713700105E-155, -1.4940958558519684E-155, -1.877292567381703E-155, -1.7831097362509513E-155, 3.8069756881792E-155, 9.20594358927743E-156, -4.3883611265605886E-157, -6.6582555188772576E-155, -5.655239654184422E-155, 9.308400149794505E-156 ], [ -5.654721878379599E-152, 1.8096053740179243E-153, -4.3164452110570995E-155, -2.583228900014111E-154, 3.4759954849198424E-153, 1.825090355580266E-153, 2.8069258140690327E-157, -3.313074171805528E-157, -6.863820771777102E-157, 6.136720846279927E-158, 2.076915339687067E-158, 1.6933032548366042E-153, -4.255920166823811E-155, -4.397451588336469E-154, 3.473592171896315E-153, 1.837506275604497E-153, 2.410274393875609E-153, -1.0061994090042641E-154, 4.6470256875127014E-154, 1.7360065973834597E-153, 2.4119988463451896E-153, 1.679185204290663E-153, 1.7128660909908773E-153, 2.16919270612948E-153, 2.0033240412794495E-153, -1.3635949141366439E-155, 2.68878367385788E-155, 1.5246241192871304E-155, 2.6063900126294427E-155, -6.189044426329526E-154, -5.147841382481938E-154, -7.28999472300149E-154, -4.022814406323623E-154, 3.339511604980216E-153, 3.478535819159518E-153, 3.505130047762466E-153, 3.4707273993735535E-153, 1.5988107818263123E-153, 1.7314303994187464E-153, 2.1644686978599208E-153, 1.9832121766033925E-153, 1.7685771391432799E-153, 1.5829233048798323E-153, 6.48702550926353E-157, -9.944153496619818E-155, -1.4473741112069078E-153, -1.209081899796416E-153 ], [ -4.0865788889304697E-144, -2.4490827960922412E-144, -4.635715808774346E-144, 4.363226587772912E-145, -5.222756871522126E-144, -2.4024428251125102E-144, -6.50909526326525E-158, 1.1821424161429586E-157, -2.6947557166529184E-157, 3.9513524789106075E-157, -9.38644025371969E-158, -2.0770814578641872E-144, -4.5456149226131387E-144, 4.303020487267236E-145, -5.051230266241456E-144, -2.0537511593003074E-144, -2.8428482239740906E-144, -2.747241994393866E-144, -6.336856963782498E-144, -6.776887369711728E-144, -2.847687173475847E-144, -4.066726287940997E-144, -4.3837485738968453E-144, -3.907702068913096E-144, -4.5727181794733143E-144, -4.44348721249367E-144, -4.0236104746271104E-144, -3.968087509016234E-144, -4.019995906479698E-144, 4.861454240490286E-145, 5.549017446266915E-145, 4.5944643740178775E-145, 5.927439104128404E-145, -4.92022898358796E-144, -4.848166664517624E-144, -4.8443080984607024E-144, -4.794141170681964E-144, -4.0992401156602787E-144, -4.254702817205292E-144, -3.791816486729678E-144, -4.418503996557806E-144, -4.734525834213962E-144, -5.0354111795346593E-144, 3.4819123548321938E-158, -7.631471584734671E-145, -1.0762699944122507E-144, -5.895619292984983E-144 ], [ -3.130566070712424E-143, -3.271778788245183E-144, -1.0731656923279374E-143, -6.488037235672178E-145, -3.947958004353545E-144, -3.325040176904871E-144, 6.06453116781353E-158, -2.5868194737057802E-157, -5.904570202749327E-157, 4.995480077334322E-157, 2.8368994938025502E-157, -3.1869179910839106E-144, -1.0806884971587199E-143, -1.5706760808190847E-144, -3.1629132458285727E-144, -3.170473274831414E-144, -2.3274183070204948E-144, -3.261773815378529E-144, -5.793894807568604E-144, 1.893433796019539E-144, -2.3257247605292787E-144, -8.746421677615152E-144, -9.909657373240245E-144, -9.757651616858555E-144, -9.831778900196554E-144, -1.057089487300149E-143, -1.0156697682738995E-143, -1.0140209349493426E-143, -1.0332184097083633E-143, -5.538922444869617E-145, -9.541087549307185E-145, -2.2219404251165226E-145, -1.0002849036869153E-144, -3.9351325490778226E-144, -1.0569940410029263E-143, -8.311277603732825E-144, -1.0221207188031393E-143, -8.397956032747058E-144, -9.772060727369836E-144, -9.694276450044335E-144, -9.652016915654672E-144, 4.966819848099389E-144, 1.9540072720697292E-144, 1.6276698227458398E-157, -1.7303486236845833E-144, -2.606765965518415E-144, -9.067113282453882E-144 ], [ -9.309328569822516E-153, -2.267581453537854E-153, -1.1804133969131914E-153, -3.3649316003734656E-153, -1.755472212597182E-153, -2.8450720246580854E-153, -3.044527784432165E-157, 3.669184984924341E-157, -1.4154580677400832E-157, -5.575870089340641E-158, 4.9009071046167724E-157, -3.255723544044936E-153, -1.2028324355902934E-153, -2.277887543119103E-153, -1.5165460817690838E-153, -3.230346557600712E-153, 4.547929307357317E-154, -2.0057297914390077E-153, 3.368640017233478E-154, -2.216235559528675E-154, 4.845779981570934E-154, -1.7638291792090033E-153, -7.233743291582644E-154, -1.4244560682295072E-153, -1.0072642977608703E-153, -1.9737293400224612E-153, -2.2530406819394583E-153, -9.559002025706397E-154, -2.175936959094339E-153, -1.605363808110688E-153, -1.4993097780456455E-154, -3.175916570144089E-154, -3.496204668528792E-154, -1.2272997580090995E-153, -2.6156894352204394E-154, -2.70505461158903E-154, -2.5851944104006882E-154, -1.852278311809534E-153, -1.2980045640900026E-153, -1.7194387133740142E-153, -1.2688042952452406E-153, 6.346256786377567E-154, -2.4178216827491363E-154, -7.676991687010911E-157, 8.981328384125746E-155, -1.235272521604871E-153, 1.346906951565976E-153 ], [ -3.432554248779327E-153, -2.76065790659743E-153, -4.982591552173838E-155, 1.3805195584533263E-154, -3.4884541429327905E-153, -2.763458519527736E-153, 7.82231501597329E-159, -1.1468194959788241E-157, 2.123766002133256E-157, 1.2401348616620216E-157, 1.8679447812670012E-157, -2.756543905405523E-153, -4.645977027799514E-155, 4.482285438251629E-154, -3.3888036092104E-153, -2.759295581804584E-153, -1.5017561949371887E-153, -3.0049582199090524E-153, 4.573014501352782E-154, -2.426812948955706E-153, -1.495448370673738E-153, -2.972446705111026E-153, -3.171198324977703E-153, -2.957698649867261E-153, -2.9595768111153465E-153, 9.757084327749923E-156, 5.603230031946162E-155, 3.515443536516331E-155, 4.47448705830393E-155, -1.018069764743024E-153, -7.188999358760424E-154, 1.0088350403534517E-153, -6.081994379834949E-154, -3.4288263323184347E-153, -1.9217538105878923E-153, -1.9125153659889844E-153, -1.9077790877993327E-153, -2.9883084167273514E-153, -3.1645029722296005E-153, -2.9691681221347363E-153, -2.9641275749405317E-153, -2.3424010173180256E-153, -2.3996753385599643E-153, 3.040346201889553E-157, -5.663547377704039E-153, -2.9923403472612977E-153, -1.9220177681054977E-154 ], [ -3.3668565473002495E-153, -2.828889570851369E-153, -7.314459664634451E-154, -2.0661446973907938E-154, -2.640611901839326E-153, -2.8332982401364175E-153, 1.0999739651371205E-158, -2.6448339536187936E-157, 4.713046578385812E-157, 5.703068570640146E-158, -3.586154893719303E-158, -2.8139154840949026E-153, -1.1641670811800164E-153, 1.3171411961116626E-154, -2.575028315096163E-153, -2.8175606946507476E-153, -2.0776641427074797E-153, -3.026124091912728E-153, 3.096275842590471E-154, -2.4124476409555196E-153, -2.0718297515727348E-153, -2.996667680694312E-153, -3.1629755789978503E-153, -2.9781960464732054E-153, -2.992900428139405E-153, -1.9167437878198492E-153, -9.913845797202932E-154, -3.235852317417559E-154, -8.446279781299113E-154, -1.3982131816486952E-153, -7.969956090735629E-154, 1.0689285695633194E-153, -6.304347906843634E-154, -2.57583683953299E-153, -1.2940876323317793E-153, -1.227731090345615E-153, -1.2618602126638497E-153, -3.001533201528932E-153, -3.1594885458710835E-153, -2.989320867143849E-153, -3.0005925031475017E-153, -2.3430836959137855E-153, -2.388114835909714E-153, -1.9208049068474396E-157, -5.330874720318231E-153, -3.007328862339492E-153, -1.9066914641514487E-154 ], [ -1.178169309530512E-154, 6.108189222199266E-156, -2.013899089967892E-155, -1.4778595477473386E-155, 3.1802735374986565E-156, 6.24216005106474E-156, -5.218028382712914E-158, 3.48347505306603E-157, 2.275568179947634E-157, -1.5494270880112013E-157, 3.646750724331511E-157, 5.799335490328037E-156, -1.8662553675756264E-155, -1.2198777463515732E-155, 2.667573088685221E-156, 6.190158647263805E-156, 5.455073218253017E-156, -2.5794924600512856E-155, -7.954819234517433E-157, 1.2668328173955647E-155, 6.02494573823622E-156, -8.423084993887004E-156, -2.6894491341671624E-156, -5.161006558324459E-156, -4.792118508818246E-156, -5.898281346320788E-156, 1.1176632380676402E-155, 5.51761030735624E-156, 1.081831663098933E-155, -1.5337648246862763E-155, -2.3776830484437063E-155, -1.6600520498235684E-155, -2.482184339773476E-155, 1.2086306657818882E-156, 1.701147731779079E-155, 1.7058338278666608E-155, 1.7460972949936326E-155, -1.2416633550807587E-155, -6.192478728286931E-156, -8.191319932020263E-156, -8.882441136154281E-156, 1.8748742994107053E-155, 4.280419941549821E-156, 3.416746005902728E-157, -3.479686334640608E-155, -2.888530031582683E-155, 4.865730838944127E-156 ], [ -5.725101461488076E-152, 2.1927489897292078E-153, -3.289868204776725E-154, -4.7721163765622657E-153, 2.147286185151309E-153, 2.206150226976033E-153, -3.628845921089427E-157, 1.3781622167069837E-157, -1.843337877258827E-157, 6.688841859650534E-158, 8.763006632113057E-158, -4.464545633762423E-154, -3.190852542880593E-154, -4.924952662838589E-153, 2.1613485402206095E-153, -2.640372156375958E-154, 4.131224364520826E-153, -4.0128955531917374E-154, -2.6029691278091706E-153, 3.376100563794762E-153, 4.1366439187363175E-153, -4.6812815145580736E-154, -9.317804763029871E-154, -2.043745808884028E-154, -3.878145882136761E-154, -1.897997102034199E-154, -2.6507018289676568E-154, -2.6191392137169855E-154, -2.68662753471893E-154, -3.7389582801349813E-153, -1.5781481629225445E-153, -2.1848107812284025E-153, -1.4694334505941627E-153, 1.9578259855272753E-153, 2.253571832993462E-153, 2.294248455140145E-153, 2.2362361224297093E-153, -6.807852044672922E-154, -9.395532996273868E-154, -2.1625006068071493E-154, -4.2062291534009405E-154, 4.2966558385187175E-153, 3.372031346622923E-153, -2.1439812041880696E-157, -2.2328090524933692E-154, -1.4682418377201936E-153, -1.1715794137474069E-153 ], [ -4.972583442738334E-152, -5.351699307006427E-153, -3.2316922366026157E-153, -6.118807209468182E-153, -2.2352121296047352E-152, -5.28604894553284E-153, 6.097990110614567E-157, -3.3223926341339346E-157, 1.1434800699152916E-157, 4.6007853021663216E-157, 2.6732707667301808E-157, -1.6134580721081136E-152, -2.483643243446841E-153, -3.7929780561121336E-153, -2.5545771848908347E-152, -1.6374664490974627E-152, -1.086144614526566E-152, -6.875644098477581E-153, -1.6418574460281548E-153, -2.2803767710818637E-152, -1.0890765342502181E-152, -1.5335878687150177E-152, -1.7483837135072145E-152, -1.1104488969277467E-152, -1.4424196258825074E-152, -3.133485425724456E-153, -9.082443317940438E-153, -3.498990725191209E-153, -7.427246160113751E-153, -4.536288971972653E-153, -1.046762995437171E-153, -1.0982215940488006E-153, -1.1836530931451993E-153, -2.2326578796631944E-152, -3.0277795599169063E-152, -3.3597944672794047E-152, -3.511084466275048E-152, -1.4717365095569559E-152, -1.5979328131981323E-152, -1.1628980765649527E-152, -1.5013623736995893E-152, -2.7641768351416703E-152, -2.2012380541155985E-152, 1.0238865682145244E-157, -5.081664647495216E-152, -6.420661360183588E-152, -1.1052406022380333E-152 ], [ -3.4015484074162243E-153, -2.7296001933832753E-153, -4.770806847878492E-155, -5.1508340002106184E-154, -5.237409339847485E-153, -2.7326982285193175E-153, -2.1475536796194625E-157, 2.7659994515168312E-157, -2.7477609811507805E-157, -3.015860899539262E-157, -8.489631940795648E-158, -2.726374595695731E-153, -4.576726129845586E-155, -2.1597081143659194E-154, -5.254102470589893E-153, -2.728603912366532E-153, -1.3729378714921542E-153, -2.9520535678307395E-153, -6.018617559211937E-154, -2.5711127371533815E-153, -1.3663234321786453E-153, -2.9489982602136666E-153, -3.1675548135241027E-153, -2.934445234930041E-153, -2.9340043500044695E-153, -1.3950850833459389E-155, 3.309374127011796E-155, 1.8918055332873217E-155, 3.203189566357434E-155, -9.785463494220135E-154, -5.145217362056778E-155, 8.083656103222926E-154, -5.332342887613972E-155, -5.256880364771623E-153, -3.7542572586292E-153, -3.7542681745204343E-153, -3.7554545984285393E-153, -2.9590837444418637E-153, -3.1597248434704244E-153, -2.9436307270095733E-153, -2.944190797132775E-153, -2.4684210213112154E-153, -2.5544346763615006E-153, -3.7365454323734246E-157, -5.805400187446124E-153, -2.9743319209700026E-153, 1.406547582224453E-155 ] ], [ [ -18.51939122012354, 0.0077712874491865196, 0.0077712874491865196, 0.0077712874491865196, 0.0077712874491865196, -0.18107337596653358, 0.0077712874491865196, 0.0077712874491865196, 0.0077712874491865196, 0.0077712874491865196, 0.0077712874491865196, 0.0077712874491865196, 0.0077712874491865196, 0.0077712874491865196, 0.0077712874491865196, 0.0077712874491865196, 0.0077712874491865196, 0.0077712874491865196, 0.0077712874491865196, 0.0077712874491865196, 0.0077712874491865196, 0.0077712874491865196, 0.0077712874491865196, 0.0077712874491865196, 0.0077712874491865196, 0.0077712874491865196, 0.0077712874491865196, 0.0077712874491865196, 0.0077712874491865196, 0.0077712874491865196, 0.0077712874491865196, 0.0077712874491865196, 0.0077712874491865196, 0.0077712874491865196, 0.0077712874491865196, 0.0077712874491865196, 0.0077712874491865196, 0.0077712874491865196, 0.0077712874491865196, 0.0077712874491865196, 0.0077712874491865196, 0.0077712874491865196, 0.0077712874491865196, 0.0077712874491865196, 0.0077712874491865196, 0.0077712874491865196, 0.0077712874491865196 ] ], [ [ 94.43958845627374, -0.8710762922306772 ] ] ]
}