{
  "config" : {
    "algorithm" : "ListNet",
    "numIterations" : 100,
    "batchSize" : 0,
    "verbose" : true,
    "nomodel" : false,
    "params" : {
      "regularization" : {
        "rate" : 0.01,
        "regularizer" : "L2"
      },
      "layers" : [ {
        "activator" : "Sigmoid",
        "num" : 46
      }, {
        "activator" : "Sigmoid",
        "num" : 1
      } ],
      "optimizer" : "adam",
      "learningRate" : 0.001,
      "weightInit" : "xavier"
    },
    "dataSet" : {
      "training" : "../../../MQ2008/Fold5/train.txt",
      "validation" : "../../../MQ2008/Fold5/vali.txt",
      "test" : "../../../MQ2008/Fold5/test.txt"
    },
    "model" : {
      "format" : "json",
      "file" : "../../../MQ2008/Fold5/models/ltr4l_70.json"
    },
    "evaluation" : {
      "evaluator" : "NDCG",
      "params" : {
        "k" : 10
      }
    },
    "report" : {
      "format" : "csv",
      "file" : "../../../MQ2008/Fold5/reports/ltr4l-report_70.csv"
    }
  },
  "weights" : [ [ [ -10.36741945908999, -0.20752553553883724, 0.0011602479384957445, -0.9327521022785054, 1.0517732601029883, -0.3382290762731909, -3.1555441914212407E-4, -6.898489821640188E-4, -4.123359568065304E-4, 4.425514855934651E-4, 1.9566874094844553E-4, -0.15652402562100834, 0.04621558284974188, 0.0014121632021052123, 1.1300138177398265, -0.08054004294241565, 0.1685827245259972, 0.5506249052291647, 0.2761638657848942, 1.3987531906876363, 0.217279243674838, 0.6296577233972921, -0.13212789483584905, -0.6367592270168171, 0.09291431102045904, 0.39674482087160684, 0.38248507432813955, 0.18276886290213176, 0.14806384208544626, 0.2608502173398494, -0.36111752380953593, 0.6604209847995318, -0.8108892868340166, 0.9470349563234332, 0.19402306378085732, 0.6917442290545874, -0.09517001627105062, 0.532172792096018, -0.07645617666955748, -0.689327595578456, 0.08281516827616771, 1.409822355372976, 1.4732717704506906, 4.024961927819937E-4, -0.1832883841062614, 0.09352618620051889, 0.9771297049957691 ], [ -9.39361931803762, 0.4940554609267745, -1.1305270751951797, -0.5214204805532487, 0.8649518080578357, 0.46941127375368086, 1.5855825949458445E-4, -1.3325959333027068E-4, 6.249557537812751E-5, 1.3403617066175765E-4, -2.4898408623359427E-4, -0.06199372442118675, -1.2025995480585268, -0.27407447173848226, 0.912580417440117, -0.08058919912582663, 0.8682425325769512, 0.48506525416545, 1.2022977125968388, 1.245087622842258, 0.8783917258861336, -0.05111267857024723, -0.046504611048184326, -0.27089116414686726, -0.04515360990909006, -0.862852949662091, -0.14068697552938822, -0.17154762238637386, -0.2519950216632881, -0.29466223806188424, -0.3867044261244066, 0.5026493390509476, -0.5439375093190022, 0.8161028343208205, -0.1128723544965904, 0.8937654280212365, -0.20474385830324082, -0.036293412615204294, -0.1240640696420831, -0.26111720511004055, -0.06832682458294954, 1.7499870158147945, 1.165018695032802, -4.5821898319216536E-4, 0.500340640274721, 0.7827621096701893, 0.6731239883081467 ], [ -9.389768366283846, 0.4992737523928133, -1.1471743342932663, -0.5228967249212219, 0.8583759719935197, 0.4736511815834403, -5.948113008939581E-4, 3.514200187600189E-4, -1.2534215803996994E-4, 5.048026418039159E-4, -5.136582080112461E-5, -0.060991269820732406, -1.2208937778306292, -0.2830322126682869, 0.9062092220903077, -0.08034636422743956, 0.873799904710083, 0.4917681356963539, 1.2076138445001603, 1.242751034962011, 0.8832289779674519, -0.05008606601025864, -0.04089245923294439, -0.2625236958814988, -0.03860336300543352, -0.8768421638263085, -0.14358466206943477, -0.17594915305250897, -0.2515331251315565, -0.3087451376729167, -0.39244965135639576, 0.49133250004716167, -0.5444720528357765, 0.8099116979322665, -0.11782110845941883, 0.8916894484318004, -0.20712003912235102, -0.036358765569469834, -0.1182624068160815, -0.2536515919704258, -0.061789503431384535, 1.7490552994052082, 1.1619301297369689, -2.3118527811479288E-4, 0.5092191314577619, 0.7899248742090605, 0.6776806851612482 ], [ -9.394082717510924, 0.4965479105346009, -1.1401216018337277, -0.5237839621054808, 0.860384020348351, 0.47190048815344376, 1.8093449447925463E-4, 4.601264922815597E-4, -3.371213959213572E-4, -2.780264988778931E-5, 8.59538030889946E-5, -0.06338473965288353, -1.2143703494317917, -0.2809822213136968, 0.9078520941408303, -0.08176631485068864, 0.8713376416781858, 0.48895958862221345, 1.2064200521547743, 1.2439977416944885, 0.8809441300119014, -0.05125595320175129, -0.042395212915432426, -0.2655013310044466, -0.04032072942662001, -0.8705533701931905, -0.14319953644947367, -0.17697583287235083, -0.25084988633408545, -0.30515243928928226, -0.39164321819600184, 0.4942526198165646, -0.5457195180727583, 0.8130248983688763, -0.11524210558618307, 0.8937329405942049, -0.2048695912269074, -0.03694105851639944, -0.1196657341172599, -0.2564027404844547, -0.06382491293327311, 1.7499410622176106, 1.164638390757456, -4.4422617772199563E-4, 0.5069789710802026, 0.7873394389005858, 0.6773980146337091 ], [ -9.393147996888821, 0.4957524179283586, -1.1385180740031233, -0.5220458567758473, 0.8618178641316868, 0.47062386184635735, 2.163337305624879E-5, 2.050990346175521E-6, 2.175137448162805E-4, 1.274533169599539E-4, 3.0092329921596714E-4, -0.06158207872289051, -1.2112750100671594, -0.278787125217459, 0.909832235897128, -0.08010898711512375, 0.8707704406573785, 0.4870347943826958, 1.2054625189548576, 1.2442322736833, 0.8808842405635927, -0.05074473082708863, -0.04455426775281408, -0.26641976617726293, -0.04170819707664822, -0.8695225572407105, -0.142772663458046, -0.17461055319664281, -0.25196600372506417, -0.30316506002643406, -0.3898424181663597, 0.496409113379637, -0.5436956408814418, 0.8141593366987534, -0.11562708100329978, 0.8938537870650491, -0.20510882088869428, -0.03652573549100851, -0.12101761729208475, -0.2575118987391706, -0.0649102381542139, 1.749311213656662, 1.1632187811986625, 4.595260942266594E-5, 0.504639220028294, 0.7866155178239728, 0.6750443915284245 ], [ -9.378082328643208, 0.5045926799854908, -1.1644654249850297, -0.5206442981501431, 0.8520238580899436, 0.4798929412485214, -3.1705402079500937E-4, -1.1533671630375524E-4, -2.3169498666353644E-4, 1.4387212321759502E-5, -1.9684329723618356E-5, -0.057687632649967555, -1.2422254952994716, -0.29069133654383306, 0.9000315629761919, -0.0763409809512897, 0.8797797516973945, 0.49902446217951124, 1.21194071442396, 1.2392557628701812, 0.890237450104256, -0.05003962724054528, -0.03539252043030771, -0.2535935499715195, -0.03264434419068865, -0.8941221645336147, -0.1475627539823313, -0.17640148629610158, -0.2530645114841006, -0.3206218290246815, -0.3965285220456109, 0.4807161773110422, -0.5434556939023109, 0.8041180993042283, -0.12448453139636646, 0.8879399531644712, -0.2113718911886408, -0.0361869058365733, -0.11287111841980609, -0.24544492850305388, -0.05591574638055147, 1.7484281651470128, 1.1565035764682745, -4.982463522179906E-4, 0.5179370072332654, 0.7963932552312324, 0.6808591544172882 ], [ -9.381805846066946, 0.5021998670093449, -1.1567187677217685, -0.5220891636620572, 0.8546550231171663, 0.47749106324128904, -1.5639922208594138E-5, 6.591957489472879E-4, -4.219792293166238E-4, 1.2927906755518724E-4, 1.415557299143804E-4, -0.05865342335709291, -1.2324637841391157, -0.28737736976866685, 0.9029960708941976, -0.07806979603177584, 0.877293485176736, 0.49556076298177465, 1.210344761896116, 1.2403958586142902, 0.887500439480776, -0.05000785205359566, -0.03747059860549197, -0.2570299382056359, -0.03541362914927869, -0.8872792530093384, -0.14613039732791655, -0.17695647288903368, -0.25217288650572633, -0.3161253256103191, -0.3948761782634722, 0.4844992644524108, -0.5437646957885286, 0.8071304604310637, -0.12206993103393632, 0.8897747939519617, -0.20932925009816625, -0.03601271426394693, -0.11507769739115623, -0.2489724083161696, -0.05847812454376879, 1.7487611087683603, 1.1583539049364393, -1.2816016727214293E-5, 0.5144541201600695, 0.7941405631518599, 0.679728091052304 ], [ -9.392446198279115, 0.48964500873763994, -1.114903580243287, -0.5161089243589858, 0.8726418918809568, 0.4652650226800158, -1.4899148683602376E-4, -4.2222933036064405E-4, -3.057150291455004E-5, -4.444721251047079E-4, -1.8830408157779815E-4, -0.05973466690482207, -1.1834432409717295, -0.2597434739948372, 0.9224271275478669, -0.07789913007025327, 0.8610211490466654, 0.47502392100327717, 1.1980220163428141, 1.2470865258871995, 0.8723205977207715, -0.052273809862591815, -0.05508804542446155, -0.2786762112072975, -0.053827200092709394, -0.851455350191008, -0.13865256564392292, -0.16744301580417792, -0.25325702093645824, -0.28059396969740896, -0.3799527408372747, 0.5153098788058801, -0.5419802778208547, 0.8262792878064762, -0.10698710225687866, 0.8965258253694185, -0.20058789917640435, -0.037902429357635284, -0.13233043655989227, -0.2698772093534972, -0.07732811913416342, 1.7481884411594786, 1.1680261909905023, 2.3755681303283454E-4, 0.4887024438531189, 0.7762925032434015, 0.6631863844377647 ], [ -10.368204407650364, -0.20276666088395673, -0.0024308070511184785, -0.9306856336602588, 1.0523117490438663, -0.332020339797578, 1.4648606921234035E-4, -8.563082796075994E-6, -7.430276925972229E-4, -1.3066719416994987E-5, 1.1601834197869651E-4, -0.1566005670691424, 0.04224406219258202, 0.004255048353051416, 1.129496020495148, -0.08162627234992485, 0.17436844706243151, 0.5490741422935222, 0.279728349469112, 1.3975449997503748, 0.22098042699935205, 0.6265115213536647, -0.13502612536220607, -0.6394551304966616, 0.09030366142610588, 0.3925180968068133, 0.3798801680006316, 0.18191431274381967, 0.14610336219327227, 0.2624388516906186, -0.35803042406568975, 0.6634042806709797, -0.8101624750643014, 0.9471986930360587, 0.19239100221970712, 0.6926972268879846, -0.09607788483845392, 0.5302104756123768, -0.07946151428125756, -0.6916465192056219, 0.08066313042872644, 1.410967012716021, 1.4720578712075818, -1.175091918516562E-4, -0.1805421310392756, 0.09539357437684513, 0.977570075909442 ], [ -10.365881831044337, -0.2123184683532324, 0.005324017843725629, -0.9384338986826728, 1.0509513723401338, -0.3439971125167609, -1.981494394639719E-5, 3.561647387847792E-4, -3.4190524976414815E-4, 2.88535666957404E-4, 4.7863141819492347E-5, -0.15565606052227865, 0.05073233391360978, -0.003286359922899963, 1.1285199985629883, -0.08068461251896572, 0.16348431562019372, 0.5497557136051002, 0.2745484312686662, 1.3981353533761338, 0.211050038477862, 0.6302373903117773, -0.12913435367960832, -0.6315814326051149, 0.09473676091971181, 0.3998494139767664, 0.3839055319143531, 0.1841201210244916, 0.15110369140891527, 0.25535106723002327, -0.36626487786067435, 0.6553880719979348, -0.8126855059283383, 0.9461708529055137, 0.19752294662639566, 0.6926087753192921, -0.09093842730073665, 0.5339014386211443, -0.07374688835628204, -0.6841207573693651, 0.08546073116360382, 1.4078410936977128, 1.4728427852443287, 1.3432393112119634E-4, -0.18353410985605143, 0.09431322010504066, 0.9745976135268751 ], [ -10.365917603025926, -0.21119135769057523, 0.0035835371629280967, -0.9358487123562839, 1.0518846779526951, -0.34221911713505665, -2.2891588699739813E-5, -7.05590493593046E-4, -1.5863324339627924E-4, -2.3476333900661166E-4, 1.2520288923488536E-5, -0.15554721981307892, 0.04952634554683844, -0.0013514827841299949, 1.129573530985281, -0.08014459785203305, 0.16507218966499196, 0.5502819973450952, 0.2747729765717684, 1.3988156620911054, 0.2120492911122737, 0.6305252237306392, -0.1309216612393053, -0.6334076222730864, 0.09394479352348106, 0.399193916717591, 0.38300497728584965, 0.18412360891383847, 0.1500726959250933, 0.25753160666491626, -0.3642755622025368, 0.6572742244789147, -0.81242002840079, 0.9470585372491741, 0.19625769557188893, 0.6931275377968338, -0.09225406049436477, 0.5337628595943668, -0.07496857828799143, -0.686370149624775, 0.08392820595571746, 1.408772790767359, 1.473190093933076, -2.6864973574091896E-4, -0.1837923403826395, 0.0940181920049309, 0.9751275850596764 ], [ -9.390975377265622, 0.4934350765095416, -1.1266323173843984, -0.5200947260094277, 0.8672863460095743, 0.46811586416890005, 3.1553169488897207E-4, -1.8820825509198184E-4, 1.4757239155191627E-5, 2.850082962686618E-4, -8.579887973995429E-5, -0.06031020585941921, -1.197236929793089, -0.2698500910630987, 0.9149253788485396, -0.07916219056451138, 0.8666059854499457, 0.4822122354825184, 1.2013499884722303, 1.2444176278189112, 0.8765447075419855, -0.050599774022987196, -0.04939147340241219, -0.2724263968184425, -0.048132713025893975, -0.86054746876378, -0.14010872502472388, -0.170018718437502, -0.252875395878975, -0.2922296384553474, -0.3843680562987007, 0.50589336482338, -0.5424212956164332, 0.819157599132198, -0.11205008317176998, 0.8945436114496429, -0.20337551318177394, -0.03670076268959743, -0.12701645609691742, -0.26315062178699206, -0.07096107507421828, 1.7485731857765718, 1.1659582703556466, -2.0556856434120668E-4, 0.4975230085854266, 0.7820844829289613, 0.6699263983819532 ], [ -9.387223715680957, 0.49702063607393127, -1.1408750919186983, -0.5213312105132707, 0.8610712475133182, 0.47309191746458434, -2.716712580959476E-4, -4.2769313591149125E-4, 2.211906416879866E-4, -5.4661001057987156E-6, -1.3945437930572507E-5, -0.06025460393806861, -1.2142051306834176, -0.2789821271922686, 0.9093628208359472, -0.07865710111905178, 0.8714352331935793, 0.4886493950379478, 1.2057418938489926, 1.2430920654429827, 0.8818335320067313, -0.050515422586903946, -0.04362367171740882, -0.26475787749371527, -0.04172213271343925, -0.8727516575583403, -0.14328881638194962, -0.17354897013891332, -0.25249205672164843, -0.3034496251700106, -0.3897896394309108, 0.49514280514941833, -0.5433538156892946, 0.8133712641879878, -0.1161808755840111, 0.8927486772717994, -0.20633341445966427, -0.036157770154866764, -0.12134046764037808, -0.25658879236381366, -0.06524118263953513, 1.7489070544010183, 1.1620033890268429, -5.783753186142593E-4, 0.5059432229335711, 0.7880994665336161, 0.6739507040755965 ], [ -10.36624993022848, -0.2121389064441925, 0.005563329493811913, -0.9401163221522058, 1.0513964783254486, -0.34341363098424554, -2.900429590998979E-4, -5.270742787161631E-4, 2.2520285271117798E-4, -1.2397449384258266E-4, -2.9616989493260864E-4, -0.1553894842785142, 0.05036230425675944, -0.0050706540369356195, 1.1283710015283406, -0.0801458234891508, 0.16174766485902695, 0.5489836892639341, 0.2740149898704593, 1.39780493600626, 0.2097244192097902, 0.6306438112547198, -0.1294474498560783, -0.630452258675684, 0.09525065128025184, 0.4000806396694047, 0.3843172708920099, 0.18436671201131422, 0.15226800454900088, 0.25393181322377145, -0.36739324928296874, 0.6544735061224312, -0.8130057070689906, 0.9459835808722774, 0.19878788518894305, 0.6945087566331637, -0.09007846823876396, 0.5326694323807947, -0.07327160655996755, -0.6833176337857984, 0.08521656544500955, 1.407721461749887, 1.4723650910758044, -4.2760622862141235E-4, -0.18224683813198095, 0.09599943125330712, 0.9744994568071803 ], [ -10.36864408782403, -0.20211144296279188, -0.003842991254853436, -0.928850009188028, 1.0524488455737537, -0.33172365468581944, -1.204938793138445E-4, -2.2146749873954764E-4, -3.5977837779932324E-4, -2.2119052186758584E-4, 4.282813525171103E-4, -0.15707250650881321, 0.0420097603314916, 0.00578726891730814, 1.13070001954916, -0.08159990698620713, 0.1758495275997594, 0.5507874014957658, 0.279594954400604, 1.3984765078499748, 0.2232665730527696, 0.6275653521629032, -0.1361337463570433, -0.6410627267606623, 0.08999664869866053, 0.39213417981066845, 0.3797757727693005, 0.18226659214596977, 0.14574036299215973, 0.264930131727868, -0.356361801712056, 0.6654776000311348, -0.8101746367557195, 0.9483182832241513, 0.1911288367038078, 0.6927211623904705, -0.09863493721948396, 0.5310402933683697, -0.08021693819422639, -0.6939688362170288, 0.08027220130609047, 1.4119978768483037, 1.4730611610251925, -5.666014589637052E-4, -0.18086154081552466, 0.09502004140223921, 0.9784120104183651 ], [ -9.374830755494434, 0.5092516831835077, -1.1757342088232658, -0.5213920982390224, 0.8474728079227349, 0.4834479780164656, -2.0592634375828946E-4, 4.473796546098215E-4, -2.402075216718496E-4, -2.1335957695277297E-5, -3.4003152050292215E-4, -0.05657145620158863, -1.255741908037166, -0.2973305760845308, 0.8952851727630114, -0.07637242094758455, 0.8837846784745612, 0.5045328453938908, 1.216230524902775, 1.2370721979370762, 0.89358608446287, -0.04969798773964107, -0.03128536750077425, -0.24702177484559967, -0.028136958797438393, -0.9052738967683562, -0.15029169542414747, -0.18016448862926462, -0.2533021309308631, -0.3305384752703946, -0.40052100750078906, 0.47162564722210876, -0.543432809928123, 0.7995637754844979, -0.12820856835121866, 0.8867597604709876, -0.2127892610710871, -0.03573333024462744, -0.1096517910430405, -0.23982296082866575, -0.051977283508621575, 1.748179823329707, 1.1533788206209952, -9.514805515126509E-4, 0.5251215070277621, 0.8010171644507769, 0.6845047002385188 ], [ -9.321538875939213, 0.5368071212306434, -1.2458597588587883, -0.5039674830126801, 0.8286562342152174, 0.5114469617758036, 1.0431190569009223E-4, 3.3888093431399163E-4, -1.328403901725982E-4, 1.308297845989136E-5, 2.463161322321231E-4, -0.03127060078576114, -1.3342028036698963, -0.31624249834002965, 0.8739884698231906, -0.05148700153066466, 0.9099883250792106, 0.5334026438385754, 1.2329925586980157, 1.2155627427268973, 0.9187981531789083, -0.04527426098302972, -0.015491425310282981, -0.21602987774562624, -0.010871264969597203, -0.9779245684992635, -0.16362043108111318, -0.17557941605228186, -0.25850623276591544, -0.36068076884751865, -0.40631987637881006, 0.43866626959333677, -0.532253512509627, 0.7798337904629012, -0.15969910121320527, 0.8633488316521205, -0.23295945321037317, -0.03277534590279427, -0.0950576994043382, -0.2113357924975573, -0.03305396670735305, 1.7401328843405361, 1.124657451993531, 3.385508557259851E-4, 0.548673667310813, 0.8272448562285485, 0.6906298535067881 ], [ -9.391680632647649, 0.4967675589173831, -1.1429162418417722, -0.5211171471922011, 0.8608396265025594, 0.4727409484947452, -5.848887286430655E-5, 3.989724755437146E-4, 3.136158748849039E-4, -2.0816346305113328E-4, -2.3371369868842174E-4, -0.060686742586294015, -1.21581825453864, -0.2790331681238015, 0.9096150853275661, -0.07986905454663851, 0.8717823457005182, 0.4885902136435799, 1.2061055844108153, 1.2438140074025772, 0.8815123247323109, -0.05102525975498166, -0.04227081818482775, -0.2648334109260135, -0.041072903923941854, -0.8737033021291498, -0.1440060058733836, -0.1740997621165206, -0.2525376107633628, -0.3046040386354293, -0.39085359377096246, 0.4945410269025498, -0.5446458489636219, 0.8131790598820797, -0.11669995609306826, 0.8934789120398309, -0.20618931023641057, -0.03674206140872002, -0.11992918094856655, -0.25548721914572037, -0.06472235874228284, 1.7492083398975042, 1.1631668108325233, -1.897395779912083E-4, 0.5056975778403967, 0.7876851184801371, 0.6751221703598322 ], [ -9.384887874109236, 0.49921657639292766, -1.1471433611539141, -0.5216428794536239, 0.8587416456903141, 0.4746144562639991, -3.7838760689421494E-4, 6.858147949362212E-4, -3.1362445688657147E-4, 3.2067486461489277E-4, -1.1984031314783164E-4, -0.05956756456359793, -1.2219490462563776, -0.28222440502190715, 0.9073378918434816, -0.07818013739994023, 0.8738504453792263, 0.4909085225157385, 1.207433544854734, 1.2414937472623184, 0.8836244250682621, -0.05078279534801818, -0.041239536780504564, -0.26280501906940684, -0.039273845221738365, -0.8773846242780527, -0.14358889085093068, -0.175308431174687, -0.2519210231572639, -0.3074833708763292, -0.39171024770723306, 0.4914926137722097, -0.5435605995246466, 0.8110745668407677, -0.1178676417428237, 0.8910978698850438, -0.2064063937021346, -0.036677227772798464, -0.1194677495829612, -0.2534124745307658, -0.06267500500240547, 1.7488096002535618, 1.1611461016936362, -1.0690124518049369E-4, 0.5091759300766054, 0.7904729119978253, 0.6766455064483046 ], [ -10.36904519597037, -0.20529340789301226, -8.405313647737671E-4, -0.9327895194224596, 1.0518889661949529, -0.33581422382156917, -4.969730487503833E-4, -1.9602795037031203E-4, -1.3055280047716148E-4, 3.762823634595984E-4, 4.12881458591455E-4, -0.15696504000852268, 0.04483740194429136, 0.0017518067885157825, 1.129439206229164, -0.08203957119043165, 0.17050474928068632, 0.5498793962691321, 0.27713358274931316, 1.3986531459180602, 0.21915506577253124, 0.6287680651128817, -0.1323850855841144, -0.6375426833953847, 0.09291046479192805, 0.39550645223585057, 0.3812655222558763, 0.182773347617248, 0.14812512170704656, 0.2606330177398068, -0.35981834989583955, 0.6614410334907985, -0.8109249792092678, 0.9469392535161812, 0.19276553432166452, 0.6930710157391295, -0.09608798562691169, 0.5317947222405882, -0.07719484414114298, -0.6899349222381034, 0.08299377336411685, 1.4104155256238868, 1.4728051576268186, 6.209221245340671E-4, -0.18234192531182236, 0.09454122673067468, 0.9782240425309565 ], [ -9.36052221661046, 0.5147305744486207, -1.195059493000863, -0.5166870101894919, 0.8421285729976281, 0.4901241549998907, 1.3939091974218595E-4, -3.39005578294135E-4, 4.18810292737364E-4, 3.524993582193202E-5, 2.211284164031357E-4, -0.05043693399140634, -1.2770033104006158, -0.3028641693012875, 0.888968103816983, -0.0702144008270972, 0.8907424916758364, 0.5115809226686278, 1.2201323697925088, 1.2318005124634623, 0.9005139896269679, -0.048273100296105625, -0.026706057685033213, -0.23945745170953897, -0.0223931976634172, -0.924443637361211, -0.15359371548852446, -0.17926557583745026, -0.2539447344542693, -0.3397372819070205, -0.4028869892740372, 0.46297366961091296, -0.5410716194308015, 0.7934326835833492, -0.13704858636671383, 0.8811052994849412, -0.21881761849136894, -0.0347235562756163, -0.1045877155491681, -0.2319807432431603, -0.04644448530877044, 1.746177570664079, 1.1468084163831083, -5.0952409770715334E-5, 0.5323844278209614, 0.8065659314855814, 0.6856555076645124 ], [ -10.368232277755721, -0.20611556675300588, 9.681166730519303E-4, -0.9353264555783963, 1.0512619946085662, -0.33593428202662523, -3.098072157400207E-4, 2.1400736378515266E-4, 3.467695557624921E-4, -1.5160490355514843E-5, -3.623636757357167E-4, -0.15684309031826443, 0.04540811936378693, -6.323506209542616E-4, 1.1284577734596657, -0.0822575173286622, 0.16880149524602134, 0.549249086011903, 0.27736303973793563, 1.3980555297077308, 0.21690028961657498, 0.6282357027032603, -0.13212908177684268, -0.635097432711433, 0.09226724434444873, 0.39489629479933436, 0.3823496855035507, 0.1827769600102691, 0.14865861445271406, 0.2579924343802418, -0.3625521672497539, 0.6598835437035547, -0.8119850460161687, 0.9465876169952294, 0.1950908578951707, 0.6942079865278776, -0.09407571933270352, 0.5307355676054565, -0.07623485295616858, -0.6864413432358863, 0.08258047842664655, 1.4093735891594146, 1.472378342076732, 3.141198469600212E-4, -0.18059223409135575, 0.09613752976527407, 0.9760451245086438 ], [ -9.371038234535607, 0.5100837633604616, -1.1836684197456095, -0.5188091929379605, 0.8455237782031373, 0.4855430167823394, 5.320931176268969E-5, 1.9499927459070536E-5, 2.0617771599275476E-4, 2.519022671051674E-4, -6.802329401525732E-4, -0.05371342033654562, -1.2640325717402647, -0.29913211313313837, 0.8926520453997097, -0.07363572551077747, 0.8864985075726924, 0.5071569855656123, 1.2165222999777405, 1.2347761233402774, 0.8957109999466366, -0.048612286212674195, -0.028604299574939568, -0.24446139012266271, -0.025609944761276104, -0.9121052182607556, -0.15130356971108982, -0.17935426050974437, -0.2530644865773106, -0.3331835565714707, -0.4009227675074504, 0.4686867369263474, -0.5422976664219722, 0.7975876455863045, -0.1321642927838686, 0.8839858077216931, -0.21555713424471018, -0.03552665635756138, -0.10731665548739053, -0.2372162519947402, -0.04943941881545591, 1.7470244513289162, 1.149807420686773, -1.2335993171785884E-4, 0.526205549808242, 0.8032488097284218, 0.6842785244649011 ], [ -10.369308094094446, -0.1991709196093198, -0.006128046896159428, -0.9264717889571153, 1.0524885076003612, -0.3274275880482431, -5.891579174402562E-4, 1.827990078693664E-4, -3.598946949315493E-5, 4.654234174334186E-5, -3.6207959250307666E-5, -0.1573938678793943, 0.03941185165426901, 0.007916881001754935, 1.1303601639368692, -0.08270226247031584, 0.17935173501157647, 0.5494275350788463, 0.28214506324302224, 1.3980844040647515, 0.22702855907037023, 0.6254783333054384, -0.13794433123294167, -0.6428645550119312, 0.08876449757716878, 0.38906803142672247, 0.378034654909756, 0.18061520255077013, 0.14416092418115042, 0.2653174043352021, -0.35374142703114314, 0.6676253811196781, -0.8090898727790843, 0.9481718204525409, 0.18963771763697948, 0.6920367820708537, -0.0991963850918225, 0.5290863612554036, -0.08197429242220011, -0.6949275566231934, 0.0784044961383105, 1.4124020790983667, 1.4719300034935046, 1.0072341501596534E-4, -0.17968629868309827, 0.095400548069723, 0.9791357884463707 ], [ -9.368486444955415, 0.5111952917947203, -1.1826002186420086, -0.5178876504934967, 0.8455186034099247, 0.4857090050399357, -2.559677003451475E-4, 1.8410773510395144E-6, 4.1018708002557764E-4, -3.70232661317495E-4, 4.077411815450435E-4, -0.05303102061580205, -1.2625808213626768, -0.2978543462941577, 0.8933558871616474, -0.07253588051817009, 0.8865890866449275, 0.5066258693458006, 1.2163815173933217, 1.235043126503664, 0.8958604540431248, -0.048655765894586374, -0.030111958550295134, -0.24595689747148738, -0.02724937885318509, -0.9122375936620695, -0.1507964148094028, -0.17752310439895322, -0.2540004437119131, -0.3309484535063457, -0.39901435124957646, 0.47015899051808113, -0.5414639247917372, 0.7978534310653734, -0.13246701101373207, 0.8833723518040714, -0.2154868899020153, -0.03472025004517181, -0.10833156912964954, -0.2374023803995314, -0.05041828788014115, 1.7471478254006099, 1.150296759800426, 2.811815781649142E-4, 0.5254652499611153, 0.8026287285353592, 0.683268792937124 ], [ -10.366544981231714, -0.21231034855361094, 0.006435512030503056, -0.9433906904512045, 1.048956663279204, -0.3435799744629903, 3.350913687568612E-4, 1.0626126025384798E-4, -4.4240599768379635E-4, -2.0181066717725683E-5, -9.433695920402484E-5, -0.15512171076297493, 0.05066351969870101, -0.008418199238277354, 1.126887783404409, -0.08086755140582925, 0.1609583768004214, 0.5473438548139692, 0.27416519161915354, 1.3963130493993716, 0.2085484891647095, 0.6288211849640533, -0.1269395319172575, -0.6280172517061492, 0.0961896965077646, 0.400325027727961, 0.38494727887018276, 0.18388414957560734, 0.1537450226979377, 0.2504330101898068, -0.3695011994621241, 0.6529835934971879, -0.8134587867844022, 0.9445222233939907, 0.2003960475787841, 0.6941883087749454, -0.08883034977654794, 0.5317113790500987, -0.07113511289835031, -0.6808041618373716, 0.08660483259217827, 1.4057357876437562, 1.471047346834199, -7.228230894063673E-4, -0.1811790780741565, 0.09792677129135563, 0.9743231902948359 ], [ -10.368356811217424, -0.20613577596149094, -6.737477528300027E-4, -0.932243481336176, 1.05128116240334, -0.33617991789892654, 5.409616864010088E-4, -1.9116421078846518E-4, 2.9370935814707313E-5, 8.928751595186067E-6, 7.75358535353767E-5, -0.15778519567118696, 0.044187051453996234, 0.0023782827397209475, 1.1289758548569204, -0.08346990041497573, 0.1717665157178556, 0.5489326754934558, 0.2776782761851833, 1.3986279335890035, 0.21896038832220394, 0.6276391376678403, -0.132848808697555, -0.6371315780727755, 0.09241772545696668, 0.3952948746145122, 0.38086529080398496, 0.18197917793719576, 0.14675631846407358, 0.2607418514210768, -0.360870872666512, 0.6603916348604036, -0.8109726503019227, 0.9467978110932336, 0.1939243447258405, 0.6926234115352162, -0.09442590499558502, 0.5315420085551001, -0.07671572936171694, -0.6891743310002194, 0.08269592813345034, 1.4109246776613849, 1.4728771047755302, 5.300963522140896E-4, -0.18191090329258874, 0.09366565390315121, 0.977573452140824 ], [ -10.367695953760093, -0.2037980043549725, -0.002524877054513772, -0.92886332359681, 1.052546995761589, -0.33315616646771523, 1.6150691458544658E-4, -3.178371691623585E-4, -2.118884523342946E-4, -4.541698483022969E-4, -2.8065451099844454E-4, -0.157050542069493, 0.043060877460627416, 0.004867097046939671, 1.1300969532294944, -0.08140710533628118, 0.17452443953852584, 0.5504501541217509, 0.27906107349648707, 1.3986228972371266, 0.2224420247318306, 0.6277162940075444, -0.13554562229888642, -0.6401182594768838, 0.08991295474254161, 0.39264675007436156, 0.37985874937245334, 0.1821656314038853, 0.14587468026278136, 0.2637233418813158, -0.3567090264590364, 0.6643170907426257, -0.810619356028885, 0.9477308150392786, 0.19152850489574608, 0.691916684157561, -0.09706002054454316, 0.5315640926778202, -0.07994302347052455, -0.6922160356688601, 0.07998676444538763, 1.4111982457825827, 1.4730013520342733, 2.716262282551139E-4, -0.18118239458832502, 0.09389527794930515, 0.9780667527068136 ], [ -9.394395009231118, 0.49262980094880093, -1.1223234113614562, -0.5215516108962551, 0.8678869854151495, 0.4676081068415807, -2.835017491993496E-4, 9.924604894096271E-5, -3.1659338804543665E-4, 7.582911050664153E-5, 2.899705457274747E-4, -0.06211293561625103, -1.1930006109053153, -0.2680990607934835, 0.9167269609777969, -0.08078621385384328, 0.8650648685202906, 0.48053590639444516, 1.201166584514108, 1.2463727108937181, 0.8752978738257026, -0.05113327508284593, -0.05092674006227385, -0.27352619415371426, -0.048810403021561956, -0.8568202421076349, -0.14037398137891546, -0.17059815145482898, -0.25250019026585824, -0.2896941787142611, -0.3844201869011642, 0.5074193293233435, -0.5436598394438559, 0.8203917886839915, -0.10923443813043765, 0.8951180191562267, -0.201244369185154, -0.037118751815339524, -0.1281701195801163, -0.2646635131369026, -0.07245657557336123, 1.750057418059272, 1.1669167976793002, 1.0947821273104445E-4, 0.4959838104413233, 0.7813491619917065, 0.6685071732737277 ], [ -9.38515195079674, 0.49252439886715216, -1.1197873091248907, -0.5155064191676785, 0.8715066406594507, 0.46763182796456376, 2.1638984792635954E-4, 1.3873969537637814E-4, 1.4692402725019916E-4, 2.0385102258072438E-4, 6.17435826649179E-4, -0.0578636737320558, -1.189136665212934, -0.26218812914047873, 0.920243330270736, -0.07650276518402853, 0.8641676333292145, 0.4780866510244668, 1.199683478401489, 1.2449972112926075, 0.8741778471748475, -0.05171670717690391, -0.054417728016929935, -0.27606689815883123, -0.05258582407156821, -0.8572285852281477, -0.13996974889967928, -0.167686074187304, -0.2539615748831999, -0.284333590218832, -0.3810802749274541, 0.5116261806391315, -0.5407766589309786, 0.8238186289406155, -0.10854614254947108, 0.894515518364672, -0.20125051363274002, -0.03735367462036655, -0.13172919740532263, -0.26741725694295326, -0.07567222875463771, 1.7477863805619034, 1.1655376519656087, 4.536733770271849E-4, 0.492307276915835, 0.7800208556334441, 0.6632439001520933 ], [ -9.38018406568652, 0.5046212909863386, -1.1654130057063465, -0.5225496004602482, 0.8509728368452296, 0.4803909773282938, 6.98501318733251E-4, 1.2605650134265187E-4, 3.566970527579186E-4, -1.7417724450776624E-4, 5.510589510175031E-5, -0.05843583389418499, -1.2434143280292813, -0.29249663638932555, 0.898946027488005, -0.07802670576180028, 0.8805629732378745, 0.49941363452346466, 1.213440807271938, 1.2391311653036874, 0.89036581975775, -0.04986106337136213, -0.03461403672440112, -0.252701813729902, -0.031222351589171856, -0.8947742320351135, -0.1479354677469155, -0.1783590517964592, -0.25258970884420684, -0.32245985814533246, -0.39804105566483783, 0.47903534429182715, -0.5445755968768428, 0.8028828487248634, -0.12487645543901647, 0.8885454113168014, -0.21063752139581957, -0.03610839789716379, -0.11215583150765703, -0.24489250796834316, -0.054876731842032206, 1.7491388274045392, 1.1573148701914584, 6.116170090498668E-4, 0.5196587744808333, 0.7971423554327789, 0.6819452807653912 ], [ -10.368389247065856, -0.2037425421877206, -0.0014624014895197662, -0.937677622227221, 1.0489848541508233, -0.3337593106077334, -5.278792059187802E-4, -1.7790719966009135E-4, 5.90394990729446E-4, 2.1349992708969827E-4, 5.344636783485637E-4, -0.15488000390988596, 0.043064335806247585, -0.0025006279975321923, 1.126444423366952, -0.07967603610209481, 0.17163483983965797, 0.5469911299773715, 0.2782817376973216, 1.3948799716971347, 0.2195950040742604, 0.6248002747109715, -0.1327062125361757, -0.634410042518248, 0.09168109785060531, 0.3929808100323214, 0.382974696847439, 0.18214135268083076, 0.15029580628518008, 0.2557785504833092, -0.36103141531122246, 0.6612696937586227, -0.8112554530895237, 0.943911756986018, 0.19464728511134866, 0.6928189812685376, -0.0938206482210143, 0.5289459466064078, -0.07629052004676726, -0.6863499594348016, 0.08246392594615082, 1.4062374046834107, 1.4684776711045702, -3.5486136411439216E-4, -0.1766410451282295, 0.10061581992935108, 0.9760505176392698 ], [ -10.365190674152688, -0.20955179327776802, 0.004232396139161758, -0.9402718995858614, 1.0496981663035483, -0.3406779083043153, -4.2182546996896525E-6, 3.9937886777355243E-4, -4.2808680640540544E-4, 4.932459054169746E-5, -4.024807372926442E-5, -0.1533166745651755, 0.048345719632833746, -0.004645511772270056, 1.127454805275952, -0.07966773047978218, 0.1644791747800086, 0.5487086427466902, 0.2758890654020994, 1.3956403761804412, 0.21169048449036168, 0.6279913375999341, -0.13082671387152947, -0.6309022088914336, 0.0932859093130963, 0.3979927711664541, 0.3840696949858858, 0.18360999552031368, 0.15167764310195106, 0.2533950208206423, -0.3659015312147771, 0.6561609158743978, -0.8119714939968803, 0.9452082737631706, 0.1988953544472629, 0.6939186089084375, -0.08995678624355366, 0.5310206314366985, -0.07497963333761053, -0.683873981034688, 0.08328549668917726, 1.4058560656169499, 1.470340338229594, -2.7867837982749783E-4, -0.17960443695585146, 0.09833176427972203, 0.9747423332590592 ], [ -9.3733636348812, 0.5083312627027646, -1.1743477085683063, -0.5208017776592178, 0.8487637981471917, 0.4834518716750381, 1.3640536860074265E-4, -4.4626799086190465E-4, 1.543987310556559E-4, 2.5125748867198716E-4, 7.636210436179368E-4, -0.05630939930365848, -1.252647835771426, -0.2954535503426506, 0.8967193438364275, -0.07550689606527425, 0.8832949745884546, 0.5029684575167391, 1.215443989613159, 1.237250336321568, 0.8929377105644883, -0.05019000458118855, -0.03258152631099728, -0.24864319819431716, -0.029581535451776633, -0.9035724259051938, -0.14975851658509265, -0.1788902051098286, -0.25320429346873613, -0.3270876727224448, -0.3996213052124609, 0.47372065574267624, -0.5430431652540293, 0.8008776792884071, -0.1276022471538163, 0.8861200325801022, -0.21263579213301134, -0.03580365258646868, -0.10977175575231046, -0.24072464811044428, -0.052546090280871365, 1.7483286792762247, 1.1541008356115863, -8.356713751043748E-5, 0.5226473788489825, 0.8003289319149738, 0.6833902407957463 ], [ -10.368807099981538, -0.2022056262947061, -0.0029610174657198085, -0.929102516883938, 1.052114299559045, -0.3314109321486576, 5.142213079005848E-4, 9.321215998575017E-5, 1.2545982140391203E-4, 8.156695090135761E-5, 1.1370145677053157E-4, -0.15680383388529773, 0.04141875788441629, 0.005616994536462833, 1.1300738531436587, -0.08259774864846678, 0.17480705346830855, 0.5491553656298113, 0.27975654162995744, 1.3988047102015513, 0.22280312376885156, 0.6267675842196244, -0.13538508337361416, -0.6404421714747826, 0.09023748166031254, 0.39197688831782107, 0.3800577982980864, 0.1817193871353645, 0.14543406089311242, 0.26287728399920585, -0.35690356508454235, 0.6647490755351921, -0.8105874867611235, 0.9476934053390913, 0.19181349934935693, 0.6920352854324847, -0.09726993118621897, 0.5305914900816, -0.0798217282332095, -0.6923211956448144, 0.08061048011967643, 1.411875728744448, 1.472511924919966, -9.771712072964609E-5, -0.18085876025477654, 0.09473120345595056, 0.9779072653978801 ], [ -10.36734225843518, -0.20208675255677758, -0.0034604009300340565, -0.9281795338334616, 1.0525913669442621, -0.3306945356416112, -1.3313282049869966E-4, 6.916458461831347E-4, -9.44545031241858E-5, -1.2831658386359472E-4, 4.508749333585284E-6, -0.15576780030343002, 0.04158350911383437, 0.006085717040395647, 1.1303896852714042, -0.08102223435527768, 0.175431704619181, 0.5497795134639012, 0.2803517604893165, 1.3987471283519648, 0.22354727281205417, 0.6266678456872653, -0.1368414826076472, -0.6414397049211779, 0.08908758188159477, 0.39173786205734445, 0.37906457470156973, 0.18177666943547718, 0.14523606539641593, 0.26448003779751544, -0.35510271841233865, 0.6655900821726067, -0.8100095245741379, 0.9485761971913543, 0.1900783744030905, 0.6925199941867144, -0.09810060986502138, 0.5311778108428975, -0.08169761026949464, -0.6932137272588123, 0.07925410403998197, 1.4115175322403344, 1.4721700053623055, 3.84214319048107E-4, -0.18080033793729788, 0.09470132178009091, 0.9774337115680911 ], [ -10.367201359315473, -0.2060140211607774, 3.414874437674398E-4, -0.936952427301563, 1.049981603616243, -0.33577935290381505, 1.5503605914833763E-5, -5.439600622403902E-5, -9.52029465485577E-5, 4.049373165125502E-4, 5.5925463454510985E-5, -0.15412027209718748, 0.04520981746054995, -0.0019627308296253547, 1.1277851326819186, -0.08002262175075052, 0.17019112752600649, 0.5486255328125776, 0.2777190453555498, 1.3955346970624973, 0.21773035675940766, 0.6268754942893886, -0.1330873070931185, -0.6353355289554223, 0.09193294805602331, 0.39460113248115436, 0.3827963943686269, 0.18236749743591837, 0.15104833553886574, 0.25671729720676467, -0.36198476305890054, 0.6602116135490701, -0.811428585298024, 0.9453673774106213, 0.19648813767487155, 0.6931585481936917, -0.09319309369543805, 0.5299953390116594, -0.07703267620735567, -0.6874227585661283, 0.08239593630122083, 1.4069077185890684, 1.4698345656496916, 2.476646271702329E-4, -0.1779562183497244, 0.09948461173498327, 0.9764761077209847 ], [ -10.367332584856259, -0.20550149457040648, -1.8032212922801423E-4, -0.9337615504576621, 1.0521686239161088, -0.33505149744915375, -2.729946215084227E-4, -3.77553181576603E-4, -1.0599525450505707E-4, -5.242262244136663E-4, -2.551132234529776E-4, -0.15444665880196332, 0.04452812069328035, 0.0012194612629981938, 1.1293039052935565, -0.07987402704999155, 0.17118307864403695, 0.5496905043720226, 0.27793904713732775, 1.3976867733840235, 0.21870386919705267, 0.6274942193297268, -0.13458633769675052, -0.637486955972978, 0.09068442726108118, 0.394376318007296, 0.3819733241420311, 0.18336490566259414, 0.1478781177143584, 0.26045438287906253, -0.359338041788272, 0.6621865877309149, -0.8116151550970475, 0.9470850158225713, 0.1935803276898391, 0.693591807521377, -0.09539599225627367, 0.531392472314383, -0.07896673873296078, -0.6889748634588988, 0.08129441995922262, 1.409308948885341, 1.4714667846228109, -5.608500187299358E-4, -0.1798908616442742, 0.09675363913757615, 0.9761278031228635 ], [ -9.376620254716832, 0.5074089321375344, -1.173898555188361, -0.5205021042776967, 0.848295520774549, 0.4821811599771776, -1.8084488069809203E-4, 4.3287396685290404E-5, -6.039566315046587E-4, -9.301118672561668E-5, -2.2680013228836473E-4, -0.056889027670273304, -1.2530425202604252, -0.2958874319040765, 0.8958449110560788, -0.07663781132677304, 0.883414427339272, 0.5033946850723617, 1.215223586630621, 1.237587269326457, 0.8930348650234353, -0.05018033772934315, -0.03153991007309855, -0.2492195343744542, -0.02811600518126521, -0.9025914569956206, -0.14953692136639588, -0.17950301718310394, -0.25313037034902347, -0.32753610029293373, -0.39966684476044995, 0.47382393926263977, -0.5436713892120085, 0.8008189191767233, -0.1275047201985641, 0.8861618058750507, -0.2128220867431646, -0.03584578400357801, -0.10996941321698947, -0.24147740341383817, -0.05220054429848934, 1.7481895255866293, 1.154200426378517, -3.0636731490006906E-4, 0.5227972887875628, 0.7994736757990368, 0.6838842071901035 ], [ -10.367945859815139, -0.20417265589830927, -0.0011283064135534464, -0.9321583927181863, 1.0509735738086174, -0.3342908389402717, 4.3972239137263924E-4, 3.28863248903317E-5, -2.7352404431862666E-4, 5.039940102058587E-4, 2.5578162820553095E-4, -0.1573213481645331, 0.04402637513981684, 0.0020905910256639793, 1.128703646452014, -0.08267782683523514, 0.1724124884278745, 0.549494262687303, 0.2785593983937308, 1.398358164432221, 0.22013025644959833, 0.6277082614017611, -0.13342782366654796, -0.6376526694878573, 0.09126249791170224, 0.39415769526813044, 0.380581187605625, 0.18257896639082913, 0.14696018056930193, 0.2605209517672777, -0.3595618111542666, 0.6621571490584307, -0.8107650626090036, 0.9463751551089762, 0.1929061452887522, 0.6926150244157924, -0.09590546418979043, 0.5312709580104701, -0.07769774001716871, -0.6894894564935227, 0.08199750936329703, 1.4102125039070394, 1.4727859902642935, -4.071885368596939E-4, -0.18093076687344573, 0.09521413409843417, 0.9767191053214668 ], [ -10.36609657868739, -0.205678792967866, 0.002092006528781884, -0.9402250158239309, 1.0491317763619565, -0.3362010527403849, -1.3120249386494833E-4, -4.8089601072510497E-4, -2.610851619708516E-4, -1.5553044684813073E-4, -1.996912577731993E-4, -0.15325481079717151, 0.04597520990844956, -0.004733927397771343, 1.126972047286939, -0.07893849427733615, 0.1681258181280917, 0.5473093206784075, 0.27786214432093376, 1.3941400207079597, 0.21539435895971817, 0.6257139104646715, -0.13230874495686407, -0.6326959477239045, 0.09153571181540895, 0.39434169460410995, 0.38314231094529605, 0.18254176775594916, 0.1525486284451043, 0.25248171333694747, -0.36425346055174884, 0.6583023163617677, -0.8119347267837126, 0.9444843621890224, 0.1986038501284338, 0.694223967034692, -0.09035588949130934, 0.5288495128517409, -0.07685977965055378, -0.684890781435315, 0.0822467443637134, 1.4053494816488623, 1.4678906023157523, -5.511330374365611E-4, -0.17609026566666308, 0.10326323563685853, 0.9742150677770192 ], [ -9.388041650041039, 0.49463170244403554, -1.1307524446959338, -0.5189519309965681, 0.8664289082425137, 0.4697231677670574, -2.8131595372826165E-4, 2.1990533632772097E-5, 1.320513566354564E-4, 1.5213065526798497E-4, -4.707934798767641E-4, -0.05977972628489109, -1.2020472676010792, -0.270372486977229, 0.9151455402386086, -0.07784786411400076, 0.8677655597876105, 0.48302531398286436, 1.2028961580895217, 1.2445582471123042, 0.8776484059475554, -0.051495558734636314, -0.048668098223622586, -0.2705540284009552, -0.0475544374036399, -0.8644492235491072, -0.14148831308544269, -0.17167051916701842, -0.25319729857951734, -0.2940238661433648, -0.386080735139685, 0.5036705045370052, -0.5435429455201203, 0.818608489848525, -0.11180850827936002, 0.8943597594246041, -0.2024976867722458, -0.037678081934686976, -0.1256702254699935, -0.2613569578653338, -0.07097212891560267, 1.7490924738137017, 1.1642960738982822, 2.5982749614695855E-4, 0.499172955183298, 0.7840917046238047, 0.6691624927770033 ], [ -9.363128785938676, 0.515090437330463, -1.1949934250354557, -0.5165871985145194, 0.8424685869711985, 0.4899660437027477, 1.5889995092197023E-6, -9.747471457837542E-5, -2.589475589560773E-5, 1.1958338230211418E-4, -3.744378873203817E-4, -0.05039362968300003, -1.2769249583774416, -0.3027366210346396, 0.8892412156724148, -0.07053142660189732, 0.8901027675469039, 0.5118653587678565, 1.2194963234439582, 1.2315808801165302, 0.899750741671302, -0.04878525675258001, -0.02638868687660742, -0.239564274969072, -0.022495633408724007, -0.9233375920786399, -0.1531885377257319, -0.1795122209163935, -0.25346166950258364, -0.33838819219555044, -0.40223300596103606, 0.46317268875552875, -0.5405461947404985, 0.7932765194463135, -0.1366583232116409, 0.8807512958754901, -0.218124957027372, -0.035030059335164634, -0.10492563004996432, -0.2326483270680913, -0.04609256224000221, 1.7463877402228858, 1.1466990100025547, -1.5453677278233472E-5, 0.5305445023276568, 0.806852274782896, 0.686058005250225 ], [ -10.366194038180144, -0.20980499250967896, 0.0038292306457889487, -0.937826151303801, 1.0509912089552509, -0.3414107577124348, -3.0536246292126696E-4, -2.919865641686449E-4, 2.65434676913759E-4, 5.337760281923534E-4, -3.3813501000990556E-6, -0.15559654794605543, 0.04819770242887772, -0.004260077846881672, 1.1285123851200753, -0.08023774899891768, 0.16477601605063055, 0.5495004968186359, 0.2746605633526559, 1.3976038486156332, 0.2125457399807565, 0.6298269637480917, -0.13034308563988223, -0.6323035892541402, 0.09363716282169253, 0.39883877296979736, 0.38395835572433146, 0.1840659294043511, 0.15076561751453071, 0.25634368313975653, -0.3643269551159549, 0.6566470201977884, -0.8125921261071197, 0.9458577038634332, 0.19657103273918322, 0.693597472786743, -0.0923472283070912, 0.5333055355158776, -0.07421118440885686, -0.6851913375184506, 0.08438159423061696, 1.4083394040654453, 1.472334977883357, -1.8704077224875645E-4, -0.1818973090530381, 0.09575961576459704, 0.9750215933656148 ], [ -10.368298211652968, -0.20157607887632908, -0.0031623041648420275, -0.9315980126457175, 1.0524685487832959, -0.3305424631511652, -4.7254508765805627E-5, 4.430140192062861E-4, -2.678468151341023E-4, -8.120501284180312E-4, 2.3680694292997444E-4, -0.15528771441109412, 0.042023482923827994, 0.003462991635290182, 1.129335572675786, -0.08050776032836572, 0.17383424519354657, 0.5485784115140891, 0.28045515610735616, 1.3971959490474608, 0.22175346426122455, 0.6258307682609427, -0.1359003882836925, -0.6392124585136116, 0.08969145540743469, 0.3913589852311436, 0.3805566538065586, 0.18223759826359362, 0.1467664044369394, 0.2608500949238292, -0.3580327651722223, 0.6645258338129107, -0.8100500358257273, 0.9482280986675341, 0.19246982627791803, 0.6936425185321043, -0.09640319343238656, 0.5300112954568734, -0.0803641211754297, -0.691532008268881, 0.07996028735352649, 1.410156738794932, 1.4707273829340681, 1.5963025892504903E-4, -0.17925336245546697, 0.09835787742915954, 0.9769278396145938 ], [ -10.368115808253203, -0.20628098488853563, -1.0629497647103452E-5, -0.932884309935132, 1.0514564612430126, -0.3366441808149583, 2.5997843110015884E-4, -1.4489420144215628E-5, -4.5743665363380336E-4, 2.1569627780502158E-4, -4.4290845079912497E-4, -0.15672814778908, 0.04555427404632857, 0.0015148927899981655, 1.129799698142335, -0.08267870240890296, 0.16949413843700362, 0.5489570858929177, 0.2775982008077626, 1.398716626687372, 0.21750571997245385, 0.628536065757626, -0.1325241304991886, -0.636772252865725, 0.09287121875132591, 0.3956383845435626, 0.38134635575391523, 0.1821899157107512, 0.147837380464467, 0.25898420718101534, -0.36121914339075945, 0.6607317081145023, -0.8114521715656023, 0.9469634012027642, 0.19355059250223078, 0.6934488972537671, -0.09456617568901103, 0.5321128971144206, -0.07683603775098173, -0.6876883656680985, 0.082138946032857, 1.4105280899543269, 1.4729794269584464, 2.1868727596506383E-4, -0.18226008154215975, 0.09400745977694713, 0.9766231062928197 ] ], [ [ -12.680545052324469, 1.914468364995336, 1.7030812919425329, 1.6975497048062858, 1.7006325788233982, 1.7001137200549332, 1.691642455750981, 1.694764276074325, 1.7087832467823103, 1.91485331043528, 1.911934170978408, 1.9128505349773908, 1.7044092187765663, 1.7001000817781156, 1.9111766148808889, 1.9165787393129443, 1.6878753318980508, 1.6572244877789195, 1.6989805679598136, 1.6980007125567347, 1.9150838184431669, 1.6801162147367465, 1.9140018494168434, 1.6837033073424386, 1.9167430936481267, 1.6838827756216759, 1.9092196915541904, 1.9156451072626544, 1.9159475010919187, 1.7067799104244852, 1.707525810448647, 1.6921050865281737, 1.9087625564068618, 1.9088460579536837, 1.688944739823067, 1.9162607912488578, 1.9161257297800494, 1.910421430447934, 1.9128488898949172, 1.688145906351618, 1.9154121215825206, 1.9081554705888217, 1.7040369160920374, 1.6791380743068596, 1.9127163849775783, 1.9132383022455464, 1.9154570492305134 ] ], [ [ 35.410613293085575, -1.4432560598610482 ] ] ]
}