{
  "config" : {
    "algorithm" : "ListNet",
    "numIterations" : 100,
    "batchSize" : 0,
    "verbose" : true,
    "nomodel" : false,
    "params" : {
      "regularization" : {
        "rate" : 0.01,
        "regularizer" : "L2"
      },
      "layers" : [ {
        "activator" : "Identity",
        "num" : 46
      }, {
        "activator" : "Sigmoid",
        "num" : 1
      } ],
      "optimizer" : "adam",
      "learningRate" : 0.001,
      "weightInit" : "xavier"
    },
    "dataSet" : {
      "training" : "../../../MQ2008/Fold5/train.txt",
      "validation" : "../../../MQ2008/Fold5/vali.txt",
      "test" : "../../../MQ2008/Fold5/test.txt"
    },
    "model" : {
      "format" : "json",
      "file" : "../../../MQ2008/Fold5/models/ltr4l_68.json"
    },
    "evaluation" : {
      "evaluator" : "NDCG",
      "params" : {
        "k" : 10
      }
    },
    "report" : {
      "format" : "csv",
      "file" : "../../../MQ2008/Fold5/reports/ltr4l-report_68.csv"
    }
  },
  "weights" : [ [ [ -9.277334209308727, 0.33659025334473786, -0.6487327036192098, -0.32436785209257085, 1.108319391089348, 0.3277581446769072, -2.1357052385869357E-4, -6.264912311187642E-5, 3.9967311850559E-4, -6.108061234791428E-5, 1.7174604257727663E-4, 0.21938650484091993, -0.7768652188736219, -0.504809647610343, 1.1471388072251152, 0.21303251914055185, 0.7344089272291282, 0.5045922597429165, 1.5749625981455186, 1.6924011636325134, 0.747565301152213, 0.07279146045358707, -0.29883309949588094, -0.24891706792253745, -0.14327852135571764, -0.5439392585817805, 0.16313960433877595, 0.32085716462308683, 0.19211478749877053, -0.6485376644404266, -0.366168216169172, 0.00889067324911829, -0.3466418572515491, 1.0511792063272665, -0.2877070062829069, 0.8378198749477053, -0.1483808081257288, 0.04352561305062252, -0.29862494313538396, -0.23612073012914533, -0.08464929180496389, 2.1129203874718776, 1.5899273076955258, 3.730298759752143E-4, 0.5422022393736345, 1.1102156444778444, 0.6798021569944771 ], [ -9.296656591367636, 0.34159362407181326, -0.6491008182326027, -0.32331427774190913, 1.111733483755222, 0.3327895913706737, 8.992516124955356E-5, 7.336798833261248E-5, 2.4661421449635767E-4, -1.1550645355413869E-4, 2.962019074349095E-4, 0.22434542396039603, -0.7772992334780485, -0.5054621210942501, 1.1499863513985342, 0.21793494480515938, 0.7409414356025419, 0.5111874550900419, 1.585794781877337, 1.705825498234164, 0.7544577433921543, 0.07239819057900777, -0.2998777245361428, -0.2518384050199167, -0.14400514995028324, -0.5435133742730551, 0.1623832764499727, 0.3177648203762451, 0.18985379702895713, -0.6480554540213053, -0.36890929515627713, 0.006448483676092077, -0.3497718593804874, 1.0540455792901673, -0.2898554527505222, 0.8351995305105517, -0.15178063151773685, 0.04326519822438362, -0.2995548410289728, -0.23968038209287623, -0.08558486322540912, 2.1271777126790923, 1.6051593275004765, -4.2602881245557185E-4, 0.5446870499822173, 1.1096333579355504, 0.6866609015281327 ], [ 8.501079436397957, -0.2549901376429124, 0.6186389395438329, 0.35364355363028016, -0.9978389170151465, -0.25188866856746817, 6.15572339558838E-4, 2.555021056534114E-4, -1.6479154988408658E-4, 2.201742013370571E-4, 3.6141094925160874E-4, -0.12735519800525472, 0.7362909748021934, 0.5069204543511198, -1.032673243802247, -0.12043725941952074, -0.6065728476793546, -0.41739157036328295, -1.3262990799429315, -1.3914028955959306, -0.6185216830352003, -0.055338839375324314, 0.2789212756395598, 0.1885726572510023, 0.1220399876677305, 0.5404674158508318, -0.18655312894905532, -0.3611417628104312, -0.2513765891688256, 0.660259875453514, 0.30523042044397214, -0.022197017198470895, 0.2649058848031856, -0.9401830525376639, 0.30000809703972103, -0.8084982035254901, 0.1570339589024402, -0.0033124993663784987, 0.279523738661136, 0.17582133851106546, 0.07005535274514835, -1.8181190671365501, -1.290780559642078, 2.387977684957497E-4, -0.5172825131977902, -1.1136026321165602, -0.5199874674317894 ], [ -9.297310431861604, 0.3421463235723833, -0.647795115440834, -0.3233341269702546, 1.1126165752045372, 0.3336712693123145, 8.430105058198274E-5, -1.0576786960898785E-4, 3.9995258700962566E-4, -6.391369331763031E-5, 2.786791395699669E-5, 0.2253341380395079, -0.7766569339801834, -0.5058841118161602, 1.1507231303398093, 0.21853887202030436, 0.7424564256315869, 0.5126158082761026, 1.5871962912242037, 1.7085807263825663, 0.7548933167211549, 0.07179558298113665, -0.30013386498334854, -0.25218423073242074, -0.14426289481808435, -0.5433369576712607, 0.161794952687361, 0.3171789879481339, 0.18875009758019096, -0.6480693883426424, -0.36880963420763274, 0.005392097828212574, -0.35001208884689017, 1.055045530397436, -0.29098707253350864, 0.8337499411604548, -0.15131589783837607, 0.04378312007229583, -0.3003334505928178, -0.24022316706852484, -0.08586566942204943, 2.1287847905724426, 1.6070886621109033, 1.239160615031291E-4, 0.5448717955440997, 1.109207910622868, 0.6873673755404526 ], [ 7.798970246384825, -0.23138188270177243, 0.6204594977816408, 0.30070286565950827, -0.8954920504693372, -0.23271836520444175, -3.277912684902337E-4, 4.038063556122021E-4, 7.407031543609909E-5, 1.8396215087629073E-4, -2.2994475198485976E-4, -0.08309190144671087, 0.7243978415952254, 0.4299803171210885, -0.925863107002468, -0.07514759090189894, -0.5658885925687045, -0.4000975294374892, -1.2126359309480161, -1.265703666189586, -0.5784031275794888, -0.03888734001265581, 0.25327691928239127, 0.1840784068151932, 0.06747588215579205, 0.5575175958975134, -0.1373691540720052, -0.2879116820928028, -0.2313643201095633, 0.5435611668341316, 0.23448551940986434, -0.025565255617535563, 0.21267930430485127, -0.8480296550569622, 0.27692942254222025, -0.8052623991253007, 0.14128403263772188, 0.04043420525057707, 0.25882083335195644, 0.17616888390957602, 0.02606978174551665, -1.6801578462546969, -1.2002843608021534, 5.495570203882893E-4, -0.4666556070069232, -0.9807072331627031, -0.4844361285576279 ], [ -9.29932450642237, 0.3425388854615246, -0.6486429111855083, -0.32333457251612674, 1.1125613983865208, 0.33375684279514006, 7.522795089836638E-4, 5.688000731254069E-5, -5.2263285295936504E-5, 2.905788387499623E-4, -4.2976704967325857E-4, 0.22561924016089166, -0.7768710977230299, -0.5054530933617334, 1.150605140247721, 0.21872326073665688, 0.7417718489816504, 0.511718363609755, 1.5876673925865417, 1.7090213956180849, 0.7555554369686323, 0.07264968583001495, -0.29983231814219563, -0.2529867647511715, -0.14408966841465778, -0.5441809046131301, 0.1617326123710784, 0.3172943779447603, 0.18946137548846434, -0.64835168551194, -0.3696292835319807, 0.0060829534514431115, -0.3501114053787406, 1.055040173605078, -0.2904795661740733, 0.8344539642301919, -0.15148320403138552, 0.04331012076057554, -0.30021214685946473, -0.23983764277499284, -0.0858735389999403, 2.1286177046324077, 1.606997423390715, -3.522035818237985E-4, 0.5452923059552907, 1.1096291239411418, 0.6870158115837013 ], [ -1.3844738226730662, 0.02774944231805573, -0.07310164915027893, -0.15647742376156673, 0.274268254971117, 0.056775236122119266, -2.3074013825171065E-4, 4.262939352700848E-4, -1.8383793796146797E-4, 8.459787641895007E-5, -2.4425859329794894E-5, -0.033423400485278684, -0.09432988555101349, -0.17821964708462656, 0.27192677426661843, -0.04078606391070086, 0.005541761830206123, 0.1520942867307888, 0.26682428737540465, -0.03994144967488008, 0.01589604990094823, -0.069116967972775, -0.038844656021600726, 0.11980578089778404, 0.036790254422585836, -0.23305444990480856, 0.21983356788237712, -0.02137814676441053, 0.24374199372937688, -0.49178165839613697, -0.007490500646209726, 0.02003626475656265, 0.12791528716890693, 0.2884145373641462, -0.4253257482065388, 0.2524128959126196, -0.3014718311182903, -0.2266623688057487, -0.02632751144613318, 0.1729702050082327, 0.04640832851913582, 0.29380831115844624, 0.034482148882314385, -2.923272358893902E-4, -0.04292856660275624, 0.3220253695600258, 0.1765297648413886 ], [ -1.9406375758853245, 0.04365185491864491, -0.134332711044993, -0.19904169986293282, 0.3648088066922135, 0.06654831811307552, -4.3779596805443207E-4, 2.2994965986329927E-4, 2.7250030867442436E-4, 3.078951796822648E-5, 2.619895562387421E-4, 0.0427736408731985, -0.163367377447145, -0.19524114085219588, 0.37281929552003246, 0.03444753907349536, 0.03645849766823485, 0.12366170872338397, 0.34179799807956596, 0.03567264764810759, 0.04578870287038927, -0.05824830695332652, -0.08785080300469501, 0.11451432866121355, -0.024750864569563193, -0.26042276063959924, 0.19102883636790563, 3.9972472160240246E-4, 0.2150537178896195, -0.5206246041648911, 0.017770003742757078, 0.10533842324223834, 0.1638973189682482, 0.377684080923189, -0.3700791611587786, 0.2656394418842203, -0.2694520574748216, -0.18884627885589456, -0.051452399136021204, 0.17277676123575075, 0.012891793527611087, 0.39576296353709595, 0.10317893012845428, -6.283503986467175E-5, -0.0021487055559444254, 0.38956305158382626, 0.12909276590686014 ], [ 8.44272627534954, -0.25310675893363405, 0.6166794101434445, 0.3533887602397363, -0.9911294336478533, -0.2500311926140259, 4.1227490872988075E-4, -3.136557957463029E-4, 2.548845866382156E-4, 1.8891443455257376E-4, -1.2798678587296606E-4, -0.1230725219967815, 0.7337486157608697, 0.5042455311139759, -1.024922434151456, -0.11723997601460177, -0.6015968439694399, -0.4150992164683903, -1.314332531834923, -1.378222917626211, -0.6140407950816561, -0.05608142182436796, 0.2752286963648363, 0.1844833741174128, 0.11769679323320478, 0.5394870936797443, -0.18657315672332855, -0.3603127912478099, -0.25457751768349807, 0.6565666776378589, 0.3019376769218099, -0.02126062929866553, 0.2611491463090414, -0.9341760785377929, 0.3027079445383368, -0.8043555014185683, 0.15937812900889256, -0.0013147487355758994, 0.276810073425986, 0.17232460528490637, 0.06739610377123524, -1.8051798697234969, -1.2783906061532546, -1.2102609311580409E-4, -0.5160219987523152, -1.1105996886910747, -0.5137159096806879 ], [ -9.300625278108173, 0.3406822882817406, -0.64828218023153, -0.3233473465905196, 1.1139120364461579, 0.33249285822963076, 4.345354301271583E-5, -4.3306543166012434E-5, 6.078047476681317E-4, 7.8968633245938E-5, -2.2332654972893816E-4, 0.2263270512362489, -0.7768460280647643, -0.5041688164311533, 1.1524104330376452, 0.21953041267294812, 0.7418897783847302, 0.5148663679662699, 1.5890859934042798, 1.7088673023846634, 0.7547932732312805, 0.07183686264461009, -0.29953122465285287, -0.25212321965068774, -0.1431429974827112, -0.5430222279907349, 0.16210603542565, 0.3165715749849092, 0.1894120092676445, -0.64716123123532, -0.3677517797740509, 0.007482080843730482, -0.3497277857119558, 1.056414935149585, -0.28888325708636126, 0.8355367342030876, -0.14990918997710925, 0.04309495854488756, -0.3004679294994335, -0.24055087404210346, -0.08519925796012735, 2.1290514339370255, 1.6065308195216743, -1.0154615692601738E-4, 0.5472731227793873, 1.1120091483402827, 0.6890032633540439 ], [ 6.979165954266921, -0.20628553662761914, 0.5584646777581522, 0.28347425446069807, -0.7717949805574872, -0.20337144220170275, 3.112618366583076E-4, -8.945946862029705E-5, -2.911290654624674E-5, -6.37752625981693E-5, 1.3665838253319458E-4, -0.11792156239041544, 0.6556591842784681, 0.40030003381820783, -0.8005454444469288, -0.10887448293141035, -0.5178222526649457, -0.32969383696852034, -1.0776128147985549, -1.1445991803624294, -0.5275945765908299, -0.03876800394647123, 0.24273290256671956, 0.18220881682127554, 0.05087974109278394, 0.5082851074472386, -0.09131177340393595, -0.23612958492454264, -0.18442795963242456, 0.4700658212932596, 0.19081962522092874, -0.02324112105534979, 0.18551471983361345, -0.7311504609473984, 0.1909147576382532, -0.6981973711532566, 0.09753076255616445, 0.03280069334399673, 0.2371069574170008, 0.18076082912840893, 0.007859061290284757, -1.4895486426339455, -1.101549012697604, 2.580169799412225E-4, -0.42178681020835185, -0.8439540588981461, -0.4143241285600989 ], [ 1.9689110958703158, -0.0910203380430102, 0.11807386695023082, 0.006730335849251524, -0.15726490751326264, -0.06472710167866916, -5.083876343588579E-4, -8.423526793355956E-5, 3.7019530683135717E-4, 7.615933410910033E-5, 4.5598600658264786E-4, -0.17522454759886832, 0.1569050005986835, 0.06330675734788843, -0.17632371646606823, -0.17216470569602818, -0.19094323550040737, -0.061370624588589925, -0.24694053097003948, -0.5312114502976881, -0.18713084282852321, 0.059612338204006826, 0.10568121620251218, 0.20069360095084054, 0.1420010838620569, -0.008889225005417643, -0.05150683601886969, -0.282817223932014, -0.06265892324001753, -0.039317613371098695, -0.014389976479869778, -0.09714709495812124, 0.05028125514849423, -0.14760557652652678, -0.22871562345623336, -0.11203296539079287, -0.19172811918024976, -0.07445640581726974, 0.09440648261903366, 0.21747419147971433, 0.10537665772689099, -0.3980162060819009, -0.43175778644797097, 1.8051375497239912E-4, -0.18143154078973472, -0.11842915509959523, 0.019156898696899596 ], [ 7.864083261020233, -0.23382940604941113, 0.6275122948078029, 0.30552271639662143, -0.9086314755407721, -0.23498860047711095, 1.9610911602807615E-4, 3.2424774624532844E-4, -1.4083719722850623E-4, 1.0068409812790396E-4, -6.24452485072505E-6, -0.08260174036312838, 0.7323170790806682, 0.43607118267333844, -0.9388556035448786, -0.0742255172304886, -0.5690182372146775, -0.40554708795073624, -1.2230128832264298, -1.274070660577228, -0.5811572434822923, -0.040451685440867156, 0.25446566674697124, 0.18369433450098968, 0.0719672943592682, 0.5642360671117855, -0.1415169329902451, -0.2914703319908194, -0.2362169753344834, 0.5560864964194827, 0.23806032763717722, -0.02561378684199558, 0.2142058297757122, -0.860456513691843, 0.2889151491026082, -0.809017010831486, 0.15002287798458805, 0.0381694956131013, 0.2600518117994919, 0.17407585499039305, 0.029402150985933895, -1.6938274399326523, -1.2047789877732535, -1.538637087811172E-4, -0.4721173370094061, -0.9977024235468309, -0.4885426963387311 ], [ 8.279071829331176, -0.24745168414241722, 0.6150446321125279, 0.3461235128183633, -0.9709066296966891, -0.24619560877091715, 7.145588237361348E-4, -1.3125460909969066E-4, -3.457814020653705E-4, 5.100794443539571E-5, 2.8147613262712273E-4, -0.11168363893120759, 0.7301053192491168, 0.4903793460996225, -1.004411501428532, -0.10507472667185476, -0.5897142300165256, -0.4109230969821274, -1.2834824854006763, -1.342858745529393, -0.6023110480508513, -0.055315640954149814, 0.2683413266588647, 0.17637407964575907, 0.10623869069432203, 0.542746111210814, -0.1800888970365888, -0.3467657257116441, -0.25543391446572705, 0.638050176452799, 0.28768408024800957, -0.020219039641289203, 0.2486889121924164, -0.9148553768850755, 0.30983289184683677, -0.797363918858705, 0.16624550641703886, 0.005596886178534002, 0.27195860063074684, 0.16538981593427737, 0.05839246318342376, -1.7713067183455198, -1.2475373541517767, 1.9217205908544013E-4, -0.5112962455519816, -1.0939295520726295, -0.5017741308761623 ], [ 8.22008175250462, -0.2446313220122942, 0.6182450895529888, 0.34261456651051914, -0.9647589891274692, -0.24388296907821827, -1.408796518205851E-4, 5.0250397540697215E-5, 1.2553801517685258E-4, -5.526709141520074E-4, -4.404270824503162E-4, -0.10649210435879028, 0.7319840762639441, 0.48373405666201963, -0.9969795128219622, -0.09912005506211836, -0.5867519257837204, -0.409449610598692, -1.274453426079926, -1.3306052786266007, -0.5985211732263548, -0.05415172205555707, 0.2658209496094039, 0.17527292343318676, 0.10139747598729287, 0.5481640163871514, -0.1762875523497857, -0.3385343388173661, -0.2551544176523378, 0.6306274022421482, 0.2815673543593459, -0.020113009574872363, 0.24350022108437439, -0.9093682488006632, 0.3129690642238213, -0.7971425776807466, 0.1685522884713032, 0.00880748158375001, 0.27033586099263496, 0.1638866403145606, 0.05461014361704095, -1.7601383481691586, -1.2371109158632752, 1.3790658404485456E-4, -0.5076510144803381, -1.0866685884488836, -0.4975113327283388 ], [ -3.6650790154622785, 0.05596203988384358, -0.22527254647932576, -0.1684781401703873, 0.6013648826713084, 0.07435828114554321, -7.615063631391167E-5, -2.550315997603528E-4, -2.588773411035654E-4, 2.0062742119863444E-4, 1.4758285042771243E-4, 0.046651669317730765, -0.2616071487305265, -0.18470508227255455, 0.6163049540211326, 0.043154228064403825, 0.0906833245190977, 0.12030402581125077, 0.5922626668428691, 0.3046619954183962, 0.09979044183647119, -0.0485552676727593, -0.19350056438822646, 0.10817987904830564, -0.1285569662670581, -0.2791548293294866, 0.26982198369354726, 0.25533629650186046, 0.2972912827822217, -0.525148229346562, 0.016923646762408186, 0.21355833883560676, 0.16520990841141098, 0.5960903062053412, -0.38972128930708827, 0.38149838070946196, -0.2635472329091098, -0.14441847366685556, -0.13086575874685108, 0.173419606107401, -0.05399501329295743, 0.6639760831731116, 0.32281087108263307, -3.290688811017342E-4, 0.18585636817069473, 0.665285458217081, 0.20049930071128502 ], [ -9.26564889808555, 0.33252502270617107, -0.6497198796779605, -0.3246702730131362, 1.105978771374294, 0.3241549407990933, 1.8064513070367298E-5, 2.209595241724771E-4, -2.4940353877140594E-4, 8.536758994135119E-5, 4.321821431357229E-5, 0.21619819357891626, -0.7767553687770365, -0.5050364482528428, 1.1443115866906106, 0.2095579413471236, 0.7302368122689213, 0.5008945620955805, 1.568658680444126, 1.6827159910001364, 0.7425107215829776, 0.07323463489172445, -0.29816390907818285, -0.24673268112414606, -0.14259734792791529, -0.5451154454084143, 0.1642642754789606, 0.3242579300923817, 0.19392162345835082, -0.649076521261373, -0.3645800198489157, 0.009863745958850652, -0.34497348357194946, 1.0489571136087814, -0.28523583878784536, 0.8398362832466054, -0.14568569152129454, 0.043435764955903955, -0.29772005191570616, -0.23470425402371758, -0.08457475550529175, 2.103471207295919, 1.5801249206559769, -2.6943569492038507E-4, 0.5411068584890354, 1.1096641009197885, 0.6760520129470882 ], [ -2.039323805229481, 0.04464790921378416, -0.13576677630770984, -0.20311197183219204, 0.37889162292219586, 0.06718138166445889, 1.5010444782322498E-4, 3.212336944344536E-5, -1.9014397671599488E-4, 1.634921841615476E-4, -5.706294226657594E-4, 0.04637018173123725, -0.1644158236009813, -0.19775955154849498, 0.38888407751925236, 0.03879676028568618, 0.03852388290185098, 0.12140638014174703, 0.35141478860934566, 0.049761119401978, 0.04889044012742927, -0.05705055800372911, -0.09365284370599097, 0.11788587916216209, -0.033595417772196864, -0.258208066236235, 0.19399942812826573, 0.013506037945600948, 0.21743823102742002, -0.5265421637265542, 0.02016794997595929, 0.11575537821550501, 0.16838246689238948, 0.3921839671042134, -0.3768089990427319, 0.26378402683559815, -0.27243411081961044, -0.18700606654793922, -0.055428758936970184, 0.1765804173387598, 0.008024241846951946, 0.4127098004039533, 0.1135906668406054, 5.259164858861488E-5, 0.01016755684089048, 0.40893886168928806, 0.12684553345777078 ], [ 7.998154944274105, -0.23748073473566828, 0.6316771279530249, 0.3178812628811636, -0.9320435317835326, -0.23772297297545078, -4.6595373002341814E-4, -4.172435622035317E-5, -1.1915846318375214E-5, 6.016084019025853E-5, 3.0050233012655887E-4, -0.08748213387262366, 0.7398057749911738, 0.4518001267143644, -0.9622808843009528, -0.07984844941562289, -0.5757083497821781, -0.40890287954152704, -1.2429009782179463, -1.2936474847157031, -0.5876776066277539, -0.045941584724067924, 0.2586571781686089, 0.17966867527819902, 0.08165134212745559, 0.5660837700733838, -0.15166849274499922, -0.3039226726878456, -0.24233270365887716, 0.5820561404884989, 0.25073601229129544, -0.025010050156573604, 0.22150444704930985, -0.8809010824480463, 0.3052508766459904, -0.8065918027715354, 0.16252279472778805, 0.028413647034381283, 0.26445060365169965, 0.1698087298641355, 0.03862139236924997, -1.7216067339064793, -1.2153309008565805, 1.1895136542479651E-4, -0.4856413934634735, -1.0315088583107037, -0.49375197785196007 ], [ -9.296680159916633, 0.3391112212097756, -0.6494245272240318, -0.3225585473191808, 1.1111997308312729, 0.3312846772392132, 1.5054630369730362E-4, 5.06006382371163E-4, -2.7470984056418286E-4, -1.2482795894227136E-4, -4.5509676265791156E-5, 0.22411087047944248, -0.7776628303266417, -0.5043360361099489, 1.1497713936960716, 0.21782683549474893, 0.7391178707430971, 0.5099855789482673, 1.5842527468141765, 1.7025730879990886, 0.7527750593966869, 0.07354517980487095, -0.299125303018755, -0.25102645707984594, -0.14322571834519768, -0.543884322012344, 0.16297126419381044, 0.31905482660520995, 0.19158576339600006, -0.6470604497268354, -0.36843092845323894, 0.007090224528405556, -0.34949139709004434, 1.053562505515192, -0.28832690771256064, 0.8373607913268972, -0.1489351185313588, 0.043707182591246896, -0.2990212321460025, -0.2384660936073315, -0.08525287483115833, 2.1233123512452, 1.6003299881822493, 3.6123390259593806E-5, 0.5443817475042166, 1.1111355282466169, 0.6856357184331711 ], [ -9.282733048155475, 0.3379328763580002, -0.6488861529450656, -0.32398285875280464, 1.1097403694884147, 0.32916235520721226, 2.011838555761815E-4, -9.057613773818854E-5, 3.861218233695243E-5, -2.810615312349713E-4, -1.757282656214425E-4, 0.22095323630835584, -0.7763463159148536, -0.5053303221546679, 1.1474881659865634, 0.21415304431660992, 0.7364705487836519, 0.506033031109064, 1.5777196561213558, 1.6958385888598027, 0.7489193701923734, 0.07327616406655495, -0.29906382453598684, -0.24912487282908635, -0.14337664748237725, -0.5443553680664888, 0.16337122151076985, 0.32074985534853506, 0.19157357220947294, -0.6485530940655156, -0.36689417942758124, 0.007674492947026973, -0.34753484259680245, 1.0519643330242259, -0.2884595937522139, 0.8365462594043335, -0.14848089894265457, 0.043535113572279474, -0.29914087322965954, -0.2372440199075052, -0.08494872414978681, 2.116488769828268, 1.5935227427117145, 6.328217035106875E-4, 0.5433931108995125, 1.1100189737789876, 0.6819228351767741 ], [ -9.283473472348502, 0.3378156628956919, -0.648919346952062, -0.32382404523144576, 1.1092840510570043, 0.3292336977370664, -6.045219521436906E-4, -2.5460426245664823E-4, 6.808936745733832E-4, -5.1239795835895036E-5, -3.737169484853144E-4, 0.22058740777440855, -0.7764630967089835, -0.505179088781993, 1.1479255458668942, 0.21482408046567394, 0.7364207546127571, 0.5067857134792301, 1.5783815496304117, 1.6967525155199326, 0.7498323870150775, 0.07261555551964363, -0.29860994990159234, -0.24985164850417732, -0.14358236141768474, -0.5441800778852706, 0.16301849726957565, 0.32010172735138687, 0.19104090754817196, -0.648306242103134, -0.36668745643950806, 0.0076841423348581305, -0.34739083560060385, 1.0522334810477953, -0.2886030931775817, 0.8358124588921986, -0.14937153338697143, 0.04345991507147492, -0.29909651219257816, -0.23728747373307985, -0.08575071353935383, 2.1173024531253515, 1.5947394869497062, 5.7783794364499735E-5, 0.5435397433194983, 1.109683912572868, 0.6823343729986742 ], [ -9.283854023256273, 0.3354376482912341, -0.6499493711535866, -0.3230524373411836, 1.1086912928979333, 0.327306397620831, 1.5618470975109856E-5, -1.2456824003386398E-5, -1.1890954515489183E-4, 3.989356730801806E-4, 2.810636437034331E-4, 0.22081756709599956, -0.7775734820271094, -0.5044207483306548, 1.1472996936068083, 0.213712196793068, 0.7342692452080243, 0.5058493415653956, 1.5765165508920236, 1.692611457068518, 0.7476059871644887, 0.07357731105200989, -0.2980848905945051, -0.248876916590619, -0.14305366797920913, -0.5447071742486856, 0.1641256725164746, 0.32192634085540467, 0.19261340574951957, -0.6478664102954558, -0.36695666740177724, 0.008857226747988412, -0.34735767194269196, 1.0512356237362315, -0.2859591056716467, 0.8389352067458851, -0.14646194187858327, 0.044125968731868526, -0.29842363995674687, -0.23710517431414707, -0.08444487625232495, 2.1134123257864097, 1.5899921043725433, 5.305191449646047E-4, 0.5435148404588225, 1.111164458486473, 0.6813312942032467 ], [ 8.587114163574897, -0.25762509614914897, 0.6251457358373288, 0.35378151175661854, -1.0080608158100628, -0.25432764907236927, 2.1538243822573503E-5, 4.9991971539541684E-5, 7.813969126830752E-5, 7.821950501905685E-4, -4.169325446151504E-4, -0.1313838392316069, 0.7425435083888453, 0.5114514659757111, -1.0430183343573836, -0.12511156446653665, -0.6122988337551146, -0.4179872111186727, -1.344626434879904, -1.4134721570165625, -0.6256479760221163, -0.05541400450958122, 0.28244829197300364, 0.19465358633952026, 0.12662051097505747, 0.5435770918278174, -0.18485211344794128, -0.36189311557977727, -0.2469992204038439, 0.6650245693259581, 0.31172784855598756, -0.02251360825672719, 0.27241082872859707, -0.9504456280906244, 0.2958792908568929, -0.8151537157052786, 0.15258946025205256, -0.005482440792463117, 0.28241022282022266, 0.1805749986687002, 0.07363950527832397, -1.839481983349181, -1.3107917953284414, 3.7802129459014316E-4, -0.5179352850351616, -1.1163081117944533, -0.5307381136096453 ], [ -9.309842401414487, 0.34303995054399145, -0.6486762526447635, -0.3225066476510711, 1.11497383605614, 0.33456459725317955, -7.41159391957611E-5, 2.3142376875907397E-5, -2.454744777769373E-4, -3.609621020637222E-4, 2.796637629841088E-4, 0.22861843597819362, -0.7768822488888274, -0.5047066432209365, 1.1534883152139017, 0.2221304309602568, 0.7445771543978966, 0.5182306639138454, 1.594005314544627, 1.7146688852659495, 0.7583543072464227, 0.07204096779941348, -0.3000328572301357, -0.2534132733893622, -0.1442991517042394, -0.5428771815525947, 0.16165381020320102, 0.31507040164716454, 0.18841718906581836, -0.6466872511279541, -0.3685409909496576, 0.006611811790287841, -0.34996285770069174, 1.057809648270533, -0.2898456453308189, 0.8344915440489074, -0.1505137367083334, 0.043125592117569986, -0.30038837775690974, -0.24181225159992298, -0.08626495652815806, 2.1349414919597725, 1.6128934475400816, 5.43922724366004E-4, 0.5481727106183425, 1.1123311840253427, 0.6920621765872305 ], [ -9.281478164229279, 0.33482273774749327, -0.6493952197973355, -0.3231755385187018, 1.1104130191515749, 0.326696748401971, -1.1777207430950225E-4, 2.533333413916556E-4, 2.8154913207027146E-4, -2.560234356950409E-4, 8.278914014015477E-4, 0.21974395970938793, -0.777544340998917, -0.5042525429304301, 1.1481019229419285, 0.21347587345116498, 0.7348371496635218, 0.5068747405985718, 1.5766811353530286, 1.6931013314478665, 0.747722891422727, 0.07292064558513874, -0.2980197044047174, -0.24890223595605793, -0.14283216426471146, -0.5447350756295486, 0.16364841505888852, 0.32131184640771565, 0.1920886461104885, -0.6479349962809374, -0.36512461342870123, 0.00946656502105573, -0.3460031266174255, 1.0525717871116138, -0.2858674263897731, 0.839052721090813, -0.14699494370050492, 0.04318789968695986, -0.2992795218745644, -0.23658183554333254, -0.08461671415298451, 2.1138571037361467, 1.5904379738753673, 5.224089023962586E-4, 0.5437195912453058, 1.1115960940493903, 0.6817865548334677 ], [ -9.280627420141515, 0.33697738771842795, -0.6484301784149472, -0.32346154513447345, 1.1091184324875631, 0.3284044779383807, 2.7728140366481994E-5, 1.2761898676113783E-4, 1.828705556842464E-4, 8.732543990293309E-5, -1.0133111842586686E-5, 0.21947402562783225, -0.7762858103131408, -0.5048403798570805, 1.1475814809766145, 0.21349555651336866, 0.7357032075845426, 0.5056861737240718, 1.5772555352534434, 1.6942029843938125, 0.7488390200169327, 0.07366695867078367, -0.2986566377054052, -0.24938603110691615, -0.1433999984905375, -0.5443520691922823, 0.16336269034981954, 0.3205298568774809, 0.19184242505374577, -0.6486261025397811, -0.366159088445787, 0.008203383484369027, -0.34675004682434585, 1.0517606083293518, -0.28847534225875343, 0.8369949036343388, -0.14887665866974184, 0.04289660747797867, -0.29880060388468355, -0.2367911169199111, -0.084505762811129, 2.1143311452965716, 1.5919941503949702, 5.109000011936657E-4, 0.5435660417276752, 1.110374529144787, 0.6814052017536525 ], [ -9.310310700913265, 0.342880888016492, -0.6484501538791231, -0.3226888557541549, 1.115299400793261, 0.33457789855157216, -2.9400203668113385E-4, -2.4686985410573236E-4, -2.1994207825355968E-4, -4.5212498428751893E-4, 6.873552517081067E-4, 0.22820699279014198, -0.7770110124318595, -0.5047232065896494, 1.1536969930885081, 0.22240658034329885, 0.7450907050111211, 0.517739745674594, 1.5941912058488568, 1.71558271554603, 0.7582336430164631, 0.07241389441142052, -0.30082921744687324, -0.25442792886226306, -0.14383525641685121, -0.5433591338731515, 0.1614925962406906, 0.3146176278590959, 0.18839175643897949, -0.6473640054568695, -0.36953440442085705, 0.00598275946932501, -0.3512944492385252, 1.0581275692009282, -0.29039278434638494, 0.8340619630412386, -0.150683763088059, 0.04298373265405405, -0.30051632180765075, -0.24222854081146714, -0.08577373583721884, 2.13464197384823, 1.6135571974192127, -3.268110328574051E-4, 0.5485648269716157, 1.1125138606585456, 0.6927883271447223 ], [ 8.297879038865046, -0.24806481798704008, 0.6142530758423527, 0.34601768653178416, -0.9733781917197285, -0.2461070971609503, 2.883768931595319E-4, -3.0904445957663767E-4, 6.328109013775323E-4, 2.6411151129156793E-4, -6.788123217735088E-5, -0.11351728129361871, 0.7283383798444306, 0.4919862021457637, -1.006723954977182, -0.10742327924099164, -0.5920841277943438, -0.4130625400344624, -1.2869855777099712, -1.34582498213121, -0.604470494356543, -0.055049216949482345, 0.26956497633540716, 0.17810566186215815, 0.10873847738407677, 0.5418975409109349, -0.1817803574829966, -0.34871366335798487, -0.2558612684510778, 0.6398360494008235, 0.2885155044007231, -0.021060872561256126, 0.24936042734433606, -0.9171159986084906, 0.309294649752169, -0.7990102421392044, 0.16625943593838635, 0.004603926192755145, 0.27225577134475204, 0.1668570200262781, 0.060559358218819734, -1.7733983480093634, -1.2504102466471794, -1.2152611576221615E-4, -0.5117928697312262, -1.0966615136644278, -0.5033006975006052 ], [ 8.386057487285964, -0.251305873890827, 0.613791729839861, 0.35171275266214674, -0.9849056705104956, -0.24890672645916498, 5.340870151789455E-6, -1.7881422083072926E-4, 3.857900490946041E-5, 1.0061356753112784E-4, 3.481443541045414E-4, -0.11957844935978094, 0.7296096699143445, 0.5006124126550235, -1.0188609375385251, -0.11319293605971927, -0.5980511705016621, -0.41445082199220795, -1.3024291404835615, -1.3643503615369954, -0.6102238643699648, -0.0557854528593384, 0.27348796711831524, 0.1817561240679242, 0.11515495733472626, 0.5393103008142524, -0.185602460112777, -0.35699191640843847, -0.2560116632170212, 0.652290680556441, 0.29634505952984286, -0.021857748641552502, 0.2562080333784658, -0.9280667926737882, 0.3057203717554112, -0.8011504117140981, 0.16275789861296347, 9.018463796523777E-4, 0.2756255115649355, 0.16929970921033294, 0.06467333134801055, -1.791847381513375, -1.2664071747839103, -1.665100170862018E-4, -0.5152329447710176, -1.1067325608124228, -0.5087070204838465 ], [ -9.301250298206996, 0.3410435924706774, -0.6484222201696126, -0.3231661888059477, 1.1141288945416232, 0.33265990286911057, 3.23413578847728E-4, -3.908633262443682E-5, -9.899162648096379E-5, 5.026481904901483E-5, 9.301478092145806E-5, 0.2260047579776617, -0.7768721271821657, -0.5051385917725487, 1.1518021915312193, 0.21984787926846505, 0.7420693039166699, 0.5152137816401057, 1.5899735752248807, 1.7100288020387895, 0.7551642604140538, 0.07161438266025423, -0.3003410829761753, -0.2526783583646547, -0.14437749981248899, -0.5434203600266546, 0.160676772642996, 0.3154133471853377, 0.18825190672469, -0.6470321216209348, -0.3676639171436986, 0.006888565181759562, -0.3491655776381071, 1.0562978946973631, -0.2906339408133239, 0.834475616802155, -0.15101125046847183, 0.04303152448559147, -0.3004096233518787, -0.2410859893697779, -0.08568076405998037, 2.129728402010822, 1.6078592665941744, 1.8812465523804594E-4, 0.5476009853425363, 1.1119667116100633, 0.6892872354356309 ], [ 5.703278794223486, -0.16944836756070727, 0.4722097406056981, 0.17398671673348834, -0.6085880576072019, -0.16118185688261522, -2.3629398073756348E-4, 1.423672016028007E-4, -1.653917550863697E-4, -5.1269783759896054E-5, -2.609732865968902E-6, -0.2489916722928529, 0.5524807896163684, 0.3189203034855091, -0.634814517414158, -0.23958493255728544, -0.40895548564237016, -0.1727703188245448, -0.9045700159387258, -1.055119580377713, -0.4158208599839611, -0.012759827280937453, 0.17802816600405091, 0.2092993466245214, 0.017086784880811667, 0.4086643438613147, -0.1399233232044263, -0.2866364846419813, -0.2283814020543861, 0.3389864589725967, 0.13716629610616674, -0.03629674071876349, 0.14938656046772386, -0.5884751544469311, 0.09360602991003986, -0.5843132754280094, -0.0112751081949729, 0.019363455569533814, 0.1561257945953561, 0.2077879127836516, -0.027928953942052828, -1.223911722895918, -0.9995134776490928, -2.568379077995802E-4, -0.3578755791356285, -0.6275466761702563, -0.34214804305942575 ], [ -3.2795471799937643, 0.051349018918090565, -0.180916243007235, -0.1733495897296001, 0.5469488428542061, 0.07173235411036205, -2.972232461952186E-4, -2.78110637137053E-4, 2.175834228880337E-4, 3.045088866747042E-4, -1.6038880797753532E-4, 0.050825308038255745, -0.21281842228229042, -0.1809292026495214, 0.5619530935847269, 0.046836708290151303, 0.0742728511228535, 0.11434357630061831, 0.5306493273473323, 0.229364696596629, 0.08393335221804903, -0.055103755105859645, -0.17326132669764013, 0.11285529367873241, -0.11652814906400578, -0.25496023970427084, 0.26740508651571293, 0.21535481233799067, 0.2940498064504456, -0.528768878145609, 0.028866013261288855, 0.2108310580214891, 0.18768265802045025, 0.5457521322326842, -0.41349009810341236, 0.3297402334732479, -0.28511507047560447, -0.16520584951792677, -0.11591330001235274, 0.17539622951793846, -0.04967234756795702, 0.5939473047553867, 0.2514406524676265, 3.179019254739117E-4, 0.15196444625507466, 0.6257532910757841, 0.18672895558734623 ], [ -9.286282442921216, 0.3389451049132624, -0.6485320762163811, -0.3243031830529497, 1.1101417949030987, 0.3299568435543966, 1.6765497962507005E-4, 1.1425592331134516E-4, 2.4279401925520692E-4, 4.1688177589555296E-4, -4.74241668598232E-4, 0.22174414325178649, -0.7769206580697253, -0.5056245212122292, 1.1484156477521774, 0.21528025055537495, 0.7373371677411724, 0.5069008214931263, 1.5798569531979754, 1.6984305708881609, 0.7507032885869942, 0.07311697694425782, -0.29922020895521223, -0.2501669266244673, -0.14391919271361173, -0.5441473464165084, 0.16292332772081666, 0.3195131219898681, 0.19145481077458748, -0.6486028976104415, -0.36695384539811116, 0.007711707017499217, -0.34823898150920346, 1.0522282519900081, -0.2886046830522717, 0.8365501123264487, -0.1491892805532952, 0.043380152175292015, -0.29864328915938554, -0.23721505100989596, -0.08533922850708277, 2.1194619369355165, 1.596058701543788, -2.878630622303836E-4, 0.5437334677731592, 1.1094185692636283, 0.6834725342711611 ], [ 8.550998416850678, -0.2565453771295745, 0.622972889486624, 0.35401268324980617, -1.0032159834497427, -0.25340641736976277, -1.0156026291772929E-4, 2.6179354019511555E-4, -4.74726201251947E-5, 1.454134760470385E-4, -6.844210955232163E-5, -0.12952520448644955, 0.7402380021323915, 0.5098929559200424, -1.0391960326557417, -0.12291870666575168, -0.6094842609334524, -0.4171888678865827, -1.3367385184906535, -1.4039944747234778, -0.6221254900538521, -0.05579080151445872, 0.2807394322277117, 0.19202485929000357, 0.12522845608400235, 0.5429407455190015, -0.1859697971467226, -0.36260687943666825, -0.24910699960858082, 0.6630798394785758, 0.30904739401232467, -0.022311215012651438, 0.26961675522219225, -0.945854951322806, 0.2973042186934608, -0.8126385817883346, 0.15424535051796176, -0.004326494229466119, 0.280599322465456, 0.17783638894455, 0.07179277110976309, -1.8315699462084667, -1.3015728028430182, 3.2118606458722624E-4, -0.5170587094221001, -1.115602724073213, -0.5260704179367541 ], [ -1.4179631828727355, 0.031234312236850727, -0.09042539446856958, -0.16146351388303423, 0.2884037034960639, 0.05785856526505099, 2.7682431026832097E-4, -2.765192617023352E-4, -1.3064371726455499E-5, -1.7264764520290012E-4, -1.9706018070502024E-4, -0.006002490144205114, -0.11455752662778498, -0.1747172102756207, 0.288675218158678, -0.01468039146820002, 0.010430165725963144, 0.14432095263793288, 0.27749425116365195, -0.030338672506678828, 0.020959608092936365, -0.05758970642734909, -0.0386586061243957, 0.11810537186700211, 0.033311175174319724, -0.24268372296150204, 0.2016758280143979, -0.038810309354889695, 0.22552040338777135, -0.49084406861108826, 0.005743212740433393, 0.042976814640318654, 0.14300685818462974, 0.3039674334682001, -0.38368487502520915, 0.2662298660504221, -0.27393084338256446, -0.20669631798465501, -0.02246565747154483, 0.17285303806322577, 0.04867806340209543, 0.3082615763592371, 0.04640659360409762, -2.5029960531106445E-4, -0.04879881758467189, 0.31395979152782555, 0.15637991473403318 ], [ 8.497940914379647, -0.2551139795037982, 0.6195445528982003, 0.3538479408699037, -0.9975051773803504, -0.2520471980293849, 4.0112661711235077E-4, -6.531039159560354E-5, -5.807606461917441E-5, 6.601613801569103E-4, 3.569337898172879E-4, -0.1266604244234865, 0.7366226953665753, 0.5070103961499428, -1.0323060536261959, -0.12026340350949696, -0.6059917349783743, -0.41683576349939483, -1.3251030773298524, -1.3908487946188146, -0.6183560908770823, -0.05537827628257659, 0.27765120209755006, 0.18850463346207375, 0.12224255468462951, 0.5407097325397551, -0.18666500270328754, -0.3614485924510322, -0.25176534271597933, 0.660114930269186, 0.30575731128494, -0.02193972882418092, 0.2648396912895464, -0.9402050239564107, 0.2997551781860894, -0.8081425160370023, 0.15717858890491163, -0.0033869525503707884, 0.27929070298567954, 0.17568391431330263, 0.06976808333081057, -1.817887873678354, -1.2901364640500141, 4.811924282900821E-4, -0.5170588914751053, -1.113044739976372, -0.5202678669378024 ], [ -9.261908933264786, 0.3286640952926139, -0.6513912787961669, -0.3245512137783328, 1.1061615645070304, 0.3205973399158957, 1.1488857618835509E-4, 2.748891455016444E-4, -5.038654452460049E-4, -6.069430904401905E-4, -2.3389747292866205E-5, 0.21617941428792206, -0.7774299415916458, -0.5037069819215331, 1.1446277746694662, 0.209978478120792, 0.7272090336110582, 0.5002709034337282, 1.56744229998799, 1.6805894278314564, 0.7404284485560942, 0.07407033354129945, -0.2976942045561992, -0.24574290844482527, -0.14169911974680252, -0.5459702236672207, 0.1642075428445521, 0.3250453661455645, 0.1940802327659101, -0.64913519048738, -0.3645883317810143, 0.010939486645738902, -0.34445749345983917, 1.0494898544902962, -0.2828371097790985, 0.8415087699545086, -0.14350333280539182, 0.04355043773680552, -0.2975101508757511, -0.2336995289816828, -0.08359376458358281, 2.100852385257001, 1.5766068462528644, 9.180075861305958E-4, 0.5431184251578342, 1.1101705547304057, 0.6758930595704812 ], [ -9.299144401217745, 0.34078704714903174, -0.64805052297583, -0.32333340351571427, 1.1133975345409726, 0.33184938746305265, 2.542787532364172E-5, 3.443394924172503E-5, -1.4340308108250532E-5, -2.056666962730958E-4, 8.887412848901784E-5, 0.2258924754463659, -0.7764915944126826, -0.5050055017882418, 1.1517057001713114, 0.2199242875738096, 0.7415567733117354, 0.5152429268886505, 1.5891897882668224, 1.7088622370230497, 0.754646534654466, 0.07235969084998373, -0.30026465133268954, -0.2528642780296712, -0.14381758581300377, -0.5433184714549931, 0.16099028081691394, 0.31619325602637477, 0.18886611524696234, -0.6470754824570034, -0.36748973135090574, 0.007170511746051768, -0.3490949246755166, 1.0556910477604953, -0.2896526728048023, 0.8348246251566176, -0.1505010570410873, 0.0429969938668715, -0.30008751349083135, -0.2407546519815751, -0.08540952777603154, 2.1285437386876818, 1.6071682593464092, 2.623819131573558E-4, 0.5476727904066915, 1.1121019657464524, 0.6890456505245304 ], [ -2.4267167472474376, 0.049432019509508034, -0.1386243690464129, -0.20409867534219292, 0.4369270532714893, 0.0718330698430451, 3.7657666245228004E-4, 3.7439177341539804E-4, 1.4307657235068322E-4, 5.118669923710719E-4, -1.1469827830675253E-4, 0.0577281248883993, -0.16763163431038705, -0.1990870622944521, 0.44999195151450816, 0.05081749027970721, 0.05135619487900012, 0.11833301884413683, 0.3972987724628083, 0.10289520757898518, 0.060073116687962676, -0.050094611209443106, -0.11278963983168792, 0.12552300932937652, -0.05854076840636649, -0.2480671056797802, 0.22046338187956457, 0.07941552508149688, 0.24577796676414593, -0.5392364154995316, 0.03073117135205856, 0.15705760064400703, 0.18703624533690544, 0.4451442010015284, -0.39828533207569866, 0.2703067355127683, -0.2809914761913744, -0.1768918547892117, -0.0678997769392025, 0.18426494569234192, -0.009144618386639757, 0.46848916624354314, 0.15073080397860628, 3.576808418396796E-4, 0.05807151705653859, 0.4880688615693638, 0.13514535628649404 ], [ 3.8695186494468423, -0.13439631173657707, 0.2779289767886601, 0.14064676467503762, -0.39486408482163693, -0.11525130588061079, -5.7483725688318856E-5, -5.002651513658758E-4, 1.9751701305713054E-4, 3.228548355568842E-4, -9.070616388704712E-4, -0.18415620941258828, 0.33793339531588806, 0.22560310139200615, -0.41823989163616904, -0.17970098095674292, -0.31117726808264745, -0.16064426856256198, -0.5956731932194076, -0.7738716460177573, -0.31265693099996456, 0.0364798997365592, 0.15592504030834103, 0.20433993800774147, 0.0968455418391836, 0.17043149274830888, -0.06476731600469086, -0.27540376469830197, -0.10501868244290222, 0.15237727763410527, 0.05807573442825107, -0.054771645360645216, 0.10378140010148089, -0.3837017617875398, -0.10042816931868764, -0.30302532169161434, -0.09330337831594383, -0.017727581033428374, 0.1422012909831892, 0.2138053764045922, 0.053823886458674586, -0.8366186071545895, -0.7099467058046235, 4.637154007264034E-4, -0.2919525452083793, -0.3672438377050863, -0.12287899709679725 ], [ 6.195048899595627, -0.17721494847840516, 0.49191666197919137, 0.1926446868580682, -0.6505093027778185, -0.17323817892841564, -1.98527916529691E-4, 1.3579227364706289E-4, -1.810757052521571E-4, 2.810222423740047E-4, -3.1033124542276236E-4, -0.21732471493721792, 0.576875477181193, 0.33550715254121766, -0.6772562414784032, -0.20917208660079625, -0.42934076189688786, -0.21052050538945047, -0.9698805641198801, -1.1235775135582353, -0.4374998604664838, 0.004530892185617361, 0.19686839283839366, 0.22257802498985407, 0.03762309829038635, 0.4435936840454959, -0.2572137954832541, -0.38706948939983293, -0.3609718582672751, 0.36005278414807096, 0.14830868029525932, -0.029841837480889484, 0.15667727017778374, -0.6260214634841452, 0.17352455588903445, -0.6677275275113267, 0.023493843248755284, 0.050856407753988975, 0.1789179932097382, 0.2170435994887281, -0.006781376246351642, -1.2999727753591017, -1.0715358457981297, -7.406182525601514E-5, -0.4030615908751525, -0.6993522965317189, -0.3989265477935889 ], [ 8.375896114296166, -0.25069905346600385, 0.6131729037899434, 0.3514322009693697, -0.9842052754095116, -0.248749964457632, 2.299171695472049E-4, 5.179282498762584E-4, 3.554886678089786E-4, 3.4417166853078585E-4, -3.8124932087347466E-5, -0.1188364233030672, 0.7289577225544308, 0.5000018079984575, -1.0176685603583613, -0.11294173539860647, -0.5968821532433171, -0.4146755015480184, -1.3003500199931948, -1.3622834886080857, -0.6097649643620078, -0.05497438831530467, 0.2729448592306618, 0.1812894524803603, 0.11497514424279026, 0.5388311246034623, -0.1856435223824787, -0.3569072860872817, -0.2563175271145172, 0.6507153307297079, 0.295263766695808, -0.021372888830724496, 0.2550606962329385, -0.9271860539108773, 0.3060462070404777, -0.800384828398512, 0.1632625057956435, 0.0011226766154795677, 0.27511166753040445, 0.16904731941466797, 0.06482932170808225, -1.7890802949660352, -1.2638807179188398, 2.6982863899642852E-5, -0.515111426416301, -1.1063464146298942, -0.5084305346559904 ], [ 8.655453428853289, -0.260208809464951, 0.6295919558627724, 0.3539408867417116, -1.015469813895345, -0.25664975753970026, -3.5654929955267667E-4, -1.0070185206858963E-4, -1.9444573335046738E-5, -3.1389438483366743E-4, 6.876898966739196E-5, -0.13497483496125356, 0.7474068866014673, 0.5132912076543105, -1.0516194218228863, -0.12820805373374358, -0.6183242341703555, -0.4202052883631438, -1.3607370366148974, -1.4308256377569164, -0.6309456719340023, -0.055467971413992706, 0.28579890377531275, 0.19914697565177467, 0.13052238142456749, 0.5457584025736832, -0.1829242921786714, -0.361467317276209, -0.24221149329112565, 0.6676500701081814, 0.31649721037580314, -0.022798196872126853, 0.2777295263255168, -0.9584203741886347, 0.29273103047092763, -0.8200891402873076, 0.14942486221141751, -0.007348741640065221, 0.2852474982326749, 0.1853269525703202, 0.07652602204651529, -1.8582613676957824, -1.3274978265599873, -4.1215178496429986E-4, -0.5175950591017041, -1.1169437548337828, -0.5395283842936611 ], [ 8.411830072720878, -0.25231671909735437, 0.6152673187924762, 0.3521765721446206, -0.987521326314619, -0.24956142009152119, -4.0498139376294494E-4, 1.3311607967496657E-4, -2.3083896109446142E-4, -8.819637111063042E-4, 2.0453829017369753E-4, -0.12119853552676108, 0.7314423694489367, 0.502083404088143, -1.021107022644577, -0.11556204664015404, -0.5996343947204652, -0.41482771170245186, -1.3074967116135492, -1.3706904189570237, -0.6113521049695729, -0.05587694153772179, 0.274092077297404, 0.1830945881698973, 0.11686327201485296, 0.5388346927241272, -0.1865719425905845, -0.35902690394793496, -0.2549964948444147, 0.6540101323393633, 0.2995752195820167, -0.021394311930964048, 0.2586760851365961, -0.9304344477246195, 0.30369352754666246, -0.8030994713077182, 0.16130587513486416, -0.0012295723150297243, 0.2760463288271281, 0.17092463343790523, 0.06587054445460623, -1.7982564733361333, -1.2719286356460417, 1.3832757680616554E-4, -0.5156287738456229, -1.1089698670339179, -0.5109051460215694 ], [ -3.209263416382784, 0.050129334186081745, -0.17283181431969954, -0.17662957340718544, 0.535786496247041, 0.07146328644261529, 5.3485394238639286E-5, 1.5583477638874825E-4, -9.354015546172193E-4, 1.5024336679527955E-4, 3.260298820336393E-5, 0.05263508169214073, -0.20501084602682035, -0.1825698543245994, 0.5526574654346341, 0.0482697761775552, 0.07177147736312876, 0.11302612907813749, 0.5193637745110612, 0.21816173860849727, 0.08097275552988034, -0.05501401622548044, -0.16788781838116332, 0.11364051294073162, -0.11276992012211559, -0.25154520623683624, 0.2633920208240658, 0.20554242363162006, 0.2896228288353386, -0.5313105120444007, 0.028509283732838474, 0.20850048584054925, 0.18913909220886557, 0.5360697343271633, -0.4128423784259726, 0.32148649924503647, -0.28564092785902606, -0.16672021782037927, -0.11236311556454666, 0.17604816453763777, -0.04766801757690913, 0.5842031372628179, 0.24284789450166647, 7.823800368030693E-5, 0.14767703514706895, 0.6167748561740599, 0.1811512187576099 ] ], [ [ 8.981338326733491, -0.6090132587829967, -0.6180983141845519, 0.5648601429530581, -0.6204635948035725, 0.20762301294401322, -0.6195193674067073, -0.029589630603075248, -0.012053914187329609, 0.521625872862206, -0.6184195600720552, 5.443047299478285E-4, -0.01396675283262524, 0.2681416914970222, 0.42127410252274017, 0.41005114793986913, -0.02476645564239108, -0.6023153124755327, -0.012025880696664024, 0.34205758140361464, -0.6115094440050692, -0.6107270485261639, -0.6118098951767942, -0.6048161742507434, 0.6391906013546017, -0.6211408421034025, -0.6082343176984082, -0.6099049312867302, -0.622471108488174, 0.4235372835054743, 0.47893807620868184, -0.621003303630958, 5.616755870140628E-4, -0.027508664184939573, -0.6125337612644115, 0.6107922280621234, -0.01699801491312885, 0.5632393260156434, -0.6000183574313841, -0.6195262163353172, -0.015823228034533076, 0.008053926078070027, 0.002913558110507195, 0.47134079080003066, 0.6900894432843491, 0.49675059908967983, -0.027029737849462294 ] ], [ [ 35.410613293085575, 0.890534390772271 ] ] ]
}