{
  "config" : {
    "algorithm" : "ListNet",
    "numIterations" : 100,
    "batchSize" : 0,
    "verbose" : true,
    "nomodel" : false,
    "params" : {
      "regularization" : {
        "rate" : 0.01,
        "regularizer" : "L2"
      },
      "layers" : [ {
        "activator" : "ReLu",
        "num" : 46
      }, {
        "activator" : "Sigmoid",
        "num" : 1
      } ],
      "optimizer" : "adam",
      "learningRate" : 0.075,
      "weightInit" : "xavier"
    },
    "dataSet" : {
      "training" : "../../../MQ2008/Fold5/train.txt",
      "validation" : "../../../MQ2008/Fold5/vali.txt",
      "test" : "../../../MQ2008/Fold5/test.txt"
    },
    "model" : {
      "format" : "json",
      "file" : "../../../MQ2008/Fold5/models/ltr4l_108.json"
    },
    "evaluation" : {
      "evaluator" : "NDCG",
      "params" : {
        "k" : 10
      }
    },
    "report" : {
      "format" : "csv",
      "file" : "../../../MQ2008/Fold5/reports/ltr4l-report_108.csv"
    }
  },
  "weights" : [ [ [ -6.172819291129573E-7, -2.0220132292134193E-7, 2.87576299049904E-8, 4.5002195925153976E-8, -4.6303290858230836E-7, -1.360587722405385E-7, -5.411173991428283E-20, -6.998091502740632E-19, -2.446431399494756E-19, 8.25841681605455E-20, 2.39943327936718E-20, 3.8081198422254393E-8, 3.316441695589969E-8, 8.423729590900452E-9, -4.64617069776094E-7, 3.2576956394499627E-8, -3.4660373540495183E-7, -1.611906455691865E-8, 1.56666835364958E-7, -1.2562443190198404E-7, -3.502835124574342E-7, -8.108117642785456E-7, -7.352634279937024E-7, -4.442533182534232E-7, -6.15207903291255E-7, 2.2911288696239197E-8, -2.2877781226454638E-7, 1.0131619532355507E-7, 1.0814054433485122E-7, -2.104522808898556E-7, -1.7598815762197647E-7, -1.1164668673165654E-7, -1.4012628979647113E-7, -4.811541201300551E-7, 8.584614789606082E-8, 7.383413959136739E-9, -1.375796143385155E-7, -7.817487291919319E-7, -7.173617284246401E-7, -4.786701046872177E-7, -6.046601181071422E-7, 1.7231732881730836E-7, -2.5916414553968127E-7, -2.5355453313129025E-19, 9.579759634828482E-8, 2.415581959499586E-7, -2.218680698731153E-7 ], [ -2.0964176632070277E-17, 9.746779551312438E-19, -2.6382752020910904E-18, -1.78319148477493E-18, 2.981493385284677E-19, 8.277598623877523E-19, 3.4060238808864854E-19, 1.1045893437807433E-19, -3.2266101636834493E-19, -1.8622048491108901E-19, -5.660380483084509E-19, 1.0358036421871468E-18, -3.0853212638711843E-18, -1.2962677530096665E-18, 4.475729844107505E-19, 7.146126512681884E-19, 1.3506763097559001E-18, -3.793801391314062E-18, -5.97072537050577E-20, 2.026671765255997E-18, 5.531287531970953E-19, -1.3129698634763691E-18, -4.00486784835819E-19, -6.084170906151976E-19, -6.412149952933616E-19, -9.889012092558798E-19, 1.470750119850003E-18, 8.758458156194893E-19, 1.805324127966106E-18, -1.885460937064472E-18, -3.489594620062046E-18, -1.939465792169452E-18, -3.53364811044945E-18, 1.5156290139935884E-19, 2.680663004774773E-18, 2.3921132125062873E-18, 1.9987827342614646E-18, -1.5804183162572365E-18, -7.774587063976852E-19, -1.2371318568062683E-18, -1.102059035654607E-18, 2.8222480300549094E-18, 4.82530894513298E-19, 6.860316215874669E-20, -4.916591191950624E-18, -4.2950630105935406E-18, 6.880296443176377E-19 ], [ -4.4870227832438766E-17, 1.7223683659197503E-18, -6.0318342313880915E-18, -4.486693319499005E-18, 1.002219528268333E-18, 1.797066742910045E-18, 4.914760629165606E-20, 8.950026104767254E-20, -2.738543896476129E-19, -1.52429949404567E-19, 7.202882961089803E-20, 1.9641021926733053E-18, -6.119567400956907E-18, -4.211780298673491E-18, 6.983023790188552E-19, 1.6638187067851656E-18, 1.5166343475114244E-18, -8.178295993654635E-18, 1.5675475337046327E-20, 4.395295249748424E-18, 1.755595525081324E-18, -2.519955483344341E-18, -8.26629363718022E-19, -1.5622291915779105E-18, -1.5091443400836187E-18, -1.8240004166835956E-18, 3.2998075076991104E-18, 1.9571842351587587E-18, 2.9893338541733674E-18, -5.1309923600684334E-18, -7.511553408346656E-18, -4.950669360650294E-18, -8.045750029492827E-18, 3.240376062543758E-19, 5.114536479823882E-18, 5.512726271607821E-18, 5.6195235257315635E-18, -3.717338593870413E-18, -2.3507058688624955E-18, -2.8368822147145103E-18, -2.445178162604685E-18, 5.609137514526966E-18, 1.1577326433373357E-18, 1.660064390386795E-19, -1.1252195718106863E-17, -9.412935432144678E-18, 1.1580601552195316E-18 ], [ 4.470029621396392E-12, -8.020894530621211E-12, -3.3239045348255876E-11, -2.701931248467936E-11, -3.3883636103038044E-12, -1.1317583142251568E-11, 1.790499759741503E-20, -1.620197254372529E-20, -9.334312116516831E-20, 1.8419876595721622E-19, 1.5872143947188508E-20, -6.300907910853476E-11, -2.281066164327761E-11, -9.267764271008828E-12, -8.055319530679732E-13, -5.636665048532115E-11, -4.340000959999987E-11, -1.643946025112915E-11, -5.31312552186431E-11, -2.055653942050455E-11, -4.2853965477035344E-11, -2.5540645102468123E-11, -3.503611392361625E-11, 6.791889202505534E-12, -4.3636820850171384E-11, -2.324872484704191E-11, 2.4471493760514993E-13, -9.075394343724085E-15, 3.3066199295628604E-14, -9.471058490323334E-13, -1.0076719115846944E-11, -5.854835382556826E-12, -8.297046016510999E-12, 2.0352619839381954E-13, 1.0911129253685367E-12, -2.276520445996387E-13, 3.6795445869435845E-13, -2.5537197842431038E-11, -3.407939271644668E-11, 9.542745837962508E-12, -4.249825097518928E-11, -3.679327460260921E-11, -4.962464098316592E-11, -1.4144666249973196E-19, -3.028973281772617E-11, -4.9029667064708665E-11, -3.991451498921437E-11 ], [ -4.3494366905643365E-14, -1.1720112893690134E-13, -9.564768047990043E-14, -9.444165628053264E-14, 3.639680005320133E-17, -1.1703486358365478E-13, 2.7952932557933747E-19, -3.948916757202963E-19, -6.511489661164875E-21, -2.7293608253864103E-19, -3.5732925620352824E-20, -1.0794191273607249E-13, -9.601476265574349E-14, -9.688389056811139E-14, 6.727892985647109E-17, -1.0747574687775635E-13, -1.0792674076270969E-13, -9.657656970375065E-14, -7.543092910738563E-14, -1.0122340629055041E-13, -1.0796551536960308E-13, -1.0551966847630937E-13, -1.0956088319761573E-13, -1.0856629204588672E-13, -1.0671352087399555E-13, -9.504644463965653E-14, -1.2519431943751337E-13, -1.2566466429623056E-13, -1.2443694851801852E-13, -1.114761286542459E-13, 1.1251690913596614E-13, 1.1366133303491149E-13, 1.1591148235862736E-13, 1.1033246391903007E-16, -1.705229048066287E-17, 1.7135476459359138E-16, -1.2557772113729811E-17, -1.0347379799978466E-13, -1.0449409213116171E-13, -1.0837290228272566E-13, -1.0068710223129245E-13, -1.0719483382066969E-13, -1.0223388207695046E-13, -3.9398418769773036E-19, -8.066490677388294E-14, -8.955450363852311E-14, -1.0538887322404322E-13 ], [ -9.174835001170996E-17, 5.375905229707684E-18, -1.7087627731641464E-17, -1.2275581297365438E-17, 2.335648253390617E-18, 4.738888624590736E-18, -9.623992762557754E-20, 1.505852716035485E-19, 1.2298319693016247E-19, -4.140116159075826E-20, -3.516446891654119E-19, 5.043182659463899E-18, -1.5673810244435003E-17, -1.0662972195932473E-17, 2.0934967785279464E-18, 4.9823315685351185E-18, 5.204780342578326E-18, -2.1454532286177347E-17, -5.496568882432874E-19, 1.1073197302692564E-17, 5.1123626355830126E-18, -6.872594609998137E-18, -2.5479731635477375E-18, -4.539832368882774E-18, -3.856304701988681E-18, -5.582093310690702E-18, 9.601056751058024E-18, 5.1090504072937485E-18, 9.33817477557487E-18, -1.2684175618062146E-17, -2.0006476968984435E-17, -1.4072438698257188E-17, -2.0231581275364716E-17, 9.747538256235626E-19, 1.4312135487105973E-17, 1.4129770836236307E-17, 1.4281782715570288E-17, -1.0418822399284539E-17, -5.749386703670812E-18, -7.023604725324453E-18, -7.831739749531694E-18, 1.5742262743198477E-17, 3.7534297157795245E-18, -1.4116372077165527E-19, -2.848369759924131E-17, -2.4086476560136634E-17, 3.84660580004635E-18 ], [ -7.2782904158065255E-9, -8.883832007303634E-9, -4.626045501690222E-8, -8.261046405040941E-9, -3.059165731561392E-9, -8.942106688943812E-9, 1.3347805190678425E-19, -4.1681228676010574E-19, 2.3458686711833806E-19, -9.400459076399583E-20, -1.3238289800101436E-19, -8.518316255333966E-9, -5.147664529024624E-8, -7.691171107748779E-9, -3.1655965373492503E-9, -8.47446525780756E-9, -8.497312262792162E-9, -2.1076814936457965E-8, -9.414903389491957E-9, -2.193842283789206E-9, -8.497557633914866E-9, -5.572273364507622E-9, -3.1060900791192304E-9, -2.207510513612436E-9, -1.5280720686947276E-9, -1.6061361491193076E-8, -5.910974579254474E-11, -6.382671426668929E-8, -7.573862503854746E-11, -5.966728760255893E-9, -1.2893387064913832E-8, -1.157237059586795E-8, -1.2730296499559499E-8, -4.275063456709E-9, -1.556248917231463E-9, -1.5821960482299898E-9, -1.5793127477461295E-9, -1.0621170117830038E-8, -3.310051792795544E-9, -4.575596449355176E-9, -7.000796362793167E-9, -2.9027569307380418E-9, -2.544341841228253E-9, 1.9026740546811104E-19, 5.808584491308928E-9, -2.5371071302665736E-8, -6.091973565076126E-9 ], [ -2.1087321174018698E-17, 8.682170215746531E-19, -3.0277906504635895E-18, -1.9147396603523292E-18, 3.7234979631991927E-19, 2.7995161291461567E-19, -1.04807944984732E-19, 3.571506571470425E-19, -2.38880675935537E-19, -9.018922301558874E-20, 1.6123730646994572E-19, 1.155050483716906E-18, -2.933456060244099E-18, -1.4219883699740748E-18, -1.0298834012874383E-20, 1.0186060739194549E-18, 9.513325120338372E-19, -3.788870018686788E-18, -2.8174038432404917E-19, 1.4839385632601667E-18, 9.0156907220478E-19, -9.864335762405977E-19, -6.370909144963609E-19, -4.3251425205087786E-19, -5.56268146312219E-19, -7.936440568417562E-19, 1.7870573915313535E-18, 7.88694181161365E-19, 1.62293684471113E-18, -2.1435358968275072E-18, -3.70548946232426E-18, -2.6347888659881943E-18, -3.79907462090133E-18, 7.879279995345648E-20, 2.1365679707431605E-18, 2.3644177857688437E-18, 1.5951018987584616E-18, -1.812407754538015E-18, -1.0185242121935285E-18, -1.1093015230874401E-18, -1.142408894708321E-18, 2.5571088973234676E-18, 5.397898693116615E-19, -6.335904664804603E-20, -5.11109021142443E-18, -4.344703014644286E-18, 9.807306684746287E-19 ], [ -7.543282748286141E-17, 3.879282551572159E-18, -1.2297163064282937E-17, -8.912583719243438E-18, 2.089490566648884E-18, 4.05589902228482E-18, 8.792262355318953E-20, 1.9396219531497628E-19, 5.289244774571005E-20, -1.7181135098272482E-19, 1.0231056258046164E-19, 3.631690232483807E-18, -1.1691576824887797E-17, -7.446987122385569E-18, 1.5577112421832269E-18, 3.818517365058434E-18, 3.93765831051554E-18, -1.613426281127308E-17, -4.294087491166851E-19, 7.508758738180831E-18, 3.321845550800892E-18, -5.22711206850577E-18, -1.786407528643805E-18, -3.0991539264572374E-18, -3.43514701264051E-18, -3.879898896785565E-18, 6.8144652055312034E-18, 3.1766174157208527E-18, 6.807741080017278E-18, -9.731022333601411E-18, -1.507601602554241E-17, -1.0185271751568319E-17, -1.5590471978829283E-17, 8.918811290421268E-19, 1.0594890315706087E-17, 1.0638502783693687E-17, 1.0763021344684685E-17, -7.264447278595385E-18, -4.061220971587208E-18, -5.723196075815585E-18, -5.36507789232171E-18, 1.2229971392814037E-17, 2.2894892937262586E-18, -6.653529740348574E-20, -2.187790633280846E-17, -1.775621460358284E-17, 2.188633616841666E-18 ], [ -4.839226110404337E-13, -1.5165977508086824E-13, -9.521336358523962E-14, -1.306733234204029E-12, -2.455196128137335E-13, -1.4144919845429964E-13, -2.1114329959291377E-19, -2.4043646175307754E-19, 2.292675854191936E-19, 2.784786615464802E-19, 2.3696133939763124E-19, -1.802727430685443E-12, -3.936899244778209E-14, -1.2848196136945118E-12, 9.376870147226001E-14, -1.8019466643085116E-12, 1.6132406657654065E-13, -6.883906690478643E-13, -3.2475464577243477E-12, -2.1695908781903928E-13, 1.5416242091406228E-13, 2.3154825880982184E-13, -1.1439535787803414E-13, -3.3646782528607735E-13, -7.006997277925298E-13, -6.524173174114453E-14, -4.6917708406745764E-14, -3.5888424715190535E-14, -4.32592992936928E-14, -1.352831289862147E-12, -6.967432738682422E-13, -5.007083157831592E-13, -4.907455852967141E-13, 1.9239076082939465E-15, -6.320952539194582E-14, -5.112887595521455E-13, -5.736776951660238E-15, 8.263172886452374E-14, -4.333505720483181E-13, -3.3749994173004695E-13, -6.550844837284225E-13, -3.6614044334186937E-13, -5.004538480263331E-13, -3.7730737809177576E-19, -4.1821806775444477E-13, -9.706059783059496E-13, -1.1543405597543174E-12 ], [ -1.5665118368580128E-11, -2.4758878202942514E-14, -1.2699647026886648E-12, -5.648460413790478E-13, -6.607609160261358E-12, -3.1659518094916955E-14, 2.1502038776853098E-19, -1.0763431594780246E-19, -4.903929867170694E-19, 3.782422796706014E-21, 1.8773734296254484E-19, -1.5808028542127952E-12, -6.168959620625857E-13, -1.0354939987860401E-12, -7.639046397497755E-12, -1.5131666215960524E-12, 2.7629010865830716E-13, -9.358132119356212E-13, -1.3886642893961895E-12, -4.168966271990945E-13, 2.751458008767412E-13, -4.2781468014940873E-13, -7.947900555965614E-13, -7.891524694099398E-13, -7.455847661477782E-13, -5.184196879013146E-14, 9.639113294732213E-14, 9.774524204432657E-14, 7.424039900786876E-14, -1.944817741948564E-12, -1.3945426831911382E-11, -1.6933550217533522E-11, -1.4400368069860517E-11, -8.314184206579117E-12, -7.626606011655548E-12, -9.14455059352969E-12, -7.496110710873212E-12, -4.4571286704446956E-13, -7.953548873508192E-13, -7.929705608598409E-13, -7.193388769167503E-13, -8.654590143179129E-13, -8.265558818453414E-13, 8.888927098557294E-20, -7.61061784804694E-12, -1.3939761701308551E-12, -1.8035295288605277E-12 ], [ -3.039913450593847E-17, 1.2744470716711628E-18, -3.783435925403357E-18, -2.634520601200902E-18, 5.2405369477495E-19, 1.2068122871114823E-18, 1.6173661191687365E-19, -4.7319193888012446E-20, -4.985576473736665E-20, -8.602514396705224E-20, -1.1811058108614814E-19, 1.0534542240068703E-18, -4.187366760448957E-18, -2.6345386958803517E-18, 8.074689026433965E-19, 9.596254001618695E-19, 7.15714248530758E-19, -5.298197295041305E-18, -3.696971716621048E-19, 2.118251155125109E-18, 9.098110419220618E-19, -1.59003350732969E-18, -7.626833600375633E-19, -1.3807351593435193E-18, -1.2128014379524452E-18, -1.771568296831588E-18, 2.398886345535592E-18, 1.0739404563123706E-18, 1.978804141111904E-18, -2.505809454332971E-18, -4.962033403786661E-18, -3.657149479650923E-18, -5.239744733425495E-18, 2.615184683579721E-19, 3.0680401471667222E-18, 3.5816867269152535E-18, 3.3541845465882447E-18, -2.329217829295208E-18, -1.800202755157063E-18, -1.786221390280924E-18, -1.418048683593447E-18, 3.753690945371199E-18, 4.546828996861912E-19, -5.712777159144114E-20, -7.256717165758655E-18, -5.932313421133673E-18, 6.236840037585454E-19 ], [ -9.249624139246628E-15, -1.360125889944168E-16, -1.590838510808643E-16, 1.5874220460909545E-16, -5.193873355740178E-16, -3.0887363204754835E-16, -1.7361875586821107E-19, -4.343883929772487E-20, -6.253226375919106E-20, 3.695957639197106E-20, 4.6958272528870276E-21, -3.1309524768140047E-15, -1.30601197118226E-16, 6.796426338239173E-18, -2.283271286127456E-16, -3.1722463675844985E-15, -1.5123167100342122E-16, -2.378844738735672E-15, -2.3084181380614016E-16, -9.271489564408378E-16, -1.4750602233222657E-16, -1.0419316478338943E-15, -1.5790594834857197E-15, -7.684303623674203E-16, -1.2036618006959778E-15, -2.554575200323908E-16, -1.999398652220865E-16, -7.047735947298943E-17, -1.962871109379206E-16, -3.462531378662854E-17, -2.604536794119572E-16, -4.1662560192868216E-16, -2.3826868344876593E-16, -2.8653402919901475E-16, -2.726683391077659E-16, -1.7921588483746806E-16, -1.8617699871952004E-16, -1.0236099230904447E-15, -1.3432394126628008E-15, -9.611624443327556E-16, -1.1889003417760432E-15, -1.9127492344422117E-15, -1.3768295760760976E-15, -1.137862903790992E-19, -1.3243392863783988E-15, -1.737240817216038E-15, -1.4339286942367763E-15 ], [ -3.4671635487371184E-17, 1.908396737949327E-18, -4.7681177754224535E-18, -3.0323220100165695E-18, 6.436702973595433E-19, 1.321335177409571E-18, -2.888919082695987E-19, -3.4403603834452174E-19, -9.882895430386436E-20, -1.1476168097615405E-19, 1.0825051047535576E-20, 1.61397898481499E-18, -4.31397303964414E-18, -2.970844604859261E-18, -5.68354661316784E-20, 1.4129262262833018E-18, 1.0321372982199358E-18, -5.934108485867066E-18, -3.74372640255521E-19, 3.1414702497760922E-18, 1.5806893196416095E-18, -1.8916887230665275E-18, -9.451789282590322E-19, -1.2715540128439705E-18, -1.2956034732731966E-18, -1.411434672425989E-18, 2.8517836058307904E-18, 1.3379994402563044E-18, 2.417707681042055E-18, -3.483482904601403E-18, -6.1105371438910475E-18, -3.846181958274763E-18, -6.028160621917975E-18, 4.2887705977378777E-19, 3.823927530843066E-18, 4.246744094178659E-18, 4.177031386211181E-18, -2.722680536937065E-18, -1.4234270649341785E-18, -1.5627115787956236E-18, -1.957059717894094E-18, 4.581502579284875E-18, 6.964862604794725E-19, -9.239646964907948E-20, -8.519488821807021E-18, -7.278111563223788E-18, 1.1703238117868964E-18 ], [ -3.062415481258403E-17, 1.2399121353109223E-18, -4.4318759614876755E-18, -3.2040265121108236E-18, 4.572406476133394E-19, 1.2229545542365604E-18, -3.11490638260212E-19, 3.0847789685990595E-19, -6.086421497858216E-20, 1.892714991327854E-19, 1.8996608385695802E-19, 1.0638754955734262E-18, -4.003058898535073E-18, -2.3847087872570887E-18, 2.1987426271682865E-19, 6.903968320032541E-19, 1.0125542479662672E-18, -5.455645531575748E-18, -2.9601669123009773E-19, 2.658101860673198E-18, 1.5239532870428618E-18, -1.337624634485262E-18, -6.310353413496243E-19, -1.2522341825400064E-18, -6.174048333682514E-19, -1.3436815469723935E-18, 2.2776825150114097E-18, 9.857128488990616E-19, 1.9069461888033873E-18, -3.5910520024146436E-18, -4.757678738799953E-18, -3.0941862645630593E-18, -5.003816245853009E-18, -2.472266633486001E-19, 3.159724190568349E-18, 3.505774979079792E-18, 3.378773537319323E-18, -2.4226882193766432E-18, -1.3745810647251895E-18, -1.5680424416605014E-18, -2.050343501510951E-18, 3.577808824567816E-18, 3.960138879512204E-19, 1.712374104028905E-19, -7.166469263095345E-18, -6.089063397667823E-18, 6.75394254451209E-19 ], [ -8.151863183692897E-17, 4.602603769388426E-18, -1.3965925716708903E-17, -1.0114812655178912E-17, 2.3961395799314513E-18, 4.237352564010664E-18, -2.8831644745860285E-19, -3.9369817061105616E-19, 1.9402325385696784E-19, 5.28137819550762E-20, -1.725145863200332E-19, 4.207432957833103E-18, -1.2895296271799612E-17, -8.324692879184654E-18, 1.160320710788983E-18, 3.986509964314889E-18, 4.164940260376016E-18, -1.7907943101889428E-17, -5.425342300006666E-19, 8.995878089704894E-18, 4.1897841788638695E-18, -5.9326157767045085E-18, -2.3818414524644294E-18, -3.7081597617395846E-18, -3.561931116824208E-18, -4.896831204344942E-18, 7.74692770938725E-18, 4.090866030945111E-18, 7.693066283820707E-18, -1.0512826396761028E-17, -1.64988282204898E-17, -1.13808197034061E-17, -1.705128711844307E-17, 1.3408276486416854E-18, 1.1607424406116579E-17, 1.206902159960315E-17, 1.1609494650443463E-17, -8.642787829957135E-18, -4.635419923733866E-18, -5.905376044666359E-18, -5.9718372841834685E-18, 1.3296494124421096E-17, 3.2156949355633787E-18, 4.611570292453623E-19, -2.388173198801212E-17, -2.03022118022477E-17, 3.1910258886455423E-18 ], [ -1.0765283794686206E-15, -2.241129802521195E-15, 6.576325391990299E-16, 6.907137699044607E-16, -1.2665197703321919E-15, -2.245402554524868E-15, 1.0102926098929192E-19, 3.5206699743634204E-19, 3.0051278593258674E-19, -3.0055321081025267E-19, 8.221066423601838E-20, -1.563195776049523E-15, 3.3452585846033845E-16, 2.412167489689434E-16, -1.5172309483774749E-15, -1.599960592503191E-15, -2.656649392979332E-15, -5.943803461435631E-16, -1.5800727741570364E-17, -1.5515104235800198E-15, -2.665473694403698E-15, -3.7971392589290016E-15, -1.6919205363067153E-15, -1.8952256851501425E-15, -1.8021468992447904E-15, 4.733531195353788E-16, 1.6701741154460114E-16, -8.130953311755331E-17, -1.0447877220245224E-16, -2.953494977633787E-16, -1.2766427832802967E-15, -2.980010664772231E-15, -1.933075174424472E-15, -1.157987653014207E-15, -6.413122068636152E-16, -1.0465968936712587E-15, -6.643568093422397E-16, -3.949482449225644E-15, -1.9213903953908125E-15, -2.012504155590194E-15, -1.9293947898567286E-15, -9.565804422437184E-16, -8.653903700777585E-16, 8.283056338538435E-20, 6.350025998670762E-16, -2.8114076283754412E-15, 1.5423926928373628E-15 ], [ -5.617975606206551E-17, 2.6106299643519926E-18, -8.28711535097899E-18, -5.968682861071604E-18, 1.24909313743581E-18, 2.048375472816217E-18, 4.810930530718539E-21, 9.627509832087439E-20, 2.025211511662368E-19, 1.5983920595011804E-19, -4.666048657909124E-20, 2.7157484239249525E-18, -7.967034883011055E-18, -5.024455460083825E-18, 1.2297964100128658E-18, 2.7245740794992624E-18, 2.3783305849651444E-18, -1.0630277520403754E-17, -1.5700464146055196E-19, 4.925838993947662E-18, 2.6315185208909377E-18, -3.494353400583036E-18, -1.3056803697120408E-18, -1.6300646715879939E-18, -2.0191189607259893E-18, -2.4100368331548596E-18, 4.923591118747018E-18, 2.2377457421567755E-18, 4.618797790957395E-18, -6.507335110847214E-18, -9.920119589386763E-18, -6.953432218699055E-18, -1.074801315561688E-17, 1.0912799600363802E-18, 6.69030568660383E-18, 6.789205862972703E-18, 7.013857029448454E-18, -5.19170422505649E-18, -3.0630170534983795E-18, -3.0576349509227537E-18, -3.035122892819783E-18, 7.882005749986947E-18, 1.5329832404651882E-18, -3.3791757491751333E-19, -1.4762787787923725E-17, -1.2120666519175702E-17, 1.8307828673821813E-18 ], [ -4.351344806749671E-11, -8.592309852896948E-12, -6.391760900768291E-12, -2.416116857529937E-12, 1.0086084904228054E-14, -8.66358719986496E-12, -4.1211871350115375E-19, 2.1412708959659163E-20, -1.3386651440416496E-19, 1.9121784243948858E-20, 1.4941923371343673E-19, -4.871854322001001E-12, -4.7723744434192E-12, -5.141139455145419E-13, 1.069128932666433E-14, -4.82329288021495E-12, 5.737164991309731E-12, -3.59802757213461E-12, -1.3130040941722373E-11, -1.058755224137268E-11, 5.700074395070488E-12, -1.0588916391704883E-11, -1.1574997502110785E-11, -1.6603277892389536E-11, -1.2507848246235314E-11, -5.0927367381211994E-12, -9.644998660298803E-13, -4.53432411481797E-12, -1.7449220972112749E-13, -5.482631057781838E-13, 4.3176992344215774E-14, 7.683015794314767E-13, -1.5511800900297087E-14, -1.2062335545833475E-13, 5.029376677943791E-13, 6.027937526408734E-13, 7.392352986122301E-13, -9.882227518573637E-12, -1.1105291774441325E-11, -1.5719936510012663E-11, -1.2145738452507915E-11, -1.6837420951022828E-12, -3.671538226096773E-12, 1.0326151862497652E-19, -2.7374993777088204E-11, -1.0477359502425515E-11, -1.8629075327053786E-11 ], [ -6.709946051545217E-16, -4.155676176709453E-15, -1.1089733135385005E-14, -3.4769690418262417E-15, -6.310150391425428E-14, -4.650418297886284E-15, 6.965527286534082E-20, 1.1061451930499963E-19, -4.309802242056236E-19, -6.910071221116896E-20, -5.851663194504265E-19, -3.538091694785501E-15, -1.2314656637899466E-14, -3.772202280564474E-15, -8.313975110895785E-14, -3.8508021355883015E-15, -7.688376179772357E-17, -7.016740715791253E-15, -1.3815262422968007E-16, -1.5530795147302375E-14, -7.728652293852576E-17, -8.117018053718802E-15, -1.9661886673156077E-15, -1.2744049636904545E-15, -1.933074996879039E-15, -1.3311647340863014E-14, -2.520140832572995E-16, -4.996082912392825E-16, -4.503522679838609E-17, -5.178005688730829E-15, -4.1283368827846554E-15, -6.558281582936704E-16, -4.140998536360263E-15, -7.721566233366211E-14, -1.2989266128817436E-13, -2.2872651681126266E-13, -1.8035461122702843E-13, -7.248660081721936E-15, -2.2252918731853324E-15, -1.7133072732834855E-15, -2.59392706054877E-15, -3.4399304711923204E-15, 1.6770195729990443E-16, 1.7666952901384825E-20, -9.263080052241902E-15, -1.527484499699445E-15, -1.9451575065443808E-14 ], [ -2.3506293077614657E-16, -2.8009433144876346E-16, -2.517226803521693E-16, -1.1425226862662528E-16, -1.4289681276263307E-15, -2.9281186295217244E-16, 4.714068187801206E-19, -3.7593648059632467E-19, -3.7145231661799147E-20, -3.3120789702482158E-19, 2.415024435470012E-19, -4.0300087780440045E-16, -3.2364129312806624E-16, -2.596426215967648E-16, -1.7444718324935355E-15, -4.262555411354622E-16, -4.638514833784315E-16, -2.2729056230142277E-15, -1.9825209569719053E-15, -2.2464867568875076E-16, -4.732863576043806E-16, -2.1528517664245632E-15, 9.339245105470002E-18, -1.7334496573586377E-16, -1.0381738453121421E-16, -3.537297274106085E-16, -4.2354093546587E-16, -2.9772788499903334E-16, -3.731302685647223E-16, -7.204429090150226E-17, -8.49082472330208E-16, -9.407802921229308E-16, -9.931943107947696E-16, -1.4733738599821124E-15, -1.150020962449382E-15, -1.2742890027752074E-15, -1.1321952069293146E-15, -2.3319165227581745E-15, -7.781316049515925E-17, -2.1905036183522902E-16, -1.5215277704698515E-16, 5.0313464003624873E-17, 1.4352932643258524E-16, -2.1706236997098044E-19, -9.884006538468429E-16, -3.3591980911925023E-15, -5.830308959121276E-16 ], [ -5.703962949002539E-17, 2.425863056825617E-18, -8.088826608019519E-18, -6.225608943842203E-18, 1.5287784714055506E-18, 2.365194438101475E-18, -1.9620611805778155E-20, 1.1170128806581862E-19, -2.723859616184728E-19, 3.131389823909002E-19, 1.4346944496113562E-20, 2.82820863523149E-18, -8.188228770690699E-18, -5.1533548017592324E-18, 9.20736469549412E-19, 2.351796051512442E-18, 2.2621923305189772E-18, -1.0862761823958345E-17, -6.91822328163521E-19, 5.3382222070732334E-18, 3.0452166865341246E-18, -3.477833874665708E-18, -1.2241238630087965E-18, -2.2577591560414437E-18, -1.7316309332211294E-18, -2.9152025768880553E-18, 4.326429792269504E-18, 2.8254233350991727E-18, 4.45240509550641E-18, -6.389255979387675E-18, -1.008927061395553E-17, -6.986444738372522E-18, -9.986323002363098E-18, 7.77372130307776E-19, 7.532254981810374E-18, 7.085080564918715E-18, 7.010485595428528E-18, -5.308148558566688E-18, -2.8136413007011235E-18, -3.355510361400865E-18, -3.820767775019006E-18, 7.834932681315334E-18, 2.2095257836391527E-18, 4.977901742948806E-19, -1.5264671033327172E-17, -1.2494813268787494E-17, 2.10958317319806E-18 ], [ -1.661969581463275E-14, -1.1971738457858202E-15, -1.2367837401057831E-14, -2.4002377972904064E-16, -5.404025100684254E-16, -1.4837266900032785E-15, -2.868325516034372E-19, 1.1765503984218254E-19, -1.1039759113896725E-19, -1.9549098089723617E-19, -1.478450460991791E-19, -4.8949991876541245E-16, -1.3258393618736274E-14, -3.3704264308477373E-16, -5.585619416229903E-16, -5.620869876313942E-16, -1.5837305623155936E-15, 6.78638932193427E-16, 1.123491669838455E-16, 5.922121307495667E-16, -1.554424756209395E-15, 6.771399556333968E-17, -8.618800434576098E-17, -2.382109624023732E-16, -1.429829912018522E-16, -1.208416861515088E-14, -1.8603458110694417E-14, -1.5776443097045646E-14, -1.7652671808965096E-14, -4.640254955889898E-16, -6.018854968096599E-15, -3.339766590346893E-15, -7.112527028918591E-16, -5.878640734304018E-16, -8.273476497516307E-16, -1.725367712709521E-15, -5.761195238622408E-16, -9.814244774735776E-17, -1.5257953089886634E-16, -2.8632415364962004E-16, -1.5757963524934755E-16, 1.1813970483595935E-15, 8.069392551141137E-16, 1.0677670003006328E-19, 9.079528283513042E-16, 1.873731201701553E-16, -5.6350119684976E-17 ], [ -1.4119724075267283E-13, -1.2366674791869196E-13, -1.2916663538066373E-13, -9.590803858581625E-14, 1.1879281889821573E-14, -1.1463961438816347E-13, -2.4493085202002663E-19, -3.8470338541185274E-19, 1.2951323353475635E-19, 9.752246187203085E-20, -2.343017511530072E-19, -2.2881221959481952E-14, -1.296107836184427E-13, -9.942420787184934E-14, 1.0480804179995332E-14, -2.2501085075692822E-14, -1.715324901570324E-13, -5.859722806734906E-14, -5.286813965062835E-14, -4.096074786272248E-14, -1.7125761908657184E-13, -2.18008362561374E-14, -3.766311048390743E-14, -3.822657503141863E-14, -8.892344159734055E-14, -1.2759067927642719E-13, -1.4526534560111867E-13, -1.4668691601313612E-13, -1.4066327569898635E-13, -1.5544562497859827E-13, -1.8178506260947933E-13, -1.7360706057533863E-13, -1.2753690855840788E-13, 1.1910502316175586E-14, 1.0442980288952627E-14, 9.8572072598972E-15, 9.398755390998778E-15, -2.0352216137280883E-14, -3.5565884944811534E-14, -3.8086513391654497E-14, -8.335984237901503E-14, -1.703095472932022E-14, -6.585202790258675E-14, -2.2656044488372803E-19, 6.803668850233816E-14, -3.599687926351699E-14, -1.0972278194977261E-13 ], [ -1.351133962096092E-17, 2.494944402134347E-19, -1.9601334776762616E-18, -1.0495604815243659E-18, -2.245850342289347E-19, 4.4159207150639954E-20, 1.2244175448847312E-19, -2.204944714486086E-19, -2.1477727345502114E-19, 6.060726675363592E-20, -2.9880896892710294E-20, 7.826228483027369E-19, -1.4812643685047135E-18, -1.388231192113373E-18, 4.310688110414207E-20, 2.793653733315267E-19, 6.864776417737021E-19, -3.0133566665781407E-18, -4.136578440199443E-19, 1.3929838977135E-18, 8.51851735342877E-19, -8.533320369860567E-19, -3.025192646135239E-19, -5.768981605264142E-19, -4.39272323053671E-19, -4.590334322417731E-19, 7.905660199015527E-19, 4.975756843677374E-19, 8.276481662692236E-19, -1.6943391779026467E-18, -2.4687283787381415E-18, -1.7467061837722567E-18, -2.5207777738901184E-18, 1.8232849327671235E-19, 1.6830927919641191E-18, 1.1599865170571893E-18, 1.042536141460374E-18, -1.1183231491003427E-18, -1.0395494098720469E-18, -1.06397011454183E-18, -7.54174861882362E-19, 1.638482722578583E-18, 2.081387948962076E-19, -4.0575410602798757E-19, -3.4672981432957732E-18, -2.87348662776263E-18, 1.827620394698939E-19 ], [ -9.259872600147387E-17, 4.9311084331356154E-18, -1.685197958763623E-17, -1.2449056913184074E-17, 2.296433594608161E-18, 5.047687625301522E-18, -2.0254066570319772E-19, -2.409132037903986E-19, 1.1757863419353075E-19, -5.718624528374153E-20, -7.48929737871412E-20, 5.377056687497211E-18, -1.608255104154609E-17, -1.0779406758014546E-17, 2.0125958865182573E-18, 5.2932998273462994E-18, 5.344507956172472E-18, -2.183577650489856E-17, -5.825762067482205E-19, 1.1104995445607339E-17, 4.997957545532637E-18, -7.163047099165846E-18, -2.9534007519418894E-18, -4.420479508940168E-18, -4.742549521406914E-18, -5.548173395425311E-18, 9.79238934518583E-18, 5.3585017631789575E-18, 8.898681286859328E-18, -1.3515799445327047E-17, -2.054930851888912E-17, -1.3763276581048185E-17, -2.0611500641719116E-17, 1.947435545172007E-18, 1.4771507540242658E-17, 1.4909721953957118E-17, 1.4792828528815418E-17, -1.0648360821767112E-17, -6.32964947285579E-18, -7.506997074850092E-18, -7.963188918967798E-18, 1.6176426289330304E-17, 3.685100065940031E-18, -4.1412181970472107E-19, -2.931709792332801E-17, -2.4561600197105067E-17, 3.637745917404376E-18 ], [ -7.214513866051806E-12, -6.842168876858915E-12, 4.840527989215299E-14, -7.53594693209663E-13, -7.88226567631349E-13, -6.8328485211612384E-12, -4.667794427525066E-19, -4.489012450820116E-19, 2.703107694982098E-19, 1.844962568818304E-19, -4.7578144868446066E-20, -4.150613089525498E-13, 3.5678695565666616E-14, -6.008256193893285E-13, -7.235229128887076E-13, -3.831649352362612E-13, -2.0599001119654368E-12, 9.722588865712833E-13, 8.617029974206138E-13, -3.3250360724994462E-12, -2.0408517298827316E-12, 1.5092279342242937E-12, -5.233068362666658E-13, -4.1083369285656657E-13, -2.1632283275422052E-12, -5.260706526066168E-16, -9.924432212052004E-14, -1.0260410959075469E-13, -1.0550792344696558E-13, -8.585761273177279E-13, -3.8602935773831734E-13, -3.3983364521674315E-13, -3.513448840663997E-13, -8.467010457416945E-13, -7.15286995269563E-13, -1.3335017547846333E-13, -5.410301677812897E-13, 1.6473424048416001E-12, -5.461107191173664E-13, -4.860188604756632E-13, -4.424986539444907E-12, -9.87236669592124E-12, -5.155345353129409E-12, 1.4307057503779388E-19, -8.902338434191771E-12, -1.1028987398992216E-11, 4.4285483138518475E-13 ], [ -4.5949424209318895E-17, 2.0313883117317545E-18, -6.340686687692783E-18, -4.794878331875491E-18, 8.53711420088587E-19, 1.8524291305763442E-18, -1.0351127987001325E-19, -1.2309529362515426E-22, -4.505889256070786E-19, -3.7428896445918283E-19, 1.1473551449298802E-19, 1.770372415062807E-18, -6.180897550661342E-18, -4.179657349889562E-18, 7.939728986821262E-19, 1.9956356043595042E-18, 2.0426736054845487E-18, -8.57268251612296E-18, -1.2079159168110105E-19, 4.323182785899619E-18, 1.615857990805346E-18, -3.14654937533552E-18, -9.691338652369426E-19, -1.5167633142261771E-18, -1.5768529400205449E-18, -2.095441544669411E-18, 3.4025764425660133E-18, 2.3647800648680292E-18, 3.617273794646026E-18, -4.955948040921991E-18, -7.801179899788699E-18, -5.353424275675221E-18, -8.33178815943861E-18, 8.341850222846655E-19, 5.311322616457788E-18, 5.648511855331403E-18, 5.30535577661796E-18, -4.211180642253035E-18, -2.256897268267847E-18, -2.6612476535920176E-18, -2.79325684996632E-18, 6.099743950196149E-18, 1.0941922238711067E-18, -1.3267644743752127E-19, -1.1731372125281418E-17, -9.426525319268801E-18, 1.227898695358748E-18 ], [ -1.2763460088011097E-13, -9.904492519813447E-14, -9.496657957733891E-14, -7.765239941356044E-14, 3.0404197398912747E-15, -9.519138255474027E-14, 4.701469956802772E-19, 4.2840796552831515E-20, -3.302429656168284E-19, -2.9251994426162907E-19, -5.208687886914137E-19, -8.441967727359768E-14, -9.442783374004488E-14, -7.539705044241294E-14, 2.6937609748156144E-15, -8.430178645869261E-14, -8.660979541210165E-14, -3.368511788091747E-14, -1.3858199666427747E-13, -1.1488310422459893E-13, -8.624945641715715E-14, -8.107229774058486E-14, -9.310959005559613E-14, -9.537635501662888E-14, -8.885749875862475E-14, -9.082832320373249E-14, -1.3969176088416423E-13, -1.3600006141534997E-13, -1.3749510931723885E-13, -4.716025029217703E-14, 1.2844538054935013E-13, 1.2870184582111972E-13, 1.2915827219321863E-13, 3.1634619932963227E-15, 2.641469169456389E-15, 2.329768473978451E-15, 2.466155804547383E-15, -7.87215344648138E-14, -8.26523695934339E-14, -9.264079845157162E-14, -7.721322728310682E-14, -8.197798449838234E-14, -1.3709066169966204E-13, -3.570456197395677E-19, 2.4727757494428274E-14, -6.456643556337947E-14, -1.8276351892621568E-13 ], [ -2.5409600038418735E-17, 9.694035560488181E-19, -3.1875756978578825E-18, -2.0236334079166844E-18, 2.8683291150581583E-19, 9.20796211442312E-19, -7.425535580886255E-20, 2.5473317013857183E-19, -2.6946402199363376E-19, 1.314955718156072E-19, -2.75222033030986E-19, 7.559520773787163E-19, -3.096125474964963E-18, -1.840060950159885E-18, 4.128389010106516E-19, 7.040786525593968E-19, 1.1204015630713968E-18, -4.6650761061909585E-18, 6.190375718756256E-20, 2.1950329338928044E-18, 3.686622596575516E-19, -1.3380307197577252E-18, -7.268779424670437E-19, -7.394303063354641E-19, -6.54001933321353E-19, -1.084031350471438E-18, 1.915415937031894E-18, 8.233967252131788E-19, 1.805382008642792E-18, -2.5578338024491203E-18, -4.290529805184935E-18, -2.6646974108139027E-18, -4.521673334712516E-18, 3.202673009424106E-20, 3.0762439516564528E-18, 2.448874199790433E-18, 2.690373036158706E-18, -1.7030915453579959E-18, -1.3895651971357729E-18, -1.1755018003767783E-18, -1.9010315409929564E-18, 3.724320966106493E-18, 7.361065181573097E-19, -5.696462562854385E-19, -6.285315473383182E-18, -4.883823338927508E-18, 4.2519202617560297E-19 ], [ -5.9684785766484146E-15, -1.841833784392336E-14, -2.616401360467634E-14, -4.1609299508029426E-14, -3.011859157067574E-15, -1.3790839611481068E-14, -1.0362982378395931E-19, -1.3096894365417527E-19, -3.4920976164161456E-20, -4.1555881100499323E-19, -1.603998326773138E-20, -1.0633635835716283E-14, -2.9406140434385865E-14, -4.4828315388894375E-14, -4.055917324634221E-15, -9.655994012529308E-15, -3.1347607913131516E-14, -2.806568464586969E-14, -7.111992968679006E-14, -6.835268993953058E-14, -3.1254207041283993E-14, -6.264713839856573E-15, -1.2915154622796163E-14, -8.367987541411926E-15, -9.215763871876053E-15, -3.497670785179655E-14, -3.841835673350194E-15, -1.8034079392400463E-15, -1.858701046486892E-15, -4.790964984682658E-14, 3.4308311309439975E-15, 3.593199541099539E-15, 1.7617952764392641E-15, -4.896019620637797E-15, -6.8344024222060325E-15, -6.060129792521339E-15, -6.39559735210078E-15, -7.297191115477584E-15, -1.7531652078186016E-14, -9.262795117126167E-15, -1.424712581258857E-14, -2.7608447006554567E-14, -5.021665189762858E-14, 2.1701310189635774E-19, -6.140878138947406E-15, -6.163633489683526E-15, 2.792932892571722E-15 ], [ -7.198838941404113E-17, 3.6567765360700336E-18, -1.1179075612002983E-17, -8.583173196425635E-18, 1.7549780946834368E-18, 3.3592921714521265E-18, -2.2707459520353896E-19, 1.0949603775731761E-19, -1.4309772105256231E-19, -2.422011445473859E-19, 3.289159614611535E-20, 3.659035185305471E-18, -1.1133346324038722E-17, -7.35162247775973E-18, 1.562543240060837E-18, 3.540133834123454E-18, 2.9987651139007383E-18, -1.485228603698688E-17, -3.3968761217974667E-19, 7.271311220358918E-18, 3.2028709072568035E-18, -4.997032678883531E-18, -1.5650519807233705E-18, -2.8321291393651413E-18, -2.6824067191159005E-18, -3.715371069255166E-18, 6.4235145979357E-18, 3.453841484617928E-18, 6.241791109746578E-18, -9.157861060721898E-18, -1.367530864096302E-17, -9.12041565073367E-18, -1.4450951428177092E-17, 8.194446591887757E-19, 9.774093740901378E-18, 9.796067287246403E-18, 9.85376089131887E-18, -7.106127861700294E-18, -3.967559416179654E-18, -4.7623608084443576E-18, -5.07553995558219E-18, 1.0887479864422757E-17, 2.5383230468346278E-18, 3.019576231900423E-19, -2.0302122090690803E-17, -1.7157832172718398E-17, 2.6052722098868675E-18 ], [ -7.635395062924388E-14, -9.258414263912382E-14, -9.727775757116956E-14, -8.212185925161492E-14, 5.261051073804756E-15, -8.796718245128434E-14, -4.992399712515331E-19, 7.104724704378682E-20, -1.2979725973510505E-19, -1.7046460848468953E-19, -2.5531573544103106E-19, -8.128823177824938E-14, -9.741522379442005E-14, -7.821368041437593E-14, 4.6895139606231205E-15, -8.108381106460682E-14, -8.325451462862038E-14, -4.763988251446395E-14, -1.43829274351764E-13, -1.1245525766440517E-13, -8.287031594321609E-14, -8.300138748211869E-14, -9.03769821632528E-14, -9.19697292702056E-14, -8.562806001289338E-14, -9.342313916395971E-14, -1.4607401454354526E-13, -1.434690854927689E-13, -1.423486636377248E-13, -5.505786364821726E-14, 1.0572374462558782E-13, 1.0989470838062017E-13, 1.1474397445028486E-13, 5.477923935091211E-15, 4.0556740780256965E-15, 3.75440026138003E-15, 3.7280591007346735E-15, -8.063817274177962E-14, -8.162209763191437E-14, -8.938695142286885E-14, -7.614676711500931E-14, -9.617460356798102E-14, -1.3217171387298543E-13, -2.2752680232121873E-19, -1.5047160567543605E-14, -7.172509386933221E-14, -1.8413471978659414E-13 ], [ -6.460839246184033E-7, -5.266719507924053E-9, -1.025995549780451E-7, -2.131236492390572E-7, -2.0004661157011944E-7, -1.0662168623161633E-8, -5.2741211592603006E-20, -1.7479161767281818E-19, -6.446182880051738E-20, -2.591333013530491E-19, -5.922187898702107E-19, 1.0180114863312712E-7, -3.8726830999292366E-8, -3.5069670001647736E-7, -2.131630745629325E-7, 1.002522556559602E-7, 1.2726483288231798E-7, -5.45525911943603E-8, -4.924919906622254E-8, 7.588735609519665E-9, 1.2674152656232517E-7, -1.9015848202121934E-7, -9.093007053970775E-8, -1.684889713516952E-7, -1.5243089655313683E-7, -6.167365375287773E-8, -1.5227828944628544E-8, 1.0572108573409468E-7, -7.777581448058251E-8, -4.5895256697026524E-7, -3.494606458298269E-7, -5.366740495532406E-7, -4.1969961566639275E-7, -2.1403313099785337E-7, -1.8107978985980867E-7, -1.900946639916812E-7, -1.7952632223923622E-7, -1.305263623352967E-7, -1.215902735296688E-7, -1.2760601570180598E-7, -1.89312763786558E-7, 1.0898481504537095E-7, -4.0156145158801197E-8, 2.790970623446881E-19, -8.473495561870422E-8, 2.368688808266174E-7, -1.1355778367542247E-7 ], [ -9.556039904684344E-17, 5.638956814350911E-18, -1.7550015083337633E-17, -1.3239133966220273E-17, 2.7485567260875896E-18, 5.523912305160917E-18, 4.94350859765361E-20, 2.5841575568115613E-19, 1.747550261423958E-19, -4.8289002290275076E-20, 1.630616192608428E-19, 5.986446174876096E-18, -1.6906726640733146E-17, -1.1058067545098107E-17, 2.2996651680577007E-18, 5.449874963588164E-18, 5.076396749805216E-18, -2.2475118735464327E-17, -6.915535812502037E-19, 1.1165045349487762E-17, 5.143967171417354E-18, -7.637195145776505E-18, -2.905417974404235E-18, -4.93296614319539E-18, -4.5557699910296755E-18, -5.52052436649581E-18, 9.830135428474199E-18, 5.629524505004287E-18, 9.724078292730781E-18, -1.4091689266423677E-17, -2.1375226061919202E-17, -1.478097654962551E-17, -2.2267748537603735E-17, 1.7198124460084385E-18, 1.5401350373957606E-17, 1.5439257515262476E-17, 1.5811793001133654E-17, -1.1023337225776617E-17, -6.299419221356098E-18, -7.488584987114085E-18, -7.724816613854932E-18, 1.7054671093585388E-17, 3.563620947791042E-18, -3.2038348256204394E-19, -3.021903441864855E-17, -2.580100860452769E-17, 4.116016825925638E-18 ], [ -1.541476275989629E-15, -9.360995856589549E-14, -9.638137251215077E-14, -9.683152137366395E-14, -8.287203761130545E-14, -8.988149757975177E-14, -1.9826315536083107E-19, 2.850317777763281E-19, -4.016895029731529E-19, 1.3360142491686767E-19, 1.7084621432473389E-19, -8.46776254433424E-14, -9.626824052300406E-14, -1.0269551602287865E-13, -7.697165737040671E-14, -8.457461133711842E-14, -7.993016092326876E-14, -5.2779114571785555E-14, -1.039047875784241E-13, -1.156695097046257E-13, -7.966493901872672E-14, -9.350400733570521E-14, -9.665006123625548E-14, -9.516686956323524E-14, -8.85503061975584E-14, -9.221990710146423E-14, -1.429092508990308E-13, -1.3940514409062166E-13, -1.401345026978722E-13, -1.6671923433231738E-13, -2.0336804848840784E-13, -2.0555326632296488E-13, -1.4559137277871607E-13, -1.1848275334599853E-13, -2.7012376155432007E-14, -3.7104454602115735E-15, -2.1963867032549947E-14, -9.176321710934585E-14, -8.668238538013399E-14, -9.295177933662226E-14, -7.779379991740393E-14, -1.3812840382720003E-13, -1.421442015297903E-13, 6.127670340307738E-20, -5.097139257839792E-14, -6.793430534580016E-14, -1.7585654551489192E-13 ], [ -1.0057797870087138E-16, 6.226035202746679E-18, -1.9315749307252345E-17, -1.4253696841478614E-17, 3.311432109781816E-18, 6.151364063310745E-18, 9.76692145847747E-20, 3.3131199838985296E-20, -1.4579029867257167E-19, -1.4638754130614738E-19, -1.918713600497369E-19, 6.133955942637402E-18, -1.8471998815476662E-17, -1.2502999894605677E-17, 2.441569776706842E-18, 5.5324590597527866E-18, 5.7148035100532176E-18, -2.491427751298499E-17, -9.853929545228234E-19, 1.3179500487189227E-17, 5.950066641107197E-18, -8.520926878703724E-18, -2.8455787435054893E-18, -4.9242484009130935E-18, -4.970898204124571E-18, -6.58053770722938E-18, 1.1294631894272311E-17, 6.300845757540078E-18, 1.0577094613254308E-17, -1.5317617541074726E-17, -2.3044453947539297E-17, -1.6542124569465882E-17, -2.382071814110441E-17, 1.6653291499277212E-18, 1.702382732758292E-17, 1.717589879146123E-17, 1.6793240342256927E-17, -1.1978699594793206E-17, -7.312167493195187E-18, -8.50580225059179E-18, -8.711063693276099E-18, 1.8326096379890398E-17, 4.002872783856149E-18, 4.072603705936396E-19, -3.32483021277213E-17, -2.871946038822585E-17, 4.356038949155016E-18 ], [ -7.78261912143193E-17, 4.0813136757772975E-18, -1.2872386749008891E-17, -9.789428119318088E-18, 1.7635450554706226E-18, 3.847404130885725E-18, 1.2503250758245327E-19, 1.818314979578542E-19, -6.904972031177273E-20, -5.6544550734785265E-21, 2.876800077850014E-19, 3.966802034900701E-18, -1.2477115906136696E-17, -8.101704083713511E-18, 1.6964057345298972E-18, 3.944932194856897E-18, 3.803836405753629E-18, -1.6814429918433757E-17, -2.9287840891591642E-19, 8.096263633284181E-18, 3.82008444671534E-18, -5.605541365024751E-18, -2.491956461231507E-18, -3.111585842210032E-18, -3.2588924977142507E-18, -4.1937152200789374E-18, 7.529891263522064E-18, 4.120682154977956E-18, 6.91640759754399E-18, -9.64963503404158E-18, -1.52225768274823E-17, -1.0360278846526228E-17, -1.6305200183630202E-17, 7.060147254995709E-19, 1.0942689488567339E-17, 1.1224260602607689E-17, 1.1109485511398636E-17, -7.565323948550794E-18, -4.409506313304678E-18, -5.564966115336566E-18, -5.993896876582761E-18, 1.2086294092095759E-17, 2.9773523518686646E-18, -8.456816810489895E-20, -2.2293253064663703E-17, -1.9213483952959628E-17, 2.5909947605669634E-18 ], [ -8.45664575560059E-13, 3.9013535179480384E-13, -3.0207129080784527E-13, -1.1130374939108782E-12, 5.686326616854963E-13, 4.221144452734176E-13, 4.986000894556422E-19, 8.378628917999533E-20, 5.176905703785062E-20, -2.8435811991852396E-19, -2.9462276551698816E-19, -8.80820100472076E-14, -4.306236507514329E-13, -1.2274512069882355E-12, 5.520739722027741E-13, -8.710888485217524E-14, -4.495566770552414E-13, 3.013658475375781E-13, -1.5691644330464508E-12, -6.146294226945454E-13, -4.576095465422338E-13, -8.31913380133182E-13, -8.50950375205457E-13, -5.412196835305559E-13, -5.995857018052031E-13, -8.315737862622391E-13, 6.781842417324033E-13, -2.1329273336131493E-12, 5.982978186909911E-13, -1.405554737807098E-12, -6.075980671200473E-13, -1.391922156740697E-12, -5.147977871122879E-13, 4.670588148801275E-13, -1.5160370482285961E-12, -1.2295068812039878E-12, -1.6016478603007462E-12, -8.267423515292987E-13, -7.976666292818691E-13, -4.1450139814344724E-13, -5.356865062805216E-13, 1.9039697028293132E-14, -1.277137894175184E-12, 2.934567912430927E-20, -8.048120496240413E-13, -1.3102464898672003E-12, 3.8283839397986295E-13 ], [ -3.685843748392683E-17, 1.8876078388601935E-18, -4.888959842760906E-18, -3.4320715740497246E-18, 6.865531422594779E-19, 1.3119777385188445E-18, 1.278068585023816E-19, 4.24940681729566E-19, -9.314580333699037E-20, -1.682240246269144E-20, -2.9737511297874185E-19, 1.6818526228183685E-18, -4.3336645870691025E-18, -3.1536864849254976E-18, 6.088335354980434E-19, 1.9565400248068113E-18, 1.5790855442079459E-18, -6.3295332404557395E-18, 1.9882436461646546E-19, 2.6726708190567165E-18, 1.431411894304412E-18, -2.149076250992089E-18, -4.756818879545913E-19, -1.0749165271407028E-18, -1.1408016395931555E-18, -1.3975166997095545E-18, 2.882443375838549E-18, 1.2644785123668299E-18, 2.63430636016307E-18, -3.6389748805834406E-18, -5.572028211480227E-18, -4.463978491437984E-18, -6.608896936817799E-18, 1.837197963598606E-19, 4.719139005952475E-18, 4.1054102851838825E-18, 4.292859267622952E-18, -3.529347040203133E-18, -1.780882982063502E-18, -1.6977532288624137E-18, -2.1557061940380252E-18, 4.733214478496386E-18, 1.1171771915062545E-18, -1.0664099027077264E-19, -9.265524376513258E-18, -7.33105983483909E-18, 1.186046719552387E-18 ], [ -1.5917218618275298E-8, -5.460434116287568E-9, -1.3899019516547562E-8, -4.4811070989909744E-9, -9.286005914605108E-9, -5.782376637585581E-9, 3.648272648918959E-19, 1.9186367917361072E-19, 2.8488547585184364E-19, 2.3761476726936995E-19, -2.2569460636454504E-19, -7.6410176055193E-9, -1.3823680430099988E-8, -4.039312678592655E-9, -1.118993579984952E-8, -7.584285909069015E-9, -4.510527787313176E-10, -1.116939347001253E-8, 1.2403948977186231E-8, -1.994561534618313E-8, -4.2736648362011576E-10, -1.7248517834577754E-8, -2.204495984220632E-8, -1.018264694724197E-8, -2.0918500942726742E-8, -1.491565405742629E-8, -5.861569793844408E-9, -1.0239532321283585E-8, -5.19080234162667E-9, -4.8825561238124476E-9, -4.873057809354816E-9, -7.848277894680466E-10, -4.726458258994087E-9, -1.0498203194180726E-8, -1.1699720225180973E-8, -1.146984183341354E-8, -1.2293029367905754E-8, -1.9073023519510723E-8, -2.1330835429913565E-8, -1.116353732009914E-8, -1.830689696258415E-8, -1.948663516439886E-8, -2.312853272535709E-8, 7.506076681170404E-20, 1.6723503545323936E-8, -6.82437803882491E-9, 8.321869421975446E-9 ], [ -2.206275116722881E-11, -1.4971929170055225E-11, 8.323436601302447E-13, -1.2250095629334255E-12, -8.922091585027325E-13, -1.40789136359054E-11, -2.0995755624777647E-19, 1.1674813967964739E-19, 3.4833471914932247E-19, 8.970699627398369E-20, -1.8009269207064922E-19, -1.547516763318262E-11, 8.665072346731331E-13, -1.3388603860701606E-12, -6.157720383817617E-13, -1.5506253221906585E-11, -8.11885214406802E-12, -5.305468331495248E-12, -2.5137651548555513E-11, -4.1665419341633655E-12, -8.098819172782861E-12, -1.9244630561079695E-11, -2.2042093356270905E-11, -3.6851410997595626E-11, -2.3917470275203568E-11, 6.602224594765998E-13, -4.2495639399179965E-12, -4.044569019091093E-12, -3.9263995670855695E-12, -1.2478000755503823E-12, -6.6788716391786224E-12, -6.053012833007761E-12, -6.046172660870386E-12, -6.233248479985894E-13, -3.612722661168886E-13, -3.271143172073161E-13, -3.4786845217610825E-13, -2.0197000873990488E-11, -2.1938933429347352E-11, -3.719242183983378E-11, -2.327514546168499E-11, -1.5370463853976266E-11, -8.073602593212863E-12, -1.2594042339241748E-19, 5.3462860569140525E-12, -4.184142450156554E-12, -6.396603962285373E-12 ], [ -3.3487780856854084E-10, -1.3368790129751616E-10, -1.1566685820731749E-10, -8.547892598986957E-11, -7.217544910573604E-11, -1.3447048393342915E-10, -1.8859169533403986E-19, -1.1379672281556547E-19, 1.3067633748187863E-19, 4.472499967000267E-20, -1.4880352180156588E-19, -8.782984353428446E-11, -1.232720222221807E-10, -9.111265101535964E-11, -6.842054011082882E-11, -8.815193495041997E-11, 5.624320485903396E-13, 4.496288652456812E-11, 8.756318887861722E-12, 3.136914221666449E-11, 7.749969879762076E-13, -3.543574852515895E-11, -6.605206541348254E-11, -8.47542159912618E-11, -3.053833380103756E-11, -1.1709400750640287E-10, -1.9146441522867674E-10, -1.1477758126930109E-10, -1.9907594063865812E-10, -6.296489950726304E-11, -8.570231834289793E-11, 1.1016553929978852E-11, -6.142757119890127E-11, -6.817170911743862E-11, 4.928718383467244E-11, 6.982616179078953E-11, 5.119423171158873E-11, -5.092326287759001E-11, -5.78402910712167E-11, -8.427627110354594E-11, -2.9615135250023605E-11, 1.0437364952794316E-10, 7.552766213873161E-11, 2.9684307237657397E-19, 1.1301767320572937E-10, -1.3942175212981367E-11, -3.028779381910607E-11 ], [ -4.560193749421911E-15, -6.4036981612306276E-15, -2.384445794074109E-15, 1.937847805374327E-15, -5.610506585867137E-15, -6.516661158409654E-15, -1.5153999184576526E-19, -2.9086811786405303E-19, -1.0111966419168219E-19, 3.823900814338003E-20, -3.706525161338956E-21, -1.4915274568781927E-15, -3.1545809522048776E-15, 2.5042295217624677E-15, -5.904668915269834E-15, -1.4149961471782676E-15, -6.123277309139685E-15, -9.485669332184975E-15, -2.375468712116262E-15, -3.25916758007166E-17, -6.133117912138226E-15, 3.453202436503555E-15, -3.56697326385426E-15, -4.274459850613444E-15, -4.256381079496232E-15, -4.776542891494021E-15, -5.128558451543444E-15, 9.28716620641747E-16, -4.711725328087977E-15, -1.0519603149947767E-15, 8.498532759001309E-16, -3.530366386076363E-15, 4.980635610119642E-16, -5.666445423843641E-15, -5.557903468779976E-15, -5.644084435948941E-15, -5.524736585620401E-15, -3.934237939592655E-16, -5.205089648588336E-15, -5.7249073547767735E-15, -5.63054393278545E-15, 5.588257737834632E-16, -6.090023518237584E-16, 2.52417633134731E-19, -3.2369617866678544E-15, -9.655493017484454E-15, 2.24495629700509E-16 ], [ -5.155474996431869E-15, -7.219848654500581E-15, 2.1481636065804583E-15, -3.7989162862098057E-17, 2.1719210178764088E-16, -7.212467978939166E-15, 3.472907654926391E-20, 7.70465587567061E-20, 4.5996501720924973E-20, -3.2490821040538407E-19, -1.4880367273811096E-20, -8.917648362228796E-16, 5.992603222145238E-16, -2.1552631092535977E-16, 8.326967407098621E-17, -8.300378563853778E-16, -8.777975999486934E-15, -3.8421474362823636E-15, -7.81309835753054E-16, 6.585625264204493E-17, -8.77520406268266E-15, -4.784841112206502E-16, -6.419898690147798E-15, -6.258525879745942E-15, -8.088908216722106E-15, 1.5580724327699633E-16, -4.928395852645782E-16, -3.1647953294706976E-16, -4.0813993568974317E-16, -3.706552118988539E-16, -3.6464173719839326E-16, -6.198903234301767E-15, -4.810831731736518E-16, 1.1711468384242976E-16, -6.348055622834066E-16, -6.794133036453166E-16, -7.235273172648152E-16, -6.037480868598698E-16, -6.775029691458839E-15, -6.187749746833357E-15, -8.120994989321823E-15, -2.89852618218603E-18, -5.750531859805781E-16, 7.983151116210336E-20, -3.1784061792869106E-15, -2.849300974096777E-15, 8.337656202060079E-16 ], [ -5.030787192860974E-15, -4.742345642167199E-16, -2.2029658707400737E-16, -7.599544741458709E-17, -5.42116903481633E-16, -4.789774938121191E-16, -2.13463815546762E-20, 5.1290430392779146E-20, 3.131877837406178E-19, -7.163375358105719E-20, -6.234963333658215E-20, -1.7289585235321522E-15, -2.201261657443396E-16, -2.0993523441360048E-16, -4.3171814634652875E-16, -1.799850744606617E-15, -2.334635471309764E-15, -2.9663600405421367E-15, -9.598030567505048E-16, -7.981691819368419E-16, -2.3336752844430032E-15, -2.657337939698263E-15, -1.7034412138351073E-16, -1.1870619127641677E-15, -5.413852415082632E-16, -2.221167276584921E-16, -2.243793592636052E-16, -2.280066277560547E-16, -2.2431482897035844E-16, -3.8311092880561724E-17, -1.184929221168961E-15, -1.5663940860611957E-15, -1.2315878506449156E-15, -3.8024025933211614E-16, -7.587180057530222E-16, -7.517123364335211E-16, -7.755409471596404E-16, -2.5291776851162014E-15, -3.6330533879485885E-16, -1.2224883584408164E-15, -5.020550634595388E-16, -1.1951943968571338E-15, -1.044751239720749E-15, -8.439282518366537E-20, -3.903353630816604E-15, -3.182417198396625E-15, 3.281001394176338E-15 ] ], [ [ -1.8078482317382498, 5.097473384241503E-7, 5.850817378404683E-7, 5.85081737844741E-7, 5.9290062544616E-7, 5.815947309699522E-7, 5.850817378284888E-7, 5.883092480036621E-7, 5.850817378446989E-7, 5.850817378466211E-7, 5.989918301772997E-7, 5.823845967931113E-7, 5.850817378446947E-7, 5.85081992693138E-7, 5.850817378499681E-7, 5.85081737844677E-7, 5.850817378317599E-7, 5.850861975776107E-7, 5.850817378560774E-7, 5.795672267724072E-7, 5.85087909517514E-7, 5.850833195865062E-7, 5.850817378504083E-7, 5.850848059020006E-7, 5.861730955090411E-7, 5.850817378446172E-7, 5.850817378450893E-7, 5.985903836020482E-7, 5.850817378447475E-7, 5.797739926951845E-7, 5.850817378481266E-7, 5.853727947437186E-7, 5.850817378482672E-7, 5.801803081802079E-7, 1.4601105751564464E-7, 5.850817378247112E-7, 5.800136399751559E-7, 5.850817378573544E-7, 5.850817378449484E-7, 5.860084893202216E-7, 5.850817378466488E-7, 4.2900176591696233E-7, 5.984965859064391E-7, 5.78776638580104E-7, 5.852099133469116E-7, 5.85083235115142E-7, 5.850825016983153E-7 ] ], [ [ 94.43958845627374, -3.5073508977389983E-8 ] ] ]
}