{
  "config" : {
    "algorithm" : "ListNet",
    "numIterations" : 1000,
    "batchSize" : 0,
    "verbose" : true,
    "nomodel" : false,
    "params" : {
      "regularization" : {
        "rate" : 0.01,
        "regularizer" : "L2"
      },
      "layers" : [ {
        "activator" : "Identity",
        "num" : 1
      } ],
      "optimizer" : "adam",
      "learningRate" : 0.075,
      "weightInit" : "xavier"
    },
    "dataSet" : {
      "training" : "../../../MQ2008/Fold3/train.txt",
      "validation" : "../../../MQ2008/Fold3/vali.txt",
      "test" : "../../../MQ2008/Fold3/test.txt"
    },
    "model" : {
      "format" : "json",
      "file" : "../../../MQ2008/Fold3/models/ltr4l_33.json"
    },
    "evaluation" : {
      "evaluator" : "NDCG",
      "params" : {
        "k" : 10
      }
    },
    "report" : {
      "format" : "csv",
      "file" : "../../../MQ2008/Fold3/reports/ltr4l-report_33.csv"
    }
  },
  "weights" : [ [ [ 80.87242229347093, 0.0426912128082814, 0.28828586113749677, 0.45218113321013514, -0.5249329195468664, -0.16537379397445043, 9.665964511570904E-156, 1.5935731814025971E-155, 3.978467938604179E-155, -1.1345661581090788E-156, 2.4720797791920393E-155, 0.4067894190677947, -0.2562146243155758, -0.1256814424939792, 0.04285202866171549, 0.07354535910348511, 0.27443168427962217, -0.516991483089741, 0.11484387821462722, 0.11605088078323504, 0.29858216204354565, 0.3779496718851107, -0.30560199101217306, 1.675155220736109, 0.11000462719709221, 0.6530157985580729, -0.4190808166246165, 0.540367580388205, 0.09130505658685618, 0.30619089698240604, -0.10616114228213408, -0.3510524903401326, 0.29757636555073846, -0.05068188810342444, -0.09982378972098317, -0.631610564016657, 0.04768422436228944, 0.9235754508068107, -0.5494461084332325, 1.2484894884855369, -0.3236961345993442, 0.8671278056074144, 0.6442844257672644, 9.296761437510132E-156, 0.3247053225891442, -0.3616041733817546, -0.7055664478612378 ] ], [ [ 94.08034354014815, 0.050212561335291346 ] ] ]
}