{
  "config" : {
    "algorithm" : "ListNet",
    "numIterations" : 100,
    "batchSize" : 0,
    "verbose" : true,
    "nomodel" : false,
    "params" : {
      "regularization" : {
        "rate" : 0.01,
        "regularizer" : "L2"
      },
      "layers" : [ {
        "activator" : "ReLu",
        "num" : 46
      }, {
        "activator" : "Sigmoid",
        "num" : 1
      } ],
      "optimizer" : "adam",
      "learningRate" : 0.075,
      "weightInit" : "xavier"
    },
    "dataSet" : {
      "training" : "../../../MQ2008/Fold3/train.txt",
      "validation" : "../../../MQ2008/Fold3/vali.txt",
      "test" : "../../../MQ2008/Fold3/test.txt"
    },
    "model" : {
      "format" : "json",
      "file" : "../../../MQ2008/Fold3/models/ltr4l_108.json"
    },
    "evaluation" : {
      "evaluator" : "NDCG",
      "params" : {
        "k" : 10
      }
    },
    "report" : {
      "format" : "csv",
      "file" : "../../../MQ2008/Fold3/reports/ltr4l-report_108.csv"
    }
  },
  "weights" : [ [ [ -1.6436951710275578E-12, -3.82084836161022E-12, -4.195467959054344E-13, 4.0869477561923256E-13, -1.5691003851755878E-12, -3.791511542898999E-12, -4.3537763738539745E-19, 2.0637954355942863E-19, 1.8103939762117632E-19, -1.6791511137402286E-19, -3.1610373860716757E-19, -3.7507284705346695E-12, -1.0640345211802423E-12, 1.7539955273223568E-13, -1.7829419761365714E-12, -3.734582607259806E-12, -3.5001197766634478E-12, -2.1509477346974193E-12, -2.184220160015778E-12, -2.228602621749985E-12, -3.499249250767866E-12, -4.2113963613024334E-12, -3.722036082941138E-12, -4.091100191523775E-12, -4.5127890157472046E-12, -1.7337979347604856E-12, -2.5140574091944607E-12, -2.87363720774088E-12, -2.71206391598408E-12, -2.153337183631326E-13, -4.092434706954156E-12, -3.5451014065629725E-12, -4.056327258819687E-12, -1.875046910227707E-12, 1.369550796627941E-13, 3.966619398161874E-13, 2.837793637087963E-13, -4.159284684096926E-12, -4.01847111579832E-12, -4.078368778061129E-12, -4.487004445159145E-12, -2.9020731497981584E-12, -1.591212446730834E-12, -3.8582842895223096E-19, -3.3287021763231588E-12, -1.3285956953187292E-12, 4.085522109456996E-12 ], [ -2.531757558984139E-16, -1.3260224695558398E-16, 3.324265591083816E-17, -1.797805273471664E-16, -1.94871938660411E-16, -1.3284345835766772E-16, 1.7350199519756377E-19, -8.883131699506029E-21, -2.7127874927217463E-19, -1.336499174788349E-20, 1.760572817412747E-19, -1.716734257749296E-16, 3.275014997973269E-17, -1.7800897584990717E-16, -1.927123319384408E-16, -1.716644187641167E-16, -1.2100841445447927E-16, -1.7285029986040025E-16, -1.8682089399166666E-16, -1.3342229659296156E-16, -1.2015862548548816E-16, -2.1836563873484113E-16, -2.321141835235424E-16, -2.2372306561693785E-16, -1.8698109808785085E-16, 3.315777490495316E-17, -4.0517054170399575E-19, -2.4664061748777235E-20, 3.710990523423506E-19, -1.7634363117712055E-16, 1.0653393482600347E-19, -1.5700054907712483E-16, 2.3489439673190673E-20, -1.9235329901778256E-16, -1.3178720826842194E-16, -8.970049540966675E-18, -1.3170614674874124E-16, -2.136581469196033E-16, -2.3196903185001863E-16, -2.236200469188855E-16, -1.862940310701458E-16, -1.466741067129812E-16, -1.430597226410866E-16, 1.847298958027667E-19, -1.6737146348980582E-16, -1.8431934290264575E-16, -2.1427368394028598E-16 ], [ -2.514610442621784E-16, -1.3844801977110202E-16, 2.2831702304127336E-17, -1.8340341616046324E-16, -1.9448378913698628E-16, -1.3820815103497406E-16, 1.0706646563219659E-19, 2.0255088782617017E-19, 3.824707359389267E-20, 1.1007081995933994E-19, 1.933459349400438E-21, -1.7719921485473234E-16, 2.356789562742664E-17, -1.8238275297122598E-16, -1.9160853744469956E-16, -1.768654525911548E-16, -1.2743645375360638E-16, -1.7121257646963836E-16, -1.8892136215020103E-16, -1.3893148236101817E-16, -1.275512297012784E-16, -2.1324414713310943E-16, -2.2581430692313065E-16, -2.1736867462349487E-16, -1.8424248453214366E-16, 2.333814055070233E-17, 1.1582123330671483E-19, 5.441295399051636E-20, -3.2820324618865967E-19, -1.8016675700323338E-16, -1.459342043009533E-19, -1.509764478392861E-16, -2.137886369002651E-19, -1.9151964882850696E-16, -1.2263224027194833E-16, -7.475170030858237E-18, -1.2322558956464082E-16, -2.090397384891176E-16, -2.25817864615431E-16, -2.167933716603952E-16, -1.8310960988432773E-16, -1.515423589524424E-16, -1.4900639190120447E-16, -2.3298908842411255E-19, -1.7300195885436745E-16, -1.8568636917370462E-16, -2.088642854850142E-16 ], [ -1.3738655389518847E-12, -3.2692512500498925E-12, 9.196786647127235E-14, 8.202406970887608E-14, -1.5870214320468947E-12, -3.209152325988455E-12, 2.0364605158596098E-19, 2.3736667544106754E-19, 1.58299423474011E-19, -3.077820374034438E-19, -2.574430763067664E-20, -3.2765531812604818E-12, -4.922457143556091E-13, 2.839976895670012E-13, -1.5827913563458951E-12, -3.2249407502171965E-12, -3.446115371917664E-12, -2.5773442566872028E-12, -1.8537476913429653E-12, -2.696645762809108E-12, -3.439519457430533E-12, -3.4494093564125436E-12, -3.3430978806130576E-12, -3.435009782565033E-12, -3.38681890175154E-12, -1.1358495119641792E-12, -1.897869354749735E-12, -2.261367442044003E-12, -2.086664257997156E-12, 3.0467587197179357E-13, -3.0680829907145366E-12, -2.4307012088583806E-12, -3.0127121780576966E-12, -1.7256073161998177E-12, 3.5344619504901996E-14, 6.481831807305824E-13, 3.798295887465623E-13, -3.4511597845485157E-12, -3.3518862007829313E-12, -3.444642844765812E-12, -3.3845542364379128E-12, -2.7624097669158383E-12, -2.726649859153747E-12, 1.407800862539322E-19, -1.6658056082147806E-12, 7.322305288292855E-13, 1.647703232810368E-12 ], [ -2.502168773460368E-16, -1.2835425314077784E-16, 1.628484774221342E-17, -1.8554080044183316E-16, -1.9375910285519456E-16, -1.2848369547732627E-16, 2.2539907327343278E-21, 1.761999150068865E-19, 1.0694819110648832E-19, -2.9198306898334414E-20, 1.3230888558033375E-19, -1.804466057133798E-16, 1.612490206191041E-17, -1.8361234674525685E-16, -1.8968667816857413E-16, -1.8016730074509053E-16, -1.1182777451788876E-16, -1.6234692429573632E-16, -1.8924509225230272E-16, -1.3468207789264548E-16, -1.1220424946535364E-16, -2.0382575827267858E-16, -2.1819260823402758E-16, -2.1069600235195443E-16, -1.7457884186782332E-16, 1.6331101084255157E-17, -1.7041657348795595E-19, -4.6634177449119336E-20, -1.6792112360271879E-19, -1.8066148378066634E-16, -8.72713302417173E-20, -1.3370353141067934E-16, -1.4492642014657246E-19, -1.89154759012249E-16, -1.0197790154774376E-16, -4.936218335782377E-18, -1.0268925877642432E-16, -1.9915912470501367E-16, -2.1816205795788211E-16, -2.1065886565476894E-16, -1.7301869565547765E-16, -1.5356854059231711E-16, -1.4832455333159023E-16, -6.599304982658595E-19, -1.764621762042205E-16, -1.8345447780074613E-16, -2.036420374239332E-16 ], [ -1.921625616611068E-16, -1.5780155221931361E-16, 2.7780057651693275E-17, 2.7387413582187305E-17, -1.315524816363962E-19, -1.580104012804551E-16, -3.6916102785051184E-20, 5.033317653622878E-19, -1.7801404430263058E-19, -1.8976697957042846E-19, 4.3106074739463154E-19, 4.549472513633753E-17, 2.7836048692769235E-17, 2.779299828377981E-17, -1.468691661013636E-19, 4.5541261078449504E-17, -1.927767550924306E-16, -1.2023635465548045E-16, 1.2469608218783199E-17, -1.987261879168243E-16, -1.9378644378167174E-16, -1.1602266624319504E-16, -8.67548724199714E-17, -6.104547359352571E-17, -1.9183124205982503E-16, 2.786080524646178E-17, 5.1748356432699783E-20, 3.7620322426720457E-19, -1.8481037131596282E-19, 2.7592782220087684E-17, 5.797661680383256E-19, 1.6734997197579012E-19, 1.091055197233042E-19, -1.119482591697839E-19, -2.4456100224360095E-20, 4.514095834934301E-19, 1.862221233205947E-20, -1.2296227066740504E-16, -8.64994139260114E-17, -6.044179886603338E-17, -1.8866508981117457E-16, -1.9340898768760858E-16, -1.908635144276304E-16, 1.526901923328414E-19, -1.6535621258457778E-16, -1.9424386850092952E-16, -1.6140768787599057E-16 ], [ -5.529205483152986E-5, 2.9559528000864818E-5, 2.604972652809041E-6, -2.053067955128926E-6, -4.036999796904167E-6, 2.583026422481691E-5, -2.878706820583859E-20, -3.3674276871443704E-19, -3.1017639521801574E-19, 3.5521159840263457E-19, -2.5745282960643356E-19, -2.838957340576671E-5, 2.6274835029740438E-6, -3.6662898061781798E-6, -3.2499576628043215E-6, -2.9940484991347397E-5, 8.201433381605198E-7, -7.325291356105494E-6, -2.52454318469554E-5, 2.6622833208231517E-6, 6.966348339982512E-7, -5.003555495143204E-5, -5.019948041744634E-5, -5.286436723233443E-5, -4.781145271638509E-5, 7.00579715583776E-6, 3.4236012947121937E-6, -2.475270707011308E-6, 3.4547782122929524E-6, -3.213175336182281E-6, -1.4123771688469326E-6, -2.4259599867558054E-6, -1.3907071990545367E-6, -3.263280241747722E-6, -2.8896791435287907E-6, -3.2301997993550404E-6, -2.931437228448074E-6, -5.251834255343121E-5, -5.054553603821937E-5, -5.4214775678118294E-5, -4.7909352746102725E-5, 1.0586010009072377E-5, -7.014889192798679E-6, 1.7483403334263562E-19, -3.368095213969014E-5, -1.080476574386332E-5, -1.8612554699558283E-5 ], [ -2.512186267980824E-16, -1.2147836246442494E-16, 1.788932985618154E-17, -1.8322693835591663E-16, -1.915187494456026E-16, -1.2202454136303938E-16, -2.787107333753792E-19, 2.335443428486373E-19, 9.561232256631723E-20, 1.324402575773622E-19, -1.4614034691928442E-19, -1.7773781718841839E-16, 1.7961447901623285E-17, -1.8027435501381505E-16, -1.858638760431418E-16, -1.778177250310236E-16, -1.0236524554576863E-16, -1.5941749793523028E-16, -1.8695606318830094E-16, -1.2906713505057182E-16, -1.026255679696963E-16, -2.06614561359686E-16, -2.1867444514681614E-16, -2.1089434521312677E-16, -1.7338721641471556E-16, 1.7986718419350276E-17, 1.2387533439288369E-19, 2.8616794758256356E-19, -4.1242428287234436E-19, -1.7542602494158364E-16, 7.294419401972811E-20, -1.1417104642006123E-16, -8.744822487565117E-20, -1.8562628735750741E-16, -8.082495580372939E-17, -3.3837649215758736E-18, -8.118066626340526E-17, -2.0228902736343063E-16, -2.1882362128524775E-16, -2.1053755367737898E-16, -1.7247992769767672E-16, -1.523451956004272E-16, -1.4422034262391988E-16, 2.769637263963209E-20, -1.7323711881531012E-16, -1.836184409180519E-16, -2.0362469293018014E-16 ], [ -6.982662741726547E-15, -9.292451824812791E-15, -1.6298842890898272E-14, -1.5218327377659896E-14, 6.208218358743818E-16, -1.0227185613439066E-14, -5.469240605537339E-20, 2.788247384890261E-19, -3.5848446698190944E-19, 1.8516745808409378E-19, 1.3453524533960982E-19, -3.781601203733073E-15, -1.6813406572159993E-14, -1.5670901106471622E-14, 6.427048801268816E-16, -4.403482242730375E-15, -8.600565595672588E-16, -1.0246909234169894E-14, -6.898312000861968E-15, -1.659723372567925E-14, -8.477989736062206E-16, -1.7381425333755216E-14, -1.7096581404482527E-14, -1.7835535623166953E-14, -1.758295377291698E-14, -1.5836622427976925E-14, -1.7064774107926358E-14, -1.722138648835791E-14, -1.7118497772835224E-14, -1.4726580814696615E-14, -1.579102260761691E-14, -1.6400469112235408E-14, -1.6077185500641563E-14, 1.7970587922619063E-15, -2.618944702455962E-15, -1.5079915237406319E-15, -3.160977491274657E-15, -1.7385306118559355E-14, -1.7290812289599923E-14, -1.7567366273980946E-14, -1.779183321758103E-14, -1.5798821060959533E-14, -1.6255746330369486E-14, -1.9435308143782892E-19, -8.537774058641218E-15, 1.1652437071208954E-15, -1.4911045533389293E-14 ], [ -5.229486239501651E-11, -3.137208029331316E-11, -1.7899356368023893E-14, -3.349200691495402E-14, 1.2303378635196648E-15, -3.4604661334301637E-11, -1.1672569864804897E-19, -1.980343316154171E-19, 1.1162702257124293E-20, 3.383214099475402E-19, 5.985623536900468E-20, -3.595413392796569E-11, -1.5945620651484146E-14, -2.9737340958556707E-14, 2.0178642768927507E-15, -3.591694735999789E-11, -1.6695005489086922E-11, -3.536711855172561E-11, -4.6333751542585696E-14, -2.6927819622231073E-11, -1.684374207185067E-11, -3.395005357006445E-11, -3.5468720761275656E-11, -3.548921941738816E-11, -3.4941827552821436E-11, -2.3281843353860708E-14, -1.773976263987703E-14, -1.0605847680619961E-14, -1.8797807256235947E-14, -3.166710026092265E-14, -1.7566542494501525E-14, -1.915866107925389E-14, -1.599311611242963E-14, -4.5311666509217055E-15, -1.5632065738809804E-14, -2.7987254209169483E-15, -1.111108426020884E-14, -3.43044538777195E-11, -3.539436601612722E-11, -3.55219277531007E-11, -3.489659286323238E-11, -2.3895112453552822E-11, -3.158843129184516E-12, -2.0805224401917662E-19, -9.769221326394458E-12, -4.281975257765366E-11, 5.13742678776162E-12 ], [ -1.161820155272319E-10, -2.724567582591106E-12, -3.768437049722735E-11, -9.019930488888273E-12, -1.1550975458034057E-11, -5.314007721081925E-12, 2.3140228326133838E-20, 7.31318710831973E-20, -3.673769133314677E-19, -2.075668242194584E-19, 2.1294509736078664E-19, -1.4943526905773394E-11, -5.988060413642362E-11, -1.1362812376870217E-11, -1.1637988666880949E-11, -1.525903083667632E-11, 1.6318927870232623E-11, -3.761226925686523E-11, -1.2956220991436353E-11, 9.944073530588069E-12, 1.6003740541480727E-11, -2.0012783389515865E-11, -1.77029456157867E-11, -3.1067402220903644E-11, -1.6996821143599245E-11, 1.1919771280172949E-11, -5.7491227015288415E-11, -1.4026058596862212E-10, 2.9015388443778638E-11, 2.663628140194161E-12, 8.063031352542525E-12, 4.196377388225221E-12, 8.215280975221299E-12, -1.1238050037999044E-11, -1.2491882137156757E-11, -1.2585942907562508E-11, -1.2473755061512303E-11, -1.8869428653527518E-11, -1.868732917064392E-11, -2.892798749662313E-11, -2.0904244952111718E-11, 9.490742514893568E-12, 1.1089206693253146E-11, -7.85693597710804E-20, -1.6743621461697604E-11, -1.4500319677830642E-11, -1.538184189109212E-11 ], [ -1.980600646302187E-9, -2.79135139001696E-10, 2.2317733328947884E-11, -2.976750062581223E-10, 1.1655808652973776E-10, -2.168578529613744E-10, -1.1804739656980211E-19, 6.094530350164935E-20, -5.98378929318434E-20, 1.1230412348558869E-19, -8.604463838112832E-20, -6.116832192391761E-10, 2.1987493701444985E-11, -2.2789728014191846E-10, 8.27238967095084E-11, -5.713674165687476E-10, 5.872599449671958E-10, -1.6248901265241084E-10, -1.029745858667357E-9, -4.017150893996606E-10, 5.79011116670552E-10, -1.4290761225097943E-9, -1.4599212364745052E-9, -1.303276906645682E-9, -1.4417272439387812E-9, -3.5018310410063377E-10, -6.084934516639067E-11, 1.0188027485871224E-10, -2.1390428267596043E-10, -2.723211707023656E-10, -4.3775286804166415E-10, -3.4383036366857977E-10, -4.3611541043702337E-10, 7.362929416763375E-11, 1.2202329518308144E-10, -2.897442837065915E-10, -8.905107334443764E-11, -1.4286732445084023E-9, -1.4615889936710838E-9, -1.3173772880359436E-9, -1.432296570186431E-9, 3.5894839941004516E-11, -4.4944818965812794E-10, 1.0106177717477604E-19, 4.0726423000082545E-10, 2.666742194693605E-10, 1.4435471535463633E-11 ], [ -2.531458284852208E-16, -1.3274018355782836E-16, 3.302717487716155E-17, -1.79534108571899E-16, -1.943853993535444E-16, -1.3281440903893766E-16, -5.061476112022908E-19, 3.8803341885704814E-19, 1.8566814901970067E-19, -6.817431827611693E-20, 7.359514644875586E-20, -1.7200610571743521E-16, 3.281554452584007E-17, -1.7810014137817106E-16, -1.926110690554006E-16, -1.7111664439503753E-16, -1.2054323305948458E-16, -1.7275553350103928E-16, -1.872774933763893E-16, -1.3414021976545433E-16, -1.2070433906587864E-16, -2.1813531559275914E-16, -2.320456912797011E-16, -2.232653596517168E-16, -1.866187963762733E-16, 3.3208589193959703E-17, 3.80609972359111E-19, 1.3131440482580952E-19, 9.413444611554496E-20, -1.767411547165421E-16, -1.7175296393087186E-19, -1.5748107349175546E-16, -1.2228250291036635E-19, -1.925758156703798E-16, -1.3149848956206504E-16, -9.464836266831363E-18, -1.3197367714639796E-16, -2.1390613737686358E-16, -2.3213950569266814E-16, -2.23356856794603E-16, -1.8589341525907213E-16, -1.4613353703597158E-16, -1.4339034360681774E-16, -8.341555338971363E-20, -1.6777258942851128E-16, -1.8456518998149952E-16, -2.1368787830291004E-16 ], [ -2.8855055067699426E-10, -2.279242625487764E-10, -2.873701486450636E-10, -3.1661290412928893E-10, -2.0135225201831586E-10, -2.305676646404022E-10, -1.8147843898203007E-19, -2.1644551983522327E-20, 5.441419339826104E-19, -6.11969222061278E-19, 2.349002569338102E-19, -3.252349854296668E-10, -2.9238048520011367E-10, -3.0346980690250894E-10, -1.9529150882049063E-10, -3.299021254180886E-10, -2.4374799248168437E-10, -1.4942062210621976E-10, -3.271742916509062E-10, -1.909939665369891E-10, -2.438749000286643E-10, -4.348767663963376E-11, 3.459459969687827E-11, 3.096702940188922E-11, 2.7434982628971232E-11, -3.048349249562689E-10, -3.1229951237666716E-10, -2.8734626474541744E-10, -3.048115542515847E-10, -3.012601072337266E-10, -2.320772320341959E-10, -2.831651719151638E-11, -2.1555833698020833E-10, -2.233821840219275E-10, 3.822887194145581E-12, 2.791172984287383E-10, 2.786451886502394E-10, -4.66109427491325E-11, 3.282353211272031E-11, 3.185547164286251E-11, 2.456337318568818E-11, -3.425399158399321E-10, 2.483855631166447E-10, -3.1359186936811976E-19, 3.598631226228388E-11, -8.1856526010766E-11, 1.591670953997585E-10 ], [ -4.8377290180178074E-9, 3.3779135656932004E-10, 4.843850428672259E-10, -5.141470827524856E-10, -5.3347227213563304E-11, 3.9807651243077936E-10, -1.7341077159757699E-19, -5.296124910421046E-19, -1.4440294559473957E-19, -4.920080122694304E-19, -3.3014665960727546E-21, 7.959638672736982E-10, 2.393522279395722E-10, -7.070921414546979E-10, -2.082957417746102E-11, 7.116407748921692E-10, -4.2167113908653966E-10, -1.4294120200270093E-10, -1.3057204546213206E-9, 1.4226739933421767E-9, -4.234123349539104E-10, -1.034535170769932E-9, -5.115187469468902E-10, -1.1713415134462548E-9, -7.617980178177328E-10, 3.7934052765034316E-10, 9.920639662760787E-10, 9.743137612696243E-10, 9.815623313667798E-10, -9.091454821140116E-10, -1.121682945466433E-9, -8.749975435609163E-10, -1.134565152071823E-9, -4.2028705550001286E-11, 2.269461958609228E-12, 8.231553251284455E-11, 7.674166024187582E-12, -7.87894553336546E-10, -1.1016389257953366E-9, -1.1847860792351825E-9, -1.2012611307104285E-9, 2.7671980415124627E-10, -5.495496314971724E-10, 8.924783953307514E-20, -1.6230394951072373E-9, -6.50112180938203E-10, -2.301116154131258E-9 ], [ -1.587693521988058E-16, -1.7030674675014683E-16, 3.47684846492007E-17, 3.4421054350090745E-17, -5.60905020242664E-20, -1.7022055699745804E-16, 4.387354988527026E-20, -7.606629851823883E-20, 8.228082535337246E-20, -4.1040565866059594E-20, -1.9514689391457446E-19, 5.535423991223749E-17, 3.4497027970362437E-17, 3.4828024508969476E-17, -3.9593948570117343E-20, 5.536035732960048E-17, -1.7759293290863733E-16, -1.531244530613739E-16, 1.601790541056993E-17, -2.1399875898143251E-16, -1.7791187418167166E-16, -1.4518898021966678E-16, -1.002749756163784E-16, -7.266068076349566E-17, -2.1187941566421862E-16, 3.461336871435124E-17, 1.8052363021727414E-19, -8.105766678106091E-20, -1.3264356016173617E-19, 3.4736239384074246E-17, 9.465519386964216E-20, -3.074207694678856E-19, -2.0284126482840427E-19, 1.0908715544872204E-19, -8.474999473218417E-20, -3.5843750864960956E-20, 1.3989248362481722E-19, -1.5503443209852504E-16, -9.953509049262911E-17, -7.154694663840563E-17, -2.0927931208674838E-16, -2.0654051379939623E-16, -1.9986666519564356E-16, 8.6634700433923E-20, -1.3935891917619666E-16, -1.819086892834921E-16, -1.1603128211493653E-16 ], [ -3.392391376523273E-7, 1.6231623185943374E-8, -7.251829181919508E-9, -7.188053786393367E-8, -1.5592551432175478E-7, -2.224445742561939E-8, -2.8232204266923544E-19, -8.088211326083934E-20, 1.8700362756217844E-19, -2.8873938333076746E-19, 3.808819814777427E-19, -4.156274369746238E-8, -2.4743692274359124E-8, -8.03591446181054E-8, -1.55936563587549E-7, -8.647364031970482E-8, -8.568176351442585E-8, 3.469440161424419E-8, 1.5871915012014765E-7, -1.1665806101945151E-7, -8.833665678877044E-8, -9.067288266384213E-8, -8.500997965594664E-8, -2.5168291074998118E-8, -9.916830298512353E-8, 5.690134696999317E-8, 4.7563526069013984E-8, -6.336664587905275E-8, 4.085408773658344E-8, -8.193911189138395E-8, 3.221236723943377E-10, 3.610771183628654E-10, 3.6533006489476086E-10, -1.5582619481427368E-7, -1.7187180271305268E-7, -1.1456523260280628E-7, -1.5570967821818492E-7, -9.630515861470673E-8, -8.926732133282546E-8, -8.297688930217765E-8, -1.0227181325990981E-7, -3.393616759129504E-7, -1.0520620503109347E-7, -1.4726575772396599E-19, -5.907531276544528E-8, -9.499635952560743E-8, 1.1675807578387892E-7 ], [ -2.5162297579290396E-16, -1.3963012042683683E-16, 2.5161707047365167E-17, -1.8278962348829411E-16, -1.9471563998157823E-16, -1.393874317890064E-16, -2.9849254965802286E-20, -2.044044609894121E-19, -4.873069578444553E-19, -5.534226630017981E-20, 4.1200124457291504E-20, -1.7540114450160763E-16, 2.474415354679043E-17, -1.8160338546613755E-16, -1.9158808879098702E-16, -1.757863673017637E-16, -1.2853738083684124E-16, -1.7268280102457266E-16, -1.8825967778076382E-16, -1.3944116592378752E-16, -1.2831538240556793E-16, -2.1579182672019183E-16, -2.2608840743940906E-16, -2.1790635144884764E-16, -1.8568236277735968E-16, 2.434935282216911E-17, -3.9093914732158814E-19, 2.5389521756340685E-19, 8.704856153815781E-20, -1.7926079880528858E-16, 2.918051631795284E-20, -1.4826720680008644E-16, -1.1530963363186627E-19, -1.9135753962839377E-16, -1.1981593017292757E-16, -6.905532255313765E-18, -1.1995337324598754E-16, -2.1186470373951633E-16, -2.258308891189423E-16, -2.1765742336392575E-16, -1.8483480362226755E-16, -1.5085240496060388E-16, -1.4863428088557573E-16, -5.567387441679163E-20, -1.7283082783411936E-16, -1.8665246478771283E-16, -2.0914688640263423E-16 ], [ -2.7881200528855006E-16, -1.743808726564265E-16, 1.2153403163554658E-17, 1.2177131727361834E-17, 4.586400091646344E-19, -1.7441747172300785E-16, -2.0726705351926122E-19, 1.1364186639717944E-19, 2.1475958993626408E-19, 2.3353116738992067E-21, -1.139630619555364E-19, -1.7256441642502835E-16, 1.1913121187337838E-17, 1.2524908020565035E-17, -1.9386646448854636E-19, -1.7224604335177953E-16, -1.708948388148597E-16, -1.9876250788192495E-16, 5.201232021185074E-18, -1.5974764551344004E-16, -1.7040942943293192E-16, -2.2918360326935075E-16, -2.2776771059626473E-16, -2.1427676126023968E-16, -2.278627776181015E-16, 1.2456926711210844E-17, -3.0909842112435954E-19, 2.799635534540024E-20, 1.3150239590987218E-19, 1.2415243182424808E-17, 3.140607646265279E-20, 4.288872175942859E-20, -1.5283528732847187E-19, -1.1637267762642452E-19, -2.00681537469965E-19, -2.2874565091295065E-20, 3.200666494924278E-20, -2.2880814306882344E-16, -2.280262419756033E-16, -2.1341804456558459E-16, -2.253579861513837E-16, -1.6187991555474392E-16, -1.645428676668874E-16, -2.9860320562232196E-19, -1.6242827018005154E-16, -1.8836726426972098E-16, -1.6923464963646326E-17 ], [ -6.26659927832545E-14, -3.4057453852904067E-14, -1.6050230961653E-14, -1.52934249230248E-14, -6.175138398716762E-13, -3.359952626704941E-14, 4.0653910122676477E-19, -6.930862139446717E-22, 3.242723583698087E-19, 1.8115203145899647E-19, 6.40765970253761E-20, -2.4430037117007336E-14, -1.618738316021226E-14, -1.5363529397442392E-14, -6.366170257357394E-13, -2.7422751140703312E-14, -2.8075682305969534E-14, -1.4976348854845167E-14, -2.749396713820848E-13, -1.7321809669249774E-14, -2.8283623082262805E-14, -2.0091893496837137E-14, -1.6397863074562332E-14, -1.7444500488114605E-14, -1.7426679179399257E-14, -1.4794278374240888E-14, -1.632026674206976E-14, -1.6736489913492062E-14, -1.6566199422961906E-14, -1.357323085560255E-14, -1.4751966311547907E-14, -1.5786586779613446E-14, -1.5164389425721025E-14, -6.222432613731514E-13, -7.97195111480859E-13, -7.58631243033242E-13, -8.008742946168956E-13, -2.0021584389511786E-14, -1.654977983541363E-14, -1.7109494100270524E-14, -1.7739271861428132E-14, -1.4170428099107367E-14, -1.584678632250325E-14, 3.958555551165924E-19, -9.080217821044833E-13, -1.15143781802834E-12, -1.0177112348771979E-13 ], [ -2.0006676384041922E-16, -9.498974808580932E-17, 3.2317770964578854E-17, 3.301956214383635E-17, 1.267047077291022E-19, -9.53357814088811E-17, 2.5459669185214298E-20, 2.5415137976081154E-20, -3.9293339562468813E-19, -3.7886099621174355E-19, -1.2339682328057074E-19, 5.28226037136093E-17, 3.2456089641060877E-17, 3.257431941598743E-17, 2.648805004490578E-19, 5.331738492774152E-17, -1.9616923034642043E-16, -7.198163616689588E-17, 1.4884548612097295E-17, -1.717601075571416E-16, -1.9692629227126352E-16, -1.065573199534243E-16, -9.70307417667232E-17, -6.948443072893761E-17, -1.561276575457022E-16, 3.313698577463963E-17, 2.9785423045074127E-19, 2.321665280990605E-19, -2.7974467868822245E-20, 3.2632639644962086E-17, 6.023715428800078E-19, -2.083908318983128E-20, 4.01043840953546E-20, -3.788291659660538E-19, 1.4451150335087847E-19, -2.593000687081981E-19, -1.927680091246879E-19, -1.0826280310642077E-16, -9.673122036771267E-17, -6.901411282360649E-17, -1.5178166600899226E-16, -1.742667005930322E-16, -1.7038545798966263E-16, -4.9799472729964425E-19, -1.6543923354992744E-16, -1.9413780130858943E-16, -1.811861939926945E-16 ], [ -2.7919168397648697E-15, -2.0104188422439537E-14, 2.388463316519834E-15, -6.68361984943984E-15, -1.589165174414068E-14, -2.010998118375259E-14, -2.266291179094185E-19, 6.318110291636773E-20, -3.984178722371095E-20, -1.1756653919126758E-19, -2.7810774482249124E-19, -1.780492228514387E-14, 2.2337431556973614E-15, -2.8293075518793273E-15, -1.6309214285472623E-14, -1.766457292513918E-14, -1.6282249892465198E-14, -9.699976650987865E-16, -3.4909599468825333E-14, -1.4795606208858046E-14, -1.6145023125120003E-14, 3.0155926602446254E-15, 1.479274991064221E-15, -2.779475712674125E-15, -1.537947290896911E-15, 5.543472180454896E-15, -1.5677681340913231E-15, -2.814899225878268E-17, -5.678171479601235E-16, -3.092682804373426E-15, -3.736852848949549E-16, 2.9464825981741487E-16, -4.0435649602305386E-16, -1.6418823433569236E-14, -1.6532298102548165E-14, -1.6514735961533255E-14, -1.649853962459143E-14, 4.4049283917072606E-16, 3.455243207661125E-16, -3.0338354211793574E-15, -1.586194482396064E-15, -5.673004532745565E-15, -1.6693760586156192E-14, -1.7949323051607209E-19, -1.0163566160825347E-14, -1.433865685382527E-14, -5.6825855338924096E-14 ], [ -2.4383410553051972E-17, 2.492755472759532E-18, 9.597483371351307E-19, 1.5232219784195501E-18, -1.1367875793699534E-19, 2.56530044180413E-18, -2.484342105187038E-19, -7.670431562479247E-20, 4.456799986425393E-19, -4.8780667848113596E-20, 9.17563045299112E-20, 2.367741395106262E-18, 1.407325752735037E-18, 1.1397397434461893E-18, 8.108172034618927E-20, 2.4987356164772956E-18, 2.679316645195289E-18, -9.158079896726642E-19, 6.409254783634243E-19, 4.846914658153349E-18, 2.994501521140797E-18, -6.674712754867136E-18, -6.0566875218500614E-18, -3.7162328107311325E-18, -6.5025630348262545E-18, 1.0600398441845045E-18, -2.8612309544867335E-19, -3.265226458163346E-19, -1.2011179975817593E-19, 1.3131284111846955E-18, 4.265515945676145E-19, 2.192660484885165E-20, 9.847826555826506E-20, 2.4521921060732603E-19, -1.6428476229499593E-19, 9.567095579169422E-20, 2.904066319291176E-19, -6.649406063033917E-18, -6.236541764820028E-18, -3.689201380566695E-18, -5.37445688809799E-18, 4.660805603706118E-18, 3.5136307795017165E-18, -1.5979870390519958E-19, 2.8776015590260674E-18, -2.2366656732739725E-19, -2.1523683577579816E-18 ], [ -4.726108576670668E-10, -1.8735639691176165E-11, 1.629630665584594E-10, -1.8702436839551556E-10, -1.053375983324333E-11, -2.3000211388703105E-11, 3.142444981537137E-20, 2.7230878480805546E-19, -1.912214094841253E-19, -3.924641334958166E-19, 1.7135660252255602E-20, -3.198403247800068E-10, 1.6531233329709277E-10, -1.6064907343224401E-10, -1.0745235240739153E-11, -3.1757537830429076E-10, -2.563312784841772E-11, 1.9385761063621523E-10, -3.693574339291071E-10, -2.7381412773008514E-10, -2.5335411804616667E-11, -3.0763083686921027E-10, -2.8171065109851716E-10, -2.87359238358368E-10, -3.2516845015229356E-10, 9.91945772964458E-11, 1.8896077886959128E-11, -7.966973685605033E-12, 5.132284289758386E-12, -1.6892615960537758E-10, -1.9073853792431341E-10, -1.7479927227391685E-10, -1.9912146198986635E-10, -1.1738371471236007E-11, -1.0212090028411963E-11, -1.0240836143419812E-11, -1.077603817238957E-11, -3.044244218600613E-10, -2.918630258315733E-10, -2.901515768403037E-10, -3.2473297245309253E-10, -2.968026745093866E-10, -3.072685647749288E-10, -2.2804007040357444E-19, 1.5681700058999676E-10, -2.9443251847892284E-11, 7.243030759753437E-11 ], [ -5.771219055692639E-9, -4.47720585922227E-10, 7.677547046195118E-10, -5.886467562214715E-10, -2.1095957388802778E-10, -4.4761184400329706E-10, -1.8837731912855426E-19, 1.878700435226657E-19, 2.1472586502154206E-19, -1.1658598185440019E-19, 2.9410554502947465E-19, -4.2950925222977755E-10, 7.286102751610782E-10, -8.73516714076139E-10, -2.460341933739605E-10, -4.1185377816183957E-10, -4.464902735008819E-10, -6.154333132864814E-10, -4.714921596437707E-10, -2.448744831174069E-10, -4.479482057735021E-10, -7.425465554025916E-10, -1.312180453058928E-9, -1.3830162229513529E-9, -1.5864822147499366E-9, 7.406615509131016E-10, -2.6802250413201325E-11, 6.428507930372609E-11, -2.6073913189785496E-11, -5.074547027596486E-10, -4.410343007536298E-10, -6.669173062861943E-10, -1.4279949321976958E-10, -2.0050416048622765E-10, -6.575411408342939E-11, -8.244328318170939E-11, -5.985470632720857E-11, -7.007553915599157E-10, -1.2258000434520088E-9, -1.3444444657158364E-9, -1.5147287113983617E-9, -1.7903342523588113E-10, -2.9527212434772793E-10, 1.0735343811652465E-19, 9.960998558432031E-11, -2.9678780445947235E-11, 2.5880284367832185E-11 ], [ -6.649100756812653E-17, -3.8281086292291316E-16, -3.978839858241135E-16, -4.585940824875786E-16, 1.3701496593896596E-17, -3.4520229704932554E-16, -2.0204090762696432E-19, 1.3919995462682556E-19, -3.6713002557711724E-19, -1.118001458579152E-19, -1.161508383242207E-19, -1.2352463631743847E-15, -8.848008010330508E-17, -1.60864709084203E-16, -2.908807353128028E-17, -1.2360360690187753E-15, -4.604130380651927E-16, -5.47231411062094E-16, 5.09350058051401E-17, -1.1914885892824896E-15, -4.551630530257177E-16, -5.788426309215502E-16, -6.117239694275983E-16, -6.864498135571598E-16, -6.784770533789595E-16, -3.18363366627784E-16, 7.170036137610002E-17, 1.284253732556994E-16, 1.0153757700660736E-16, -1.9161867717634618E-16, -3.551104049784109E-17, 2.055962267855712E-16, -3.1578130823476674E-17, 3.8960757589868417E-16, 7.66218313536718E-17, 3.2705692237603332E-18, -1.3456124497349273E-16, -6.139449319284157E-16, -6.259667921407752E-16, -6.917226845017475E-16, -6.596024090074112E-16, -7.0636275861913E-16, -1.1936180871351305E-15, 9.571857577988738E-20, -4.522700257407657E-16, -3.8766349622894844E-16, -2.466555995872654E-16 ], [ -2.8078134600152405E-16, -1.7358744921987587E-16, 1.2882539212948994E-17, 1.3009148673259391E-17, -1.9807508460267387E-20, -1.73168109610736E-16, 8.822575333110762E-20, -1.7705601632993148E-19, 4.706981416506484E-20, -5.86529151780234E-20, 8.427737366895089E-20, -1.7161094991942456E-16, 1.2987699405433344E-17, 1.2760610358352546E-17, -1.5711476435193922E-20, -1.714858118705151E-16, -1.698541712338421E-16, -1.9845177937348075E-16, 5.357430584399538E-18, -1.588899290444507E-16, -1.6933974787883196E-16, -2.313474092267104E-16, -2.291804603420664E-16, -2.1534740398918367E-16, -2.296221333990678E-16, 1.3069440141842594E-17, 2.0352912091589992E-19, 1.4874739641064775E-19, -6.464597221651384E-20, 1.3018824085436326E-17, 3.557510204963928E-20, 1.4072234162299524E-19, -3.2535426160968555E-19, -1.723062232908955E-19, -1.668540919814483E-19, -1.2223414420207399E-19, -2.575354761550803E-19, -2.3062825311708357E-16, -2.2947656323466933E-16, -2.1450815010455994E-16, -2.2678252104235307E-16, -1.6028512612494896E-16, -1.632239419975984E-16, 2.601670528335045E-19, -1.5633624406504442E-16, -1.8584580373982147E-16, -1.7819955000702235E-17 ], [ -2.0065589006251668E-16, -7.621818764839387E-17, 2.7728146644265023E-17, 2.7620928966680485E-17, 3.476498927935261E-19, -7.618577464297867E-17, 2.8582102354503987E-19, 1.0663549529019703E-19, 5.481882510286513E-19, -2.952708800470727E-19, 1.7357663222464712E-19, 4.57293499828735E-17, 2.794220631041768E-17, 2.7784096479187525E-17, 1.5910741378178532E-19, 4.562984225778889E-17, -1.859682268042775E-16, -5.627324926930765E-17, 1.226661805454505E-17, -1.7063249191891805E-16, -1.8644300710337652E-16, -9.475510323798374E-17, -8.706617686745891E-17, -6.116418217819131E-17, -1.3410788699267488E-16, 2.7986626659795137E-17, 4.497601529883933E-19, -2.5374966984602266E-20, 2.36721261212001E-19, 2.7942959530215003E-17, 7.473979860785709E-20, -4.1058305931462785E-19, 1.4087592843638909E-19, -2.6193635288385478E-20, 2.7020857861000125E-19, -7.484678207543039E-20, -2.0579003202353223E-21, -9.531678458364492E-17, -8.684361830887252E-17, -6.037102938209994E-17, -1.2972685722072333E-16, -1.7400957766699181E-16, -1.7059375820095763E-16, -9.508289255899769E-20, -1.6878536365935707E-16, -1.9308570857109673E-16, -1.784108832780371E-16 ], [ -4.243753172170427E-12, -2.381145134931122E-13, -6.729747098538605E-13, -1.060150475894705E-12, -2.138373750489517E-12, -2.544450831737899E-13, 2.1457248438374933E-19, 1.267612922393384E-19, 3.892659726877256E-19, 2.416191739886961E-20, -1.2621612542677936E-19, -2.708435941419453E-13, -1.3365639167988312E-13, -1.4504144178802293E-12, -2.184382547113267E-12, -3.2644406799763934E-13, -3.534977107200273E-14, -3.9560326035965185E-13, 4.0389433090973083E-13, 9.665750007009472E-13, -3.5833535261514526E-14, -5.613220079425081E-13, -4.3873684611828853E-13, -4.796490534172067E-13, -4.3540175948328195E-13, 3.0566844805422544E-13, 5.931157048782588E-13, 7.878565230422535E-13, 7.505703975135402E-13, -6.893952884264145E-13, -1.0936644418220265E-12, -2.147863563679473E-12, 1.57332300142683E-13, -2.2521105052384246E-12, 1.0276710634070589E-13, 1.198795754908994E-13, 1.3274894167664194E-13, -5.487454583970046E-13, -5.167403951122902E-13, -5.257294095569723E-13, -4.346661636572233E-13, 6.793145121399615E-13, 9.314486384633064E-13, -5.25957016908607E-20, 3.0167628452481896E-13, -2.5317779155143736E-13, -7.81166721168734E-14 ], [ -2.81484569819338E-16, -1.7292362148621345E-16, 1.3022083740596591E-17, 1.3015173012875092E-17, 3.4691230063619173E-19, -1.735753602009142E-16, 2.635048405946916E-19, -2.829371672148622E-20, -2.757844864194536E-19, -3.0065949317703534E-20, -2.3675416470886376E-20, -1.7119302412705308E-16, 1.3373533340559355E-17, 1.2803364467014835E-17, -7.816031262186941E-20, -1.7094399161321046E-16, -1.6905805154477564E-16, -1.9817576645870915E-16, 5.9085432214303945E-18, -1.582443531479011E-16, -1.6891462954997331E-16, -2.3208277021828063E-16, -2.300184317935672E-16, -2.1516087472168316E-16, -2.294886264789945E-16, 1.3269318878585084E-17, 1.7253051586115122E-19, 4.577297764289641E-19, -2.902300269880388E-19, 1.324566653761668E-17, -2.601845780104962E-19, -5.214267220255275E-20, -3.963160136530819E-19, -1.8210679520613489E-19, -1.8276904379196291E-19, 1.179943576561859E-19, 1.2280568288938055E-19, -2.3115294021216097E-16, -2.296852549119546E-16, -2.1494508735755859E-16, -2.2743547757366223E-16, -1.5965023544045154E-16, -1.6294645838692505E-16, -1.8367270600839337E-19, -1.5377407567447969E-16, -1.8505998206179496E-16, -1.841546719881538E-17 ], [ -8.352792632168647E-15, -1.1194878046837464E-14, -1.496391926596104E-14, -1.4801240215310085E-14, 5.412457696549607E-15, -1.2000660416923604E-14, -5.473961584510773E-20, 6.212323724774708E-21, 7.836190429360033E-20, -1.969213322591307E-19, -2.3871449399766227E-19, -5.378737780292365E-15, -1.6185972189415737E-14, -1.5651685556032602E-14, 5.469600397957075E-15, -6.1907202271046325E-15, -1.3757784057085946E-15, -1.2491803726388504E-14, -1.145938086453168E-14, -1.7364396580320535E-14, -1.3523780251556372E-15, -1.8818744762095695E-14, -1.7490160572969844E-14, -1.816749568866784E-14, -1.7957327619074813E-14, -1.476985029269689E-14, -1.7076937069662894E-14, -1.727072002129679E-14, -1.7160769753722895E-14, -1.4690856960945237E-14, -1.5913310328315865E-14, -1.6574849453692347E-14, -1.6195424274150565E-14, 6.922014016990108E-15, 2.422844915390175E-15, 3.588864659049802E-15, 1.7600501759293853E-15, -1.8743978213718456E-14, -1.7625668597324755E-14, -1.7879023211686966E-14, -1.8101350068994693E-14, -1.7116327549801637E-14, -1.8544784093598866E-14, 1.0002710577346714E-19, -1.0119629554717102E-14, 1.2623786680379139E-15, -1.661807465919612E-14 ], [ -2.8355969403332755E-16, -1.7202039258460697E-16, 1.4232199690495083E-17, 1.3783365374664475E-17, -5.139169153129018E-20, -1.7244166320056747E-16, 1.438212146594078E-19, 1.972771201817244E-19, -2.5522028973000246E-20, 6.116893403294136E-19, -5.632545619037666E-20, -1.7016321508766806E-16, 1.4112799960342752E-17, 1.420392088010655E-17, 3.095928143108756E-20, -1.702230757235943E-16, -1.6733708774116477E-16, -1.9747576190775814E-16, 6.1873628194974016E-18, -1.5643875177152158E-16, -1.677213877558162E-16, -2.335633392345716E-16, -2.313604436505077E-16, -2.1638922994257545E-16, -2.319013464695041E-16, 1.428017324828583E-17, 1.444920268272066E-20, 4.685217685734436E-20, 1.59033305597189E-19, 1.3960088251808277E-17, 9.884621648238585E-20, -5.148511731316788E-19, -1.6757732908960678E-19, 2.2547593150893343E-19, 1.1161853095983075E-19, -3.036506938757551E-20, 7.890728745138299E-20, -2.324358959814454E-16, -2.3140647856613865E-16, -2.1505078595437602E-16, -2.292208493636898E-16, -1.5789843972663549E-16, -1.609346523660578E-16, 1.1950429665084787E-19, -1.46128093446605E-16, -1.8208161173120202E-16, -1.9599665891657166E-17 ], [ -9.268672388683769E-14, -1.7105665008412545E-13, -4.4130624059050156E-14, -6.458394447124752E-13, 7.301243111182646E-15, -1.4738640042981177E-13, 1.9757917507654188E-19, -2.6395605191255E-19, 2.1142459380036472E-19, -1.3307973718138039E-19, -1.0178968642258522E-19, -1.3735622340029308E-13, -4.3975292867761026E-14, -3.92462978365049E-14, 1.042264123928278E-14, -1.2063269396625424E-13, -2.8013233902827205E-14, -6.892360488746436E-15, -7.165722955486772E-14, 2.517364325738941E-14, -2.7883805933402866E-14, -2.2205752337911945E-13, -2.80220738078765E-13, -3.1338926773308324E-13, -3.7197535361459024E-13, -4.5851839141850064E-14, -4.445205263154629E-14, -4.2737761535486944E-14, -4.124343985789375E-14, -6.122535848697491E-13, -2.4269044612461936E-13, -1.2760410220989401E-13, -1.909449778873761E-13, 1.0695750642768013E-14, -7.468125803680476E-15, -6.497288587477109E-14, -4.812701586245263E-15, -2.347866085147348E-13, -3.2468748586910196E-13, -5.821762332608697E-13, -3.718882079661203E-13, 9.711488890161835E-15, 5.330841905129664E-15, 5.169384470008814E-19, -3.966754876721709E-14, -3.12352207022799E-15, -3.5664121297564644E-14 ], [ -2.0115970578676258E-12, -5.901805909407816E-15, -2.6894935372167555E-15, -2.821292484934552E-15, -3.9685939649872125E-14, -5.637925902035159E-15, 1.1177814354961874E-19, 8.350445671332334E-20, -2.3936503740762644E-19, 4.979008442246382E-19, -3.705883300780432E-20, -7.410692686994852E-15, -2.6942990113446E-15, -3.730006297881477E-15, -4.179816237561522E-14, -7.603644861533819E-15, 3.7304154502660395E-14, -5.537257200710906E-15, -4.6773611460432967E-14, 2.2823434386911634E-13, 3.744258258807217E-14, -4.259293863308845E-15, -5.1118553922102615E-15, -4.639847422570246E-15, -4.7602198623093926E-15, -2.312751899338561E-15, -4.630693382083834E-15, -4.10859627587872E-15, -4.3293337022831976E-15, -5.7970401124400485E-15, -5.669345151400576E-15, -5.322621894791681E-15, -5.14688653752983E-15, -4.074520192351537E-14, -4.508649700191797E-14, -4.650912935972222E-14, -4.498470086004507E-14, -4.2282817138197645E-15, -4.549459092076148E-15, -4.574851341958476E-15, -4.491980450056118E-15, 1.321075997652341E-13, 1.0997132089861265E-13, -7.126693673403161E-20, -7.282022916245408E-14, -5.3287186690444715E-14, -2.9178677880924595E-14 ], [ -3.854099308391174E-5, -2.0913326417125298E-5, 1.6597649810093765E-6, 2.5185626824631625E-6, 6.778732345314322E-6, -2.7565233578729964E-5, 9.072275352123303E-20, -2.231108887837148E-19, 2.2028216080906805E-19, 1.3057307359872644E-19, -9.803556061010063E-20, -1.0433297117045367E-6, 1.4062783165819787E-6, 5.354562344625379E-7, 6.611629034837537E-6, -1.5032133764170452E-6, -3.2756657495037195E-6, -4.611525686873194E-6, -3.488139599361726E-6, -4.014547559950193E-6, -3.2641089929504457E-6, -7.848343767648132E-6, -7.978445451706367E-6, -7.071983340024717E-6, -8.774965434891836E-6, 2.928841058103468E-6, -3.3331742319543464E-6, -3.2201616730676257E-6, -3.6845858982024834E-6, 3.095715802639149E-6, -3.5535664519463244E-6, -4.0697997531376105E-6, -6.328044915261921E-7, 6.573114468016888E-6, -1.2024216807461913E-6, 5.310320965934412E-7, -2.735385127297727E-7, -8.15227642052076E-6, -8.356389898618233E-6, -7.674519307979695E-6, -8.979080236295784E-6, -3.962121740184013E-6, -3.6568559029850146E-6, 3.690399998215102E-19, -9.293947978138375E-6, -8.364955758075613E-6, -8.563270588479927E-6 ], [ -1.6942706763292314E-12, -5.697141521731353E-14, -3.854730186942095E-16, -7.310916433916393E-15, -1.5581168127847362E-16, -4.1215306924956816E-14, -1.253962357230509E-19, 3.5145381731334034E-19, -4.361522621406684E-19, 1.5851575077066224E-19, 2.2019043494589896E-19, -2.6106883372891446E-14, -2.5064867721358204E-16, -4.870058149453547E-15, -1.0648742877559592E-15, -2.6090515654808908E-14, -2.821269308641018E-13, -2.7391386672413872E-14, -5.766797975506004E-12, -3.371542433363359E-14, -2.77172574153704E-13, -1.1284264020833462E-14, -8.40016271910394E-15, -1.0471638171956636E-14, -1.0242868660924886E-14, 1.4434877143441435E-16, -2.878759525289513E-15, -3.7928995203792266E-15, -3.0383089263604392E-15, -5.841767357661832E-15, -5.6805486140540105E-15, -3.4632094762165985E-15, -4.660722755699828E-15, -1.0430508591170437E-15, -2.886470935006609E-15, -2.2260280374681367E-15, -1.3293576898869385E-15, -1.0053902165690308E-14, -9.069927435695284E-15, -1.0474417116687389E-14, -1.0775605102449058E-14, -2.1202054526016323E-14, -2.133536469865568E-14, 4.105102152476384E-19, -2.1922951691877877E-14, -2.2432553162810967E-14, -3.722396747518459E-12 ], [ -5.5331582889676645E-9, 1.953561139803249E-10, 2.1968949466550015E-11, -4.084792844614865E-10, 1.9627650083543376E-11, 1.9046638752224666E-10, -2.812877342981562E-19, -3.567026955957067E-19, 1.8003419778079934E-19, 2.918501409629614E-19, 1.6619720237674468E-19, -4.0493146177271067E-10, -4.3179730782300144E-11, -3.9353833339982613E-10, 1.5775984301740778E-10, -4.231881355785001E-10, 1.3604451436080368E-10, -3.8470568911184433E-10, -3.695867515108682E-10, -3.8516446117200714E-10, 1.3282659506917218E-10, -3.932536399963123E-10, -3.09019881889817E-10, -4.674850836937071E-10, -4.531619094516708E-10, -1.365640149518854E-10, -1.3899939019372436E-10, -1.6870461476601814E-10, -1.5994664387459841E-10, -4.0413858789814403E-10, -3.77870115815164E-10, -3.6266525833124033E-10, -3.804481329178688E-10, 1.4130774453454085E-10, -1.4782148182750074E-10, 2.1142131648902146E-10, 2.2692405693884334E-10, -3.656649823250142E-10, -2.841608608424895E-10, -4.2843261704191784E-10, -4.049636874175616E-10, -3.550269166914896E-10, -3.2452586145800936E-10, 9.696816859037854E-21, -9.103651967438859E-10, -8.166825839521457E-10, -9.266404435739368E-10 ], [ -4.6961176189363874E-17, 4.211381405300668E-18, 2.6694533496730754E-18, 2.465631824972815E-18, 1.425572849734793E-19, 4.110294921938664E-18, 2.3640906328859937E-19, 3.564846670251207E-19, -3.6492917675768015E-19, -5.719669479890876E-19, 7.68487406386729E-20, 5.10681561709173E-18, 2.7227466091099158E-18, 2.99092866783739E-18, -2.0899094882132016E-19, 5.131125238796813E-18, 5.7326995428173105E-18, -2.8203186294135014E-18, 1.2879560880633496E-18, 9.328071181013747E-18, 5.527639171572487E-18, -1.3254737906355287E-17, -1.2701045379150618E-17, -7.49818889592391E-18, -1.2630293464818313E-17, 2.816978740749239E-18, 1.7573119153498855E-19, 2.4823769091207143E-19, -6.247298152058815E-19, 2.7184892235332306E-18, -2.7099040799366013E-19, 1.6968557427925945E-19, -1.2930551466996426E-19, 2.8183633780455796E-19, 4.119661800102179E-20, 5.137056684490862E-19, -2.0781355015445106E-20, -1.3267888041970745E-17, -1.2757171462500556E-17, -7.080182958365045E-18, -1.1667821670616668E-17, 8.928426815239737E-18, 7.710120504385543E-18, 2.610539083065608E-19, 5.510888796269652E-18, -5.00083384284603E-19, -3.48041981947194E-18 ], [ -2.186358055665395E-6, -2.9485838636773585E-5, -2.0334817571606947E-6, -4.39327108103741E-6, -3.1046890139281833E-6, -3.174694232502746E-5, -4.1046715263113286E-19, 5.990098257891658E-20, 2.7306722509513623E-19, 3.32573245499862E-20, -8.288795472965096E-20, -2.125572167667117E-6, -1.8505763188732668E-6, -3.921603828370471E-6, -2.852471321003297E-6, -2.4010840170897424E-6, -8.332274259411423E-6, -9.309214525433706E-7, 4.2335254105683156E-7, -7.931942139541018E-6, -8.296535355322774E-6, -2.9922298217976856E-6, -2.877610082476653E-6, -4.796734856267101E-6, -2.9545436477981162E-6, -2.90296443077267E-6, -2.3652153068935957E-6, -1.75904073267995E-6, -2.158452814218677E-6, -4.028557103353365E-6, -3.7797194305506036E-6, -3.7000684634649067E-6, -3.619602544391524E-6, -2.633283163908252E-6, -2.5382501847934052E-6, -2.8664245881719617E-6, -2.0166420672832145E-6, -3.0726558235667707E-6, -2.8685866170248947E-6, -2.637310339184003E-6, -2.94417216960295E-6, -1.6758353922186128E-6, -6.688845680673826E-6, -1.3454579773492413E-19, -1.0885045846069687E-6, -8.642025415921806E-7, 6.603887504412175E-7 ], [ -2.651618255421842E-10, -2.0841830874528228E-10, -2.7159476991644425E-10, -2.9517435459849975E-10, -8.023163125279659E-11, -2.0758751214107999E-10, 3.6966524945540056E-19, -9.585821428924152E-20, -9.159515539855994E-20, -7.592684690827642E-20, -2.3532300458286143E-19, -2.7531251382124714E-10, -2.897148641032068E-10, -2.835984461579962E-10, -7.440626168693286E-11, -2.735121555217902E-10, -2.3540257973395995E-10, -1.5929855720744606E-10, -5.10221886080665E-11, -1.0492445038811797E-10, -2.3532354895785786E-10, -3.2023476423203534E-11, 5.237894603740166E-11, 4.6529146873451E-11, -3.738858156715532E-11, -3.017785005878612E-10, -3.0415585263234476E-10, -2.969751275109456E-10, -3.163792245237658E-10, -1.949536938592707E-10, -9.346007042613055E-11, -1.3571734460398662E-10, -8.689789624935457E-11, -9.21428773537269E-11, -2.5363142659977995E-11, -1.1631963197721111E-11, -1.1924340115909482E-11, -2.676136660979409E-11, 4.569753405511317E-11, 5.0372919246450464E-11, -3.788544041861553E-11, -1.3433003401356325E-10, -6.770887376386916E-11, -6.177102788837278E-20, -2.664543534073896E-11, -1.3197258995037711E-11, -4.9609574861335685E-11 ], [ -2.254031976373987E-14, -2.139532758327467E-12, -2.122605799955523E-12, -2.705292693815198E-12, -1.763015374506502E-12, -2.0865685720661265E-12, 4.073001138148856E-21, -1.5034443886917126E-19, -4.466504712122313E-20, -1.6210125562668754E-19, -3.6903236398333666E-20, -1.8136478587635685E-12, -1.6260897779227624E-12, -2.399239600594466E-12, -1.778934243038088E-12, -1.7904297858995965E-12, -3.313073067130688E-12, -2.02108180355152E-12, -4.890792338969948E-12, -2.325003178508138E-12, -3.3169519094912677E-12, -1.0855223768689376E-12, -1.3355046453433803E-12, -1.335740748175717E-12, -1.4611264371795897E-12, -1.1615516186139782E-12, -1.945742843820107E-12, -1.6406707970924353E-12, -1.634203120630728E-12, -1.3552783617903745E-12, -1.5509354236686456E-12, -1.7880117038617334E-12, -1.6277252915236412E-12, -1.7700339624240546E-12, 4.9793409792661795E-14, -1.2530424685054897E-14, 6.68963323502467E-15, -1.0995673725480834E-12, -1.3285630124596823E-12, -1.3524796337629092E-12, -1.4594813599566595E-12, -1.4173698297399422E-12, -2.1099041278626355E-12, -1.4582498131100977E-19, -5.242966467728436E-13, -7.597571130883022E-13, -3.167600888343492E-12 ], [ -1.9291391817121073E-16, -1.5634373801594472E-16, 3.747627204546858E-17, 3.8168483676428066E-17, 1.0085590400856843E-19, -1.561340321961292E-16, -5.142814600142824E-20, -1.3824110135289153E-19, 3.743127296779556E-19, 2.315975019414822E-19, -7.754404271480883E-20, 6.000854874383016E-17, 3.755784929556048E-17, 3.772642072365348E-17, -2.01385424530181E-19, 6.029219001972657E-17, -1.8741641798619987E-16, -1.3242974453146751E-16, 1.732176454070104E-17, -1.9515566948782362E-16, -1.8872972792110552E-16, -1.3354659931792245E-16, -1.0542535200241514E-16, -7.790315501065276E-17, -2.0635020234922655E-16, 3.7652566386417217E-17, -1.2554015523458555E-19, -2.1128210599501943E-19, 1.5279340402233568E-19, 3.778449708165181E-17, 2.907713742734591E-20, 2.409483644768321E-19, 6.499406823739093E-20, -1.5981651069173412E-19, 1.561662563522088E-20, -1.894806968289028E-19, 3.33505190180807E-19, -1.411056830347862E-16, -1.0551692358576319E-16, -7.636023632165374E-17, -2.0334547611230297E-16, -1.8970281248076673E-16, -1.8642076671033957E-16, 5.618518625093693E-20, -1.5940614456020804E-16, -1.961129572121516E-16, -1.6909754158312102E-16 ], [ -2.8375397623434496E-16, -1.7213834332300478E-16, 1.4124575512811343E-17, 1.388399148447141E-17, 1.23444529700591E-20, -1.7202095325640299E-16, -3.8667540957519344E-20, -5.713850828011196E-20, -1.32304158311466E-19, 3.6578593252746557E-20, -1.7450061513884972E-19, -1.7008903299551028E-16, 1.3699185386354839E-17, 1.387830435661037E-17, 1.9512793276178833E-19, -1.6996540055116515E-16, -1.6765142115091686E-16, -1.9979899528563235E-16, 6.234442547916614E-18, -1.5636552128278753E-16, -1.6776265150430667E-16, -2.3388984265661953E-16, -2.321173612425849E-16, -2.171875060166875E-16, -2.31925289279773E-16, 1.3913462481188946E-17, -4.203266806276504E-19, 2.7379416419253403E-19, 1.6823267528393525E-19, 1.4084779232759256E-17, 1.2039188694254964E-19, 8.153652124694593E-20, 4.752409694096479E-19, 5.421691700043161E-20, -1.1007811226110347E-19, 4.683666952435041E-20, -1.9113116487100727E-19, -2.3346093461409963E-16, -2.319354713436522E-16, -2.1627390954890557E-16, -2.2960917373226024E-16, -1.579456550480535E-16, -1.6127036896912385E-16, -3.468903643105652E-19, -1.552630665954632E-16, -1.869644012132034E-16, -1.9486356665133608E-17 ], [ -8.803802157249614E-15, -2.1384891543086686E-14, -5.242950036740134E-16, -1.0681366684823212E-15, -1.3734405593897818E-14, -2.1215653866108027E-14, 1.8870528127665267E-20, 2.721096583131679E-19, -5.972276278943598E-21, -2.3278142646076084E-19, 1.5629376946480043E-20, -1.952938484011164E-14, -6.465339843882709E-16, -1.165087956583386E-16, -1.585966073269893E-14, -1.9462351453244125E-14, -1.5229632044983473E-14, -1.652786184665655E-14, 9.350854862749835E-15, -1.4551292776461605E-14, -1.5271202267514085E-14, -1.1349453868522523E-14, -1.3778216763132283E-15, -1.2873039814451346E-14, -1.2777156723380047E-14, -2.3363847025989873E-15, -1.410854227521649E-15, -5.133982318587193E-16, -7.987586992073045E-16, -7.295679726878436E-16, -5.198457385045844E-16, 1.3942172301614646E-16, -2.202588592982974E-16, -1.5937317373759624E-14, -1.805478896500881E-14, -1.8017424593055523E-14, -1.7975020995647245E-14, -1.1826656192231638E-14, -6.155032497087406E-15, -1.2696196055470092E-14, -1.3686752046808523E-14, -1.3268793294437776E-14, -1.5002784430008862E-14, 3.135203051349412E-19, -1.1552809374625004E-14, -2.0081901512333597E-14, 9.808864672245124E-15 ], [ -1.374089194423972E-15, -1.879894583019084E-15, -4.587427812722554E-15, -1.8360151538468375E-15, -5.804335190810993E-15, -2.2853914246582844E-15, 1.1157488990889445E-19, -1.492001763782355E-20, 3.5174896817379777E-19, 2.384767416266837E-19, 5.399069733103203E-19, -1.6124590355841177E-15, -5.042606842251061E-15, -7.983135080908349E-16, -5.243913615923108E-15, -1.4682728022285948E-15, -3.8680801841892684E-16, -1.3592953363601911E-15, -1.3354022009075255E-15, -8.558900411717083E-16, -3.947497778548907E-16, -5.463338115808311E-15, -6.357268847969023E-15, -4.9249561880727175E-15, -6.4161274479820244E-15, -2.5269346795731953E-15, -4.4990070201645574E-15, -5.400302270105567E-15, -4.056361310533659E-15, -9.03680537194707E-16, -6.010340290205156E-16, -8.441182681081869E-16, -7.800522227675995E-16, -5.1545514979775506E-15, -4.459300391589336E-15, -4.047319564140502E-15, -5.057398259429071E-15, -6.7997826198431024E-15, -6.318102981057186E-15, -6.4471321308811536E-15, -6.6534067231995835E-15, -1.286795714168344E-15, -8.271900779697962E-16, -1.576659165189609E-19, -2.8817903060235717E-15, -1.5391883942708452E-15, -8.283077118625772E-16 ], [ -3.026550121100038E-10, -9.851222084226114E-11, -1.0278283076031954E-10, -5.87876281638384E-11, -7.110335012808682E-11, -1.0487988695507751E-10, 2.5172207991068995E-20, -8.93519629108681E-20, 1.5044101637014277E-20, 2.315895211752189E-20, 1.5900340663127416E-19, -2.180695840073009E-11, -1.0302561868338476E-10, -9.412819260606702E-11, -7.154921023650604E-11, -3.499619752418335E-11, -4.8404557402024204E-11, -8.800216386405824E-11, -1.0943340627770161E-10, -4.4394303647906286E-11, -4.945505504803279E-11, -1.5112000852153786E-10, -1.3980173288340846E-10, -1.5871199072951717E-10, -1.1728736273808282E-10, 5.4492847210683496E-11, -1.0476819755441256E-10, -1.3890279627153945E-10, 4.7594830943724387E-11, -1.2579524071575303E-11, -6.091051964414627E-11, -1.2189225592817882E-10, -5.883371232521154E-11, -7.140896134509838E-11, -1.0078598126259423E-10, -1.2379190715565013E-10, -9.87504650977307E-11, -1.484668528143096E-10, -1.5458523219960945E-10, -1.665418080728715E-10, -1.8664529835308425E-10, -4.729310614449664E-11, 7.967828768115929E-12, 2.7193481623474787E-19, -1.4524666288294028E-10, -1.5434394279798584E-10, -1.9661553328316405E-10 ] ], [ [ 3.6923094685277404, -1.3413105770460433E-5, -1.3371601222383838E-5, -1.337160122238779E-5, -1.3409708456885995E-5, -1.3371601222409578E-5, -1.3371601222365793E-5, -1.7234694217793885E-5, -1.3371601222411669E-5, -1.3371607947264089E-5, -1.3395372193866742E-5, -1.3392441060331998E-5, -1.530266837592028E-5, -1.3371601222384797E-5, -1.340777207326264E-5, -1.3677088605166772E-5, -1.3371601222350249E-5, -1.0087259153629502E-5, -1.3371601222388783E-5, -1.3371601222365034E-5, -1.3371628721944354E-5, -1.3371601222386325E-5, -1.3371609313148259E-5, -1.337160122239677E-5, -1.5967836090849052E-5, -1.3371661577912676E-5, -1.3371603845107637E-5, -1.3371601222427713E-5, -1.337160122238649E-5, -1.3373279365112951E-5, -1.3371601222446114E-5, -1.3371609882706892E-5, -1.337160122248319E-5, -1.3372642447681363E-5, -1.3371848766796926E-5, 2.612376639359916E-6, -1.3371908176146695E-5, -1.3452802298034504E-5, -1.3371601222400403E-5, -2.2283936699940905E-6, -1.3369261918814235E-5, -1.3387242520937654E-5, -1.3371601222371643E-5, -1.3371601222445301E-5, -1.3371619393545762E-5, -1.3371601293205117E-5, -1.3401353111291323E-5 ] ], [ [ 94.08034354014782, 9.101586311528809E-6 ] ] ]
}