{
  "config" : {
    "algorithm" : "ListNet",
    "numIterations" : 500,
    "batchSize" : 0,
    "verbose" : true,
    "nomodel" : false,
    "params" : {
      "regularization" : {
        "rate" : 0.01,
        "regularizer" : "L2"
      },
      "layers" : [ {
        "activator" : "Sigmoid",
        "num" : 46
      }, {
        "activator" : "Sigmoid",
        "num" : 1
      } ],
      "optimizer" : "adam",
      "learningRate" : 0.001,
      "weightInit" : "xavier"
    },
    "dataSet" : {
      "training" : "../../../MQ2008/Fold3/train.txt",
      "validation" : "../../../MQ2008/Fold3/vali.txt",
      "test" : "../../../MQ2008/Fold3/test.txt"
    },
    "model" : {
      "format" : "json",
      "file" : "../../../MQ2008/Fold3/models/ltr4l_142.json"
    },
    "evaluation" : {
      "evaluator" : "NDCG",
      "params" : {
        "k" : 10
      }
    },
    "report" : {
      "format" : "csv",
      "file" : "../../../MQ2008/Fold3/reports/ltr4l-report_142.csv"
    }
  },
  "weights" : [ [ [ -13.588518598334653, -0.35921617104259634, 0.47553243593765826, 0.16429833438510522, 0.7027885082419002, -0.6353191280161733, 8.340425060480715E-6, 2.423326384952068E-5, 6.69859034739279E-5, -1.992383529707618E-5, 6.629338402599778E-5, 0.26498229526397377, 0.5712136265693738, -0.30016819619593477, 0.6975578982957331, 0.11594629042146962, 0.6704197305880251, 0.22822338512583215, 2.774551552379657, 2.2828966494472587, 0.675564323877684, 0.1379220962419062, -0.013257435470409345, -0.16991551912730124, 0.11677171995226929, 0.9029681496598567, -0.7421294063859089, -0.9935736837444802, -2.4116650488651517, -1.0685026761592418, 0.04934477205382643, 0.17341289634739132, 0.2547491014102306, 0.6547394943300762, 0.13398305890008536, 0.45377794991645815, -1.0221236868607755, 0.1213939843976393, 0.09173484494909276, -0.19014053831860983, 0.16041160792250828, 2.2817381212997065, 2.07226475492924, -9.075094434915766E-6, 1.1670014294533826, -0.32878545935858106, 2.1331302517153365 ], [ -13.72580416261866, -0.31110893301616094, 0.4435944853805888, 0.15784646630668975, 0.6668323648170676, -0.5735224041255631, 7.992401352571645E-5, 4.667423890338286E-5, 3.4765231763389665E-5, 7.17060273093663E-5, -7.99490575276895E-5, 0.24270633132703, 0.5215636269617568, -0.30219827301991803, 0.6615285116130678, 0.09346540820148445, 0.7320362637480969, 0.18398881142233192, 2.8383272214493322, 2.341814629951203, 0.7350998570394178, 0.10547796951434064, -0.0148321436813657, -0.19184192856054574, 0.12332864418570406, 0.8725368711854818, -0.766559584206951, -0.9898648880623586, -2.401362726912283, -1.0741016149061706, 0.029712046002636796, 0.14371352903619902, 0.23047196314048143, 0.6183298082411783, 0.10067412661370168, 0.48717387225074177, -1.065866260874435, 0.08899926115267379, 0.0831717229475682, -0.21114416811610506, 0.16020496936490936, 2.3397733348298733, 2.1234456379124143, -2.8192264314048245E-5, 1.2854675310232047, -0.2378661234597689, 2.2020124648362547 ], [ -13.712536924978194, -0.3051593887022983, 0.4336052661315882, 0.15192560750049564, 0.6647005306679252, -0.5650101924678584, 1.8897357565675638E-5, 8.578890058558584E-6, 5.5293626791453064E-5, -7.009607712893283E-5, 1.2324252652580012E-5, 0.23585421622122005, 0.5080483335875517, -0.30728207396571694, 0.6595117968869303, 0.08668272451615601, 0.738918464497137, 0.17107324507836966, 2.850725139449149, 2.3494741107834094, 0.7416353600195182, 0.10150886299568652, -0.011945929179060674, -0.19458417061439792, 0.12508801242314826, 0.8639407935000958, -0.769422517745965, -0.9903513265318594, -2.398431637671653, -1.0836720067106183, 0.0220069730821564, 0.13565360044284822, 0.22325199026587436, 0.6161338502356513, 0.0878821615715446, 0.4947055135512515, -1.0799008708778557, 0.08537132217163046, 0.0840347001611975, -0.2129902132044085, 0.1607772537688474, 2.3475350072858516, 2.128745769721325, 4.571658607371977E-6, 1.3072469067905341, -0.22226344080533833, 2.209912452549434 ], [ -13.755379415082956, -0.2905560010158513, 0.42744452860152643, 0.15459875274664678, 0.6519478837409953, -0.5467534173957227, -1.2000852243545172E-5, 9.26330987394099E-5, -1.4736754976152287E-6, -8.142425753841392E-6, 5.342072416613902E-6, 0.23501481621706616, 0.497586295658926, -0.30168927504081605, 0.6466847621681021, 0.08625367384157079, 0.7539983414068457, 0.15837117076511303, 2.8596461185962516, 2.3619891681733716, 0.7563434667522835, 0.09345007065609648, -0.013393985112892052, -0.2007888248974546, 0.12699521293926663, 0.8568351704482592, -0.7785936891454083, -0.9893855394549042, -2.396682651016204, -1.0755379518561778, 0.020407841175974457, 0.13152419572008783, 0.21975796126617222, 0.6034546514532337, 0.08194703212593289, 0.5051837231801017, -1.095640214148758, 0.07607485346076409, 0.08007271732472956, -0.21992183618014718, 0.15964075548457848, 2.359082230324506, 2.139840108782717, 3.546449835040131E-5, 1.3257832873391031, -0.19837836229769135, 2.2256920654690457 ], [ -13.973348565654456, 0.7038622479184313, 0.49878309472198795, 0.1956662493675383, 0.48879620143358454, 0.5119567313716122, -5.178160839583889E-6, 7.357084989114574E-6, -2.4654663103020747E-5, -3.2714558088566556E-5, 3.861902642654673E-5, 1.0048945127767492, 0.5338781785713643, -0.21881172422473955, 0.47988830058936643, 0.8162890329429789, 1.389499417445694, -0.06515506719668736, 1.7919346274939572, 2.293736454803557, 1.3872178228816752, -0.3357097703811609, -0.4046374180763295, -0.3671406778821068, -0.04182361040737091, 0.6735558708567005, -0.7040213466133272, -0.9530657836171974, -1.321391559694113, -0.7204885658372816, 0.09303130887886868, 0.27082101869948844, 0.2851565866551806, 0.44947357170308183, 0.44865063614831685, 1.3382704432242192, -0.2755587209001645, -0.39399986763605566, -0.21077961167360018, -0.43822937337516393, 0.02787717628808218, 2.1325525638319465, 1.707193144983957, -2.599704457844902E-5, -0.2961981783149991, 0.3373819251835853, 2.113385805415459 ], [ -13.422115265588596, -0.4006189245737529, 0.5097742468945219, 0.17896968876189837, 0.731659117395243, -0.6897370411497757, 1.482112370133962E-5, 1.566951472229317E-5, 1.3669891178985317E-6, -7.453231712524922E-5, -6.3666012749837546E-6, 0.29797507385626915, 0.6220817463359343, -0.28462687376476475, 0.7265174814879698, 0.1494054818918016, 0.6032655108201593, 0.2628987090437573, 2.6868979232042607, 2.209575972361012, 0.6108204004374803, 0.17090975102930647, -0.012669800451904358, -0.14958353648362624, 0.110730333138291, 0.9323294822819127, -0.7220744691303421, -0.9975046622119678, -2.4222039210982134, -1.0428318673985366, 0.07590238045016391, 0.2095109286281631, 0.2850127361528229, 0.6840712462915505, 0.16777720841542887, 0.4208291212485872, -0.9936467294874171, 0.15216772658167863, 0.0970390784761296, -0.1725333857112766, 0.1582640832089349, 2.208677776866536, 2.0055746084148978, 2.046088752046878E-5, 1.0017569120657268, -0.4181899905270795, 2.0500185940781104 ], [ -13.820020136404404, 0.7368900983573708, 0.41254009176916895, 0.17274948844040913, 0.43220868801039497, 0.551535946963368, 4.001556610517157E-5, -1.721358334414664E-5, -2.9062273287639727E-6, 1.7145876057526425E-6, -9.104122964179603E-6, 1.0019624982012096, 0.42168317816507717, -0.21900978265409715, 0.42341074701523107, 0.8209478443804032, 1.4083817368260714, -0.20564178991073948, 1.8016107673006578, 2.271059609025391, 1.405503533986149, -0.36675967341769466, -0.36043331305433446, -0.36392839419042994, -0.006266927890640366, 0.5817009827715329, -0.6998409614531954, -0.9540065156381513, -1.2762912608003827, -0.7090187678916775, 0.05667626807204187, 0.22852144655482975, 0.24412641359819476, 0.3933308722665539, 0.36246278064977794, 1.3911273999981684, -0.3703426828706932, -0.4381880648351015, -0.2046366692369315, -0.4379117522236096, 0.034515995890282515, 2.127782893634732, 1.704075870907611, -4.4839652980975366E-6, -0.1723865796276527, 0.35327368525368363, 2.153667369454086 ], [ -13.773762717878382, 0.7445156295305305, 0.3946562244488791, 0.1693902572765715, 0.418385573709969, 0.56043782896895, -4.8911800525712925E-5, -1.9626386040370248E-5, -4.598493782616696E-5, 1.4843810366092298E-5, -2.5840592615851804E-5, 1.0019293110513545, 0.3979162983816512, -0.2177839621385716, 0.40949114315059326, 0.8221356943077196, 1.4134168051465066, -0.23267010342212857, 1.7983497161051465, 2.263819076408217, 1.4103410525110722, -0.37323723952896914, -0.35287928431245913, -0.3626096296570388, 4.5414838914873345E-4, 0.5608031001225582, -0.6981777074637674, -0.9537619151822768, -1.2643712426519034, -0.7047880237799127, 0.05049266582196947, 0.22093304121380022, 0.23678808330572287, 0.37961551016781253, 0.3459918239043812, 1.3953191043671886, -0.3863266032012904, -0.44702323721179515, -0.20371238631160676, -0.43729691793403863, 0.03637017818657525, 2.123921586787593, 1.698239391869696, 2.443011517220178E-5, -0.15246980759279335, 0.356252958300551, 2.1606343512835875 ], [ -14.036207251035268, 0.6930719970747237, 0.5290234255156027, 0.19984057593061966, 0.511002304152226, 0.49849435535998116, -8.24838342143534E-6, 6.4780399273591514E-6, -4.275791406547612E-5, -6.865054908923213E-6, -6.114263655165818E-5, 1.004727835410754, 0.5724642697907906, -0.2225166655103434, 0.502265650021391, 0.81297927414039, 1.384941630106698, -0.011197707973782006, 1.792672970073649, 2.3061172184398924, 1.3828209211990434, -0.3290558237357481, -0.42316477208692066, -0.36786826768588726, -0.056661295968407153, 0.7062722963893637, -0.7047002349953665, -0.9508150090736568, -1.339148168505378, -0.7274764194875685, 0.10585340360449398, 0.284261015406791, 0.2991703131984322, 0.47185636243881046, 0.47473791227700224, 1.322064154940857, -0.2387776668568078, -0.3802953126892874, -0.21233495894344753, -0.43677192482321003, 0.026818586817010895, 2.1392915114105575, 1.7131625017728538, -3.595645789881167E-5, -0.33269673817433, 0.3336995062303432, 2.105609207697995 ], [ -13.910589053185175, 0.7189716107382119, 0.45874181397743824, 0.18398090804280967, 0.46513057622031917, 0.5301321608871943, 1.4988955749871275E-5, 3.991042528520248E-5, 1.1145322542992481E-4, -2.5631305708985296E-5, -3.5917572072039136E-5, 1.0040471427280013, 0.4825471722560046, -0.21966921369927814, 0.4562043488303355, 0.8189505390403213, 1.3971699710275298, -0.13316508438973393, 1.799272891218359, 2.284983644171106, 1.394560701823245, -0.3497839817776365, -0.3828501398301654, -0.3665194826231434, -0.025369606089672446, 0.6326991035113353, -0.7025373244494632, -0.954759834009138, -1.302056740073507, -0.7167339863997916, 0.07546977534439102, 0.2508677901458447, 0.26553562114753954, 0.42603211788114775, 0.4075633753370018, 1.3689500277630458, -0.32294636003214994, -0.4148062079637804, -0.20804045661057277, -0.43888513425920456, 0.029673047907958983, 2.131450585739905, 1.7096815346118235, -8.141897724376491E-7, -0.23602961846088177, 0.3446546960921379, 2.131375802407934 ], [ -13.664406376236904, -0.3221614176636065, 0.44254199552605544, 0.15099634644541626, 0.6789472402308184, -0.5863782086367814, -4.933078334029692E-5, -1.0007733306822156E-4, -6.93474696729416E-6, 3.87666470555751E-5, 2.835717493393018E-6, 0.23978099116735085, 0.5226201789861221, -0.3107459034780537, 0.6736795968281252, 0.09045079815233616, 0.7194214487773863, 0.1862573099150402, 2.8354499737544843, 2.332673427075429, 0.7227096341167766, 0.11213175146000892, -0.010623632135175547, -0.1870904401969812, 0.1231260404659161, 0.8731573522808, -0.7601868193609043, -0.991627058641654, -2.401331425298793, -1.088312268965823, 0.02586908635741093, 0.14298887198400026, 0.2290790547913555, 0.6302688599855781, 0.09662742061147185, 0.48409569434785926, -1.0635416979572974, 0.09659273767354423, 0.08807870537970741, -0.20514359572433888, 0.16162062982733316, 2.3314628951664096, 2.114348791313611, -1.9494755690228438E-5, 1.2771276300475676, -0.2512160025637381, 2.189600654124167 ], [ -14.120538883672765, 0.6769386148239946, 0.5540583131407607, 0.2014840715574349, 0.5353006107859034, 0.4799562360339922, -5.074734072917992E-5, -2.921386431124255E-5, -2.1838089807334397E-5, 3.450932342061023E-8, -2.575506265006055E-5, 1.000322648033554, 0.605353248856213, -0.2265551251468503, 0.526764522951744, 0.8056811414055334, 1.373076567429479, 0.03114059979205188, 1.8027880987142548, 2.3206798308711902, 1.3712360843245186, -0.3191550025602652, -0.43381332517679183, -0.36856049391407086, -0.06726204271023065, 0.7375828331473323, -0.7073885485939673, -0.9514203793128406, -1.3617228725828967, -0.7352524941755139, 0.11571697682304284, 0.2948876382404918, 0.31001597281273235, 0.4966634685345063, 0.4881835590602708, 1.3166100151188345, -0.2241185447141537, -0.3661487455231511, -0.2116436098498809, -0.43630709259419664, 0.02502879090871016, 2.1483758515978795, 1.7297174162310551, -1.7264601119967768E-7, -0.35081465707240417, 0.3284598218125597, 2.0997462608511035 ], [ -13.799816969067232, -0.2524974362995644, 0.3954953672320404, 0.14456586098890675, 0.6280167180096653, -0.49852775288157664, 2.1149044181633545E-5, 2.8424259268775985E-5, -3.4600529803218685E-5, -1.2490096735325583E-5, -3.819024827383178E-5, 0.22228722407099713, 0.45103926871616995, -0.30484313702689564, 0.6226960455732814, 0.07287461233782166, 0.7927049405796452, 0.11267051182805654, 2.8998468776744515, 2.3988813137026836, 0.7938169887322928, 0.06951649183475189, -0.01223715805192854, -0.21692846906391783, 0.13169189999591344, 0.8281299997965252, -0.7974545776688895, -0.9876551112139704, -2.3827775793517056, -1.0826872957521445, 0.0031801502953480425, 0.10875563956553301, 0.20046060125478388, 0.5793257827642233, 0.04188712703321632, 0.5428788038874436, -1.1466299358051806, 0.052184822424067384, 0.07477683358327908, -0.23498316952763734, 0.1586896223189326, 2.395202329028085, 2.1681189159591217, -5.404619351084422E-5, 1.3974445017560362, -0.13085353146264422, 2.267565861715258 ], [ -14.029642244345915, 0.6953635494613406, 0.5133401405002339, 0.1946372452835644, 0.5051521090101994, 0.5021028324912826, 1.097402980193194E-5, -3.6122847585121525E-5, 2.4729418965860523E-5, 4.687342728142941E-5, 1.9327510916469176E-5, 1.0025005559844458, 0.5535031475034407, -0.22279154486767458, 0.49643424902666583, 0.8123812060688057, 1.3831908875263226, -0.04140660324291705, 1.800834133230431, 2.304987191746827, 1.3810860309014237, -0.3319017257679699, -0.4108700437098842, -0.3682384456597469, -0.048804457126941946, 0.6930878559012612, -0.7053681147020857, -0.9538716405432858, -1.3352171030437776, -0.7272588193088352, 0.09823150977110215, 0.2762412411786986, 0.29085693716680594, 0.46622320292609093, 0.45572297843625026, 1.3404103117809427, -0.2661240480328554, -0.387435095620411, -0.21061714072610807, -0.4382277397369592, 0.026107847812110202, 2.14010127014484, 1.7214116500441308, 1.1912383044728723E-5, -0.30183129604470754, 0.33493450362592, 2.1115350589888635 ], [ -14.105817083808372, 0.6824032240660323, 0.5380336707790327, 0.19642227726183142, 0.5266723943676791, 0.4867798098255893, 2.026523321208795E-5, 4.511406128526681E-5, -8.456584021740208E-5, -1.6685099924151927E-5, -7.116180479492946E-5, 0.9992792708239274, 0.5853639695111843, -0.227122791476466, 0.5180098744314061, 0.8064222802507757, 1.3750694193346338, 0.001177948841983047, 1.8090743283488846, 2.31839601587369, 1.3730778647117443, -0.3245362581976056, -0.42306998040951865, -0.3689188537919248, -0.059725399355977885, 0.7222340562249847, -0.7075067538825579, -0.9526129832664744, -1.355169374987995, -0.7347291835809836, 0.10740142944217435, 0.28581563708705476, 0.3009641363985505, 0.48823990409681695, 0.47146710069162767, 1.332598128527157, -0.24505362803701494, -0.3750601010974858, -0.21057315643726066, -0.4374782731534587, 0.025053409470440734, 2.1490873529578423, 1.7343228674941493, -3.0121033965960864E-5, -0.32189679197291304, 0.3312770723218508, 2.106992487283263 ], [ -13.8649389198477, -0.15527649708554433, 0.31043881314704797, 0.13175351153507886, 0.5606711786048055, -0.3775856846360222, -4.4754492696395495E-5, -7.3036561255177676E-6, 3.068548829742759E-5, -2.2687628458073178E-5, -1.792612704812195E-5, 0.21980494976047513, 0.3282470562663366, -0.28967976927822126, 0.5553399345720533, 0.07100305294305177, 0.8724931639036192, -0.021944878432635987, 2.960351633059168, 2.4717641393484127, 0.8714942816281726, 0.015101578073165133, -0.005711159173531327, -0.25467989418732556, 0.14797377624756317, 0.7478937971819435, -0.852568970869296, -0.9853375254972458, -2.3216742613856463, -1.0650876088851475, -0.03647770578707844, 0.06386979238541839, 0.15679335325307367, 0.5127332111876218, -0.06709960230094845, 0.6707769474421488, -1.3258385186171668, -0.007849673026735102, 0.06004019144327666, -0.2740724216731011, 0.15461320850147614, 2.462537902142694, 2.2184566476478245, -6.766109020362211E-5, 1.5153177248434981, 0.029924873912473456, 2.3572898741299952 ], [ -13.690244095163894, -0.3240390999359734, 0.4517450231675112, 0.1575266645355163, 0.6781695555106727, -0.5901514420423463, -1.6600553075108455E-6, 9.796308091999696E-6, -8.545360685789463E-6, -9.876940733105801E-6, 1.7933539605057322E-5, 0.2474009256978303, 0.5345806467798211, -0.3041692946363325, 0.6729701530332622, 0.09792677214865667, 0.7158797158836455, 0.1962858278144652, 2.8240702097537085, 2.327550165900964, 0.7193832653424365, 0.11387924115987678, -0.014217553804453015, -0.18587080119998026, 0.12101149818095044, 0.8808909617051621, -0.7596181575472599, -0.9908831970787202, -2.404243821386504, -1.0762309543173048, 0.03404160813951536, 0.15068134318618254, 0.23627957690508386, 0.6297903321047744, 0.108342373694526, 0.4805966272039722, -1.0523921777563208, 0.0977852716079805, 0.08584752759940693, -0.20516082200082042, 0.16024159909221694, 2.32570200474943, 2.1112127314209324, -1.4606082506507801E-5, 1.2579936895156314, -0.2614547175733119, 2.1842039164086655 ], [ -13.74854289833491, -0.2904519947184701, 0.4251657610550832, 0.15292299886991065, 0.652253606794214, -0.5463815536022002, 2.9740001639852866E-6, -5.561030091144977E-5, -8.465860645530208E-6, 6.463314677965911E-5, 9.607462811967384E-6, 0.23283669222531334, 0.49441498691793284, -0.30372724348703817, 0.6469308317405791, 0.08388339499594838, 0.754883171003547, 0.15678096757939042, 2.863006454821294, 2.3631977478499393, 0.7572033427726371, 0.09278055868447083, -0.012811352662475035, -0.2008685382964497, 0.12725135424042833, 0.8550596826642317, -0.7779507184099314, -0.9893399462283498, -2.3956232778294155, -1.0790534928994757, 0.018284694751432885, 0.12933020979117976, 0.21787346234846497, 0.6036427556416567, 0.07880053577953487, 0.5052660233291759, -1.0972477319542453, 0.07578489533627458, 0.08064829941016538, -0.21972824531550406, 0.16009942656966286, 2.36071528786059, 2.140455564330445, -3.463154705781184E-5, 1.3313581777800618, -0.196720630051178, 2.2270047708975063 ], [ -13.63030946498401, -0.34597776830410293, 0.46761287132598234, 0.1644528459752139, 0.6911816418107226, -0.6178148304769402, 6.49721486928201E-6, -2.8210663542765603E-5, 3.26256433771977E-5, -5.477766397907689E-5, 1.9118776684415762E-5, 0.259190521745887, 0.5581687256084332, -0.2985753889350601, 0.6859456948390104, 0.11053167130575577, 0.6880115054599131, 0.21533096891255984, 2.790726924064921, 2.298503933890548, 0.6926588285429207, 0.12927424881817542, -0.013435595821118994, -0.17617311413365155, 0.11913698468650895, 0.8945664146816598, -0.7497736598773397, -0.9926399087068819, -2.410314791214746, -1.0672568149526636, 0.043977279783034104, 0.16557902922917953, 0.2478848920306266, 0.6430412237278386, 0.12666672475180032, 0.46169942966233024, -1.0354968602215822, 0.11234551454697492, 0.0889486373899945, -0.1965678414172723, 0.16033410814223825, 2.2969929585849207, 2.0862877267990405, -2.7166332189982313E-5, 1.1997346415007593, -0.30203694886120613, 2.152368661845582 ], [ -14.069308632382533, 0.6860742641365588, 0.5308926055358767, 0.19885030275409069, 0.5170609330146966, 0.4912498598860852, 1.2642093587375285E-5, 2.6792353020431498E-5, -8.884599821730151E-5, -2.4079054826324122E-5, 4.1023686589100905E-5, 1.0008438715072479, 0.5762412662025465, -0.22321726210390724, 0.508427516483521, 0.8088180537672816, 1.3775328232071182, -0.010775290537447213, 1.8013304853919383, 2.3107409604486033, 1.3754143007444433, -0.3248812066004366, -0.41953505792087714, -0.36811850499695525, -0.05561743611467108, 0.7122487666353252, -0.7067206700986957, -0.9530824655260487, -1.3468286045600997, -0.7296828998787466, 0.10580988810488338, 0.2846192697041225, 0.29922940244180884, 0.4783111589100521, 0.47076638323569886, 1.3280097068802506, -0.249238295066656, -0.37733264355898505, -0.21074976446387392, -0.437537378305675, 0.02586736041631894, 2.1424093077843716, 1.724172821045108, -3.6696181692315994E-5, -0.32300812318057975, 0.3311958658617266, 2.1054240517106018 ], [ -13.87206110230806, 0.7273399207263044, 0.43341393348558827, 0.17703565230381943, 0.44850715984495493, 0.5403684519265716, -2.780846832740189E-6, 3.6211341692405235E-5, -1.6175918942160173E-5, 3.9399823727136556E-5, -5.7701883648733595E-6, 1.0018742588544391, 0.44944058352280075, -0.21982728903121077, 0.4397210683666206, 0.8189249890737822, 1.4018716196514136, -0.1740578764824303, 1.8044746836646492, 2.2793753304197235, 1.3991335033444905, -0.35863838826790023, -0.36910504589939885, -0.3652663015789722, -0.014202538780192415, 0.6060241013301373, -0.7017647258908944, -0.9547732558930445, -1.2901135667283723, -0.713609815526505, 0.06466216427173573, 0.23806060875220145, 0.2532162980870701, 0.40959531174446706, 0.38140372362205666, 1.3845642750916507, -0.3520606920610164, -0.4275908235235978, -0.2056828318370527, -0.43851177060254043, 0.03223455047738809, 2.1314298044414524, 1.7110610824929529, 1.4580445480343324E-5, -0.19579293535732775, 0.34913050177014127, 2.144902737036622 ], [ -13.688280305807854, -0.31135376016816285, 0.436348270261492, 0.1529638104841301, 0.668736293577405, -0.5722655706648162, 5.8534566337488827E-5, 7.84652725055049E-6, -7.743497427303886E-6, -4.407045893251383E-5, 3.852693434525281E-6, 0.23762433332210417, 0.5124289605820576, -0.30666161167017836, 0.6634805656524827, 0.08878652255276552, 0.7310437987438277, 0.17373231794424657, 2.8430758522676935, 2.3415544479646138, 0.733936157180605, 0.10636724835888967, -0.010532615866519582, -0.19202899876229854, 0.12544942220283645, 0.8660043369776236, -0.7672962162178807, -0.9911736202349047, -2.4006349947626395, -1.0831948919921777, 0.02270474236769966, 0.13795635515244759, 0.2245979251804618, 0.6201762566346021, 0.0901266409282638, 0.491469438617061, -1.079884776961467, 0.08965028306669807, 0.08548520456512922, -0.21052236498743415, 0.1610178547264858, 2.3397797942440786, 2.121966064410968, 1.8569944712982557E-5, 1.2942216414634127, -0.2302758891402612, 2.201072159059024 ], [ -14.058239085368946, 0.6899943522043557, 0.5215715393553164, 0.1953907802105259, 0.5119154411155482, 0.49595670820499455, 3.2830376899539196E-5, 4.0389007851320453E-5, 2.0089715973332352E-5, 5.550216015293211E-5, 2.591435566375783E-5, 1.0006195094699837, 0.5642904831595981, -0.2238882097258948, 0.5032233209230109, 0.8095923111934749, 1.3796647123839907, -0.027517846172723275, 1.804460764074073, 2.3094948228644565, 1.3775542762125579, -0.32893766861436513, -0.41423490222112697, -0.3681844065170867, -0.051876059431547744, 0.7029177243893672, -0.7064838791038566, -0.9536217267196782, -1.3427600026686852, -0.7296396056620094, 0.10110751662426859, 0.27951385907821286, 0.29405081282187895, 0.47320052467081253, 0.461325313652377, 1.3368223281802658, -0.2596169933513395, -0.3830186568865615, -0.21028289348171567, -0.437800493989957, 0.025920026586714235, 2.143120848112375, 1.7264562728615878, -3.781399336729895E-5, -0.30651050425855597, 0.33305039926837066, 2.1102743175828818 ], [ -13.999260331620151, 0.6991968559442291, 0.5096777949414588, 0.1970156683495459, 0.4974046072745549, 0.5062477186314184, 7.315279852279151E-6, -1.1477478440893957E-5, 3.58004628357618E-5, -7.669133694418261E-5, -3.372879207579576E-6, 1.0045075467899647, 0.5481024590780794, -0.2201489070365869, 0.4887233066203739, 0.8147815256177352, 1.3867163113311933, -0.0464322414786213, 1.7931839287747928, 2.298362237210583, 1.3845659523008802, -0.3326647640183716, -0.41046055664155484, -0.36751506145568685, -0.04692532563800267, 0.6858128803082348, -0.7045253719595032, -0.9529566814212075, -1.3284649280270886, -0.7233231048878318, 0.09730123142937815, 0.27555163979712144, 0.28994195754063584, 0.45829821077425487, 0.45711876779628663, 1.3339563410471371, -0.2641907177907947, -0.38875517538960347, -0.21119158000620533, -0.4379062636507954, 0.027221980232496244, 2.134897856675494, 1.7105650004756718, -6.709645505551575E-6, -0.30821297073807535, 0.3356935456175369, 2.1101447569034906 ], [ -13.903069006878306, 0.7170756067682564, 0.4648544921456315, 0.18897984641467683, 0.464864906732204, 0.5279082487997006, -5.639362736197052E-5, 1.2492603916186304E-5, -2.010006162164833E-5, 5.913928828941281E-6, -7.341290696942888E-5, 1.0055155595518377, 0.4905675114783643, -0.2168322842276205, 0.4562202844592563, 0.820110125917039, 1.3964292478943108, -0.12264019774514855, 1.7914888382198253, 2.281593175037362, 1.3938615899195559, -0.3457449407622052, -0.38648904470705486, -0.3662020518748384, -0.02724608947682333, 0.6370350958651062, -0.7022483168060032, -0.954890542885073, -1.3023901827627988, -0.7144899517184529, 0.07920518333843453, 0.2556656860219305, 0.2696546705646961, 0.4256614049832734, 0.41844729335633435, 1.3554735013396917, -0.3131234787070009, -0.4101592521636796, -0.20884225609841398, -0.43883610219554836, 0.02976558244399183, 2.1267982196459028, 1.7011970331381707, 9.497776844453903E-6, -0.25432147542521866, 0.34184384554176306, 2.124789309989268 ], [ -13.72085560099337, -0.2984399860241459, 0.4288901794707977, 0.15383023504641496, 0.6573846772192473, -0.5558158606975344, 1.6315443684864133E-5, 4.595637715547442E-5, 7.264886104541295E-5, -5.5816558538584756E-5, 2.75797340152176E-5, 0.2345865083962678, 0.500364112518954, -0.3033771649623003, 0.65204652283715, 0.08620617733851778, 0.7456170943901703, 0.16091210623923966, 2.85419284975088, 2.353927639366095, 0.7481631186514691, 0.09847586077683386, -0.011208180003240142, -0.1976506142972355, 0.1274617190291373, 0.8581154266962491, -0.7748398871610221, -0.9903617555240377, -2.398319177603965, -1.079248491003168, 0.019426372027443788, 0.13255549057671828, 0.21986133272717523, 0.608818512738584, 0.08289561127800493, 0.4992613355136953, -1.0946614423021523, 0.08120386237853686, 0.0824871395969441, -0.216523820689048, 0.1605569297318644, 2.3515381423736015, 2.132496766009864, -1.5822224163116748E-5, 1.3166629534176293, -0.20790357473943585, 2.2166722656135063 ], [ -13.867739593471262, 0.7212684364895428, 0.4561537442898364, 0.18993298144056897, 0.4555821014552966, 0.5327867426275347, -7.630425213561094E-5, -4.269128987557361E-5, -8.857167866875406E-6, 8.099785753281933E-6, -2.4860347139532017E-5, 1.0066280240554761, 0.4789792759331274, -0.21388226619052386, 0.4467150059661939, 0.8222572338431471, 1.398872480362445, -0.13662899002404136, 1.78516205977725, 2.274480672019096, 1.3963593344753937, -0.34710285703585037, -0.3824817069332632, -0.3653196657316266, -0.02331806218315333, 0.6256845175351076, -0.7014212147036859, -0.9551899604677485, -1.2946921253122503, -0.7101394415082206, 0.07669917809328879, 0.253144958569822, 0.2669218269898405, 0.4161353000776626, 0.41388358900334304, 1.352825548165964, -0.3205544340355606, -0.41339028408512746, -0.20884676292425272, -0.43865657281990905, 0.030589538875785142, 2.1212347150592663, 1.692413858422153, -5.903587027640094E-6, -0.2519535743825254, 0.3424951630540603, 2.1247561959870582 ], [ -14.097450867582344, 0.6810415242044717, 0.5443449643448947, 0.20036235975119515, 0.5278725155656699, 0.4848184820052625, -4.110387870103479E-5, -6.065109941396279E-5, -1.0611762263782072E-5, 2.194688381626014E-5, 6.0089478662222326E-5, 1.0008487747990236, 0.5933062135990003, -0.2250259274473315, 0.5192761880916299, 0.8073853819892284, 1.3750658849758262, 0.013537463135964729, 1.8015965988002052, 2.3165602960611738, 1.373103075211989, -0.32168653541496045, -0.4279630633020704, -0.3684664141468493, -0.06264171918955154, 0.7271001005650504, -0.7069638480631938, -0.9523834230306734, -1.3552261760640554, -0.7330235358326425, 0.11184300848138033, 0.29087118735467027, 0.30566719292760386, 0.48923251310129207, 0.481078207845751, 1.3216103582821113, -0.23416180526356703, -0.37092899448049843, -0.21142280002604244, -0.43686056292778086, 0.025059954898094938, 2.1456799704251477, 1.7273435750105388, 2.2820795393506066E-5, -0.3395799079505118, 0.3295500934634669, 2.101654224145227 ], [ -13.846145416070627, -0.23540521427989353, 0.38679470992428777, 0.14704387896693494, 0.6135454400544814, -0.4778298783865259, -6.006414611744773E-5, -2.2873299842492282E-5, 1.0667617171893988E-4, -6.478118597309512E-5, 2.158311288109077E-5, 0.22272605074192547, 0.43729446393464044, -0.29877050903869196, 0.6081922611192718, 0.0734821738362096, 0.8096899591214068, 0.0986805544833708, 2.9101769629253407, 2.414586929004454, 0.8105450997515087, 0.05928899644320221, -0.013890488595151339, -0.2237701369046933, 0.1339409716977603, 0.8191580187563546, -0.8070538414654259, -0.9865203224196402, -2.3769505104388178, -1.0733973440334332, 0.0012136369063702373, 0.10442492930605192, 0.19691056427815753, 0.5649548928413642, 0.03357424617532027, 0.5568160879344173, -1.1647904082173353, 0.04074148462647682, 0.07040680728637445, -0.2427176713770343, 0.1578316799418845, 2.40977742520234, 2.181252250659853, -7.79035273640007E-6, 1.4168036018681136, -0.10610148480765266, 2.2872566417044697 ], [ -13.696544294051149, 0.7636657598311587, 0.22669438230525465, 0.11833100607774515, 0.2813915976260432, 0.588885518274394, -1.4570657561309427E-5, -5.672797267124483E-5, 5.769969708902321E-5, 2.465362625084585E-5, -1.8955032836926883E-5, 0.9266136361447989, 0.17085629302494568, -0.22034203085791854, 0.2720846662511169, 0.7558288209753027, 1.4445080879657684, -0.42049411871606873, 1.9256265440633145, 2.300006219245303, 1.4400304752676412, -0.463190397099424, -0.2547677909129072, -0.3357374855710364, 0.09812277443142568, 0.3626100095995765, -0.6816438216450169, -0.923748875566185, -1.1758653644594022, -0.6697806167451908, -0.014387847468532763, 0.13004785515924452, 0.1569336461784185, 0.24578794550412159, 0.1554559075687676, 1.3872813689769536, -0.5231344971670067, -0.54727498365097, -0.16104716413560893, -0.4131545568913185, 0.09837049309334825, 2.1994573253499365, 1.804961207396464, -2.5497693857465966E-5, 0.29354559019504967, 0.39133999952703524, 2.382424105468345 ], [ -13.949141023337287, 0.7094323169035017, 0.47738051784512175, 0.1894633142390713, 0.47700121876682977, 0.5192144864371574, -8.318673892270693E-6, 5.127684194278124E-5, -6.726629992800735E-5, 5.617682312101416E-5, -2.275179875235387E-5, 1.0029821585714689, 0.5072235850970788, -0.2189745822495959, 0.4682123665357351, 0.8163548479328819, 1.390808830432477, -0.10281230546624998, 1.7984965053625792, 2.2898054119100855, 1.388429415934733, -0.3415479575256201, -0.3909845689898041, -0.3667771225275153, -0.03191539170425901, 0.652998516879819, -0.7040339390544538, -0.9550615819207199, -1.313617534867716, -0.7190190349436624, 0.08327099355553956, 0.2601364988490398, 0.27448569862820205, 0.4379081063475064, 0.42605110763283005, 1.3555186563125132, -0.30465216974949966, -0.4042331444007247, -0.20867621847467627, -0.43882380515858294, 0.0286540210060089, 2.1322039498899894, 1.711627424546813, 1.5078003387440192E-5, -0.2598603089929097, 0.33967800227900546, 2.1226832635935575 ], [ -13.856611789334131, 0.7239579390057719, 0.4491941555107701, 0.18803543409125267, 0.45057248230553715, 0.5358803740916814, -7.396365982099853E-6, -2.4566276942885716E-5, -7.34669761780748E-5, 2.239623040038155E-6, -2.2038258377959907E-6, 1.0061626849171317, 0.4696719265828977, -0.21407095762635406, 0.441826510492168, 0.8223277034498326, 1.4006343089312205, -0.148128923247315, 1.7864173391779095, 2.272671367526137, 1.3979049560697383, -0.34968949936805055, -0.37881821162020896, -0.36501441547281743, -0.020204986789452425, 0.6179113718672549, -0.7011529669212462, -0.9550473459772038, -1.2913332729010916, -0.7093490936834065, 0.07349613809498257, 0.24931796680331908, 0.2635197911904923, 0.41116792261703894, 0.40679327285601286, 1.3563351380085544, -0.3278356486249965, -0.4169892308608036, -0.20826377085000497, -0.43862054331163547, 0.031374916172816236, 2.1210843627184857, 1.6922659740160533, 8.994093556321534E-5, -0.24099600915577157, 0.3436652995612891, 2.1284806611297795 ], [ -13.812242106930963, -0.24579123596026042, 0.3910118421476696, 0.14668056027038112, 0.6207422168371176, -0.49007835846124326, 8.525877091669354E-5, 4.134366413597075E-5, 1.1045811379291976E-5, 4.350252004238171E-6, 8.867671081870801E-5, 0.22220102462071295, 0.4438365433631471, -0.301041547469895, 0.6154638136814876, 0.07314355906649725, 0.7995527502690053, 0.10453921651778926, 2.9031453731085026, 2.4043364664918783, 0.8005598655026827, 0.06584114933286556, -0.012025295373711449, -0.21972214741199786, 0.13366504387365316, 0.8228292495406082, -0.8018691839388604, -0.98743053074652, -2.380335426950148, -1.077625523804047, 0.0014961506658585375, 0.10656197477320965, 0.19830319568097843, 0.5721214182837704, 0.03803044969843725, 0.5465920872449735, -1.158516309768856, 0.04766616526819572, 0.07322261845082312, -0.23835622988622918, 0.15863488172215173, 2.3999854461139343, 2.1723514741971393, 8.771619294038598E-5, 1.4054541535454026, -0.11958810832670563, 2.275407665408018 ], [ -13.931469920118547, 0.7155291549649803, 0.4650214867588626, 0.18458545412631427, 0.47026700037578734, 0.5262884140911694, 1.2604009954185017E-5, 1.7315710845852737E-6, -5.2124798232920285E-5, -5.814679926809567E-6, 2.7439646637222825E-5, 1.003095599426985, 0.49083699361576, -0.22060746965218375, 0.4615796280937105, 0.8174324775920397, 1.3949742176988977, -0.12297081617388055, 1.8019864692655323, 2.288518253978891, 1.3924682109252782, -0.34785988692506636, -0.3854442240093401, -0.3667330518112919, -0.027719360469327818, 0.6403000550469135, -0.7032208776116186, -0.9546462405024727, -1.307021425431496, -0.7186589794923324, 0.07755940009838999, 0.25312948251702716, 0.2679134539869508, 0.4313415797641434, 0.41223623014122385, 1.3676033738124689, -0.31747447456380734, -0.41181363668127563, -0.20810700277293753, -0.43886749533469027, 0.02937256122260671, 2.133866717745742, 1.7135381994288357, 3.195298323174436E-5, -0.24006656364810325, 0.3435923959932334, 2.1303129006107717 ], [ -13.746908891920885, -0.27698688532334315, 0.4105386198394789, 0.1475785887587388, 0.6440008332176919, -0.5285238267298596, 5.8761450520016606E-5, 4.012248080499337E-5, -6.567909391637471E-6, -2.9981958468886117E-5, 1.677717062530508E-5, 0.22578174619480598, 0.4735211017256653, -0.3061901315048951, 0.6386764767529739, 0.07706870596257769, 0.7684305226164813, 0.13482170890571193, 2.8790226204706117, 2.375711315403906, 0.7702591791731335, 0.08482440446072548, -0.010181942591703907, -0.20682412258250163, 0.13008862501213134, 0.8414413944261615, -0.7851502333303283, -0.9894174727058017, -2.390777923207362, -1.0849760820214271, 0.008851322546519016, 0.11849176988062445, 0.20829978581097572, 0.5952713181509991, 0.060114936214744945, 0.5191344830896322, -1.123046646793936, 0.06777687550591271, 0.07978605949948721, -0.22500535383746262, 0.16012295769076862, 2.3730436885894255, 2.1494199845554376, 3.837378341438415E-5, 1.3609440294117856, -0.16852980597271938, 2.2412406494572727 ], [ -13.809183576479962, -0.23577035930748558, 0.38094649690250376, 0.14262071961152578, 0.6157988416309548, -0.4772923789192621, 2.8031365209954753E-6, -3.1858132024687887E-5, -2.8776921283454043E-5, 2.1478133042768656E-5, 8.719789115811499E-5, 0.21960352760343183, 0.42958226588946136, -0.30223132285333637, 0.610460781845823, 0.07058549754571111, 0.8073123338305478, 0.08854193936026981, 2.9115878530791477, 2.4115765712812314, 0.8081470990450255, 0.06061988721668975, -0.0105421388251612, -0.22383405480188157, 0.135055837944811, 0.8139450245851718, -0.8073894566111914, -0.9876454911928639, -2.3764034461799497, -1.0805643411182628, -0.004150096983502003, 0.10012325299225906, 0.19240884972610564, 0.5670674073223575, 0.023692929183894998, 0.5614027587454778, -1.1783208589111933, 0.042032477778250095, 0.0723683539079647, -0.24211464762047735, 0.1579656984499626, 2.406973324993782, 2.1772438947260753, 5.614597526331697E-6, 1.4210468417804982, -0.10067188030747026, 2.2832293721251373 ], [ -13.690277400405066, 0.7665285786696412, 0.2728862679021914, 0.12657337703439464, 0.332833436206335, 0.5895366241749024, -6.11675684210603E-7, -2.488442744610411E-5, 1.39831230160655E-6, 1.4881944341975815E-8, 4.6250560837416756E-5, 0.9599279820895276, 0.2344891818623418, -0.22510291140124858, 0.3236811275877283, 0.7871042050492812, 1.4355299148224425, -0.38428152173780833, 1.870923014036798, 2.2757167634267637, 1.4315978641327194, -0.4353223829774341, -0.28698192627016383, -0.3482315731458136, 0.06103853403142307, 0.42577709267094904, -0.6893064005721165, -0.9384156915672326, -1.2060467442267193, -0.6880471463272575, 0.001849757280457984, 0.15487483569139254, 0.17818840655238516, 0.29619014978573677, 0.20401807704815192, 1.431977957648837, -0.49739275439925046, -0.5181477361793221, -0.17943788189005944, -0.42437726424980887, 0.06955732053647459, 2.163729110359211, 1.7581013298023367, 3.1418375231920523E-5, 0.13586773305327274, 0.38242379541926547, 2.2922040861023985 ], [ -13.775107060731282, -0.27529237295458703, 0.4145812253641102, 0.15043856316875523, 0.6422081899664547, -0.5273641553454818, -5.933782524682015E-7, -6.59593708946393E-5, -3.795118430092132E-5, 6.020487335322298E-6, 3.033500536087771E-5, 0.22896720086083752, 0.4785932379503224, -0.30345073808957945, 0.6368792868157086, 0.0800110511040782, 0.7703380038125078, 0.14038385057050803, 2.877247189373874, 2.3776791263920845, 0.7723169110159622, 0.08360827396318464, -0.012959120125909895, -0.20740235514607425, 0.1289859346390008, 0.8451458889956239, -0.7858191280022456, -0.9889207425929437, -2.391421739989857, -1.0791936467455756, 0.013170805515568188, 0.12177902629581058, 0.21162556256246887, 0.5934903359599808, 0.06611987935708641, 0.5193194980450667, -1.1153932431846083, 0.06639333360409601, 0.07797320025136435, -0.22597629317217321, 0.15951221742988703, 2.3747457819360913, 2.1521339141645557, 2.9001160067339573E-5, 1.357148632610708, -0.17064962808026105, 2.2436523850804 ], [ -13.96916439925642, 0.7045028332329805, 0.49680290490446627, 0.19537534795969794, 0.4872324637373544, 0.5125523673280178, -4.2927139403426185E-5, 4.3459245808420505E-5, -4.433119161788206E-5, 6.769931607683582E-5, -7.422148614105046E-5, 1.004963733797224, 0.531572005435651, -0.21859792811017867, 0.4784350875079872, 0.8166468549962753, 1.3896582871133734, -0.0686335751528299, 1.7917018375672829, 2.292834709568126, 1.3874320711950103, -0.33606319420389286, -0.4034174095962148, -0.3671079590248471, -0.04094178429495526, 0.6714750508115809, -0.70382982617314, -0.953408983851433, -1.3204632050467986, -0.7201100593861173, 0.09220900230727962, 0.2700715058077684, 0.2843344358135721, 0.447970212608285, 0.4473697354495048, 1.3382937617870079, -0.2775522382306183, -0.39472742533868505, -0.21060535453070506, -0.4382498345077929, 0.028022973572542943, 2.131800514563967, 1.7065278196698035, -3.1981173993620304E-5, -0.29399722815935303, 0.33716958131165714, 2.1137805400888663 ], [ -13.688180607105872, -0.3202746121191248, 0.4452671289117309, 0.15463141095365865, 0.6755138048132532, -0.5846328029626855, -2.7919306277403296E-5, -7.674609367170736E-6, -1.648563405461279E-5, 5.133380705474292E-5, -1.7967783085047347E-5, 0.24215862826686774, 0.5255945964148916, -0.30714034280667246, 0.6702213653941111, 0.09271248760137403, 0.7220507942942206, 0.1894093398636021, 2.833947864483163, 2.333995570966703, 0.7254753001703022, 0.11063790567432766, -0.012860682602518618, -0.18795731634322832, 0.12251520155519771, 0.8751500769177133, -0.7609211929103932, -0.9907805712709915, -2.401856640095289, -1.081746838589329, 0.029015111783552643, 0.14503304449455168, 0.23126044842150487, 0.6269253459243934, 0.1012352013684432, 0.48242306800101925, -1.0597047374718471, 0.09488717307699064, 0.08622197794559731, -0.20643700363970185, 0.16113678386128152, 2.332667049178566, 2.1162168528178293, -5.8317856811582923E-5, 1.27563124221647, -0.2514092045526059, 2.1919951903708035 ], [ -13.878702777171746, 0.7259435326892005, 0.43968474640133604, 0.17872504476957327, 0.45265494075379414, 0.5386181596979226, 1.2308296977533537E-5, 5.434240447425133E-5, 4.3477203899737634E-5, -8.58014270944309E-5, 2.383439461474859E-5, 1.002999861243135, 0.45761530646617293, -0.22000575877627124, 0.44375381812926845, 0.8196024030611372, 1.4012090985331598, -0.1639349037504046, 1.8022232737741306, 2.280139835577132, 1.398489789083944, -0.35664432182147254, -0.3730226731833297, -0.36570970776181566, -0.017268037409841036, 0.6124195890206614, -0.7016749940446184, -0.9548197900192196, -1.2925065871937147, -0.7144143225510083, 0.0671613000904911, 0.24113773188729629, 0.25630147726967695, 0.41367895774510244, 0.38788134341228003, 1.3811447147752172, -0.34426993598711736, -0.4245693292315207, -0.2064645154477799, -0.438854010415468, 0.031432907836421706, 2.130881636521528, 1.7095773771066272, -5.42340683689642E-5, -0.20756239766993284, 0.34826399678062553, 2.140885524606855 ], [ -14.016275037219698, 0.6970185523350525, 0.5071840416386839, 0.19437209667705266, 0.5000501874335141, 0.5042619691873655, 2.387425068183079E-5, -1.803235288092217E-5, 2.015572723107809E-5, 3.222759496597362E-5, 6.610053805516057E-5, 1.0025474125811453, 0.5458787718550162, -0.22163704371229478, 0.49145916723443106, 0.8130901103081887, 1.383686380944344, -0.052492929090396136, 1.800204483744928, 2.301788427603817, 1.3814485784082842, -0.332546235786033, -0.4067414071174079, -0.3679328222975557, -0.04536427391642635, 0.6862740795141327, -0.7052788517489323, -0.9544054120762103, -1.3315481742931932, -0.7252984016707043, 0.0954800853597756, 0.27364167212155366, 0.2879237224705524, 0.4611144611924173, 0.45069437563450643, 1.3427326228133127, -0.2743289408356773, -0.3895933525931505, -0.21005248189039583, -0.43854255699104694, 0.026559347163935515, 2.138088871491209, 1.7190895774431636, 2.7998208280152787E-5, -0.2955527998366843, 0.33538975090860745, 2.1126768297842307 ], [ -13.762109750790003, -0.2930135752032724, 0.43090617454305485, 0.15578873361508222, 0.653516834703432, -0.5502565617111216, 5.956130135955915E-7, 2.901265394431532E-5, 4.41302160506645E-5, 5.9567196269451396E-5, -3.1880103952680746E-5, 0.2364284374696325, 0.5022542551692806, -0.30152898500665853, 0.6482304337523913, 0.0874438797661619, 0.7519855838651638, 0.164671738655089, 2.8574041697922206, 2.360408540099435, 0.7545036849029171, 0.0943368960423678, -0.014719458450872093, -0.19965864719766685, 0.12595838323776978, 0.8602415606702684, -0.7764905900830875, -0.9888433296859482, -2.3970883613241023, -1.0742164426122827, 0.02277301591680008, 0.13371511116921495, 0.22212736777733183, 0.6050522206714827, 0.08617977261704367, 0.502150611604587, -1.0877981940497068, 0.07723731836578078, 0.07998179860321529, -0.21887250841424538, 0.15963202847037922, 2.3577869456948872, 2.1389802560795537, 2.9343009722677697E-5, 1.32076668337637, -0.20479194139124388, 2.2238810384132006 ], [ -13.707561079586615, -0.31256785744133236, 0.44139513410645087, 0.15651316378678673, 0.6677661680127328, -0.574677497046729, -1.4585238415774262E-5, -4.872958817903711E-6, -4.2195671636402674E-5, -5.752311314143513E-6, 2.868314010049969E-5, 0.24102077374568867, 0.5190653887285014, -0.3034744000037488, 0.6625974680833723, 0.0921464830226552, 0.7304945509747348, 0.18094863578419002, 2.838659030259807, 2.340288178488964, 0.7334326578313325, 0.10666197994294431, -0.013044048145014024, -0.19138918949648379, 0.12419614721591499, 0.870455316634802, -0.7662523342206984, -0.9905347005158095, -2.4014898593827483, -1.076982013213617, 0.027239817797471817, 0.1421514257450134, 0.2285443493074579, 0.6193577072122989, 0.09770021752179248, 0.48694547959329837, -1.0705916697181168, 0.09004798986554878, 0.08424772323794405, -0.21040568063463022, 0.16062374650251088, 2.3383619670357856, 2.121555341253999, -3.464749759649155E-6, 1.2867243552850443, -0.23695656836447243, 2.2002856511854283 ], [ -13.855597268678945, -0.25188122512641836, 0.4054583656630263, 0.15122018720154437, 0.6258441514459393, -0.49971844550329736, 5.5943689008065225E-5, -6.96456352986036E-5, 7.2848527700235084E-6, 6.94090720536999E-5, 3.403297927648799E-5, 0.22837453058706167, 0.4638111429321319, -0.29948069362579466, 0.6204857163597748, 0.07844594743857693, 0.7947266399870059, 0.12766826318983834, 2.8955626781560655, 2.402023806979946, 0.7960198292496188, 0.06858356500239195, -0.017364690824463947, -0.21671526212020636, 0.1297338036039414, 0.8369692717728311, -0.7970529663535584, -0.9862044612154705, -2.3840484454279465, -1.0712069285062278, 0.012013507244881707, 0.11608457280908728, 0.2081127625306408, 0.5772686440719855, 0.05661392783061949, 0.5385016265128587, -1.1271686724798713, 0.05092809999817896, 0.07184616998909249, -0.23603243060475473, 0.15804161957822666, 2.397707211747456, 2.1729690129017607, -3.394993375283059E-5, 1.3871501727537587, -0.13974113098659002, 2.271432006241765 ], [ -13.994858622518878, 0.7064492477753817, 0.48045138134154, 0.18372211720809548, 0.4859665516255577, 0.5159593204250928, -1.4777847984878806E-5, 2.8667438690128994E-5, -5.2072939278713495E-5, 1.2825520237546911E-5, -6.83960992587327E-5, 0.999752794258012, 0.5112162550793417, -0.22469104956487082, 0.47713350689006506, 0.8126367492957274, 1.3887943191185275, -0.09839663194940294, 1.8130390993522512, 2.3000202066036706, 1.3863954748609153, -0.3439423077718549, -0.3913768527127, -0.3676618063161155, -0.033901860716209105, 0.6601867946360508, -0.705439533356794, -0.9543034809820651, -1.3219795376116785, -0.7255404830724891, 0.08191824815258329, 0.25775098860696893, 0.2728477487142834, 0.4471873250763622, 0.4206211839201468, 1.3690034771467878, -0.30633199850168535, -0.4053165476266075, -0.20772178543554656, -0.4388925823046467, 0.02822162196554626, 2.1425441594842307, 1.728475620369646, 5.083328969028654E-5, -0.24370182278786404, 0.34155414439268106, 2.129600323456919 ] ], [ [ -16.147633595711696, 2.2758912254151977, 2.3707031898777853, 2.3829813443003163, 2.4062320720025796, 2.0297171508106366, 2.1801312726963404, 2.0202506502348103, 2.016592337027007, 2.039565677215763, 2.0257659095187646, 2.3519306759612495, 2.050847432254117, 2.477660316453209, 2.0378707373853073, 2.049005141284957, 2.6401706930815974, 2.3457236643097263, 2.408859767051736, 2.3002947971539354, 2.0418390559958284, 2.023945898293209, 2.368780309240233, 2.0413020150035486, 2.03307128261528, 2.022133768209236, 2.3918541095270873, 2.016642958557974, 2.0467294771397886, 2.50745718191212, 2.0538026021448554, 2.0274185525453507, 2.016293549998539, 2.4886995691527742, 2.0281613788876176, 2.4329478463892262, 2.504625837518777, 2.0380650848261723, 2.4357153494522445, 2.02911928391332, 2.356027773553779, 2.024142017736633, 2.0353138592940128, 2.4035582962615334, 2.367635861064456, 2.479270591105879, 2.036813615842178 ] ], [ [ 84.83484725267078, -0.9837457965713651 ] ] ]
}