{
  "config" : {
    "algorithm" : "ListNet",
    "numIterations" : 500,
    "batchSize" : 0,
    "verbose" : true,
    "nomodel" : false,
    "params" : {
      "regularization" : {
        "rate" : 0.01,
        "regularizer" : "L2"
      },
      "layers" : [ {
        "activator" : "Identity",
        "num" : 15
      }, {
        "activator" : "Identity",
        "num" : 1
      } ],
      "optimizer" : "adam",
      "learningRate" : 0.075,
      "weightInit" : "xavier"
    },
    "dataSet" : {
      "training" : "../../../MQ2008/Fold1/train.txt",
      "validation" : "../../../MQ2008/Fold1/vali.txt",
      "test" : "../../../MQ2008/Fold1/test.txt"
    },
    "model" : {
      "format" : "json",
      "file" : "../../../MQ2008/Fold1/models/ltr4l_157.json"
    },
    "evaluation" : {
      "evaluator" : "NDCG",
      "params" : {
        "k" : 10
      }
    },
    "report" : {
      "format" : "csv",
      "file" : "../../../MQ2008/Fold1/reports/ltr4l-report_157.csv"
    }
  },
  "weights" : [ [ [ 13.518349731042363, 0.15934755482777943, -0.30659974837294196, -0.40001084848692614, 1.0024234549271103, -0.06592117396989917, -7.094142977909967E-80, -1.0295175048899398E-80, -2.100859973839361E-80, 9.431002240626583E-81, 2.2205392838094112E-80, 0.20693945066114414, -0.43461366076946917, -0.4264981077158019, 0.5273367374581321, -0.06036879292763399, 0.4911386087885021, -0.41085988572148585, -0.9479602010735109, -0.8805435128982586, 0.4727886664934265, 0.049534187943738886, -0.024341693738248956, 0.6163077891329931, -0.1988762329422136, 0.18453920382456593, 0.053174706314488014, -0.47552150791416115, 0.29100668168008065, -0.2704413923673833, -0.3032899004176139, -0.15823611077900437, -0.2917751591422122, 0.8097068192219329, 0.32100564292809614, 0.530324021011901, 0.2652190829257792, -0.1405415442974141, -0.17868471166186486, 0.5131212819064797, -0.14691793944157977, -0.1360481732602231, -0.3187023927956187, 2.5705518391485282E-80, -0.12142872038842292, -0.6710634720262081, -0.08866423357185113 ], [ -12.695927315017276, -0.28524113105083365, -0.5113743180659795, -0.4178569217636143, 1.0972667873706203, -0.5144574994426425, -4.0788730336521845E-81, 6.733723595664905E-80, -1.990433933311961E-80, -2.8523270085580144E-80, -1.3420767298626183E-80, -0.6814058632628867, -0.5506240624794909, -0.043470065349254385, 0.7753684598545919, -0.8038667286163355, 0.26082614786164343, -0.9877792431313687, -0.10986220786090559, -0.3426454073534154, 0.23937328083450662, 0.1097097601651091, 0.22395624696253016, -0.5691581750902668, 0.28315990919717193, 0.05415733300071671, 0.6959812826982296, 1.1337058715118913, 0.9034219844698131, -0.2706013033975635, 0.26963466496275407, 0.6893831144901545, -0.08671691471456631, 0.49190433512752624, 0.28562545277911194, 0.4048942109409761, 0.387597759776775, 0.3677877299827018, 0.12373866381386327, -0.8377851591936742, 0.1367872150488836, 2.0253423546510647, 0.8240642763118677, 3.1266434771040195E-80, -0.09773943625102519, -1.081370986655572, 0.9675113418733657 ], [ -18.027000133970887, 2.0668803447633493, -1.1861434071276125, -1.1592664685962317, 0.8098395139950741, 2.146195006680592, -8.724473628182222E-81, 7.523666482056065E-81, 2.9465050252316545E-80, 1.807581050880785E-80, 9.126747014880187E-81, 0.8092393657148117, -0.941923531300005, 0.11167828030514008, 0.5532718223201222, 0.8224942852634521, -0.6503372365812905, -0.6554217507225194, 0.6288619466402399, 0.14237786523004956, -0.6588419724325507, -0.9896005545006501, -0.009557971118220092, -1.9489375410480578, -0.32516210969127546, -0.08343075852073568, 0.01561638994935849, -0.8036191993742307, -0.8608103618190175, 0.7060091744024886, -0.495814778083878, -0.6167287210950003, -0.5115760384429491, 0.018652160454571867, -0.35654190043925865, -0.15137574923656932, -0.32000141657374814, -0.9045895656925816, -0.006968947862201796, -1.7557953344477173, -0.5048817406550749, -0.528611433879905, -0.33593468852663566, -5.223759670698038E-80, -0.763768524847569, -1.0930537448571838, 0.6496263674689975 ], [ 21.466431255753044, 0.2122561261237259, 0.2571322822924316, 0.5248240543171262, -0.0380391177731312, -0.008953109612906096, 2.6444880723239827E-81, 9.064236185941288E-81, 1.9979089904061122E-80, -3.0223932513592042E-80, 9.665621801246101E-81, 0.48963801622439423, 0.0956772359811594, -0.1036955112977556, -0.07078844664749638, 0.22424789553885416, 0.0961160498626866, 0.8013951495054507, 0.18966209068499812, -1.1174678488715797, 0.08555708942965912, 0.15259478788205053, -0.35513245717760156, 1.0566210340771782, -0.6336060007530226, -0.5398269510530977, -0.400716061497733, -0.09653144383472391, 0.5059794155988337, -0.2616676054877222, 0.4249386242620235, 0.3141411688798062, 0.43082290796562644, 0.5888329952437683, -0.33416508038899084, -1.3487579123879865, -0.2778944137468769, 0.206309272721738, -0.3664292054720285, 1.0397742460958106, -0.47678482087127083, -0.7561456282039254, -0.13318943762008245, -2.448855772045826E-80, -0.6559797957051733, -0.2727685703287953, -1.0613103673836943 ], [ -8.90085861443805, 0.30646801747192004, 0.8468601190722822, -0.009761080675609058, -0.37340335597401086, 0.33857662756618256, -1.4160464586583511E-81, 8.023378701883495E-81, 1.3032692186539944E-80, -1.9900111477763027E-81, -2.3206332915441528E-81, -0.450073444974467, 0.739793914047791, 0.17748254100351443, -0.37677419760564707, -0.37100780786281967, 0.8349404332843277, 0.6424748532024357, 0.8725960570239311, 0.41839292264203803, 0.8276767413077891, 0.4190195286854139, 0.21928782475930286, -0.21294912235890023, 0.07470862175948499, 0.11824711766899926, -0.39634241533136416, -0.1329381929518972, -0.0680108097242592, 0.020524353931470802, 0.14628839270678434, 0.5797274469915039, -0.033677389990015294, -0.5638335602547082, 0.5243354559261586, 0.3199961256180743, 0.32221035757595967, 0.24424407053178154, 0.2549084818465159, -0.31420154465402766, 0.06184130689351466, 0.3924355469899019, 1.1619663964245721, -1.7081367099284794E-80, 1.1766306968522657, -0.3450629409274755, 0.17438808703320782 ], [ 1.9615481561180876, 0.5703902308792133, -0.1558788253559737, -0.7776410037577597, -0.23411885755800044, 0.4573188229412174, 1.2044690906317561E-80, -1.789839866989156E-80, -2.2952981497326045E-80, 5.121141319635502E-80, -2.8451153716081726E-80, 0.08720869120145018, 0.06982927566336457, -0.33337353125188657, 0.05728759160928447, -0.03527430780733648, 0.37873880994784126, 0.6412103711767008, 1.4867700312752148, 0.41794609535881205, 0.38827328763548885, 0.059803627781370945, -0.24790882402692857, -0.11715514187401402, -0.1598303325830609, -0.5225262546343865, -0.1826570582764319, -0.05247775322711182, 0.21758946637677057, -0.28541706933601885, 0.7372997545877485, 0.7213867527328724, 0.7503764418218006, -0.320743901649353, -0.0046858461924183465, -0.18109340647304212, -0.2517498078878377, 0.029555024775899066, -0.19652808487499276, -0.03267129861410587, -0.2896782962186017, -0.9206429269053364, 0.9245918042413966, -7.590818572550825E-81, 0.1628473839845449, 0.21584324553395093, -0.33883219820468735 ], [ -9.081901203951022, 0.7731427249495085, -1.4008518604329927, -0.5402358297857125, 1.7270159246808257, 0.8632798980362315, -3.173228854974796E-81, -4.712344656749757E-81, 8.00130360824013E-81, 4.095291602340131E-80, -2.616131281777356E-80, 0.8657836441441733, -1.1865277549066475, 0.16429492168499982, 1.1663075189511092, 0.9277900895518432, -1.050547919075243, -1.2722287158624457, -1.0636614105905486, 0.21127681794951214, -1.0583526213224879, -0.5659658502333972, 0.1452302247230673, -1.0244462464254782, -0.41018116625806694, 0.394586002374736, 0.4790669619854388, -0.7614464925662768, -0.358959770161005, 0.7015559554133389, -0.5807521722019223, -0.5461623934510406, -0.37624770105911665, 0.8208403531913012, 0.36541154968856904, 0.9192584961813345, 0.3994913087851116, -0.7679463584761065, -0.053770353970920184, -0.9467263736325844, -0.5511719449975531, -0.6239590833274747, -0.6189284979757748, 2.5353548390745597E-80, 0.10766840798708341, -0.07124959448023058, -0.028446433404944033 ], [ 0.2633685011827837, 0.8928602755170174, 0.5767761481738631, -0.0874901439614535, -0.5399479325139652, 0.6478108079980552, 2.0087720569974714E-80, -1.3882587606720207E-80, -1.2104237936283896E-80, 1.4374240052484215E-81, -3.311116724551718E-80, -0.21111731138536471, 0.717930221012093, 0.1894378884191322, -0.8987476723590145, -0.41600564635630394, 0.7622007287793915, 1.095230150751901, 0.6859350765428255, 0.05664830857998523, 0.7460533656050593, 0.1170065028868414, 0.1879676787345887, 0.5936747056490834, 0.02391756188013538, -0.01287887330916909, -0.3776148665892556, 0.4018153550692405, -0.25234684041706273, 0.24107342368621298, 0.48498958533874, 0.5921057225800844, 0.024014191856541425, -0.778730019111439, 0.1991701826253928, -0.1389086296161876, 0.06169412737115897, 0.09058330385971602, 0.2293784793574244, 0.6068969683043965, 0.04006086427120515, -0.45730669281880815, 0.8446400856768976, 1.5267820391233638E-80, 1.113339992329995, -0.8580460236371077, -0.17182461149156164 ], [ -12.71630137820216, -0.3953295182264264, -0.6590373411743168, -0.7026080274675699, 0.5325284308088035, -0.3108580314368421, 1.4898838368672593E-80, -4.7317806775009806E-80, 1.8648112297034157E-80, 6.616884466350974E-81, 1.0857609993089126E-80, 0.22708673083043363, -0.4690701978700896, -0.33485129137153485, 0.46865376837137784, 0.2644726502002865, -0.6292189817355016, -0.8750401875532513, -0.16815196794267737, 1.0453556650156646, -0.6191310011570751, 0.06779231145990353, 0.5481963807418432, -1.4033402798044767, 0.8266000321590827, 0.3144834634174188, -0.25904862054361427, -0.8482593957861595, -1.1975578527245785, 0.21051503865849025, -0.8400096932813758, -0.9768809550662445, -0.7822739548548566, 0.19771795882354068, 0.15392006067667297, 0.39631883974937465, 0.4234263885010419, 0.1137320625494234, 0.7540538005666723, -0.989638372288097, 0.8960472117631356, 0.8406431479225279, -0.8287224154003026, 2.718330578490799E-81, -0.453570054916388, -0.5792730950130245, 1.2671069369648686 ], [ -20.17177896196243, 1.433497856741089, -0.8193256326557353, -0.33021098793186393, 0.7045901156895807, 1.6372839111548068, -1.6120485810090705E-80, -3.9451454563071E-80, 2.8532504594177356E-80, 4.025107090996988E-80, -3.7055274795545233E-81, 0.8508375310947208, -0.7741459677755431, 0.5045925071858652, 0.7248720867553566, 1.0586925615366267, -0.40952413492636264, -0.7387076220285566, 0.2310061481148573, -0.7295460721044528, -0.4196855805359795, -1.2254720425066723, -0.5047878972116783, -1.6774998581316616, -0.9599415293297787, 0.10138845835378282, 0.32852469309362864, -0.19076894351666593, -0.3698227014889359, 0.7193207245841685, -0.22397042866891617, -0.3170655584074075, -0.3098587936946227, -0.06541945919095121, -0.8661510591514321, -0.23826250860336884, -0.8699934096535061, -1.0219192966006136, -0.7809157639195218, -1.972371429977548, -1.207635515081176, -0.646651350543823, 0.2508589851467136, -5.5797503741866656E-80, -0.06353827145833421, -0.15904373219210238, 0.2830479656161902 ], [ -19.31270939791372, -0.08526807156500976, -0.022247304739200873, -0.7198724013307933, 0.2289061091511851, -0.30543817211889385, 3.420501293984608E-80, 3.949352558045735E-80, -3.167348013927822E-80, -7.676060071942223E-81, 1.871656728265102E-80, -0.28377493055607267, -0.23046863782912735, -0.16985374382490015, 0.02577047128167908, -0.44824435926259026, -0.11216002263982815, -0.22357212803650653, 0.910471779078068, 1.098964577974499, -0.1159913057106417, 0.4429935538916146, 1.0054156660655063, -0.19512267624427226, 1.2430186417812197, -0.16317430447921064, 0.06928242695867975, -0.7095906274450515, -0.4303858833661863, 0.04191386018175993, -0.7748010800724545, -1.3601054150067753, -0.8472881248772062, -0.41575058043663843, 0.6578061735472012, 0.7039034573235224, 0.5336261066759097, 0.44984447992097937, 1.146519411318476, -0.16040951009612514, 1.215054384111919, 1.4764610082508474, -0.4405451123973162, 2.9845121955845124E-81, 0.414153509795271, -0.5440642037296185, 1.3106031024238516 ], [ 30.593713270061297, 0.3455242797634178, -0.007167477417091155, 0.5644472544314317, 0.09655895813421869, 0.3163618940737347, 4.920405084617227E-81, -1.5624681355625133E-81, 1.714525386428211E-80, -4.1385762527348536E-80, 1.8001439846719686E-80, 0.6227396612935796, -0.05915492014060616, -0.09348377061535482, 0.1087358408260942, 0.5201947113410464, 0.20484068554471277, 0.5340298176061485, -0.41705488829529686, -1.2902170309760228, 0.20365465285308582, -0.6111635035644915, -1.383776275919309, 1.030204441249312, -1.3944052151886184, -0.746148081449125, 0.12103844852534758, 0.5739189893232165, 0.6559665595393488, -0.09634970075525372, 0.9742080845908934, 0.3712840432984921, 1.4355996875427117, 0.8099103358374196, -0.9602903081099733, -1.3528330337488266, -0.8436450052747598, -0.6182978277316998, -1.486967965598425, 0.9244992359517733, -1.357673279569062, -1.5751598013526686, 0.3589773261870873, 6.296589896245484E-81, -0.8402205154962984, -0.003217842341712785, -0.8352756926680285 ], [ -16.097581116589897, -0.3449450304996884, -0.11047412208503575, -0.6819050154122551, 0.4508896665795548, -0.43484690984191715, 1.8657296136694094E-80, 5.039569926249969E-81, 4.378630704929831E-80, -8.269565534209274E-81, 3.282515990525973E-81, -0.5064831272618407, -0.06113161037327463, 0.3180737561046642, 0.05296131283833072, -0.42511853354302387, 0.6351189802242396, -0.6479822695821412, -0.31409180492722205, 0.21863817319520726, 0.6330293772526405, -0.2711664662356336, 0.5262081471739105, -0.48728394632364735, 0.4476347232320739, 0.5716021173407908, 0.5494765629665713, 0.2983991490515799, 0.23547080599841266, 0.38448688728210295, -0.4016707123458291, 0.03704533438638179, -1.0865283545470645, -0.806128998095159, 1.0243578867351784, 2.204283463546481, 0.37909571601956416, -0.21859873780454805, 0.3917966095936395, -0.7149773837624631, 0.34313063165875307, 0.47295119904731453, 0.39413424072870773, 1.977660485367122E-80, 1.2560582507431526, 0.35144770110174023, 0.48481212760982734 ], [ 18.142645829246035, -0.7451797201488692, -0.1519814949084192, 0.7548061419924883, 0.16202485954290022, -0.737754982892999, -3.2507397306037664E-80, 9.580492527408618E-82, 7.212060134619883E-81, -1.3204279763864723E-80, -5.741449801535047E-80, 0.33154193813530886, -0.38536034899494925, -0.05406336240489084, 0.40953566747080494, 0.3615128026352886, -0.490066913991866, -0.7100957743307362, -1.1627499772311878, -0.5791341280981653, -0.4797705257241434, -0.1918986098599652, -0.7867888242601758, 0.38271903873658963, -0.6846190070230137, -0.06827314953241885, 0.4390116428596322, 0.08314097429730102, 0.8370493596585733, -0.16049213595980155, 0.10323881265491393, -0.15016523922677455, 0.541154394264565, 1.042660224451476, -0.18722706288209126, -0.39662528851832346, 0.04779773218356297, -0.2668378129193012, -0.8409736805772696, 0.33125877309357943, -0.5844025696519439, 0.043707638941253395, -0.7537180242855669, -2.574355388576235E-80, -0.942267075701431, 0.6259561877867762, -0.39178415033114183 ], [ 13.718260008588645, -0.47922080999745487, -0.41978819081638585, 0.29856502723269024, 0.02906515789709421, -0.3253993381177218, 3.1816698393940045E-80, -4.126721305581034E-81, -3.777741903155486E-80, 3.2929530920781447E-80, -6.152690822838999E-81, 0.4498741149947059, -0.26374355843430164, 0.11248116774009949, 0.3373215210865716, 0.5676755502522804, -1.1558940470674344, -0.6218756760339283, -0.19898110771816194, 1.0333639376907138, -1.1324256283111236, 0.03620751702682311, -0.5314285978502817, -0.09530494141548697, -0.19704492284508082, -0.12228433417128443, -0.15394270473132354, -0.052246988846151324, -0.1197615248277166, 0.15374895540271932, -0.048421433033975045, -0.6283396955329709, 0.49924834398658224, 0.5104751426338608, -0.353752877937729, -0.03935750829596388, -0.3284347182098271, -0.20388526642295335, -0.3485085452082707, 0.1934114585201451, -0.046133721928303305, -0.25376056117189133, -0.9052805524580552, -3.903221140980334E-82, -0.7999219281458159, 0.8115108228416488, -0.0674693759839051 ] ], [ [ 7.92437999319952, -0.07213671705261823, 0.0724931019589051, -0.3073526351371078, -0.07516208976768142, 0.07535618752561815, -0.14245506055644175, -0.059383582635443806, 0.029053313417994733, -0.1058815933754823, -0.17423650879021857, -0.059001163188471095, -0.08616093135902028, 0.1279189107421548, 0.03625762948238134, -0.024574317532385058 ] ], [ [ 93.8481216644908, 0.03257668245660637 ] ] ]
}