{
  "config" : {
    "algorithm" : "ListNet",
    "numIterations" : 100,
    "batchSize" : 0,
    "verbose" : true,
    "nomodel" : false,
    "params" : {
      "regularization" : {
        "rate" : 0.01,
        "regularizer" : "L2"
      },
      "layers" : [ {
        "activator" : "ReLu",
        "num" : 15
      }, {
        "activator" : "Identity",
        "num" : 1
      } ],
      "optimizer" : "adam",
      "learningRate" : 0.001,
      "weightInit" : "xavier"
    },
    "dataSet" : {
      "training" : "../../../MQ2008/Fold1/train.txt",
      "validation" : "../../../MQ2008/Fold1/vali.txt",
      "test" : "../../../MQ2008/Fold1/test.txt"
    },
    "model" : {
      "format" : "json",
      "file" : "../../../MQ2008/Fold1/models/ltr4l_65.json"
    },
    "evaluation" : {
      "evaluator" : "NDCG",
      "params" : {
        "k" : 10
      }
    },
    "report" : {
      "format" : "csv",
      "file" : "../../../MQ2008/Fold1/reports/ltr4l-report_65.csv"
    }
  },
  "weights" : [ [ [ -16.19683050374801, -0.4826957436253348, -0.2585233305849375, -0.2118642651444807, 1.1612751354935875, -0.5557603596364729, -6.030550970253439E-5, 7.5292590124644E-5, -0.0013771369558424264, 0.0011508551696540823, -9.903286007208114E-4, 0.31052743184247794, -0.22954606605728742, -0.08238113754198581, 1.147813020403579, 0.39919088879788084, 0.07156796864769725, 0.11595712732180062, 1.5418139600114085, 1.9964557613176384, 0.07389259980869016, 1.9594888691406995, 1.4715021298561988, 1.1154490656628129, 1.274955509634725, -0.13530128904609287, 0.26300021744999696, -0.48058441335670277, 0.35151044642939305, -1.0065642186589296, -2.05563927643394, -0.7099440081600016, -0.8797086457964239, 1.0511430919874332, 0.1282454306845986, 0.45480739701378553, 0.29369277460717325, 1.8663700703659991, 1.2028061846177183, 0.9822468893894282, 1.0615198855871104, 1.655715765024604, 1.5840656659935202, -2.117506843563159E-4, -0.1264814790913852, 0.25518865947952535, -0.13767459948316724 ], [ 36.10617237782822, 0.04710086624900458, 0.06467917507283204, 0.2122365488404816, 0.06571275556027886, -0.050476725552698214, -3.7210292094606477E-4, 2.1170745278866192E-4, 0.0010704052554895878, 5.997857341553248E-4, -2.2897540393745165E-4, 0.3177994864150324, 0.057702179813403545, -0.03665404550642336, -0.06458851435971537, 0.1448410521052796, 0.1399074336420777, 0.05032784043013838, -0.06032103353331102, -0.07251925898502713, 0.13302559955188428, 0.22911778977112354, 0.1635992169228401, 0.682604869614922, 0.21808224492455738, 0.12881525870536684, -0.10841469596173799, 0.16362325694147506, 0.1963016088106672, 0.06704962207444029, 0.013181192593042805, 0.10286689693127923, 0.04578868906380032, 0.34247959854997284, -0.050973279423448814, 0.20421138210758127, 0.10826485250429714, 0.2568864033294791, 0.0517574650184834, 0.6644502769674482, 0.3895912740548543, 0.03865874090323953, 0.15352531426000982, -3.289340718511406E-4, 0.024907603989262134, 0.15551296877668214, -0.004973865196781865 ], [ -0.07666397994151604, 0.007057693337266089, -0.002966274825455474, -0.007854983811380934, 2.195494853252867E-4, 0.006151576806638881, -1.2567318340083296E-4, -8.654427144566199E-4, 4.301767653834543E-5, -4.6308334643693636E-4, 8.373751446864656E-4, 0.009550292104050954, -0.0037200904533154773, -0.01010731196026802, -0.0022610964154688514, 0.010204202598269636, 0.013282165055105998, 0.0041820150174676374, 0.004231686897643748, 0.003542966325792389, 0.014602139511331578, -0.004506877099765985, -0.010785530501039215, -0.013412825224533197, -0.010641095246154234, -8.489231270150682E-4, 0.010260788482999909, 0.010338755547883698, 0.011943716269156402, -0.01023140633414904, -0.0033674675866391013, -0.005829753067237985, -0.004084176080478138, -0.0032460091900642068, -0.0034056840830833726, -0.002889239614152221, -0.0026303818760020363, -0.005361770642414838, -0.013656141632345176, -0.01354768192020686, -0.009946033236638835, 0.005966651290290735, 0.005932369807089178, -5.813337206918421E-4, -0.0031391335052412877, -0.004112059698673782, -0.001452082689680519 ], [ -13.850029459178792, -0.37577962393269604, 0.6566523594603415, -0.22542078021267797, 0.05389283676296213, -0.3436868623810486, -5.460147644002603E-4, -3.5398886487312647E-4, -8.103090881712177E-4, -3.0480143864550724E-5, 0.0019691464940412738, 0.8089429003461617, 0.7717261244215873, 0.17633512062272458, 0.07768011379677851, 0.953685880140154, -0.4795902263191448, 0.4068868591129031, 0.7671617690321261, 1.938144141605787, -0.4665164146022839, 1.4429417906253914, 0.8616323016020307, 0.8410083847201328, 0.5552124760279222, 0.7430554212404716, 0.5783930325299468, 0.2866491678822045, 0.5748516605212957, -0.32772879751221773, -0.8674897623334, -0.2016173427616096, -0.2487937745077545, -0.015809921496751235, -0.25644610360456405, 0.16205349496359214, -0.04142056676746419, 1.4705734810850235, 0.6895256506448885, 0.7645613382635577, 0.5385874822831462, 1.3634828840504765, 1.4018153652483585, -1.339998566829223E-4, 0.668633963578877, 1.1636425840772437, -0.6244130500551328 ], [ 23.85405380975822, -0.8962724941369195, -0.3989436889689749, -0.29660366974247926, -0.7455403495583214, -0.9448986304267746, 0.0011523849731138178, -8.850941821893073E-4, -7.576006571629389E-4, -9.197938859616281E-4, 1.8602804723142092E-4, -1.8854147785108133, -0.2786653743823055, -0.4567832080526306, -1.2613939892171764, -1.961514697120177, -0.7070597757034054, -0.2666313335043263, -0.6826776233835434, -0.5960509544906814, -0.7049625141968608, -1.783966850752464, -1.964667507798456, -2.2846783873254726, -2.1201485532500524, -0.8452009326060028, -1.0182838755533534, -0.5875057947561357, -0.34945726392971443, -0.19377423750565806, -0.20420238098386626, -0.6112031098608329, 0.23445392017973424, -1.364369182426741, -1.0202333562441621, -1.6728877932238564, -1.147563703490384, -1.751369614795125, -2.0323779105146085, -2.2061222645587075, -2.06081019593159, -0.9936342517784734, -1.0048258869323603, -4.228753168337672E-4, -0.6004829822971821, -0.5413401000913614, -0.9653218320770458 ], [ -9.656743753946131, 0.8983983448393917, 0.3951005745652762, 0.23294891135605766, 0.2579073209552455, 0.9022115422352106, 4.5631794992216266E-4, 4.511612805708389E-4, 7.727410787794512E-5, 2.8283691110779925E-4, 3.293370143377108E-4, 0.7615313113219719, 0.2812755369064556, -0.1711292530630709, 0.28634879322157464, 0.766175312524727, 0.9193004321140711, 1.5347063600519313, -0.5576384553511565, 0.20427910838605254, 0.9128147929491076, 0.22009950434986295, -0.09981164966140438, 0.6748937328144136, -0.18814000762360078, 0.2114347444558968, 0.4940211495651243, 0.5356423108725565, 0.7561548802482166, -0.7104674698443539, 0.06064969471621001, 0.05076347666797333, 0.07313945465378043, 0.19711457883675826, -0.17330843359578324, -0.1312353477772071, -0.2005396475455903, 0.03761657718533222, -0.12161445799547158, 0.6499637693240554, -0.16614700737738075, 0.6834677428777539, 0.7165125026528155, -0.0012620189061245948, 0.7510168353820567, 0.9129535881833235, 0.2851502726374493 ], [ -18.201301925852885, 1.6404960794445986, -0.31862327623135506, -0.12868956832849493, -0.6086839187383776, 1.6949646717340974, -5.979311048591722E-4, 9.26598278893297E-4, -1.7452657616562713E-4, 2.156229820492627E-4, -5.604035569062708E-4, 1.230438173974925, -0.43708714876410476, -0.2603010945640359, -0.7485006520593237, 1.2622949402905728, 1.3352849197327719, 1.6083919075664028, 0.23667942567332412, 1.8087603602088151, 1.3359552351619108, 1.0845812383146778, 1.1801745559892216, 1.4948758573434764, 1.22080097804782, -0.45853621157947355, -0.4712781738483651, -0.5299451724952282, -0.07481659183525098, -0.13936931609497114, 1.1885942353771857, 0.7284450904021165, 1.0552552059611071, -0.8775752138506915, -0.7346723322677711, -0.9399032378204547, -0.844096222744342, 1.0237181738226357, 1.1988635310038216, 1.4885739513518643, 1.2233107422897156, 1.5497065267641177, 1.4767283143513543, -0.0018102483719059917, 0.28213203081317, -0.1131128824933026, 1.2993572051839195 ], [ 36.11041097833318, 0.04896913914193266, 0.06297384592994479, 0.21020731182846786, 0.06606966686865169, -0.04861248537018555, 4.3678262364470026E-4, 9.336533736445592E-4, -0.0013837692457219614, -2.3163324574584975E-4, 1.7460664874538811E-4, 0.3162855254078243, 0.05837423479821106, -0.03672941234741314, -0.06256696567233243, 0.14240574613336113, 0.14261538608684457, 0.05244804926920348, -0.06050782789252981, -0.07229999337332109, 0.13517832137642652, 0.2298124574339424, 0.16273109002175545, 0.682207952508223, 0.21969033816485192, 0.12836496267827335, -0.11050174001536407, 0.16198841620745474, 0.1970123728501874, 0.06595762556655117, 0.01263571687670938, 0.10188014901639186, 0.04575842947217057, 0.3426935293770511, -0.05040212591943267, 0.20492961803902318, 0.10794496747810232, 0.2554886720131793, 0.04906072517147571, 0.6631028847008326, 0.3876491026183553, 0.037594044148986185, 0.15263755807040655, 5.942242497252207E-4, 0.02562340970316348, 0.15532011423080083, -0.004860094547928807 ], [ -0.2712973007952563, 0.02512893055130527, -0.021040194624070016, -0.031110074702266018, -0.0232222911056481, 0.024740866597753805, -5.239400573985257E-4, 8.215334682569308E-5, -8.274598063865784E-4, 4.6334328492612656E-5, 6.854115412318769E-4, 0.014692712394520586, -0.016751259684864076, -0.045767544204897495, -0.025955704385976757, 0.015074630644632324, 0.038556297355061074, 0.01988500097830476, -0.0015063449611320047, 0.02278507833168376, 0.038302332274853954, -0.011652797386645005, -0.005518437781119171, -0.021993648594196724, -0.0026513692382002974, 0.0013640473094575177, 0.010434444208365755, 0.012073078336140984, 0.014004514664197401, -0.04632384918385475, -0.026046546369990844, -0.009515092928237365, -0.015664574332857534, -0.02436863293106719, -0.017420835203698005, -0.0037494666551604627, -0.020500995786920953, -0.012873433949729028, -0.00480281306425403, -0.022436615954988047, -0.003510989154650893, 0.0218107472560232, 0.024127810811551516, 5.267933150682885E-4, 0.0265785341431074, -0.010261607652381231, 0.03493561406361395 ], [ 36.10743279965625, 0.04710759899971393, 0.0660460511290826, 0.20973717146118265, 0.06627942908521721, -0.050497348294788504, 2.5146969020669815E-4, -2.627686816591451E-4, -0.002689451221103355, 0.001328160349142407, 0.0012367530031280921, 0.3187090461354062, 0.058588610702689316, -0.0352326374759684, -0.0647286501084188, 0.1449162975876616, 0.1412580596268907, 0.049766147008118475, -0.059918075424859794, -0.07321179837491973, 0.13223701330295937, 0.22975360393023808, 0.164486258443503, 0.6817905346531465, 0.22016092897239295, 0.12986330269590468, -0.10878655734779526, 0.1636320253859112, 0.19847392217467416, 0.06699709955405936, 0.012891544146602783, 0.1030645979800756, 0.046033941410233606, 0.34265501743545695, -0.05054541326664351, 0.20553330738658013, 0.10757397564409321, 0.2570045980285387, 0.05116153346913627, 0.6642036173895708, 0.3878343018602205, 0.037400427331722726, 0.1542103252755581, 4.021605564919988E-4, 0.025560941386225746, 0.1542592190101054, -0.0046919304577490465 ], [ 36.10405161199759, 0.046558860405113145, 0.0652745718449912, 0.21180418943894308, 0.06447874959023053, -0.04856054609609691, -7.362457256843664E-4, -8.708022231796029E-5, -0.0011969886257474833, -8.32234175811865E-4, 9.102527997440473E-5, 0.3194303180630453, 0.0609660869273723, -0.035468330386884205, -0.06263762172689563, 0.14637768390991454, 0.139493072465874, 0.05011306192017429, -0.05936606256896743, -0.07262800174042228, 0.13076156723214022, 0.23131479154267137, 0.16430940703405106, 0.6817320427974842, 0.21980326418710486, 0.1287889730478318, -0.10926325229523241, 0.16231055185631652, 0.1964225840289233, 0.06767771918996804, 0.01300108203216134, 0.10514425288890131, 0.04641359972005161, 0.34224638950249825, -0.049720264278739816, 0.20577026717471542, 0.10717696184956035, 0.25773217837076556, 0.04812933495795972, 0.6662381841519088, 0.387980529447291, 0.040367697242931246, 0.1525487597137786, -4.25997095059414E-4, 0.025116109793620358, 0.15633948071727452, -0.006979344556634136 ], [ -12.338053728662134, 0.9852207719972774, -0.7365430568720482, -0.17726654201761696, 0.6177718982247767, 0.9987300743475226, -5.272544604625499E-4, -0.0010901398641944002, -2.614437744281283E-4, 1.976347060939042E-4, -0.002136920155597108, 0.9451142103678182, -0.798379117827625, -0.36091040142791303, 0.5362311215889023, 0.9540442219827552, 0.9653019971890748, -0.0872464128531514, 1.1851375912403659, 0.15700573263529943, 0.9609643416558443, 0.9069974096549542, 0.7182431904318274, 0.6780439850995482, 0.6264001730747768, -0.9912451461144927, -0.04366750353181354, 0.2766377881480349, 0.7626746735736689, -0.4210619789828883, -0.20195848108057296, 0.7230660193734249, -0.4244941753997404, 0.5412477918122529, 0.2897006248738267, 0.20041865546831067, 0.27377209941042885, 0.9598619606815503, 0.9347016758269012, 0.9198089747771332, 0.920102150614462, 0.40800979274396676, -0.1455339787801216, -8.135603203799488E-4, 0.1740962761346924, 1.2044506010684572, 0.6259755169378541 ], [ -0.007034436651405187, -0.005775365428860391, -0.0027976986920650445, -0.004125110069590311, -0.0023956231864894558, -0.004718676439964782, 5.882257774177666E-4, 2.8656234533458767E-4, -2.3948884767703842E-4, 9.831811622263028E-4, -0.001104824466816777, -0.0047888788430789034, -0.002751100491066863, -0.0015505442803682816, -0.0027606053400970896, -0.006679576842647783, -0.002784530831684804, 6.696130768583405E-4, 2.632366899254884E-5, -0.007492441053770262, -0.004315024615383535, -0.011273842205289885, -0.013270052398950426, -0.014063447757037242, -0.01322497486258761, -6.034444166617625E-4, 0.0018349708055714017, 9.239323039598791E-4, 4.097785719409794E-4, -0.003469996767539177, -0.004406072805808273, -0.003933356080969847, -0.003066001258443792, -0.0041449489178958, -9.685810062300177E-4, -0.001650950920695677, -0.001945317780994022, -0.012333474378475867, -0.014115269274398275, -0.01249065646504649, -0.012899275944599008, -0.006622615653291609, -0.005241821355001783, 5.798596882221101E-4, -0.0018635911644090623, -0.0018408774365815347, 0.0013634039552773702 ], [ 36.11402990648215, 0.048696086499130806, 0.06392574167889145, 0.21027523401848328, 0.06558163640824659, -0.04886020270542333, 1.4753129459790592E-5, -8.805215197568744E-4, -4.59770150697937E-4, -7.208446705643203E-5, -0.0010561193953456999, 0.31854895791298066, 0.05802586347101703, -0.0379640662218756, -0.06366100202815844, 0.14154766595835505, 0.14363840049443288, 0.052387654252238625, -0.06134651997148676, -0.07233579677913994, 0.13476130831677466, 0.22754003819940824, 0.16456351816055026, 0.6824614711282452, 0.21845682434892327, 0.12963653919386814, -0.10996020104261386, 0.16139389524022874, 0.19630098739383012, 0.06395872593028118, 0.011198301642906123, 0.09951741628817347, 0.044967485403498555, 0.3430878001308435, -0.05165736075378121, 0.20386290804112028, 0.10797999924436168, 0.25408757748508326, 0.04998802389366324, 0.664400221198393, 0.3876841618044094, 0.036831875758688716, 0.15425989575140214, 0.0017730190612621206, 0.02772777649931936, 0.15660528392766185, -0.005594475096119409 ], [ 36.10722395915776, 0.04665308332920248, 0.06326255591780099, 0.21261362758781016, 0.06482531857180474, -0.05050113368701583, -3.4208672623819026E-4, 7.741739741751193E-4, 0.0015662000757634441, 0.0015658490632640175, -4.256289291473734E-4, 0.31885738142956305, 0.05926630487795523, -0.03609279247624902, -0.06409938753769953, 0.14486756327998618, 0.14143652111063126, 0.05096660373207819, -0.05897688134689584, -0.07125315650515926, 0.13186957684656733, 0.2286956905548668, 0.1643959668076347, 0.6814808609882943, 0.21929289349112852, 0.12789682291537777, -0.1094453966638419, 0.16329080327170478, 0.19566268422000785, 0.06797391108335867, 0.013905665045328301, 0.10368159169673055, 0.0452888788805042, 0.3410875863502924, -0.051326323322280154, 0.2064377520536694, 0.10824724351526455, 0.2564305103050233, 0.04937372513409342, 0.6643180668642713, 0.38749194783331387, 0.039027582816806766, 0.15371596506824045, 2.611575689697856E-4, 0.024763095681273817, 0.1569673831347573, -0.003801630978317194 ] ], [ [ -35.84469875074803, 0.36596186317932095, -0.3044730365392982, 0.01927481748519128, 0.4987149844433026, -0.15830813193067877, 1.4651848817314075, 0.1768156660488281, -0.3026291553865659, 0.042259470008825246, -0.3033037808049677, -0.30489030194167205, 1.2109386422342212, -0.0013208572665871015, -0.3026855459917145, -0.3037506159793926 ] ], [ [ 35.37398178778539, -0.3586322958130484 ] ] ]
}