{
  "config" : {
    "algorithm" : "ListNet",
    "numIterations" : 1000,
    "batchSize" : 0,
    "verbose" : true,
    "nomodel" : false,
    "params" : {
      "regularization" : {
        "rate" : 0.01,
        "regularizer" : "L2"
      },
      "layers" : [ {
        "activator" : "Identity",
        "num" : 1
      } ],
      "optimizer" : "adam",
      "learningRate" : 0.075,
      "weightInit" : "xavier"
    },
    "dataSet" : {
      "training" : "../../../MQ2008/Fold4/train.txt",
      "validation" : "../../../MQ2008/Fold4/vali.txt",
      "test" : "../../../MQ2008/Fold4/test.txt"
    },
    "model" : {
      "format" : "json",
      "file" : "../../../MQ2008/Fold4/models/ltr4l_35.json"
    },
    "evaluation" : {
      "evaluator" : "NDCG",
      "params" : {
        "k" : 10
      }
    },
    "report" : {
      "format" : "csv",
      "file" : "../../../MQ2008/Fold4/reports/ltr4l-report_35.csv"
    }
  },
  "weights" : [ [ [ 13.590131841558538, -0.28761130617616587, 0.15388649708521424, 0.1121750454815662, -0.5123529233176, -0.3942250459601862, 1.0367659699536908E-155, -9.029600752471673E-156, -2.484123834111641E-155, -1.3423120112914579E-155, 1.46342956737777E-155, 0.14805760168426824, 0.1577864226101851, 0.23932511294975634, -0.3138479939352126, -0.044209376530752666, 0.40761998363769475, 0.0999243520667961, -0.6668668567953072, -0.8273545152631749, 0.39591738600256154, 0.0795155145655379, -0.38800536125000845, 0.7123848015866608, -0.37638236389115554, 0.3258911787900893, -0.2804165714239899, 0.11338265280104297, -0.08285192277741608, 0.6392271615281429, 0.1675414224456934, 0.045892409879427234, 0.11558833627163434, -0.40382875871278606, 0.047657195065495254, 0.3077953416194769, 0.16294575682801637, -0.10411014845038866, -0.4149388441251819, 0.5156725261450553, -0.2934478869210504, -0.630676530579804, -0.7643093045567372, -1.4891347735198386E-155, 0.015505794135023652, -0.17678392954099023, -0.4715773122107852 ] ], [ [ 94.38307905901041, 0.013408263721456733 ] ] ]
}