{
  "config" : {
    "algorithm" : "ListNet",
    "numIterations" : 500,
    "batchSize" : 0,
    "verbose" : true,
    "nomodel" : false,
    "params" : {
      "regularization" : {
        "rate" : 0.01,
        "regularizer" : "L2"
      },
      "layers" : [ {
        "activator" : "Identity",
        "num" : 46
      }, {
        "activator" : "Identity",
        "num" : 1
      } ],
      "optimizer" : "adam",
      "learningRate" : 0.001,
      "weightInit" : "xavier"
    },
    "dataSet" : {
      "training" : "../../../MQ2008/Fold4/train.txt",
      "validation" : "../../../MQ2008/Fold4/vali.txt",
      "test" : "../../../MQ2008/Fold4/test.txt"
    },
    "model" : {
      "format" : "json",
      "file" : "../../../MQ2008/Fold4/models/ltr4l_134.json"
    },
    "evaluation" : {
      "evaluator" : "NDCG",
      "params" : {
        "k" : 10
      }
    },
    "report" : {
      "format" : "csv",
      "file" : "../../../MQ2008/Fold4/reports/ltr4l-report_134.csv"
    }
  },
  "weights" : [ [ [ 85.32795027505423, -0.18747861617877803, 0.24515359472542905, -0.008677969071928087, -0.045306412541704845, -0.0333896736637857, -1.5263407962850357E-5, 4.60724668531145E-5, 7.492707204099145E-5, -2.8029117410805235E-5, -3.3516242176268015E-5, 0.10065854645426837, -0.12175050317192272, 0.12126177765592767, -0.0946281786352745, -0.034392883798297455, 0.09550234901337178, 0.02660884118839446, -0.03994713488246199, -0.10225487217225558, 0.07843420533339975, 0.04357755984379928, -0.19126264484587413, 0.798263606453035, 0.15793925320953933, 0.14280102066242234, 0.04632905649458554, -0.004172340482634285, 0.007530016346145617, 0.32496479349693036, 0.004041055731593674, -0.2702005626784513, 0.25558879369101184, 0.04758605500074851, -0.2779330516349066, 0.08701388726600956, 0.35206241309435377, 0.3239762473121079, -0.22278772383902212, 0.30855473980142945, 0.1572537697044318, -0.07520641900752549, 0.009723502902347567, -3.188066460364429E-5, 0.10362010797356695, -0.08769818389182173, -0.18819541060206413 ], [ 85.17755766118886, -0.2063454648689784, 0.23326829824538012, -0.019455698512065148, -0.035175698856944534, -0.052524864178049344, 1.574811774784514E-6, -4.5868507619808514E-5, 5.22282777355928E-5, 3.1140338244622005E-5, -4.2586624014059345E-6, 0.07458648036784792, -0.13951924829435397, 0.10386556263549014, -0.08706935381820413, -0.061771084111761604, 0.08198918091449887, 0.02700768092767958, -0.02650484037784816, -0.10106463388157248, 0.06495583333614816, 0.0017672071780711741, -0.23009183415553247, 0.7589649538740615, 0.1200023151344195, 0.12222904784870142, 0.024592521399954145, -0.026425105293132335, -0.01017511220237524, 0.3063190623962705, -0.019615843937823053, -0.2886311775243023, 0.23337609805625364, 0.05060629521947604, -0.2717237736014604, 0.09227346726796772, 0.35764783323683214, 0.2843026187005695, -0.259210941361372, 0.27045254463330454, 0.12045126025953357, -0.07311946338377709, 0.008652970256364726, -5.273665779571807E-5, 0.1083385888049566, -0.07989695097652007, -0.1610069389831042 ], [ -56.12284908075973, 0.16121869087586138, -0.11701488042630463, 0.06516600976725036, 0.012437741794962844, 0.0630172220368256, -8.201652366865507E-5, -8.048763282153651E-6, 4.133816255105598E-5, -4.534234698258531E-6, 7.264203190472074E-5, 0.010613983537726815, 0.10176950659853622, -0.03241548452429158, 0.014456362431307344, 0.10741281892330926, 0.014433011615196304, 0.07412471065641994, -0.035140266590502, 0.04219138305785305, 0.023241128131752938, 0.1231812325095648, 0.15241785461927979, -0.2425456559121052, -0.051335727083382, 0.008491402130361196, 0.01515064369198357, -0.04668841475037325, 0.02555167752127548, -0.13899326825333266, 0.009605767706975714, 0.13326893779290222, -0.14037658467802572, -0.026536442684089463, 0.15316868492438968, -0.03239271674478628, -0.1944596832122666, -0.09482254795774334, 0.16921108292462259, 0.05346514353067696, -0.050070251203135775, -0.02978155113402239, -0.012783395926495576, 3.302217783523107E-5, -0.08774180250025203, -0.006969690535874704, -0.07948355152877253 ], [ 85.33953758870616, -0.18544401890149553, 0.24638466229307907, -0.007540579889271595, -0.04648671620771492, -0.03135909437543531, -4.4509432917916654E-5, -4.463527029281687E-5, 3.3139311523908424E-5, -2.0743802838317458E-5, -1.975610694699336E-5, 0.10346882989666974, -0.11991103795992263, 0.12308737695294648, -0.09555523605667653, -0.03146651310294158, 0.0969242526136589, 0.026389135138341492, -0.04155342088703291, -0.1024009713759212, 0.0799049175766857, 0.048007328261980016, -0.18702972927665948, 0.8023885808410696, 0.16196768145243146, 0.14496166922526793, 0.04864707752061661, -0.0016559538754208813, 0.009498655318582261, 0.32703219895356517, 0.00652544945810121, -0.26822394923422666, 0.2579507891368034, 0.04704427567750411, -0.2785676837669341, 0.08641661463387049, 0.3513075324350387, 0.3281116335053597, -0.2189633195741308, 0.31253013217536296, 0.16113263554448437, -0.07543259269501618, 0.009870968931656603, -1.4337788770467065E-5, 0.10313389281198779, -0.08846789877337631, -0.19107602859011033 ], [ 69.13801703252147, -0.1637425630944463, 0.12810654456891507, -0.0978157322279712, -0.07699207128699323, -0.036928968210760554, 6.505800468633572E-5, -4.1955836641834236E-5, -5.771058312912222E-5, 2.7297923943769742E-5, -2.1508471044171206E-5, 0.027058371881759156, -0.12875307219260107, 0.03209203271070915, -0.08914083227532069, -0.08317539879146292, 0.06363788365469088, -0.07996503213895641, -0.03624109622153921, -0.05958024828522982, 0.052018596904118315, -0.1581613729766923, -0.214286939568002, 0.33259036861710567, 0.05031238513689274, 0.008177304559784397, 0.006979350466522563, 0.058617357631796665, -0.025134446696849846, 0.18941680998112376, 0.019419922033716203, -0.18011868281378351, 0.19888002458006473, -0.013078237465671811, -0.23957557785030845, 0.02224151873662621, 0.21641302783524144, 0.10355879514569083, -0.23842771619044298, -0.04117073919806846, 0.04639605213933041, -0.006025110236517768, -0.016309879850670856, -1.6812541769617425E-6, 0.05387148570404836, -0.03161141474613139, 0.002314226828940262 ], [ 84.40859811123919, -0.2384005895468603, 0.20200043562955633, -0.04659556255274971, -0.028457319403136967, -0.08556139300464176, 1.6022748064379586E-6, 1.0950944689133296E-5, 2.1493099832251033E-5, 6.945175344614912E-5, -7.407796935448872E-5, 0.02663316617558594, -0.1762605172221356, 0.06612100328974534, -0.08542977327771963, -0.11140220126182242, 0.058260070959127656, 0.011427150540079742, -0.010066334463240127, -0.09445775401619633, 0.041402424814773624, -0.08049549122402447, -0.3029539187493572, 0.670576404121514, 0.046495598786477785, 0.07671509834167331, -0.009635487736150082, -0.05979057130012594, -0.03870736233981049, 0.2668263545734633, -0.06307083537187337, -0.32313736569742435, 0.19012039149793095, 0.04291336482948861, -0.26366626401874393, 0.09631232988808393, 0.3604859531995737, 0.20319818292472294, -0.32768707080322074, 0.18727125706487643, 0.04734734636261888, -0.06624514772634275, 0.009426216610980266, -4.653191591869891E-5, 0.11471541878773255, -0.06404006826313043, -0.10289951672424714 ], [ 85.1881740143076, -0.2053812575390991, 0.23390499091659692, -0.018882113744850264, -0.035641211803940885, -0.051432453694416146, 6.036403534048929E-5, -2.9208561459034103E-5, 7.531614790391808E-5, -4.818401125289047E-5, -1.308183899692827E-5, 0.07594281900016625, -0.13848474146127757, 0.10479375087289124, -0.08737642549074562, -0.060330310886641314, 0.08264164834932845, 0.027034091300027943, -0.027203957031842536, -0.10117810470166769, 0.06559754151423133, 0.004014425895153791, -0.2281421175699641, 0.7611869393929352, 0.12198000447547427, 0.12334925985183484, 0.02568651948906176, -0.02529102310012875, -0.00929183027757631, 0.3072789682281671, -0.018410203758439353, -0.2876767565575439, 0.23460878945086464, 0.05045341373986949, -0.27193851111826745, 0.09195165686265082, 0.35735593374107916, 0.28640589750250767, -0.2572982549110163, 0.2724347269110803, 0.12244330375917961, -0.07318450459048546, 0.008677641103259607, -1.7923963351476615E-5, 0.10814444396522471, -0.0803364568393221, -0.16247640285257872 ], [ -42.028008195640965, 0.08448071895173388, -0.10706125234034816, 0.0784771254508922, -0.015567729511628117, 0.011969814239127807, 1.696464494950795E-5, -8.091783647308278E-6, -3.881653924328512E-5, -2.643082904847023E-6, 2.1660611343764643E-5, -0.02521808043760329, 0.056556845387811465, 0.006950852287027801, -0.023657197048081637, 0.050046949230255086, -0.006686870268922899, 0.027562886617257795, -0.027953530933044774, -0.018203857613605195, -6.310430444866466E-4, 0.06045846990740511, 0.07389310214538274, -0.2111066473610901, -0.07445241904308353, -8.042699073689299E-4, 0.01825149513897609, -0.036160604639394585, 0.017026581221673373, -0.06474316784342875, 0.05813726176166905, 0.1358363194373109, -0.05312551555625208, -0.04008316497949271, 0.0938713800590829, -0.027331638513168045, -0.15545546695516607, -0.11006023453111483, 0.0865241989859075, 0.010149912671612308, -0.07317175872080517, -0.0832263589003437, -0.06578330357964786, 2.7006876689075975E-5, -0.036809070227437624, 0.02874027212230014, -0.022368457286419736 ], [ -85.11509538894484, 0.2115421538050589, -0.22953637195813945, 0.02269627167481871, 0.03279153650532009, 0.05771426753397281, -6.534399463078091E-5, -4.041594981654631E-5, -9.86929584298047E-6, 9.785636222834113E-5, 4.4877415169469805E-5, -0.06724840697774997, 0.1445499670838417, -0.09889179078188662, 0.08539863992673526, 0.06943288011823193, -0.07817268699814327, -0.026480744061181866, 0.023063081167166054, 0.1006966613629092, -0.061160815917384995, 0.010100572300519594, 0.24115707120424357, -0.7474294656971942, -0.10927194612759188, -0.11610192912845353, -0.01871419898387161, 0.03243713177695675, 0.01497776411840626, -0.30090490736953485, 0.02612957748885998, 0.2937515140737325, -0.22711466295432473, -0.0508687830543235, 0.2700217064848911, -0.09347163095297462, -0.35886891452949754, -0.27300124364290773, 0.26939764698748025, -0.2593430392282582, -0.10992186844544084, 0.0725966573827984, -0.008362843410949063, -3.496263194440399E-5, -0.10960974647875549, 0.07762148474201584, 0.153144831595311 ], [ -85.28186354294925, 0.194300683555862, -0.24111448835451887, 0.012410095910835299, 0.04152384868784853, 0.040404396604087435, 1.8912053653201637E-5, 6.155752743908736E-6, 3.595764764458089E-5, 4.3206186412553206E-5, -6.612120492594129E-6, -0.09134756741470101, 0.12796907122281181, -0.11507074186027916, 0.09155170385322002, 0.044162837355031286, -0.09068355138136243, -0.02703787393516334, 0.03511957597998712, 0.10192835400387842, -0.07362586049271842, -0.028739589523134386, 0.20517329061819117, -0.7845369560068778, -0.14427253397690867, -0.1356299807157061, -0.038329881310138404, 0.012210786031909207, -0.0011175697194826216, -0.31833172598433646, 0.004475046354037992, 0.2768591431367581, -0.2476465850535673, -0.04901232504249119, 0.2756473947437329, -0.08902513345106437, -0.35413423562212343, -0.309883304450602, 0.23584222514521552, -0.2951577072998422, -0.14413939138729698, 0.07442222622381214, -0.009412992239589316, 4.5524047321466236E-6, -0.10540725753636157, 0.08507742361881356, 0.17857759290802366 ], [ 85.2750981573128, -0.19553553787868244, 0.2403693481290281, -0.013097251896629343, -0.040761647660479544, -0.041477764807894855, -5.2058843678638414E-5, 1.4022247521371513E-5, -5.1412347245292086E-5, -4.60159102561182E-5, -1.8148084743569854E-5, 0.08968981341819712, -0.12902656374439456, 0.11399230232126062, -0.09110611315712064, -0.04588846767744382, 0.089776064198958, 0.027105569284060844, -0.034213893667502625, -0.10180038011274774, 0.07277817928310919, 0.0260966517665317, -0.2075833890711071, 0.7820428230894713, 0.14205935187746774, 0.13431833364505683, 0.036959250436403406, -0.013649647365087596, -3.026897691610707E-5, 0.31718355698098066, -0.006027594267823467, -0.27799150286479574, 0.24628883547500238, 0.04915247961604616, -0.2752450736695798, 0.08940779181967087, 0.35448898806041185, 0.30733749340303657, -0.23803560408360766, 0.29274696975004894, 0.14178852545578724, -0.07433368158719222, 0.009295236391854375, -5.3040564202323574E-5, 0.10568529925901281, -0.08454452338060026, -0.1768925254101863 ], [ 60.36586858988309, -0.14429941413149228, 0.14215244798135143, -0.09437690913702, 0.00782345706232064, -0.03875487084670628, -6.143559936887027E-5, -6.19907176815574E-5, -7.27303874392819E-5, 3.974453937664845E-5, 4.4716436183344635E-5, 0.013756930777805687, -0.09258741427181874, 0.0044843792988589195, 0.004683466144749871, -0.09252083211939051, 0.007455800383793046, -0.05247466380774092, 0.031771836361200484, 0.0016364477933313204, -0.0018168757965981153, -0.09831404434547847, -0.1387593321335855, 0.3043521807269025, 0.08188436565454793, -0.001372866523517922, -0.014603483572884752, 0.051770530297252954, -0.028495221888183233, 0.12399966238283476, -0.04991363188626437, -0.19085330214361715, 0.11126024268070481, 0.04338838177097096, -0.1518140028447276, 0.04269849892893248, 0.22227505258291913, 0.13742710179390327, -0.15594334977064214, -0.0172432719488677, 0.07951880055447663, 0.08165053287734866, 0.06545284446002403, -2.727456336527998E-5, 0.07213069869276753, -0.02966972576482532, 0.051032640565894447 ], [ -56.45614790549196, 0.1422789952733648, -0.13122918482480436, 0.08150726512306988, -0.008813570847153356, 0.04437630737107563, -2.873473181413195E-5, -4.742217231113421E-5, -5.883471319478328E-5, -6.500333261987644E-5, -8.116725631969156E-5, -0.005739521941948295, 0.08965648175642442, -0.011480772534897515, -0.007300104501749399, 0.09415661358045256, 0.005148396355541897, 0.0549704280903303, -0.03884325503229499, 0.007468549835212547, 0.013770486159893305, 0.09859532715164447, 0.13037440036514086, -0.2693783588773642, -0.07328298362115927, 0.004784347947321165, 0.017145267464305818, -0.04812735056431054, 0.02670539320628049, -0.11754685960530104, 0.042613403712046125, 0.16467141695202492, -0.108643595179948, -0.04176036712717514, 0.13957640114827585, -0.03929413943042988, -0.2062893656014873, -0.12265619435658624, 0.14644155087473487, 0.0292093846078015, -0.0713398432408969, -0.0698240959246891, -0.053497664616855435, 2.784033504881341E-5, -0.07579091342552595, 0.01563950222056399, -0.06306896400811456 ], [ -85.20349245959046, 0.203710399837873, -0.23516299423531095, 0.017784242542182357, 0.03650934020042483, 0.049658522331882296, -2.2756143115696052E-5, 3.8111547633663706E-5, 3.393604822997422E-5, -1.7249849408488452E-5, 2.5516729933373914E-5, -0.07851305713039886, 0.136768501292134, -0.10650840647680415, 0.08794545027405118, 0.05774555275195216, -0.08391110054353744, -0.027055415021539787, 0.02859007869477407, 0.1013742199096737, -0.06689560860886815, -0.007953189446838524, 0.2243999909307136, -0.765039760511845, -0.1254969892469458, -0.12534456301800004, -0.0276190764131195, 0.023217105473689808, 0.0076280772573090955, -0.30907942682329315, 0.016141038314691537, 0.2859510306539407, -0.23659890730566743, -0.05037110830466732, 0.2726596982108283, -0.09159133078685947, -0.3568166170937281, -0.2901647945971621, 0.25384715561840226, -0.27615734832642036, -0.12597690079181, 0.07339646091023258, -0.008824859291969668, -3.154128032871619E-5, -0.107757418137113, 0.0812605566637851, 0.16502675133421146 ], [ -76.16012989482485, 0.21806417515835322, -0.15050624230789003, 0.0826815124345471, 0.05783833970254825, 0.08049662034922472, -1.3455223362475484E-5, 3.1004931016401434E-5, 8.800553617471753E-5, 2.0910789621690613E-6, 3.658807288483493E-5, 0.01145545714327377, 0.15059385861613583, -0.04053936731204889, 0.08551850602736874, 0.13726810804863354, -0.028520483973165495, 0.08999183840192512, 0.012696676011485082, 0.05525425246490635, -0.015169991413951702, 0.15554305192582532, 0.2575774935460535, -0.4073459479300837, -0.040307695233213356, -0.013679698939656544, -0.016581724985003717, -0.05190527027764515, 0.02240925387807129, -0.22214150959846288, -0.005078647938052386, 0.22803200682181943, -0.21390494424354567, -0.001560914893809771, 0.2409953596163351, -0.0535096933737919, -0.27603839533060354, -0.1225431865463316, 0.27945333787707727, 0.008765586940728718, -0.03655450496978898, -0.004023494187322963, -0.011056213646802922, 1.674771299778292E-6, -0.11194798541980325, 0.018724457494397374, -0.05100690579647881 ], [ 78.64922467679413, -0.2231189066091947, 0.1539765755904913, -0.08392263486982221, -0.07369925891953864, -0.07971502374186436, 4.1408076814661295E-6, 9.790486037325492E-5, 2.020106091705556E-6, 2.805147196155359E-5, -4.0097992706653655E-5, -0.004329510502685644, -0.1591362386392145, 0.04170125967982286, -0.10756122093050799, -0.13253724797033428, 0.044077327625211535, -0.08916946089038953, -0.03202373854449382, -0.05697298938927922, 0.029905245917564265, -0.15701023677646866, -0.2794744830495106, 0.44654958807687384, 0.03267140894792127, 0.024918057456512002, 0.02822996689250355, 0.04621756552130685, -0.01478578221282734, 0.23646450322961507, 0.003815139894455408, -0.2495546604432705, 0.22125707002697811, -0.00973089167519041, -0.2574343879367605, 0.057067196150392345, 0.28881554097414636, 0.12491324648187097, -0.3023835768395118, 0.012484573101320869, 0.028429339522487974, -0.00970160985954287, 0.010462387646337156, -1.0230309601132735E-4, 0.11209954868153328, -0.02380292265093487, 0.027362146310763273 ], [ 85.22615615455668, -0.20145265518709343, 0.23658869635886215, -0.016567798569509833, -0.03755044645105081, -0.047394959904558734, 1.201371707686874E-5, 2.0461857796157716E-5, 2.5003668185500583E-5, 2.132549760139025E-5, 9.430040912607989E-6, 0.0814918751178516, -0.13467616816633415, 0.10853860586729894, -0.08880098336191687, -0.05455760975474287, 0.08544658533563528, 0.02719284673650003, -0.030091030320595125, -0.10141587520653454, 0.06852062999699221, 0.012863130184764475, -0.2198217170527809, 0.7696890867683032, 0.1300278061511997, 0.1277671593159333, 0.03017211396725253, -0.020646470430194637, -0.0055508623568612005, 0.31127350682814836, -0.013395348200208932, -0.283748562094014, 0.2392935951578833, 0.05001331415840986, -0.273314183100622, 0.09101022135794258, 0.35626154694345497, 0.29491390288069785, -0.24958845502137822, 0.28074158779343084, 0.13027693703386278, -0.07369843966952896, 0.008973616831973437, 1.2034932973804028E-4, 0.10716589453989847, -0.08212266079232972, -0.16825119722379797 ], [ 85.3434526872945, -0.18476460422324864, 0.24677294216215948, -0.0071890794765830076, -0.04695235503054866, -0.030621615126894822, 3.8862332320523145E-5, 8.999686640332361E-5, 1.428675305106203E-5, -6.915949120898989E-5, -2.0026216493200805E-5, 0.10448775356476396, -0.11921195337584989, 0.12380096600713923, -0.09586854108771052, -0.030375006842522954, 0.09751569332107533, 0.026285746838133527, -0.04216802331435894, -0.10250037214553931, 0.08045580143559866, 0.0496663053980858, -0.1856241626572373, 0.8039082001936655, 0.16340007012478427, 0.14574230013133566, 0.04951382380691129, -7.637192556802725E-4, 0.010132312329854233, 0.32770123073610813, 0.00745658990879299, -0.2675418683518292, 0.25890274698060506, 0.04688318914591031, -0.27886757759452474, 0.08624438385426114, 0.35099284084543836, 0.32952596520585337, -0.21750744916344347, 0.3139536493905047, 0.16251050390163974, -0.0755235153860619, 0.010021655725331266, -4.830293646140324E-6, 0.10303234531506981, -0.0889104666132686, -0.1919906788391815 ], [ -85.37065897234889, 0.17859560485930162, -0.2502645359138139, 0.003846245727992476, 0.050796688424746786, 0.024418672572077936, -4.192654582016124E-6, -2.9096713185111445E-5, 2.5755332841251644E-5, -4.3469263750731216E-5, 6.667546297096335E-5, -0.11288287114821456, 0.11360838588785101, -0.12931202047181364, 0.09889697847833435, 0.02143457972745182, -0.10202976623322885, -0.02549577827192183, 0.046814711084449755, 0.10273306598605289, -0.08495229293076056, -0.06309151914251239, 0.17287518301750907, -0.8161545479301384, -0.17563671126784353, -0.15215554789122657, -0.056865862040362085, -0.006714642366893859, -0.016053093741256172, -0.3337369214095736, -0.015243962230587453, 0.26139853525041684, -0.2660679513258868, -0.0452502961362698, 0.2810031734922216, -0.0844458218696834, -0.34880933141397075, -0.34224256349591964, 0.20573483069071308, -0.3259878901885483, -0.17432592659664795, 0.07626190554375148, -0.010333966802500202, -1.7054152553245135E-5, -0.10139531547911373, 0.09118940396230572, 0.2005463860916853 ], [ 58.49031760476103, -0.1685291373601778, 0.11938714876331377, -0.06759491053540055, -0.01969562854595918, -0.06562834983344629, -2.1728207833035998E-5, -7.259437279981648E-5, -1.3498121970837893E-5, -6.435370329224111E-5, 3.43472192668765E-5, -0.011099803220122616, -0.10747734442843448, 0.03493359331154322, -0.023190308299923426, -0.11082461144058782, -0.009956889118325776, -0.07871693338017291, 0.03040765377773924, -0.04803809002750263, -0.019222840820401606, -0.13097914622727042, -0.16462363755680523, 0.2553165161998634, 0.04982304198451772, -0.007809782031287771, -0.013411009792870666, 0.048969720236346284, -0.026580978606615898, 0.15011181736889537, -0.0033886048644710663, -0.1394546732146234, 0.15213332159162057, 0.023182439085335408, -0.16527377209382588, 0.03271315702025028, 0.20084362846147208, 0.09534505850946194, -0.18212612657889482, -0.05417126708471587, 0.048716971445439024, 0.024588349044547243, 0.007099786772724845, -2.385080954809691E-5, 0.08975809813949355, 0.0057001612181764374, 0.07822649294788195 ], [ 85.29856696721839, -0.19227080979275435, 0.24238585470279383, -0.011287258459150518, -0.04257473322213165, -0.03821341003702301, -2.111155405545597E-5, 6.56382892638501E-5, 3.362385661299085E-5, -6.130252189783382E-5, -5.773614718228374E-6, 0.09421698364682972, -0.12601670979085805, 0.1169724104103869, -0.09248473873598168, -0.0411921357633654, 0.09214849446663954, 0.02693863018912169, -0.03661270370178227, -0.10194636016411353, 0.07508726755733539, 0.03327447664329388, -0.20086779942091576, 0.7887626992973987, 0.1485256692623377, 0.13781223866169667, 0.04076814783327156, -0.009813576717988439, 0.0030662736908517157, 0.3204314628193841, -0.001971148642402677, -0.2747833994408817, 0.2501268599110715, 0.04852095436438451, -0.2763261819655834, 0.08849766700993104, 0.35344669833967346, 0.3141818162155619, -0.23192036620086307, 0.29927039017726786, 0.14819533109748567, -0.07472834806619674, 0.009494324702972061, 2.8204290045661662E-5, 0.10491426511873568, -0.08595676835027835, -0.1815175952175251 ], [ -85.06225190547066, 0.21547384972571648, -0.2266875595803975, 0.025232045040054874, 0.0312790902591838, 0.06158436763313947, -4.8920011067747067E-5, -1.0815818891394036E-4, 2.293054010243815E-5, 1.3044706251643335E-6, -3.902517623804312E-5, -0.061889958597748145, 0.14848652409452576, -0.09505897914679555, 0.08437638264415528, 0.07503863791528458, -0.07538903702176782, -0.025844581044016112, 0.02071756346883228, 0.10043509143847323, -0.05843341398822209, 0.019018738348500198, 0.24925446463560547, -0.738628746561531, -0.10126076975471411, -0.11154417411044734, -0.014328026682583435, 0.03678116474149028, 0.01849047630405148, -0.29679083455310873, 0.031068426847217893, 0.2974532501015789, -0.22251004885153874, -0.05107899243570448, 0.2690115233927805, -0.09424698555452671, -0.3597679706901791, -0.2642609040716538, 0.2770673710121098, -0.2509379127887822, -0.10206473066166907, 0.07207962940108063, -0.008172249300846238, 8.27331446739176E-6, -0.11064710303619395, 0.07606008586395054, 0.1470454345229256 ], [ 80.66265123331998, -0.24088302754964208, 0.16365052861779894, -0.07580627029375293, -0.06496540312903304, -0.09473854824066073, 1.1275441904590197E-5, 5.9315182614422E-5, 7.236560788483296E-6, -6.315796577237153E-5, -5.948218650643035E-5, -0.01078509963260908, -0.16748014919365095, 0.04472312891435885, -0.10712979936125368, -0.14396621481974198, 0.030089370052623687, -0.08578557895480944, -0.023732151110631837, -0.05347671922490317, 0.015196219593801168, -0.1459552199649985, -0.29563770946179896, 0.48744648522644674, 0.02638980339067592, 0.0321373688906775, 0.03385279205929169, 0.03490415204747394, -0.00890661147431531, 0.2460748970617006, -0.013904282048386373, -0.2752265257083809, 0.21520984818677177, -0.0038892448706542466, -0.2552867271099787, 0.07133648834512199, 0.3138965031893028, 0.1364709765449141, -0.31790389046886885, 0.03914171655114366, 0.02206249457261325, -0.010606422813383748, 0.02743527257930359, -2.999012507456645E-6, 0.13172961349024614, -0.019082916080030658, 0.029155099306910667 ], [ 65.77566419317363, -0.14841446080741563, 0.12122336682480475, -0.09798029617441642, -0.07609518802584239, -0.028069761848687164, -3.799385758541594E-5, -2.993378622670601E-5, -1.781028479555362E-5, 8.947581430170209E-6, 3.3744394324155706E-5, 0.03429804421005185, -0.12017223426187855, 0.02995738550907821, -0.08356814705972743, -0.07015102678530673, 0.06496263752897698, -0.07613606206275997, -0.03569660989302278, -0.05877829149268282, 0.05400402187892423, -0.1539555705579413, -0.1967660712666452, 0.3056800354042609, 0.05228548276436874, 0.005974457044155165, 0.002964474640827128, 0.05814899280873348, -0.024801521281232107, 0.175274199172885, 0.01892955823740253, -0.16314066983555975, 0.18760896735194985, -0.013312307549505527, -0.22991157074459964, 0.015947433900441902, 0.19852357641964494, 0.09748677522638255, -0.22081374628877712, -0.04831805270597561, 0.04844699042207414, -0.005832570768291967, -0.019669900131661082, 2.422429441293001E-5, 0.04130694329734497, -0.031076542440802494, -0.004815177248522933 ], [ 82.0363380082503, -0.24986369724263507, 0.16202030366860012, -0.06710492109645548, -0.07917883114732269, -0.10079913479206656, 2.6700957433317813E-5, 4.286009952411727E-5, 1.6770353301287935E-5, -2.3460834445894658E-5, 1.5832669581563333E-4, -0.008016674341141013, -0.18071603661537772, 0.05451208907145318, -0.12937843029843518, -0.14228398802344103, 0.03397527382839517, -0.08764232272298299, -0.03131844379102675, -0.06932792612105126, 0.018178367427918587, -0.1447877856781293, -0.31735197213728056, 0.5178860486328374, 0.013207659696923273, 0.03754381861523216, 0.03656994604202683, 0.01879121864341563, -0.006243316020367415, 0.2616356685114562, -0.01591385987802898, -0.28453019074134844, 0.22081485581320184, -0.01603431541072355, -0.26821542861887787, 0.07327618861117502, 0.32166646800274273, 0.13531921430048888, -0.34118129647253564, 0.05799239540334129, 0.008350601244224222, -0.038878208252142304, 0.017137483651494246, 1.0424337742913762E-5, 0.14120568069907022, -0.012099816591530822, 0.01146618869334399 ], [ -46.399002844457456, 0.06525122504844322, -0.11390105486337475, 0.10475828355072009, 0.00960146608293314, -0.017846657132680795, -2.3268090614174775E-5, 4.563236286196986E-5, -3.316329947890174E-5, -1.796124761102825E-5, -5.939521393668457E-6, -0.05976002660923835, 0.05749522554145867, 0.01782476602660898, -5.2697668542387E-4, 0.01894156527482231, -0.05347579389407855, 0.021067083570181177, 0.005045849382700366, -0.02195359498126349, -0.046602985425855725, 0.06763779334105575, 0.08012212550451053, -0.24562155071494934, -0.08702211563810283, -0.009667069599807319, 0.014161205687332668, -0.041896821744560976, 0.01802153413671468, -0.06914350470168264, 0.057702517192846726, 0.15803731306066657, -0.05963781345689191, -0.02559440898767295, 0.1259216337677141, -0.01568266446191497, -0.1556581627472345, -0.12139886212263455, 0.09682984459291766, 0.002120811629365429, -0.08463534259475976, -0.08409630994492179, -0.061699278260863084, 7.55680995996579E-6, 7.59949865017748E-4, 0.061049708262211996, 0.033116886750256605 ], [ -72.5026618618198, 0.20811954294420676, -0.1486825591852316, 0.08169148002213643, 0.03334677377334037, 0.07886647918506971, 4.071989716683054E-5, -8.35739340003898E-5, 3.8699908713093625E-6, -3.779994903364402E-5, 1.6693346153111526E-5, 0.01465194402044817, 0.1376028457348659, -0.03542506104981925, 0.05395667535324756, 0.13728333220041106, -0.00919278971795872, 0.08497498583593832, -0.011526763050453238, 0.04727458276823273, 0.003049542909664649, 0.14513464498157613, 0.22613007144796016, -0.3667879721893008, -0.051778443724643686, -0.0026106899272736253, -0.0028019851446793383, -0.05539362207272174, 0.029076795846631368, -0.1983151221157797, 0.005058612946780839, 0.209304085635793, -0.19275110651769603, -0.018626482774082652, 0.21579176074370143, -0.051418572713766444, -0.2625199445198458, -0.12492387774460578, 0.2464456625277299, 0.024870499776367024, -0.04860959945084073, -0.024898277301099024, -0.02105862015839775, 7.962525374678386E-5, -0.11080057882718976, 0.014082196950661183, -0.07358438774414881 ], [ 85.21981120790825, -0.20216925538986089, 0.23620744407957148, -0.01678863276122036, -0.03722422691352668, -0.048247166073457394, -6.892280544692829E-5, 4.338807388230732E-6, 5.1439228053165E-6, -2.9568273724238868E-5, -3.8641945340373654E-5, 0.08059887014077212, -0.13529297726386474, 0.10789679400696568, -0.0885657072004015, -0.055505116858983114, 0.08510737124532908, 0.02705468439774707, -0.02963093913029023, -0.10142816168104406, 0.06798765175299953, 0.011355755857364308, -0.2213050253902921, 0.7683050943849792, 0.12866926499578263, 0.12701362533809962, 0.029335768617764435, -0.021425150194082813, -0.0061515137830734055, 0.3105353639318447, -0.014274299650139148, -0.2844942519137312, 0.23846559449129434, 0.05018427033784921, -0.2730806744761229, 0.0911689383169727, 0.35637423641509847, 0.29340965295771193, -0.2508943486980062, 0.27932373547929323, 0.12887405268770566, -0.07353899373502909, 0.008876688823200266, -5.503212804161273E-5, 0.10740358884385498, -0.08191159758499882, -0.16731316946174374 ], [ -85.28786257391273, 0.19361418572154812, -0.24160795067601254, 0.012055858038828908, 0.04181974619825513, 0.03951374659354539, -3.198871667585242E-5, 4.76142589362343E-6, 2.246816983058714E-6, 7.00990113434632E-5, -1.4795243637866348E-5, -0.09239165542462763, 0.1272779815425946, -0.11579402760634742, 0.09200621283761976, 0.04314855459169208, -0.09116318083320776, -0.027052168649457774, 0.03558700960097642, 0.10194353598198715, -0.07413169894532612, -0.030332866949826644, 0.20358048418763466, -0.7860662043601873, -0.14592568975837003, -0.136375450077409, -0.039183807048834444, 0.011368449756928552, -0.001825532130581313, -0.31909077871512137, 0.0035221712575078776, 0.27607836006443626, -0.24851458471801055, -0.048777127760764115, 0.27588584659103127, -0.08884322846466544, -0.3540022527279853, -0.3114693148133696, 0.23443645316991402, -0.296645220727419, -0.14549370949783832, 0.074534010435394, -0.009498776839923857, -7.47019281634283E-6, -0.10519560044803493, 0.0853491585011756, 0.1796935405037183 ], [ -55.32498818506144, 0.1236777209523983, -0.13322076125196317, 0.09249126439999318, -0.011299450273101004, 0.027558637997711535, 4.854228554683824E-5, -5.76310176493158E-5, -8.721794293332138E-6, -1.5744829128318134E-5, 1.7107936178833894E-5, -0.02177140393596814, 0.08108985960232899, 4.162271234565734E-4, -0.012041922847046766, 0.07604590654475771, -0.009124576409457255, 0.04363983532624537, -0.030504114023141505, -0.008817922208117142, -7.048463796578581E-4, 0.08676713273623265, 0.11570336474779182, -0.27539341777694737, -0.0832673460012692, 0.0010685600834437305, 0.01696447367761716, -0.04827749727137728, 0.025656352127812938, -0.10319369039844992, 0.05560734072892736, 0.17445601561539195, -0.09133500402141821, -0.04371109128081044, 0.13524196621898993, -0.037376381137175195, -0.2021595061348656, -0.13178481109506723, 0.13200581471434994, 0.017756711762844758, -0.08106253955749478, -0.08512606994397748, -0.06798515381375976, 7.382037426412535E-6, -0.058002419625589635, 0.031107659601503287, -0.0393823890842682 ], [ -85.15363620051826, 0.20837646181663777, -0.2318651670456114, 0.020614989894032244, 0.03423632486723821, 0.054511035135261225, 1.0071930573111505E-4, 2.9564785480354652E-5, -3.74686601924351E-5, 4.732942944108369E-5, -1.4477500032004513E-5, -0.07175936490818205, 0.14138081749871068, -0.10190998559963901, 0.08639946019467222, 0.06471595890132588, -0.08055876928443342, -0.026816843917106627, 0.025208521647308083, 0.10095851285594518, -0.06353406841178497, 0.002728909228786658, 0.23435692146239584, -0.7546056842075384, -0.11591098401591383, -0.11990884222752002, -0.022338751478524432, 0.028743810736385877, 0.012017696198433559, -0.30422319258571423, 0.02215222542497732, 0.29053668095804935, -0.2309923445047222, -0.0507696854046621, 0.27112395658696764, -0.09271431122862495, -0.3581728051648274, -0.27998124026490256, 0.2630679145585443, -0.26628635517319527, -0.11647338252058351, 0.07292685786481815, -0.008515332639063324, 7.608149776140949E-5, -0.10886125938719382, 0.07904758296732978, 0.15803046673616614 ], [ -70.8604868417135, 0.19859041377526807, -0.1377956354694555, 0.08120435663441321, 0.0492014086834945, 0.07137588787421494, 1.1538063298060818E-4, -1.4501144155989541E-5, -8.218123163721963E-6, 3.7109457946478156E-5, 3.342601140208214E-5, 0.007153274273094458, 0.1367131763873212, -0.04011990959778897, 0.06649877436283819, 0.12445988709313377, -0.02014442983229214, 0.08845966308666448, 3.3446795810077214E-4, 0.05953726417666901, -0.008222772963785931, 0.15463760880612168, 0.22419904461894985, -0.34233396028311236, -0.04638911225093049, -0.0016023343391815528, -0.0027462947506377232, -0.05630469533793771, 0.02840102473064657, -0.19832146861671163, -0.010414155356392384, 0.1882406481137499, -0.20081726132495728, -0.007026027074278005, 0.22322360193815266, -0.04028144267752725, -0.24310733531206977, -0.11070905243459842, 0.2455482477403531, 0.039510475123246305, -0.04340865064076671, -0.006868229820135303, 4.25158124676785E-4, -9.061703979084856E-7, -0.09750366328761229, 0.01115466354381604, -0.05998496749093172 ], [ 85.37311841256647, -0.17837422170100217, 0.25042882448991366, -0.0038273900995982922, -0.05087641778925465, -0.024280076906001303, 8.848723524185987E-5, -8.731706458741078E-5, 4.135729129478154E-5, 2.1708069506745435E-5, -3.789703964411727E-5, 0.11315941597403771, -0.11348055108411438, 0.12950781314728774, -0.09907908456108216, -0.021165558262131186, 0.1020388924645988, 0.02534859603468428, -0.04704797692558682, -0.10282097336029924, 0.0850137206562777, 0.06337796049216475, -0.17259189747373974, 0.8165455801598092, 0.17598589129079573, 0.15240668719455858, 0.057064439675749284, 0.006935682129237017, 0.01630071434327438, 0.33383091762310485, 0.015486639051759036, -0.2612907162422928, 0.266291995968965, 0.04535361946793631, -0.28107204663412777, 0.08427544940399646, 0.3487978643512454, 0.342467504755493, -0.20544183317162185, 0.326357974197114, 0.17463847766675739, -0.07623065057239702, 0.010323934971002117, 6.641304193989702E-5, 0.10146911914327852, -0.0913254005599883, -0.20084588268048006 ], [ 85.05729979827875, -0.2159915404653217, 0.22631940912222048, -0.025494793791083836, -0.03108109920035074, -0.06218285272724721, 9.449557770134666E-6, -5.219658804734707E-5, 3.568940092316908E-5, -3.3029942375000664E-5, -3.180167076374993E-5, 0.061138119755051075, -0.148972657065812, 0.09460979017227039, -0.08424976840991326, -0.07574270187938864, 0.0751375677794768, 0.02570535997721775, -0.020483424771603868, -0.10030483152323684, 0.0581506481804413, -0.020167505263151815, -0.2503403158259963, 0.7375473810526284, 0.10014213626150248, 0.11094508114944242, 0.013779427310376121, -0.03726417069857008, -0.018988498854975087, 0.2963249505765187, -0.03171427400791439, -0.29797198483228926, 0.2218480748202331, 0.05102534755917303, -0.2688980418813215, 0.09438443760074779, 0.35982444040343764, 0.26321388207912805, -0.27800158213596504, 0.24980440210858693, 0.10109517819633378, -0.07199439655715316, 0.008108796696111184, -9.778976542752341E-5, 0.11074451563291868, -0.07582586635900446, -0.14623420494915232 ], [ 82.13194427484719, -0.25023955612340393, 0.16233471737226524, -0.06641130997668138, -0.07859735625363921, -0.10097248633152045, -5.13788235788043E-6, 3.509901346708787E-5, 9.947650818720576E-6, 5.837748106259227E-5, -2.7294977344765113E-5, -0.007484900168744382, -0.18153536318209793, 0.05479913418411416, -0.12943289996141596, -0.1420792402660111, 0.03370563967083976, -0.08693746038752637, -0.03034802444636245, -0.0688917360241885, 0.018027880696779526, -0.1434508531878543, -0.31815850124143064, 0.5211798802174537, 0.012748582302897849, 0.037775183252817604, 0.03621802274903692, 0.016861113086602264, -0.006461397296225217, 0.2622353490462833, -0.017505010536903644, -0.28648153609775273, 0.21989990252769176, -0.015788339589884032, -0.26811370633723786, 0.07404244110298297, 0.3232405626563216, 0.13652837819083327, -0.3420908653789563, 0.06036381670236635, 0.00801725512352446, -0.03914478437624539, 0.018084336392910797, -4.352026358754472E-5, 0.14160960075151835, -0.012544206656227071, 0.009934475086459752 ], [ -85.36909414920709, 0.17897200186273585, -0.2501322038378291, 0.0041154662636017055, 0.05050428683241204, 0.0248783954622679, 1.6914719089307503E-5, 3.9712890219235996E-5, 4.4324457729299496E-5, -6.265809598214986E-5, 4.951090261747741E-6, -0.11239933981970623, 0.11399343272816559, -0.12892210895150974, 0.09877514252550737, 0.022044152844791817, -0.10166493778453528, -0.02544374668715332, 0.04658103076178657, 0.10273282111138658, -0.08471567304024917, -0.062206606435755506, 0.17374314313700018, -0.8153879218335143, -0.17488835677252706, -0.151745310703265, -0.05637929773607892, -0.006295699740892471, -0.01570711095423911, -0.33335505691073536, -0.014726886429945876, 0.261811459888119, -0.26566475019394653, -0.045488468568927985, 0.2808528466881177, -0.08445903314714494, -0.3490170183299359, -0.341319544337749, 0.20651679286236288, -0.3251967566591373, -0.17361718381425997, 0.07626058063115966, -0.01031020440982791, 8.037986669733544E-6, -0.10156340032622929, 0.09113656589542533, 0.20002357542283206 ], [ -64.71512808214483, 0.10414341968591309, -0.13807296404611072, 0.1273228498813513, 0.05577693303940125, -0.01467667213125067, -1.610218004021429E-5, 1.1683987744866413E-5, -2.7104234378321435E-5, -5.021557044130441E-5, 4.4161319316679346E-5, -0.07185145935329938, 0.09661410865198955, 0.0046223864985452945, 0.058670874154742654, 0.03284788186661972, -0.09602011211661962, 0.04445117437805772, 0.04081763682725413, 0.007087920876979649, -0.08553085578648571, 0.1149474456415594, 0.15596232018058115, -0.341541900701894, -0.08787751754464651, -0.014856716634688204, 1.4298730198960676E-4, -0.05919991520954579, 0.026281029475257515, -0.13752491246033538, 0.026522320715976967, 0.2061141218599675, -0.13729717349253528, -3.600620434455632E-4, 0.2129395769611862, -0.015860331626153204, -0.2029532081199969, -0.13739051356339094, 0.17991871647685362, 0.009302121867455902, -0.08275898973235432, -0.05327091998983846, -0.034248581490049584, 1.6250466335398843E-5, -0.001565567821036625, 0.07773036712981174, 0.05523380384101409 ], [ -74.04996046651341, 0.21362680840129541, -0.1537381008963517, 0.08265570720217584, 0.032554989193289606, 0.08155423462625691, -2.0981097971963693E-5, -4.88782335406591E-6, 1.2178415048171703E-5, 2.193945578512652E-5, 3.8869246415971285E-6, 0.016206391862101033, 0.14082080879536665, -0.0341858322335557, 0.05617752483437255, 0.14168539440323205, -0.010058397239214461, 0.08407887727386716, -0.01016647800264783, 0.04345695140698588, 0.0025614283594412026, 0.14312240371953056, 0.23388837776782476, -0.38697071303025415, -0.05187239226929782, -0.005909800052330739, -0.006185140917876711, -0.05433729282592452, 0.027766829473809387, -0.20343042964267968, 0.00957267052619138, 0.22302470295635266, -0.1939335956215437, -0.019475946334544608, 0.21867348899356112, -0.05649418590068099, -0.27380218136337464, -0.13069570717255088, 0.2541371709723815, 0.014707585154368518, -0.048465753239120474, -0.027986320940371876, -0.02813681334628886, -3.176887947433588E-5, -0.11581358685072525, 0.01723048322952056, -0.07288553729344445 ], [ -84.96377351720561, 0.2213712467450658, -0.22170407824767055, 0.029398354007770765, 0.02915260257261913, 0.06774227772633541, -5.2885401988934374E-5, -3.8753454731614505E-5, 2.002189643962046E-5, -3.9181168139089616E-5, -9.011586153107571E-7, -0.053065696140980674, 0.15481079859855393, -0.0888920268762379, 0.08317316162010799, 0.08409193815817238, -0.07110091229295688, -0.02439125174456503, 0.017046731087911795, 0.09960800069680564, -0.054112488321156525, 0.03337552005901137, 0.26231736227000485, -0.7240416463410324, -0.0882594379145649, -0.10397418995918553, -0.0077080161295705425, 0.043419058350517625, 0.023966042725373733, -0.29028501171500004, 0.03874645103557933, 0.30363996342555144, -0.2149745714904135, -0.05062693355921283, 0.26733694858338763, -0.09555420028778683, -0.3608464626200716, -0.25045802133513667, 0.28926376674827725, -0.23711710203218658, -0.08942777339566059, 0.07128241559861141, -0.007925466732903093, -2.95799658216899E-5, -0.11189116331557898, 0.07310616531217048, 0.13728471589922583 ], [ 85.35260596834988, -0.18278057758929933, 0.24785828025439535, -0.006209464717653625, -0.04812781368226359, -0.028700099433335378, 7.3979681402339134E-6, -4.283414476241551E-5, 3.899935482372131E-5, -5.2851494935837525E-5, -2.9050044754384296E-5, 0.10706875845245059, -0.11748611423041236, 0.1254334139645175, -0.0968100224756198, -0.027591405220454463, 0.09877989128605127, 0.026052069191788572, -0.043561147667262795, -0.10253838199831475, 0.08180696851589239, 0.05366399252705862, -0.18176731699774773, 0.8076399738055141, 0.1671313697622464, 0.14771704847743275, 0.05173884408568444, 0.0015198572961960222, 0.011992302091831004, 0.32961616899786206, 0.009811285296591041, -0.26558585911368104, 0.2610871424552439, 0.04650553468325196, -0.27945657585139877, 0.08565720843418817, 0.3502832553201111, 0.3335421057487107, -0.2138307806389463, 0.31771553363330324, 0.16609595815758413, -0.07569500164240801, 0.010039954836107198, 3.227487254351511E-5, 0.10249985103550281, -0.08956480268696404, -0.19465620280693638 ], [ 84.05046695815044, -0.24106494129535164, 0.19322807172824638, -0.05524520129608682, -0.03309342753584958, -0.08891222521115032, 1.2972397181204018E-5, 1.9951365989090335E-5, -7.3410730577481595E-6, 4.0904160488791697E-5, -3.763388240167378E-5, 0.020100453530723306, -0.182835478009795, 0.05689969004305019, -0.09067963238978448, -0.11788100447761118, 0.055103404124434534, 5.539777727485726E-4, -0.011752149566961438, -0.0888240763938404, 0.038345851500297685, -0.09464458746085888, -0.3133006007029457, 0.6487676335507195, 0.03443370848903923, 0.06639804103022848, -0.010300065295601355, -0.05907726674522431, -0.039566857864753224, 0.2579924782735772, -0.06986910879118345, -0.3294125638194599, 0.1819549560770864, 0.03505284927830982, -0.2634874250279163, 0.09424613068285033, 0.3573879351111361, 0.18827348438199373, -0.3376225158631317, 0.1678212208710672, 0.034507495087152354, -0.060987504784178914, 0.013366551695986849, -2.341296427390384E-5, 0.1142307901482018, -0.06128194942515587, -0.08980555746608658 ], [ -84.96859947050206, 0.2211040147814918, -0.22201840964785746, 0.029268051556549622, 0.02915092010853588, 0.06752250771574218, 6.172185955076103E-5, -5.854407033381664E-5, -1.5419553550122595E-5, -9.11914752568782E-6, 7.36623123080172E-5, -0.05352569451682031, 0.15450854975294942, -0.08903964777047521, 0.08320223856782276, 0.0837024328181043, -0.07120109684670552, -0.024393847408850543, 0.017144650561571377, 0.09972790537056862, -0.05426943865318111, 0.03274264866846009, 0.2617233593524986, -0.7247744795137325, -0.08883515122365021, -0.10429491453509598, -0.00794003435779131, 0.04318272655546054, 0.023771816850829987, -0.290501807193845, 0.03833207275841002, 0.3033248121637494, -0.21531407996722224, -0.05066306881058663, 0.2674403052672365, -0.09544330492167194, -0.3608075377834989, -0.25101819292607175, 0.28877990024297356, -0.23769173692523293, -0.08989802126091041, 0.071347022215156, -0.007892541493009199, -4.394627871864441E-6, -0.11184137191053488, 0.07326918200509731, 0.13771136028540865 ], [ -85.031945846192, 0.2174008717591258, -0.2249928418720075, 0.026523178035503928, 0.03043211220019461, 0.063705604568917, -6.308480015003672E-5, 4.9246953062603876E-5, 4.3467101812352646E-5, 6.452429255021166E-5, -5.0435351386044286E-5, -0.05893315724688239, 0.15051467298849666, -0.09293939376621603, 0.08394685357576653, 0.07814400860951651, -0.07394284106584058, -0.025424002654516102, 0.019369828492164506, 0.10016896353300202, -0.05693718877136658, 0.02386034270785696, 0.2535903865273665, -0.7338609319740599, -0.09689087269923506, -0.10907760683781191, -0.012052532721237193, 0.038950630110999605, 0.020411064177086095, -0.2945939734563731, 0.03363217942752671, 0.29954162046615357, -0.22001219334394945, -0.05090689745208545, 0.2684705270912666, -0.09479098963456324, -0.36020571449480127, -0.2596909012592479, 0.28114611511104115, -0.24630377861626002, -0.09784877931616852, 0.07183378377546426, -0.008074586198166206, -1.7868517918169312E-5, -0.1109835546783571, 0.07499446062650221, 0.1438687625896345 ], [ 85.17554491649081, -0.20656565675094238, 0.23308705726623521, -0.01958051567523158, -0.035063863050813555, -0.052652007105881506, -8.574989148901236E-6, -6.50213623216055E-5, 5.5457116980567974E-5, 5.823621353058054E-5, 8.60552483644029E-6, 0.07427574833201242, -0.13962819024088752, 0.1037176631121169, -0.08703486251005176, -0.06207150375466693, 0.08182075830989816, 0.026939622891907596, -0.026496345284013068, -0.10113389137990017, 0.06480681893099377, 0.0012994772642653005, -0.2305689465593352, 0.7585901033337507, 0.11960898923833509, 0.12200369367679738, 0.024294920265435963, -0.02662688777335461, -0.010320115844443728, 0.30612661607752945, -0.0199099098259106, -0.2888019142162743, 0.23310785804941117, 0.050690390353206834, -0.2716473870021924, 0.0923048076247954, 0.3576371799655517, 0.2838796706971761, -0.2595938211878442, 0.27002703348731355, 0.12001791435314992, -0.0730827720014134, 0.008660041050106232, -2.2264178388790907E-5, 0.10840272396506748, -0.07986091385408763, -0.16064519739725638 ], [ -84.46696380933919, 0.2373822152044951, -0.20361899324490731, 0.045059451532637254, 0.027952261594962415, 0.08444925405679397, 4.4334549745288035E-5, 2.8206424895348896E-5, 4.212808161220329E-5, 1.9560709424413395E-5, -6.583865635545885E-5, -0.02818598153378381, 0.1746828737624274, -0.06792623032444474, 0.08466507967135295, 0.10971132426675041, -0.058915247393901284, -0.013118499465622352, 0.009960240871325597, 0.09508500354250575, -0.042224439807420355, 0.0772244625659077, 0.3003784825957104, -0.6749005250776831, -0.04933616064896635, -0.07883167291953291, 0.008848714327220975, 0.05924975164525585, 0.03796666734808261, -0.2686361286433322, 0.061426997015921345, 0.32179204274465395, -0.19199076035553822, -0.04400634674839189, 0.26375820208618717, -0.09651396437407021, -0.3608483288463126, -0.20672765231063672, 0.32515129290867323, -0.19119340992957784, -0.05027578841709913, 0.06698109464784416, -0.008989900108466304, 4.0503278198897975E-5, -0.11463856359071115, 0.06455844882144399, 0.10566910704142626 ], [ -85.21711560964964, 0.20227698149480564, -0.23601277007352148, 0.01691362076739439, 0.03726868498915109, 0.04824066250467822, 1.2458525145175544E-5, -2.6161226145960356E-5, -5.696332791452207E-5, -1.816190071063797E-5, 2.9159588500442744E-5, -0.08031095831067005, 0.13544181868715247, -0.10764259867894103, 0.08842503196513847, 0.0557133961071353, -0.08490075538943785, -0.027223631920782778, 0.02937341391498722, 0.10143634767300082, -0.06780931924399439, -0.011161238494570177, 0.2215637546520847, -0.7679468579005334, -0.12833114992362132, -0.12689675311903026, -0.029208010213648633, 0.021626844013838686, 0.006371513220402707, -0.3104891350177256, 0.014423930528287558, 0.2845832919400032, -0.23832056874770036, -0.050094660575013626, 0.27292365933891544, -0.09120921779809346, -0.35646665309228853, -0.293182882064838, 0.25113036999793203, -0.27900880344553863, -0.12858985711459614, 0.07360807952481573, -0.00893588693384626, 2.606962731458462E-5, -0.10728020450459298, 0.08168079612195932, 0.1671416733834584 ] ], [ [ 85.23626717566432, 0.16882509285793612, 0.1265451708300152, -0.015173590183365074, 0.17331563880129625, 0.017991678321466906, 0.04234672705641608, 0.12879056918722515, 0.00796022004841691, -0.11445755386835953, -0.1538097067633033, 0.15113730238024822, -1.525478513994865E-4, -0.0028056375092993624, -0.13284393399090708, -0.02003369637769495, 0.019782667268640083, 0.1378319474152949, 0.1749381807795866, -0.18850049112362222, 0.017103284134671222, 0.1584199993837619, -0.10538983305865512, 0.01855253905274239, 0.016875154786886778, 0.020165152975226527, 0.014540611573565851, -0.017534486201655167, 0.1363003121189526, -0.15548457804001586, 0.0034617634163169506, -0.1219481465282598, -0.020864692482912624, 0.18890315041315367, 0.10423557050688836, 0.019679949016542533, -0.18765182984824036, 0.0057004749886488916, -0.016631906600103167, -0.09074929770250476, 0.17908355821332073, 0.027009183837436012, -0.09137896068101632, -0.10050199829121129, 0.12608312212438733, -0.04577342707498009, -0.13595539886376443 ] ], [ [ 85.21284051967952, 0.12593634057400363 ] ] ]
}