{
  "config" : {
    "algorithm" : "ListNet",
    "numIterations" : 1000,
    "batchSize" : 0,
    "verbose" : true,
    "nomodel" : false,
    "params" : {
      "regularization" : {
        "rate" : 0.01,
        "regularizer" : "L2"
      },
      "layers" : [ {
        "activator" : "ReLu",
        "num" : 15
      }, {
        "activator" : "Identity",
        "num" : 1
      } ],
      "optimizer" : "adam",
      "learningRate" : 0.001,
      "weightInit" : "xavier"
    },
    "dataSet" : {
      "training" : "../../../MQ2008/Fold4/train.txt",
      "validation" : "../../../MQ2008/Fold4/vali.txt",
      "test" : "../../../MQ2008/Fold4/test.txt"
    },
    "model" : {
      "format" : "json",
      "file" : "../../../MQ2008/Fold4/models/ltr4l_185.json"
    },
    "evaluation" : {
      "evaluator" : "NDCG",
      "params" : {
        "k" : 10
      }
    },
    "report" : {
      "format" : "csv",
      "file" : "../../../MQ2008/Fold4/reports/ltr4l-report_185.csv"
    }
  },
  "weights" : [ [ [ -2.572411594587855E-4, -3.079309477954552E-5, -8.399648754650188E-5, -1.2986111782685656E-4, -2.1218802613481918E-6, -6.865502382284134E-5, -1.7628184067906443E-5, -3.3455891123206276E-5, 2.413225156300349E-6, -1.0876572539378817E-5, -2.803524202490961E-5, -2.0588896196135318E-4, -4.018435743554249E-5, -8.02754034785263E-5, -1.1667694658521842E-5, -2.0943863677805945E-4, 1.862921984861598E-5, -1.5345867977878522E-4, 1.0713150644149498E-4, -2.154422003546968E-4, 4.680349068315249E-5, -1.3773237959871615E-4, -9.472761814296703E-5, -2.7310904629991634E-5, -4.965840641902436E-5, -6.407604851259677E-5, -4.165255406827255E-5, -2.1049825695267826E-5, -5.4547737769192145E-5, -1.4567910770401583E-4, -9.099195609627589E-5, -3.4062013204071056E-5, -5.112829642611649E-5, -1.7636348119630323E-5, -1.2169672413530346E-5, -1.1881868452932083E-5, -8.64645090449241E-6, -1.3294792612527623E-4, -4.9896142720088065E-5, -4.72576315909402E-5, -3.639795630329781E-5, -2.3177641781977753E-5, -3.5176625833288455E-5, 5.393993249571971E-6, -2.9363123700335063E-4, -3.233968415800894E-4, 1.2266543713625836E-4 ], [ -0.019576931937744346, -1.2166311159673336E-4, -0.0011213896551425255, -3.945976115674203E-4, 0.0014228030045500197, -2.3288045689478856E-4, 1.2249936222288279E-5, -2.296931109942694E-5, 2.976911074905045E-7, -2.754148687093325E-7, -7.3172301499673E-6, 2.83263661591675E-4, -0.0010583058727504035, -8.656755473573643E-4, 0.0011888818081417089, 2.383638975745265E-4, 7.186833412040507E-5, 0.0024827622971529705, 0.0023003795694114117, 0.0016573387166499134, 4.942050062745107E-5, -3.002605942189536E-4, -2.169878008845755E-4, 2.940215859020629E-4, 1.2073334961791015E-4, -3.949091755681329E-4, -5.707334823491822E-4, -2.857689333409906E-4, -7.435940614126279E-4, -6.155729942910788E-4, -9.189381643599011E-4, -0.0011852442053148116, -0.0012028851328396923, 8.652539757079755E-4, -5.389175121453715E-5, 9.02197589925963E-4, -1.6621341064207456E-4, -2.4218727726700465E-4, -1.366133162831161E-4, 2.7723299634497357E-4, 1.4914459305769893E-4, 0.002188121253086266, 0.0015626858817874938, 2.1326271116728072E-5, 0.003618631072732605, 0.0031429905205068026, 0.004012962587108139 ], [ -0.005987005364237228, -1.1762408404181322E-4, -0.0010763599333086032, -3.508868971473452E-4, -5.25533836242584E-4, -1.7020469455933238E-4, -3.731090622953927E-7, -2.2610753230902847E-5, -1.6889372770889745E-5, 1.7324239367426863E-6, 2.9744563273108888E-6, -4.756490967690194E-4, -0.0011443594077966226, -4.6668975715023954E-4, -6.14971773192984E-4, -5.799746362488262E-4, 4.5362481160803525E-4, -5.733748129684035E-5, 0.001152495196898923, 1.8141706660630984E-4, 4.5380428725899706E-4, -4.5095742718181654E-4, -2.2523285120709557E-4, 1.1700846227431173E-5, 6.407194641924655E-5, -0.0012042572866208475, -6.386406740394958E-4, -7.725251606057015E-4, -5.66589343280508E-4, -3.9819546908398564E-4, -3.2270307739258385E-4, -5.590470826931261E-4, -4.224354666111136E-4, -5.823758892911876E-4, 7.171773998721391E-4, 5.062432169261627E-4, 7.484414072956939E-4, -4.749368311771991E-4, -2.4434358329514754E-4, -6.77677088295396E-5, 2.3559937424792308E-5, 6.719463603449333E-4, 3.0142114963366544E-4, 1.447272687935441E-5, 6.620679211725162E-4, 3.918627949656782E-4, 9.019646449677381E-4 ], [ 93.23200392360755, -0.21688821373104772, 0.23883533271631138, -0.001793452720415305, -0.05608418296712747, -0.06608225405149203, 1.7792349536848194E-5, -1.23121125940683E-6, -4.196821022648565E-6, -2.4636595410852716E-6, -2.2430851370499694E-7, 0.11135554532620971, -0.1280533571816934, 0.13588922699739772, -0.1188642337783174, -0.049888561557484286, 0.10549656238419093, 0.05214729063418107, -0.03000369906025803, -0.08986346036680329, 0.08351709075499586, 0.03427857643108651, -0.1901542807405466, 0.8531271919537446, 0.14048997770523997, 0.13222141577477853, 0.05541602587920451, -0.028240584120976624, 0.005823926365184464, 0.3611744664707653, -0.02853524644296122, -0.3249915794905974, 0.24820874094559048, 0.06227143870247495, -0.304294983162326, 0.10977932088665356, 0.38463678867007633, 0.3208152211662234, -0.25975722934997253, 0.2973494385957158, 0.1467181012418367, -0.0770914502366934, 0.01114339053564936, 2.112088182654092E-6, 0.1435576424806938, -0.07841601619821156, -0.18766447586538915 ], [ 93.23306273573805, -0.21753381021607618, 0.23838621690903286, -0.0020669394500057218, -0.05584757082695157, -0.06670593287106283, -5.275243023698867E-6, 2.1963317484983874E-6, 1.0114978676386561E-5, -2.0911193548530288E-5, -1.425071326886704E-5, 0.11047824862034802, -0.128705989513196, 0.13546594622814787, -0.1187501598012706, -0.05077500824484046, 0.1050216185648186, 0.05191895572827547, -0.029582052841129722, -0.08988710824746303, 0.08302815063750728, 0.0329688603362235, -0.1913665759989144, 0.8519200066663487, 0.13932083687409555, 0.131559859944148, 0.05484017340306095, -0.02888884777876057, 0.005331322236369371, 0.3607221328156073, -0.02909823167694384, -0.32545000243477745, 0.24767934082222362, 0.062297549620027294, -0.30419722439245467, 0.10988383880127557, 0.3847453939417833, 0.3195727938408633, -0.26090770792534723, 0.2961287530132267, 0.14554243375628023, -0.07703787391146615, 0.011109343839306167, 1.884865015944379E-6, 0.1436192122869523, -0.07816585652243685, -0.186966094759065 ], [ 93.23499698918738, -0.22546101261812249, 0.2325311240987124, -0.005583823454254753, -0.05301457929828523, -0.07445759786655745, -1.0195542694553663E-5, -1.996772624968586E-6, 7.114941111542738E-6, -6.119744491985912E-6, -2.3252511606402225E-5, 0.09977949857079042, -0.13684824310395838, 0.12992206716648788, -0.1172814051649769, -0.06188184465449752, 0.09924700294158934, 0.04838201591965775, -0.025249454616817903, -0.0894949203325786, 0.0772615508495834, 0.016337392873596517, -0.20674283246663022, 0.8364628797402859, 0.12448603527990768, 0.12349641399864561, 0.04764220018973233, -0.03689352277490493, -5.919054701685351E-4, 0.3549220781311791, -0.036239489679073304, -0.3310686799271725, 0.24120576653993614, 0.0626070946839252, -0.3033183035766812, 0.11105425785296708, 0.3862095374951468, 0.3035558486292896, -0.2755102361701324, 0.2807635690620691, 0.13094687957768858, -0.07629993028320059, 0.011109109486301729, 2.1643804281792116E-6, 0.14400065861928785, -0.07528814642615857, -0.17773642784773516 ], [ 93.23232970764488, -0.21715473830687657, 0.23864146737737246, -0.001916329452018119, -0.055969573550765005, -0.0663182364218068, -8.460531117430974E-6, -5.013429753697412E-6, -1.9007093659711744E-5, -2.5205179264129525E-5, 4.08829656497635E-6, 0.11096931640657008, -0.1283210464231684, 0.13572315517499012, -0.11880890659953304, -0.05021755491407855, 0.10529241859634225, 0.052077410018724, -0.02980630074729445, -0.08983707270145407, 0.08334513006137567, 0.03376773278845313, -0.19065073576069197, 0.8526228509290374, 0.14000730797570496, 0.1319475458732803, 0.05518022147935321, -0.028514603924017824, 0.005611436125370362, 0.3609900689248705, -0.02872548609747646, -0.3251962543363899, 0.24799398036593834, 0.06225093331103911, -0.30423789091241227, 0.10983317299351053, 0.3846706320875819, 0.3203037677551532, -0.2602112618023049, 0.29685632505124454, 0.14625221879545328, -0.07709113661038132, 0.011138090349781705, 7.158526076849624E-6, 0.14358723977242327, -0.07831048562218808, -0.18737001300471545 ], [ 93.232441592065, -0.21727325622160595, 0.23860142575509607, -0.00194456141911242, -0.05593213028904576, -0.06645851978440867, -6.879867546313359E-6, -1.8596789854700335E-6, 8.767948752122403E-6, -6.240424634571469E-6, -1.8958154947762842E-5, 0.11086149791312333, -0.1284095130850522, 0.1356496186179093, -0.11878896193277043, -0.05038808750971986, 0.10521900832876296, 0.0519931972920603, -0.02979201777790617, -0.08986239432279437, 0.08328120480837883, 0.03353691562634845, -0.1908797035397537, 0.8524287973068443, 0.13982723108266176, 0.13184432574605015, 0.05508111055594572, -0.028602469094254568, 0.005531430949721593, 0.36089662102575026, -0.028835669640737346, -0.32523790085875454, 0.24789148237374728, 0.06227981290129222, -0.3042459756881143, 0.10984742120160679, 0.3847060141147565, 0.3200918082380427, -0.2604049030133123, 0.29665430718361996, 0.14607071988233714, -0.07708098926564325, 0.011152195133193732, -8.432709736998434E-6, 0.14360143908560893, -0.07830039082605447, -0.18725805091472159 ], [ -22.36572963023909, -0.4146348154046629, 0.2586348423458787, 0.19114260001959835, -0.9759662247941318, -0.3808786278707056, -8.713388399584036E-6, 5.843009709631572E-6, 4.282408010472636E-6, 1.6187007950660237E-5, -1.1225898030608449E-5, 0.9858903425372335, -0.11869860976108033, -0.2210190097017205, -0.9775520661519831, 0.9437949226023534, -0.18995903920739618, 1.6649182737290036, 1.606236258804648, 0.6401133892263094, -0.24680259854520073, 2.105215998969435, 2.0749291303652893, 2.0002840055901103, 2.301677535695119, -0.3250353863266393, 0.6917946179324095, -0.6598176743408415, 0.558053796779436, 0.11173591421354528, -0.34851258595201884, -1.5841588516215463, -0.5453485217396391, -0.9769731751368955, 0.0017455070153755674, -0.0015704079316527424, 5.410097832293242E-4, 1.9862964244711814, 2.062468094111656, 1.857810676601495, 2.261884398770525, 0.8534891089693909, 0.9664504229436393, 4.541288988344662E-6, 1.8724709930746397, 1.4805023368583863, 0.7659274420486539 ], [ -0.0024006272075935793, -1.9586350801892056E-4, -4.7615133400378076E-4, -7.75905622619734E-5, -3.647251205680725E-4, -2.050620601704609E-4, -8.012664679839233E-6, 1.4165847404503152E-5, 4.795697891355689E-6, -3.0253934366731613E-5, 1.892639376837862E-5, -1.0615298509184136E-4, -4.748161152177884E-4, -1.2558851708728992E-4, -3.875039502321926E-4, -1.1130230682017476E-4, 3.1631925095613567E-5, 1.3229387222208927E-4, 3.492846814887533E-4, 2.5651837613166733E-4, 2.2492521340004774E-5, -1.4092181356992954E-4, -2.6337393784540974E-4, -2.234086441199235E-4, -2.0462303659856386E-4, -3.681021769255634E-4, -2.635355973636829E-4, -2.5988732765110757E-4, -2.248610683769623E-4, -1.1163116851073468E-4, -5.473363810357507E-6, -1.3971947960973349E-5, -8.735283538186316E-6, -3.806843822257524E-4, -1.2244888035215645E-4, -7.724339671976254E-5, -7.181458238836243E-5, -1.9106299015303536E-4, -2.6614520055197294E-4, -2.4573441623618094E-4, -2.3079093406269254E-4, 3.5970287486104965E-4, 1.4114672593446164E-4, -3.91522386571488E-6, 3.303892473331439E-4, 4.130369240229605E-4, 5.541387030933638E-4 ], [ -0.003702198384269959, 2.4121362749692928E-4, 1.2407438961403581E-5, -1.0304649280372466E-4, 5.2053211436826324E-5, 2.69996181446806E-4, -3.6738139853382377E-6, -1.1481577857043492E-5, -5.609229150578551E-7, -6.3993774590677675E-6, 7.15729143743356E-7, 2.466627765189892E-6, 2.302693104803864E-5, -1.1803219672710077E-4, 4.461139789773961E-5, 4.7707118700842527E-5, 4.563795607754833E-4, 4.92109181242723E-4, 2.548848682534665E-4, 7.465221207801787E-4, 4.743729396237716E-4, -3.809746621743966E-4, -2.1757543103186305E-4, -3.4349128667163415E-4, -9.59925333984936E-5, 1.4878359283490336E-4, -1.2264086557182237E-4, -6.54809398773922E-5, -1.849106483278594E-4, -1.9292183521011773E-4, -7.653356778561606E-5, -8.004675640829605E-5, -9.919539942794996E-5, 7.119933964079183E-5, 1.8007577728108682E-4, 2.2693964325987655E-4, 1.3589487937443382E-4, -3.7876715864940163E-4, -2.0159240721634854E-4, -2.8871241357129553E-4, -1.1423739788311807E-4, 6.227693212484266E-4, 5.692461050944918E-4, -7.469330117375924E-6, -4.6493059754070314E-5, 1.6543765074518893E-4, 4.4227474280437014E-4 ], [ 93.23395351219862, -0.2183063237293795, 0.23785766560487512, -0.0023807000009731776, -0.05554866436205888, -0.06744274224380357, -3.654655064999805E-6, 1.314303945733026E-5, 2.3174432033590104E-6, -9.377895244920451E-6, 4.5102148130433764E-6, 0.10943410260882631, -0.12948106736919518, 0.13493339552183956, -0.11859471212913215, -0.051854622651703465, 0.10445580052018048, 0.05161453004161469, -0.02916215172404774, -0.0898108872981963, 0.08243262863619182, 0.0313893501773958, -0.19285837933071256, 0.8504528574825098, 0.1378852652759617, 0.1307966050749035, 0.05413678300648394, -0.029716418657814207, 0.004728662250301699, 0.36019105734814244, -0.029781689327429067, -0.3259821981402962, 0.24703903311922645, 0.06230723959448238, -0.3041093423136256, 0.10998907381295729, 0.38492034057788926, 0.31802377840366924, -0.2623026589047637, 0.29470341496173647, 0.14413209279372197, -0.07699799632254659, 0.011090670421826987, -2.193731230931573E-5, 0.14367826049918334, -0.07787735469111767, -0.18608408527269082 ], [ 14.118633512866158, -0.04089289886431271, 0.002832410771136608, -0.00577810800943482, -0.04593662644584235, -0.01936914470873635, 1.4683172670946446E-7, -1.0429845470342496E-5, -9.829541530024448E-6, 1.54485152823844E-5, 2.0875751590310255E-6, -0.004511518087484737, -0.03738236272428233, 0.03012297445316776, -0.042758292473636404, -0.025798435868872996, 0.008729661303641657, -0.03153323662656829, -0.011550391957818077, -0.041740805632275876, 0.00595340348434758, -0.06155106869256928, -0.049087219162590984, 0.021809043599235783, -0.014865964410187579, -0.00669684851875893, -0.0034299180639913033, 0.003923001132185672, -0.004002615171697318, 0.048424523557077784, 0.030198895823123455, 0.008119671822630674, 0.06191028169739096, -0.019894927556404103, -0.059246131069589994, -0.0066703704683735415, 0.020907439243916456, -0.01539256399981547, -0.06567090241348102, -0.053505606412982284, -0.01637676298048947, -0.04562935408564394, -0.04677623241608948, -2.1479359706038875E-6, 0.014636184497486505, 0.01874008410475232, 0.007498150330466978 ], [ -1.8327741777428769E-4, -9.306245870696472E-5, -2.3524097341303306E-5, -1.521443472164734E-4, -5.142003048979755E-5, -6.658208671140076E-5, -6.630417705696716E-6, 1.134879947607917E-5, -8.310566548423852E-6, -3.4960417243795184E-6, 8.720381793063823E-6, -1.5453822609712967E-4, 2.185866536937605E-6, -1.288775429704405E-4, -4.94698541194587E-5, -1.6579807915943905E-4, -5.6771978957135065E-5, -2.6887751444561625E-4, -6.793203815261826E-5, -1.0291322752735954E-4, -9.015260014260944E-5, -1.4000540304525945E-4, -2.7383694624856416E-4, -2.7857272735443606E-5, -1.711155372321764E-4, -4.273973833194563E-6, -5.877635413659303E-5, -1.9254937785363852E-5, -4.096781461764729E-5, -1.342376059302626E-4, -7.971465283748968E-5, -5.005440911922721E-5, -7.155916335485201E-5, -4.164739329017359E-5, -1.0320851999910025E-4, -1.0435140809074002E-4, -9.33031143289819E-5, -1.830512988947456E-4, -2.1792740155763987E-4, -1.0275651506573556E-5, -1.2815862324127672E-4, 1.9348084892086313E-5, -5.695822774686856E-6, -2.379374274838243E-6, -3.434247466437103E-4, -4.082146482866706E-4, -3.962659121779486E-5 ], [ 93.23231218167692, -0.2171187603931317, 0.23867297088085138, -0.0018899277867401533, -0.055989472359469245, -0.06631063163258508, -8.448494008751982E-6, 1.258489319541583E-5, 9.661956905546869E-6, -6.983157159027547E-6, -1.1235803081731522E-5, 0.11100794096357836, -0.12828751462091176, 0.1357106745013422, -0.11881337739697295, -0.05018792797918696, 0.1053205326677945, 0.05206812507764559, -0.029838495168368503, -0.08985185702856814, 0.08332764382740906, 0.03379122422859021, -0.19059123867601582, 0.8526781135247524, 0.140074085750762, 0.1319627090191713, 0.05520447719370227, -0.02850246086162796, 0.005644500139741199, 0.361003546198398, -0.02871834907169824, -0.32516054051572313, 0.248000573283436, 0.062254436478021286, -0.30425125350558574, 0.10983000810541454, 0.38467878094800634, 0.3203468273511314, -0.2601926262046817, 0.2968903536792154, 0.14627196027677314, -0.07709995983751187, 0.011139076005072794, 1.746075306933196E-5, 0.14359257230984707, -0.07832601878437517, -0.18739571149771772 ] ], [ [ -93.29529978646283, 5.931390191466631E-5, 0.0011365407994636395, 5.598147554405089E-4, -0.22874449943417996, -0.22731918424298037, -0.20887030666711687, -0.22814921771834337, -0.2279261438909359, 1.5627685935197144, 5.298706540794137E-4, 1.4033431236766804E-4, -0.22559960573582455, -0.018488059101359804, 1.2463504305681517E-4, -0.22819950063668862 ] ], [ [ 93.33693909172264, -0.2803647985250552 ] ] ]
}