{
  "config" : {
    "algorithm" : "ListNet",
    "numIterations" : 500,
    "batchSize" : 0,
    "verbose" : true,
    "nomodel" : false,
    "params" : {
      "regularization" : {
        "rate" : 0.01,
        "regularizer" : "L2"
      },
      "layers" : [ {
        "activator" : "Identity",
        "num" : 1
      } ],
      "optimizer" : "adam",
      "learningRate" : 0.075,
      "weightInit" : "xavier"
    },
    "dataSet" : {
      "training" : "../../../MQ2008/Fold4/train.txt",
      "validation" : "../../../MQ2008/Fold4/vali.txt",
      "test" : "../../../MQ2008/Fold4/test.txt"
    },
    "model" : {
      "format" : "json",
      "file" : "../../../MQ2008/Fold4/models/ltr4l_19.json"
    },
    "evaluation" : {
      "evaluator" : "NDCG",
      "params" : {
        "k" : 10
      }
    },
    "report" : {
      "format" : "csv",
      "file" : "../../../MQ2008/Fold4/reports/ltr4l-report_19.csv"
    }
  },
  "weights" : [ [ [ -12.592274081821309, 0.30089022980495317, -0.24661450282223885, 0.03502670495031915, 0.5279886339753174, 0.21115670851844712, -9.169728987152867E-79, -5.759178525580248E-80, 3.258165401490104E-79, -1.5152608899221113E-79, 1.865031835369579E-79, 4.199162120659878E-4, -0.09055978837464776, -0.2959905528845432, 0.3024444861736329, -0.10281916455242279, -0.36962567193571233, -0.0873440123185325, 0.6252099570760259, 0.8101021605083478, -0.38187538189945014, 0.11145167322543387, 0.29529007301949567, -0.5751423341448346, 0.30344819256482, -0.24833984683537488, 0.23541405969309964, -0.21017291865887822, 0.26278375115521774, -0.7596143740511029, -0.12230703823531014, 0.06333417588896927, -0.10508799248999343, 0.39705494402538694, -0.02394152081399072, -0.33003525154247054, -0.20691438186667058, 0.010626661944249294, 0.32274522102482495, -0.5555425553617938, 0.38857276161722465, 0.6859729172832798, 0.6846757926465555, -8.575397262151256E-80, -0.029440922525751888, 0.23931532865934207, 0.495862672035382 ] ], [ [ 94.38307905901041, -0.022111987474664748 ] ] ]
}