{
  "config" : {
    "algorithm" : "ListNet",
    "numIterations" : 500,
    "batchSize" : 0,
    "verbose" : true,
    "nomodel" : false,
    "params" : {
      "regularization" : {
        "regularizer" : "L2",
        "rate" : 0.01
      },
      "learningRate" : 0.001,
      "weightInit" : "xavier",
      "optimizer" : "adam",
      "layers" : [ {
        "num" : 1,
        "activator" : "Identity"
      } ]
    },
    "dataSet" : {
      "training" : "../../../MQ2007/Fold2/train.txt",
      "validation" : "../../../MQ2007/Fold2/vali.txt",
      "test" : "../../../MQ2007/Fold2/test.txt"
    },
    "model" : {
      "format" : "json",
      "file" : "../../../MQ2007/Fold2/models/ltr4l_15.json"
    },
    "evaluation" : {
      "evaluator" : "NDCG",
      "params" : {
        "k" : 10
      }
    },
    "report" : {
      "format" : "csv",
      "file" : "../../../MQ2007/Fold2/reports/ltr4l-report_15.csv"
    }
  },
  "weights" : [ [ [ -94.44996427804243, -0.10661484196575104, 0.11880217517171307, -0.16030801820376434, 0.17558250238183631, 0.25876639348051717, 2.3309287596843224E-4, 9.902238866623539E-6, 5.6682672923414017E-5, 1.4132424633537608E-4, 1.2119197048158459E-5, -0.168135347030131, -0.10548172834861944, -0.004086178092888297, -0.003097225907152189, 0.3612711653616986, -0.21022232905587085, 0.03672998528470016, 0.1077443302784793, 0.40642300526719743, -0.1586257791510633, -0.2341711213801484, 0.2466630976157285, -0.8723997151460033, -0.02173384545104737, -0.08883116039242706, 0.009167342962906232, -0.1446000620458614, -0.02243980669459077, -0.015686364645538988, -0.03018686270431589, 0.04892538299204109, -0.16104047120590845, -0.43415295193275655, 0.04340329249497725, 0.10085812520556357, -0.050575197281623206, -0.07545307922618563, 0.3313836398239415, -0.5942736038572038, -0.36441366550834225, 6.989654987276187E-4, 0.029927849162772576, 0.03861749807736273, -0.07848459979646959, -0.06579763065250652, 2.444858747197713 ] ], [ [ 94.45218049685543, -0.3882320052678845 ] ] ]
}