{
  "config" : {
    "algorithm" : "ListNet",
    "numIterations" : 100,
    "batchSize" : 0,
    "verbose" : true,
    "nomodel" : false,
    "params" : {
      "regularization" : {
        "regularizer" : "L2",
        "rate" : 0.01
      },
      "learningRate" : 0.075,
      "weightInit" : "xavier",
      "optimizer" : "adam",
      "layers" : [ {
        "num" : 1,
        "activator" : "Identity"
      } ]
    },
    "dataSet" : {
      "training" : "../../../MQ2007/Fold2/train.txt",
      "validation" : "../../../MQ2007/Fold2/vali.txt",
      "test" : "../../../MQ2007/Fold2/test.txt"
    },
    "model" : {
      "format" : "json",
      "file" : "../../../MQ2007/Fold2/models/ltr4l_9.json"
    },
    "evaluation" : {
      "evaluator" : "NDCG",
      "params" : {
        "k" : 10
      }
    },
    "report" : {
      "format" : "csv",
      "file" : "../../../MQ2007/Fold2/reports/ltr4l-report_9.csv"
    }
  },
  "weights" : [ [ [ -76.76038769388417, -0.17479920857415465, 0.17882319986655662, -0.33299302615703746, 0.10634206246366985, 0.2721879275639231, 1.1325101699330319E-35, 1.807710417643167E-35, -4.2366808753681186E-36, -2.5961319140550205E-35, -1.3440480151045358E-36, 0.3732390730423057, -0.26293861151372133, -0.07449427982315893, -0.18128288911375545, 0.9630422094900192, -0.48010133212174944, 0.5765177418279546, 0.8286752598800792, 0.18588941443282261, -0.41741482338245756, -0.5089602668660239, 0.1757121242703586, -2.2025232730060806, -0.5344703097964227, -0.0346907444744727, 0.09256323951297087, -0.22959154319983752, -0.01650606458613453, 0.31445572203764793, -0.131130170911184, 0.3693356991363474, -0.5505068292225931, -0.6557464770273749, -0.02300308733255015, 0.6072282745864025, -0.31892011839197004, 0.0344799551179564, 0.13729750640432759, -2.053010633642311, -0.9319102819755307, -0.07914797071826869, 0.7570058262476379, 0.02590299226719326, 0.02059006756483906, -0.4770005781811284, -2.197669322758426 ] ], [ [ 94.84969380370978, -0.032391346702977976 ] ] ]
}