{
  "config" : {
    "algorithm" : "ListNet",
    "numIterations" : 100,
    "batchSize" : 0,
    "verbose" : true,
    "nomodel" : false,
    "params" : {
      "regularization" : {
        "regularizer" : "L2",
        "rate" : 0.01
      },
      "learningRate" : 0.075,
      "weightInit" : "xavier",
      "optimizer" : "adam",
      "layers" : [ {
        "num" : 46,
        "activator" : "ReLu"
      }, {
        "num" : 1,
        "activator" : "Sigmoid"
      } ]
    },
    "dataSet" : {
      "training" : "../../../MQ2007/Fold1/train.txt",
      "validation" : "../../../MQ2007/Fold1/vali.txt",
      "test" : "../../../MQ2007/Fold1/test.txt"
    },
    "model" : {
      "format" : "json",
      "file" : "../../../MQ2007/Fold1/models/ltr4l_72.json"
    },
    "evaluation" : {
      "evaluator" : "NDCG",
      "params" : {
        "k" : 10
      }
    },
    "report" : {
      "format" : "csv",
      "file" : "../../../MQ2007/Fold1/reports/ltr4l-report_72.csv"
    }
  },
  "weights" : [ [ [ -1.6554894943512356E-34, 1.995363647823104E-35, -2.902705907971353E-35, -2.636947859439041E-35, -1.9284198205072922E-36, 2.0034668045297258E-35, -1.181918271770676E-37, 3.67879336177563E-37, 1.2362072760290756E-37, 1.94009419111575E-37, 2.6194653537027067E-37, 1.5259200675254363E-35, -3.107754962188952E-35, -3.1274106149231906E-35, -7.44548717510151E-36, 1.5203966320531268E-35, 2.3737164112158214E-35, -2.2642298212127525E-35, -1.439837123095951E-35, 1.0488083466187385E-35, 2.443208015381879E-35, -3.3078091572693004E-35, -3.0390575250336256E-35, -4.965519142852172E-36, -3.1582146569241375E-35, -4.0887196775644526E-35, -3.6869934070758897E-35, -3.8614350249696187E-35, -3.4956861647028294E-35, -3.358397458628735E-35, -4.11824752747599E-35, -4.5944985641125457E-35, -3.9437711518079624E-35, -8.741273237512745E-36, -1.7439337681150715E-35, -2.0230979581568293E-35, -1.6834466310211888E-35, -3.507419422606581E-35, -3.0399422942675105E-35, -1.159496317926063E-35, -2.904703463219621E-35, -1.1193274013282745E-36, -1.4920948920127786E-35, 4.101423120944464E-36, 9.566644954799985E-36, 4.155589693437411E-36, 9.663724058421776E-37 ], [ -4.7190376606708535E-34, -1.6776451306943794E-30, -6.092933322551806E-31, -9.950948056028816E-31, 4.6551268257961185E-33, -1.75247885352119E-30, 1.9714628515532656E-37, 7.435245952659468E-37, 9.347183838856793E-38, 2.4451622191260845E-37, -8.333797817755142E-37, -5.762918950612465E-31, -6.489519068730474E-31, -1.0058725530486896E-30, -1.6935869078256407E-32, -5.210625710123009E-31, -2.0649818781820112E-30, -1.1423170740815304E-30, -2.262571046321495E-30, -1.689246389332728E-30, -2.0807076846643283E-30, -1.0431273450342262E-30, -7.525951786629197E-31, -3.212180121816432E-31, -7.835726557570539E-31, -1.2138894417448995E-30, -5.50183193417492E-31, -4.766092527100788E-31, -4.824262654611208E-31, -8.841890157437494E-31, -3.2991582677379802E-31, -4.414790719476484E-31, -2.06453882815819E-31, -9.062187100009784E-33, -2.5649285484251296E-31, -6.9038744852146425E-31, -2.7596926730160003E-31, -1.1937984256305026E-30, -8.651198947163026E-31, -4.044822375338261E-31, -8.173556376811587E-31, -2.5510734976574675E-30, -1.339468262379365E-30, -3.333646012478045E-30, -1.2376958463959232E-30, -1.4720091690391811E-30, -7.919634187563274E-37 ], [ -5.470663818886087E-32, -1.193079803244338E-31, -1.4991525497481438E-31, -6.394305549550908E-32, -4.99331189125779E-32, -1.1800779668725305E-31, 4.18814928915174E-37, 1.2125599803795963E-37, -1.1545142819581558E-37, 3.8655799400433415E-37, 3.3146018556208324E-37, -4.016810663513708E-32, -1.2102839765841621E-31, -5.267445112937801E-32, -4.163944039480758E-32, -4.002536332500943E-32, -1.1817792579018349E-31, -1.482973559852538E-31, -4.478772262137597E-32, -1.7045469234426465E-31, -1.182020541487126E-31, -1.5984201539511163E-31, -2.0501422042455968E-31, -1.9070530608898165E-31, -2.0623850484103897E-31, -1.2920133740148941E-31, -1.0314906245982472E-31, 8.609665927130207E-32, 7.875913574592139E-32, -4.7067807191170957E-32, -1.9988632430501634E-32, 2.5904020125257735E-32, -2.6835297885861705E-32, -3.1665806273229525E-32, -5.3867385087497605E-34, -1.9501914653061814E-34, -3.716172056886071E-33, -1.6375380949093258E-31, -2.0818460275165702E-31, -1.8543542859782095E-31, -2.0884800561725663E-31, -1.4666685536511023E-31, -2.8720317999967684E-31, -3.0112399199357185E-32, -1.3566228313449659E-31, -1.359259346825672E-31, 2.9391816993124255E-37 ], [ -3.3245308981090752E-34, -3.064291896607045E-35, -5.694212167314084E-36, -3.4539439328791917E-34, -2.9719390582343082E-34, -3.3957559169488796E-35, 4.357273113562962E-37, 3.333260514031755E-38, 3.4542648397527465E-37, 5.828840296674196E-37, 6.155792672402183E-37, -3.7132929513328544E-34, 1.2498962914506393E-34, -3.3735369663121265E-34, -3.0377068431873835E-34, -5.198679803152219E-34, -2.7771836499890557E-34, -3.402404795939363E-34, -2.694919844741179E-34, -2.761128753244008E-34, -2.771696448782783E-34, -4.355293726189959E-34, -4.1832386046015495E-34, -1.8477877794382348E-34, -4.725007814123005E-34, -3.0759038542132913E-35, 9.49909451875096E-36, 1.560934787420736E-34, -1.5096737343180159E-34, -3.3232811476402705E-34, -3.019185457955447E-34, -3.101988110080166E-34, -3.0358897578015343E-34, -3.032256001684784E-34, -2.924718939696052E-34, -3.020183864471282E-34, -2.9545776078321507E-34, -4.577504413774178E-34, -3.7150249329958157E-34, -1.4752721240622097E-34, -4.72951886513531E-34, -3.836041953788198E-34, -4.031263715125837E-34, -3.175605035855923E-34, -3.0516856460514382E-34, -3.5019100955265062E-34, -2.610479453150524E-37 ], [ -1.920523697986767E-34, 2.7841187961534526E-35, -3.9957018176499524E-35, -3.586554887933242E-35, -2.6555975394032535E-36, 2.826831849167195E-35, 4.0040979176212496E-37, -3.7514286555613334E-37, 3.6298341872125745E-37, -4.0413143103391265E-37, -3.851506362162111E-37, 2.2075243305693514E-35, -4.212632518808782E-35, -4.2549708328688886E-35, -1.0404791996359226E-35, 2.0939934023070476E-35, 3.2469329627469114E-35, -3.0885711103649115E-35, -1.979307616239153E-35, 1.4659348002945178E-35, 3.4177063789391505E-35, -4.4090902503274074E-35, -4.162769207666511E-35, -8.398063758090137E-36, -4.1687050432541773E-35, -5.491754081055682E-35, -4.986251888869227E-35, -5.177232535489472E-35, -4.7272538314368E-35, -4.5146285522276867E-35, -5.489004402741155E-35, -6.153770661136034E-35, -5.129756959868527E-35, -1.208949351553552E-35, -2.4132875382045385E-35, -2.7706652008559077E-35, -2.3663244983711647E-35, -4.7634838448132345E-35, -4.234023179149328E-35, -1.5733482385091894E-35, -3.854296596495667E-35, -1.7902229687856565E-36, -2.066692657762806E-35, 6.081380035922896E-36, 1.4153790786431932E-35, 5.0866204000952654E-36, 8.107407833726766E-38 ], [ -1.3616283608704886E-26, -2.9419049725893885E-28, -3.37500731047366E-28, 2.2393335330185027E-28, 1.691994660260607E-28, -2.577491994056364E-28, -2.391848013144119E-37, -3.5424925407693558E-37, 1.8159024291305713E-37, -1.5223918135559186E-37, -2.9286084647764276E-37, 1.534541769556746E-28, -4.35079285408262E-28, 3.1859979554985486E-28, 1.1412673483890216E-28, 1.856311571014927E-28, -2.2851002267622014E-28, 6.583679925371159E-28, 7.6618162735769985E-28, 6.9197010900567685E-28, -2.059175578646677E-28, 5.323628795189738E-28, 1.1543312385466277E-28, 4.687879999303623E-29, 1.45292145450809E-28, -1.5616931772695565E-28, -3.9443104456874696E-28, -3.146963986038533E-28, -4.137608956037259E-28, 2.619199883578883E-28, -4.757587003759905E-29, 2.1797877392335934E-28, -9.039773929971468E-29, 5.708654046549132E-29, 2.199052246994629E-28, 3.030387909449014E-28, 1.210758807573497E-28, 5.352177903796201E-28, 1.6011140568557278E-28, 9.81661459341881E-29, 1.4568576824193148E-28, 3.8695709681638234E-27, 2.567223729477915E-27, 2.272363895441461E-27, 5.190367270393653E-28, 7.496321895995031E-28, 7.038397894781625E-32 ], [ -6.680805883588325E-35, 5.2368749425166785E-36, -7.420867090445325E-36, -7.263062387659698E-36, -4.982045467403305E-37, 4.575340552652464E-36, -4.309011709070628E-37, -8.324503006992884E-39, -1.072972826829761E-37, -1.989011024099478E-37, 1.5921012461651806E-37, 3.434859894888155E-36, -8.058954996054942E-36, -8.55072147931356E-36, -1.8167912148439466E-36, 3.8043692713425105E-36, 6.641334363296283E-36, -6.298881514150162E-36, -3.8787686378568625E-36, 2.3708443777818122E-36, 5.74615414554079E-36, -8.940865975908782E-36, -7.752615643527197E-36, -1.1395586937969321E-36, -8.404218709925499E-36, -1.0705038330288386E-35, -9.441035128974224E-36, -1.0380180840694555E-35, -9.674436643182371E-36, -9.042713161888256E-36, -1.1765247295503098E-35, -1.2711409827834704E-35, -1.0009831204462416E-35, -1.5075417763708434E-36, -4.887144159587389E-36, -5.392154881728607E-36, -4.762420264742282E-36, -9.547233256448085E-36, -7.458416556515709E-36, -2.8460567490820084E-36, -7.578749455873581E-36, -1.8387489738771189E-37, -3.641697584629257E-36, 1.1209837811946888E-36, 3.119998559004083E-36, 8.588386574722812E-37, -7.300786707047704E-37 ], [ -5.244899547125874E-34, 3.285733964014561E-36, 1.158460385090548E-34, -4.835476714918562E-34, -4.335645476262551E-34, -1.7594215557849936E-36, 2.4693242693068295E-37, -3.944772571505398E-37, 5.60233744506812E-37, 8.501487868709407E-38, 4.514932369303097E-37, -1.5993018808070159E-34, 2.1391761514574562E-34, -4.641385262682794E-34, -4.147994951465216E-34, -2.5530974470236375E-34, -2.0042711749142627E-34, -7.093333829576837E-35, 1.3797323470353965E-34, -2.887364995893721E-34, -2.0349106126205477E-34, -3.795008293094331E-34, -3.7984225187004296E-34, -2.0646063404321054E-34, -3.984628361715129E-34, -3.2931849140091464E-34, -6.886669152711815E-36, -3.8440598332764354E-35, -7.932123463743984E-35, -4.625269292300589E-34, -3.514443825684937E-34, -3.6468449739430314E-34, -3.588646034078204E-34, -3.9938540805382405E-34, -3.5035266237342096E-34, -3.451788599638911E-34, -3.547762483473629E-34, -3.918325801256685E-34, -3.8451743696596283E-34, -2.087724198597304E-34, -3.948099587155997E-34, -3.584625424665099E-34, -3.586756191526975E-34, -6.361764610451209E-35, -2.1105821867298957E-34, -2.80931426234943E-34, 4.6554122095455286E-38 ], [ -3.608530077910363E-34, 2.374048416982521E-34, -2.1979183505389923E-35, -4.16875250748496E-34, -4.01718062180169E-34, 2.3090462674081685E-34, -3.1501901236544552E-37, -1.6959732618037486E-37, -6.697022922079142E-37, -3.1402891577507367E-37, -1.2748539514562601E-37, -2.4110331754940088E-34, 9.077455025119616E-35, -3.976179198102607E-34, -3.7800459896524956E-34, -3.709825333004287E-34, -9.391792095035939E-35, -1.931375760189705E-34, -5.392842196125161E-35, -2.536123069253969E-34, -9.617200345392062E-35, -3.995810938688348E-34, -3.842350099455797E-34, -1.672406532061817E-34, -4.024700533286968E-34, -1.1062463335782823E-34, 2.6461862413896307E-35, 6.438783939535874E-35, -1.4194481394131528E-34, -4.077348779397345E-34, -3.196194866087253E-34, -3.2901224617809777E-34, -3.218637179758931E-34, -3.6422585316130994E-34, -3.2924075668165025E-34, -3.2561568105024175E-34, -3.3212231045151244E-34, -4.158327817864927E-34, -3.8872540942018545E-34, -1.7155618902026275E-34, -3.994407911749895E-34, -8.713332711346147E-35, -3.683883006372761E-34, -3.2243329657969484E-34, -1.6093957197631634E-34, -2.4474135149376833E-34, -8.029457977793976E-38 ], [ -1.5229921793696706E-34, 1.719133065104939E-35, -2.4708986448772474E-35, -2.238885643751853E-35, -1.1855960380846076E-36, 1.728842312035477E-35, -3.6267414905650827E-37, 7.417509761576293E-38, -3.2711676263377086E-37, 1.5634489127406384E-37, -2.597778384134519E-39, 1.319776254559909E-35, -2.710360739970812E-35, -2.654186572176883E-35, -5.719896837496187E-36, 1.2886126142820672E-35, 2.069834797496939E-35, -1.8474966932262314E-35, -1.2025441222999612E-35, 8.341708019870442E-36, 2.0816252377118033E-35, -2.809700096135547E-35, -2.6289756696662376E-35, -5.07808167696305E-36, -2.660335907465456E-35, -3.453782588829155E-35, -3.153524121570217E-35, -3.378089215110532E-35, -2.994687745915846E-35, -2.842735803891818E-35, -3.5188673569169264E-35, -4.020156243053409E-35, -3.326637642981836E-35, -7.586015099020191E-36, -1.4544246778777853E-35, -1.6975146148983394E-35, -1.4695910947448047E-35, -3.0005740000251133E-35, -2.535348691061019E-35, -1.033594618551857E-35, -2.4617686661905445E-35, -1.4837812162970668E-36, -1.2584547101304043E-35, 3.427315262029743E-36, 8.506256953626267E-36, 3.2642290111171515E-36, -5.222522396263243E-37 ], [ -6.409755375607936E-29, 8.063264010975985E-30, -7.209448698028447E-31, -3.8082131993359933E-31, 6.430837830192429E-31, 8.198236408983431E-30, 2.523370971941378E-37, 2.4619567685257534E-38, 2.4775198098180193E-37, -4.803426644426451E-37, -3.138564429708115E-37, 5.964235790736383E-30, -7.919857817488035E-31, -4.1022198763805654E-31, 6.790867158045714E-31, 6.097312794698061E-30, 9.381481755781781E-30, 9.9346370791686E-31, 2.4305381777353844E-31, 5.687925052777256E-30, 9.382906010078411E-30, 9.544716107197291E-31, -1.7071713372031584E-30, -3.2791706949375983E-31, -1.0200750975016883E-30, -7.3197099448963715E-31, -5.540819978525074E-31, -3.8736108599951343E-31, -7.343491735671611E-31, -7.299950933038949E-31, -5.612776966822195E-31, -4.1922320119705315E-31, -5.9961569406466555E-31, 3.95112943101635E-31, 5.1061326027571676E-31, 1.3817181525718186E-30, 4.776274746889527E-31, 8.40526786087401E-31, -1.2997892941204206E-30, -1.7163323799176695E-31, -9.009205212632836E-31, 9.152082027307277E-31, 1.0528518661763096E-31, -1.5553948681657613E-30, 6.175005982326692E-30, 5.12127300953186E-30, 6.222162155049374E-38 ], [ -7.659046824286277E-33, -4.873599932173757E-33, -4.4958027382948835E-33, -5.1831932706276786E-33, -7.975702182234753E-34, -4.9910673771414484E-33, -4.7884753267510604E-37, -3.812761960403329E-37, -5.924405433627638E-38, 8.140403428309536E-38, -4.6644307278268014E-38, -3.1765411717991755E-33, -5.361440623931153E-33, -5.004164871994727E-33, -1.1387501015511374E-33, -3.633655751502843E-33, -4.761553086884894E-33, -2.4944072160204856E-33, 1.9981401430081106E-34, -3.8029882861448085E-33, -4.8067450195263846E-33, -5.746484562942173E-33, -4.593275949402075E-33, -5.241997523927949E-33, -4.271925421792896E-33, -4.810749353748599E-33, -4.956407730879428E-33, -5.7925014219103795E-33, -5.0362999887841745E-33, -4.9780421007978675E-33, -4.888006283133776E-33, -4.1580594652846147E-33, -5.2278246188797266E-33, -9.311750090348744E-34, -1.655655278471503E-33, -8.940495143379218E-34, -1.564577731481862E-33, -5.7824271160101335E-33, -4.580302087467845E-33, -5.4300156782130015E-33, -4.225555658006551E-33, -1.297683846813247E-34, -5.322475478497319E-34, -6.5401481746713E-33, -7.078678590931144E-33, -4.6128818084053E-33, -6.237717716954037E-37 ], [ -4.692346820475918E-34, -1.2410739941782843E-34, 1.3280819821018975E-34, -5.04112706098736E-34, -4.366192189746739E-34, -1.3005654140194645E-34, 5.620916503640545E-38, -5.617371356477409E-37, 2.2248954880112025E-37, -3.0705214502950027E-37, 6.089519424977502E-37, -1.8917438679150953E-34, 2.180609890199508E-34, -4.932406307797336E-34, -4.376866549405909E-34, -2.7138127868858445E-34, -2.2200359840039144E-34, -1.145199358188981E-34, 5.880289142558897E-35, -2.8263108887722776E-34, -2.2485614941231743E-34, -3.5185101187423386E-34, -3.5797188834358508E-34, -2.155543907632908E-34, -3.6986628051304527E-34, -2.312937138872475E-34, 1.8623516050257932E-36, -7.044452785663853E-35, -3.6047010548170934E-35, -4.6928915888867405E-34, -3.880230552870514E-34, -4.0528752015723E-34, -3.993720135211689E-34, -4.323744296919168E-34, -3.8432609318288246E-34, -3.7701112769731633E-34, -3.901109151571667E-34, -3.5896789919970834E-34, -3.611009335758086E-34, -2.1693936136619395E-34, -3.6571909283273064E-34, -4.083023240775146E-34, -3.378964799729341E-34, -1.147453894154609E-34, -2.184383762430139E-34, -2.797707602479935E-34, -2.177900201558063E-37 ], [ -3.3769603725579043E-35, 2.6526441046643328E-36, -3.8390379521712676E-36, -3.6669300037149945E-36, -2.0658783387682175E-37, 2.9363983071943445E-36, 4.833853288250017E-37, -1.7434578372345964E-37, -3.928646840644294E-37, 3.2036972284506487E-37, -1.6938270767352913E-37, 1.6360938016062154E-36, -3.925944470435617E-36, -4.1746929121215265E-36, -9.462027517430682E-37, 2.2443419990113957E-36, 3.432722052509205E-36, -2.5595854539671807E-36, -2.013128852851392E-36, 1.518006786720144E-36, 3.2250700625234966E-36, -4.333481399300982E-36, -4.104650029815532E-36, -7.77585106565789E-37, -3.869900461555254E-36, -5.484702767166531E-36, -4.376766745633581E-36, -5.499531755691911E-36, -4.977497037110721E-36, -4.1093824334359514E-36, -6.0925614245144E-36, -7.27025889851556E-36, -5.512383379230867E-36, -7.104313918105833E-37, -2.233612296975281E-36, -2.9301088062802145E-36, -1.815479059210421E-36, -4.4834767237349556E-36, -3.8293375123650705E-36, -1.3910587311491082E-36, -3.2384092705790686E-36, 3.1234487819793445E-37, -1.546246337497718E-36, 9.949364345874896E-37, 7.37538569217513E-37, 3.565700451724677E-37, -4.212795991301625E-37 ], [ -1.5600840459345513E-34, 1.8127997064083347E-35, -2.565376480553792E-35, -2.3743204200390562E-35, -1.7785114763716636E-36, 1.816444247966551E-35, 3.833381088563226E-37, 5.691108840064953E-37, -1.6442658107585957E-37, -1.4426783971917626E-37, 1.421793257962126E-37, 1.3529555694324816E-35, -2.781736996127492E-35, -2.8132697555524383E-35, -6.554892423399929E-36, 1.3507927404685588E-35, 2.1926100513427617E-35, -1.9803366454727314E-35, -1.2978108446628957E-35, 9.065746974013953E-36, 2.1390996160388605E-35, -2.966809177860505E-35, -2.743123137836562E-35, -4.3835524600100235E-36, -2.7902550940059505E-35, -3.669541385516257E-35, -3.380036776968498E-35, -3.498590513106739E-35, -3.117562763511498E-35, -3.076916919922399E-35, -3.748774925544052E-35, -4.1362454627912657E-35, -3.468408879002482E-35, -8.42038056272613E-36, -1.5429375502449387E-35, -1.8436902440667484E-35, -1.5063291052768376E-35, -3.1882285294757366E-35, -2.66256313092264E-35, -1.0360922499573702E-35, -2.617067929458809E-35, -1.4184153790219685E-36, -1.3436021820065392E-35, 4.250724944579811E-36, 8.959786824964745E-36, 4.016507119982136E-36, -4.653850181401297E-37 ], [ -1.3053576941953929E-34, 1.333250490342768E-35, -1.8768096615498993E-35, -1.7021193058431344E-35, -1.137098205402237E-36, 1.3373543238732837E-35, -8.077824830152745E-38, -2.2958629137651707E-37, -1.1096840948581469E-37, -3.7521362581604146E-37, 1.6928580413135769E-37, 9.76945580714168E-36, -2.1082649185951727E-35, -2.0456819220354356E-35, -5.001486452951236E-36, 1.0131902922245546E-35, 1.5918572961517483E-35, -1.485734310690174E-35, -9.628128483834746E-36, 6.200202040421903E-36, 1.637247505517623E-35, -2.220899457660557E-35, -2.02892523269645E-35, -3.26504513151291E-36, -2.0041767265753534E-35, -2.7119592513687843E-35, -2.503700914967175E-35, -2.601942652774703E-35, -2.3169906267983245E-35, -2.271107530923993E-35, -2.759200205064068E-35, -3.132894926476189E-35, -2.598449878328816E-35, -5.954583229894778E-36, -1.1568975832214817E-35, -1.2649763862423283E-35, -1.0972907521956339E-35, -2.3291283956375672E-35, -2.0035082063480103E-35, -7.490745205648162E-36, -1.9397843960547135E-35, -7.655816959567812E-37, -1.0122789858800343E-35, 3.1019100364608155E-36, 6.089262530565798E-36, 2.0839477045498176E-36, -2.778554157862993E-37 ], [ -3.411798020278844E-34, -9.656399428598166E-35, -1.3551871249516504E-34, -3.3809749431109142E-34, -2.4349639627572345E-34, -9.905848505021304E-35, 5.520842633379167E-37, 6.211304335948072E-38, -3.115943409441457E-37, -4.723155992016169E-37, -7.76625368920975E-38, -4.23757590861752E-34, 2.7736400917773965E-35, -3.280457073208155E-34, -2.6596322023011207E-34, -6.025944166099315E-34, -1.129137336981813E-34, -3.8210537285458363E-34, -3.77729671418743E-34, -2.4827360919121214E-34, -1.1145405239249287E-34, -5.876877022589001E-34, -5.7501297268781996E-34, -3.3476536887027203E-34, -5.945084166481244E-34, -3.680407004698053E-34, -9.004975895691075E-35, 7.764727260879416E-35, -2.703518590400343E-34, -3.199135530145307E-34, -3.000746983290186E-34, -3.0249743579859425E-34, -3.045230361600345E-34, -2.736081747913012E-34, -2.937759128133812E-34, -3.0258998076320883E-34, -2.9672132349624627E-34, -6.063608531151386E-34, -5.135178365594666E-34, -3.0389266748527624E-34, -5.892331584509868E-34, -4.017231633244351E-34, -5.271150424637392E-34, -3.7462881317063997E-34, -3.652168192238136E-34, -3.561149298431571E-34, 6.135479182498541E-37 ], [ -3.2729223182515296E-34, 4.912224802920307E-35, -8.58274404781407E-35, -4.812071728032719E-34, -4.5832471204967885E-34, 4.563014885052635E-35, 1.5588714531359638E-37, 8.165763853835433E-38, -1.912632580065018E-37, -1.6805755170638939E-37, -7.196869207174438E-38, -5.758054641813547E-35, 2.448909245309269E-35, -4.640725600807545E-34, -4.52437949035386E-34, -1.8591402717444987E-34, -8.659628299448953E-35, -6.003606201507486E-35, -3.975567650893198E-35, -2.0005705407467812E-34, -8.850782316042848E-35, -3.351883179612752E-34, -3.6547856571697387E-34, -1.5070493958136212E-34, -3.828008310323651E-34, -3.714145823933344E-34, 9.863433926142188E-35, 1.490354763596995E-34, -2.3639382216343554E-35, -4.644859267703555E-34, -3.0754745772968784E-34, -3.171268172346235E-34, -3.0789613815247267E-34, -4.541660503066797E-34, -3.0377090826332847E-34, -3.041233970540171E-34, -3.0375888377086115E-34, -3.5529224938911034E-34, -3.7047622948534236E-34, -1.5393527553952243E-34, -3.774406463780251E-34, -3.153086594284348E-34, -3.526351988214316E-34, -3.1054716601878016E-34, -1.1614788336480938E-34, -1.8308014306626303E-34, -2.3513978057366672E-37 ], [ -6.711869262700708E-35, 5.333820114796316E-36, -8.127122025573519E-36, -7.538850127883477E-36, -5.33251118709267E-37, 5.231665353223223E-36, -3.4647507730361336E-37, 1.7534464031474821E-37, -3.1736874849799514E-37, -3.208926010363493E-37, 5.088354934430533E-38, 3.8184598914402216E-36, -8.162240504765844E-36, -9.171588516211254E-36, -1.6013353513118795E-36, 3.388337231031036E-36, 5.4087704723763035E-36, -5.282917503058348E-36, -4.1912473934306596E-36, 2.985176430359077E-36, 6.12744755038836E-36, -8.678410091031205E-36, -8.514860930683405E-36, -1.5805459594429693E-36, -8.437587551177679E-36, -1.1649152922737325E-35, -1.0179021841470388E-35, -1.0655314987757393E-35, -8.914766934282949E-36, -9.437502994116255E-36, -1.122414058824995E-35, -1.2937184480392164E-35, -1.1063861641535478E-35, -2.322052553357069E-36, -4.94402002382703E-36, -5.3007140217759643E-36, -4.785400207976091E-36, -9.391481234988029E-36, -7.47575484729664E-36, -2.8739918904873994E-36, -7.398200634807479E-36, -2.091619114444713E-37, -3.9607085785717856E-36, 7.044223368977369E-37, 2.6743112867169375E-36, 1.0283611432059607E-36, 4.716424077454021E-37 ], [ -4.88493064434263E-34, -1.782674501174598E-34, 1.2871588047917008E-34, -5.083770633986453E-34, -4.275919953054787E-34, -1.858436217092231E-34, 1.2934299239483282E-37, 4.166363731928217E-37, -1.4324094358939603E-37, -3.0864447919283405E-37, 1.0372160120157705E-37, -1.9164520155786931E-34, 2.0792891047785397E-34, -4.994097182990539E-34, -4.3613782972849655E-34, -2.686977544309632E-34, -2.2842235563758425E-34, -1.109160121200659E-34, 7.501663146440874E-35, -2.8349189830933676E-34, -2.3089869358095565E-34, -3.529246771575337E-34, -3.5054273001777637E-34, -2.1840492253061785E-34, -3.635014418814501E-34, -2.3625965770275673E-34, -1.782060004211554E-35, -1.0174909795155357E-34, -4.3163027756788366E-35, -4.687452561728536E-34, -4.117529824885904E-34, -4.240462364031248E-34, -4.2562409386784174E-34, -4.379797596478192E-34, -4.033967847981601E-34, -3.960478329107354E-34, -4.092358882746604E-34, -3.5866717150374627E-34, -3.5404894032711618E-34, -2.1975181890555302E-34, -3.5988831569405734E-34, -4.011861405155521E-34, -3.303422264114368E-34, -1.0474112367637397E-34, -2.1930007360363922E-34, -2.8150598229009577E-34, 1.3528735322666826E-37 ], [ -2.0850014547995785E-31, -7.390702437948732E-32, -1.5955631949119307E-31, -8.99061376350391E-32, -5.14932196475942E-32, -7.791274900095361E-32, -9.94116420472664E-38, 5.19172050276137E-37, 5.021868745646473E-37, -3.762814814996112E-37, 1.5922060149581959E-37, -1.587695435336337E-32, -1.4939440206114326E-31, -4.0799087145597327E-32, -4.8563978680419866E-32, -1.7051447581397033E-32, -9.648825408765631E-32, -1.3497918041947604E-31, -4.047433945806029E-32, 8.231374832418878E-34, -9.64076645813203E-32, 9.80847435910236E-33, 8.811368592308433E-33, -5.097980975133265E-32, 9.494648116557239E-33, -6.728948008594906E-32, -9.760748282759905E-32, -8.705408422818399E-32, -6.592596722339942E-32, -2.339156753422194E-32, -1.8462939117665032E-32, 2.594082844843221E-32, -2.6088842769667043E-32, -3.001684007064405E-32, -2.5713699268418835E-32, -4.625276438279035E-32, -2.345430903832831E-32, 9.619492316633047E-33, 1.0024952176868918E-33, -5.030035431198923E-32, 1.5958683186452593E-33, 4.255941248390472E-32, 7.337174196423953E-32, 5.595952535656303E-32, -1.1597076944729034E-32, 2.853582811493119E-32, -5.817193042009268E-32 ], [ -9.787533881366347E-35, 8.567486341709945E-36, -1.1894723640278409E-35, -1.0747694289802125E-35, -6.999914214466731E-37, 8.11661199769633E-36, 5.453109343509504E-37, -4.789343909501983E-37, 5.573236962497324E-37, -4.054526636540883E-37, 4.55361834403654E-37, 6.437922895418669E-36, -1.3644510213983724E-35, -1.3688052636776914E-35, -3.1008073193818185E-36, 6.665461335756173E-36, 1.0320585607151126E-35, -9.764079007653583E-36, -5.485452547697937E-36, 4.774637727438006E-36, 1.0498849339096283E-35, -1.413635399119811E-35, -1.3568641013724651E-35, -2.2668540133739145E-36, -1.3213665907746624E-35, -1.7760314443614862E-35, -1.6576280927529054E-35, -1.6490713081550372E-35, -1.4781759813088484E-35, -1.462310591798282E-35, -1.8239018662392164E-35, -2.0965974398623252E-35, -1.7012745661015425E-35, -2.5883764294297476E-36, -7.36859509858405E-36, -8.528450201688932E-36, -6.89750324258335E-36, -1.5230542074316253E-35, -1.3110451589883154E-35, -4.975806098576726E-36, -1.2666651885164457E-35, -5.635835450192459E-37, -6.283245521531744E-36, 1.8692817046119368E-36, 3.773438851167864E-36, 1.7204967441855817E-36, 2.3138777592092972E-37 ], [ -4.5340386466652096E-34, -1.133261522360262E-34, -2.5157058243910408E-34, -4.5178789695922605E-34, -4.493966225397341E-34, -1.1694153915831945E-34, 2.933363812490585E-38, 2.389104588832552E-38, -2.4145041355435495E-37, 1.530273213717548E-37, -3.7318388541154216E-37, -3.62541991767346E-34, -1.1812787898543174E-34, -4.274025680074255E-34, -4.497306152163956E-34, -4.892509114805833E-34, -4.44355108808221E-35, -2.5563616794621507E-34, -3.212278939545191E-34, -2.199218114475364E-34, -4.52182302518247E-35, -5.7860925413979455E-34, -5.414913995515661E-34, -2.660965473717838E-34, -5.6909846187168385E-34, -5.141216579388123E-34, -1.4406520054727918E-34, 1.4946641848908337E-35, -2.94013525642203E-34, -4.276878829305196E-34, -3.05856254364271E-34, -3.0487663261757815E-34, -3.10462627289654E-34, -4.48966949330655E-34, -3.049527895218777E-34, -3.0459442783951843E-34, -3.0496298133239705E-34, -5.988903719804986E-34, -4.920913628496545E-34, -2.4528059896410306E-34, -5.6158170758260924E-34, -1.6104201557269346E-34, -3.4012410290979408E-34, 2.6466599320501253E-34, -3.202717448029937E-34, -3.2809447652898255E-34, -8.638094334597785E-37 ], [ -1.5745150942991297E-34, 1.87958173349403E-35, -2.6356885443505686E-35, -2.3452622601617421E-35, -1.2955739150472214E-36, 1.8362743446561392E-35, -8.387648313423056E-38, -2.0742097209443894E-37, -2.8973393019507164E-37, -3.5831220492197785E-37, 2.469945822963917E-37, 1.425155415802671E-35, -2.835824948207772E-35, -2.86953462816356E-35, -6.833384534516793E-36, 1.3579608343988362E-35, 2.14970502567282E-35, -2.0385766585247656E-35, -1.305185362668659E-35, 9.056881874742455E-36, 2.2166820616887537E-35, -3.026606530207803E-35, -2.782696675552379E-35, -4.912233475923911E-36, -2.84127024944982E-35, -3.8095470395917003E-35, -3.3578388624934133E-35, -3.552626919861147E-35, -3.179676011673619E-35, -3.0668080109234076E-35, -3.732451279233048E-35, -4.2184208218123035E-35, -3.5489128086097845E-35, -7.65415522624404E-36, -1.630568866691305E-35, -1.854619016466143E-35, -1.5339485301118183E-35, -3.2368340867554794E-35, -2.7925456682345695E-35, -1.0231784669806167E-35, -2.6173446839720485E-35, -1.1747204078440776E-36, -1.3632540934628072E-35, 3.48085161726439E-36, 9.133716023439458E-36, 3.432515463223348E-36, 2.6410768858583987E-37 ], [ -3.7619766292833233E-34, 2.396620982132886E-34, -3.00178820178501E-35, -4.0963303186342855E-34, -4.019175615148825E-34, 2.3196942821479937E-34, -1.9086448606068108E-38, 2.291417097129933E-37, -8.877698996376488E-38, 4.40773460745495E-37, -8.11234829488123E-39, -2.7180652790741087E-34, 7.89569703006512E-35, -3.926183920777536E-34, -3.786996306305626E-34, -4.020319786775082E-34, -8.932541611394147E-35, -1.93662864723041E-34, -4.0735974851800055E-35, -2.5194553159989523E-34, -9.162706169923579E-35, -4.056975175550017E-34, -3.847409124169829E-34, -1.6573696010098016E-34, -4.028473817662832E-34, -1.5283349467756415E-34, -5.256005594905748E-35, 4.990722159975092E-35, -1.8255029349155675E-34, -4.0522168102999375E-34, -3.1859385955176883E-34, -3.3021774655615164E-34, -3.2088199474268286E-34, -3.6414288404864676E-34, -3.292103586141013E-34, -3.2663522134240724E-34, -3.3299105827694805E-34, -4.224518032481284E-34, -3.8913008350466825E-34, -1.6992725195981158E-34, -4.009954678512686E-34, -9.269156017368066E-35, -3.6591753800591916E-34, -3.126121361874385E-34, -1.5790505607167882E-34, -2.4310683901395238E-34, 6.438997951563344E-37 ], [ -3.5810183349027857E-34, 2.679485623777789E-34, -3.05530326434924E-35, -3.7668331769803554E-34, -3.596687582631287E-34, 2.6265372387903716E-34, -5.177702196391265E-37, 7.189160714383802E-37, -1.4248385642325899E-37, 2.474949748619204E-37, 2.1549272960574395E-37, -2.2774710380524253E-34, 9.747107485014228E-35, -3.6172784537349222E-34, -3.4161281395263706E-34, -3.7372516308163255E-34, -6.946237626168858E-35, -1.6756690322364152E-34, -5.256906055592563E-35, -2.537947269479762E-34, -7.07238328366014E-35, -4.132462923234376E-34, -3.872298929786366E-34, -1.5123569787767738E-34, -4.0489382864423415E-34, -2.122346620310658E-34, 1.2432618083514014E-35, 4.7370498113132557E-35, -2.35648499609071E-34, -3.7086748760412284E-34, -3.0621291404890867E-34, -3.1356968260520036E-34, -3.093103834604521E-34, -3.3436507066864424E-34, -3.089405251811359E-34, -3.066053615752166E-34, -3.1051788689306E-34, -4.269337582686677E-34, -3.924657421742915E-34, -1.560330128369608E-34, -4.036057862591196E-34, -1.3592211497526305E-34, -3.8164340330164172E-34, -3.3112609053654778E-34, -1.4800341671365385E-34, -2.4551891063744123E-34, -3.219684241734167E-37 ], [ -1.0307130427726509E-34, 9.40133067332957E-36, -1.3255542726071655E-35, -1.2168684639263293E-35, -7.4507687735665405E-37, 9.179559157846787E-36, 2.8174734000644787E-37, -1.0020062941374893E-37, 3.352049613107577E-37, 1.4600666312420733E-37, -9.671875373669614E-38, 7.393218367675985E-36, -1.4487517497465024E-35, -1.4779243370514884E-35, -3.96492086006117E-36, 6.452041304127037E-36, 1.0834606579587442E-35, -9.947504658312862E-36, -7.055159350180971E-36, 4.861875680115558E-36, 1.084268356278614E-35, -1.5159562891210072E-35, -1.4488548893477914E-35, -2.1350355923769492E-36, -1.4554865610919607E-35, -1.920964932311139E-35, -1.710518288782247E-35, -1.8405684144245295E-35, -1.6354278837224575E-35, -1.615679822115266E-35, -1.971598436812989E-35, -2.2154166641706183E-35, -1.7980020397381577E-35, -3.880300887635089E-36, -7.063240508658944E-36, -9.251615111167492E-36, -7.581667368362883E-36, -1.6374073402399316E-35, -1.3817114367330136E-35, -5.3154287184190594E-36, -1.275876476342493E-35, -9.660768362204991E-37, -6.304967312141491E-36, 1.8499420217327526E-36, 4.1042847508308144E-36, 1.9661036529861692E-36, -2.5794099595681253E-37 ], [ -4.259111039926405E-34, -1.864437010619256E-35, 1.358774815454051E-34, -4.912404696897982E-34, -4.065706314680295E-34, -2.506337386104828E-35, 2.0122065933644804E-37, -1.2360067401783538E-37, -1.0890477564542226E-37, 4.051063202704217E-37, 4.4320658896450205E-37, -2.0086520024088703E-34, 2.2935462847858408E-34, -4.67974808531627E-34, -3.7790778789858817E-34, -2.818762234942748E-34, -2.0011700459904267E-34, -6.725723382982409E-35, 8.409785392258428E-35, -2.908644406293693E-34, -2.022302906678787E-34, -3.899404036945607E-34, -4.043093009099234E-34, -2.122280238856322E-34, -4.034140935422407E-34, -1.80494177203332E-34, 4.670812477716752E-35, 9.228031575467709E-35, -1.9765930045019213E-35, -4.738432164140029E-34, -3.4920922397474354E-34, -3.69261199442848E-34, -3.525180605619204E-34, -3.613062032249168E-34, -3.026941207289502E-34, -3.0223278549726903E-34, -3.030728067304303E-34, -4.044578034199987E-34, -4.068916601121946E-34, -2.159144133565689E-34, -3.998636281751311E-34, -3.7546699705924495E-34, -3.4783637024747303E-34, -6.765601926786337E-35, -2.076965401091658E-34, -2.811884675274268E-34, 4.299300999971274E-37 ], [ -1.2948662189918293E-34, 1.2718589918531884E-35, -1.935086522961625E-35, -1.6644644227918837E-35, -1.1349872112336665E-36, 1.3306931902541688E-35, 6.25603776773579E-37, -4.0982932307426585E-37, 2.393462363199508E-38, 1.7631982440115467E-37, 9.251345787816642E-37, 9.836897365407356E-36, -2.0033495506901237E-35, -2.064925471122088E-35, -4.9158830976992605E-36, 9.211769441692358E-36, 1.5911135614234905E-35, -1.4406085324459954E-35, -9.657268833049547E-36, 6.230524397315013E-36, 1.5629088543283158E-35, -2.1215286519998213E-35, -1.9793064045565622E-35, -3.554441132862699E-36, -2.030739856638773E-35, -2.6638522890766484E-35, -2.4433523391049125E-35, -2.516961872736207E-35, -2.3179890945838764E-35, -2.1808292622173422E-35, -2.761443505964965E-35, -3.058794366749769E-35, -2.522375191247102E-35, -5.7084723110139036E-36, -1.1366483114322642E-35, -1.2905552549698204E-35, -1.1285648411965257E-35, -2.3435550831212246E-35, -1.9828540669704536E-35, -7.167813158459205E-36, -1.9269424538972124E-35, -1.132385621400315E-36, -9.231379985150448E-36, 1.9861429123778347E-36, 6.557665306582526E-36, 2.2083958218826756E-36, -2.0031975575977334E-38 ], [ -1.1251587538171507E-34, 1.0980993830320145E-35, -1.5234453249721195E-35, -1.367649309779975E-35, -1.0530223882205482E-36, 1.0561432901383719E-35, -3.731037591690184E-37, -1.8030046689791857E-37, -5.552402572406733E-37, 5.0945140639209554E-37, 2.686143613282517E-37, 8.046702114229398E-36, -1.6614685044315352E-35, -1.6556903073659484E-35, -4.4836073211168666E-36, 7.387746911531195E-36, 1.2544078829537407E-35, -1.1784323532702939E-35, -7.451054372076356E-36, 4.8706742927877725E-36, 1.2930607135953613E-35, -1.7008054071522677E-35, -1.6063293506757394E-35, -2.7790701143963512E-36, -1.6553020219642464E-35, -2.1956834606480604E-35, -1.9545398103126214E-35, -2.0407650333584668E-35, -1.8290804472851616E-35, -1.7996042324872946E-35, -2.2158948955149035E-35, -2.509382183452507E-35, -2.0765343550170348E-35, -4.5782948456090686E-36, -9.232391979283256E-36, -1.0393170076026379E-35, -8.505950625659341E-36, -1.896505479458083E-35, -1.5982766131887025E-35, -5.754977839445271E-36, -1.5029005163402644E-35, -8.2230687373011E-37, -7.844987337100788E-36, 2.064176887088213E-36, 5.120511020346752E-36, 1.669512186619558E-36, 1.0175994325251048E-37 ], [ -1.3705707995178874E-34, -4.50433864883623E-34, -3.149112199713231E-34, -2.3190290624592747E-34, -2.5864701123981033E-34, -4.5069936521627825E-34, 6.275931529401479E-37, -1.8607028326768263E-38, 3.7141447120182753E-37, -1.7254684079477767E-37, 1.0915312839988493E-37, -3.1885718251339823E-34, -3.784370865880121E-34, -2.2198917151481974E-34, -2.5924442888259125E-34, -2.879926452471296E-34, -5.346058305680275E-34, -4.486711087188738E-34, -8.806425501724789E-34, -6.157525755639344E-34, -5.336818504123957E-34, -2.7994419807239593E-34, -2.6670432675745898E-34, -3.568494898145229E-34, -2.663447235031559E-34, -2.588994700019129E-34, -2.9922875452984946E-34, -3.492591530262942E-34, -2.6590224705156213E-34, -2.313601671905576E-34, -7.18600514427891E-35, 3.8480514553038094E-34, -9.508061459665624E-35, -2.5703877621277328E-34, 3.079524987151531E-34, 3.201815788806925E-34, 3.1013748529546296E-34, -2.7700358702697463E-34, -2.6641401770656583E-34, -3.5631923475397627E-34, -2.680999365799722E-34, -4.281270423321804E-34, -4.65890121448478E-34, -8.416931955123854E-34, -1.0568028347610883E-33, -3.76480372240326E-35, 3.4251320996189944E-37 ], [ -1.127315889218729E-34, 1.0467776740466523E-35, -1.567884747455059E-35, -1.3912639701287797E-35, -8.301847202579373E-37, 1.0442071440310548E-35, 8.367402594842362E-37, 8.259417340346104E-38, 1.0073641134186658E-36, 2.743053675896185E-37, -8.220147017399866E-38, 8.039123232112302E-36, -1.6414043159364265E-35, -1.719071034463687E-35, -4.45631722491756E-36, 7.920951068804022E-36, 1.268425242434832E-35, -1.2267261640519567E-35, -7.6072445591796E-36, 4.715934349802657E-36, 1.3116401171470268E-35, -1.7899346410389748E-35, -1.6791280788048708E-35, -2.6932975342564368E-36, -1.6738702146386056E-35, -2.2352309852230403E-35, -1.9588999858337332E-35, -2.0426846671191282E-35, -1.8566620783011136E-35, -1.7997116400808444E-35, -2.2549494522576973E-35, -2.43626062656388E-35, -2.0480229946322272E-35, -3.9751519701217176E-36, -8.298263535179775E-36, -1.0982174092339777E-35, -8.50491659122046E-36, -1.8812932379225787E-35, -1.589289652742061E-35, -5.415835070115907E-36, -1.4782482745794495E-35, -7.0142172240447685E-37, -7.597427501054198E-36, 2.358813807411731E-36, 5.3736134316654016E-36, 1.9994360752192754E-36, 5.844207782815303E-38 ], [ -2.8636786566158525E-33, -7.1429794835129005E-31, -6.130059417534825E-31, -4.6940484206650386E-31, -4.776942292569179E-31, -7.374034617537773E-31, 4.083994985009564E-37, -7.214975836137662E-38, 1.655667386797498E-38, 4.689068487820108E-37, 6.1458419717921175E-37, -5.665880382616849E-31, -6.622156578416805E-31, -7.65865258937338E-31, -4.8167099250487795E-31, -5.948228613258273E-31, -5.948280091748736E-31, -9.01759967954609E-31, -1.1061420380594372E-30, -4.42338118994903E-31, -6.041574184561558E-31, -5.0736168472914275E-31, -1.8704256945651581E-31, -2.5250928901934844E-31, -2.2460694841954757E-31, -5.761261686547859E-31, -6.604744380520659E-31, -6.32501283825811E-31, -5.12366741466726E-31, -5.184805195564419E-31, -7.1777430773655965E-31, -8.063330141969776E-31, -5.293667542557285E-31, -4.615983012774034E-31, 3.712665699528365E-31, 4.480590227395141E-31, 4.1943367653847835E-31, -4.749092070372382E-31, -1.9454063117377349E-31, -2.65824793666976E-31, -2.3282984069300366E-31, -7.205706195131939E-31, -8.300183311708996E-31, -7.164053451549679E-31, -4.9042173611298217E-32, -4.298472499683917E-31, 1.8831584790673286E-37 ], [ -6.94298185850214E-35, 5.394741787607959E-36, -7.445425924494451E-36, -7.081203503861601E-36, -3.652837663044118E-37, 5.6709261989012675E-36, 9.1939921640337E-37, 1.239581363424663E-37, 5.700123949858139E-37, -4.6185066893772845E-37, 1.1381263261495883E-37, 4.4497473051355705E-36, -8.671817280513166E-36, -8.20993054617027E-36, -1.8882059757940445E-36, 4.435473687272881E-36, 6.778735179565199E-36, -5.698433414699996E-36, -4.176211173854066E-36, 2.372018183068377E-36, 6.291766282636904E-36, -9.228877413600167E-36, -8.361765454793052E-36, -1.4210880995842306E-36, -8.688554092824838E-36, -1.2437509904534336E-35, -1.0923601504428128E-35, -1.0712325072813472E-35, -1.0437775491819784E-35, -9.483291428291225E-36, -1.1605792601289572E-35, -1.3404511975120224E-35, -1.1125146140898487E-35, -2.4141436083358834E-36, -4.639087399239409E-36, -5.4733426760766835E-36, -4.6055525153078264E-36, -9.973915620875407E-36, -8.770932071017937E-36, -2.6609450165988134E-36, -7.458373297495356E-36, -6.136056383303056E-38, -3.586731489208841E-36, 1.5863934100969356E-36, 2.052899941215041E-36, 1.0073907529600437E-36, -2.174173904358151E-38 ], [ -3.0704554908930856E-31, -2.5060180598243953E-31, -7.839758596292968E-32, -1.4493424477624717E-31, -2.2393163326976276E-31, -2.5572190778343445E-31, 6.6538755557263415E-37, 1.9359276504314312E-37, 1.1912592729205868E-37, 4.9397453308238676E-37, -1.2020243688644732E-37, -2.938806645041188E-31, -5.488313670634858E-32, -1.4606637058649654E-31, -2.2345718915583216E-31, -2.9613741839890543E-31, -1.372595837082484E-31, -1.97906243658911E-31, -2.1031337459166505E-31, -1.8077635622292763E-31, -1.3747142923098812E-31, -2.353008452714572E-31, -1.4020106551801575E-31, -1.8634383889523083E-31, -1.210349086383155E-31, -1.2896831584445532E-31, -9.191068600621489E-32, -1.2782597169113934E-31, -3.759751130126944E-32, -1.0157163445990267E-31, -2.269770691632764E-31, -2.556417738303413E-31, -2.302218596292505E-31, -2.2619468642770763E-31, -1.1143259602799683E-31, -2.2077396798208207E-32, -1.04462022411141E-31, -1.865405841463489E-31, -1.1802445451629E-31, -1.7084520968756923E-31, -8.484383994841876E-32, -5.395061539129645E-32, -1.7069617958087564E-31, -5.50911326366342E-32, -1.404417433953122E-31, -1.6591685403534763E-31, 1.8793421841832856E-37 ], [ -5.3342353487353635E-34, 6.44825570675045E-35, 1.2209530478940583E-34, -4.555436034477001E-34, -4.198952864325294E-34, 6.064183528668037E-35, 8.523171365581313E-38, 7.099182718396262E-37, -1.5317218257993751E-37, -2.023361572911897E-37, 1.0724650106179208E-38, -1.120951151547572E-34, 2.2738760361959115E-34, -4.3486245291521285E-34, -3.966884047823206E-34, -2.2594838894681966E-34, -1.593795892026396E-34, -6.628182642343554E-35, 1.2378056044254744E-34, -2.5331481311218462E-34, -1.620841738214496E-34, -3.687349429252913E-34, -3.854317216367273E-34, -1.9927287473207126E-34, -4.032443288824998E-34, -3.642709242967006E-34, -4.986361376554046E-36, -1.5183457542150939E-35, -1.0347358749993454E-34, -4.412414088731853E-34, -3.3540959959677276E-34, -3.466862530704906E-34, -3.409936285623454E-34, -3.8095101359948315E-34, -3.3748391495991814E-34, -3.3315767042735283E-34, -3.4101862493533757E-34, -3.8280867362708622E-34, -3.895378186823219E-34, -2.0282627026987326E-34, -4.001324435643492E-34, -3.434061914479878E-34, -3.6584550653206912E-34, -7.502234812393032E-35, -1.765251873698004E-34, -2.271561552181343E-34, -3.982475066393191E-38 ], [ -4.465023047589358E-34, 8.474481540048273E-35, 1.0639626093690866E-34, -4.385016904661612E-34, -4.136426752148564E-34, 8.02031548074633E-35, 4.037906482952098E-37, 5.760319674462052E-37, 6.191946559292364E-38, 2.173089957645654E-37, 1.4411323163025608E-37, -1.5799404810734626E-34, 2.123233230590364E-34, -4.177330225154472E-34, -3.908982479916299E-34, -2.6402399183977766E-34, -1.559342530036605E-34, -5.016859049634452E-35, 1.129481371146197E-34, -2.8178424542098072E-34, -1.5796622161922736E-34, -3.994437216493155E-34, -3.8898341964161344E-34, -1.8301339543608192E-34, -4.118808125841431E-34, -3.5473435831546702E-34, 9.182864117301924E-36, 4.931456835704049E-35, -8.548178019354207E-35, -4.264833511741889E-34, -3.2703470224894248E-34, -3.3890180783353236E-34, -3.298123398331092E-34, -3.7500653110600775E-34, -3.3675892014805334E-34, -3.3256914702981194E-34, -3.3989428180359857E-34, -4.152966846463538E-34, -3.941028575804125E-34, -1.8657133662827284E-34, -4.089811993322093E-34, -3.534460038902656E-34, -3.717432442397434E-34, -4.439032542529853E-35, -1.917123550313343E-34, -2.6925896535927776E-34, -3.2918766916095055E-37 ], [ -1.653780684749968E-33, -4.9060307347010306E-34, -2.526435913781054E-33, -9.460203809437476E-35, -1.157476313754766E-33, -6.6023397590911415E-34, -1.7626824619329931E-37, 2.4170460138635027E-37, 7.354284777847702E-38, 2.583261879031585E-37, 2.6866789902416835E-37, -2.4213285410491344E-34, -2.5425850524703324E-33, -2.6639678161649915E-35, -1.5822595271299643E-33, -6.119247639870783E-34, -6.53945446003415E-34, -1.3860007872056857E-33, -1.3866495278752692E-34, -1.550740131070618E-33, -6.542674043643317E-34, -1.0544063535447298E-33, -1.4015208620542131E-33, -2.8829637048475276E-34, -1.0991370752955676E-33, -3.818775758432583E-33, -3.220173789234114E-33, -2.4599865129870554E-33, -3.0094977931866407E-33, 1.8817697017366856E-35, -2.668032146431496E-34, 5.177986680203801E-35, -2.8232613174543404E-34, -1.465547966665562E-33, 7.975076231466689E-34, 5.7413902034992835E-34, 6.860773293860829E-34, -1.147870929515715E-33, -1.879995693494717E-33, -6.201897350611042E-34, -1.3021285654072865E-33, -5.930323591223152E-34, 8.558637719046309E-35, -8.4055228626619E-34, -1.4795339137253887E-33, -1.1596766670456482E-33, 6.349201617818905E-38 ], [ -1.603629076122251E-34, 1.910710501084454E-35, -2.737702473335872E-35, -2.498417699709095E-35, -1.661393364249407E-36, 1.9391049969944764E-35, 1.0303984312129208E-36, 1.9727030293206215E-38, 1.731324560435305E-37, -2.112216922311076E-37, 1.4003971111776294E-37, 1.4228931537679366E-35, -3.015931895315214E-35, -2.918645724415776E-35, -7.258092756398877E-36, 1.4619045653177186E-35, 2.2445415420763895E-35, -2.110408116517658E-35, -1.3591270017217484E-35, 9.41059467345765E-36, 2.3499169996008523E-35, -3.0765087542481525E-35, -2.890966220625236E-35, -5.151447581371733E-36, -2.982606364282991E-35, -3.857071953974224E-35, -3.4843194502226957E-35, -3.664223280634369E-35, -3.304208106682596E-35, -3.2037890504052253E-35, -3.9110645831996E-35, -4.3570420319089206E-35, -3.649951087080705E-35, -8.765874076705917E-36, -1.688875751399397E-35, -1.8710172757970407E-35, -1.6159739108236287E-35, -3.326746471718817E-35, -2.886124881575561E-35, -1.0659854410586436E-35, -2.768018373738101E-35, -7.700786465404141E-37, -1.3289524601032393E-35, 4.0881942281896356E-36, 9.525866251652864E-36, 3.408456091879537E-36, -1.994450894572537E-37 ], [ -2.534029781043849E-34, -3.7555572289715148E-34, -2.745896484361007E-34, -3.2435504916572993E-34, -3.1036936891770224E-34, -3.820281383566649E-34, -7.645509601163499E-37, 6.061500171150007E-37, -1.427395075951539E-37, 1.2190193467703604E-37, 2.8199143057249577E-37, -2.9190196229960093E-34, -2.749217996982604E-34, -3.6032678961660316E-34, -2.5407058921290456E-34, -3.400064153301773E-34, -3.653469538112075E-34, -5.482679325299717E-34, -2.736709563785531E-34, -5.332224292667297E-34, -3.6504478442383413E-34, -2.342815646457384E-34, -5.309666039071661E-34, -3.991154488724089E-34, -3.034197666666058E-34, -2.547524422031257E-34, -2.7039069813019904E-34, -2.7791378342275983E-34, -2.6782788691574373E-34, -3.825118742985728E-34, -2.766104097904746E-34, -2.7971104261142246E-34, -2.773473187469236E-34, -2.409795573643264E-34, -2.2149201390736337E-34, -2.2888803843530978E-34, -2.2249254051438175E-34, -2.296448324934579E-34, -5.3153913309766585E-34, -3.933779213292888E-34, -5.558932879398702E-34, 2.2870095884999054E-34, -5.515500448713625E-34, -1.1839111152391813E-34, -3.3595648858116958E-34, -5.098512468222192E-34, 2.1945128023393235E-37 ], [ -3.296725937417006E-35, 1.7080751074615982E-36, -3.9967944397174865E-36, -3.680362992010114E-36, 1.4449656053135142E-37, 2.6057229990314824E-36, -3.699492828603373E-37, -2.2649569039502717E-37, 2.7276331592392196E-37, 2.5155835665266202E-37, -2.965492194222203E-37, 2.1673737395858743E-36, -3.864521455259603E-36, -4.0651460032725794E-36, -9.494919410478204E-37, 2.076794418063174E-36, 3.238566900356468E-36, -3.069096393791634E-36, -1.3709178388576553E-36, 1.3172520539816394E-36, 3.2571568756175465E-36, -4.2435792480105966E-36, -3.365208797836499E-36, -9.263367890861022E-37, -3.597267173852267E-36, -5.4626298377532334E-36, -4.3365416174353515E-36, -4.620548990850498E-36, -3.824287295141989E-36, -3.9488864294491433E-36, -5.159317845084197E-36, -6.144972509450906E-36, -4.334899412259247E-36, -1.0551256961513035E-36, -2.1758506001083447E-36, -2.824542982664045E-36, -2.3726376227824886E-36, -3.9916121154936294E-36, -2.9940852870498476E-36, -1.4406696857825993E-36, -3.6153793400373306E-36, -6.295922326932176E-38, -1.8681449612942526E-36, 2.0155012727716335E-37, 1.475035155747631E-36, 7.80221960549834E-37, -5.712175972212807E-37 ], [ -4.29088310709203E-34, 7.46264626636292E-36, 2.4235620055045883E-34, -4.336591119190973E-34, -4.367943762382967E-34, 7.383834391737921E-36, 1.728039977166104E-37, -1.903822321884267E-37, -1.1194883616180375E-37, 3.109773697976391E-37, 2.0232317908380573E-39, -1.115049633282908E-34, 3.4518162353960206E-34, -4.277400347434455E-34, -4.217848780847147E-34, -1.986865886730284E-34, -2.0050888642795082E-34, -2.943229374695152E-35, 1.1415733149932141E-34, -2.9457468051013544E-34, -2.0259411818352963E-34, -3.8032438393587007E-34, -3.795777083212364E-34, -2.0380005101873354E-34, -4.020008694814322E-34, -3.1872138046226384E-34, 1.4634598196312399E-35, 5.1954209746810345E-36, -5.112356766509941E-35, -4.366928642578738E-34, -3.6179399139881326E-34, -3.748308412923376E-34, -3.631737695416687E-34, -4.068308824022689E-34, -3.566737911513146E-34, -3.515387015367701E-34, -3.619990287064303E-34, -3.922397550900809E-34, -3.83894031566588E-34, -2.0734917828699415E-34, -3.977337668208395E-34, -3.480109838323857E-34, -3.510733711577851E-34, -4.7856583844059675E-35, -2.0927054930856687E-34, -2.852518294935265E-34, -3.6916634394713904E-37 ], [ -1.7496364702712427E-34, 2.26595761625823E-35, -3.2245619077583814E-35, -2.918992775782294E-35, -1.8382134566148505E-36, 2.2311363436416417E-35, -1.9060773612714156E-37, -4.4148398416075625E-37, -3.6762430297975468E-37, 1.0000224914256543E-38, 5.502523882051065E-37, 1.7649061464936945E-35, -3.4787626049517433E-35, -3.500705485380149E-35, -8.22900052138461E-36, 1.7351239461307457E-35, 2.670347420985732E-35, -2.4473464189414145E-35, -1.6159400831407245E-35, 1.181207141959186E-35, 2.6868233915121867E-35, -3.721062478666338E-35, -3.4374049368122215E-35, -6.425968300295896E-36, -3.4879235873329355E-35, -4.518109904987952E-35, -4.117301688963638E-35, -4.3237479823236997E-35, -3.888905483484326E-35, -3.7505761226513773E-35, -4.615623905617793E-35, -5.113848867657563E-35, -4.2805857777996365E-35, -1.0610159903186799E-35, -1.9823325442060676E-35, -2.2215335375456845E-35, -1.943169522280241E-35, -3.945245579856969E-35, -3.426317228474549E-35, -1.304443547104753E-35, -3.2685950536857173E-35, -1.085877940385619E-36, -1.6535967151532667E-35, 4.927136324227366E-36, 1.1396357445716256E-35, 4.6499215521614395E-36, 3.0489913409103744E-39 ], [ -3.822357526282809E-33, -9.376226241334443E-35, 6.459146033332379E-34, -1.0920715729173631E-33, -1.0808154601074968E-34, 1.2314502846790363E-34, -1.3216021673003977E-37, -4.81520495189602E-38, -8.247800636839145E-38, -5.341411485491909E-37, -9.971273797496083E-38, 5.227319409068408E-34, 7.127500323834123E-34, -9.521492443187002E-34, 1.4876948631970318E-34, 7.2785821892052085E-34, -1.4458367066536545E-33, -3.1463930846054744E-33, 5.896181469744415E-34, -2.6023187157446514E-33, -1.443040149741227E-33, -4.124652742467787E-33, -2.0711366933800696E-33, -1.7314257690448934E-33, -2.063983819064358E-33, 1.0699195378801365E-33, -1.2155688583368827E-33, -1.6417881727408845E-33, -1.064768511457709E-33, -5.053838341461517E-34, -3.322494480792626E-33, -4.9457115162320154E-33, -3.311591399602002E-33, 2.3409597625290833E-34, -7.533918516781548E-34, -1.4484650649740086E-33, -5.6556666461110545E-34, -4.222869318254826E-33, -1.759234367538324E-33, -1.4974159430068958E-33, -1.7788355402150088E-33, -5.140886270900206E-34, -9.061301908042898E-34, -9.06411877084558E-34, -1.9267064776235096E-33, -2.711873472345346E-33, 1.4223402577801575E-37 ], [ -5.044592963948887E-34, -1.8570258602933107E-34, 2.5287467806011943E-34, -4.169646668663053E-34, -4.1341525146967895E-34, -1.8744780905188327E-34, 2.6650651048537274E-37, -6.046329135687515E-38, -1.394266130670694E-37, -1.8740253388705984E-38, -2.567899959869615E-37, -1.4940775287500632E-34, 3.333502750040335E-34, -4.2142113916433635E-34, -4.267271229877795E-34, -2.0330579501642355E-34, -2.328182695338815E-34, -7.238536973471915E-35, 1.0909940303474839E-34, -2.870980071993224E-34, -2.3558968179783067E-34, -3.495882475164697E-34, -3.5980035043081803E-34, -2.374847244779902E-34, -3.5869254522575684E-34, -2.183581392496212E-34, 7.098168263732951E-36, -1.0486239127530071E-34, -3.380888880021269E-36, -4.108698728037686E-34, -4.313044910682601E-34, -4.368492250533278E-34, -4.326076929046674E-34, -4.337232030981655E-34, -4.228827971729645E-34, -4.1691481675744715E-34, -4.262300291394081E-34, -3.5397634010907253E-34, -3.6169468660510953E-34, -2.380443784848516E-34, -3.5595308648424825E-34, -3.833238284192488E-34, -3.1840692131070405E-34, -9.266960556256879E-35, -2.172679363143515E-34, -2.8550817968175953E-34, 5.684547393901638E-37 ], [ -1.3429492057241595E-34, 1.4193458399859937E-35, -2.024991203803284E-35, -1.8181662887232504E-35, -1.2626272130857042E-36, 1.3578281052076843E-35, 2.098761359093663E-37, 5.015877740010887E-37, -1.3284445954668404E-37, 3.5784608393043998E-37, -5.330086127718519E-37, 1.0957862494014106E-35, -2.1486686032896176E-35, -2.1885041713963292E-35, -4.187528938919086E-36, 1.066122612157405E-35, 1.6514075630819374E-35, -1.5239234608150365E-35, -9.595555108194398E-36, 6.815650972504996E-36, 1.6768136390718684E-35, -2.1785643423190973E-35, -2.1517054276644374E-35, -4.0504678031655085E-36, -2.1568853883876242E-35, -2.83245845782205E-35, -2.584979089575601E-35, -2.728315426745663E-35, -2.415591594338666E-35, -2.3638109491582307E-35, -2.8962907767468164E-35, -3.2660533889091817E-35, -2.692856296993302E-35, -5.661630675285101E-36, -1.2187595625560153E-35, -1.3952382030833006E-35, -1.1795052342642614E-35, -2.4321952026082065E-35, -2.0747371299945206E-35, -7.70381955829792E-36, -1.981661053964122E-35, -1.434874245345772E-36, -9.668931120428695E-36, 3.412987990535191E-36, 7.191348259667539E-36, 2.89892238773744E-36, 2.332068338240746E-37 ] ], [ [ -3.130695432242147, 3.548774693051634E-19, 3.5487746930624103E-19, 3.5487746930684485E-19, 3.5487746930517007E-19, 3.548774693051634E-19, 3.5487746909014827E-19, 3.548774693051634E-19, 3.548774693051695E-19, 3.5487746930516987E-19, 3.548774693051634E-19, 3.548774693066154E-19, 3.548774693051649E-19, 3.548774693051695E-19, 3.548774693051634E-19, 3.548774693051634E-19, 3.548774693051634E-19, 3.5487746930517103E-19, 3.5487746930516987E-19, 3.548774693051634E-19, 3.548774693051695E-19, 3.548774693070887E-19, 3.548774693051634E-19, 3.5487746930517536E-19, 3.548774693051634E-19, 3.5487746930516987E-19, 3.5487746930516987E-19, 3.548774693051634E-19, 3.548774693051695E-19, 3.548774693051634E-19, 3.548774693051634E-19, 3.548774693051637E-19, 3.548774693051634E-19, 3.548774693068171E-19, 3.548774693051634E-19, 3.5487746930679935E-19, 3.548774693051695E-19, 3.548774693051695E-19, 3.548774693065332E-19, 3.548774693051634E-19, 3.548774693051634E-19, 3.548774693051634E-19, 3.548774693051695E-19, 3.548774693051634E-19, 3.548774693064759E-19, 3.548774693051695E-19, 3.548774693051634E-19 ] ], [ [ 95.08887186950678, -1.2396326107903345E-8 ] ] ]
}