{
  "config" : {
    "algorithm" : "ListNet",
    "numIterations" : 500,
    "batchSize" : 0,
    "verbose" : true,
    "nomodel" : false,
    "params" : {
      "regularization" : {
        "regularizer" : "L2",
        "rate" : 0.01
      },
      "learningRate" : 0.001,
      "weightInit" : "xavier",
      "optimizer" : "adam",
      "layers" : [ {
        "num" : 15,
        "activator" : "ReLu"
      }, {
        "num" : 1,
        "activator" : "Identity"
      } ]
    },
    "dataSet" : {
      "training" : "../../../MQ2007/Fold1/train.txt",
      "validation" : "../../../MQ2007/Fold1/vali.txt",
      "test" : "../../../MQ2007/Fold1/test.txt"
    },
    "model" : {
      "format" : "json",
      "file" : "../../../MQ2007/Fold1/models/ltr4l_101.json"
    },
    "evaluation" : {
      "evaluator" : "NDCG",
      "params" : {
        "k" : 10
      }
    },
    "report" : {
      "format" : "csv",
      "file" : "../../../MQ2007/Fold1/reports/ltr4l-report_101.csv"
    }
  },
  "weights" : [ [ [ -1.9652430210398642E-4, -1.3104499900198299E-5, -6.400821073703748E-5, -1.9897252787969206E-5, -3.492663223391975E-5, -2.9167848831788814E-5, 7.677036441413492E-6, -3.882243245577374E-6, -1.317829559094412E-5, 2.2545914688340774E-5, -1.0214108182973524E-5, -1.0022927377373172E-5, -6.070091192091634E-5, -4.62602448138327E-5, -3.671344956366401E-5, -1.2542210019185651E-5, 8.369433543131467E-5, -2.6116484196847783E-5, 1.2952868855422184E-5, 9.541941024835861E-6, 8.037430864277937E-5, -3.12091586326276E-5, -9.68975671660991E-5, -1.0610627157959726E-4, -1.0863893855762042E-4, -7.2304760279663E-5, -3.0070292018582575E-5, -1.9032375777238333E-5, -3.787062549035424E-5, -4.0866499131901525E-5, -1.3293963337255198E-5, -1.5092202985836445E-6, -4.577424522078282E-6, -4.519112791923099E-5, -2.146446895256632E-5, -3.8155250413380823E-5, -1.9399801861554717E-5, -3.9195475037646155E-5, -8.83715286899553E-5, -9.183760062963377E-5, -1.2574020252311617E-4, -8.251570840890149E-5, -6.443755588141694E-5, -3.928743076238421E-5, 1.882782052792656E-5, 1.5529350785102375E-5, 1.89268204312425E-8 ], [ -1.1787209870207971E-4, -1.0402428729850673E-4, -8.508716775173421E-5, -2.61341657296977E-5, -3.0042920061839217E-5, -9.622904323887106E-5, -3.4554319467538623E-6, 1.6195575550329757E-5, 2.000524920867881E-5, -3.1959616396270223E-6, -6.7515370407958164E-6, -9.596272363351053E-6, -8.051686275347657E-5, -3.772131563305836E-5, -3.0321321997239547E-5, -2.0171015358807783E-5, -3.3771657598190235E-5, -7.574093744780026E-5, 1.8307416300084797E-5, 2.9619079387614296E-5, -4.7961515705824816E-5, -6.934956868362787E-5, -5.2098044300584985E-5, -5.428932196317608E-5, -7.505537154854213E-5, -8.097184266893854E-5, -9.93975537662283E-5, -7.898321065080474E-5, -7.745695785338532E-5, -9.496098121780087E-7, -6.122950741045367E-6, 6.792811708365567E-6, 2.301238822183893E-6, -2.045649407321899E-5, -2.6176245442433564E-5, -2.2551283457122064E-5, -4.0846978949922626E-5, -5.3191119826851525E-5, -8.287418714145518E-5, -7.652768388484609E-5, -6.25560964207587E-5, -1.0180412948369075E-5, -1.2923571927781311E-5, 6.581618887190986E-6, -1.8257472434982097E-5, 1.97187537788434E-5, -1.2826767487818111E-5 ], [ -5.648597392053718E-4, 2.14668205501745E-5, 1.9904027887262982E-5, -1.5195739502199123E-4, -1.2142976145987058E-5, 3.209010298081731E-6, -8.39196341952748E-6, 1.9588019291598656E-5, -7.091337334300497E-6, 7.763420005448244E-7, 5.900407363332414E-7, -1.734120148330428E-4, 4.171847935020423E-5, -1.4695728079868516E-4, -3.259226375222921E-5, -1.7474651615531094E-4, -1.5386838793858476E-5, -1.3605045296211373E-4, 3.4355852697590534E-5, -1.3188490134935648E-4, -1.2074903113175465E-5, -1.5464289464949793E-4, -1.4205853157201332E-4, -1.2986276521632359E-4, -1.8004483109244448E-4, -2.305638304912813E-5, -3.2440683564901264E-5, -4.6345937068285446E-5, -2.8600418883559563E-5, -9.441396377953387E-5, -1.2610329143896746E-4, -1.612197428378846E-4, -1.2801863547858464E-4, -5.1589029477736594E-5, -1.874748810758091E-5, -3.620220411626349E-5, -3.155737487085089E-5, -1.5559495098266515E-4, -1.2089319059047898E-4, -1.3399559369865792E-4, -1.8104141613978382E-4, -1.63558514707139E-4, -1.0380680045161771E-4, 3.3908993247424305E-4, -1.2763741741826686E-4, -1.8295898358261148E-4, -6.78266326066731E-6 ], [ 94.37035439552884, 0.026576567310203556, -0.04516701572754823, -0.039935048033809935, -0.01138162083872684, -0.1944969233098601, -1.694750822865079E-5, -1.7786411144851536E-6, -9.006612651312553E-6, -4.824186051405174E-6, -1.4496845920089071E-5, 0.21947309329427533, -0.010975803109513517, 0.1034391613165589, -0.03065632109309685, -0.25346215722585463, 0.16982282183855893, 0.07689013895045946, -0.07104083343777488, -0.35959457825721863, 0.11195381208451335, 0.062308730415850125, -0.3569335891530235, 0.8693471632155497, 0.04441178458964533, 0.1444922123224905, -0.02025583008770221, 0.12397948001456673, -0.007266784788194008, 0.09729710652755857, 0.07656562198218496, -0.08092308564931809, 0.13030445466225457, 0.18599470099824425, -0.03026920227634233, 0.008793589585099047, -5.70148973729164E-4, 0.15469121255968532, -0.3399533554810946, 0.46078394423550945, 0.38988298024873785, -0.035292739668952855, 0.010754676920301357, -0.0672428580608614, 0.09434724835885383, -0.037749980406221975, -2.0705053728886806 ], [ 94.37027511644487, 0.02665974033820864, -0.04514754748996766, -0.039905902582641005, -0.011308319805192068, -0.1944288683738164, -7.551048884739731E-7, -4.100519826370598E-6, -6.966875141663146E-7, 7.27075394906876E-6, -2.9426845496081357E-6, 0.21951413114970567, -0.010960472639386773, 0.10347581151575264, -0.030629370389892826, -0.25342573925205136, 0.1698903586467729, 0.07688166336865908, -0.07108196946792461, -0.35964732561220464, 0.1120165588206012, 0.06238528980273486, -0.3568107478921132, 0.869495570045584, 0.04451715407967492, 0.1445959771449495, -0.020214504793094723, 0.1240366304997284, -0.007193190083821051, 0.0973384588854088, 0.0766213156738049, -0.0808653319923449, 0.1303774452677745, 0.18602351327262565, -0.030191085773437973, 0.008867496669950806, -5.218023608156513E-4, 0.15476816084170636, -0.3398463959463185, 0.4609251079579307, 0.3899904688575646, -0.03533361170676719, 0.010786885973377637, -0.06723798686039753, 0.09429838403549705, -0.037790340193485004, -2.070717402437149 ], [ 94.3702392420869, 0.02675987979784559, -0.04510144845698481, -0.039850810487077025, -0.011235972348958026, -0.194316411498453, -2.1280231869530237E-6, 1.9585517983434096E-5, 7.979270007435893E-6, 7.216703617852151E-6, 5.151331867325948E-6, 0.21958291288048842, -0.010938522946529758, 0.10352683102551337, -0.030539304152514393, -0.2533473527384122, 0.17004946254606396, 0.07684569302803061, -0.07114737796397416, -0.35975457568307956, 0.11217638827807501, 0.06254902064723016, -0.3566092119935454, 0.8697493381079628, 0.044695171465931355, 0.14472788118238855, -0.02011704019190943, 0.12411991303559565, -0.007092757099318068, 0.09744408165125673, 0.07674800834308604, -0.08075833663908384, 0.13047731452453715, 0.18608610018398175, -0.030083108133253007, 0.008980089121044352, -3.8665153197577225E-4, 0.1549164540728529, -0.3396514368113352, 0.46118677374714484, 0.3901843326388011, -0.03539965499985273, 0.010837349766997812, -0.06723239829325955, 0.09421382288424482, -0.0378251095286477, -2.071054405613321 ], [ -2.3324201522179893E-4, 1.4174921704131663E-5, 1.6799881707194187E-5, -3.8747422760603075E-5, 1.437189465141185E-5, 1.3605510201896682E-5, 2.7538840676091797E-6, -4.871935565313238E-6, 1.0790944240429329E-5, -4.221218601674925E-6, 1.9297805095291742E-5, -2.9421062828487304E-5, 6.711187671770861E-6, -5.0115615215080964E-5, -1.591338421238621E-5, -1.9714353385443868E-5, 3.0339221070785476E-5, -4.586552815664113E-5, -6.781098581194281E-5, 4.478871800678803E-5, 3.969850540780489E-5, -7.280056633430147E-5, -8.356161916388737E-5, -7.91693487438589E-5, -1.0886167721374988E-4, -3.9121978093787786E-5, 4.011852011007266E-5, 5.0710872951939725E-5, 6.899216675510094E-5, -4.444129484816039E-5, -2.8788164458846036E-5, -2.340959835110543E-5, -4.031125649749323E-5, -8.134409686181991E-6, -7.996364590572756E-5, -7.471400624514175E-5, -5.869954280289626E-5, -8.291252557044237E-5, -1.0074472003810814E-4, -6.651862399746125E-5, -1.0694788814472491E-4, -5.69373720054543E-5, -1.1416613808522982E-4, -9.504992658942824E-5, 1.980986016668832E-5, 5.931110954533811E-6, 4.329634811357048E-6 ], [ 94.37001817241655, 0.02694327624830241, -0.045015221655582714, -0.03977624667733846, -0.011079337479579001, -0.19413341289848612, 7.949890404160269E-6, -1.9281605555338037E-6, 9.278969590244617E-6, 1.9832340072556923E-6, 1.0001148998941228E-5, 0.21967795530952863, -0.010876429806101701, 0.10363847239682086, -0.030435775536017777, -0.2532585823339643, 0.17024803802029015, 0.076818837171392, -0.07125345074041739, -0.3598962800074745, 0.1124121335176244, 0.06280839331892646, -0.3563002808511337, 0.8701448333406002, 0.045003525512309545, 0.14492927529400448, -0.01996368142644932, 0.12428451295073738, -0.006919778305465304, 0.09757461696177976, 0.07691014885282818, -0.08058024589249699, 0.13066031115976376, 0.1861687438434151, -0.029897299242518233, 0.009151127286813254, -1.8062802176799486E-4, 0.15515349179753612, -0.33934015037646986, 0.4615944597525951, 0.39049798017408116, -0.035455608910589666, 0.010879384494097363, -0.06722403992609882, 0.0940711310693867, -0.03795214476439588, -2.0716330789967827 ], [ 94.37132456492617, 0.02511554255170527, -0.04572860587835896, -0.04064095857995462, -0.012478650368915246, -0.1959222479628634, -6.847064232937037E-6, 7.70835036699922E-6, 1.4744836123838138E-5, 4.841408084499587E-6, 4.614949003425303E-6, 0.21874237778984645, -0.011471954290175343, 0.10272666811005902, -0.03163045259510416, -0.25423170038620874, 0.16811455598393188, 0.07717187476627729, -0.0702584115800701, -0.35835948254921224, 0.11025525898245557, 0.06036584105081031, -0.3592947255182708, 0.8662559314192926, 0.04205281321169547, 0.14296834162468364, -0.021459580363352965, 0.12282936417333448, -0.008584305899249113, 0.09628595631602724, 0.07529406840997284, -0.0822112784132945, 0.12897360492353088, 0.18535649367087798, -0.03176625632245757, 0.007479025277218178, -0.0020238453258227345, 0.1528887134437969, -0.3423042875338527, 0.45768261656465764, 0.3875519786048924, -0.03469349615953978, 0.010369361995792508, -0.0673021987823445, 0.0953600662680778, -0.03692217732486415, -2.066173716201628 ], [ 94.36917545429162, 0.018320591279995087, -0.04826388565422516, -0.04359155382259563, -0.017608793095755797, -0.20260640552546322, -1.6270626421313098E-5, 1.624738714844874E-5, 1.7144170421028608E-5, -4.65996718916882E-6, -1.2439324589226955E-5, 0.21487612021798763, -0.013659462598778918, 0.09969078698213199, -0.036054701979470534, -0.2581009348497594, 0.16003611019863334, 0.07861075805715423, -0.06635952356661644, -0.35237076678674994, 0.10220010875841606, 0.05170948367855331, -0.37026636308866717, 0.8513640425719919, 0.031082197852677483, 0.13613216189097588, -0.026838911497593983, 0.11757768874540896, -0.01476664809707266, 0.09181399649130594, 0.06963075258698696, -0.08805510065350447, 0.12301328663618531, 0.18231602733088542, -0.03896799878680608, 0.001130752619591789, -0.009051816220814007, 0.14488731897771367, -0.35310566745334276, 0.44289924223020277, 0.37665611638313845, -0.03187663846514382, 0.008743319138402584, -0.06747250342784851, 0.10015922356350394, -0.032771533165181485, -2.0453957382898897 ], [ -3.214264300888536E-4, -1.1535908275209126E-4, -2.0297501967614372E-5, -5.185254584389345E-5, -4.0262123126981614E-5, -9.256162196202245E-5, -3.7554761813929023E-6, 3.441171703641729E-6, 5.491178413304334E-7, -8.315269711180521E-6, -2.640462195877941E-7, -1.500037313549247E-4, -2.716929815059933E-5, -2.762472431307666E-5, -6.54127245832071E-5, -1.3373127698492916E-4, -5.055551275347352E-5, 2.42662551222803E-5, 1.6015706172554546E-5, 1.3176359192021728E-5, -4.701043938155484E-5, -4.940364598710393E-5, -1.1255508368690605E-4, -1.262753163328235E-4, -8.12236081233656E-5, -3.3849841144325654E-5, -3.6093670876318855E-5, -1.3756017467040274E-5, -2.5313076235752137E-5, -5.089566260227137E-5, -5.2841849848703446E-5, -6.408807126728248E-5, -5.576212071698452E-5, -6.070411831892581E-5, -6.342730711020694E-5, -7.01730497686331E-5, -7.945696260497641E-5, -5.445363382440419E-5, -1.197411880476065E-4, -8.647536982690131E-5, -7.79456490690052E-5, -8.937146958558245E-5, -1.791746168239058E-5, 6.479892416123699E-6, -5.232045327432571E-5, 3.5052346765013E-5, -1.4240510788473972E-6 ], [ 94.37038908724455, 0.026468407032181413, -0.04520931618346556, -0.03998892993747074, -0.011473111997398889, -0.19461004086432276, 1.822321235097231E-6, 7.793872907442384E-7, 7.72101613595921E-6, 9.700206932444069E-6, -5.187594658152429E-6, 0.21941972777005017, -0.011036768251110727, 0.10337832482641576, -0.030746432483861597, -0.2535221955254421, 0.16967507518691466, 0.07691273839351233, -0.07099213937089384, -0.3594975201094873, 0.11181660174715444, 0.06214458627895916, -0.3571027113313207, 0.8690965949804764, 0.04420788431015415, 0.1443963743764846, -0.020367730935822472, 0.12389233281582014, -0.007368391586241118, 0.09721451940772956, 0.07646091706593026, -0.08104925720420855, 0.13020997040045845, 0.18595215518352254, -0.030394780620402625, 0.008700952596457924, -6.907686332970081E-4, 0.15452522041150007, -0.3401330957467257, 0.46053022993447823, 0.3896963690440605, -0.03525541496662474, 0.01072579898767356, -0.06724787199707334, 0.09444272210296677, -0.037684870134790174, -2.070161813998319 ], [ 94.37033282244431, 0.019099947060303022, -0.04797766940985339, -0.04325712340440254, -0.017015120017756666, -0.20179755286720388, 4.836836000558297E-7, 1.9078181646115917E-6, -1.043098976545175E-5, -8.82293782397326E-6, 1.106052002851445E-5, 0.2153665819897343, -0.013443332831068758, 0.10002316825444366, -0.035538847276196876, -0.25763654376361084, 0.1609598322410605, 0.07837944912289276, -0.06684828666184472, -0.3531274957379062, 0.10315110639116153, 0.05266992773294165, -0.3689883272045051, 0.8531576614215151, 0.03240574547150209, 0.13692706734581991, -0.026195919400751458, 0.11817304224040757, -0.014001373774942448, 0.09227477504256762, 0.07029571055079899, -0.08736252589712855, 0.12369655244574307, 0.18268322822577632, -0.03813122884355064, 0.0018559844298297553, -0.008193824369387004, 0.1457775074808832, -0.3518462011412093, 0.4446665676751861, 0.3779797254305878, -0.03215406202707379, 0.00892262730301161, -0.06745453829620669, 0.09964111581585997, -0.03330034994786452, -2.047873685455519 ], [ -3.827892620495641E-5, -8.967502906792698E-5, -4.669034072293188E-5, -3.5733791617301974E-5, -4.583151909925365E-5, -9.062397584559861E-5, -1.610827299770304E-5, -5.4585607756387605E-6, -1.025108435407764E-5, 1.7383994444113002E-6, 8.130793908340963E-6, -5.894061054679264E-5, -3.9301418092635594E-5, -6.5934561458154065E-6, -2.5890984603334988E-5, -4.6845208731854185E-5, -1.315223916603469E-4, -1.1328001193980633E-4, -1.2085378732106393E-5, -1.3806321765927993E-4, -1.2411602064068422E-4, -1.3189980455729862E-4, -5.3614273000684794E-5, -3.897305383420608E-5, -4.750421960243977E-5, -3.3313268500328814E-5, -6.92874353970063E-5, -4.505451190275096E-5, -4.001110964987001E-5, 5.639347876710934E-6, -7.568267859662023E-6, -1.0207191416692754E-6, -8.675735008113345E-6, -2.7920535127636604E-5, -2.257482949442987E-5, -3.154518540366002E-5, -4.410150815957733E-5, -4.377431091784867E-5, -3.408998227077714E-5, -4.378359474704369E-5, -3.826397708285341E-5, 6.93325989768434E-6, 1.659734164309985E-5, -2.0429125969007093E-5, -9.202130177220676E-5, -1.2416428697794007E-4, 9.091807570481098E-7 ], [ -2.4066805382210295E-4, -1.475108601091737E-5, -4.425781488318966E-5, -1.0183912163139147E-5, -3.051135019190262E-5, 2.7296040591737367E-6, 9.24664944702091E-6, 2.3222143293652577E-5, 8.06987919905277E-6, -2.0082293050491525E-6, 9.476250519174463E-6, -1.983620455851528E-5, -5.343918087726053E-5, -1.2150237915194909E-5, -1.774050221628476E-5, -3.0024586693798862E-5, -4.025434482209485E-5, -5.9638171681256045E-5, 1.2594001035931676E-4, -6.279719965644986E-5, -2.148288150257337E-5, -1.3443020616767278E-4, -1.1400708513847217E-4, -9.97912671520826E-5, -1.0732205611317869E-4, -4.125790021700319E-5, -3.818321507633007E-5, -7.074474919740915E-5, -4.150599497752748E-5, -2.4133561280787277E-5, -1.2502080788353266E-5, -1.3883291375793492E-5, -2.9824069602501142E-5, -1.700063499453433E-5, -3.999858958602084E-6, 4.33186775448009E-6, -9.729961080655343E-6, -1.2357420693949185E-4, -1.0382532189145907E-4, -1.1870189193638409E-4, -8.682423196875016E-5, -6.41442977513544E-5, -7.431304621820933E-5, 3.076904568899133E-5, -6.930380156454241E-5, -6.93168828391119E-5, -1.6279140408686156E-6 ] ], [ [ -94.42223637842719, -1.2799915760059076E-5, 2.0602330926958254E-5, 2.5926730404575004E-4, -0.24261712861039364, -0.24280901091651488, -0.24314923723833212, 5.38964216812816E-5, -0.2436812334036353, -0.23855371900705374, -0.21938213006698754, 3.912380478646337E-5, -0.24228348573336614, -0.22166497109789124, 1.3718914669135393E-4, -1.911916632293311E-5 ] ], [ [ 94.44163641633679, -0.2373372742801383 ] ] ]
}