{
  "config" : {
    "algorithm" : "ListNet",
    "numIterations" : 500,
    "batchSize" : 0,
    "verbose" : true,
    "nomodel" : false,
    "params" : {
      "regularization" : {
        "regularizer" : "L2",
        "rate" : 0.01
      },
      "learningRate" : 0.001,
      "weightInit" : "xavier",
      "optimizer" : "adam",
      "layers" : [ {
        "num" : 15,
        "activator" : "Sigmoid"
      }, {
        "num" : 1,
        "activator" : "Sigmoid"
      } ]
    },
    "dataSet" : {
      "training" : "../../../MQ2007/Fold3/train.txt",
      "validation" : "../../../MQ2007/Fold3/vali.txt",
      "test" : "../../../MQ2007/Fold3/test.txt"
    },
    "model" : {
      "format" : "json",
      "file" : "../../../MQ2007/Fold3/models/ltr4l_129.json"
    },
    "evaluation" : {
      "evaluator" : "NDCG",
      "params" : {
        "k" : 10
      }
    },
    "report" : {
      "format" : "csv",
      "file" : "../../../MQ2007/Fold3/reports/ltr4l-report_129.csv"
    }
  },
  "weights" : [ [ [ -15.43329193499569, 0.0962635099476256, -0.22400580990187233, 0.9960335617659476, 0.7390993021736223, 0.27567596194892574, -1.5009199436547526E-5, 3.870487376916574E-6, 7.241632711101216E-6, 9.21337830077628E-6, 8.127042105319296E-6, 0.9660315957165023, 0.28726319771452763, 1.2167103734811078, 0.8696347322817751, 1.0687169671571832, 1.913021106336894, 1.525443154306153, 1.7723033552705032, 0.31682987396067824, 1.9449037661873896, -1.1108175977395098, -1.028823881152656, -3.124447134817372, 0.34205147013851095, -0.06108499662691225, 0.30343989506336966, 0.38809040929922956, 0.45584209836554757, 1.5273741149791205, 1.2788108419049415, 1.0147855417649772, 0.8034949832470271, 1.1590788060854555, 1.3213366790645216, 1.5593508882155689, 1.391268127189898, 0.12961404132652413, 0.2557626003856595, -1.0854516338516857, 0.7210294425598307, -0.5443501916331597, -1.0583854932584522, 0.7782374741711877, -0.09674762091284006, -0.16583247496235726, 0.008279378016802215 ], [ -17.69397947250993, 1.3062340766363543, -0.798651179286313, 1.9816290663224396, -1.082886790709078, 1.186863342985734, 1.313128854075478E-6, -5.186707264022362E-6, 1.0770487314348271E-5, 1.7225589201586682E-5, -6.2561174063257705E-6, 2.0277640794780987, -0.8053682843136188, 2.1727176059250937, -0.772600182202075, 1.9936914060506508, 1.6322975569470324, 0.689335733796158, 3.0121354303863375, 2.1711175501623807, 1.6229906811403187, 0.8121665737942667, -0.6035201778816857, -2.1783443335049704, -0.14177388330828186, -0.09987713734365583, -0.029040760819567295, -0.230938818129001, -0.3831437974261851, 1.4497871166430587, 0.9197374300295246, 1.4250192812672606, 0.12936192500075513, -0.8525739801344131, 0.3895821283441314, 0.5476223653484452, 0.6614252025581492, 0.996602039171249, -0.5451831563954727, -2.082416737189146, -0.547394255945577, 0.6963720209868455, -0.07414953962167176, 0.05540755750643016, 2.2873573921264727, 1.878961947663514, 0.00877441578017729 ], [ -16.47601397787636, 0.9794041144474033, -0.41500530891563786, 1.505620478363473, 0.6502112431418654, 0.8107563784090105, 3.3350964482011605E-6, 1.6489473412640662E-6, 4.9601468536101904E-6, -9.32522111982343E-6, 1.0573679212378803E-6, 2.3209010596053776, -0.23501441571106046, 2.0021082710670575, 0.21125961919828146, 2.2685239708667995, 1.2809154672521923, 0.43091969117121176, 2.9068011727559573, 2.67661276788586, 1.288099786690273, 0.9858651578840819, -0.5365166721947402, -4.177533618789284, -0.509663111822313, 0.2717323052539585, 0.48452634650506826, 0.7364909122529729, 0.6361839582535234, 1.472698711744811, 1.4676947928072344, 1.4615384761231305, 0.7348307057241491, -0.08170235627285945, 0.18039177340531865, 0.8140273768051353, 0.5396838697357792, 1.5861515899040932, -0.1480076591830248, -3.7273759645067197, -0.8906025127110946, 0.3559211709218883, -1.4667353936073373, -0.3543440598431686, 1.7360630515831916, 1.9858449993518137, 0.0124205496119008 ], [ -16.06234771241523, -2.5494963236732886, -0.6162820171666763, 0.04951985951776584, 1.6535880074663842, -1.6700428218992154, -1.3479351655914664E-6, 9.677125140876855E-6, -1.4139829341521567E-7, -1.091816648577071E-5, -6.725205033549527E-6, 1.2265242536053562, -0.14091547887319464, 0.6283954746438677, 1.3081249863856754, 1.2324541085719796, 1.7111075929583837, 0.44441590175277473, 0.05381206207693924, 2.093604420303132, 1.803132090361137, -1.2086000438729245, -0.15545128262817912, -3.691970104962723, 0.3395210877670645, 1.1489250767005121, 1.1524048486923966, 0.8644279466003677, 1.372402690335078, 1.83946122269713, 1.6540358618173772, 0.033723500538027654, 1.0149830387082563, 1.0885063902179157, 0.25692834700070327, 0.7013021576150988, 0.524078881124705, 0.3106798257058413, 0.40118054630108085, -1.9939121281255583, 0.18416423361977932, -1.5440213403680998, -1.731869218588806, 0.6936604122561763, 0.9635256811749845, 1.6761286355053497, 0.008910847998822358 ], [ -15.486592647897622, 0.1158884003969794, -0.23499480305016385, 0.9890356302732587, 0.7428538942633475, 0.28021787288275374, 1.2843898289581409E-6, -1.594347305432999E-5, 1.3291606457727162E-5, 8.441230941898171E-6, 1.791866597728018E-5, 0.9710712296112615, 0.2768285470229185, 1.2112852996026886, 0.8703831519947561, 1.0743537565225831, 1.9085893484633392, 1.5279133929852433, 1.7787778886428447, 0.35157017789128675, 1.940159742607651, -1.1086790313991033, -1.0038190522135297, -3.1606012350962214, 0.36175595539751626, -0.053853810455944555, 0.3134261285190598, 0.39323444956209713, 0.4695315216875287, 1.5310397681657633, 1.281795585076695, 0.9939649237863576, 0.7941505766038107, 1.147939668651151, 1.316849115060824, 1.5610518186076023, 1.3882365333349571, 0.13893878320106506, 0.2726477559653837, -1.1069438344462226, 0.7246677828848503, -0.5905123754791421, -1.097084240981056, 0.7838322852033345, -0.06764924082182149, -0.13591867339324518, 0.00854804078504045 ], [ -13.228315991897613, -3.331622419950864, 0.7803188136615838, 1.0627412887436085, -0.6011774975435473, -3.987666019727966, -3.095204728824286E-6, -2.1480533982468588E-5, 1.3801365369329834E-5, -2.6108731845168836E-6, 1.1708702579133932E-5, 0.9279613878512448, 1.2251605073891982, 1.4434716459379326, -1.0241392165846157, 0.7591789303947252, -1.5558306173302296, 2.570507836759717, -0.6392269464906384, 1.6546232397278207, -1.4248656360666718, 0.24929165973224918, 0.6587515176452806, -3.350940975358063, 0.5917197099455913, 0.9078896987553892, 0.3131884599118756, 0.9037022014272212, 0.7038305534754768, 2.3532436231859863, 1.9163330005478367, 1.3003155470996797, 1.5216833411082025, -1.2119100886957985, -0.18304384993094386, 0.28733924036544156, 0.04065050816367914, 1.2753773501043397, 0.8463230249425691, -3.000817855777962, 0.3272459579539433, 0.6651833595619939, -1.1753160229636204, -2.8304278135773893, 1.0147261572397388, 1.003709225301838, 0.11147838396124293 ], [ -10.757738471593361, -2.359869158294432, 1.0320498512033123, 0.9713332853993363, 0.06242079754621618, -2.6264034005514065, 3.949492742592212E-6, 1.8411805655478183E-5, 7.331122715595344E-6, -1.578353404774667E-5, -1.3666898179178277E-6, 0.5107475923847034, 1.5206003829404195, 1.2603014809503643, -0.1299392225523773, 0.4793573556631241, -0.18581005129065667, 3.5072740002191427, -0.7593440869065257, 1.7310477343926054, -0.1052581835481213, 0.4331443393811271, 0.5713099226094547, -2.5416836666071574, 0.5087260586352328, 0.5200931097603806, 0.0958554550760425, 0.6497099538081228, 0.40825609689965037, 2.171593910055137, 1.7245563055940951, 1.1317573127541956, 1.3650308186676825, -0.3934097988454876, -0.5179898733145268, -0.13394723084147647, -0.3039297632695233, 1.2635479539101706, 0.7580868613209152, -2.366631989952342, 0.2738847251539788, 0.7440910507227756, -0.24961064293231647, -1.9314669104798718, 1.2367820298758196, 1.1983451354624262, 0.3796027418602643 ], [ -20.495350955729176, 0.8811606615367155, -0.6288573718426624, 2.0297700856514953, 0.19077649269321298, 0.5853980467816908, -2.359586637277744E-6, -5.148407516315238E-6, -1.954900075299197E-5, -1.4490898743802758E-5, -3.365059501696527E-6, 2.577676841703203, -0.5625428751528808, 2.4281976874379856, -0.1846489624667649, 2.4908169988378224, 1.275059764566924, 1.131187254856943, 2.300383404857934, 2.951256621937529, 1.2619387627243102, 0.7353034727099655, 1.190746966827309, -5.08447789046738, 1.428407911564902, 0.2991502745105769, -0.17807137262934808, -0.472513604724841, 0.02220360129586423, 2.618105543536996, 2.242006872845551, 1.8749373888002228, 1.7667330781145298, -0.5484196272157809, -1.1047417467651073, 0.151906036054479, -0.5704585872473202, 1.8692414981191314, 1.3878982794336505, -3.6138107096442966, 0.9021355977860008, 1.1804984690514546, 1.6538375062264397, -0.0819437202026253, 2.331950566394992, 2.3335524014667057, 0.3063282647709776 ], [ -17.045875063119766, 0.8445352239884528, -0.5300676507946772, 1.644101939981287, -0.7031890784365264, 0.521176895185225, -3.968103753684449E-6, -1.4678387362546665E-5, 1.2776654793267077E-5, -1.3754004975742592E-5, -3.020782065058536E-6, 2.1506616244080026, -0.5755206666469463, 2.091511204421385, -1.2604390335200575, 1.9934865546651894, 0.3164134138531164, 0.10425838889804893, 1.8734329600081125, 3.2588646848683642, 0.29090489122313107, 0.6192035302819363, 1.42179694496194, -3.697753854232123, 1.2623217898670627, -0.008499596896218426, -0.20033134248312218, -0.5681265199107411, 0.06886991513420898, 2.220610765009997, 2.0934973186405577, 1.5694993106887807, 1.9104449551158669, -1.6013032301260577, -3.8710036397992766, -5.1757220535409285, -4.966541770609913, 1.4153978554720106, 1.1658094728079875, -3.0504915940635584, 0.3664944902442637, 0.9891895144892064, 0.21511064148925338, 0.5155411745036558, 3.0132682687474195, 3.294856531340386, 0.6998679235936868 ], [ -15.294090931301387, -1.5437951656234423, -0.01424333820230408, 0.6533229685856826, 0.9173239514357472, -0.6487747219103523, 2.8192067079350836E-6, -3.660492751226564E-6, 1.315977625298226E-5, 6.87871430680272E-6, -8.537456275117267E-6, 0.010281146139127957, 0.3767955100443778, 0.8513741019281384, 0.8483034967305988, 0.37258218720230457, 1.6394206568940735, 1.367006734552026, 1.1050466212541004, 1.0535537636035652, 1.7367084739193102, -0.8437188202195675, -0.617365486709763, -3.7753573991552623, 0.41204506789858786, 0.29998601152930066, 0.804205871953453, 0.7994851524147417, 0.9363360909620184, 1.413396178764377, 1.2442857816084603, 0.35364943721315967, 0.7724674822292965, 1.0461421833137763, 1.2383987847193307, 1.4502452626234266, 1.396987183435988, 0.33300541374808273, 0.4425176646649511, -1.3513134520318226, 0.5808637460779505, -0.13332597545536554, -0.706775876027259, 0.7245418465313753, -0.37947186341033673, 0.5737004911123175, 0.008592771502920368 ], [ -19.243668601225234, 1.2328401676891887, 0.10813660109695729, 1.438871902077643, 0.8311634428917778, 1.069523274601869, 4.829178775574957E-6, -2.6343542025656006E-6, -2.147320776617367E-6, 5.7585565206377684E-6, -1.4871279020562933E-6, 2.371654919090506, 0.5721560426666603, 1.8371101037718536, 0.6902984974135412, 2.3545958420896054, 0.8504877427779912, 3.740923178303281, 3.0915831922137125, 2.9405897436770707, 0.8697257482394162, 1.1494225410175989, 1.8878856836598885, -3.576522524674504, 2.109572986265991, 0.007791534452322967, 0.1317024255587234, 0.878706982415348, 0.2673795440055684, 2.0852302197227104, 2.084461533387184, 1.7222034588221415, 1.5180792641498044, 0.3891951466057781, -0.7146268995115459, -0.24303367644233648, -0.5379525470483658, 2.0922605273471255, 2.164382053664785, -2.2214759521302936, 1.599823522624202, 2.950439891657576, 4.018493309288341, -0.05029001360694355, 1.6873663083593964, 1.991846387099496, 0.10800514544746104 ], [ -15.377174087795387, 0.013542921352755422, -0.1991273016109213, 1.0017423028815395, 0.7420843670155979, 0.289827141854721, -9.967196271152915E-6, -7.0656789802407144E-6, -7.5232148708063595E-6, 7.236951616683205E-6, -4.0502666474879586E-6, 0.9442491602492266, 0.2946564611563311, 1.212053086304324, 0.8628893916858262, 1.0678398593181133, 1.9355912335142607, 1.4465736265138405, 1.7023871802854933, 0.2812341765591177, 1.969074922754347, -1.087659936009918, -1.0404360176628749, -3.0487037895458093, 0.29776803824890347, -0.06075299794623451, 0.3035064123142375, 0.3950360675034908, 0.44151441180959144, 1.5344968064667264, 1.292794574900738, 1.017449630841836, 0.8322905242900296, 1.168668209829853, 1.3150129683067846, 1.5428182523671787, 1.3858927096022853, 0.12738214551901628, 0.22922349942497316, -1.0500730966991039, 0.6834534161582899, -0.373845975426966, -0.8975174551635896, 0.6743644547059808, -0.15926746132223485, -0.21127516216706968, 0.008035890901652831 ], [ -15.304854304565476, -1.9547681944969537, -0.03875457859964047, 0.5949877993034165, 0.9587197947760194, -0.8875536956650464, -4.7825284919433885E-6, -9.854619322714419E-6, 4.505430115873413E-6, 1.430639717694743E-6, 1.5894153676269504E-6, -0.1003814089891455, 0.35203204291559687, 0.8026269256985363, 0.8630436472672769, 0.30459246484683783, 1.6025132270600437, 1.3433845606232404, 1.015611370572064, 1.1660317749856381, 1.71391016969237, -0.8164745526672993, -0.5211728159286105, -3.8369350916299645, 0.45247877992498736, 0.372497572830986, 0.8693616732548993, 0.8456322597528364, 1.0068903147016788, 1.4212441857720146, 1.2647026009909663, 0.25636901386947536, 0.7595256940690597, 1.023860365598817, 1.2143255411632619, 1.4377379764993385, 1.3798700236198562, 0.37023882525801405, 0.48518682484084186, -1.4206478587711948, 0.5705373077757744, -0.13260008632546164, -0.7075228985251732, 0.6860273765628092, -0.2991761646752161, 0.681574020531764, 0.009189001462363592 ], [ -18.19561969236267, -4.882133797162705, -0.25741288784443894, 1.698342165073584, 2.8612485421482172, -4.254613264827651, -2.670556440188688E-6, 1.307344242158745E-6, 3.6138109596497256E-6, -7.153983466709252E-6, -7.926043301823224E-6, -1.1997950192639468, -0.15276140586335313, 1.9296409895488136, 2.622754825771834, -1.2247669232178613, -3.150875972437711, 1.378282668578482, 0.9747121747031966, 1.9845004904550758, -3.1339257798430946, 0.8181990349836818, 1.03664274195768, -3.513572133311615, 1.230708285580031, 0.35507908360867146, -0.42199150487789494, -1.4294215634775886, -0.041357914072641035, 2.1336158019389675, 2.000950769283535, 1.882898708880564, 1.8844862329598697, 2.240964775839947, 0.3668522081199011, 0.2694101367939718, 0.5351512853433057, 1.7577166297543596, 1.3893150433045305, -2.264443813022727, 1.0711883034617253, 1.1201521945051964, 1.7855683068016275, -3.244121474391181, 1.101155600920114, 1.5167765095551982, 0.42185036578083906 ], [ -15.409434865544151, 0.014530617789282793, -0.19913645234117247, 0.9972196054126644, 0.7469326331501642, 0.29216697228638855, 7.036305149527281E-6, -5.755655151024633E-6, -5.3671558831932855E-6, 8.716559440943321E-6, 2.058930323969883E-5, 0.9467842083415214, 0.29287015120857, 1.2075791577240331, 0.8636270084259173, 1.073380680406426, 1.9383099617534785, 1.4369861778688304, 1.6944680549748696, 0.2984250311329898, 1.972248882211122, -1.0824264092876175, -1.0279061119484405, -3.066394552323927, 0.30218354837095573, -0.0523684258260999, 0.3135185395403792, 0.4027359130896952, 0.4514195779964735, 1.5384403191135325, 1.2967182672632374, 1.0040597887292395, 0.8308714819260528, 1.1641470347360934, 1.3117197721281701, 1.5421932545669914, 1.3840393641580928, 0.13279491744093574, 0.2343308062867942, -1.060093927460555, 0.6780586139425173, -0.3750709328456511, -0.8909246305503806, 0.666167863086501, -0.15399338095040108, -0.19693033538666274, 0.008205729788725394 ] ], [ [ -17.46587156423658, 2.5289665638719114, 4.235894907604221, 4.549867667324949, 2.9576486004295806, 2.5091294530593937, 2.8143145773299927, 2.6699114614602233, 3.6406006822834684, 3.9453788573397177, 2.1743486052194805, 3.3467022752022264, 2.4283846048755584, 2.2075815401672756, 3.083748500202035, 2.404646450727354 ] ], [ [ 94.0899908484285, -0.9640773158541811 ] ] ]
}