{
  "config" : {
    "algorithm" : "ListNet",
    "numIterations" : 500,
    "batchSize" : 0,
    "verbose" : true,
    "nomodel" : false,
    "params" : {
      "regularization" : {
        "regularizer" : "L2",
        "rate" : 0.01
      },
      "learningRate" : 0.075,
      "weightInit" : "xavier",
      "optimizer" : "adam",
      "layers" : [ {
        "num" : 46,
        "activator" : "ReLu"
      }, {
        "num" : 1,
        "activator" : "Sigmoid"
      } ]
    },
    "dataSet" : {
      "training" : "../../../MQ2007/Fold3/train.txt",
      "validation" : "../../../MQ2007/Fold3/vali.txt",
      "test" : "../../../MQ2007/Fold3/test.txt"
    },
    "model" : {
      "format" : "json",
      "file" : "../../../MQ2007/Fold3/models/ltr4l_144.json"
    },
    "evaluation" : {
      "evaluator" : "NDCG",
      "params" : {
        "k" : 10
      }
    },
    "report" : {
      "format" : "csv",
      "file" : "../../../MQ2007/Fold3/reports/ltr4l-report_144.csv"
    }
  },
  "weights" : [ [ [ -2.559500080446226E-166, 5.829942205245943E-169, -3.327011196157023E-169, -2.83493330873581E-169, 4.0470801343072036E-169, -1.7783145453137362E-169, 1.1483235403052547E-170, 1.5969039383938836E-169, 4.672221390467781E-169, -5.020605479109035E-169, -9.510937896021813E-170, 5.308721301054768E-169, -5.980916124414983E-169, -1.0868100612156185E-168, 2.5803358745624468E-169, -5.26900982888811E-170, -3.755935033997047E-169, -3.901291829547258E-169, -7.026340405866778E-169, -4.070688259380633E-169, -5.857336906392014E-169, 8.368413543168902E-169, 4.644710660862466E-169, 4.713165851584568E-169, 1.607589422882089E-169, 5.814873890877928E-170, -1.015459024415792E-169, -3.8407924648436375E-169, -4.101719750866733E-169, -2.5686778925845128E-169, -5.084850586491556E-169, -1.0553791693815107E-168, -3.4315105443525566E-169, 6.271017190200776E-169, -7.157516111713451E-170, 1.2940477635414882E-169, 5.1918611091832585E-169, 7.291744073122119E-169, 7.62699488864892E-169, 1.0506363856377095E-168, 4.500966681524225E-169, 1.4479545608288356E-168, -2.0178954779794327E-169, -5.2276692651281816E-169, -1.1158688924241628E-169, 5.2645729058166737E-169, 5.272168716379651E-169 ], [ -2.567096931089857E-166, 6.206579421467123E-169, -4.154752302525893E-169, -4.228382264264175E-169, -1.2703478685443465E-169, 1.2255098833183608E-169, 1.0819165230663537E-169, -6.526567270068221E-170, -1.07359498658333E-169, -1.4914561513452634E-169, -3.383429411133178E-169, 5.224441175776288E-169, -3.0619001134384386E-169, -6.607980093691944E-169, -1.8896405028971252E-169, -4.1973723369418964E-169, 3.287316452861536E-169, 1.9944416351435018E-169, 3.1786192017321337E-169, -3.011508004794074E-169, -1.3351428041128429E-170, -4.294748632640362E-169, -8.154557881162076E-169, -2.6890048102706624E-169, -1.992855385095291E-169, 1.139174243423785E-169, -2.0961648142314026E-170, -5.43162772462421E-169, -8.338451476512288E-169, -1.3434163667999806E-169, 5.7470509234518E-170, -6.99629110349918E-170, -8.01980488328598E-170, 3.789735793356837E-169, 1.8448824448196528E-169, 3.261809064136804E-169, 1.6123439506116206E-169, -1.5091846828932704E-169, -9.894665099251891E-169, 8.776410319170323E-170, -7.221789107509281E-169, 8.179136547215704E-169, -4.6333808654080505E-170, 2.739474026965893E-169, -5.740643457333781E-169, 5.689994800347119E-170, 1.3013943311527505E-169 ], [ -7.39338249238704E-164, -5.338407754003966E-165, -2.5559596488068806E-165, -1.1452727992677862E-165, -5.000428564133416E-165, -5.412451187320147E-165, -1.9145409764252966E-169, -4.231115871313834E-169, 2.897353251821852E-169, 1.7532161284784212E-170, 1.9011973223435512E-169, -1.0382245823573952E-165, -8.857526524619135E-166, -1.3204911732855158E-165, -1.7293036778590651E-165, -9.549549087815497E-166, -2.147415469645724E-164, -1.431277866905967E-165, -1.0193779634191911E-164, -2.36704444989768E-164, -2.132758427022944E-164, -4.525326073229844E-165, 1.1726917846447792E-165, 2.3849393342389694E-166, 3.488074194099521E-166, -1.9346314106941045E-165, -2.784173773904644E-166, -2.80990128108301E-166, -2.7685584873655074E-166, -7.826199501844952E-165, -1.3784829529191758E-165, -4.163559758302583E-166, -7.686839081744685E-166, -1.622195956124335E-165, -4.743106856738784E-166, -6.1074588095098785E-167, -1.704083362193678E-166, -3.380774898347805E-165, 1.1303180486434803E-165, 3.2685527296034314E-166, 2.5602772292045197E-166, -4.63731952507029E-165, 3.8767764385752094E-165, -2.8330639158094875E-164, -1.0340006044585746E-164, -1.3335347759527632E-164, 1.3896692717029844E-169 ], [ -3.8767028022537243E-156, -3.0512070756703192E-158, 1.2052950881649024E-157, 2.2942147394150847E-157, 3.0612094756038887E-158, -2.3912106874457345E-158, 4.4841965650373647E-169, 1.6832907162423558E-169, 1.2050469357091752E-169, 1.873931735854101E-170, 3.060054595909659E-169, 2.9653720347655792E-158, 1.0168291955643692E-157, 2.322528650437721E-157, 1.708735442393079E-158, 4.0214278270507565E-158, -4.825593860958269E-159, 2.0019896574010595E-157, 1.9569572431644306E-157, 3.4132753136778425E-157, -3.9736528683466916E-159, -4.2159345243060476E-159, -7.130847011338345E-158, -1.4445567886516807E-157, -8.271474574019291E-158, 9.131197955611259E-158, 8.683205610717185E-158, 2.829776313871167E-158, 9.628221329516057E-158, 1.7989872272319055E-157, 2.1433298331821E-157, 1.9523326215213426E-157, 1.8796852891651632E-157, 3.792802406309297E-159, 1.6910118254356046E-158, -8.055965424153414E-159, 5.835212309541525E-159, 1.9298561167702976E-158, -4.997649046193782E-158, -1.2576726459662036E-157, -8.498374248620118E-158, 1.515598211569551E-157, 1.4773680625150814E-157, 1.3643285126599084E-157, 1.809244804981688E-157, 2.853457729933622E-157, 1.4486690361588452E-159 ], [ -8.102673214739587E-164, -2.3870873501816517E-164, -4.071286928614265E-164, -4.4832739177343674E-164, -4.708281646322593E-164, -2.386738606797516E-164, -2.038969076804794E-169, 1.0531361155019944E-169, -2.1859775934366464E-169, -7.02461768683914E-171, 1.5126663771888216E-170, -6.978377186146299E-164, -4.109306516263046E-164, -4.865997261721028E-164, -5.308786568388765E-164, -6.36730399594804E-164, -6.278316593660131E-165, -9.108880404965474E-165, -1.6670422415641072E-164, 2.7855831864742313E-164, -6.268275179589508E-165, -3.447573994489778E-164, -3.3301871179119474E-164, -5.310686913644596E-164, -4.41457711670906E-164, -3.878380722613311E-164, -4.724678907746331E-164, -4.735580107583985E-164, -5.089265543166884E-164, -5.242947885239981E-164, -6.429355914494385E-164, -6.356460901573694E-164, -6.54066176434894E-164, -5.620671335806315E-164, -7.754552104842022E-164, -8.083520078469227E-164, -7.649229549889455E-164, -3.8446172312549936E-164, -4.051983371589119E-164, -6.076918089597115E-164, -5.080711567106175E-164, -5.276870411672531E-164, -9.912042021436118E-164, -6.916507617527155E-164, -3.0899803695988008E-164, 2.9784293911667046E-164, 6.083631196897192E-169 ], [ -1.8531833955590553E-167, -1.183984125269272E-168, 8.492999969783028E-169, 3.117990763037185E-168, -1.8099423760681647E-168, 6.524963180329968E-171, -8.082417867343638E-170, -3.594615757102972E-169, 2.35586336132943E-169, 8.413798126859256E-169, -3.4969615890951954E-169, -9.378386583877141E-169, 8.724821000066992E-169, 2.841112025874319E-168, -2.694597460104545E-168, 5.843989795560631E-169, 3.595799270114706E-168, 1.500840751047186E-168, 1.7676845524613165E-168, -1.911934158441083E-168, 3.2447463779276806E-168, -6.349032044039078E-168, -5.304962920187159E-168, -5.404394774972701E-168, -5.496920591785073E-168, -1.4247782365612662E-168, 1.6692005800928045E-169, 2.785566592793508E-169, 5.745449845880835E-169, 1.7605501436253332E-168, 1.7037647608494032E-168, 3.099619315642072E-168, 1.2238165998912174E-168, -1.837356032304471E-168, -1.9350335666209566E-168, -2.972933309857766E-168, -1.8762733993286127E-168, -6.0858640911814E-168, -4.836698905833913E-168, -6.059489295400496E-168, -4.936227061713579E-168, -8.515987958709638E-168, 1.7819253244471201E-168, 2.0111270394733222E-168, -2.8620942282575784E-168, -1.6426306311485116E-168, -2.2027074835219786E-169 ], [ -2.1445991419523967E-166, 5.561009905190736E-170, -4.6281724501006234E-170, -5.992237912468557E-169, -3.753154270958892E-170, 7.018629634686374E-170, 5.447802394837059E-169, 5.719137406246886E-169, 5.569783321965088E-169, 7.991273705780552E-169, -2.4433924533644232E-169, 2.27914555305635E-169, -3.992553811809181E-169, -3.9414197941700105E-169, 6.838863848604673E-169, 1.4587584794529953E-170, -8.03876840020376E-169, -9.856533884456793E-170, -3.6630256550412425E-169, -1.3825958560249206E-170, 9.734827832963604E-171, -1.204308592849254E-169, 3.688573963739364E-169, 8.995381561254891E-170, 2.0732164082715522E-169, 1.1051468386017779E-169, 8.04243022347894E-169, -6.649935597424026E-169, -2.7457628755575655E-169, -5.069627116910165E-169, -6.427618839410091E-169, 5.807966085098857E-169, -6.69630837310402E-170, 2.6646104901361203E-169, -1.294498860545863E-169, 5.275614595926606E-170, -7.756044099590502E-169, -7.615717448582274E-170, 2.905330732098717E-169, -2.138314975025891E-169, 6.37794552155772E-169, 1.7399253673616478E-169, 1.1929933982013616E-169, -1.2456487054709608E-169, -4.671921514384048E-169, 3.814374980631738E-170, 3.4328809701292745E-170 ], [ -4.982394824970493E-165, -8.0986532889299E-164, -2.6987113890723063E-163, -1.5456866394331077E-163, -5.871383690666802E-164, -7.971515154319144E-164, -2.0570805814347916E-171, -1.0257101889546439E-169, 1.7583434618397843E-169, 1.5365529793083173E-169, -2.170519380583357E-170, -1.2673262646991116E-163, -1.2913056868359622E-163, -1.2980192632801571E-163, -1.9747205387478166E-163, -1.2510267336328496E-163, -3.981732421379157E-164, -4.8279663887276065E-164, -1.713743379477928E-163, -6.3140164423595634E-164, -4.00541364037524E-164, -3.187429989737778E-163, -3.7985136055138316E-163, -4.386619464543378E-163, -3.31408924107585E-163, -2.7141797436288962E-163, -7.31767426047851E-164, 2.401019853050468E-163, -4.798974155539625E-164, -2.022795255196788E-163, -4.320652497463855E-164, -1.0720151186861607E-163, -5.374132532449709E-164, -1.4448686691628874E-163, 3.084152821513265E-164, 5.1637183980735834E-164, 1.0298388559362031E-163, -2.7295090038090145E-163, -3.808822172774945E-163, -4.223911361923913E-163, -3.397730279788953E-163, -5.908663869923103E-164, -9.927440835691051E-164, -4.976072516901652E-163, -1.5284131220656693E-163, -7.317605387146906E-164, -6.836798925020957E-169 ], [ -3.0807411882868426E-165, -9.581201186603477E-166, -1.542395790186494E-166, -3.929341020741338E-166, -3.914094269700926E-167, -9.621575064651423E-166, 2.8276303284224457E-169, 1.1053445366804678E-169, -6.23460431260269E-170, 1.9928400427763405E-169, 4.3573168197173104E-169, -1.1657776202408522E-165, -3.528068775009716E-166, -2.3473395160104917E-166, 4.171664953260726E-167, -1.170410370824739E-165, -1.113602488010288E-165, -1.2467452381661968E-165, 5.634027620606444E-166, -2.2440219584180047E-167, -1.1146644621311305E-165, -4.211653088715666E-166, 2.6441703656112467E-167, -8.00520544324005E-166, 9.079545021997536E-167, -6.286494245632659E-166, -2.743275055726649E-166, -2.2591422715484732E-166, -3.264909446944969E-166, -9.369246146953074E-167, -1.9958238899244357E-166, -3.727968228126944E-167, -1.3505146917520998E-166, 2.2332181272417154E-166, -2.5410523244335884E-166, -2.5796541808488756E-166, -1.8725861867174967E-166, -3.8715176082756813E-166, -1.0956799641551822E-167, -7.286180704289135E-166, 8.020542554661156E-167, -8.922205294265097E-166, -3.6512316431110226E-166, 1.1519483472379723E-166, 5.176860211455071E-166, -5.709843618476015E-166, -1.0122117687469498E-168 ], [ -3.4167926270978006E-167, -2.1396358611068465E-168, 1.480631871671928E-168, 5.214224064907573E-168, -3.828267441880117E-168, 1.2488379146726806E-168, 3.624162678093366E-170, 1.1264200174011458E-169, -8.131972073856143E-170, -3.196179971563382E-169, 3.40185910905269E-169, -1.5841639765769208E-168, 1.9099598942927205E-168, 5.977325850164552E-168, -3.943555167321606E-168, 1.6472895050227658E-168, 5.374250511306888E-168, 1.5035258091189205E-168, 3.11386288213114E-168, -2.5727589273857186E-168, 6.224400357097358E-168, -1.0774707449805117E-167, -9.195140048769456E-168, -1.034533581776346E-167, -9.410732435311333E-168, -2.0539212099877142E-168, 4.5503915757297097E-169, 1.8943201148157058E-168, 2.242407464275608E-169, 1.8837723780425164E-168, 2.9168414457468816E-168, 6.165032639878176E-168, 1.7491462601992645E-168, -2.857330499906323E-168, -4.0796138497191675E-168, -5.210481900258655E-168, -4.0609326285398755E-168, -1.0541479974692804E-167, -9.360828815431166E-168, -9.759060043058158E-168, -8.886636646934504E-168, -1.499209148752548E-167, 2.026205807084775E-168, 3.2322599597926826E-168, -5.259357404046945E-168, -3.885398157652972E-168, -2.536589884239855E-169 ], [ -1.69354451677882E-165, -9.784927960986926E-166, -1.7449346198744754E-165, -4.397477440870369E-165, -1.4900260489132788E-166, -9.825978173701257E-166, 1.6090785034636447E-169, -3.1591663463562394E-170, -6.820649966437866E-170, -1.4095323658561565E-169, -2.301140547592184E-169, -1.2474774259966025E-165, -1.571328395085617E-165, -4.384139510249845E-165, -1.6838611249477915E-166, -1.257714496071301E-165, -1.1661632826806699E-165, -1.5141956737590317E-165, -1.2437534772162062E-165, -3.0733783211190867E-165, -1.1669791882849626E-165, -7.668722434651849E-166, -7.724694189452108E-166, -7.68385147117352E-166, 2.2536182610627743E-167, -5.247513836071637E-165, -4.878814781368938E-165, -2.6421699798285126E-165, -4.89659937225699E-165, -4.36520088767968E-165, -5.201140217601424E-165, -4.936158889821158E-165, -5.179287455463301E-165, 8.49753730675771E-167, -2.2367825512059933E-166, -4.279973655602568E-166, -1.7943685356925374E-166, -1.3567881834488344E-165, -1.326303169413511E-165, -6.945998291794457E-166, 1.1088778801101199E-166, -1.1617105860163784E-165, -1.7293501904276337E-165, 1.3355908398934962E-167, -1.6709592517948608E-165, -3.8834999552858436E-165, -2.2017459105685692E-170 ], [ -1.5088338794207273E-167, -7.564532736853297E-169, 4.694889663567666E-169, 2.6243293533447187E-168, -1.548074837701494E-168, -4.227323660838389E-170, -3.732341499887969E-171, -4.936233165399085E-170, 2.2701095988518656E-169, -2.6787332829808915E-169, -2.181557009943502E-169, -4.863770693159265E-169, 1.1583123830974316E-168, 2.6393155413866867E-168, -1.716024657263013E-168, 3.4642021013517265E-169, 2.43759647041247E-168, 1.2814485087307312E-168, 2.1738243108162386E-168, -1.0677226640742657E-168, 3.2429018050093284E-168, -5.2153299776593755E-168, -4.881499073196881E-168, -4.337531455071595E-168, -4.894913410639841E-168, -9.364132635478506E-169, 2.327458823693918E-169, 9.810458363079224E-169, 1.0129445676982504E-169, 1.4919094805454346E-168, 1.2680064452044814E-168, 2.6709057540413303E-168, 1.2742656025184142E-168, -1.5197700919174862E-168, -1.9422059950612706E-168, -2.9622592521775177E-168, -1.574218318037285E-168, -4.968839700277604E-168, -5.062557541274746E-168, -4.483298116236177E-168, -4.0341305017145717E-168, -7.051938668110749E-168, 1.4468391788549476E-168, 1.0374483005089911E-168, -2.552536385586137E-168, -1.9332152809679066E-168, 4.400977904618112E-171 ], [ -1.760746136734916E-164, -3.261433550025913E-164, -2.2244452367473595E-164, -1.9982468968330908E-164, -5.809695840370461E-164, -3.2439360632584755E-164, -4.014517623228934E-170, 4.342347070212654E-169, 3.894595108990756E-169, -4.762034550169586E-169, 4.123345391331395E-169, -3.632475715124431E-164, -2.5273939487538244E-164, -1.8395900471485347E-164, -5.813286718965661E-164, -4.142567715573842E-164, -2.7243676043814302E-164, -1.8878491123944154E-164, -1.9383111301289165E-164, -8.535026302033799E-165, -2.7020961120060512E-164, -3.647419502867867E-164, -3.8369946873893616E-164, -2.0594981261495234E-164, -2.6921689766574585E-164, -5.960577869799447E-164, -3.819208888215408E-164, -4.7845768737131896E-164, -3.7758847158263136E-164, -2.4236029827859784E-164, -1.3101909322987254E-164, -8.578913136359649E-165, -1.3182082583814473E-164, -5.956145758357789E-164, -4.573660052843117E-164, -4.428165618531962E-164, -4.716783423194053E-164, -4.15603028303077E-164, -3.7196507361076145E-164, -2.4246498509941434E-164, -2.354810075975368E-164, -2.031722743763047E-164, -2.4244495541363296E-164, -1.3565747981121817E-164, -2.0220676060402077E-164, -7.946070075705863E-165, 4.5936993744325745E-169 ], [ -2.2876313621724284E-167, -2.7096456817397097E-166, -1.818937874978374E-166, -1.9314839378366742E-166, -2.1131273642800446E-166, -2.86241311787871E-166, 1.1866271135048406E-169, -1.080650280940173E-172, -4.777572332936252E-169, 2.948897241793249E-169, -3.758793318797383E-169, -3.279505784364836E-166, -1.7863739351305995E-166, -1.9879946772085925E-166, -2.880644488498725E-166, -3.279649915277583E-166, -2.7753083699337034E-166, -2.0713758231590966E-166, -1.1776566105296218E-166, -2.158398539958203E-166, -2.7812607518038396E-166, -2.7924935926132083E-166, -2.8333154089605446E-166, -3.527511061918952E-166, -2.8443612373219894E-166, -1.9838542204243315E-166, -2.0257144937031617E-166, -1.9726972732644105E-166, -2.0551753322339656E-166, -1.863349588966401E-166, -1.963402175526683E-166, -2.016075733659332E-166, -1.927659252500421E-166, -2.9540306776960644E-166, -3.4801950523638143E-166, -2.4669228067071303E-166, -3.485478969641014E-166, -2.7505841357325346E-166, -2.761398934502505E-166, -3.1900679670229273E-166, -2.7901882695505437E-166, -1.7057142146578676E-166, -2.0742354237930068E-166, -1.9078048490158872E-166, -2.869885675887558E-166, -2.8034580956067185E-166, -1.8228183492694448E-169 ], [ -3.3013190766715525E-156, -4.16216773692712E-158, 1.6426567774558924E-157, 2.5020563558786743E-157, -1.7137666075164066E-158, -3.888047833302143E-158, 3.453181969758615E-170, -4.554622069576495E-170, -8.147489335784322E-170, 9.715978473324058E-170, 1.7129212772874722E-169, 3.2912632092926464E-158, 1.4530904477885712E-157, 2.538142531649779E-157, -3.0030681059126062E-158, 3.922269985093564E-158, -1.1286658717736161E-158, 2.00872432555798E-157, 2.0593497668949064E-157, 3.026699213206211E-157, -1.066750133417787E-158, 1.1151118868805942E-158, -1.4393078085253472E-158, -1.5226470851924467E-157, -3.2267685330603494E-158, 1.466182335417352E-157, 1.3525567333837554E-157, 9.831140285930151E-158, 1.3592849739309305E-157, 2.4227227578731173E-157, 2.590091709026916E-157, 2.2855181124447584E-157, 2.427162276388902E-157, -2.3815092538222997E-158, 1.7534069094037594E-158, 2.3062681942648765E-159, 1.015357619831224E-158, 5.96639413807729E-158, 7.165049180271733E-159, -1.3380911639282697E-157, -3.815617975382066E-158, 6.891643550058216E-158, 1.159243145168516E-157, 1.1089222405534927E-157, 2.29078095536098E-157, 2.528371926063804E-157, 1.8627300346663123E-159 ], [ -2.6176493570602807E-166, -7.363405773252432E-169, 3.384546179393266E-169, 2.2667545443718814E-168, -1.7489168764148117E-168, 6.323797086770821E-169, 1.1968896922231765E-169, 3.4058053282380675E-169, -4.601264725789628E-169, -5.0370293170769556E-169, 1.6112669945896944E-170, -7.866279498636128E-169, 1.0811402655384193E-168, 1.8760936600666775E-168, -1.2007587352585117E-168, 7.190782590665775E-169, 1.369301231326697E-168, 5.819810419781449E-169, 1.2876557417217497E-168, -1.2021919151737997E-168, 2.157422014573437E-168, -3.727633361835157E-168, -3.1899251269881337E-168, -3.4246396359775013E-168, -3.530530720047382E-168, -5.316725968382967E-169, 1.944418213095189E-169, 7.906591662671447E-169, 4.951934069901175E-169, 1.3284037695800012E-168, 7.233745673995212E-169, 2.0199696804300656E-168, 4.8686412438933553E-169, -1.17526993984915E-168, -1.2560226938891572E-168, -1.4900369951461876E-168, -1.2480020775293727E-168, -3.293702806874132E-168, -3.3788428882047046E-168, -3.5447545471491825E-168, -3.1598384038693187E-168, -5.615477653771848E-168, 1.5388723394595817E-168, 8.584799227371675E-169, -1.7840723515248139E-168, -6.943079386885002E-169, 5.549787953200421E-169 ], [ -2.654247826306394E-166, -2.476183765613156E-166, -1.1143854192932757E-168, -3.457862667702292E-168, -2.3807969909513988E-166, -2.4901650886193336E-166, 1.6413117465177404E-170, 1.5665406075976855E-169, 1.2484378252466723E-170, -6.195156780254881E-170, -1.4968317134236374E-169, -2.4796064500081887E-166, -7.969812851809725E-169, -3.3231111524649806E-168, -2.3729493906629575E-166, -2.4872934706593402E-166, -2.4681023018833558E-166, -2.3416367905554706E-166, -2.029012142403415E-166, -2.4770662175426645E-166, -2.4655582506618796E-166, -2.4737873193627806E-166, -2.4722366049808204E-166, -2.4819364128012048E-166, -2.470136946550269E-166, 1.3713279730578305E-168, -2.3493649930161994E-169, -3.866891889442327E-169, -4.436628225054087E-169, -1.096869728396451E-168, -1.7114952752290945E-168, -3.4414408658556825E-168, -1.4176924652609033E-168, -2.386929688352515E-166, -2.3760496095096903E-166, -2.3276904738153584E-166, -2.3201355748038145E-166, -2.4711356253902584E-166, -2.4745106579494022E-166, -2.4772728326668725E-166, -2.476695220067261E-166, -1.893325776247476E-167, -4.763987665754147E-167, -1.5747614998172128E-166, -2.475096861615296E-166, -2.4776601778985973E-166, -1.723841481073473E-169 ], [ 3.8922464892929187, 0.03394576608997734, 0.03939417854823627, 0.04236019416494107, 0.03710768312172679, 0.03430918371120954, -2.5157280033906457E-169, -1.8662657488046235E-169, 9.17064225230569E-170, -3.855163076046288E-170, -3.349861749526908E-170, 0.044674033175498506, 0.04199902561814239, 0.0451171646866154, 0.040285082653403526, 0.04528410970810174, 0.010904887557924453, 0.00998497367592717, -0.01440969189767328, -0.03632233904863921, 0.010685609424013748, 0.1210797322407578, 0.12474460655509735, 0.18586135207213833, 0.12515163094775256, 0.04854387942820298, 0.05346849314161125, 0.05701626276110186, 0.052135178885286626, 0.03655952556036066, 0.04282004016870676, 0.04910830228363996, 0.04338965916057667, 0.04754937005895409, 0.03271416923231275, 0.03017174618004499, 0.0314214770368828, 0.11575865453777867, 0.12549640406140317, 0.18580175797752307, 0.12961251808243976, -6.456197388266532E-4, -0.004461798338298634, -0.0014968617308482389, -0.024771817174346237, -0.028252545217667308, -5.283265146836313E-5 ], [ -3.001807857975682E-167, -2.066398713820242E-168, 2.0201853829404775E-168, 4.922365209172702E-168, -2.800253738453647E-168, 1.1457192636373773E-168, 3.056499122182801E-169, 1.1151954910799211E-169, 1.0748382881771765E-169, 1.9559837485558653E-171, -8.248653693750179E-170, -1.4139433101977795E-168, 1.4869554721078516E-168, 5.375763882386351E-168, -3.504552300604827E-168, 7.176418840390796E-169, 5.17419605355974E-168, 1.4681782106049514E-168, 3.0655413722055904E-168, -2.458867399595042E-168, 5.00409059821299E-168, -1.002948128531832E-167, -8.074079649241753E-168, -8.660794102635833E-168, -8.145116738661833E-168, -1.6861855405166006E-168, 2.304658752962548E-169, 1.460732018197239E-168, 3.611829264120155E-169, 1.4709938276547432E-168, 2.738414337253945E-168, 5.048651816797095E-168, 2.126974270742238E-168, -2.354541356413579E-168, -2.9182290101810394E-168, -3.7508549602034264E-168, -3.5050160426832067E-168, -8.810833337893888E-168, -8.121975155268448E-168, -9.156871532790694E-168, -7.779218631160411E-168, -1.3037197018925787E-167, 2.1111064801618163E-168, 2.4225591368329817E-168, -4.579343337783032E-168, -3.3085744165929685E-168, -6.2771462506559235E-170 ], [ -1.0678651739013038E-165, -2.0562776857360004E-166, -3.3931902940225885E-166, 1.2211847984163253E-166, -2.7217856723980144E-166, -2.0625041069260554E-166, 1.6020064302208304E-169, 4.089410736012079E-169, -4.7980653327850245E-170, -3.9281268075697565E-169, 2.0442261036407847E-169, -1.9893893773628115E-166, -3.1997055613689595E-166, 5.94712298466353E-167, -2.146344057939136E-166, -1.980313336844855E-166, -1.690804330238518E-166, -3.0571057897069905E-166, -2.3226155253967097E-165, -5.127000070085964E-166, -1.6963683901110918E-166, -2.1349954950109703E-166, -2.1980801880180612E-166, -2.2273435554390803E-166, -2.3623683891995745E-166, -2.897853576373079E-166, -2.885817335448167E-166, -2.8787572652971874E-166, -2.9071401583022384E-166, -2.1571721097762234E-166, -1.613342073798379E-167, -3.4301562426902477E-166, 5.759681573002706E-167, -2.122808029118699E-166, -2.1653525104698525E-166, -2.194538012635261E-166, -2.1734137690245862E-166, -2.173721783516365E-166, -2.2125304725196512E-166, -2.2534717911187153E-166, -2.3566863039123874E-166, 5.814028104502456E-166, -1.137407966432464E-165, 5.540594047591549E-166, -1.6789852050916106E-166, -3.393251456082243E-166, -1.113524963899857E-169 ], [ -1.4382632366627048E-167, -1.233395029373366E-168, 8.488310948505127E-169, 2.282649620762269E-168, -1.2891587122573192E-168, 4.6920848548772727E-169, 3.5962162097230054E-169, -5.641305292923568E-169, -3.7126171688001065E-169, -7.118346360198351E-169, 1.2467064121602946E-169, -9.204535315678759E-169, 1.0822392147336148E-168, 2.891107706874952E-168, -2.01630553820407E-168, 5.807236714995112E-169, 2.73205058773383E-168, 4.6863484146587226E-169, 1.5969785389918452E-168, -1.369062465010055E-168, 3.317351188913881E-168, -5.397826531441074E-168, -4.467986889793144E-168, -5.292030785310239E-168, -4.392779048832589E-168, -9.267030876630145E-169, 3.0751078280898663E-169, 8.183430796586273E-169, 3.759311002660371E-169, 5.569745994502746E-169, 1.0401284891301523E-168, 2.6907183016424107E-168, 1.3237508700597755E-168, -1.7567799191480029E-168, -1.7421435647798418E-168, -2.24207629239815E-168, -2.2642751509339673E-168, -5.21930338710984E-168, -3.769702703951601E-168, -4.645042388852416E-168, -4.388649877578577E-168, -7.287659137163643E-168, 1.053864559378518E-168, 1.1738645494976517E-168, -2.5169977672708405E-168, -1.7022567310858208E-168, 2.0202742639037994E-169 ], [ -2.5987709396800687E-167, -2.1118916280324479E-168, 2.0061466475203953E-168, 4.2346517922262295E-168, -2.7843281008946855E-168, 1.0520011188947248E-168, 2.847777663858049E-169, 6.061096112351207E-170, -6.533759004804339E-169, 6.879274176224847E-169, 4.755141769557446E-170, -1.0807341030669767E-168, 1.0977505684956007E-168, 4.331089743871459E-168, -2.721312988586687E-168, 1.4622366100027032E-168, 4.485385386076755E-168, 1.0319351377079718E-168, 2.495772332532677E-168, -1.8057641439745547E-168, 4.765004110099976E-168, -8.586950700117438E-168, -7.30977170539299E-168, -7.74283198991117E-168, -7.000483953842113E-168, -1.5884129827764736E-168, -5.725504038759847E-169, 8.042900056178625E-169, 7.802556476670628E-169, 9.730953679522166E-169, 2.1682231164323314E-168, 4.179629438037162E-168, 1.5284196265862076E-168, -2.166769958730764E-168, -3.077307675297021E-168, -3.638032373940788E-168, -2.806047297312541E-168, -8.095666986279418E-168, -6.619397071600323E-168, -7.917145144369179E-168, -6.681074301829508E-168, -1.1706509752519648E-167, 1.669351800810259E-168, 2.356604278927797E-168, -4.431870745429598E-168, -2.2491412775435746E-168, -1.8606974486146254E-170 ], [ -2.7394269713571233E-167, -1.3554230747525365E-168, 1.1771405820364488E-168, 4.845361679798068E-168, -2.8886815468055036E-168, 7.722601644951256E-169, -4.109009814757816E-169, 5.38264481337184E-170, 2.7081815025228884E-169, -4.829141909980813E-169, -2.295835033809705E-169, -7.607637376753573E-169, 1.383799066517308E-168, 4.626714680290106E-168, -3.415312595860086E-168, 1.0340832485740955E-168, 4.251891297586961E-168, 1.6621870546755488E-168, 2.588843833502765E-168, -2.2385303232701043E-168, 4.90523479366498E-168, -8.789201640963334E-168, -7.530239095883632E-168, -8.114316880638567E-168, -7.795117250898446E-168, -1.2302753885956404E-168, -2.341475129995054E-169, 1.0107549370233261E-168, 6.455133546245681E-169, 2.2370113029300426E-168, 2.45087503345171E-168, 4.4733489829786385E-168, 1.1237674189698767E-168, -2.939471243253695E-168, -3.360220795782169E-168, -3.9214182039677203E-168, -3.2552726480129017E-168, -8.364701702607362E-168, -7.133948869359648E-168, -7.938873779194065E-168, -7.147157365915335E-168, -1.1866121141172486E-167, 2.3074640904281086E-168, 2.809308094144613E-168, -4.363617982402152E-168, -2.719980536307908E-168, -3.808987233025702E-169 ], [ -2.7325390712756806E-165, -9.213836806548636E-166, -1.2814741065348804E-166, -4.0305238885710054E-166, -5.200769865542703E-167, -9.229114167290848E-166, -1.3621823668702482E-169, 1.5331143473216087E-169, -5.26855566986529E-169, -3.1530383579478705E-169, 1.917153574542629E-171, -1.0874852038801827E-165, -3.3376464699305466E-166, -2.614622515264763E-166, 3.7087522599412545E-167, -1.087661758684955E-165, -1.0995624802141953E-165, -1.1912707576904955E-165, 4.988464433457348E-166, -1.0070794505342944E-166, -1.1008274246634967E-165, -3.3993304243057135E-166, 5.427867303992852E-167, -7.236891145565088E-166, 9.976376489107085E-167, -6.361003854260155E-166, -2.844141815805932E-166, -2.2028499044107167E-166, -3.3667483242112446E-166, -1.5173841036702673E-166, -1.8401817486679906E-166, -5.848216990401682E-167, -1.1951551160884485E-166, 2.3109848531411296E-166, -2.68090718963064E-166, -2.8341263041676995E-166, -1.792531917258898E-166, -3.0345230742108934E-166, 1.5870262302851322E-167, -6.401992069392637E-166, 8.919384589145882E-167, -9.076974010489669E-166, -3.926605072394531E-166, -1.5279660213066815E-167, 3.995682775514892E-166, -7.275634047391725E-166, -5.969587472838319E-169 ], [ -7.559804644565943E-157, 2.93874369288227E-158, -8.763719421182967E-158, -8.838897800393684E-158, 2.3151328502380916E-159, 2.9286481578282266E-158, 6.858919284077603E-169, -6.573311933410373E-170, -2.9611957348070588E-170, -1.3685101812840784E-169, -2.870073307366045E-169, 8.967149545784627E-159, -8.657205425911677E-158, -8.97273921846491E-158, 1.343985303341645E-159, 8.838926500534448E-159, 5.634264032070397E-158, -9.875532074802313E-159, -8.09457719049696E-158, 5.294428586918851E-158, 5.636084024476723E-158, -6.043412261019024E-158, -4.7566362295974494E-158, -6.377681533092419E-158, -4.516954799220316E-158, -7.442379335905065E-158, -8.97310876554499E-158, -9.140524939049207E-158, -8.724828270500441E-158, -6.010913954611612E-158, -9.240883692516051E-158, -9.180495996535542E-158, -9.24143735036258E-158, 6.79974938920041E-160, -1.8783891618134213E-159, -3.042001067002727E-159, -1.0783398091889256E-159, -6.3600987075161475E-158, -4.897303839877665E-158, -6.443473985764316E-158, -4.683585186192721E-158, -2.3101227813466654E-159, 3.841276406452035E-158, -1.2865922122520813E-158, 4.329096531086874E-158, 6.739899902347907E-158, 4.796795313121301E-167 ], [ -2.5174683253398474E-166, 1.4310641179326928E-168, -1.1114477932842625E-168, -2.248299681598591E-168, 1.3420555186595988E-168, -3.278715452085321E-169, -2.2313308027419438E-169, 2.958543337354357E-171, 4.2485262572976164E-169, 1.1120034337094452E-169, 1.4092448710211622E-169, 6.846484254812861E-169, -7.64866688980556E-169, -1.9121754625801175E-168, 1.3676456770710878E-168, -1.872233131459357E-169, -2.0323655746614635E-168, -1.0311282743135021E-168, -1.0362373796825535E-168, 1.358947749758608E-168, -2.488452071426054E-168, 4.0336004948164894E-168, 2.8111247140280926E-168, 3.306264931153914E-168, 3.2435801463376564E-168, 7.479871009536825E-169, -2.3790689017723776E-169, -3.223248031387709E-169, -5.585196831981203E-169, -1.1428512386422006E-168, -1.6176698262944623E-168, -2.470292818145212E-168, -1.1503775275533959E-168, 1.2427100979661163E-168, 1.8379576634277734E-168, 2.3091623176180216E-168, 1.1636817874824246E-168, 3.862752758656769E-168, 2.5720722598486694E-168, 3.0240970383379505E-168, 3.013067545129837E-168, 6.03145693653121E-168, -1.5816925314422011E-168, -9.719499634699062E-169, 1.4986370758352627E-168, 1.6358783065119776E-168, -1.901789018080724E-169 ], [ -1.731143822956356E-163, -1.2431279374965213E-162, -2.753719530827261E-166, -8.818002061410531E-165, -9.693238870829538E-165, -1.2427214429611456E-162, 2.0865311696042397E-169, 1.655804044970205E-169, 3.022068012807486E-169, -1.3581897740828026E-169, -2.8868322677954825E-169, -1.2146224984036075E-162, 3.3343704465122863E-165, -8.841680105745006E-165, -1.0452131652676874E-164, -1.2146909077830877E-162, -1.1346206464877553E-162, -6.752770276469128E-163, -1.643330446887647E-163, -1.0973990493403892E-162, -1.1345631310684887E-162, -1.2244024960701645E-162, -1.2044262187277642E-162, -1.3206301911801752E-162, -1.023310124589083E-162, -8.988244679774935E-165, -3.2190369560893676E-165, -1.2404656072200413E-165, -3.482297029120608E-165, -9.494552605336814E-165, -9.071821821317223E-165, -8.70195127349097E-165, -8.870921142018638E-165, -1.076037337594466E-164, -6.174530581925183E-166, 9.429060673977798E-166, -2.8751137517352905E-166, -1.220027097274596E-162, -1.1892035717154284E-162, -1.3148858024032856E-162, -1.1559316956765228E-162, -1.7564300513304917E-164, -1.5607044277146963E-163, -3.119346273993947E-163, -7.279581545473062E-163, -8.713795400722976E-163, 4.750615968457214E-169 ], [ -1.3306397751048076E-163, -1.8933418504106852E-164, -6.403825064406427E-164, 1.6225462288247319E-165, -1.2606790596309812E-163, -1.8893969013050472E-164, -2.1623007050643304E-169, -3.0057755791259943E-170, -1.7734318321182492E-169, 1.363983325104794E-169, -2.70874471656467E-169, -3.4137628534916494E-164, -5.982083817209422E-164, -5.414464775577826E-165, -1.2000594723539198E-163, -2.943615632622076E-164, 1.57487695853096E-164, -6.985670971834212E-164, -6.331939330427563E-164, -4.650932684735071E-164, 1.5487694796413583E-164, -1.4932688372610995E-165, -5.0254585968006154E-164, -3.4439789210496696E-164, -5.889998812325875E-164, -3.146086482768279E-164, -5.734616920921155E-164, -5.947551490252185E-164, -6.1628108377138136E-164, -1.0555148264324646E-165, -7.934535409844473E-165, -2.2950858713419083E-164, -1.9518292290817876E-164, -1.1439941856452314E-163, -2.0662124847049824E-164, -1.5965116369152305E-164, -2.564628533018376E-164, -5.969461347682124E-165, -5.9679830069899335E-164, -4.52480807112932E-164, -5.9463756863193006E-164, -1.3424952848621863E-163, -1.6909837051036809E-164, -1.2009141750329943E-163, -2.5486302992760815E-164, -5.473408356450113E-164, 4.350096221911255E-169 ], [ -1.813223272403847E-165, -2.8557073646434086E-166, -1.826235863696839E-166, -1.7467716181748632E-166, -2.0727657864990616E-166, -2.9816398331825427E-166, -5.202157676092324E-170, 1.9706228779298714E-169, 1.5938321716214507E-169, 6.720748462085155E-169, -1.2430255244870091E-169, -3.26340841543712E-166, -1.7914256728266278E-166, -1.8537743171247054E-166, -2.800627888244246E-166, -3.253076985360947E-166, -2.8325763416242273E-166, -1.9642022844815377E-166, -1.746383019103693E-166, -2.765383448617734E-166, -2.8382869092148534E-166, -2.8297410268067467E-166, -2.855070027063954E-166, -3.4668829742220817E-166, -2.859077769606364E-166, -2.0285940501887657E-166, -2.0420522702180967E-166, -1.9968159201951217E-166, -2.06517544089455E-166, -1.7126937290149393E-166, -1.8418282159612863E-166, -1.9071967251424027E-166, -1.794783900854536E-166, -2.8582818068969175E-166, -3.509108738548627E-166, -2.4681853143563474E-166, -2.9920439360837145E-166, -2.792826596577102E-166, -2.787577656763278E-166, -3.1445515092009205E-166, -2.8067471806071606E-166, -1.6556631204548637E-166, -2.0189880957569438E-166, -2.0007199834589622E-166, -2.923462339432531E-166, -2.84216630968978E-166, 2.953024858959994E-169 ], [ -1.380968761809268E-163, -1.6326409213289473E-163, 1.2871273277700014E-164, -9.735467597685337E-165, -5.652818493941172E-164, -1.639065417217847E-163, -2.304675850367893E-169, -2.4779310488541176E-169, 3.868770453271628E-169, -2.2041397957129073E-169, 2.7625414255784814E-169, -1.3902528315260996E-163, 1.4356389702644486E-164, -1.0093120884322497E-164, -6.566180302253623E-164, -1.3928892747436972E-163, -1.8514943182554014E-163, 1.7844882662849207E-164, -2.6704692845543534E-164, -1.0111331507239192E-163, -1.8530210616938678E-163, -1.1583872680850126E-163, -8.882724407085968E-164, -1.164217427583995E-163, -8.877208968382043E-164, 2.7584540330919042E-164, -3.345209666780663E-165, -1.0511206685852011E-165, -1.120918103595012E-164, 9.496931547391074E-165, -1.3128142514104995E-164, -1.208121585258451E-164, -1.4046343208209278E-164, -6.611849442086378E-164, -1.8666154376188117E-165, -7.012980458613669E-166, -5.279069142339339E-165, -1.129038776390292E-163, -7.101050767198425E-164, -1.0084186834058769E-163, -6.5265617304142034E-164, -5.992538764079216E-164, -5.339722258683651E-164, -1.91764098582861E-163, -1.3781499362735199E-163, -1.2478412895848636E-163, -4.470913029001652E-169 ], [ -2.5882705352105145E-166, 9.849609197754717E-170, 1.27532314115091E-169, 4.48379278317927E-169, -3.192880262929966E-169, -1.3516004185663986E-169, -4.507516109050839E-169, 7.957463873861813E-169, -3.506005228302152E-169, 1.850462373711487E-169, -2.0388183884747672E-169, 9.892897432732134E-170, -8.941654618027021E-170, 9.163299336697351E-170, -6.243811402130785E-169, 3.945915576061789E-169, 5.396167977248324E-169, 3.970654305369265E-169, 8.769428097026319E-169, -2.1174400493215155E-169, 1.449350144943745E-168, -1.5565352626272387E-168, -1.2005320385431326E-168, -1.8918722240147592E-168, -1.4589463840378704E-168, -5.611639319581577E-170, -6.842081136967786E-170, -3.341406609610127E-169, 1.9221847847836045E-169, -1.5311697752563424E-169, 5.1187537847845863E-169, 1.603387437854652E-169, -4.569516957940596E-169, -5.257512048108162E-169, -8.227620788244547E-170, -4.4080268704253895E-169, -7.0458295837341E-169, -1.24417289666394E-168, -7.68701493768055E-169, -1.9992067841020355E-168, -2.3396433918639433E-168, -1.7572858741119668E-168, 3.5072414330275333E-169, -5.086627052667826E-170, -5.93463657265748E-169, -4.2477249898997626E-169, 1.932248117035593E-169 ], [ -7.278302394620222E-164, -5.248933099453968E-165, -2.6631797909846067E-165, -1.1287295613859517E-165, -5.015635561780308E-165, -5.324463293920603E-165, -2.838998679417502E-169, 1.8780549164232565E-170, 1.9027446323569202E-169, 3.39132710892329E-169, 2.947962159491919E-169, -1.0153381173515004E-165, -9.760840004289927E-166, -1.2974771284112772E-165, -1.7458586907975256E-165, -9.329862694431799E-166, -2.1193275480334865E-164, -1.4673068981376768E-165, -1.1620088263688107E-164, -2.335985315053378E-164, -2.1046174250386758E-164, -4.510756365241258E-165, 1.0632770366473553E-165, 1.895409497407765E-166, 2.7065077005987198E-166, -1.9502376814610144E-165, -3.1679398337224867E-166, -3.1024289802771254E-166, -3.336124621154427E-166, -7.5044839463341265E-165, -1.3460638115530392E-165, -4.129504380488078E-166, -7.551026710784298E-166, -1.6569577451403438E-165, -4.9625420547329304E-166, -7.460463832885973E-167, -1.9063770762476888E-166, -3.3890026170896623E-165, 1.0226660564701583E-165, 2.724841344347089E-166, 1.8122569166267222E-166, -4.56971438875965E-165, 3.6333423740031084E-165, -2.9167092773021407E-164, -1.0277675068225917E-164, -1.3169603704323471E-164, 1.501762377425286E-169 ], [ -2.5310968888394276E-166, 6.038950110897023E-169, -5.309292175144116E-169, -1.8682414966606885E-168, 1.0114058979700502E-168, -2.412460491369587E-169, -9.095131441292674E-170, 4.3941632006771996E-169, 3.4945219660800145E-169, 5.461123671009181E-169, 2.6158348077154025E-169, 4.743570023601722E-169, -3.5167835158288854E-169, -1.896681157198576E-168, 7.052530080777355E-169, -5.796256671637319E-169, -1.4200205194000486E-168, -5.441683635915144E-169, -1.404174025703824E-168, 8.773650913449541E-169, -1.3489818059567424E-168, 2.46724784878535E-168, 2.9641036506251005E-168, 2.47099853204365E-168, 1.9407682849099424E-168, 2.903497013729122E-169, -5.778967815965833E-169, -7.190744577595681E-169, 8.651276704302987E-170, -8.096349587124173E-169, -9.228182431343564E-169, -1.3352913149341612E-168, -5.417091282019846E-169, 6.008380111393444E-169, 5.516531988647896E-169, 1.2267269521227455E-168, 1.0255610823689256E-168, 3.106873714284488E-168, 1.9142488865124924E-168, 2.3794165482451044E-168, 1.9173962571359814E-168, 4.898094267384596E-168, -9.881959421758444E-169, -1.0584035479123082E-168, 1.4308553865219187E-168, 1.2291979581369853E-168, -5.319254534524308E-169 ], [ -2.014351030426126E-167, -8.33817194903914E-169, 8.704529794037217E-169, 3.022495985694716E-168, -2.1813917694873825E-168, 1.143837948711019E-168, -9.7577941450189E-170, -3.700283225427769E-169, -1.775304522728492E-169, 6.410053209688819E-170, -1.7643473187068587E-169, -8.541699779266293E-169, 1.4074897248531895E-168, 3.6323273042863493E-168, -2.3451172233305566E-168, 9.51557061371617E-169, 3.8165756828549294E-168, 1.1864735908838384E-168, 2.2344032217627956E-168, -1.7340147118891765E-168, 3.5078641912526424E-168, -7.066685674894003E-168, -5.6274930445233615E-168, -6.604433276256872E-168, -5.757575509227058E-168, -7.805286217506221E-169, -6.59910864838651E-169, 8.906057568704234E-169, 4.313253386609834E-169, 1.4069863659231805E-168, 2.0967547022282608E-168, 3.903107097510231E-168, 1.0905528291563894E-168, -1.5393442314983067E-168, -2.4598610896339503E-168, -3.2864158102865633E-168, -2.659955281678036E-168, -6.672592738838821E-168, -5.274598778365217E-168, -6.094469737279099E-168, -5.465500415742701E-168, -9.138857538319051E-168, 1.5687032296411677E-168, 1.3604309865593076E-168, -3.482501467103283E-168, -1.79020702788502E-168, -1.9668400440445944E-169 ], [ -1.819646880450329E-165, -2.7409184266427405E-166, -1.6214906642437977E-166, -1.651258068945576E-166, -2.442410354792769E-166, -2.8381485406769116E-166, 6.898704690402221E-170, 2.2761165515625644E-169, -5.468231536229145E-169, -3.0552421240137294E-169, -2.0794101624749624E-169, -3.4312294116591385E-166, -1.5749780099575898E-166, -1.7776626273630408E-166, -3.020198722006836E-166, -3.423969850543339E-166, -2.729642931208552E-166, -1.9959971882896107E-166, -1.9665312478510693E-166, -2.785772617163639E-166, -2.7431256398930886E-166, -2.898375045220278E-166, -2.950618900532435E-166, -3.561159168050803E-166, -2.9619152460751386E-166, -1.9203577715956736E-166, -1.962904075360316E-166, -1.8993834663608687E-166, -1.993179998041149E-166, -1.6131862070948608E-166, -1.777779328218227E-166, -1.8461771963880687E-166, -1.712124352314893E-166, -3.1153115293414776E-166, -3.30074032052163E-166, -2.4904600243896958E-166, -3.508827721654631E-166, -2.8404378660320215E-166, -2.8428998369875836E-166, -3.3014356438339053E-166, -2.882474187482046E-166, -1.4737643232572845E-166, -1.958114813499681E-166, -2.0918030440750445E-166, -2.9847147444991776E-166, -2.8778366258639896E-166, 7.683016214904596E-170 ], [ -2.5330814692985162E-166, 7.264216031192451E-169, -6.295145894925679E-169, -1.4309701821258142E-168, 9.841636738067952E-169, 2.776314444144597E-169, 1.4605364345957714E-169, 3.6604214134371367E-169, 3.850301357697931E-169, -5.2107457969017786E-169, -1.1282739029461136E-169, 7.272103455333294E-170, 1.6945275365863645E-169, -1.6644466156587174E-168, 8.549535486780418E-169, -2.004405393535731E-169, -1.766104641359769E-168, -4.8728195214193345E-169, -9.260087357837014E-169, 9.648476363422566E-169, -1.7440513481860146E-168, 3.318830309931295E-168, 2.105650193377876E-168, 2.7383130144299577E-168, 2.372453626699654E-168, 8.233231693925317E-169, 1.583949173689868E-169, -4.892296330536337E-170, -2.0161952767919477E-169, -5.673051163279253E-169, -3.87555317175146E-169, -1.6278601887490588E-168, -4.679853823547677E-169, -4.820676093112173E-171, 1.1299225535063006E-168, 1.7736802516810783E-168, 1.043632062134287E-168, 2.6618413627056823E-168, 2.451073224975449E-168, 2.91280681806866E-168, 2.5601052256064584E-168, 3.829115748497495E-168, -1.0594325032000939E-168, -4.9225720404117007E-169, 1.1528706225479799E-168, 8.764227638839652E-169, -2.185462368385772E-169 ], [ -2.539173150119995E-166, 5.958483369162654E-169, -5.448582799721585E-169, -1.4825831106968609E-168, 8.994788854616802E-169, -1.701764061703791E-169, -3.26163576161809E-169, -1.404581093737171E-169, 1.733787699582308E-169, 2.0596806866012886E-170, 5.908719652474654E-169, 1.0882986254569636E-168, -2.907194224228815E-169, -1.262884289042445E-168, 1.0623578920845784E-168, 4.289084522101503E-170, -8.958343138072533E-169, -4.71944542241454E-169, -6.575424733255928E-169, 2.835598750805136E-169, -1.5410343524543472E-168, 2.3315946772322313E-168, 1.6840762226051793E-168, 2.3899790084356257E-168, 2.270751905398325E-168, 8.787681898481907E-170, -1.4740139122322525E-169, -2.985269779000396E-169, -2.5728983220458997E-169, -1.930783518940108E-169, -5.548731810342464E-170, -9.84572838971836E-169, -1.7078126225434095E-169, 6.758531924970992E-169, 8.79199154245815E-169, 1.017713006367387E-168, 1.075681562267514E-168, 1.7514078554598895E-168, 1.6809585028518729E-168, 2.1138150977597127E-168, 1.8094342052458402E-168, 3.7530444683712788E-168, -8.265913420075809E-169, -9.834050177377608E-169, 9.634982960633833E-169, 6.495074974639132E-169, -1.4951238484658704E-169 ], [ -2.4815962633983742E-166, 1.7263524184129833E-168, -8.89194764115585E-169, -2.884441300423802E-168, 1.5212377364846816E-168, -4.356336430337084E-169, 9.316216323031566E-170, 2.798720256697633E-169, 1.9884530321544107E-169, 2.9097118975451627E-169, -2.4272230832909614E-169, 7.589793760781426E-169, -1.3617808160922166E-168, -3.7434719423940997E-168, 2.3211073346536255E-168, -4.5466366530884264E-169, -2.698784809896544E-168, -5.111371485335236E-169, -1.4422686859174454E-168, 1.4472511863444156E-168, -3.702882897749779E-168, 6.1677303053866015E-168, 5.611577513165183E-168, 5.523420722709523E-168, 5.055803175963067E-168, 9.047315432106911E-169, 8.354731137025797E-170, -5.2910623151001395E-169, -1.4151808928127372E-169, -1.388977573201731E-168, -1.5609443046182122E-168, -3.02420594819907E-168, -1.3230491907248996E-168, 2.2403292125409527E-168, 1.6729511916380485E-168, 2.860900533241164E-168, 2.4456458245693743E-168, 5.088706981389749E-168, 4.699680655670313E-168, 5.741409459775383E-168, 4.925880248134664E-168, 7.936892504084842E-168, -1.7282412629303336E-168, -1.411660863780705E-168, 2.878725973107596E-168, 1.5330434739414661E-168, -1.584789608599264E-169 ], [ -2.2717274748404756E-167, -1.62359429651492E-168, 9.590670772484158E-169, 3.355630002929054E-168, -2.6276422047241474E-168, 8.640829621328973E-169, -4.310825496591157E-169, -9.147944720625932E-171, 2.6927575247340647E-169, 2.166260298476292E-169, -1.4631750911409858E-169, -8.742426773378703E-169, 1.0893507065168988E-168, 4.018946058150636E-168, -2.6581169564877234E-168, 7.798089328093539E-169, 3.895769114892054E-168, 1.3158167343016364E-168, 2.377133649218377E-168, -1.4503140234981427E-168, 3.8264979668966367E-168, -7.670794750244201E-168, -6.194569497008877E-168, -6.39943072207754E-168, -6.366860417552203E-168, -1.6312600448469568E-168, -8.410150799628175E-169, 9.115504419321525E-169, 3.5885333204440554E-169, 1.3569235274109953E-168, 2.139061631649195E-168, 3.590297994015992E-168, 1.0979032882745956E-168, -1.953444994109438E-168, -2.5255731448915383E-168, -3.183762489023677E-168, -2.769580266782842E-168, -7.40469527500718E-168, -6.10239436507335E-168, -6.638522272388434E-168, -5.993592067611227E-168, -9.458993617974909E-168, 2.148762646640619E-168, 2.1790181514737453E-168, -3.5673361495713014E-168, -2.624647854478762E-168, 2.3719199148518238E-169 ], [ -2.699758477695304E-167, -1.8152544613386092E-168, 1.4650503960649044E-168, 4.599912130171903E-168, -2.7668172398238563E-168, 9.795722940702708E-169, 1.3574973207871499E-170, -1.1073529136715065E-169, -2.0262198563505734E-169, 4.7248509405449656E-169, -8.127157967960977E-170, -9.983661180945055E-169, 1.361223200377723E-168, 4.479810980344784E-168, -3.4257724709944445E-168, 1.2814394647268848E-168, 3.9977092029860597E-168, 1.3906449145723575E-168, 2.2039183089891215E-168, -1.8563537288780535E-168, 4.687249837395773E-168, -8.633125545361097E-168, -7.915596720567109E-168, -8.072723036964002E-168, -7.575466216821858E-168, -1.5632326177138191E-168, -1.3918099240365478E-169, 6.7808999481353E-169, 7.256319391199323E-169, 1.267793794101109E-168, 2.3429809040066494E-168, 4.0192602307476086E-168, 1.9598279838506099E-168, -2.4953680486933916E-168, -3.4628444295066744E-168, -4.207010659513123E-168, -3.019997061308885E-168, -8.049112445958213E-168, -7.357192870673245E-168, -7.82316793881467E-168, -7.026767433865481E-168, -1.167207570830329E-167, 1.6484731045687467E-168, 2.402332320898675E-168, -4.340588632228833E-168, -2.624227632923833E-168, -5.083303984743118E-170 ], [ -2.5933243073787435E-166, -1.116060335931187E-168, 5.555037337221141E-169, 2.5879258127102163E-168, -1.5716392847121565E-168, 2.394295856599223E-169, -2.9853941757400854E-171, -2.7685608047075172E-170, -5.978898157899305E-169, 1.2042512466119002E-169, 7.527870479348088E-169, -5.0852130211070783E-169, 4.650836357938511E-169, 2.2760200248680276E-168, -1.474915019460285E-168, 4.7468197550470687E-169, 2.520200989970346E-168, 5.0840797572964775E-169, 1.5661380416981807E-168, -8.242615503905685E-169, 1.7320932281297602E-168, -4.878776585051621E-168, -4.101191986109053E-168, -4.1498776226959246E-168, -3.878205485264E-168, -9.583130189500803E-169, -1.0984240091494966E-169, 6.297741376671905E-169, -1.9641578173402533E-169, 5.133576840433487E-169, 7.609695193012512E-169, 2.4972659370218147E-168, 5.174657304000441E-169, -1.169445879135991E-168, -1.4793465873109685E-168, -1.9268230972543476E-168, -1.6657693316235426E-168, -4.325806978551346E-168, -3.7119219247179616E-168, -4.0580264883324007E-168, -3.586369597287988E-168, -6.374789192745934E-168, 1.6460803907989234E-168, 1.0190557678725191E-168, -2.3527918478216576E-168, -1.2660139436690686E-168, -7.216646310790162E-170 ], [ -2.05736121672581E-167, -1.3840101126171068E-168, 9.868234440083344E-169, 3.623836338803008E-168, -1.912834591957466E-168, 7.068304485661412E-169, 4.7976350795902914E-170, 1.769536298804757E-169, -2.881262532662261E-169, -4.963695103965321E-169, 1.760796465201916E-169, -6.131814684878501E-169, 1.209681068716E-168, 4.07648669602724E-168, -2.2205162334224623E-168, 8.621011511114237E-169, 3.8229055006849747E-168, 1.1839191958855767E-168, 1.4909202422862782E-168, -1.6536233409555058E-168, 3.4187340850644186E-168, -7.143997837492887E-168, -5.957515144931107E-168, -6.476326027211703E-168, -6.076181299230491E-168, -1.3421062033093124E-168, 7.265426933304008E-169, 7.912481526823472E-169, 5.59747872768154E-169, 1.6175803445844867E-168, 1.407046454178056E-168, 3.6397610258488555E-168, 1.1774908673777585E-168, -2.182216709430378E-168, -2.5258539669236584E-168, -2.853855300653167E-168, -2.7868812374613335E-168, -6.710662142936289E-168, -5.817801745349787E-168, -6.530861553653574E-168, -5.524432075454602E-168, -8.689676644751276E-168, 1.3648144286972416E-168, 1.7576788744277414E-168, -3.4758063868439846E-168, -1.6664162149431902E-168, -1.1747090623301497E-169 ], [ -1.0555138890596758E-161, -2.9466289307493526E-163, -5.166957711055074E-162, -2.843716869206148E-162, -6.407983797520142E-162, -3.804760481035331E-163, 1.939548930429729E-169, -1.916823225146463E-169, 2.5779257978855987E-169, 1.6571137228312285E-170, 2.702858458329636E-169, -4.7654569710817704E-163, -5.356411214098862E-162, -3.3424840201742874E-162, -6.433195404334811E-162, -6.697806514093032E-163, 2.137467757512863E-162, -3.5457955120011167E-162, -1.2742477178341076E-162, -1.574110008255305E-162, 2.1056345353166883E-162, -4.262822761026323E-162, -4.953120124373776E-162, -4.559496041861561E-162, -4.85346298290349E-162, -2.97727108366859E-162, -5.506499279132928E-162, -6.051820161448067E-162, -5.629319789663984E-162, -4.984628569904146E-162, 2.4497460680766017E-162, -4.3773943820679154E-162, 3.8936628908380277E-162, -6.40051083705858E-162, -5.912906805525842E-162, -5.938117557999079E-162, -5.897305950033343E-162, -4.337727475384311E-162, -4.98448926840134E-162, -4.608999293440225E-162, -4.866864713116364E-162, -2.5002630885790075E-162, -3.6161153307461586E-162, -3.9335615142501277E-162, -2.9766790001879355E-162, -2.953757632212488E-162, -7.313918972480868E-169 ], [ -2.776629498688578E-166, -1.0777152516667207E-165, -1.9124726099572665E-165, -4.675436882788008E-165, 9.505565371930666E-166, -1.0746908788519922E-165, -3.198220983001065E-169, -1.9461166184553394E-169, 3.066518742381777E-171, -2.109446279384325E-169, 8.637379978582281E-170, -1.6653806482824952E-165, -1.7164529301095862E-165, -4.602517662707019E-165, 6.983029851909732E-167, -1.6624044620646405E-165, -1.6197174104089464E-165, -2.0559894554138665E-165, -1.662854068648383E-165, -4.0110384053578293E-165, -1.6197040811068978E-165, -2.280874867743113E-165, -1.4662491658117647E-165, -1.4393019432520814E-165, -7.407411533471592E-166, -5.272342915954119E-165, -4.91272749742149E-165, -2.774225855078806E-165, -4.940433634834415E-165, -4.607252192680355E-165, -5.502656767457115E-165, -5.050703790933085E-165, -5.480823089984214E-165, 4.725022515106221E-166, -2.872943321265764E-166, -1.9496484721529492E-166, -1.0893412830497905E-165, -2.3439370787640207E-165, -3.142549819072208E-165, -1.1768018926647752E-165, -2.0798235458276225E-165, -2.9249337664740517E-165, -3.3148853024210187E-165, -1.0993340783961166E-165, -2.4668160768791376E-165, -4.194755967031386E-165, -8.630007658369763E-169 ], [ -5.88683460121894E-167, -4.156865095497252E-168, 2.7654207589285235E-168, 1.0194223652043035E-167, -6.660303180101536E-168, 2.2734846654662914E-168, 4.872591617913377E-169, -4.0105178203928235E-170, -1.711662250596212E-170, 1.8446066538336197E-169, 4.3679654320131265E-170, -1.9009777178291493E-168, 3.5770213312092635E-168, 1.0131655910805919E-167, -6.470756929560434E-168, 2.1889973854141335E-168, 1.047647385722061E-167, 2.928646074230444E-168, 6.246546821628309E-168, -4.9519343562967E-168, 1.0672947195176752E-167, -2.005872996558103E-167, -1.701797978447335E-167, -1.7586113842916447E-167, -1.696905077650669E-167, -4.361431953829631E-168, 7.006872598689598E-170, 2.9548691299526096E-168, 1.254653531647159E-168, 3.8178654327295267E-168, 5.939810044453452E-168, 1.0436438849515534E-167, 3.823977048190387E-168, -5.6667062355866115E-168, -7.086723130908092E-168, -8.691302703387911E-168, -6.809310624654851E-168, -1.8538262754228684E-167, -1.593804768676648E-167, -1.7031861375703815E-167, -1.665600145864206E-167, -2.5835022828283038E-167, 4.871922411092957E-168, 5.73500834616398E-168, -1.0026088958458565E-167, -5.917909679553739E-168, 1.551826543411887E-169 ], [ -3.0556496237175282E-167, -1.9288755705147357E-168, 1.5389374545385877E-168, 5.173125208327308E-168, -3.020951495856827E-168, 5.458573168080645E-169, -1.4349257100094503E-170, 2.3498640689299014E-169, 4.5445978883376156E-169, -3.684455890268406E-169, -2.7973991666751126E-169, -1.2757530495049637E-168, 1.7668438313344194E-168, 4.737611267442065E-168, -3.4985636101648404E-168, 1.2375155938680684E-168, 4.967825346441599E-168, 1.3307267097012295E-168, 2.9576211454380717E-168, -2.843280704022758E-168, 5.5968040582627275E-168, -9.89356290305746E-168, -9.159369607792425E-168, -8.935266932658282E-168, -9.024205524163103E-168, -2.111216039823E-168, -2.909569151580484E-169, 1.3124521890371951E-168, 6.574781552472478E-169, 2.1208053086905846E-168, 3.1063780301719155E-168, 5.126341177658449E-168, 1.929769777812913E-168, -2.6173345063234994E-168, -3.2644649351729027E-168, -4.1011099352541464E-168, -3.1724072586091377E-168, -9.588201669739001E-168, -7.984816763552425E-168, -8.57130736435199E-168, -8.475789219258E-168, -1.3187592510845367E-167, 1.933192905674392E-168, 2.3712261214142544E-168, -4.717894280929767E-168, -2.819810068375275E-168, -5.6513386603931E-169 ] ], [ [ 17.925461500832974, -0.002403250622888597, -0.002403250622888597, -0.002403250622888597, -0.002403250622888597, -0.002403250622888597, -0.002403250622888597, -0.002403250622888597, -0.002403250622888597, -0.002403250622888597, -0.002403250622888597, -0.002403250622888597, -0.002403250622888597, -0.002403250622888597, -0.002403250622888597, -0.002403250622888597, -0.002403250622888597, -0.002403250622888597, 0.1822708602774334, -0.002403250622888597, -0.002403250622888597, -0.002403250622888597, -0.002403250622888597, -0.002403250622888597, -0.002403250622888597, -0.002403250622888597, -0.002403250622888597, -0.002403250622888597, -0.002403250622888597, -0.002403250622888597, -0.002403250622888597, -0.002403250622888597, -0.002403250622888597, -0.002403250622888597, -0.002403250622888597, -0.002403250622888597, -0.002403250622888597, -0.002403250622888597, -0.002403250622888597, -0.002403250622888597, -0.002403250622888597, -0.002403250622888597, -0.002403250622888597, -0.002403250622888597, -0.002403250622888597, -0.002403250622888597, -0.002403250622888597 ] ], [ [ 94.41740983710984, 0.4871733989840234 ] ] ]
}