{
  "config" : {
    "algorithm" : "ListNet",
    "numIterations" : 500,
    "batchSize" : 0,
    "verbose" : true,
    "nomodel" : false,
    "params" : {
      "regularization" : {
        "regularizer" : "L2",
        "rate" : 0.01
      },
      "learningRate" : 0.075,
      "weightInit" : "xavier",
      "optimizer" : "adam",
      "layers" : [ {
        "num" : 15,
        "activator" : "ReLu"
      }, {
        "num" : 1,
        "activator" : "Identity"
      } ]
    },
    "dataSet" : {
      "training" : "../../../MQ2007/Fold3/train.txt",
      "validation" : "../../../MQ2007/Fold3/vali.txt",
      "test" : "../../../MQ2007/Fold3/test.txt"
    },
    "model" : {
      "format" : "json",
      "file" : "../../../MQ2007/Fold3/models/ltr4l_149.json"
    },
    "evaluation" : {
      "evaluator" : "NDCG",
      "params" : {
        "k" : 10
      }
    },
    "report" : {
      "format" : "csv",
      "file" : "../../../MQ2007/Fold3/reports/ltr4l-report_149.csv"
    }
  },
  "weights" : [ [ [ -3.0792145289262755E-164, 1.2158927503052902E-164, -1.3793065928557002E-164, 1.80212195422094E-164, 2.1799157273939563E-165, 2.5397247493495637E-164, -5.920292208730223E-169, -5.341991391199438E-169, 4.1231593675747575E-169, -2.9014485969707745E-169, 3.509016420802932E-169, -6.159736312289209E-164, -8.415570727467782E-165, -3.726849030434155E-166, -9.489872467794836E-165, -4.878658152199708E-164, -1.1777540651404449E-164, -1.73869824467206E-164, 5.958090876862728E-165, -1.2830764910892213E-164, -1.1669876452801747E-164, -4.883050709563441E-165, 4.970803010999382E-165, -3.723937961749385E-164, -9.87170912701728E-165, -2.150629490311362E-164, -2.3061207388059164E-164, -8.466698177952391E-165, -1.6578560535303827E-164, 7.366657128707512E-165, 2.448279943399056E-165, -2.025333243334131E-164, 2.8018809051374415E-165, 5.760718163668239E-165, 4.386376337572454E-165, -1.8575068166836022E-165, 8.228055420527937E-165, -2.684403198127335E-165, -9.12580646412614E-165, -4.045453542940527E-164, -1.6497900128366902E-164, -6.443514184512922E-164, -3.803464195964087E-164, 6.26281573189863E-165, 1.138883493777139E-164, 8.648944049803423E-165, 2.325409136101376E-165 ], [ -2.6299679092781748E-166, -6.555168191479005E-166, -6.534937702347623E-166, -3.014105616579277E-166, 2.2350372838831576E-166, -7.025471433773689E-166, -1.739456657533885E-168, -4.5720981320691747E-169, -7.942283498715296E-169, -5.688730960719224E-170, -8.381185396144757E-169, -5.3363159232576166E-166, -2.5508128082895945E-166, -2.420225899117019E-166, -2.1203656316287548E-167, -5.812938415052368E-166, -9.934802561020084E-166, 4.921742017785541E-166, -2.5088112928992137E-165, -9.878232255850344E-166, -9.948043328542232E-166, -8.196574635873958E-166, -6.107928799060547E-166, -2.902860473891659E-167, -1.0390752902466922E-165, -6.168154761593113E-166, -7.886609132375233E-166, -5.392535442882329E-166, -6.611488100930062E-166, -1.5816823660679242E-166, -2.997715764354192E-166, -6.167527318234965E-166, -2.0069841337566657E-166, -1.9086702073724616E-168, -4.2133457591462396E-166, -5.637812451686172E-166, -4.979466883010227E-166, -8.485205827004176E-166, -5.535844249788355E-166, 5.727689993608052E-167, -9.268278677354237E-166, -3.665858488847702E-166, -5.2683963609654024E-166, -1.4442395106296035E-165, -6.705379689653944E-166, -1.4703279001463858E-165, -2.834606939847113E-166 ], [ -8.921199714472718E-168, -2.966746407639988E-166, -2.0375502464334233E-166, -1.778659188033563E-166, -1.2840139876506737E-166, -2.161832254059514E-166, 4.3059798381075224E-169, -3.646698346423616E-170, 2.77547809252726E-169, -2.786440436412045E-169, 3.8569480199756895E-169, -2.8020211370968754E-166, -2.0494622029492488E-166, -1.7724159902748183E-166, -1.3289732490716472E-166, -2.1151519785393184E-166, -1.7338250968463877E-166, -2.0695184149526036E-166, -8.678997509651778E-167, -3.022034339885849E-166, -1.751524945269516E-166, -3.327403737397192E-166, -3.293547646808191E-166, -3.3129698903466126E-166, -3.313020700862548E-166, -2.9613898396602097E-166, -2.4668905742046024E-166, -2.1489790950265037E-166, -2.265231597850002E-166, -2.00709545312783E-166, -1.9220468702489202E-166, -1.7537604217976772E-166, -1.996297380298932E-166, -1.154724412389359E-166, -1.3152936533515477E-166, -1.4995230450788026E-166, -1.2969663288869745E-166, -3.3197567611778587E-166, -3.308593070001762E-166, -3.314553522432593E-166, -3.290411935516812E-166, -3.364969265779849E-166, -1.965541954675928E-166, -1.7369084306321886E-166, -3.1790028325322055E-166, -3.0589796273608734E-166, -4.6841071865715567E-169 ], [ -1.2676502216063817E-163, -3.999388310157839E-164, -2.197894102146102E-163, -9.096174206686358E-164, -7.945980237173075E-164, -5.960806628797938E-164, 1.941106627404293E-169, -8.796260503123226E-169, -3.7572013829142434E-169, -6.87214601984388E-169, -1.3390902605699396E-168, -9.680332490931117E-164, -2.972245320573222E-163, -7.795042382372944E-164, -1.7744884026002423E-164, -1.1336196495560535E-163, 6.013955738289667E-164, -2.5872182664743026E-163, -2.4823528957398203E-163, -1.2749147920933768E-163, 5.8839076776404605E-164, -3.331531512782627E-163, -2.6410682777682523E-163, -2.189925453749409E-163, -1.636778999104452E-163, -1.014878611425189E-163, -7.845894875731699E-164, -2.3394190016115018E-163, -1.3978476560488333E-163, -6.151821451713674E-164, -6.77060582107678E-164, -5.293888859904324E-164, -7.232805571139793E-164, -1.6673345390884748E-164, 3.228894841706077E-164, 4.502528126970614E-164, 4.028179075193522E-164, -3.177237772692205E-163, -2.306815920637043E-163, -2.2125067490453793E-163, -1.4374318404364278E-163, -2.1377381642954417E-163, -4.019871258421579E-163, -1.9213925225528578E-163, -2.129467121104307E-163, -1.7577033121999977E-163, 2.0017466151219272E-165 ], [ 73.56177548480201, -1.0027052224488258, -0.2150399228692796, 0.040659738660977926, -0.36901401688964086, -1.3309716778058562, -1.0142730173962038E-168, 7.069049460677878E-169, 4.3497193636626705E-169, 1.0543367180880035E-168, -6.46880714792886E-169, 0.09028320514866568, 0.34199954091233886, 0.2648875840225421, 0.08069176882997328, -0.39335469032135817, 1.004801215285068, 0.18462281658880478, -2.033383060812506, -0.7976295590537112, 0.963916061378703, 0.866091665356778, -0.9727208405079388, 3.612789984407736, -0.09646736445771097, -0.04352896486977245, -0.6695937167377952, 0.24532278719658232, -0.2867308653392976, -0.20945950101971017, -0.5864508363238342, -0.32304323506571897, -0.174049705419127, 1.0020913280304593, 0.43758470217603407, -0.2958424707893432, 0.1528573586920243, 0.7446953401573261, -0.5962605241453739, 2.8002142750826873, 0.13860060253300524, -0.19601815411531948, -1.0551590548594638, -1.2878946776053801, 0.6448366598984963, 0.0018137189311676265, -1.73280742885809 ], [ -7.035814257341508E-166, -6.214114937593553E-167, -1.309531990368042E-166, -5.092880893649031E-166, 8.077781630737635E-167, -7.154235788318471E-167, 8.61166871174822E-169, 8.596849335767494E-169, 1.5445801257849298E-168, 1.0304281660284468E-168, 1.4754570483725303E-168, 1.6555766289451688E-166, -2.0343911900317717E-166, -3.7949531862158465E-166, 7.469963391836562E-167, 1.4044714931751686E-166, -2.059536358892838E-166, 3.7042332006702286E-166, -5.0621536671822666E-166, -1.6673614720528698E-166, -2.0353092369055598E-166, 8.13233513148525E-167, -9.480119384309751E-167, 1.2403228978760202E-166, -1.590650668770063E-166, -4.158140436506146E-166, -8.04242674956552E-166, -7.143239531073649E-166, -7.580716736440201E-166, -2.050429633319883E-166, -1.5122356926141634E-166, -2.931906051472423E-166, -1.298688882669295E-166, 3.0888596987467593E-167, -1.84646954079191E-166, -1.751247231906575E-166, -2.00553214894575E-166, 2.455070339070279E-167, -1.6306232886358284E-166, 8.357742025466842E-167, -2.0387159965118528E-166, -4.1314036792830964E-166, -3.314974947716099E-166, -2.972007940977505E-166, 2.5096871263739417E-166, -4.373325776114593E-166, 2.8425202775005945E-166 ], [ -4.750547039375399E-166, -1.4115401645710773E-167, 1.0035446538043457E-167, -9.527070200741652E-167, -1.8370403390167998E-167, 4.769892296245236E-168, 2.0121006241108097E-169, -1.9400221558995744E-169, -6.81102371747939E-170, 1.4162588261666617E-168, 1.9336946692230755E-169, -6.379680144237224E-168, 9.538151295304405E-168, -9.373931207403502E-167, -1.9924775766640784E-167, 3.4395353325529996E-168, -9.494085702331914E-167, 1.0316207467196332E-168, -8.902884669646044E-167, -9.392568189397553E-167, -9.287293419935974E-167, -5.741442004948814E-167, -4.385480629882823E-167, -4.571344911930051E-167, -4.2133529424318085E-167, -1.1128168436056408E-167, -6.481720485513256E-170, 7.444398529629811E-168, 3.7646055746929953E-168, -4.447508110374969E-167, -5.764040174898036E-167, -9.434349301805046E-167, -3.975606499027322E-167, -1.4698726218025289E-167, -2.12794192571811E-167, -2.4586034757139794E-167, -1.88888981156107E-167, -5.8859981917141004E-167, -4.317450962982423E-167, -4.323299339685689E-167, -4.2412030940308974E-167, -6.277593158536779E-167, 2.3446334706450128E-168, 1.578506285373134E-167, -1.0980086357640845E-166, -7.27825245725929E-167, -3.2231961752225747E-169 ], [ -9.85812051037015E-166, 1.621279906921967E-166, -4.048248602729392E-166, -1.6580398300707568E-166, -9.145508960517717E-167, 1.6903503004983077E-166, -1.0411798048786871E-168, 2.9795993724449496E-169, 4.605054772834589E-169, -1.0030831236522473E-168, 6.025270223551041E-169, -3.420099382452426E-166, -4.199429696853381E-166, -1.8011243928890306E-166, -1.2564498660341762E-168, -3.481667163899856E-166, 2.683137823608904E-166, -3.1739047135476194E-166, -3.82124755346866E-166, -7.931182046343943E-167, 2.688856972584917E-166, -2.3394485747101618E-166, -1.2780612689477076E-166, -2.476074787604029E-166, -1.040561027705083E-166, -4.084317604237697E-166, -4.635673097223821E-166, -4.5349423971476826E-166, -4.1450384319092957E-166, -2.3307082455162932E-166, -1.632439246770333E-166, -5.856592635688607E-167, -1.5241322003334867E-166, -7.887925975176574E-167, 1.0505719647189385E-166, 6.0348473096426385E-167, 1.0269947783698722E-166, -2.369954636583421E-166, -1.3859221804756146E-166, -2.6024112074634152E-166, -1.2421356248792669E-166, -3.235961442145393E-166, -2.9070682928716116E-166, -3.898980330780412E-166, -1.4677047904698043E-166, -7.031547503737337E-167, 1.0948930203012782E-168 ], [ -3.7843155247259774E-166, -1.4870665400783466E-164, -4.680045111861209E-165, -4.986398358694861E-165, -8.214805227414665E-165, -1.5371506164062847E-164, -7.384176862965453E-170, -1.5468861252631417E-169, 4.632814929865994E-169, 1.071306951617628E-169, -6.98740160681539E-169, -2.031486489067406E-164, 9.56482907190931E-166, -6.723274094346637E-165, -8.013107332926678E-165, -1.9970838372978638E-164, -2.860110979759952E-165, 3.6380306900404516E-165, -1.2339298188918777E-164, -1.7481189558135712E-164, -3.0197959879261846E-165, -2.341590598305179E-164, -2.2357534547594855E-164, -1.0346952812644183E-164, -2.3503839232925993E-164, -1.2954738561034746E-164, -6.252462781868697E-165, -2.854867481086089E-165, -2.2190540011537894E-165, -1.4523278938992606E-164, -9.927734313480429E-165, -1.0225170490463743E-164, -8.0911834956859765E-165, -7.550118229367652E-165, -6.043883644234851E-165, -9.913608965976743E-165, -4.593073655876954E-165, -2.394881369977271E-164, -2.208509059280017E-164, -8.942479012487749E-165, -2.343607517320791E-164, -1.5900770588577238E-165, -4.651358218989799E-165, -2.18874985471415E-164, -4.783366357367561E-165, -2.2663773817398548E-164, -2.841951149396715E-166 ], [ -3.587879435130756E-167, -1.6228712449083788E-168, 2.327787794833737E-168, 6.580966040219067E-168, -4.413090331054763E-168, 2.4647644261601786E-168, -3.3923398037736E-169, 1.3888840124126016E-169, -4.181320977178356E-169, 8.008579189774948E-169, 1.8738978613297726E-169, -1.4799939010233303E-168, 2.4086239518361774E-168, 5.671625073363882E-168, -4.764412330467292E-168, 1.9375581353257792E-168, 5.933608035400988E-168, 1.2900634834964957E-168, 2.9292248366716535E-168, -4.968604290398619E-168, 4.481674003745243E-168, -1.252972274314615E-167, -1.059621434478895E-167, -1.152918168349324E-167, -1.02533347646838E-167, -3.747310254479847E-168, -5.0022981723482957E-169, 1.1744377748860559E-168, 3.3860533527634736E-168, 2.950458849441984E-168, 2.8864324464089615E-168, 5.674865087088511E-168, 2.9936642497823405E-168, -2.2172780984817307E-168, -3.717497101508175E-168, -5.317483273688484E-168, -3.50693832751399E-168, -1.2095624123867526E-167, -1.0384855537361823E-167, -9.18165424795699E-168, -8.667251031247387E-168, -1.6421208311988182E-167, 3.676674099228664E-168, 3.844433839534922E-168, -5.055135118824165E-168, -2.8129626600787313E-168, 2.930979145034242E-170 ], [ -2.349025065793948E-166, -2.6278366526886608E-166, -2.3655870147381782E-166, -2.176432873723842E-166, -4.187962046626356E-167, -2.3761441663065704E-166, -1.2869850580114345E-168, -2.3800331417408444E-168, 5.324622028608745E-169, -6.2019265744081E-169, 9.537836881427952E-169, -2.5716993530539077E-166, -2.347422644729736E-166, -2.1582633336524095E-166, -4.41341583160923E-167, -2.3874354646505928E-166, -2.086939310492339E-166, -2.3589962484779093E-166, -1.2607257113637715E-166, -2.6697647652352734E-166, -2.0794426503639224E-166, -2.9588572037510314E-166, -2.93043832612243E-166, -2.928811320780566E-166, -2.9324407419277594E-166, -2.638703212477345E-166, -2.487085002339983E-166, -2.3688488704505288E-166, -2.411205203669472E-166, -2.330721374588813E-166, -2.296994305308421E-166, -2.1720479895726426E-166, -2.333544153457317E-166, -3.4248969165637364E-167, -4.2900236809722875E-167, -5.2924521192509024E-167, -4.456253500876687E-167, -2.9585483514072635E-166, -2.919792037750276E-166, -2.920032542948807E-166, -2.9184372389197197E-166, -3.007755249414397E-166, -2.298273014363446E-166, -2.179009820407036E-166, -2.7845317705390947E-166, -2.680499421893187E-166, 4.424508229486438E-169 ], [ -3.74577589629317E-165, -2.1509507118694397E-165, -4.0970081585277064E-166, -1.5715269754446302E-165, 2.13299569473194E-166, -2.1086718041583104E-165, 2.2922395337850294E-169, 1.825524233107305E-169, 1.1470200701681784E-168, -5.29003741571463E-169, 1.636038401929355E-169, -2.409535322857672E-165, -3.8023632179201996E-166, -1.5504855487629825E-165, -1.4153117496746858E-166, -2.411692134127616E-165, 2.896321181721099E-166, 1.3082442497915386E-165, -7.064791790594528E-166, -1.9012762155961934E-165, 4.362001565880834E-166, -1.0204786752451425E-165, -2.9114470929921017E-165, -1.5374794347007244E-165, -2.615031706824333E-165, -1.2178213953124458E-165, -8.31864183287114E-166, -4.00060878491194E-166, -7.039166175852902E-166, -1.6854968427747617E-165, -1.325425088092257E-165, -7.402466287008492E-166, -1.1108085633548317E-165, -9.242855705048715E-167, -7.038771061295128E-166, -9.042667222681023E-166, -7.046308378551616E-166, -1.29160582684101E-165, -3.1174555056834585E-165, -1.935305284016915E-165, -2.47109016480469E-165, 1.2500182439287664E-165, 1.4333778071238298E-166, 4.481104749368646E-166, -7.64190617155096E-166, -1.8711798382571914E-165, 4.8686754855039597E-169 ], [ -9.198503593103154E-167, -2.589257452766667E-166, -2.3720431487907838E-166, -2.1887257830865136E-166, -3.749997278213461E-167, -2.3826034764101753E-166, 3.015236072019323E-169, -3.7205943464475364E-170, -2.1378940634057664E-168, -5.764935259533088E-169, -5.741008610079675E-169, -2.5500420195913758E-166, -2.3734221049353656E-166, -2.188051718036053E-166, -3.942964091041602E-167, -2.3975731429471157E-166, -2.154133706682845E-166, -2.385228167151971E-166, -1.1579902487435419E-166, -2.660893235530002E-166, -2.1494282805850128E-166, -2.916502152747995E-166, -2.8555441269733394E-166, -2.8919094328091446E-166, -2.883837534923181E-166, -2.6174942067170993E-166, -2.4702779166130574E-166, -2.3802042586426686E-166, -2.4336905121119275E-166, -2.3482739022450668E-166, -2.30863198004872E-166, -2.1880946689714682E-166, -2.345694754500576E-166, -3.2588490054261702E-167, -3.767210026492061E-167, -4.771287253940795E-167, -3.8552958700777586E-167, -2.9091912656706625E-166, -2.874918002984321E-166, -2.898976542532769E-166, -2.8700892988880344E-166, -2.941517419451603E-166, -2.341410596354179E-166, -2.008583276678287E-166, -2.758939879414921E-166, -2.6532747431483317E-166, -3.071159387772511E-168 ], [ -3.7944520010568155E-167, -2.626569772611333E-166, -3.1552616556268947E-166, -4.9313375587725326E-166, -8.116419144182446E-167, -3.1723353263438594E-166, 3.829014211221333E-169, -1.6016856543798104E-168, 1.063252128711913E-168, -2.1495097537852633E-169, -1.4013886701307938E-168, -6.610921165857338E-167, -4.51198729605039E-166, -4.1450768346289095E-166, -5.036724100197506E-169, -1.0591280760129424E-166, -4.976112412001586E-166, 2.7707351626692046E-167, -8.764314381515842E-166, -7.654090822365958E-166, -4.985724171448377E-166, -4.41089640075636E-166, -3.373608591532738E-166, -2.1466053855896202E-166, -5.2277242580339975E-166, -5.069877351571721E-166, -9.651148403625549E-166, -9.416275638868783E-166, -8.561482877220849E-166, -3.148310483869151E-166, -2.960731851936675E-166, -2.6415401091534103E-166, -3.151781973951226E-166, -3.418291661330134E-167, -4.501605400742794E-167, 1.8536690321827648E-166, 5.371575711650344E-167, -4.181139783458921E-166, -4.034607795448867E-166, -2.0604640999743926E-166, -5.46370833112535E-166, -4.554095883084777E-166, -2.994864331482247E-166, -5.228863203282896E-166, -2.7516412212804936E-166, -9.065116396298137E-166, -2.7254976372852455E-166 ], [ -3.6092548698518726E-166, -3.925081515865673E-166, -7.111075875598236E-167, -4.161386863664595E-166, 1.5163100575437087E-166, -3.9907111980523684E-166, -2.9653145748415435E-169, 2.8988864300796465E-169, -2.2903751681627117E-169, -3.0791694758368245E-169, 5.787201274292727E-170, 4.123366549407528E-167, -1.57466163946855E-166, -4.2041452859723595E-166, 1.2102482077786421E-166, 3.983987812399619E-167, -3.502524729047923E-166, 1.4039169303916874E-166, -2.951521417374952E-166, -1.1061121349541636E-166, -3.4612487760060024E-166, -6.3620153597458296E-167, -1.494062916392289E-166, -2.151122604303211E-166, -1.8758832944023594E-166, -3.780083431815393E-166, -7.530760061192613E-166, -7.947174286560674E-166, -7.4019171402123E-166, -3.45210009512231E-166, -2.602784574551099E-166, -4.2332921290593624E-166, -2.2553499357163814E-166, 1.836357976030454E-166, -2.0233093672379243E-166, -1.7729679212393767E-166, -2.1581187668394064E-166, -8.5029773135264E-167, -1.5386156462338745E-166, -1.9576341719929786E-166, -1.8206399153410455E-166, 1.7835132408879508E-166, 4.225343484257218E-167, -2.8101170759750133E-166, -2.8362718997615855E-166, -1.728847451926982E-166, 2.8520063279629663E-166 ] ], [ [ -5.720966679498052, 6.685067684273674E-11, 6.685067684273674E-11, 6.685067684273674E-11, 6.685067684273674E-11, 0.11412669314751181, 6.685067684273674E-11, 6.685067684273674E-11, 6.685067684273674E-11, 6.685067684273674E-11, 6.685067684273674E-11, 6.685067684273674E-11, 6.685067684273674E-11, 6.685067684273674E-11, 6.685067684273674E-11, 6.685067684273674E-11 ] ], [ [ 94.41740983710984, 0.11412669314752441 ] ] ]
}