{
  "config" : {
    "algorithm" : "ListNet",
    "numIterations" : 100,
    "batchSize" : 0,
    "verbose" : true,
    "nomodel" : false,
    "params" : {
      "regularization" : {
        "regularizer" : "L2",
        "rate" : 0.01
      },
      "learningRate" : 0.075,
      "weightInit" : "xavier",
      "optimizer" : "adam",
      "layers" : [ {
        "num" : 15,
        "activator" : "Identity"
      }, {
        "num" : 1,
        "activator" : "Sigmoid"
      } ]
    },
    "dataSet" : {
      "training" : "../../../MQ2007/Fold3/train.txt",
      "validation" : "../../../MQ2007/Fold3/vali.txt",
      "test" : "../../../MQ2007/Fold3/test.txt"
    },
    "model" : {
      "format" : "json",
      "file" : "../../../MQ2007/Fold3/models/ltr4l_91.json"
    },
    "evaluation" : {
      "evaluator" : "NDCG",
      "params" : {
        "k" : 10
      }
    },
    "report" : {
      "format" : "csv",
      "file" : "../../../MQ2007/Fold3/reports/ltr4l-report_91.csv"
    }
  },
  "weights" : [ [ [ -1.8179664153277262E-5, -1.5354789348283795E-7, -1.7685584338431904E-7, -1.9149082608044614E-7, -1.665060407211505E-7, -1.5512761168240225E-7, -1.5809230728650725E-36, 1.559722520801273E-36, 5.4195291464950655E-37, -8.3038481744647E-37, 1.598582898690427E-36, -2.010906011408853E-7, -1.8861129144840123E-7, -2.035369804962445E-7, -1.808237560208946E-7, -2.0374570268638132E-7, -4.896381991471728E-8, -4.4946424532782884E-8, 6.308585307896051E-8, 1.6374449945604876E-7, -4.7978270285077E-8, -5.430623350672897E-7, -5.600170037603266E-7, -8.347660135693207E-7, -5.620036551399555E-7, -2.1840999610958507E-7, -2.403979222812202E-7, -2.559065718042762E-7, -2.3423066660419647E-7, -1.6514982196613502E-7, -1.9334988938189287E-7, -2.212646627413275E-7, -1.9610956259259005E-7, -2.1359509379797428E-7, -1.4689522060430284E-7, -1.356400903176258E-7, -1.412125291119997E-7, -5.19157287984508E-7, -5.634610887344971E-7, -8.344333110343569E-7, -5.821278383409344E-7, 2.2659154019082554E-9, 1.921714643155367E-8, 5.034272354212434E-9, 1.116433397216172E-7, 1.2713031138991004E-7, 2.4662942096925437E-10 ], [ 6.638964742358146E-6, 5.607358542986264E-8, 6.458532731646227E-8, 6.992982394778544E-8, 6.080572128286832E-8, 5.665047676963314E-8, 1.0162217241464184E-36, 1.248337844142439E-36, 5.8536043837501396E-37, -4.583684511607437E-37, 4.933132830713822E-37, 7.343552908424986E-8, 6.88782557321563E-8, 7.43289137947657E-8, 6.603435452831358E-8, 7.440513562303856E-8, 1.7880915213038123E-8, 1.6413817684721528E-8, -2.303808575475419E-8, -5.979724537338931E-8, 1.7521006009579738E-8, 1.9831891254851518E-7, 2.0451052556703297E-7, 3.0484509447848094E-7, 2.05236023595386E-7, 7.97603343581674E-8, 8.779002311872614E-8, 9.34535685521716E-8, 8.553782571859043E-8, 6.031045028276458E-8, 7.060872807154417E-8, 8.080281983139369E-8, 7.161652313628369E-8, 7.800199763336005E-8, 5.3644119036380014E-8, 4.953390010431973E-8, 5.156887823693199E-8, 1.8958911734749484E-7, 2.057682582351091E-7, 3.047235959973985E-7, 2.1258509929817024E-7, -8.274803597408074E-10, -7.017837100270539E-9, -1.8384448997549157E-9, -4.0770616376455275E-8, -4.642624575281847E-8, -9.006569361586266E-11 ], [ -4.636831897992384E-6, -3.916330259556371E-8, -4.5108132198006794E-8, -4.884087281228718E-8, -4.246835352703355E-8, -3.956621903717935E-8, 1.533236952858766E-36, -5.200828688675403E-37, 7.071083328975966E-37, -6.4429702115309E-37, -7.709520884919602E-37, -5.12893515849618E-8, -4.810642904316795E-8, -5.191331559513818E-8, -4.61201718275558E-8, -5.196655089407669E-8, -1.2488512808857568E-8, -1.1463852396067413E-8, 1.6090419356860465E-8, 4.176400691812938E-8, -1.2237142526831846E-8, -1.3851127014044824E-7, -1.428356595220777E-7, -2.1291202500553177E-7, -1.433423669110116E-7, -5.5706765931264026E-8, -6.131491681940835E-8, -6.52704894276893E-8, -5.974192146218237E-8, -4.212244309982734E-8, -4.9315037703985656E-8, -5.643486591215169E-8, -5.001890895532336E-8, -5.447869614540183E-8, -3.7466497642124476E-8, -3.4595810057501394E-8, -3.60170935907181E-8, -1.3241414603407202E-7, -1.4371409390562047E-7, -2.1282716718404904E-7, -1.4847515934396794E-7, 5.779344679039982E-10, 4.901446323251762E-9, 1.284019159189915E-9, 2.8475296702908356E-8, 3.2425340571932114E-8, 6.290430792603164E-11 ], [ -5.997118286339665E-6, -5.0652464017441995E-8, -5.8341301660540406E-8, -6.31690993796547E-8, -5.4927103029143905E-8, -5.117358224734167E-8, 1.8237065077898933E-37, 1.0706850518099659E-36, 2.0228903778571254E-36, -3.946811579442905E-37, 2.7658555820762404E-37, -6.633587744165104E-8, -6.221919533052672E-8, -6.714289090437401E-8, -5.965023879950845E-8, -6.721174367243766E-8, -1.615221152915674E-8, -1.482695109365856E-8, 2.0810793403091297E-8, 5.4016125315947944E-8, -1.5827097880478762E-8, -1.7914569733437326E-7, -1.847387132716074E-7, -2.7537306625048613E-7, -1.853940711020398E-7, -7.204920874084596E-8, -7.930259760046806E-8, -8.441859878010944E-8, -7.726813971058072E-8, -5.44797142611588E-8, -6.37823679191683E-8, -7.299090809051884E-8, -6.46927306782866E-8, -7.046086570596277E-8, -4.845787520560287E-8, -4.47450269182954E-8, -4.658326600238253E-8, -1.7125988740717967E-7, -1.8587484998170012E-7, -2.7526331408088963E-7, -1.9203264770651E-7, 7.474805891895721E-10, 6.339361659025492E-9, 1.6607063170164246E-9, 3.682896610856293E-8, 4.1937816565247475E-8, 8.135825986330694E-11 ], [ 0.003268947904654563, 2.7610738274914278E-5, 3.180219274432087E-5, 3.443360904159912E-5, 2.9941108428938032E-5, 2.7894812817695987E-5, -4.7743530487109595E-37, -1.355693920057579E-36, 2.0891298200420596E-36, -8.885486755576176E-38, -5.950621984618044E-37, 3.615997713320068E-5, 3.3916044324854834E-5, 3.6599810201346815E-5, 3.251570753238429E-5, 3.6637432959199805E-5, 8.804663544680592E-6, 8.082236470097038E-6, -1.1344390259189492E-5, -2.9444380293334883E-5, 8.627442386782201E-6, 9.765349085990811E-5, 1.0070218664986814E-4, 1.501074543153238E-4, 1.010593977455962E-4, 3.9274365541827585E-5, 4.322825557448627E-5, 4.60170983186906E-5, 4.211929512444724E-5, 2.9697028124048162E-5, 3.476794508620876E-5, 3.9787637350362825E-5, 3.526415108168528E-5, 3.8408615271467335E-5, 2.6414669301789435E-5, 2.4390743705222557E-5, 2.539278636678808E-5, 9.335489062969204E-5, 1.0132148866314992E-4, 1.5004763894432607E-4, 1.0467810788194137E-4, -4.075749719459861E-7, -3.455776079827484E-6, -9.055793036400638E-7, -2.007560650709972E-5, -2.2860495955726304E-5, -4.434704459780924E-8 ], [ 4.927880207587104E-6, 4.162153566230525E-8, 4.793951505267765E-8, 5.19065552438628E-8, 4.5134040672104125E-8, 4.204974268255904E-8, 1.9350033401602284E-36, 1.06517265510682E-36, -7.58546707458707E-37, 6.005022575723608E-37, 1.1304564190657678E-37, 5.450872208383039E-8, 5.112601135982802E-8, 5.5171851549557486E-8, 4.9015079185414865E-8, 5.522842837596726E-8, 1.3272401640033762E-8, 1.2183424530837603E-8, -1.7100395543084152E-8, -4.438548305916578E-8, 1.3005253149721062E-8, 1.4720545491256837E-7, 1.5180128096881326E-7, 2.2627625507806095E-7, 1.523397937633644E-7, 5.9203412183699625E-8, 6.516357991770132E-8, 6.936743904112691E-8, 6.349184955068315E-8, 4.476641783839854E-8, 5.2410482897175675E-8, 5.997721411174129E-8, 5.315853528978635E-8, 5.789825795270346E-8, 3.9818224344774985E-8, 3.676734717142853E-8, 3.8277842952574883E-8, 1.407256217068672E-7, 1.5273485361353065E-7, 2.261860708353488E-7, 1.5779476536171027E-7, -6.142107308471305E-10, -5.2091041962177496E-9, -1.3646155303253778E-9, -3.0262656596388084E-8, -3.4460639940835196E-8, -6.68527349427585E-11 ], [ -8.963226833239924E-6, -7.570461585596602E-8, -8.719626870810098E-8, -9.44118415449544E-8, -8.20934449706241E-8, -7.648347346363516E-8, 1.7049075594784423E-36, -9.372357516533369E-37, -1.808982070510141E-36, -5.213151026585263E-37, -6.331423804793653E-37, -9.914487360123798E-8, -9.299212596834267E-8, -1.003510268728495E-7, -8.915259179340184E-8, -1.0045393368990884E-7, -2.4140917945085323E-8, -2.216019820426711E-8, 3.110358401190596E-8, 8.073190731479222E-8, -2.3655006657038985E-8, -2.677491919523944E-7, -2.761084519188751E-7, -4.1156956030646824E-7, -2.7708794246379104E-7, -1.0768395585555179E-7, -1.1852479124297529E-7, -1.2617111061694995E-7, -1.1548411291146633E-7, -8.142478211798718E-8, -9.532842606764166E-8, -1.0909140922605918E-7, -9.668904415381944E-8, -1.0531003596226366E-7, -7.242460805548003E-8, -6.687542570870038E-8, -6.962283767345773E-8, -2.559631470487654E-7, -2.778065093355769E-7, -4.114055259470858E-7, -2.870098861021986E-7, 1.1171765753940858E-9, 9.474740690516797E-9, 2.4820742158251033E-9, 5.5044168051021116E-8, 6.267979989488694E-8, 1.215971570839986E-10 ], [ -1.0522673785921069E-4, -8.887598675266655E-7, -1.023670245530092E-6, -1.1083796834776886E-6, -9.63763926172559E-7, -8.979035406258827E-7, 8.140113068866827E-37, -1.8248449091612174E-36, 7.762208963457222E-37, -1.209071229917464E-38, -9.750325807715619E-37, -1.1639448541327513E-6, -1.0917126716852426E-6, -1.1781048295435004E-6, -1.0466371706430418E-6, -1.1793130252633002E-6, -2.8341051130488096E-7, -2.601571597188509E-7, 3.651513876201023E-7, 9.477795506181712E-7, -2.7770599074231366E-7, -3.143332774704141E-6, -3.2414690633201775E-6, -4.831760747989257E-6, -3.252968098667891E-6, -1.2641923302282447E-6, -1.3914620265600896E-6, -1.4812286686801174E-6, -1.355764982360801E-6, -9.55913735562065E-7, -1.119140276851526E-6, -1.280715556217266E-6, -1.1351136792395463E-6, -1.23632295221265E-6, -8.502533044449665E-7, -7.851067631366785E-7, -8.173609472462691E-7, -3.0049664948545942E-6, -3.2614039734864393E-6, -4.829835021482905E-6, -3.3694501129142166E-6, 1.3115587152757188E-8, 1.1123208447322676E-7, 2.9139456632467958E-8, 6.462096481152981E-7, 7.358507677197099E-7, 1.4275294336127166E-9 ], [ -1.2628241855002165E-5, -1.0665982755669953E-7, -1.2285035678807388E-7, -1.3301633771591313E-7, -1.1566101577513661E-7, -1.0775715591885002E-7, 1.1433270832567264E-37, 8.465977432447563E-37, -1.1732376465057045E-37, -4.528182880243037E-37, 1.2189536332889715E-36, -1.396846818755844E-7, -1.3101610904469794E-7, -1.4138402444664563E-7, -1.256066099465555E-7, -1.415290097046388E-7, -3.4012010207624356E-8, -3.1221384669296876E-8, 4.3821674530768754E-8, 1.1374275200574375E-7, -3.332741239285326E-8, -3.772304054503807E-7, -3.890077217308431E-7, -5.798581528322673E-7, -3.9038772059956034E-7, -1.5171534928469024E-7, -1.6698894440720394E-7, -1.77761803238859E-7, -1.6270494911363521E-7, -1.147189393629321E-7, -1.3430770892169696E-7, -1.5369830257848143E-7, -1.3622467630299804E-7, -1.4837074652141856E-7, -1.0203864303425792E-7, -9.422042956536379E-8, -9.809124362617534E-8, -3.606251098082447E-7, -3.9140010569054973E-7, -5.796270457489157E-7, -4.0436669386719957E-7, 1.5739846198369527E-9, 1.3348912162303347E-8, 3.49698247399873E-9, 7.75514337116662E-8, 8.830923469885458E-8, 1.7131757655440794E-10 ], [ 1.0131759925036042E-5, 8.557420390748532E-8, 9.856402037874909E-8, 1.067202850325178E-7, 9.279594304272855E-8, 8.645460096125791E-8, -9.386382361718702E-39, 9.998173212234339E-37, 1.8269461235790782E-36, 1.1499923033512716E-36, 1.8842243120864985E-36, 1.1207036122682946E-7, 1.0511548181699823E-7, 1.1343376025942426E-7, 1.0077538872992644E-7, 1.1355008310837105E-7, 2.7288162248247286E-8, 2.5049216640871568E-8, -3.5158549363179097E-8, -9.125690196169062E-8, 2.6738902850066494E-8, 3.0265557474613287E-7, 3.121046288526534E-7, 4.652257616670487E-7, 3.132118152576787E-7, 1.2172268111938018E-7, 1.3397683302561627E-7, 1.426200008755506E-7, 1.3053974240108825E-7, 9.204010658373756E-8, 1.0775636445144737E-7, 1.2331362370794598E-7, 1.0929436587126839E-7, 1.1903927406640271E-7, 8.186658270177308E-8, 7.559395506644926E-8, 7.869954632195443E-8, 2.8933298666882197E-7, 3.1402406149643904E-7, 4.6504034220934627E-7, 3.2442727972362377E-7, -1.2628226858680457E-9, -1.0709959990993538E-8, -2.8056618480869444E-9, -6.222025980955266E-8, -7.085134673774481E-8, -1.374497403300101E-10 ], [ 5.604389354252052E-5, 4.733544303237047E-7, 5.452077716336863E-7, 5.903241643047856E-7, 5.133016034066093E-7, 4.782243569855053E-7, -1.2983380339175869E-36, 5.519938253346878E-37, -1.2171927126361289E-36, 1.2851204928857035E-36, -4.529200791699901E-37, 6.199181926381764E-7, 5.814472371624297E-7, 6.27459828691282E-7, 5.574399769846084E-7, 6.281032914678767E-7, 1.5094471580539819E-7, 1.3855996314710987E-7, -1.9447990723252633E-7, -5.047883478350243E-7, 1.4790648252596064E-7, 1.6741420773936074E-6, 1.726409583905813E-6, 2.573400502588857E-6, 1.7325339886877753E-6, 6.73310091746509E-7, 7.410940499041711E-7, 7.889038304409106E-7, 7.220817603560982E-7, 5.091206374773427E-7, 5.960552565749561E-7, 6.821103920247012E-7, 6.045627161456534E-7, 6.584668170136373E-7, 4.5284574180106266E-7, 4.1814863802775325E-7, 4.353272460096474E-7, 1.6004480612255049E-6, 1.7370269398487177E-6, 2.5723748558794807E-6, 1.7945724277115381E-6, -6.985343799993469E-9, -5.924227741330009E-8, -1.551962074693154E-8, -3.441719106851149E-7, -3.9191485212672385E-7, -7.603040422731102E-10 ], [ 0.004649968329766644, 3.9275807036918724E-5, 4.523823455082578E-5, 4.898124488378505E-5, 4.2590874126344744E-5, 3.967990558182208E-5, 1.989809994386432E-36, -1.7027746138884738E-36, 1.2994496540471418E-36, -1.3541691968595106E-36, 1.113966193207389E-36, 5.143706591894419E-5, 4.8245155955221274E-5, 5.2062678115731066E-5, 4.6253203908880374E-5, 5.2116250625934665E-5, 1.2524525215830687E-5, 1.1496869595826303E-5, -1.613743980764997E-5, -4.18841948583758E-5, 1.2272430405308557E-5, 1.3891096923020877E-4, 1.432476475477426E-4, 2.1352600676760423E-4, 1.4375575893022866E-4, 5.586725618112943E-5, 6.149163158446101E-5, 6.545877472821186E-5, 5.991416965248783E-5, 4.224354886727302E-5, 4.9456857748749275E-5, 5.659734653177218E-5, 5.016268179141271E-5, 5.4635776025154355E-5, 3.7574542485920724E-5, 3.469551488631797E-5, 3.612091298682294E-5, 1.327962635741527E-4, 1.441285894037329E-4, 2.1344092686320437E-4, 1.4890331967671588E-4, -5.798419790113932E-7, -4.915891208843302E-6, -1.28836718766728E-6, -2.855725728781164E-5, -3.251874358331688E-5, -6.308203343776329E-8 ], [ -3.891131724675379, -0.03393579607911533, -0.039382880800391214, -0.04234810825029372, -0.03709699070816, -0.034299123289168176, 5.986742583967213E-37, -1.4924718772413004E-37, -5.5687875395322435E-37, -7.731331264173412E-38, 2.1338794834524778E-36, -0.044661082556940374, -0.04198694341967711, -0.04510432522697436, -0.040273420566861236, -0.04527100331848311, -0.010901922464034949, -0.00998246720197517, 0.01440496565479673, 0.03631067264765685, -0.010682710989204734, -0.12104470364528243, -0.12470831917945538, -0.18580690037847877, -0.12511519879197192, -0.04852994841553594, -0.05345308428806185, -0.05699978043137986, -0.0521201673097501, -0.03654922235219753, -0.04280780435461891, -0.04909423519761902, -0.043377205597118385, -0.04753552240690726, -0.03270462000194515, -0.030162941247091582, -0.0314122901897555, -0.11572521736092838, -0.12545987035532233, -0.18574733047552203, -0.12957474062654034, 6.453153715223369E-4, 0.0044603158523964835, 0.0014962193865368932, 0.02476345603121954, 0.02824334954770376, 5.2816293091272264E-5 ], [ 0.08810980948807112, 7.447444395907347E-4, 8.57979178404616E-4, 9.288005295368431E-4, 8.07780693993034E-4, 7.524152479552499E-4, -8.133762769099266E-37, 1.8114156680403312E-36, 1.115987385373533E-36, -3.6068037201410747E-37, 1.3585737728285439E-36, 9.754720145923848E-4, 9.149999844642874E-4, 9.872858716597705E-4, 8.772325371124385E-4, 9.88364174375616E-4, 2.3753514836225036E-4, 2.1803134650396757E-4, -3.062662216599206E-4, -7.942762357040963E-4, 2.3275413173323475E-4, 0.0026346249106994255, 0.002716811333417618, 0.00404965469242138, 0.002726428609363443, 0.0010595058407820927, 0.0011661932355440852, 0.001241487910945086, 0.0011362991708869642, 8.010523626450116E-4, 9.378480319830035E-4, 0.0010733154024397467, 9.512084108169401E-4, 0.0010361943632804676, 7.126253747150744E-4, 6.580019394117527E-4, 6.850409001185157E-4, 0.002518656017316426, 0.0027335102651660156, 0.004048048770142733, 0.002824044071991982, -1.1078497080495975E-5, -9.333791096827551E-5, -2.465277109257013E-5, -5.415541173702812E-4, -6.167036509014964E-4, -1.1951494501976327E-6 ], [ 3.360710975494524E-4, 2.8385094600693928E-6, 3.2693863024374003E-6, 3.53992855152095E-6, 3.0780583008978856E-6, 2.8677124903105768E-6, -6.749887322944618E-37, -2.400112455834018E-36, 2.2247162909163117E-36, -4.1366668150985026E-36, 1.6456007322337289E-37, 3.7173929638928373E-6, 3.486699340112796E-6, 3.7626163870195428E-6, 3.3427378434302596E-6, 3.76647576846385E-6, 9.051532175969826E-7, 8.308867865509958E-7, -1.1662185169875074E-6, -3.0270065033328848E-6, 8.869341869100702E-7, 1.0039140923919664E-5, 1.0352566818562632E-5, 1.5431621740668496E-5, 1.0389292099462414E-5, 4.0375623305949615E-6, 4.444035005818869E-6, 4.730731260132273E-6, 4.330026447634275E-6, 3.0529849533538876E-6, 3.5742959001395527E-6, 4.09033362660757E-6, 3.6253112918263237E-6, 3.948553903426947E-6, 2.715529200732736E-6, 2.5074647068721926E-6, 2.6104778053703093E-6, 9.597228298804848E-6, 1.0416234612360762E-5, 1.5425471458839598E-5, 1.076131089326641E-5, -4.188927646649861E-8, -3.552528635346866E-7, -9.306757875908175E-8, -2.0638563643378695E-6, -2.350151323270388E-6, -4.559213838199365E-9 ] ], [ [ 17.924411981093783, -7.307297327097413E-7, 2.668523540576704E-7, -1.8637685744729688E-7, -2.410534087478012E-7, 1.3141604920630578E-4, 1.9807550938493698E-7, -3.6027581813157997E-7, -4.22959604216431E-6, -5.075907451014975E-7, 4.072448878080209E-7, 2.2526827418089516E-6, 1.8694760616547846E-4, -0.18223860431112193, 0.0035568338546320064, 1.3508554642450991E-5 ] ], [ [ 94.41740983710984, 0.4871455049496615 ] ] ]
}