{
  "config" : {
    "algorithm" : "ListNet",
    "numIterations" : 500,
    "batchSize" : 0,
    "verbose" : true,
    "nomodel" : false,
    "params" : {
      "regularization" : {
        "regularizer" : "L2",
        "rate" : 0.01
      },
      "learningRate" : 0.075,
      "weightInit" : "xavier",
      "optimizer" : "adam",
      "layers" : [ {
        "num" : 15,
        "activator" : "Identity"
      }, {
        "num" : 1,
        "activator" : "Sigmoid"
      } ]
    },
    "dataSet" : {
      "training" : "../../../MQ2007/Fold3/train.txt",
      "validation" : "../../../MQ2007/Fold3/vali.txt",
      "test" : "../../../MQ2007/Fold3/test.txt"
    },
    "model" : {
      "format" : "json",
      "file" : "../../../MQ2007/Fold3/models/ltr4l_163.json"
    },
    "evaluation" : {
      "evaluator" : "NDCG",
      "params" : {
        "k" : 10
      }
    },
    "report" : {
      "format" : "csv",
      "file" : "../../../MQ2007/Fold3/reports/ltr4l-report_163.csv"
    }
  },
  "weights" : [ [ [ -1.2636467107672204E-20, -1.0672949523930574E-22, -1.2292962180064717E-22, -1.331025047557887E-22, -1.157355608876712E-22, -1.078274840153139E-22, -3.471753793226617E-169, -1.619314605822662E-169, -7.654228156835138E-169, -1.768813734250093E-168, 6.849705419013528E-169, -1.3977525604843829E-22, -1.3110072802765978E-22, -1.414753886674223E-22, -1.2568768212763842E-22, -1.4162070201547215E-22, -3.403366357686315E-23, -3.1241056387706413E-23, 4.3850303032481164E-23, 1.1381862420343224E-22, -3.3348617474892864E-23, -3.774736705646939E-22, -3.892591260547268E-22, -5.802337311020804E-22, -3.9064011583057864E-22, -1.5181339554022195E-22, -1.6709691243509864E-22, -1.7787661517569838E-22, -1.628100545746608E-22, -1.147930589288759E-22, -1.3439469077444508E-22, -1.5379769053232058E-22, -1.3631306625822666E-22, -1.4846671905156884E-22, -1.0210469783234913E-22, -9.42814844920993E-23, -9.815481628360887E-23, -3.6085756026906885E-22, -3.9165311106102504E-22, -5.800024502087674E-22, -4.046282283508131E-22, 1.5749098981516777E-24, 1.3357474379454247E-23, 3.4987728873619526E-24, 7.760381300364805E-23, 8.836826568142498E-23, 1.714353158083558E-25 ], [ 2.5312040756843977E-18, 2.137892901896967E-20, 2.4623967844241794E-20, 2.6661692674932916E-20, 2.31829292890438E-20, 2.1598866572813305E-20, -3.5971458521330495E-169, 2.93200741835824E-169, 1.641003551022783E-168, 1.3895997661789843E-168, -8.163360841125326E-169, 2.7998307974451847E-20, 2.626071783206923E-20, 2.8338860644569794E-20, 2.5176433456756563E-20, 2.836796828483836E-20, 6.817265238946735E-21, 6.257879562653753E-21, -8.783631121741495E-21, -2.2798948710719915E-20, 6.680044014805182E-21, 7.561155228400803E-20, 7.797229067045535E-20, 1.1622631329633507E-19, 7.82489160056331E-20, 3.040966136030132E-20, 3.3471094585701246E-20, 3.563037116824445E-20, 3.26123963438777E-20, 2.299413721772232E-20, 2.6920529776244002E-20, 3.080713444582139E-20, 2.730479855974716E-20, 2.9739290354236494E-20, 2.0452538284442718E-20, 1.888547453766443E-20, 1.966133959026247E-20, 7.22831879758563E-20, 7.845182854709827E-20, 1.1617998554232044E-19, 8.105086746252812E-20, -3.1546937281361113E-22, -2.675628662824319E-21, -7.008373556409245E-22, -1.5544778939377806E-20, -1.7701000789863018E-20, -3.4340117882069136E-23 ], [ 7.559695415862319E-18, 6.385032058588655E-20, 7.354195523809125E-20, 7.962782528284446E-20, 6.923814873569972E-20, 6.450718619918902E-20, -7.105854329713153E-169, -1.9954018704175077E-169, -1.060711585503077E-168, -3.902416414251801E-170, -6.152096924465579E-169, 8.361976123522797E-20, 7.843027360750091E-20, 8.463685601785845E-20, 7.519194932528117E-20, 8.472378891150296E-20, 2.0360447927000437E-20, 1.8689786373712674E-20, -2.6233197300656665E-20, -6.80913521397157E-20, 1.9950622947234077E-20, 2.2582150158441883E-19, 2.328720840836794E-19, 3.471215680589943E-19, 2.336982534543512E-19, 9.082151051816612E-20, 9.996478858979614E-20, 1.0641368516018318E-19, 9.740019997180131E-20, 6.867430223678225E-20, 8.040086830495156E-20, 9.200860384319677E-20, 8.154852565467442E-20, 8.881938012095403E-20, 6.108356153379096E-20, 5.640336812833399E-20, 5.872056710007904E-20, 2.158810070014795E-19, 2.3430427215678254E-19, 3.469832055646319E-19, 2.420665631404974E-19, -9.421809937862371E-22, -7.991033963325937E-21, -2.093121212785433E-21, -4.642604490783088E-20, -5.2865818213855916E-20, -1.0256021402109104E-22 ], [ -2.305170868288563E-21, -1.9469818669762094E-23, -2.2425079779817055E-23, -2.4280838453098812E-23, -2.111272407944747E-23, -1.9670116088225252E-23, -6.751869061056362E-170, -1.3210553342418428E-168, -2.2676712982213556E-169, -1.101201405820997E-168, 1.0813293172752526E-169, -2.5498095757698616E-23, -2.3915670138317228E-23, -2.5808237520591368E-23, -2.2928210937013817E-23, -2.5834745886722804E-23, -6.208492385572374E-24, -5.699059117225641E-24, 7.999264371505338E-24, 2.076303246364941E-23, -6.083524836949709E-24, -6.88595397366551E-23, -7.100946727839983E-23, -1.0584745580691702E-22, -7.126139033359977E-23, -2.76941184457176E-23, -3.048216969539605E-23, -3.244862570835513E-23, -2.970015208144018E-23, -2.0940790892726443E-23, -2.4516561740409544E-23, -2.805609770549817E-23, -2.486651582504188E-23, -2.7083610692126877E-23, -1.8626153414005658E-23, -1.719902640653667E-23, -1.790560772653106E-23, -6.582839400016274E-23, -7.144618305098234E-23, -1.0580526506063383E-22, -7.381313119670902E-23, 2.8729837117165845E-25, 2.436698529032224E-24, 6.382534980689327E-25, 1.4156650547961375E-23, 1.6120324612432752E-23, 3.1273590350053953E-26 ], [ 2.072768265042284E-20, 1.7506911448509037E-22, 2.0164229189290393E-22, 2.183289407590305E-22, 1.8984182501387898E-22, 1.7687015291686858E-22, -3.427630993793227E-169, 1.6713928595877242E-168, -3.905070205520765E-169, 6.698751658889146E-169, -2.1770791976503385E-169, 2.2927429993424348E-22, 2.150454128232461E-22, 2.320630389931631E-22, 2.061663569422162E-22, 2.3230139746294696E-22, 5.582564905535756E-23, 5.124491655386671E-23, -7.19279492944909E-23, -1.8669746077715853E-22, 5.470196329085059E-23, 6.191726204553506E-22, 6.385043829809508E-22, 9.51761322122427E-22, 6.407696298710406E-22, 2.4902054174068165E-22, 2.740901980995427E-22, 2.9177221757295927E-22, 2.6705843609347773E-22, 1.8829583266231037E-22, 2.2044852224425104E-22, 2.5227539426635983E-22, 2.2359524655361258E-22, 2.4353096561158174E-22, 1.6748302795021722E-22, 1.5465055808015248E-22, 1.610040104723536E-22, 5.919171021085321E-22, 6.424312528139202E-22, 9.513819505054407E-22, 6.637144256535401E-22, -2.5833353811429747E-24, -2.1910355765527493E-23, -5.739060882856569E-24, -1.2729406049146066E-22, -1.4495106518345917E-22, -2.8120651055967553E-25 ], [ -2.2308612227004586E-21, -1.884218826504129E-23, -2.1702183376063556E-23, -2.349811968597704E-23, -2.0432132863704806E-23, -1.903602888223955E-23, -7.322509454928119E-169, 5.826503097213202E-169, -8.023318901640016E-169, 5.327910935337955E-169, -3.6082226945844463E-169, -2.467613740094888E-23, -2.3144722961937282E-23, -2.497628141278561E-23, -2.2189095562905503E-23, -2.500193525341544E-23, -6.008355000897354E-24, -5.5153438581910374E-24, 7.741399538755055E-24, 2.009371393072278E-23, -5.887415914709266E-24, -6.663977890955887E-23, -6.872040124019481E-23, -1.0243534999054674E-22, -6.896420328657751E-23, -2.680136895157541E-23, -2.949954439070314E-23, -3.140260959328995E-23, -2.874273594997433E-23, -2.0265742126936468E-23, -2.3726244181294643E-23, -2.715167942320893E-23, -2.406491712214778E-23, -2.6210541567636244E-23, -1.802571946010448E-23, -1.6644597416342556E-23, -1.732840133263548E-23, -6.370634539410095E-23, -6.914303901329842E-23, -1.0239451930804304E-22, -7.143368605690166E-23, 2.7803700125176888E-25, 2.35814894878707E-24, 6.176787147028423E-25, 1.3700295793784423E-23, 1.5600668726964926E-23, 3.02654527550715E-26 ], [ 2.2274154934951496E-21, 1.8813085119701564E-23, 2.166866275796455E-23, 2.346182511218288E-23, 2.0400573932015648E-23, 1.9006626335812567E-23, 1.2457210330640282E-168, -4.027091328792432E-169, -1.2756686320694742E-169, 5.669523581364474E-169, -1.395789268251764E-168, 2.463802329216812E-23, 2.310897423537058E-23, 2.4937703709507305E-23, 2.2154822873128778E-23, 2.4963317925894013E-23, 5.999074654772805E-24, 5.5068250040300745E-24, -7.729442377901984E-24, -2.0062677711961276E-23, 5.878322367896649E-24, 6.65368488706625E-23, 6.861425752711028E-23, 1.0227713105988077E-22, 6.885768300330411E-23, 2.6759972266385336E-23, 2.9453980175136424E-23, 3.135410595357544E-23, 2.8698340680696526E-23, 2.0234440197975783E-23, 2.3689597252442228E-23, 2.710974165773533E-23, 2.4027747088033887E-23, 2.6170057458787187E-23, 1.7997877410873235E-23, 1.661888861166902E-23, 1.7301636342529576E-23, 6.360794625898045E-23, 6.903624250509421E-23, 1.0223636344336928E-22, 7.132335147589548E-23, -2.776075526578186E-25, -2.3545066143286842E-24, -6.167246645068403E-25, -1.367913467947674E-23, -1.5576572346917684E-23, -3.021870553771502E-26 ], [ 1.5639966882434373E-20, 1.3209750452388748E-22, 1.5214815956470963E-22, 1.647389850827607E-22, 1.432441776629285E-22, 1.3345646885685537E-22, -2.6368552980528994E-169, 1.5689178692778168E-169, -1.086536410723248E-168, 2.5511928719415183E-169, 1.3007279102724238E-168, 1.7299774984212895E-22, 1.6226141588029355E-22, 1.7510197862934365E-22, 1.5556176969848627E-22, 1.752818307930619E-22, 4.212295784055661E-23, 3.8666589570698584E-23, -5.42728660921633E-23, -1.408716137175024E-22, 4.1275086496733425E-23, 4.671935325213147E-22, 4.817802150163472E-22, 7.18146635541678E-22, 4.834894454662231E-22, 1.878971755576691E-22, 2.068133564843667E-22, 2.20155233800939E-22, 2.0150757644350088E-22, 1.4207765704473816E-22, 1.663383044467513E-22, 1.9035310787616907E-22, 1.6871264917291292E-22, 1.8375504397905829E-22, 1.2637346174623037E-22, 1.16690787268216E-22, 1.21484752260782E-22, 4.466280206164355E-22, 4.847432145554202E-22, 7.178603826292863E-22, 5.008023237177248E-22, -1.949242493177188E-24, -1.6532346829818692E-23, -4.330379022968987E-24, -9.604908199308172E-23, -1.0937208453433377E-22, -2.121829336377145E-25 ], [ -2.1994315993513628E-20, -1.8576728955328493E-22, -2.1396430852140514E-22, -2.3167065004660536E-22, -2.0144273523289325E-22, -1.8767838637260042E-22, -2.0682790044239572E-168, 2.2570724765564733E-169, -1.09634914350607E-168, -1.052260320743645E-169, -9.040575410108015E-169, -2.4328486145760535E-22, -2.281864713175527E-22, -2.4624401560521746E-22, -2.187648314716992E-22, -2.4649693975465277E-22, -5.923705927837874E-23, -5.437640602452901E-23, 7.63233436283907E-23, 1.9810622425925922E-22, -5.804470699284863E-23, -6.5700920351311255E-22, -6.775222970832196E-22, -1.009921833627553E-21, -6.799259693481893E-22, -2.642377624306587E-22, -2.9083938274224166E-22, -3.0960192027529684E-22, -2.833779217501518E-22, -1.998022699248597E-22, -2.3391975554219696E-22, -2.67691513444188E-22, -2.372587708084888E-22, -2.5841272766482557E-22, -1.7771763020563199E-22, -1.6410098998301273E-22, -1.7084269101735213E-22, -6.280881469146925E-22, -6.816891312358039E-22, -1.0095192792579305E-21, -7.042728824767843E-22, 2.7411986013265657E-24, 2.324926024605465E-23, 6.08976510748452E-24, 1.3507278347343408E-22, 1.5380877761443104E-22, 2.983905609224799E-25 ], [ -2.368547061210482E-19, -2.000510349447695E-21, -2.304161376520012E-21, -2.4948392916535188E-21, -2.1693177395413396E-21, -2.0210907701182458E-21, -4.210750516894208E-169, -2.4156292472638087E-169, -6.630448146507055E-171, 1.4750589532779178E-169, 1.3681047880196522E-169, -2.6199116344984393E-21, -2.4573185008643643E-21, -2.6517784852887E-21, -2.355857753572827E-21, -2.654502201502609E-21, -6.3791828175030815E-22, -5.855743671527175E-22, 8.219188598822308E-22, 2.1333871688264954E-21, -6.250779529005602E-22, -7.075269895313606E-21, -7.296173457425494E-21, -1.0875752588970154E-20, -7.322058376424514E-21, -2.8455514408838293E-21, -3.1320217709046437E-21, -3.334073760827276E-21, -3.0516700040646795E-21, -2.151651723987569E-21, -2.5190596957502137E-21, -2.8827445584859477E-21, -2.5550172349555483E-21, -2.782822193108491E-21, -1.913824330217764E-21, -1.767188021126104E-21, -1.8397887611407237E-21, -6.7638217755653626E-21, -7.34104569982474E-21, -1.087141751908472E-20, -7.584247978307494E-21, 2.9519708152237954E-23, 2.5036908193621527E-22, 6.558010375520666E-23, 1.4545860141314328E-21, 1.6563521607786055E-21, 3.2133396936477514E-24 ], [ -2.2729899100914592E-21, -1.9198013473307312E-23, -2.21120181474284E-23, -2.394186980743385E-23, -2.081798337264155E-23, -1.9395514672653218E-23, -1.0335113485942108E-168, 8.163238747758751E-169, -1.3436459356461366E-168, -1.0922345652013926E-168, -8.325427890134972E-169, -2.5142133791940582E-23, -2.358179936476006E-23, -2.544794587183919E-23, -2.2608125424981337E-23, -2.547408417229168E-23, -6.121819750291562E-24, -5.6194983411732944E-24, 7.887591958892343E-24, 2.0473173569044365E-23, -5.998596790546697E-24, -6.789823747476129E-23, -7.001815130719736E-23, -1.0436978983540408E-22, -7.026655743208203E-23, -2.7307499266954173E-23, -3.0056628386411334E-23, -3.199563201411789E-23, -2.928552800054072E-23, -2.064845043085268E-23, -2.4174302318620737E-23, -2.7664425174904094E-23, -2.4519370926899377E-23, -2.670551440629392E-23, -1.8366126067384694E-23, -1.6958922231426042E-23, -1.7655639439291287E-23, -6.490940754903054E-23, -7.044877038117288E-23, -1.043281880860851E-22, -7.278267513719692E-23, 2.832875895849531E-25, 2.402681400592656E-24, 6.293432652427871E-25, 1.395901895988162E-23, 1.589527947603392E-23, 3.083700054338344E-26 ], [ -2.2641591944889376E-21, -1.9123427925715092E-23, -2.2026111499629198E-23, -2.3848854065338778E-23, -2.0737104135225862E-23, -1.9320161819885062E-23, 1.122988043304527E-168, -6.317176007411722E-169, -9.732760884998961E-169, 2.0107425351730934E-169, -9.356285030758362E-169, -2.5044454945162063E-23, -2.3490182520065305E-23, -2.5349078924975596E-23, -2.2520291367712738E-23, -2.537511567640834E-23, -6.098036077102037E-24, -5.59766621976382E-24, 7.856948144298895E-24, 2.0393633940440429E-23, -5.9752918466768034E-24, -6.763444834732651E-23, -6.974612617480998E-23, -1.0396430632338395E-22, -6.999356722552839E-23, -2.720140783259636E-23, -2.993985640424271E-23, -3.1871326875065137E-23, -2.9171751794190486E-23, -2.0568229840088975E-23, -2.4080383560901162E-23, -2.755694705987063E-23, -2.4424111554894844E-23, -2.660176172279381E-23, -1.829477245719004E-23, -1.6893035700876103E-23, -1.758704611647143E-23, -6.46572302228366E-23, -7.017507226530297E-23, -1.0392286619960277E-22, -7.24999096475338E-23, 2.821869986292938E-25, 2.3933468250022056E-24, 6.268982251803412E-25, 1.390478725125081E-23, 1.58335252676883E-23, 3.0717196763954386E-26 ], [ 3.8920661121358853, 0.03394428599516355, 0.03939256095477122, 0.04235850236442916, 0.037106091542207766, 0.034307692726600676, 1.4087200434998978E-169, -9.274393814952599E-169, -5.811838037769803E-169, 3.61798604710997E-169, -2.3091993632449296E-170, 0.0446721419915412, 0.04199728453119971, 0.04511536662715707, 0.040283330810900464, 0.04528219838076929, 0.010904508128918284, 0.009984761259726947, -0.014408768744732313, -0.03632030149956198, 0.010685240862555246, 0.12107446685731095, 0.12473910751867442, 0.18585300221904633, 0.12514610494818892, 0.04854188125499719, 0.05346626110411095, 0.057013836469985375, 0.052133003427489395, 0.03655814284643804, 0.04281832660750896, 0.049106302198136074, 0.04338790184161108, 0.0475472691006909, 0.032712720491394946, 0.03017041603074598, 0.031420082530399976, 0.11575364207324666, 0.1254908547857899, 0.1857934151792783, 0.12960677151955446, -6.455050982665755E-4, -0.004461472021399103, -0.0014966024243092243, -0.024770229284864952, -0.028250899358312723, -5.2830576432004275E-5 ], [ 1.6629367265192173E-20, 1.4045412845536638E-22, 1.617732085460026E-22, 1.751605426296053E-22, 1.52305951595884E-22, 1.4189906226904382E-22, -5.831204682463075E-169, 1.1214107974792494E-168, -7.735188009721219E-169, -9.0882062877302E-170, 6.249232079961483E-169, 1.8394176533760234E-22, 1.725262398524655E-22, 1.8617910980102879E-22, 1.6540276716600953E-22, 1.8637033959751067E-22, 4.478769945565207E-23, 4.1112677775920877E-23, -5.77062233932754E-23, -1.497832968162923E-22, 4.388619089901306E-23, 4.967486756602514E-22, 5.122581266849251E-22, 7.635773299556926E-22, 5.140754848101383E-22, 1.99783744040411E-22, 2.198965820182322E-22, 2.3408248020920666E-22, 2.14255152877677E-22, 1.5106563568421249E-22, 1.7686103658065005E-22, 2.0239504116206197E-22, 1.7938558479499888E-22, 1.9537957696005607E-22, 1.3436797684732022E-22, 1.2407276642810486E-22, 1.291700025742635E-22, 4.748821683310698E-22, 5.154085686207825E-22, 7.632729683897977E-22, 5.324835935373442E-22, -2.0725535771030802E-24, -1.75782000854083E-23, -4.604323251561019E-24, -1.0212524565773975E-22, -1.1629107503570301E-22, -2.256058441421864E-25 ], [ 4.679151942374023E-20, 3.952081865147157E-22, 4.551955651232361E-22, 4.928646894389991E-22, 4.285567080695339E-22, 3.99273924406633E-22, 2.152117479381221E-169, 1.0363097877028013E-168, 6.543564039401059E-169, 2.2409965870295595E-169, -9.56237978574811E-169, 5.175731913532924E-22, 4.854523190463801E-22, 5.238686050782096E-22, 4.654083747845614E-22, 5.244066852464947E-22, 1.2602310572635986E-22, 1.1568237263847208E-22, -1.6237309752782831E-22, -4.2145849150865577E-22, 1.2348645147692617E-22, 1.397745622861211E-21, 1.4413859350450355E-21, 2.1485449744642742E-21, 1.4464995961158236E-21, 5.621491660348144E-22, 6.187424346720163E-22, 6.586585493479851E-22, 6.028686472333043E-22, 4.250667216408837E-22, 4.9764951946117565E-22, 5.694968033826646E-22, 5.047530637466597E-22, 5.4975677213314085E-22, 3.7808304419015927E-22, 3.491145013334188E-22, 3.6345704487923194E-22, 1.3362178998813679E-21, 1.4502506117753202E-21, 2.1476885654442906E-21, 1.4982961174943805E-21, -5.8317270533045165E-24, -4.9461334133404624E-23, -1.295559099891608E-23, -2.873588236787988E-22, -3.2721846896306587E-22, -6.348070897673123E-25 ] ], [ [ 17.924422649005926, -5.078655984102442E-22, 1.0173029072464384E-19, 3.038277394672368E-19, -9.264590905716363E-23, 8.330553835354345E-22, -8.965936920368376E-23, 8.952088371482683E-23, 6.285776769870602E-22, -8.83961977544177E-22, -9.5193028269281E-21, -9.135254110448152E-23, -9.099763046168542E-23, 0.182275124786159, 6.683421470066664E-22, 1.8805733287775023E-21 ] ], [ [ 94.41740983710984, 0.4871512155751919 ] ] ]
}