{
  "config" : {
    "algorithm" : "ListNet",
    "numIterations" : 500,
    "batchSize" : 0,
    "verbose" : true,
    "nomodel" : false,
    "params" : {
      "regularization" : {
        "regularizer" : "L2",
        "rate" : 0.01
      },
      "learningRate" : 0.001,
      "weightInit" : "xavier",
      "optimizer" : "adam",
      "layers" : [ {
        "num" : 15,
        "activator" : "Identity"
      }, {
        "num" : 1,
        "activator" : "Sigmoid"
      } ]
    },
    "dataSet" : {
      "training" : "../../../MQ2007/Fold3/train.txt",
      "validation" : "../../../MQ2007/Fold3/vali.txt",
      "test" : "../../../MQ2007/Fold3/test.txt"
    },
    "model" : {
      "format" : "json",
      "file" : "../../../MQ2007/Fold3/models/ltr4l_115.json"
    },
    "evaluation" : {
      "evaluator" : "NDCG",
      "params" : {
        "k" : 10
      }
    },
    "report" : {
      "format" : "csv",
      "file" : "../../../MQ2007/Fold3/reports/ltr4l-report_115.csv"
    }
  },
  "weights" : [ [ [ 12.123814430210311, 0.06006660860030882, 0.38031495456911224, -1.0883750668846817, -0.19438414029343348, 0.10063859381875732, 1.2909175075755106E-5, 1.1668593081671594E-5, -1.97930146512919E-5, 1.2896075162983242E-5, 1.1689729398442433E-5, -0.8885848591853108, 0.7801944701541281, -1.2306405450906195, -0.277335741486497, -0.8788644358485643, -0.333636314651706, -0.7576398872130232, -0.88383344032701, -2.115143224691208, -0.3718480974173498, -0.7287861064153552, -0.6009939053411028, 2.6787544630320723, -0.615638880254048, -0.037196633712532935, -0.2535732072788721, -0.18134628255237636, -0.5593759469222348, -1.4782542909234269, -1.3421130169326672, -0.4825514269362812, -0.9503217103824149, -0.08403059112569106, 0.8340998202054682, -0.5130542674075783, 1.0127542895228479, -1.1247302395739815, -0.5811959781810248, 2.533855560817964, -0.2068667402924649, -0.6841087483306358, 0.10421189204488648, 1.2900880508570955, -1.6639183877376031, -1.6117772112545958, -8.890651616673186E-4 ], [ -12.21238650371813, -0.060691240060039044, -0.38185436540998463, 1.095791961587622, 0.1938853411548731, -0.1008859601862637, 5.690506881307864E-6, -5.302292287140854E-6, -3.046632340533896E-6, -9.353121069539939E-6, -4.936220715158534E-6, 0.8942277451085845, -0.7822868870226344, 1.23878751371238, 0.2750863540093271, 0.8854746265594883, 0.34356523105372405, 0.764353909629312, 0.8981040533187801, 2.1378519818605843, 0.38191548375869033, 0.7337411720491505, 0.6049408440533109, -2.6943848215287938, 0.6180087890439714, 0.042274305796645595, 0.2551116625625026, 0.17725271168475734, 0.5604309915618259, 1.489805530411143, 1.3494505887160864, 0.48466161271830677, 0.9554524075048245, 0.08072196618712534, -0.8377712233223978, 0.5093533035879805, -1.014945179896633, 1.1328144179919113, 0.5854036397180327, -2.5504357025858804, 0.20760676633862835, 0.6885734764754522, -0.10433269777892046, -1.285517717074713, 1.6867145994771857, 1.631791599966364, 0.007801404433258403 ], [ 1.0895721890826413, -0.13294596399818787, 0.037709137830659926, -0.11210198919788748, 0.004176810914945999, -0.12441262234232585, 3.971220472566643E-6, 3.1984495864906953E-6, -2.4091668083462256E-6, 3.788642310321809E-6, -1.850689147176736E-5, -0.13627544173410647, 0.05456845700420633, -0.12321669802263385, -0.023274220875506842, -0.1417427173721113, -0.14946432354301173, -0.10614425509250563, -0.1157961310044133, -0.17047551029850114, -0.1507580297615237, -0.03341534304716417, -0.0025248949624944034, 0.16686850168975909, -0.02887920879861706, 0.003444116137550371, -0.040708394185346816, -0.09599583410473123, -0.06434191672570036, -0.12462848695068732, -0.12653865424047914, -0.027376223185259223, -0.0877488168513985, 0.02584309475375357, 0.09497143384398549, -0.08546496222443366, 0.12929519715509027, -0.062030261493383566, -0.010122653119493695, 0.16250003774288801, 0.003710596889535544, -0.10675580455597963, 0.11524427155634925, -0.10350916070478293, -0.1815560629304283, -0.1362787849482583, -0.0025557762343247333 ], [ -12.212149914989109, -0.060710822048554644, -0.38185632205052505, 1.0957796161461841, 0.19385240713030003, -0.10089174561912598, -5.704147592156962E-7, 1.4222019487751511E-5, 1.5519269524938915E-5, 1.3495146701387612E-5, 4.138799574789859E-6, 0.8942102511838774, -0.7822960235788554, 1.238767363329294, 0.2750687093449023, 0.8854730859064925, 0.34353340220907574, 0.7642986866872928, 0.8980444419248146, 2.137754326538926, 0.38190230661007163, 0.7337249946880869, 0.6049454220477695, -2.6943017424074474, 0.6180101774800808, 0.04226077363196948, 0.2551107001343284, 0.17726747540708732, 0.5604235840395286, 1.489775592122965, 1.349436101449814, 0.4846603804753366, 0.9554387517369504, 0.08071025927024617, -0.8377781037709663, 0.5093528394757162, -1.0149324499623553, 1.1327843483200808, 0.5853995558399866, -2.550347291617625, 0.20759938858329663, 0.6885139481868378, -0.10439494206006036, -1.2855622691537818, 1.686619534683593, 1.6316867875431749, 0.007781312679382139 ], [ 12.15687167301361, 0.05930329183549051, 0.38104679398019625, -1.091558822989546, -0.19400822351267832, 0.09983375559134731, 2.1305989755646993E-6, 2.2063974400394347E-6, 1.295311166525747E-6, -9.424158711970654E-6, -4.590688869720197E-6, -0.8921737113264611, 0.7808347038102911, -1.2343616804057849, -0.2759973924597223, -0.8830486121174868, -0.3383537294514137, -0.7578302979972865, -0.8879332187436172, -2.122528444650545, -0.3766190568304672, -0.7301213767988849, -0.602876729396309, 2.68362863506593, -0.6168969906076809, -0.0388616917034205, -0.25416437453652935, -0.17938051761808702, -0.5598655739962398, -1.4830192128349702, -1.3454345905130676, -0.48359482869107917, -0.9524312293864514, -0.08218291971018739, 0.8356315225341898, -0.5111432991314382, 1.0132006842375465, -1.1276731160051412, -0.5832515755133885, 2.5391552891099667, -0.20751562018405056, -0.6848900617190099, 0.10696888701974125, 1.2901429773594237, -1.6712263457380896, -1.6179356625129062, -0.005111141284447693 ], [ -12.212263534718348, -0.0607245321203117, -0.38185124933950276, 1.0957496394614326, 0.1938447749598497, -0.10090987344955751, 7.94090695457142E-6, -2.2208192300312984E-6, 7.942096180543987E-6, -2.232355681240063E-6, -1.1684089469271724E-6, 0.8942285814772571, -0.7823190497624107, 1.2387305134692423, 0.27505307443464605, 0.885456427742788, 0.343519158981365, 0.7642867724599529, 0.8979880446013949, 2.137718758656698, 0.38188320229694417, 0.7337144556194174, 0.604937718458089, -2.6942460102067995, 0.618028338411047, 0.04222417288942847, 0.25511146381209915, 0.17726604664147788, 0.5604185281358117, 1.4897592264507251, 1.349409752990066, 0.4846434408949482, 0.9554136976521064, 0.0806993591454618, -0.8377839063885608, 0.5093646252523526, -1.0149338546366626, 1.132801913774108, 0.5854254677791226, -2.5503087989201227, 0.20760592556262772, 0.6885446981982082, -0.10441720347415892, -1.285610654976269, 1.6866076032486055, 1.631662312949076, 0.007776324927611506 ], [ -12.212178989800925, -0.060720288655254626, -0.3818481584542666, 1.0957807840983573, 0.19386212510484796, -0.10089870627911664, 5.4968590085583804E-6, -1.299631099555358E-5, -1.3076949065102316E-5, 2.3618733755388284E-5, 3.6112245005772853E-6, 0.8942246467008376, -0.782316015900626, 1.2387599354917997, 0.27506797181050996, 0.8854615422302603, 0.34353507950098555, 0.7642756841117618, 0.8980227026103301, 2.1377160469485594, 0.38190407205133203, 0.7337201248708004, 0.6049396131457808, -2.694264453906315, 0.6180133018592935, 0.04224597644309139, 0.25512481394824615, 0.17724921129129648, 0.5604324032723399, 1.4897777566944648, 1.3494281346421866, 0.4846383284351163, 0.9554274577930151, 0.08070758908695545, -0.8377828548629672, 0.5093558946527955, -1.0149461112485894, 1.1327854622622313, 0.5854067306587784, -2.550346599545426, 0.2076101014975003, 0.6884960648371341, -0.10440644651512572, -1.285595498468033, 1.6866057777427323, 1.6316724371756621, 0.007769116390750354 ], [ 12.212616577231222, 0.06082372390358446, 0.3820262436875567, -1.0954193087026172, -0.19368008275301135, 0.10099548474793893, -7.07473546038275E-7, 1.6694719347461464E-6, 1.65140363709242E-5, 7.8011806648895E-6, 4.897597204326197E-6, -0.8943378221915003, 0.782510007875261, -1.2384456125823098, -0.27490731338899793, -0.8855463710850108, -0.34337770053433664, -0.7640888011668057, -0.8972104100345565, -2.137045981830493, -0.38173422347936153, -0.7335906733411345, -0.6050034838467795, 2.693523296971947, -0.6181040771963805, -0.04205932094680012, -0.2550382980726315, -0.17731665060575402, -0.5603763583102943, -1.4894928935342882, -1.3491783508880664, -0.484389136372356, -0.9551604871273797, -0.08059688777653527, 0.837863788431884, -0.5093235181019585, 1.015034652560823, -1.1326923567638774, -0.5855009035849899, 2.5495052340036, -0.20767963606458842, -0.68831235234155, 0.10462580564444343, 1.286141168528833, -1.6859167282911394, -1.6310002644511434, -0.0073203357180853645 ], [ -12.010927479860857, -0.05234945753000539, -0.37476219269279776, 1.0761767691723405, 0.1857484798128176, -0.09200402245365383, 1.0064721349072548E-6, -1.2394152871572575E-5, 4.71378759753128E-6, -1.9505676045523264E-7, -9.345016243391694E-7, 0.8823955598267814, -0.7736677624656956, 1.2176370691558176, 0.2703175776752992, 0.8715211481392706, 0.33095974375567355, 0.7607298000077343, 0.8797176742111718, 2.093831968191243, 0.36913667742667766, 0.7214029376619363, 0.5950208206084728, -2.650014051182493, 0.6112290358319047, 0.04223490070830195, 0.2492126365234475, 0.17973179245822246, 0.5531840580277617, 1.4655447810704254, 1.3274637257052153, 0.4725672217658106, 0.9383462363086853, 0.07893842486680638, -0.8282848761446963, 0.5116992733258408, -1.0073758873015513, 1.111799685666655, 0.5750733690144146, -2.5084715851816277, 0.20494454964403117, 0.6765018787720697, -0.10171043359746018, -1.2779367791682732, 1.6511911666633323, 1.5962848741910978, -0.001895087691534277 ], [ 12.165189419024951, 0.05948626345600149, 0.3813266178468759, -1.092296384711209, -0.1937216296624931, 0.09993663189461423, -2.484401515741273E-5, 5.720054987194911E-6, 1.1283612782058504E-5, -3.8069816326446323E-6, -1.7771925256340485E-5, -0.8926793371548325, 0.7811019917304832, -1.235188324055177, -0.27559373956067396, -0.8836552491399189, -0.33923385396446104, -0.7581238532272759, -0.8890373674179609, -2.124457187530036, -0.37747659935050326, -0.7306120780528103, -0.6034275454286515, 2.6844302278570593, -0.6172768557426681, -0.03933737225011263, -0.25426177267657624, -0.1788421725650981, -0.5599148612658172, -1.484313316243999, -1.3461885429115357, -0.4838638095034395, -0.9529619815426037, -0.0817947883444839, 0.8358343731816662, -0.5108152779746459, 1.0133554217394372, -1.1284461967559045, -0.5838110658677239, 2.540244933059771, -0.2077981417480348, -0.6849885167816242, 0.10761846579501969, 1.2899769682324491, -1.6732316457580636, -1.6195264497551272, -0.005155261839692914 ], [ 12.200794235673499, 0.06020644020547014, 0.38232264489799034, -1.0948787485743947, -0.1935007389317846, 0.10031328057998316, 3.5328269951471958E-6, 1.694334694264255E-5, 1.5111535509892696E-5, 4.990914745026915E-6, 1.6437383178810603E-5, -0.8931676963848182, 0.782448436112638, -1.237862495429331, -0.2747573565732772, -0.8843984802022462, -0.343072593447334, -0.7622730771688605, -0.895809768748372, -2.1348211407310473, -0.3813673623622417, -0.7330959011960966, -0.6053487883663933, 2.690564290408431, -0.6186434611169771, -0.04154801834258117, -0.2546048447242719, -0.17656108615195193, -0.5598197317618507, -1.488831544330499, -1.348587096518528, -0.48484343799337126, -0.9548244636535111, -0.08083652710716956, 0.8371682874928663, -0.5094914016684335, 1.0145213220551932, -1.1321326028573182, -0.5857804122388143, 2.5464838715982894, -0.208564990597588, -0.6863217847454132, 0.10617797605931967, 1.2869510108724622, -1.683856157832734, -1.62875701368436, -0.0052014295158656805 ], [ -12.212291982246619, -0.06072322285980404, -0.3818567887008064, 1.0957798446039737, 0.1938794304763086, -0.10089566125811625, -5.765885017880705E-6, 1.3745270624349464E-6, -2.3928264272718286E-6, -2.4044741111542818E-6, -8.740588686153465E-6, 0.8942160300248122, -0.7823322364781132, 1.2387612242104136, 0.27506998249554243, 0.8854635602025203, 0.3435384355464798, 0.764307786016927, 0.8980482162218458, 2.137773414461873, 0.38190327335606333, 0.7337164516159811, 0.6049532422425834, -2.69430781080208, 0.6180197772079463, 0.04226443767073739, 0.2551088216915027, 0.17727499910520106, 0.5604418805424422, 1.489780833223522, 1.3494287645183656, 0.48464037703725643, 0.9554376421076376, 0.08070981513792352, -0.8377848328347179, 0.5093487404923704, -1.0149431491353955, 1.132808505292729, 0.5853821017453613, -2.550353232812003, 0.20760294366393656, 0.6885505896618327, -0.10438348565339627, -1.2855707409732031, 1.686640768335647, 1.631707898586553, 0.007785638179145598 ], [ -12.212285189329902, -0.060714745187998596, -0.381862429360593, 1.0957811774896795, 0.19387044582140756, -0.100895792446601, -6.341561155456914E-6, -1.3542580239544951E-5, -1.2611182842422331E-6, 6.9966225754971926E-6, 2.0891084141418457E-6, 0.894221579518294, -0.7823208114539646, 1.238787732360494, 0.27507309712855815, 0.8854806204076523, 0.34354472687237525, 0.7643377872185216, 0.8980953375013859, 2.137797621921045, 0.38189967884453324, 0.7337168564051415, 0.6049299758824573, -2.6943282196465668, 0.6180154447369601, 0.04228081962545357, 0.2551314430954078, 0.17726120844817023, 0.5604220594440579, 1.4897897753756382, 1.3494529379798874, 0.48464379407851654, 0.9554280281467442, 0.08071968993418649, -0.8377850999196912, 0.5093595021852126, -1.01492423985992, 1.1327992995950233, 0.585415191150382, -2.550401863713136, 0.20759624160432522, 0.6885536119594996, -0.10437403899966206, -1.2855570759164687, 1.686673713140675, 1.6317449206400325, 0.007811950678812507 ], [ 12.20093105647774, 0.06086075366642572, 0.38247288388821366, -1.0945776807117615, -0.1932263534301143, 0.10102407625925632, 6.627186385016814E-6, -9.863880614651251E-6, -1.4297021321371764E-5, -1.6088954972251677E-5, -5.028083337216263E-6, -0.8937724512925093, 0.7826472547474547, -1.2376581174894576, -0.27452822321913656, -0.884951999259259, -0.3422169453214181, -0.7620331951288953, -0.8944077025885196, -2.133419468193649, -0.38053266968169724, -0.7328958094657065, -0.6050624057844003, 2.6900898895631524, -0.6183408112385183, -0.0412694423335377, -0.2546823103782225, -0.17722422094435852, -0.5600438334253134, -1.4886706947403332, -1.3485639043494875, -0.48441472206166203, -0.954660029851269, -0.08057742160300274, 0.8372911471883494, -0.5094246952445162, 1.014635824874964, -1.1317673364912093, -0.5855327618507263, 2.54614128507788, -0.20818303355246456, -0.6862533061898209, 0.10700055428744298, 1.2881167954555368, -1.6825052466911503, -1.627510923794974, -0.005973772193233545 ], [ 12.151585420706095, 0.05926450867941836, 0.38087329442268747, -1.091106428988477, -0.1942332176760797, 0.0998553391621787, -1.7159339220999336E-5, 4.074476927411604E-6, 1.007296354065841E-5, -3.3240970280007135E-6, -7.8768047626967E-6, -0.8916630740156198, 0.7806795403923213, -1.2338258880469184, -0.27628950665844204, -0.8824477469827322, -0.3377759190712503, -0.7577093194595285, -0.8873312553010658, -2.1214184626947747, -0.3760144859642223, -0.7298613841011777, -0.602566256982433, 2.683086866283642, -0.6167269958334497, -0.03860068045812236, -0.2540883862367278, -0.17969072987479712, -0.5598334111386708, -1.4822455636784326, -1.3449429593007798, -0.48348394166190883, -0.9521176731515633, -0.08251620188408763, 0.8354419155962467, -0.5113589062683077, 1.013080200824414, -1.1272474377653923, -0.5829320017895375, 2.538429725751306, -0.20743125453161182, -0.6848035280162877, 0.10651176496767005, 1.2901730821311421, -1.6700570630333877, -1.617009369164989, -0.004775827552810965 ] ], [ [ 12.189801935763718, 2.284151324349198, -2.2730766359673735, -0.007694792436513395, -2.273408342244173, 2.282670604333919, -2.272887959271575, -2.273250317202991, 2.2717867702669277, -2.348935195161976, 2.284947473909952, 2.3035787935423526, -2.273074447310271, -2.2730013474649637, 2.2863485618218404, 2.28143293623936 ] ], [ [ 94.0899908484285, 0.6748245592837131 ] ] ]
}