{
  "config" : {
    "algorithm" : "ListNet",
    "numIterations" : 1000,
    "batchSize" : 0,
    "verbose" : true,
    "nomodel" : false,
    "params" : {
      "regularization" : {
        "rate" : 0.01,
        "regularizer" : "L2"
      },
      "layers" : [ {
        "activator" : "Sigmoid",
        "num" : 15
      }, {
        "activator" : "Sigmoid",
        "num" : 1
      } ],
      "optimizer" : "adam",
      "learningRate" : 0.075,
      "weightInit" : "xavier"
    },
    "dataSet" : {
      "training" : "../../../MQ2008/Fold2/train.txt",
      "validation" : "../../../MQ2008/Fold2/vali.txt",
      "test" : "../../../MQ2008/Fold2/test.txt"
    },
    "model" : {
      "format" : "json",
      "file" : "../../../MQ2008/Fold2/models/ltr4l_225.json"
    },
    "evaluation" : {
      "evaluator" : "NDCG",
      "params" : {
        "k" : 10
      }
    },
    "report" : {
      "format" : "csv",
      "file" : "../../../MQ2008/Fold2/reports/ltr4l-report_225.csv"
    }
  },
  "weights" : [ [ [ 2.0563160575916504, 0.9302540864465754, 0.9848831092731675, -0.012726648278554343, 0.2202614422868244, 0.860848978920864, 2.752501205618876E-157, -1.086846286379211E-157, -2.7061333527051444E-157, -3.765347819408756E-157, -2.3926064725443164E-157, -0.8081999846756511, 0.8410518210797551, -0.023978199318255688, 0.1593543166095146, -1.0467075684082978, 0.3583152835360306, 2.5905985847042725, 2.8865883442402613, 1.579801266269681, 0.36127903350909707, 1.468608984325422, -2.5153816300156238, -2.519105629498456, -1.9318534089536383, 1.3380758406960211, 1.3620511519998892, -0.03902632839302763, 1.3295616294755037, -0.057408277809032626, -0.9024635647534074, -0.4757426141683008, -1.079513182169663, 0.17576221748228832, 0.21485435445173498, 0.17819209713915116, 0.2142796302425202, 1.455174561867183, -2.5587030886490894, -2.1501238147777895, -1.9483873526577724, 2.222807952233699, 1.1049292724809052, -1.0419747902403762E-157, -1.336336366978559, 0.9948320725583183, -0.27711806412724593 ], [ 0.6712991462965897, 2.788562426523758, 1.1291527473829277, 0.48368716456555, -0.0035985386191460514, 2.717901484376141, -2.0965680720339086E-157, -6.408985563572921E-158, 1.0183878359882142E-157, 1.7758128392508986E-157, -9.325308856396688E-157, 1.7123290913657747, 1.299041558594378, 0.532493850623671, -0.01564346211325872, 1.5050028001055735, 2.1892304246247476, 3.1965125033335644, 4.075956133285213, 2.569511985456796, 2.199288968404617, 2.3116613348067383, 1.9191070190228727, 1.6729251178351687, 1.3036295539836082, 1.4810389141279865, 2.636433767849222, 1.931452456257032, 1.9520279513232517, 0.42527355478291984, 0.6213190151880951, 0.8437160278252103, 0.549819904176804, -0.04797559192884372, -0.43628954915091206, -0.18174240932070615, -0.4521436371508494, 2.305506651475892, 1.8961343549515581, 1.677894667403734, 1.305635123454087, 3.086537963349865, 2.2966735622926073, -5.474457742700481E-157, 0.00399053294171536, 3.4496791304155883, 0.31965640203934154 ], [ 1.8608330957598735, 0.9267857657386324, 0.8038742282302096, 0.09450065910578022, 0.36495968826582814, 0.8711861106832506, -5.400626688765316E-158, 4.8378636585412775E-157, -1.6835156624229074E-157, -4.812447466803392E-158, 3.0975483010935204E-157, -0.6229517326919571, 0.6436753982754252, -0.06900258618499666, 0.23240608247983588, -0.8345082190108305, 0.3184758104365387, 2.7451566588932317, 3.5792269739883342, 1.8315598824473, 0.32234991015728864, 1.356309138172653, -2.6991498070759876, -2.7989623409272353, -1.7030526525835175, 1.2643207380920665, 1.3701079677558359, -0.013684223339678656, 1.3275188510436966, -0.17877927046691222, -0.8424002294356842, -0.44455644464228966, -0.8969843298498993, 0.2582002359053055, 0.24888569521135537, 0.19337425806641753, 0.2313326407019215, 1.337325628204526, -2.7357278050110057, -2.354124699933314, -1.7022730461823412, 2.4302440522220583, 1.4742380261229788, -3.207746748325807E-157, -0.9530538397418238, 2.3651788564938565, -0.737917119664267 ], [ 1.1775116229735114, 2.980615378866281, 1.1955811727429067, 0.8820371231486629, 0.2603985197972886, 2.839959593555606, -2.1211024272913854E-157, 4.596574617357162E-157, -8.57293662822646E-159, -6.320203485222753E-157, -1.0818003883421893E-157, 1.618645997445618, 1.265404398447908, 0.5934009330385179, 0.25561603917281395, 1.2904538730689976, 1.0656934834893432, 3.262559250172888, 2.41508358020111, 1.5983535092728103, 1.0707645843918456, 2.861164281835647, 1.8741469052529325, 1.8638719659719212, 1.2351614552556316, 0.546809529211397, 0.7591211488987848, 1.0296330289696356, 0.6325547948845675, 0.10831720038299997, 0.9710791546365448, 1.4835000026652572, 1.0421330061823646, 0.2938474893186964, 0.6365985227761483, 0.6883053051970867, 0.5286178034344843, 2.859698023084558, 1.8737194794465681, 1.6579513043641945, 1.2510325837636689, 2.342521402003913, 0.7096613843224807, 5.568433467401699E-157, -0.9854948629226035, -0.6975918015526661, -1.8079964472616108 ], [ -3.3683507818201797, -0.5302671620099735, -0.7053572111131633, 0.06441650118831255, -0.5412684066000081, -0.5569465565451944, -1.850915177993898E-157, -1.7971920140095043E-157, 1.184668594269739E-156, -3.6125361086901804E-157, -1.0767500797684764E-156, -0.24211252834073121, -0.7284808588130676, 0.00466459538369427, -0.5482830187159164, -0.26065391223406753, -0.27097391497215456, -0.1752473208548832, 0.7781930376873061, 0.027844569544983343, -0.270534793218594, -0.8429077626205538, -0.8281779880958723, -0.8856593645776432, -0.7956949742862317, -0.6488260238323034, -0.6124814893918278, -0.5560595128708297, -0.6848258708503532, 0.11052164994225462, 0.030722194742868962, -0.0077475984315609064, 0.034456610447740864, -0.5387834891788432, -0.08380887743704242, -0.02123662585873973, -0.09325865360586466, -0.8661287826459438, -0.8904279606742562, -0.9317114046637329, -0.809021516014513, 0.13368048718540967, 0.007294101845980541, 1.4444221138060893E-157, -0.4965345564769719, -0.10329014714382555, 0.5510102433513111 ], [ -0.32163576304767005, 0.44171708702358464, 2.5702100625133153, 3.0071173195298564, -0.1704858823554813, 0.3205803952570596, 7.697401555027867E-157, -2.138193249747392E-158, -5.233629638446453E-157, -5.535942962030713E-157, -2.922824398612402E-157, 0.1941794128696621, 2.73350895706056, 2.034959293240688, -0.20987043047122564, 0.10503222031399256, -0.9689106335214448, 4.257087418733009, 3.9573951873006243, 2.524040983539785, -0.9607453375987363, 2.878884288958783, 2.3514785102325524, 2.0668112425993317, 2.4603425714735536, 2.292042489570014, 1.1381917237728028, 1.5459535212021847, 2.2258325200244067, 1.1805034817121989, 0.7538082952531009, 0.9030022190082002, 0.8484214874169469, -0.20502952683739922, 0.02427160355182619, 0.08399073085895294, 0.022252327804659102, 2.884457413473466, 2.386179102666843, 2.016183480333281, 2.483843756884164, 3.6329090858385573, 1.8942983379685974, 8.095383862075507E-157, 3.9701891215902614, 4.155577611762173, 1.1052937247079664 ], [ 1.5365275553653484, 0.9926680448522892, 0.5271146469956417, 0.21439723620508977, 0.41439188173846236, 0.8850863848539784, -5.310711209496105E-157, -4.803317183340349E-157, -9.016928463809866E-158, 3.759676213114781E-158, 3.235363298249902E-157, -1.0668251066829988, 0.4233423423715745, 0.3255622112539153, 0.4162363343147605, -1.1990465087885738, -0.28855244741485697, 2.5024799544679204, 1.9232705807764916, 1.3398302626359053, -0.2876647285280431, 1.874200370820396, -0.7556311226249195, -0.9556628347086363, -1.534386371770093, 0.6447039714625911, 0.8055363709153733, 0.26954221607756956, 0.7882011236049006, 0.35650062645327496, 0.0939592676615785, 0.1777735418677039, 0.0358158645587407, 0.42731915317769625, 0.13169344385343107, 0.3067992787610208, 0.07888996748158457, 1.9030125857464444, -0.7873266018196897, -0.742822527735093, -1.5137809498742765, 2.3677335371409316, 0.8133086414390575, -1.3704042579467334E-157, -1.4178915640877365, 0.7311271620012498, -0.30344567534231875 ], [ -4.428763076341145, 1.9179892717353901, -1.3466450676492154, -1.713921828549327, 1.0506663066003166, 2.0519720930432714, -2.2476092900964074E-157, -2.048086618129175E-157, -1.2093446096376564E-157, -7.568180212208373E-157, -5.717131684315319E-157, 2.1644534002432985, -1.28615504352018, -0.0567598559721078, 1.059668596851872, 2.3139683677362255, 1.8724282661406768, -2.442929033736542, -2.53073068776207, 1.2946655075797355, 1.8743478553477935, -2.4071438045913225, -1.2512161289397077, -0.6998555187722668, -0.5602967213698294, -0.35045727516994074, 1.9912440015032862, 2.030472847199796, -1.421828871570571, 1.531660654431387, 1.4903765652750887, 0.7459975086992972, 1.449827723668814, 1.1460007942283206, -0.6080947279191418, -0.5375450981655294, -0.5135806491772335, -2.334667954990204, -1.1662186720713368, -0.8155957070397872, -0.5014542607775183, 0.3066193556877581, 2.0446631034235985, -1.2777015541840918E-157, -0.002273343090782944, -0.857131787004121, 0.5785395976289812 ], [ 7.543387492052329, -2.160845206383132, -0.24626243878446286, -1.221957813712486, 0.8029682084867428, -2.0594213246153497, 2.0158731202296154E-158, 9.495661097960098E-157, -9.83074106592675E-157, 1.685245335403927E-158, 5.011038952421443E-157, -2.843753886870503, -0.17130929668604009, -0.8186256436385523, 0.7620445321134613, -2.785844024954889, -2.503803079835872, 0.4172046974575393, -3.6637427137277863, -0.38455645888127, -2.511464114602263, -0.7157045466799035, -0.6386829111982752, -0.9735561191517473, -0.8927245966818695, -0.07224685474000173, 0.422027965721435, 0.5390945746289856, 0.4599127621511977, -0.6499786509219301, -0.2326475965406898, -0.42963408922398916, -0.5089942472345413, 0.6980452810176859, 1.0806627936251425, 0.8107962184196613, 1.248394273611905, -0.6660498034205704, -0.6851669004128134, -0.6960450282207973, -0.9332024446388244, -0.05329663015741775, -0.6916699012783122, -2.94265146013406E-157, -2.9112235842187117, -3.662314957256682, -3.605256373192952 ], [ 2.3242229913867027, 0.7301957147810448, 0.48706955699369636, -2.026616339707798, -1.6593049015170427, -0.0015535967663320158, 8.669138239456064E-157, 2.990584088331684E-157, 4.999551062908048E-158, -1.80348278071979E-157, -5.6949324087797154E-157, 0.32035401180293854, 0.5415849203696542, -1.9281457889028195, -1.611138185424672, -0.5988649064966984, 0.8535709448916623, -3.2527725963075507, -3.5948583357659083, -2.7280489606940144, 0.8337692231148006, -1.665095379225239, -1.3142542849275058, -0.7709363073878748, -1.7350771411357464, 0.6985192503382903, 0.2659269331819292, 0.7748291958136999, 0.3869998819628446, -1.890901903819211, -1.9809585025781828, -1.9807164153043604, -1.9401326459479693, -1.6612994313718474, -1.7843926488852615, -1.811281491447246, -1.6709710371714321, -1.6707645474839798, -1.2829344433290721, -1.121052525870931, -1.6872931270119151, -2.541530271673515, -2.8632289269573437, 3.382274778583868E-157, -1.9231615726391622, -2.856668293923723, -3.80259774477203 ], [ 2.9788002158014626, 0.897200610719632, 1.4311666978666997, 2.1318799491682623, 0.010171922949586546, 1.1928819680894938, 2.068378752712611E-157, 5.191900312920795E-157, -1.0095832605869449E-157, 3.48957642240001E-157, -1.1392859800737409E-158, -0.863578570743332, 1.0326174707740066, 0.6955141999244528, 0.006638284626262713, -0.735599911781754, 0.46064404829421424, 3.225357544620077, 2.514033149826131, 0.041733911761360876, 0.4695114801027354, 0.6505861781321233, 0.7129929272562419, 0.49297701850885034, 0.31970703264057165, -2.338348478051782, -2.4642113334197275, -2.5304104177502262, 1.26232536352702, 0.15442475047465787, 0.5819594962079798, 0.7253315492515177, 0.003949133843545629, -0.018601771591451394, 1.8024224899242325, 1.7914383211932121, 1.7930030812510784, 0.7762098265161992, 0.7565072446832386, 0.6298443550505984, 0.3510658859409154, 0.9161127961810263, -0.37415474085532296, 4.380026650201261E-157, -2.6161018709539734, 0.16506777002991158, 0.18026655060399246 ], [ -3.0195596469166706, -2.293283944692679, 1.5175702888243365, 2.347445897779883, 0.5278008588288269, -2.288470275649608, 2.975426275855393E-157, 6.673379110602611E-158, 2.309599441861941E-157, 4.284410795591677E-157, -1.1566565070817335E-157, -2.434033613172362, 1.5326061198818437, 1.134029997041111, 0.4551382231615933, -2.410776803721988, -2.444746631080272, 3.6407951472985407, 4.01293076727857, 2.4023743112831792, -2.4378045472925765, 0.86199917505282, -0.03327806725439662, -0.37668986379283753, 0.25763212775908956, 0.698744648155384, 0.1844784032692013, -3.0819180526529215, 1.5110952423757749, 0.6070871928335753, 0.6804514043535113, 0.9338604376803205, 0.4833832967413797, 0.4102012801333172, 1.4931776575812676, 1.5715686506756221, 1.4939393848915432, 0.9757139969182606, 0.05276631781888871, -0.3964279756908321, 0.2795471811734931, 2.7149268035775274, 2.1024763376055198, -8.040025860500735E-157, 2.8232661303417492, 2.9985341197810325, 0.8096479483240137 ], [ -3.902048694560349, 0.15524922074221356, 0.08076877502855118, -0.8216794647803479, -0.5500933615739758, 0.06267359747403495, 5.825989051043353E-157, -3.541866024401724E-157, 9.95557130268163E-159, -2.5679276082468136E-157, -8.086698382065155E-157, 0.8984798817978759, -0.247277300903988, -0.1948439456453971, -0.5704711946479984, 0.8160867140636862, -0.996864881162392, 0.1221665902262644, 0.23092037207544913, 0.33116299377259234, -0.9969985385078477, -0.5889722500551232, -0.8919938578928719, -0.9001191905886501, -0.7655369813346609, 0.6066745270276722, 1.0388082910870784, 0.5191263160646271, -1.3054908713686308, 0.04601789053749762, -0.19645592245278182, -0.03636140076410836, 0.27327332564941, -0.4915379975773659, -1.0572678542275458, -0.9645396557664798, -1.2273393870721239, -0.615771324344945, -0.9028148381118274, -0.9692951956671739, -0.7566169565338197, 0.02142683543988766, 0.39481091101817395, -2.4692868732997156E-157, 0.23870861146640035, 0.5053538755414103, 0.02258022120489873 ], [ 1.8210121291907229, 1.3548318443650638, 1.0658167873361137, 0.7509165375979229, 0.38012459580090335, 1.1771374775425734, 2.3163763222336965E-157, -3.0710881662313783E-158, 4.3045832792934574E-157, -4.012127511442865E-158, -8.610140448694305E-157, 0.398754229654045, 1.2777416644454238, 0.6466243824701392, 0.37790712202949694, 0.14304500457243371, 0.14838557658113857, 3.0802009800983505, 2.8716771168505537, 2.153774227732413, 0.15460131435690844, 2.5632783093919502, 1.6391864488630368, 1.5648305226234653, 0.9732263169798969, 1.1552752885580257, 1.3575132736821065, 1.547727181374994, 1.0049109491748391, 0.350373892269165, 0.6823627468132029, 1.1582100665553359, 0.577280842472567, 0.4918079825182566, 0.44884434885318486, 0.42868548045692634, 0.3237353490949797, 2.555688295060011, 1.6359097657241994, 1.4407613040999794, 0.9698634888232248, 2.5706448804827082, 1.578771576081619, 3.118017919428418E-157, -1.1223843369908113, 1.0598956188991173, -1.601796586064528 ], [ 3.0444606180894858, -1.6782280302058785, 2.9101916155536784, 0.7072608356900739, 1.6861819885150868, -1.69456798292409, 6.74447466329158E-157, -4.194100491066603E-157, -4.453408716925728E-158, 2.7237529353828062E-157, -7.72789213706092E-157, -2.9945626133321523, 2.8861878485069, 0.974402947078745, 1.811094000202724, -3.0532303014179796, -2.705807912406068, 1.3813300928323613, 0.23729396879289064, -0.7727226087428885, -2.7063076945396753, 2.661147137210608, 0.8860055439559178, -1.5908103078913625, -0.4022729712772466, 2.7699449674858267, 1.8229887817505135, 2.8234519457745915, 2.750868674830741, 0.3377219171203814, 1.1432975960928988, 1.6077836653893505, 0.3632808277602001, 1.9618784277520218, 2.163103031387773, 2.1284913365230147, 2.060071204770109, 2.6897983050957257, 0.8067882213447378, -0.40370889249058467, -0.40476436903037116, -0.013242953987449537, -1.2110127974037672, -1.2703235715243884E-157, -3.598094828340276, -0.04452755885190142, -2.2843878462454206 ] ], [ [ -0.29327489138388063, 1.5229055203084794, 1.6204994134976622, 1.5377001282255174, 1.5382933778760521, 0.3493304020194363, 1.995546709827139, 1.4915236033739092, -0.17102064306390952, 3.494685243814608, 1.2666176233035562, 2.20629962740075, 0.8955499244428803, -0.15235383247574738, 1.8231142700598157, 6.6836565350103925 ] ], [ [ 94.07965620342532, 3.0101043590176166 ] ] ]
}