{
  "config" : {
    "algorithm" : "ListNet",
    "numIterations" : 1000,
    "batchSize" : 0,
    "verbose" : true,
    "nomodel" : false,
    "params" : {
      "regularization" : {
        "rate" : 0.01,
        "regularizer" : "L2"
      },
      "layers" : [ {
        "activator" : "ReLu",
        "num" : 15
      }, {
        "activator" : "Identity",
        "num" : 1
      } ],
      "optimizer" : "adam",
      "learningRate" : 0.075,
      "weightInit" : "xavier"
    },
    "dataSet" : {
      "training" : "../../../MQ2008/Fold2/train.txt",
      "validation" : "../../../MQ2008/Fold2/vali.txt",
      "test" : "../../../MQ2008/Fold2/test.txt"
    },
    "model" : {
      "format" : "json",
      "file" : "../../../MQ2008/Fold2/models/ltr4l_221.json"
    },
    "evaluation" : {
      "evaluator" : "NDCG",
      "params" : {
        "k" : 10
      }
    },
    "report" : {
      "format" : "csv",
      "file" : "../../../MQ2008/Fold2/reports/ltr4l-report_221.csv"
    }
  },
  "weights" : [ [ [ -4.9845617206527694E-154, -2.2973053169805063E-154, 4.6109120646104855E-155, -1.0821166460286536E-154, -2.3567495766907986E-154, -2.2337384908058537E-154, -9.097133264432922E-157, -7.151371603195618E-157, 6.69630181927041E-157, -1.2340448894162832E-157, 7.276756079280684E-157, -2.2552837442619444E-154, 1.2160127247595523E-154, -6.748840253287677E-155, -1.5909781985878957E-154, -2.1541345714353042E-154, 4.821654657028683E-155, -2.1698207111217753E-154, -5.716918440857964E-156, -1.536486082292752E-154, 7.755629666595322E-155, -2.1536541133698024E-154, -2.3873841195069657E-154, -2.40244692237433E-154, -2.3684820694819848E-154, 2.067941829862158E-154, 3.8965127035376866E-154, -5.317389210247417E-154, -5.4082034850756366E-154, -9.39942639134492E-155, -1.5369617745994087E-154, -2.946321958493961E-155, -1.2766777434816698E-154, -2.3819950903819128E-154, -2.3479307261973504E-154, -2.4026423743321583E-154, -2.3403114044424747E-154, -2.1731197027928393E-154, -2.417504869466764E-154, -1.9786708153512636E-154, -2.3230882921390076E-154, -2.0000217415251014E-154, -1.4679163689835255E-154, -7.609953506396849E-157, -2.704347679255869E-154, 8.39724890860249E-155, 1.0681064744266334E-154 ], [ -1.6041588074988836E-154, -1.0050465736440791E-154, -1.168118685258278E-154, -1.5571139928813154E-154, -9.818644993483076E-155, -9.995384242450435E-155, 5.333293433124396E-158, -4.151810027664418E-157, -1.1430314802266887E-156, -7.385101868528386E-157, -4.901037920830562E-158, 4.151497978938236E-155, -1.3099350394573072E-154, -1.5614401941264784E-154, -1.0979289729727723E-154, 2.0870997439839702E-155, -9.644677427905143E-155, -1.0749123952555039E-154, -9.015983609245328E-155, -9.556437244387993E-155, -9.698149573481536E-155, -1.2507634012446547E-154, -1.1794407211352532E-154, -1.3239749944149647E-154, -3.377586856845662E-155, -1.2069646425350971E-154, -1.4742841521914537E-154, -7.408669918319152E-155, -4.782437522344533E-155, -1.5063236913836057E-154, -8.785383874229469E-155, -7.207574547301462E-155, -9.066055078324626E-155, -1.0788991518849955E-154, -1.1275051046551777E-154, -1.1295779818313339E-154, -1.1260518556246671E-154, -1.3155522603883624E-154, -1.1867690893508496E-154, -1.47021350778801E-154, -3.455565192796206E-155, -1.290317082957956E-154, -7.9506050028013E-155, 2.9953571688063027E-158, 1.6347933757114485E-155, -4.818605748626419E-155, 4.854463725911835E-155 ], [ -9.238236840070304E-155, -1.493973544121342E-154, -1.0275565743226188E-154, -2.001544759403275E-154, -1.4795865481898644E-154, -1.5838007682670517E-154, 5.193745880315798E-157, -5.954781256115744E-158, -2.8535293389875717E-157, 4.384496838265932E-157, -5.134274149772972E-158, -9.206336481078094E-155, -9.671008335310085E-155, -2.015508167554013E-154, -1.4425118075605636E-154, -1.0183701473650245E-154, -1.3477777445742198E-154, -4.068691894083567E-155, -1.809149501236684E-154, -4.2951105092512546E-155, -1.3390462465233676E-154, -1.3976442804900427E-154, -1.435204946418143E-154, -1.2287510167258165E-154, -1.4102870434564678E-154, -1.467847389681565E-154, -4.774783824603254E-155, -2.9301722450783784E-155, -3.783817538592368E-155, -2.0641573079357512E-154, -1.9739930913067606E-154, -2.003342546558682E-154, -1.940726692897225E-154, -1.4795749337673527E-154, 4.024321325639339E-156, 6.35554442405532E-156, 5.305071924531775E-156, -1.4351194456777208E-154, -1.530043389585102E-154, -1.2995036204385039E-154, -1.5023747845016142E-154, -1.0978088747632676E-154, 5.36533776720053E-155, 1.1224085624841665E-157, -2.1571514826937105E-154, -1.8013966787919804E-154, -4.558674122024634E-155 ], [ -1.552408724563407E-154, -5.768458009201971E-155, -1.0043694600315493E-154, -1.4139738178459314E-154, -1.1404296093336192E-154, -5.782904454689568E-155, -7.753427435356193E-158, 6.09799482029452E-158, -8.173518164287896E-157, -8.410810597291096E-157, -4.5504585985730773E-157, 1.6934985544238245E-155, -1.1117013202576363E-154, -1.4398019876582941E-154, -1.2228079123440948E-154, -1.0338395631972251E-155, -5.489770905105895E-155, -8.280105657307929E-155, -7.3571611620375944E-155, -9.70177969935855E-155, -5.470184001429427E-155, -1.1043888484755609E-154, -1.1509515711733939E-154, -1.044068380446225E-154, -1.3599795973932843E-155, -1.2970237769016954E-154, -1.3930373393120934E-154, -3.47366622719619E-155, -1.9193443841670043E-155, -1.4236370653415968E-154, -4.52248163080961E-155, -3.3339088846189545E-155, -4.889551571936662E-155, -1.2064839938181926E-154, -1.240848043503666E-154, -1.245362606008707E-154, -1.2483309734767142E-154, -1.192451818418492E-154, -1.1698443895493485E-154, -1.2258612679182885E-154, -1.279604957872391E-155, -1.201953392526282E-154, -8.729203612830398E-155, 3.1174981952561176E-157, -3.8014785785054924E-155, -8.149861003030116E-155, 1.9403617761136595E-155 ], [ -1.58531917613155E-154, -8.167325703320431E-155, -1.1957959102110395E-154, -1.5081913243459753E-154, -1.148324242708405E-154, -8.119307815533783E-155, 9.769325175464168E-159, 3.0046495041462966E-157, -5.644315806785367E-157, 7.530068153519278E-157, 4.173089896019852E-157, 2.7440359411804806E-155, -1.2950134104439272E-154, -1.5246821455472543E-154, -1.206018919329626E-154, -8.766317294591919E-156, -7.816082165476443E-155, -1.0594429274182338E-154, -9.48470687387575E-155, -1.0865683980643897E-154, -7.758446455567908E-155, -1.2693988382057022E-154, -1.2445250396672966E-154, -1.287564096909577E-154, -2.274815900571024E-155, -1.2792954199346387E-154, -1.4616003000241093E-154, -5.469882599312986E-155, -3.344581508247894E-155, -1.496200147137806E-154, -6.711113054632993E-155, -5.354732974179457E-155, -7.171149415118922E-155, -1.1838985986844442E-154, -1.2201203409108527E-154, -1.2234321558131594E-154, -1.222526993353536E-154, -1.326767359282274E-154, -1.2613270968521973E-154, -1.4211316288949505E-154, -2.271883423088374E-155, -1.3228740586480873E-154, -9.869295732373807E-155, -5.2889390981976064E-157, -3.8690041009031304E-155, -8.467133078058036E-155, 3.3362821753921885E-155 ], [ -1.6208001128596947E-154, -1.2176179695337027E-154, -1.4381041105388861E-154, -1.6990609610112658E-154, -9.633734710729214E-155, -1.2287337540769385E-154, -1.1296927084789798E-157, -1.0640636023015796E-157, 5.378882234945605E-157, 5.589758260327045E-157, -1.5282543707702256E-157, 6.620721843189211E-155, -1.556288767266289E-154, -1.671568027391397E-154, -1.0746433134316505E-154, 4.116520401015194E-155, -1.1944756744508577E-154, -1.3756280128139055E-154, -1.1961717043324419E-154, -1.0951448569905419E-154, -1.1979596806790392E-154, -1.4880229649413948E-154, -1.3292504954406109E-154, -1.5823114409420437E-154, -5.6953649890263356E-155, -1.188165836942858E-154, -1.5592180571918058E-154, -1.0014037730217991E-154, -7.442247704637829E-155, -1.5968349952126356E-154, -1.1232808788622088E-154, -9.836317928725627E-155, -1.148165857207646E-154, -1.0508379703725753E-154, -1.1013622301799428E-154, -1.0997011485656698E-154, -1.0911200949551566E-154, -1.4972722997618468E-154, -1.3269342038184927E-154, -1.725301509592853E-154, -5.685113754330477E-155, -1.4526511415019148E-154, -8.753024131618395E-155, 3.5791938464756075E-157, 4.019706777273548E-155, -3.828700920084335E-155, 7.4232343570034384E-155 ], [ -4.7517008391076905E-155, 2.942071408617797E-156, 3.741461457823373E-155, -8.280718280414673E-155, -2.490133895905056E-155, 6.011346933824644E-156, -3.215953441485094E-157, 7.566166047352565E-157, -6.616405127769186E-157, -6.046620895288317E-158, 3.946634735266955E-158, -1.850209802046273E-154, 3.591795848464826E-155, -4.590209054314467E-155, -1.3490437923361626E-155, -1.7370907699381092E-154, -1.2408434649076545E-154, -2.110280599246901E-154, -3.591965480531844E-154, -4.078121532753321E-154, -1.2525272290729176E-154, -2.2376975685870555E-154, -2.3796034662935345E-154, -2.329851444288067E-154, -2.608728493890864E-154, 1.0375096169949622E-154, -2.2197940689238817E-155, -7.199921402058658E-155, -7.589386105351837E-155, 7.987499059752869E-155, -6.1985386177109846E-155, -6.120694279493557E-155, -7.973973397637509E-155, -1.9438940248035728E-155, -1.3145137867656635E-154, 3.594953936161225E-156, -1.5019544520184476E-154, -2.289459818086019E-154, -2.236703219642236E-154, -2.2736834014789826E-154, -2.463511126292616E-154, -2.464123402115226E-154, -4.57497668014657E-154, 1.1875384563815335E-156, 2.482463147827864E-155, -2.2849013535748876E-155, -1.4987524010419438E-154 ], [ -9.326024946119781E-155, -1.6650524105123623E-154, -1.239731493296933E-154, -6.12889590571338E-155, -1.4097337238953929E-154, -1.49462507357198E-154, 7.003072046148242E-157, -7.141158048424398E-158, -2.598929373379285E-157, -4.6795751521863974E-157, -5.487287883843312E-158, -1.853231420184111E-154, -1.2137173300579071E-154, -8.883770789187308E-156, -1.4776218648023099E-154, -1.7152254337296315E-154, -5.130481708066712E-154, -4.098950074213571E-154, -2.8164212690629265E-154, -1.4459751431365652E-154, -5.0892304606313574E-154, -1.854271106812192E-154, -2.6102742546608214E-154, -2.0821505569916506E-154, -2.4260434393917686E-154, -1.3998973565235644E-154, 2.8237478520631784E-155, -1.1862819315093154E-154, -1.2417690240790341E-154, -6.609821361182158E-155, -1.3368325460154063E-154, -3.3242760674664418E-155, -9.003633246593314E-155, -1.4972930211343665E-154, -1.4629577152376416E-154, -1.466607685535957E-154, -1.4734635800507802E-154, -1.7639717401833856E-154, -2.6799665144810522E-154, -9.884792648440898E-155, -2.371457208661518E-154, -1.6180094551321772E-154, -1.4904102775952652E-154, 3.355150720396847E-157, -2.4929223780372737E-154, -1.652754195765533E-154, -2.9062829377945062E-154 ], [ -7.643896828816546E-155, -1.6852254711797907E-154, -1.2797740766339421E-154, -7.165390202106462E-155, -1.4103660669565214E-154, -1.5316911842562416E-154, 4.606184886085005E-157, -1.6574760749382947E-157, -6.932384665450438E-157, -6.677325957214206E-157, 1.4023265419116939E-157, -1.8190971257356894E-154, -1.2515324943528467E-154, -1.8339063033641802E-155, -1.4644453468635561E-154, -1.7000288269088032E-154, -5.0858736707722774E-154, -4.202194184566474E-154, -2.4762991445974934E-154, -1.484783022202116E-154, -5.043161270360965E-154, -1.9007016513523443E-154, -2.6156609684274797E-154, -2.1084029227578777E-154, -2.4482662109341955E-154, -1.4026865682728537E-154, 2.1159425522173767E-155, -1.2355978285204333E-154, -1.2820375817609499E-154, -7.491353870229026E-155, -1.4346232185654431E-154, -3.977453914006331E-155, -9.76286311683213E-155, -1.4850785492988689E-154, -1.4506937870336054E-154, -1.4608380565272433E-154, -1.4531304950828667E-154, -1.7964343432366985E-154, -2.6953814705851938E-154, -1.0673410097545491E-154, -2.4086384005478148E-154, -1.651950845008386E-154, -1.4949057708182594E-154, 1.8894467735658068E-157, -2.4770112026741006E-154, -1.521854325417543E-154, -2.548343660885087E-154 ], [ 83.8397472544949, -0.3405958587941993, 0.6879587691271482, 0.6137853144275808, -0.3586176639015404, -0.5673294217903311, -1.5073405032754374E-157, 9.678037686515068E-157, -2.3261239658716544E-158, -6.508461245143813E-158, -9.336518601076473E-157, 0.276876888879674, 0.4363156647576138, -0.18500202434760518, 0.3417384486402848, -0.10577361969009286, 0.5215066157991127, 0.6201666695169596, -0.6481267909327191, -0.3629579492928868, 0.5263538475382941, 1.087946539354691, 0.18232203297300378, 3.3108468059148666, 0.7790706207906828, 0.6938371001670041, -0.2737799046765339, 0.11089288036949314, 0.0896638968790434, 0.1599303443898221, -0.24135308921638035, 0.13296257780589707, -0.7252582653848499, 0.8455299678727596, 0.6031839901991843, -0.36799076656456303, 0.576313043118524, 1.6124627667271203, 0.2095111357486474, 3.242594636294541, 0.8776244803055278, 0.24057514560893373, 1.0020481705560078, 5.1741355546480815E-157, -0.20319887350678512, -0.7563529884640598, -1.769815074543392 ], [ -1.7571624039343064E-154, -1.1884161628288923E-154, -2.8439061083150476E-155, -1.3897175082313924E-155, -3.4870499047267824E-155, -1.1846427029080701E-154, 1.201528696903017E-157, 2.998900596962852E-157, -9.86178182245959E-157, 7.277736389928818E-157, -8.019663408477039E-158, -1.0354865458813429E-154, -2.4888687768690413E-155, -1.618354497497045E-155, -2.653923280918881E-155, -1.0608506633413303E-154, -1.191030572337922E-154, -1.4685020388992247E-154, -5.6187729017247916E-155, -1.1297191720486923E-154, -1.1982084133132652E-154, -1.1815046182125837E-154, -9.679620987147189E-155, -1.4572394190320258E-154, -1.4900308989973723E-154, -3.0797240636301832E-155, -2.3350614910445297E-155, -1.9950808290591384E-155, -2.413748968027367E-155, -2.1737955568895254E-155, -8.818774846354791E-156, -1.917417759367287E-155, -4.4968632231536595E-156, -2.870422999691344E-155, -1.812553515357232E-155, -1.8147168861466687E-155, -1.7300144416565914E-155, -1.179902795678184E-154, -9.78050085415399E-155, -1.4699345391023273E-154, -1.4820625271594502E-154, -7.812967293716246E-156, -1.2085768227423347E-154, 2.0325257451088024E-157, -1.132345844405347E-154, -1.1796736875601709E-154, -1.1614078485122739E-154 ], [ -1.1111065405292983E-153, -1.1004773918231313E-153, -1.0660602054551895E-154, -7.408602904445711E-155, 2.3118350429046306E-155, -1.0887727928764341E-153, -1.9586984924214546E-157, 3.6299238848087123E-157, -3.547079648867349E-157, 8.898620649271618E-157, -2.0867521305208607E-158, -1.088985113104061E-153, -8.125315846158443E-155, -5.233701662673768E-155, 2.569482127370431E-155, -1.0285459718605131E-153, -1.0934321212875226E-153, -1.0295705514007999E-153, -2.5752749778832446E-154, -5.970231684231731E-154, -1.088674070400553E-153, -7.981591332433087E-154, -2.7562615303690007E-154, -2.7072294822450812E-154, -2.7838188253830005E-154, -6.661045375031294E-155, -8.864137352039233E-155, -8.107576549632135E-155, -8.21461307939118E-155, -5.736174364568505E-155, -4.972206299734776E-155, -5.314978443344318E-155, -4.82185018108342E-155, 2.444006864629967E-155, 2.733268755878115E-155, 2.926574216079821E-155, 2.7271638249850553E-155, -7.654655540260564E-154, -2.770418877979442E-154, -2.7091297679684394E-154, -2.7831584783003155E-154, -9.965333265364103E-154, -7.152576338627888E-154, -4.453599476650983E-157, -8.715897080653182E-154, 1.4127709383069149E-154, -5.512868108478684E-155 ], [ -4.8545562395270516E-154, -2.94580787404212E-155, -8.924041551095409E-155, -3.027205643608175E-154, -2.7671408098760706E-155, -3.913040706134636E-155, -1.7567792256860798E-157, -5.080834415949582E-158, -2.1614457789345764E-157, 4.3207505908900366E-157, -8.137938608759628E-157, -2.103597547114528E-155, -8.606893764195478E-155, -2.6584665656026093E-154, 7.743293235435494E-155, -2.767544385721372E-155, -5.376097970865705E-155, 6.98004173307249E-155, -7.1294570133220865E-155, 8.37151136910682E-155, -5.452111700882145E-155, -1.1866800228614919E-154, -2.7059730522256778E-154, -2.3716739339089437E-154, -1.5240661091377666E-154, -1.727672977404607E-154, -9.258533543043469E-155, -1.7405579454337393E-155, -2.2581960892419567E-155, -3.649347146251472E-154, -2.6241561857998287E-154, -1.99477140751186E-154, -2.411889919238769E-154, 3.5520746053718154E-155, -4.047352175790124E-155, 2.3163866672815176E-156, -2.2562028256392897E-155, -1.530017994194074E-154, -2.493925079124905E-154, -2.5224434342466517E-154, -1.6170572443972628E-154, -6.689662354224782E-155, 1.0346499415204196E-154, -1.9887172279317672E-157, -2.2634028724980337E-154, -1.7668829163628764E-154, -2.3370451587543057E-155 ], [ 2.287255265822883E-155, -4.80307163100267E-154, -2.0187191016346987E-154, -5.09143238549589E-154, -1.0345181544357108E-153, -6.067235081618057E-154, 2.4237210652012178E-157, -2.368320598048529E-158, -1.0316018017178093E-157, 5.971454487718251E-157, -6.869101989053297E-157, -1.3682975602488E-153, -3.1884268393948934E-154, -4.068422780069706E-154, -1.1316174632461225E-153, -1.4215685502704602E-153, -1.0181299949156605E-153, -5.568223075577242E-154, -2.7363254410706288E-154, -9.846148396448064E-154, -1.016673723495913E-153, -7.75596323274475E-154, -7.461958622239814E-154, -6.739282164431549E-154, -8.136977558778998E-154, -3.5023467527676843E-155, 4.232733832345079E-155, -2.2970163060125817E-154, 5.808767762259506E-155, -5.632495618116622E-154, -5.510930651580271E-155, -3.4158863228148276E-154, 3.986658682957608E-155, -1.2889074620050982E-153, -1.7845231427788714E-153, -1.2887512571133002E-153, -2.4045362819322925E-153, -8.754854394155413E-154, -6.962351101205344E-154, -7.29278092144195E-154, -7.374094868804913E-154, -7.197194735075252E-154, -1.2187037411196165E-153, 1.2367248211924103E-156, -3.162094944497851E-154, -4.498956776792966E-154, -6.193961071081943E-156 ], [ -7.404135974477576E-152, -4.99569867921065E-152, -1.0488858534864698E-152, -7.887713477326005E-152, -2.5325378831965352E-152, -4.76900371027536E-152, 3.294056351026364E-157, -6.06434274827691E-157, -1.548710782883513E-157, -9.738041764598476E-157, 1.4117067580579923E-157, -5.73095869337643E-152, -8.159199710096444E-153, -7.115689091755912E-152, -2.512863871932084E-152, -5.459196711244545E-152, -9.249960133087195E-152, -3.8637241433531514E-152, -5.301815311904798E-152, -6.709357170056275E-152, -8.7370487914516E-152, -9.580588965583191E-152, -9.706728698281358E-152, -5.570308116994242E-152, -4.338057936247639E-152, -1.3916575762796309E-152, -4.6591935919506515E-153, -4.493165522431149E-153, -5.061510896588828E-153, -6.900712109585048E-152, 2.563168370918081E-153, 2.882318863091216E-152, -3.682476363339215E-153, -2.4862567641961308E-152, -2.4010349310479594E-152, -2.3150384304072253E-152, -2.3577994668478683E-152, -9.499422641603002E-152, -8.689295331827438E-152, -5.002454376938279E-152, -2.8665842101554737E-152, -8.60740861119345E-152, -1.2997556572675673E-151, 3.1296658772692924E-158, 6.375614505301531E-152, -5.125528512464578E-152, -4.258919264293124E-152 ] ], [ [ -91.0108090641415, 2.0527696368228724E-10, 2.0527696368228724E-10, 2.0527696368228724E-10, 2.0527696368228724E-10, 2.0527696368228724E-10, 2.0527696368228724E-10, 2.0527696368228724E-10, 2.0527696368228724E-10, 2.0527696368228724E-10, -0.3782028414039338, 2.0527696368228724E-10, 2.0527696368228724E-10, 2.0527696368228724E-10, 2.0527696368228724E-10, 2.0527696368228724E-10 ] ], [ [ 94.07965620342532, -0.3782028414039327 ] ] ]
}