{
  "config" : {
    "algorithm" : "ListNet",
    "numIterations" : 100,
    "batchSize" : 0,
    "verbose" : true,
    "nomodel" : false,
    "params" : {
      "regularization" : {
        "rate" : 0.01,
        "regularizer" : "L2"
      },
      "layers" : [ {
        "activator" : "ReLu",
        "num" : 15
      }, {
        "activator" : "Identity",
        "num" : 1
      } ],
      "optimizer" : "adam",
      "learningRate" : 0.001,
      "weightInit" : "xavier"
    },
    "dataSet" : {
      "training" : "../../../MQ2008/Fold2/train.txt",
      "validation" : "../../../MQ2008/Fold2/vali.txt",
      "test" : "../../../MQ2008/Fold2/test.txt"
    },
    "model" : {
      "format" : "json",
      "file" : "../../../MQ2008/Fold2/models/ltr4l_65.json"
    },
    "evaluation" : {
      "evaluator" : "NDCG",
      "params" : {
        "k" : 10
      }
    },
    "report" : {
      "format" : "csv",
      "file" : "../../../MQ2008/Fold2/reports/ltr4l-report_65.csv"
    }
  },
  "weights" : [ [ [ -15.061379788933152, 1.1098495324623443, -0.49993606433014276, -0.447655946347361, 0.16401989403249218, 1.096250713413979, 0.0014162981180016062, 0.0010753324778735095, 3.6371142707821574E-4, 2.3781250079842984E-5, 0.0010453277495490378, 0.866799348320844, -0.4254088478476652, -0.6130117900378514, 0.03682196224937011, 0.8582278683930654, 1.4300867731141995, 0.27167133949615135, 0.4676404365859368, 0.6283912956742236, 1.4189767135978386, 1.2020882241023945, 1.0292861257440558, 0.8404738172440159, 1.0472828131699443, -0.9406206572316228, -1.5641628172872748, -0.5130405248169227, -1.351257407330246, -0.6639741790222394, 1.057632309784832, 1.1413537342626552, 1.0353898856457195, 0.22191118680775573, 0.19800816240692384, 0.34533016711827286, 0.13333477410502312, 1.3210207180287266, 1.213921414322712, 1.034050054369887, 1.1909316045147311, 1.2101537109663674, 0.5735771362534047, 9.299572022239679E-4, 0.571483921349211, 0.025604494846464182, 0.9912549601227442 ], [ -0.08610634592928457, -0.009729543384343963, 0.0014106621530418, 0.009173933858477666, 0.006238872651858911, -0.011900396867689947, 0.0012295037415056469, 0.0012432143869508115, 6.495880387540137E-4, -0.0012472182794194542, -2.3179772161051923E-4, 0.002510159848017917, -0.0021616572752943546, 0.006947376673720348, -9.580284521734251E-4, 0.003472825951173409, -0.01457778038071325, 0.004877850650449205, 0.006362119209757051, 1.360120319565831E-4, -0.014249228744814876, -0.024264710425070238, -0.020431929901013328, -0.03182384657056869, -0.02169262195602322, -0.001364875813925856, 0.0025010849434341344, -0.010220713321460679, -0.002992501044289739, 0.005378858214076147, 0.0036666722909791337, -0.004372016391367049, 0.003606104530015442, -0.0020533773994130208, -0.002224901458493724, -7.432242883696564E-5, -0.004846108559448727, -0.023387677527937602, -0.019061855842492773, -0.0300176437509264, -0.020493770237026535, -0.004292469792304053, -0.017715948846554794, -8.456078773284116E-4, 0.03151555185385728, -0.02884940948628815, 6.634067569265726E-4 ], [ -0.004847989366975566, -0.001483017452176877, -0.004424668828373761, -0.003460518474464286, -0.006894404203598866, -0.0013578332569797466, 0.0012787345860293246, -9.77782892114464E-4, 1.7966285251688847E-4, -5.217320040971512E-4, 5.527009225105423E-4, -0.00875817895382445, -0.00393432659533844, -0.0020180084189106566, -0.003413150652255923, -0.008253362501637626, -0.0020296286750451833, -0.007070957769638424, 0.002302691338811406, -0.0078105523620087235, -0.002522404290660095, -0.0044952930009570825, -0.006473543548132143, 8.030946308739836E-4, -0.003794321326631081, -0.004402939161178284, -0.0048531617790632696, -0.003970617256964979, -0.004074771224038179, -0.002209205922629401, -0.002024682435979728, -0.0016683803409195017, -0.0012207090590678226, -0.003078134353793025, -0.004099135170761796, 0.003075277035562812, -0.005194910286563309, -0.006316958017598688, -0.004693823775038546, 1.5808929653359063E-4, -0.0024694253430911435, -0.010171021813310385, -0.012090676954860474, 3.898556909721838E-4, -0.0066518142888824065, -0.005016980984050976, -3.973102053918176E-4 ], [ 35.784293390068505, 0.003576852586041856, 0.04044142270088648, 0.15602770140202865, -0.10713627790420593, -0.13368714829719328, 5.144285477120579E-4, -5.286382594912141E-4, -2.545228595950925E-4, -0.001857028672967818, 5.296173664838094E-4, 0.21191363384037507, 0.05798824149747832, -0.09614123379109463, 0.08337063834846929, -0.06304088891996135, 0.09798553287917013, 0.11149698599928246, -0.10048231598501912, -0.2503748384322557, 0.09586919407233686, 0.17002120460887127, -0.030977302606460203, 0.7329308872264548, 0.14328522595429052, 0.13353444036398418, -0.20540316875050085, 0.10295035749109391, 0.12647031083778149, 0.07410294736081244, 0.012113666962272396, 0.0315383580208909, 0.047993267734708016, 0.20632682984212963, 0.14070897099186658, -0.2361809210446224, 0.07876161960572728, 0.19697973891364023, -0.1675157527926372, 0.5198139679999717, 0.14255494624465964, 0.03324632618434753, 0.17343044550507364, 1.394899626025643E-4, -0.047249515679260105, -0.0584306777679771, -0.20859705512855325 ], [ -0.2226393949955078, 0.028643565110184243, -0.014375907748974355, -0.014062903494742807, 0.0024923490111884053, 0.03331522779430692, -6.340929689918524E-4, -3.214743135091556E-4, -6.807394169167168E-4, -3.367567917734209E-4, 8.170058260854926E-4, 0.01988156242721165, -0.017468024279221905, -0.011215095130682808, -0.012221626731391787, 0.0220128126089659, 0.031573070873063956, -0.0018325076607139273, 0.011460363566040618, 0.01572242884813327, 0.03183494063697787, -0.0025690222435106242, 0.003797313362900281, -0.010077309256352111, 0.008949806012605347, -0.015000206620267784, -0.017354608664787184, -0.01878324560357347, -0.01696531788422384, -0.017936898889656803, -3.1865262742906275E-4, -0.0058319004218685905, -6.688701629914635E-4, -0.013805004835075284, -0.019638214639893733, -0.022388567688882925, -0.02027126547759629, -0.006357810239993559, 0.0025836995100085984, -0.014080432149820868, 0.00914342177233124, 0.010538320067623102, -0.016072052540402847, 4.5115344187714385E-4, 0.004845716058781803, -5.916629280749865E-4, 0.017473067931667165 ], [ 35.77577429898777, 0.004907492026981643, 0.03882669618559631, 0.15803911897055287, -0.11179289185438009, -0.13405302094666605, -2.644183749852579E-4, 7.242532095870251E-5, 0.0013390256312228828, 6.214800908550239E-4, -6.962604566941227E-4, 0.21238483437907668, 0.054787199881796, -0.09310234921423782, 0.08032689991045412, -0.06075751927774973, 0.09849239844030001, 0.11053295715376318, -0.1001811433319864, -0.24722384869248532, 0.09837674169995861, 0.16905304536229146, -0.03318018022852189, 0.7325771457528696, 0.1443753523892025, 0.13146768102735573, -0.20713783770182978, 0.10147154799193808, 0.12428862402521798, 0.0770242940182746, 0.014801549386945792, 0.03491227932018272, 0.05068101192636847, 0.20610353179984836, 0.13765209979174217, -0.2373880205429968, 0.07474326541832406, 0.1953987316777723, -0.16910788425065804, 0.5170517120776401, 0.1393076489426607, 0.0361271353195325, 0.17572873659362848, 7.597939841117816E-4, -0.04758459321897044, -0.05917422048258904, -0.212431789022787 ], [ -14.809984435721702, -0.7648092607084008, -0.4433820499380161, -0.1933512035832336, 1.5159263707155204, -0.7765105716510544, 5.378790473954868E-4, -5.485357762301262E-4, 0.00192036868014177, 0.0010386280184457107, 4.746480215098655E-4, 0.8459746391668386, -0.39727118571687586, -0.46361465441525185, 1.4571273482596379, 0.8720697162590487, -0.39006703721397085, -0.3239291416270258, 1.8892784070813975, 1.5076887771401177, -0.3810754204915566, 1.4634051894579503, 0.910634119020522, 0.8766122605779686, 0.6735951152235471, -0.08905279563903247, 0.13928791529455653, -0.4888143264413224, -0.19678926558816603, -1.305329862478537, -0.964292932571542, -0.5720410184942817, -0.22516889431925746, 1.2913471052439853, 0.20754780949583285, 0.8377675672026436, 0.13720747693688087, 1.4004932866362603, 0.9174591976723857, 0.819756387621068, 0.6717364655958922, 1.5930808847074482, 1.6317404044254713, -2.1113283020182192E-4, -0.24141661803317865, 0.11574810413935406, 0.48046494974635795 ], [ -0.12617977964930957, 0.005389751578006506, -0.010927613284392767, 0.010602207442150019, -0.008539302192768551, 0.0057091253651144255, 1.7310863499280044E-4, 1.6376869997078208E-4, -3.050198826189288E-4, -8.152498456634532E-4, 1.1376822940983157E-4, -0.003245929419305539, -0.01665749770294307, 0.0026634468844320735, -0.008541924200812255, -0.004307429246291085, 0.012982302506084908, 0.01490136924282508, 0.03991555869451709, 0.004152421259845882, 0.01164469873726899, -0.016791579597388646, -0.01905764818213037, -0.00495732234991139, -0.01835514641763378, -0.020877863494483534, -0.019736086796167503, -0.021410648521554523, -0.02196417915430149, -0.0035776757476466588, -0.01061369531200086, -0.005433975657166088, -0.007487334016772267, -0.00950015299429552, 0.0035325084239930123, 0.008514545005142853, 0.004101615137342457, -0.014274519913598079, -0.01586858528265308, -0.004527844335269199, -0.015896925658601183, 0.012373476062272107, 0.002013337853577493, 0.0018016184858318243, 0.008421210113254023, 0.0036648123410709947, 0.013438833544292041 ], [ 35.78400152015036, 0.006550146333120371, 0.04001050336207902, 0.15534215458709194, -0.10967882433764366, -0.1322495212217719, 4.1927342905262265E-4, 0.0013752096459513916, 9.444386183909734E-4, -0.002321282420003947, -3.3530105716849914E-4, 0.21131384636439485, 0.05732964666454213, -0.09424881188222643, 0.08068315299894419, -0.06450565029661155, 0.09813884387509411, 0.11207241174507966, -0.10130904388981332, -0.25010404216350646, 0.09658665764503731, 0.16957674114707486, -0.03304746527460703, 0.7351704387534366, 0.1436887058632579, 0.13029916366896038, -0.20620181967292295, 0.10263988755900673, 0.12721015289383475, 0.07703970515716539, 0.014094229022699781, 0.03263964913811356, 0.052019408571918016, 0.20510448087623298, 0.13935496640030098, -0.23753031826063914, 0.07610636095218701, 0.19794084273755397, -0.16802607071410144, 0.5198795885165048, 0.14149859464068473, 0.03477302738007657, 0.1764976127360617, 8.269149660918633E-5, -0.04867434836091248, -0.05891167430427158, -0.21075169438436098 ], [ 35.7774942569475, 0.008803260126354538, 0.038623153849748314, 0.15894371517554134, -0.11286003414551714, -0.13108584911651247, 1.8681948622034943E-4, -0.0010075778152327341, 0.0014337109406973086, -0.0011206479061577105, -8.935046080962198E-4, 0.20841483146297388, 0.05682370485701583, -0.0922668179769742, 0.07909886613467425, -0.06578340568285547, 0.10254499270952082, 0.11180993327757424, -0.10024094898181797, -0.2465939788339868, 0.10257964758015362, 0.1683702561361484, -0.03397486097120662, 0.7331067241849332, 0.14116442679108995, 0.1291151044747942, -0.20763976765867292, 0.1019658305723155, 0.1260497186672719, 0.07865470057778173, 0.015501475675476965, 0.03403828384171307, 0.05221490500117738, 0.20304271638499505, 0.135442759783301, -0.23471338851790763, 0.0707034379768818, 0.19433065856951984, -0.16983929356610408, 0.5190908224107915, 0.1400727947159353, 0.04009296528387963, 0.176909504523667, 4.338695157360811E-4, -0.05072448862114749, -0.059547347326112776, -0.21459127553035373 ], [ -0.38293719748156363, -0.024708838254257463, -0.023865845789950473, -0.013868213907921192, -0.0033946554242332144, -0.03101220663348399, -0.0019233812775926297, -4.7042809064310663E-4, -3.4503422384177523E-7, 7.338713388066726E-4, 4.5358094313074037E-4, -0.004989537030271848, -0.022502372488119093, -0.017683694875686665, -0.011082152776089023, -0.005680040425545283, 0.01006065736705592, -0.005709620650897925, 0.01917404890470956, 0.07176703702370757, 0.00817769647690724, -0.01098600509667031, -0.020366377220037413, -0.0484388087682987, -0.02392869531883947, -0.009807689440552362, 0.003049159872425219, -0.008917586547159169, -0.008869991783140435, 7.389535367672106E-4, -0.008140163023915218, -0.013706320251587108, -0.005839115504284053, -0.016440911225941993, 0.009735238727375977, 0.019397453712543245, 0.01162913959778133, -0.007968962024705546, -0.023790098585978636, -0.04786986424355296, -0.028795590356325732, 0.05824861776696025, 0.05716240708589717, -1.4779074020945606E-4, -0.00591657825598946, -0.016961961926107164, -0.014258751884456874 ], [ -0.3603253463441556, -0.03838824536115665, -0.024411418143767818, 0.014691536554311421, 0.016351986547821242, -0.04379486791575727, -6.257241653220342E-4, 0.00223411840283985, 7.436758350673249E-4, -5.37539145254494E-4, 8.400786581492122E-4, 0.009385041299389222, -0.026276155860298155, 0.006075726663121175, 0.008140716166579421, 0.006704919383683488, -0.0074457762036837785, -0.010755336831357112, 0.04752196111891721, 0.06331326727630693, -0.007495122112028339, 0.001938200248860733, 2.0931132898222254E-4, -0.03585661318997914, -0.007253834190750699, -0.012800978998329165, -0.003990244530205437, -0.01744998030876043, -0.01316343947235584, 0.014277807629664135, 0.008664106859450795, 8.552144562697609E-4, 0.01537430120477443, 0.005144346791246175, 0.013193729168479886, 0.01671728372729985, 0.015421636060212827, 0.0036517076445924555, -0.004534557152723746, -0.03652669164152436, -0.011193037486500208, 0.06524063577133173, 0.053304323078725346, -5.75020123755354E-4, 0.013475472919980459, 0.008956430085088335, 0.004394474614867046 ], [ 35.788492028637215, 0.002305371168320648, 0.0373424080652902, 0.1515814169379266, -0.10797578909410152, -0.136556730338564, 0.0016440152383509668, -6.217283634605527E-4, -8.148002877563075E-4, -2.796060016017604E-4, -3.804611689542401E-5, 0.20955145201922523, 0.05474912653469557, -0.10020177545629372, 0.08168293949700263, -0.06613207131517006, 0.0968607137670507, 0.10615836418526535, -0.10357608068290405, -0.24887490943387197, 0.094861707405918, 0.16547658404988821, -0.03477959973288953, 0.7287299872337958, 0.14097188896782362, 0.13410048544384706, -0.20735670616342808, 0.09869647405981387, 0.12429942809029335, 0.07167088355418258, 0.007495280353631502, 0.02808942055725915, 0.04544546864261798, 0.20924260858750787, 0.14096652148376382, -0.2358368786829613, 0.07757213047983684, 0.19125616475012616, -0.17126089504763717, 0.5148819155301072, 0.13724789333122056, 0.031578557223699594, 0.17955766864036116, -0.0013101369144906318, -0.048481111425773465, -0.058428571337571636, -0.20896193511557723 ], [ -0.004470392768982316, -0.007953619573405705, -6.623110626459249E-4, -7.626323536588511E-4, -0.012706349768652021, -0.00836701926248723, -0.0013600322004256806, -3.8897555405765003E-4, -1.773130752927577E-4, 5.638296710385837E-4, 0.0012723894717668251, -0.005208219064869259, -8.912014520332134E-4, -0.006825912297027421, -0.01160400683788331, -0.00573508671903972, -0.005958372218651143, 0.0034004489506777296, -5.419799317268705E-4, 0.0018985106336990222, -0.005440248444627065, -0.002491982520535159, 0.001839052457139341, -9.149314015152269E-4, 3.2965921300175485E-4, 0.0034136555677281907, -0.003128129048350299, -0.0067188462536632776, -0.005999835305491838, -0.008773816446647879, -0.00846446690648066, -0.00967422052726793, -0.007791943772544644, -0.009605965988277697, 2.5410457372374246E-4, -0.002043475516086622, 0.0023798632413792233, -0.0032266578692756063, -3.609989831622322E-4, -0.002998306520149911, 4.1969808012599994E-4, -0.0037279910933198214, 0.003641467840729841, -5.574222921994312E-4, 6.74200156809806E-4, -0.01059037007838471, -0.01002595398612897 ], [ 35.78068239677321, 0.004814279852031468, 0.04115282892629788, 0.15587381436625677, -0.11009303261262202, -0.13081019482304013, -1.6227537977919401E-4, -2.389151775121504E-4, 0.001503475956509372, -1.3582530231735852E-4, -9.94249219840934E-4, 0.2119235943349698, 0.05919854433850273, -0.09523667682390713, 0.08145735779441546, -0.06229851088546813, 0.09755504719680104, 0.11385298123678704, -0.09824454024359756, -0.25122297338481364, 0.09752683600525866, 0.17127591950945292, -0.031223530023666148, 0.734187604965437, 0.1451945238978051, 0.13176815194236535, -0.20470457410758752, 0.10313688154526057, 0.12896523622782977, 0.0758118550663074, 0.012235805750336642, 0.03266845629907175, 0.0500981746558122, 0.20738244185225257, 0.1415205428683806, -0.23619628497353448, 0.07615914107274219, 0.19719474301849968, -0.16767825868615352, 0.5201800279835066, 0.14243749056756766, 0.03355200807529149, 0.17403373624852916, 6.21276026037727E-4, -0.04909948295848491, -0.05738302664292057, -0.20750441080575988 ] ], [ [ -35.716247976759256, 0.7834329311470177, -0.004077031678167405, 0.0023262341932193823, -0.23391865848455476, -0.006278666521914471, -0.23533463594650164, 0.5955673260609629, -0.0016243541961570805, -0.23728478854782273, -0.2367452726165927, 0.03013127409351826, -0.01234189154510136, -0.23251772072538116, -0.001034916460880677, -0.23656961576272084 ] ], [ [ 35.3825924178132, -0.3012703178936893 ] ] ]
}