{
  "config" : {
    "algorithm" : "ListNet",
    "numIterations" : 1000,
    "batchSize" : 0,
    "verbose" : true,
    "nomodel" : false,
    "params" : {
      "regularization" : {
        "rate" : 0.01,
        "regularizer" : "L2"
      },
      "layers" : [ {
        "activator" : "Identity",
        "num" : 1
      } ],
      "optimizer" : "adam",
      "learningRate" : 0.001,
      "weightInit" : "xavier"
    },
    "dataSet" : {
      "training" : "../../../MQ2008/Fold2/train.txt",
      "validation" : "../../../MQ2008/Fold2/vali.txt",
      "test" : "../../../MQ2008/Fold2/test.txt"
    },
    "model" : {
      "format" : "json",
      "file" : "../../../MQ2008/Fold2/models/ltr4l_29.json"
    },
    "evaluation" : {
      "evaluator" : "NDCG",
      "params" : {
        "k" : 10
      }
    },
    "report" : {
      "format" : "csv",
      "file" : "../../../MQ2008/Fold2/reports/ltr4l-report_29.csv"
    }
  },
  "weights" : [ [ [ 93.33687124492987, 0.06165587268658333, 0.05098753107526377, 0.22194982372146665, -0.197767381877687, -0.20643905154530634, -2.042280124466989E-4, -9.442644126898517E-5, 2.218676659106529E-4, 1.291871639381623E-4, 1.0955147966438507E-4, 0.3666175410664894, 0.07239446128676127, -0.16285711284034374, 0.020347203455450248, -0.26235702475939465, 0.07306432859269993, 0.12900464214095117, -0.1519738020185909, -0.3075952535492957, 0.07578342303666287, 0.11513929803227925, -0.06304561238782762, 0.9025356364175879, 0.15199762575068393, 0.17143114827611108, -0.2615053129928058, 0.12372420347607671, 0.16136017921814672, 0.1352156891250227, -0.02362979168652619, 0.08153067794287072, 0.05406085932934719, 0.32464442746897654, 0.20195630337925974, -0.3575600495019051, 0.08359905963591849, 0.28505687465366103, -0.27990309398068436, 0.5439669436117834, 0.22776888070016998, 0.036396782497500765, 0.15234356675966204, -9.739410049529635E-5, -0.06432006407796319, -0.062114976028972875, -0.2509378288665611 ] ], [ [ 93.34872801800208, 0.3835113927582795 ] ] ]
}