{
  "config" : {
    "algorithm" : "ListNet",
    "numIterations" : 100,
    "batchSize" : 0,
    "verbose" : true,
    "nomodel" : false,
    "params" : {
      "regularization" : {
        "rate" : 0.01,
        "regularizer" : "L2"
      },
      "layers" : [ {
        "activator" : "ReLu",
        "num" : 15
      }, {
        "activator" : "Sigmoid",
        "num" : 1
      } ],
      "optimizer" : "adam",
      "learningRate" : 0.001,
      "weightInit" : "xavier"
    },
    "dataSet" : {
      "training" : "../../../MQ2008/Fold2/train.txt",
      "validation" : "../../../MQ2008/Fold2/vali.txt",
      "test" : "../../../MQ2008/Fold2/test.txt"
    },
    "model" : {
      "format" : "json",
      "file" : "../../../MQ2008/Fold2/models/ltr4l_59.json"
    },
    "evaluation" : {
      "evaluator" : "NDCG",
      "params" : {
        "k" : 10
      }
    },
    "report" : {
      "format" : "csv",
      "file" : "../../../MQ2008/Fold2/reports/ltr4l-report_59.csv"
    }
  },
  "weights" : [ [ [ 7.678778728612285, -0.3527198939472421, 0.6751092074216885, -0.03159871885321126, -0.33404890886148114, -0.30106981293809454, -0.0016526482000214936, 0.0010674284710516808, -6.472056423994566E-4, -3.068007844205891E-4, 6.993468227637134E-4, -0.05064415308050149, 0.710458572168233, 0.3238952937727811, -0.3214018003815015, -0.04280228249784352, -1.0196266580415105, -0.14442062007883438, -1.9786697772895205, -1.7647524297140464, -1.0228756729449542, -0.21627068572323496, 0.12244424564490249, 0.4381778038997908, 0.04498106997978292, 0.5041033683711569, 1.6935898921172319, 1.4252404089677597, 0.40492599946583685, 0.28621033992721595, 0.9344792549665502, 0.3824522824997087, 0.7671843798897315, -0.2345080365258281, -0.3939275872173431, -0.5492173153316702, -0.42859922843735954, -0.2550782355258108, 0.12721978914169121, 0.47127833043761364, 0.02277166623601285, -1.524990076528133, -1.6371339987039697, 4.462679854812787E-4, 0.11193046954083177, -0.8406630776101098, -1.1398807389063037 ], [ 7.685726455810557, -0.3822275452980145, 0.6936109990013415, -0.07088746260850899, -0.3345380278291272, -0.33287762223957146, 1.4289385520528962E-4, 1.8700030873293778E-4, 9.748853911949099E-4, 0.002078473982532707, 2.2666124253269753E-4, -0.06046227383021479, 0.7116098928587619, 0.27803358787488236, -0.3225143029175209, -0.05261913434730182, -1.0492860669129336, -0.12277610828235215, -1.9264571481270771, -1.73535820814866, -1.0540290586691652, -0.20630422625416936, 0.1397123086334759, 0.4464457122541465, 0.05448457500181937, 0.5013413397320042, 1.6978129017391583, 1.4293381267427105, 0.34429814247978774, 0.23619050476047507, 0.9457519049613605, 0.31003884429953804, 0.7685689000054995, -0.23769735053245658, -0.38928294761323906, -0.5438803375773145, -0.42508291425695777, -0.24299023799324404, 0.1508903732012536, 0.4781031666938458, 0.044468476040736435, -1.5130329307876662, -1.6259021089938694, -0.0016877028712585418, 0.14687324887758033, -0.7903230193238222, -1.1207805041881138 ], [ 7.6552757589851606, -0.3656356145956577, 0.6946288574030368, -0.08368938017375731, -0.34788156694120614, -0.3143225976116809, 2.3247828887895705E-5, 0.001163524325548872, 8.100006751205149E-4, 0.00118049642683752, -4.6473028590760754E-5, -0.059124777417790195, 0.7245493872658133, 0.29003762447938164, -0.33394186899433936, -0.05145362281730733, -1.0280717323792343, -0.14050918461720183, -1.963700398309208, -1.7376649777477005, -1.0293178058835082, -0.2005577919545885, 0.13047929184592452, 0.43951467841983155, 0.044679883251317914, 0.5194817837130837, 1.6846536548081048, 1.418196939215475, 0.403953218815914, 0.2504625855562773, 0.9214334793481691, 0.35487700270769373, 0.752116722727741, -0.2500666057655822, -0.3965958372167002, -0.5510953423884748, -0.4328941108036975, -0.23744607513349061, 0.13928179804755475, 0.4713498804495409, 0.03413623323802084, -1.5219299778218491, -1.6158351147806405, 3.0822030348605606E-4, 0.11477407321729467, -0.8223924971478342, -1.1239440540636478 ], [ 7.811684061732479, -0.37965596999893414, 0.7110315368494828, -0.21679265317267354, -0.3663979073038235, -0.3294277696780927, 0.0013272577099606997, -1.1196764849044995E-4, 0.0011314560155736336, -2.5259568310228344E-4, -4.519785807015528E-5, -0.04012703644325542, 0.7152315202373063, 0.1722096618263383, -0.3560693749424302, -0.03511457924312389, -1.0479010251871024, -0.06105429048455863, -1.8809785647380923, -1.7275321813968267, -1.05181414070111, -0.17637591045594792, 0.15303487896957357, 0.4618377593653784, 0.05458759378024162, 0.496435985337268, 1.688340510756555, 1.42244647389896, 0.36794909650283986, 0.15096782054092972, 0.9058242564710554, 0.25724853163592337, 0.7462701997462604, -0.27791877755640343, -0.4121105011038188, -0.5638818722480614, -0.45118620324124503, -0.2625211854687657, 0.1651499587806094, 0.49600972708281427, 0.04645352596772926, -1.4941055197369417, -1.64433005129935, -3.6114093602755996E-4, 0.23063828718603316, -0.7311467019603702, -1.106977252734142 ], [ -8.840250547971785, 0.8031885382783485, 0.023236531834798773, 0.4844925837304469, 0.4645203100687905, 0.7246629361754259, -0.002079583761344876, 8.104009218021241E-4, -4.395056646941579E-5, -9.010493218644623E-4, -1.4166298318393978E-4, -0.07478276177468854, 0.10425332874536876, 0.23686344252933292, 0.5191442824587705, -0.11255927350074532, 1.3284186171034564, 0.32179755342754546, 1.9989068920220594, 1.4602659846753903, 1.3254617797073243, 0.3821741305582596, 0.42934763173764234, 0.5498251503265057, 0.45929826622193604, 0.3348197632324929, -1.5138319726120952, -1.3108932254970593, 0.09624271081243144, -0.12971782352727856, -0.6032272871705715, 0.7358812405287186, -0.3834883839909262, 0.40744061878012283, 0.20687273699742392, 0.497534479357635, 0.21612577555957913, 0.44340090814213917, 0.19379754461314047, 0.218137524287922, 0.23915307161731547, 1.4712664869312682, 1.4082538463367222, 3.741510083959171E-4, -0.5066688708814212, 0.668210160798433, 1.3261407326494037 ], [ -0.009172563854247763, -0.005432827953469965, -0.004605990804589763, 0.004882839850679346, 0.001314736428805307, -0.005382054396097305, 5.632131052023476E-4, 2.075781665719009E-4, -6.225703563919439E-4, -0.001744762204998727, 0.001313785830787238, -0.0016608153590587213, -0.004368826248582722, -2.5896843298493414E-4, -6.581718251951571E-4, -0.0012814229378405532, -0.0051139067218265045, -0.009716979959585122, 0.0055951497123737665, -0.003641373173790408, -0.0037120152118703246, -0.012672098869081681, -0.0047438192301723055, -0.004432956497955251, -0.0055753117715926885, -0.005232351714784649, -0.0059941957794564125, -0.010355967417019028, -0.006951894246151105, -0.002654368352480642, -0.011294978915714847, -0.009835460438707285, -0.009535390189657036, -4.8663511094173336E-4, 0.0010222147103994494, 8.352695376011951E-4, 0.0018695284270581183, -0.009783383072548037, -0.005464139490645384, -0.004111646733635255, -0.006673628758440165, -0.007552644122653858, -0.00717011391621236, -1.4013486698952025E-4, -0.007935594818559563, -0.005771875976276627, 0.00965825758609177 ], [ 7.67088426637783, -0.36430467104641373, 0.6903870728375509, -0.11554767336889347, -0.32668962465666707, -0.31529725786850904, -9.566172044041256E-4, 8.424765372046275E-4, 1.3952172565670395E-4, 2.1502449645184078E-4, -0.0015644793400663476, -0.06650627537905446, 0.7226987624557372, 0.2730324749350758, -0.31057203725711763, -0.057870401171025126, -1.0381633982224467, -0.15766756786909006, -1.9410985016798632, -1.7340434683784216, -1.03958143463836, -0.19883485639326512, 0.13528796967989432, 0.4405929455951656, 0.04330044577340115, 0.5196555039181965, 1.6923020777859639, 1.4227101339028574, 0.3725411179238671, 0.23514350377748558, 0.947715801476016, 0.3267387077426878, 0.7826721278347367, -0.2260536350389829, -0.4188015045901392, -0.5743355110455243, -0.457218464824192, -0.235217519533911, 0.14903485453036505, 0.4770982516221034, 0.038034302287443575, -1.5078479411501673, -1.6181591107455005, -2.594789120407394E-4, 0.09309233643057363, -0.8283906828761279, -1.1023971248651114 ], [ 7.674564395745578, -0.3645143274804523, 0.6718633845015203, -0.05677858415120705, -0.32733566480695664, -0.31597560766115224, -2.5640816610924725E-4, 8.962952538125877E-4, 8.000194245803163E-5, 4.233850302467189E-4, -9.14612322941422E-4, -0.066150486047188, 0.7074110692642889, 0.3106063064907843, -0.3156495297857032, -0.06063425081406609, -1.03298116634098, -0.14228165449165725, -1.9632528532861544, -1.7519852335572013, -1.0336377900701499, -0.21796129183791382, 0.12410279295706513, 0.4398113251425596, 0.04249568074126182, 0.5058321572248768, 1.6977187924993367, 1.4245782301304395, 0.36031045790777505, 0.27052902330846584, 0.9554012499658854, 0.3466731635554061, 0.798210098472607, -0.22914005387971956, -0.39869744063515355, -0.5534797905632628, -0.43322825668443193, -0.2603401672952008, 0.131935948473309, 0.4725292687472765, 0.02896354163636473, -1.5131740133929301, -1.6237001839382976, -7.589257992355074E-4, 0.08321665758902577, -0.8437619460258238, -1.1373724987867138 ], [ -8.655881302529618, 0.588268878118551, 0.053187871552382006, 0.5533611312974208, 0.49116559035829327, 0.5096090531283903, -0.0010042539116948512, 2.2314254005855738E-4, 3.205437432683321E-5, 8.761199342805804E-4, 1.1431264899221389E-4, -0.1642691809587095, 0.13093165601961515, 0.30603625304094073, 0.5563299576579596, -0.2007916483130227, 1.131145953787193, 0.33179097406546804, 1.97884092363747, 1.4500452565854254, 1.1294193387350617, 0.36892308718980377, 0.457931873389219, 0.5285737197175974, 0.4458666802923811, 0.37954699454191976, -1.4563359704768655, -1.3132520593642103, 0.1092351310198633, -0.022380898778721892, -0.718293566306827, 0.6025347371714455, -0.4514488743821512, 0.44603346895866536, 0.24570002237785019, 0.5417754845455954, 0.2530707854926097, 0.41262556954234025, 0.20846214487349174, 0.21022915532555525, 0.20991394068797783, 1.4963636551617683, 1.4247721146324985, 0.0013066052695196357, -0.5194126477594617, 0.7200831828703682, 1.24298288723737 ], [ -9.101079078650086, 0.7815491796533208, -0.009097546465264247, 0.5199492189832973, 0.471868320997155, 0.6951182700125818, 2.1356341379864783E-4, 2.3918600517896572E-4, 6.823448810496827E-4, -7.027300969790155E-4, 0.0011892465316192995, -0.079091196559562, 0.05513416576150967, 0.26467593636457204, 0.5210900618305421, -0.11919695634816417, 1.3740923346619622, 0.4420439014188346, 2.1099027752490387, 1.5876298337354133, 1.3734459642362056, 0.36284513404898083, 0.4052762974668239, 0.5227007175480025, 0.4502697347240484, 0.2918013024851778, -1.5281078416840355, -1.3580824679741756, 0.07001448101611871, -0.10040490256061504, -0.6231886776689126, 0.7470734543046023, -0.34786434354618356, 0.410735774005999, 0.2142025079828263, 0.5058281259110952, 0.22066690840732595, 0.41103456098309205, 0.15855427830735908, 0.1864831262251582, 0.2210517522438083, 1.6209809060229834, 1.5438306603445882, 6.102117414651155E-4, -0.44018318232506737, 0.7277954177836078, 1.422827941973254 ], [ -8.987921143068373, 0.8156653198092437, 0.018348581570714232, 0.4694550411434163, 0.456517482697684, 0.7357377389664452, 0.0013337356936436967, 0.0019394920974592292, -2.9163609650729143E-4, 5.048883944130944E-4, -3.558772206417005E-4, -0.09642617557058512, 0.09136833364340297, 0.20924704711225442, 0.5087192046539252, -0.13832525464842915, 1.3997499606133115, 0.39763954344019636, 2.1114587502827575, 1.5163804886555952, 1.3966543260624633, 0.3783016557613811, 0.41603255570638564, 0.5577096658625523, 0.4756676575793533, 0.3270645966986661, -1.5057252132351753, -1.325472774304011, 0.10610812190849711, -0.19989434949528267, -0.615929365013038, 0.7481828841903158, -0.38855578554248826, 0.4051573983361366, 0.2061053591535852, 0.49090813579369225, 0.21577653173891287, 0.43266685766904533, 0.18480068466601673, 0.224961478220635, 0.26201135341529386, 1.5436312788493836, 1.4786766323945393, -0.0010819700442231072, -0.4630810873828977, 0.7104868775869299, 1.4444298952969539 ], [ 7.6423233771282435, -0.3500528313013259, 0.6709507085749241, -0.019487293468068937, -0.3387303827060243, -0.30032704336476834, 1.1437586338033381E-4, -2.7058982481254715E-4, -9.59771812173644E-4, -2.948313283834949E-4, 3.8589873493653716E-4, -0.05269292666580417, 0.7083234976210483, 0.329216505952118, -0.3256415279422224, -0.04348864483462686, -1.0163727381852015, -0.13847974531720642, -1.9734256037376137, -1.7576039554114526, -1.018846325390882, -0.21419863328495117, 0.12005223651684097, 0.4390905826309609, 0.040159411272498814, 0.5038982257220764, 1.6955383414760319, 1.4274326044407606, 0.4057968719054055, 0.2946348466599006, 0.9408596345752731, 0.3926881217198832, 0.7756677159525129, -0.24565151837771843, -0.36091605679719846, -0.5185039314245693, -0.39859073963122005, -0.250072140625422, 0.12763484298932976, 0.47175672832702115, 0.022552485465122517, -1.5236148773220906, -1.6309863866025809, 0.001105314693802794, 0.10678746070460013, -0.8351998384907275, -1.1478686972167038 ], [ -8.97619471089383, 0.7818794900194537, 0.018916475204639037, 0.47781025824249723, 0.45310476380841785, 0.7044357947224398, 9.840573612211066E-4, -5.260653231176673E-4, -1.3558378794172716E-4, -3.7304442460936693E-4, -0.0011276216207249123, -0.09305805282993848, 0.0930426862153176, 0.21787987293901753, 0.5039973450967009, -0.131006037354701, 1.3382217939641239, 0.38493054748244804, 2.068789454219403, 1.5082822101146092, 1.336698547365806, 0.39507651146687917, 0.43819621690058075, 0.5657047849406517, 0.474281780630716, 0.32054100762557464, -1.503768630779096, -1.3209562245500948, 0.10961025883925118, -0.16066111918590878, -0.6210188679569936, 0.731402148411502, -0.3919699122119888, 0.3978366923747472, 0.21035603622737897, 0.49153152020561597, 0.2174930817588566, 0.45114614961801125, 0.1975697593550706, 0.23120068722683784, 0.2548581772206445, 1.5349334015809646, 1.4576607354427458, 2.5486336169156285E-4, -0.5006922954273711, 0.6686839805391162, 1.3527103133513907 ], [ 7.54894393540338, -0.3341774382604656, 0.6746615084963602, -0.024082142866684208, -0.3353316511101061, -0.28245622036269113, -4.1259877011146177E-4, 0.0010015343570316285, 7.318601500903894E-4, 0.0017012735731694424, 6.053788833346411E-4, -0.03396985591499245, 0.7184831085545534, 0.3174000635084107, -0.3203092860574317, -0.027048485885113143, -0.9938865395996435, -0.15349039806667505, -1.9916093963055357, -1.74993939403971, -0.9969956159781369, -0.21283204156667804, 0.12096875456229597, 0.4436161324603189, 0.04410233453639762, 0.5195526401278552, 1.692529375056928, 1.42310316158391, 0.41289234544302833, 0.28510015350218787, 0.9339653770998502, 0.3437639868850814, 0.756389660886689, -0.23514391915069005, -0.36652069069719817, -0.5200015857462569, -0.39899446635378694, -0.24813036806646735, 0.1340090292695651, 0.477211916611797, 0.030106228798592535, -1.5280859405785743, -1.622341809467636, -1.1140763518875974E-4, 0.06157024972584572, -0.8556178945128107, -1.1523168912084958 ], [ -0.006400779672335104, -0.0018149920402947602, -0.0033636646870325755, -0.004560871214297007, -0.001374767667726703, -7.86993264591316E-4, 2.0689416737736737E-4, -0.0020004828698949187, 1.677964778371134E-4, -0.0011353869767367162, -0.001885912123823117, -0.003251354164120497, -0.003666767631429446, 0.0011349694027355957, -0.0012893278620242444, -0.0014745656626043257, -0.0018926925783006097, -0.0065514776269668795, -0.007206143339284018, -0.001423117158356639, -0.00180762779120938, -0.003345593062426289, -0.001390955062307667, -0.00432000600654064, -0.004129724880723579, -0.0025149001234544854, -0.0020822918343009317, -0.004493461292493989, -0.0028241324607455294, -0.0019540483461397886, -5.11641601752758E-4, 4.6491535360777223E-4, -5.87874019263946E-4, -0.0016279471691221098, -0.001646527343480587, 0.0022640699440347554, -0.0014901931943445861, -0.004832282846811458, -0.0022637364450805142, -0.003924418913176797, -0.004188984314305916, -0.001915292589470928, -0.001411237036420068, -7.206838014295619E-4, -0.0017921200122373712, -0.0030767974658968216, -0.004057125073532073 ] ], [ [ -10.321758302359871, -0.9073660658073797, -0.891699180469296, -0.8745630112690663, -0.814003269775314, 0.9018419830872411, 3.2642387126728014, -0.8844324793929554, -0.9283261384252766, 0.8199978914387489, 1.0291580359673653, 1.0728126562299514, -0.9009135842229098, 0.9666974321475856, -0.9740630983306352, 3.296104332220064 ] ], [ [ 35.3825924178132, -0.6836294212272666 ] ] ]
}