{
  "config" : {
    "algorithm" : "ListNet",
    "numIterations" : 500,
    "batchSize" : 0,
    "verbose" : true,
    "nomodel" : false,
    "params" : {
      "regularization" : {
        "regularizer" : "L2",
        "rate" : 0.01
      },
      "learningRate" : 0.075,
      "weightInit" : "xavier",
      "optimizer" : "adam",
      "layers" : [ {
        "num" : 46,
        "activator" : "Identity"
      }, {
        "num" : 1,
        "activator" : "Identity"
      } ]
    },
    "dataSet" : {
      "training" : "../../../MQ2007/Fold5/train.txt",
      "validation" : "../../../MQ2007/Fold5/vali.txt",
      "test" : "../../../MQ2007/Fold5/test.txt"
    },
    "model" : {
      "format" : "json",
      "file" : "../../../MQ2007/Fold5/models/ltr4l_146.json"
    },
    "evaluation" : {
      "evaluator" : "NDCG",
      "params" : {
        "k" : 10
      }
    },
    "report" : {
      "format" : "csv",
      "file" : "../../../MQ2007/Fold5/reports/ltr4l-report_146.csv"
    }
  },
  "weights" : [ [ [ 38.96662667511857, -0.1848759484738437, 0.4780697787738603, 0.018972018321254794, -0.09203747029530686, -0.18305826631647862, 5.605203663275948E-169, -4.725389576855446E-169, 6.816891547194627E-169, -1.7730902419937077E-169, -4.2245628833261625E-169, -0.3826959103030985, 0.45158848556580783, -0.037322784626039295, -0.2945623544280383, -0.44742606776452004, 0.5537589213097248, -0.8689813932961901, -0.3592802056830843, 0.16360328161278404, 0.5458136956236566, -0.08236422163522261, -0.4710337476346731, 0.7746478112575774, -0.13589568729805807, 0.6193183759187232, -0.14361133776006646, 0.5192061681527576, -0.19873026541429348, -0.3703484303327493, 0.2240656352811497, 0.5089813798698218, 0.10508333252357961, -0.1621668173866134, 0.6342927222629087, 0.5977369565992215, 0.4574992864498818, 0.6182886042939214, -0.12712216962007072, 0.9672867399615414, -0.056567712870403984, -0.5948694774385505, -0.5561715186612753, -0.5371869828144278, 0.36834333984990364, 0.3307866182542975, -4.813906040745691E-170 ], [ -45.603607313356775, 0.13093071464321845, 0.5191608264820441, 0.23880774368560498, -0.005537064236525326, 0.23009440706924855, 1.9040125675616152E-169, 3.705813398779453E-170, -4.936117928122183E-169, -4.22696464555423E-171, 2.3510516674268336E-169, -0.044499487043426225, 0.12389547039467996, 0.15018668417712822, 0.030020710141349077, 0.09799469324288382, -0.8447294595408835, 0.4082674017833301, 0.03696746146611873, 0.11124434762778558, -0.8293979558057321, 0.24115302995696555, 0.33388217371141266, -1.2600920219797347, -0.04430150262509435, -0.8390631014808481, 0.09324623222372987, -0.28947861334967584, 0.3823917238246854, 0.3333777031409219, -0.4714180174567376, -0.6691105657852491, -0.23465169572272146, -0.029684058802937955, -0.5539032316279131, -0.34187097155209906, -0.30347744609609106, -0.36530893641729884, 0.07288021913474058, -1.2960440751884483, -0.16561158651524077, 0.02132764446776922, 0.9612128859201381, 0.275672976562686, -0.2768538510130411, -0.26811246106014514, 3.07637287492799E-169 ], [ 21.66005175105118, -0.10549433197452886, 0.3270059303362811, 0.1692235285628463, -0.10447928254751587, -0.0982636051348633, -7.747419551608684E-170, 2.2500080131522437E-169, 3.702687256339207E-169, -3.256337141039809E-169, 1.4638664406125256E-169, -0.3900578061611294, 0.3378558771768837, 0.11851062972802995, -0.3571213913401002, -0.40354039456517754, 0.5909130622889825, -0.8102068985345842, -0.5308399380091534, 0.45808600457586024, 0.5899884585799127, -0.23050811386152256, -0.2967138437128947, 0.13187600936298854, -0.10430390871976152, 0.493020623445838, -0.19388759545924392, 0.45264692595459105, -0.25088120051501034, -0.4378742754604579, 0.06622506904714454, 0.39199288704535384, 0.010366483826629823, -0.23429972656688633, 0.8801275868085803, 0.6400444370708934, 0.6440443462845148, 0.5122953293056104, 0.11248582776856779, 0.4054232929084643, 0.0743697638858785, 0.06955149139929558, -0.5619469160662389, -0.48650848488774945, 0.5288659724238798, 0.2848359342257666, 3.969956545288226E-169 ], [ 43.118503321872694, -0.17172928239073185, -0.4019282560845798, -0.09322692367121621, -0.31592139575739026, -0.3150613503914785, 6.108279329915335E-169, 6.187038673155536E-170, -2.0011244589308986E-169, -3.1871158838562613E-169, 6.09063957393823E-169, 0.0645946074794461, 0.05200782366544611, 0.3023149854977187, -0.37094056966822525, -0.16829038818266512, 0.7122099743159379, 0.3643206624274162, -0.19734535139468254, -0.13907962150002426, 0.7114304171942891, -0.1934086002410219, 0.25639512034246226, 1.8870168256711064, 0.7658802006569586, 0.5703109221940702, -0.10374250767828738, 0.3171349920963168, -0.15994109117986027, 0.4655635579189338, 0.28085574577251265, 0.2954327669141163, -0.018929184771256446, -0.3972572720467585, 0.5825186342052184, 0.3128438327700147, 0.37756293556131687, 0.4226006860266774, 0.6776695003974973, 1.823548883472822, 1.0486339520298396, -0.4132261182634829, -0.8899325344067516, -0.35323264686410666, 0.29304085772326716, 0.36979717431749426, 3.2835069503927896E-169 ], [ -36.353316184787474, 0.0722195255680394, 0.3371528733428562, 0.15545359834448275, -0.11045239225907424, 0.08257703743199733, 1.3308747308979394E-169, 2.3342676083131733E-169, -2.0447851454434114E-170, -1.900776133477534E-169, 1.4139051394689932E-169, -0.2924247330994856, 0.29948885351431337, -0.04953425995252348, -0.09494772460926904, -0.20184163772645358, -0.32811146833948485, -0.08986046866166583, 0.6330852718675194, 0.4229787444061936, -0.308598816269633, -0.517114322684351, 0.40312296107496715, -1.6544942260217166, 0.05315862101939922, -0.18999555609201638, -0.26543220631446557, 0.2794332433111189, -0.4081044117176434, -0.3919135888306025, -0.3720242915196874, -0.14591760933217585, -0.39639945021542944, 0.10818993581263947, 0.3643108333366515, 0.0032699880540165392, 0.3276403446746979, -0.18554246729189836, 0.6113409872920624, -1.1455427853200555, 0.033189402176618414, 0.30343577506492053, 0.10531484131397885, 0.8127337493922766, 0.12458354591925558, 0.2680463626193893, -2.9223657271986754E-170 ], [ -24.558191727473396, -0.22392867757578433, 1.164480967908624, 0.42972978552373897, -0.5610172573588958, -0.19528620957126966, 1.2608490034310925E-169, 3.9341081221159855E-170, -1.0615572361338516E-169, -4.8258330036214574E-169, -1.5309385551760328E-169, -0.34666374167913905, 0.8364842828575376, 0.35108819493795285, -0.6570946931885918, -0.3070784551618385, 0.05790223154260869, 0.41964797413980964, -0.282722394808661, 1.1184261998358056, 0.0723383378999382, -0.41618312363260856, 0.20697759146021652, -1.2115880143528017, 0.38054848353624116, -0.2658332131550409, 0.039514525572042415, 0.0976245506092405, 0.120781263657669, -0.024666244322244575, -0.3050312101600845, 0.07117797251237566, -0.24176323871075955, -0.5835975878434836, -0.0609745992041493, 0.06971476253090429, -0.11602998320780918, 0.10325400887497553, 0.3744172041672956, -0.9183411222443002, 0.2282471878269358, -0.142301300371084, 0.19332050446382723, -0.10374422133905813, 0.4878006566507672, -0.14006923967444787, 3.7700558445209004E-169 ], [ 10.105421200251566, -0.3119938242133524, 0.7266264578745428, 0.6486499497611428, 0.13642519202119097, -0.31405942776575746, 2.3862199128166687E-169, 4.2250988200719624E-169, 7.452657792678282E-170, 5.0896948365578546E-170, 3.2716828398859064E-170, -0.27583878550553026, 0.46091944610926167, 0.49515496057012925, 0.3003025383067144, -0.30970620717612374, 0.019079372409572398, 0.6264796541942063, -0.37789478877548416, 1.0322711556732724, 0.020716405304201796, -0.002011353145902628, -0.39417654798977964, 0.07564503682540205, -0.260241877536775, -0.4005834976845798, -0.2382715112731473, -0.13145361627149704, -0.14799697019245264, -0.47790334265200385, -0.22348359324532704, -0.23792427794131463, -0.10349695564443238, 0.37070820331087423, 0.05527232902260815, 0.2849464667182097, -0.08506460807998852, 0.06491073972203229, -0.16100366757035653, 0.2727982890876459, -0.17987863614294683, -0.8027245992271904, -0.9017208696972544, -0.48313924252830426, 0.7986403532525688, 0.12301454698166371, -1.5969333338124614E-169 ], [ -36.17173067711384, 0.12912352279735698, 0.145878674898294, 0.00788025524819812, 0.028324411641871695, 0.14349246048960898, -5.373517514887472E-170, 5.65613772033404E-170, 7.163878379709252E-169, -5.200157437719659E-169, -1.9337842660165233E-169, 0.3101078628770777, 0.0012619628186802485, 0.13814802941174656, 0.30221987816569285, 0.3678888591597884, -0.7018035735334537, 0.1989009611894024, 1.3333792661080957, -0.5278045408609761, -0.6885789275353569, -0.06850260006658408, 0.3596478997414174, -1.1568361700032839, 0.09267721443537344, -0.5441528919047486, 0.04928403158317921, -0.7923046015440572, 0.20215159521907156, 0.08152057118045986, -0.3588042842178668, -0.71926557422333, -0.2583534612018581, 0.09317574623434018, -0.46536307341285277, -0.3170128756158875, -0.2836412793517068, -0.6576822925684122, -0.004385388578924558, -1.2065219057554508, -0.2680829446565871, 0.0056659716579700965, 0.47826475632165805, 0.9121176204666809, -0.7348408848731356, -0.11755687158331835, -4.3417502697945195E-169 ], [ -7.742055929446874, 0.07973980573387462, -0.014295691013097772, -0.11298487634815595, 0.30631592561728554, 0.10813911475249903, -1.9113247164804562E-169, -1.6566528023103346E-169, 2.732717672721954E-169, 2.8849135526939744E-169, 1.811409559584028E-169, 0.5081615631287831, 0.3429005674653994, 0.08359351828276392, 0.39924147475960653, 0.5258569914875469, -0.4756954566894698, -7.477661396224848E-4, 1.1357253209739626, -1.5209761186304211, -0.47875121536546617, 0.28320816697790163, 0.1533507892829378, -0.1749199551756046, -0.06142149463447988, -0.4629342382603724, 0.07694576844809471, 0.07508908073038596, 0.18426942820171763, 0.13105374384310375, -0.11703665460362507, -0.34984259525526096, -0.28152364292383564, 0.4899917884004157, -0.6423098157844389, -0.38257094539361886, -0.5697776465678678, -0.12591241053701424, -0.09006481540753417, -0.21399857556437835, -0.13197812650128696, -0.347187032980364, 0.4697285368744445, 0.8936117408111883, -0.5638987693128591, -0.7051131855991591, -3.365151969273477E-170 ], [ -6.468242669648374, -0.036747449456803985, 0.2823904813578223, 0.24159612697461236, 0.06574693304178304, 0.012443596611388684, 8.261007197332735E-169, -1.981402101429627E-170, 3.1283486150824465E-169, -2.8712643389049224E-169, -2.416457410607569E-169, -0.21643519079964557, 0.3438823060414453, 0.15917630385678275, -0.16880691307498433, -0.1552619549308509, 0.4546290010021414, -0.4046326041807941, -0.44948390817503214, 0.4266251440824557, 0.4569433191730731, -0.5437576704919153, 0.04904552650216123, -0.811554612507131, 0.06112713634471781, -0.0012464294892696479, -0.2791943644464456, 0.2431008373505628, -0.22754752862106584, -0.384468445635208, -0.08347730380687832, 0.22543637979958098, -0.11877868828679593, 0.02235689535749656, 0.5917461154668681, 0.2117214448635051, 0.544612935276759, 0.13910899496533316, 0.40956812569324624, -0.34852123794559814, 0.17167161062479733, 0.4180579407398668, -0.5743235879979576, -0.5173064772138333, 0.6074050796718997, 0.2453593112505016, -1.8466957232549574E-169 ], [ 38.47944412231815, 0.15439397313297165, -0.18563598405506698, 0.15076266831636986, 0.5309639310539146, 0.15974377190926947, -6.676244683721172E-169, 2.7407439275828694E-169, 2.8774849316383643E-169, 2.4837235366119612E-169, 2.799813305789726E-169, 0.7011343742889489, 0.19259979870938462, 0.34051081113795656, 0.6610962423142889, 0.6534515446334345, -0.3193004618312675, 1.1860753919795712, 0.5064250832634607, -1.111213093914783, -0.3230981428335278, 0.5777846809217921, -0.2265625282380667, 1.5263588337070417, 0.027637414337741747, -0.2834515177314403, -0.12363243902244847, 0.14502997521860697, -0.0538377145972389, 0.44717704179451917, 0.08904589239362469, -0.4921062567518815, 0.07135620835395211, 0.6126770314386807, -0.3854188920630147, -0.3627577724328479, -0.5956436573128931, 0.04507197055332417, -0.22591158838762537, 1.3515698200381683, 0.29164640932231684, 0.05835204742228343, 0.3733430702682205, 0.4582825036014049, -0.25694112464635804, -0.7862062475475581, -5.516592168115496E-170 ], [ -16.17881161070382, -0.4652579205439305, 0.4277447217045559, -0.03269067596419328, -0.1474782481136683, -0.4983567109052101, 6.225050129420342E-169, -2.0017671076032758E-169, -2.5756705547936916E-169, -3.2600464468143603E-169, -1.3620109191661096E-169, 0.29883376262771033, 0.36911481027112364, 0.11343598582769418, -0.07428435874739339, 0.24100907342408145, 0.0528661285213174, 0.47570244056464683, -0.573505284976007, 0.9343237088611952, 0.062038804852144275, -0.2486225571660207, 0.09340431602644704, -0.7967740208699412, 0.05382500824648896, -0.14140643927200905, -0.15393070837882594, -0.5246865839956459, -0.07184119712512031, 0.22338832130503097, 0.08780861380175553, 0.0041489801221171255, 0.048160748307701916, -0.06196448047415193, -0.41989877393845015, -0.376292556324034, -0.4362891659007704, 0.0029363842257572473, 0.15437044661358554, -0.5917273599470787, -0.039468050211154584, -0.10535155445927168, -0.9823430584091524, 0.3669556080874713, -0.11995512500559875, 0.15603011854823853, -1.7824263339480415E-169 ], [ -34.42454780498993, 0.03682756986623098, 0.1149727522145593, 0.2908591432443798, 0.16872444512048668, 0.07854245281173489, -2.076479140156472E-170, 2.4438266199337616E-169, 1.0827929453750801E-169, -1.412855951647182E-169, 6.74478042955915E-170, -0.20854113768555324, 0.10214634621204552, 0.15390809312399137, 0.050497790875637265, -0.10560465615100405, 0.09869474033786436, -0.18847538942868575, -0.4965639514577047, 0.8199606195045348, 0.11630915400960508, -0.514998994541913, 0.3589743767157363, -1.7181902299136842, 0.08547351618841784, -0.549186253018217, -0.22564471140780998, -9.933192380244336E-4, -0.016792933473715826, -0.41038052511109957, -0.23447282530197322, -0.06378830913491991, -0.20420423970046858, 0.13830626016090905, 0.4390495045517595, 0.013742147919488914, 0.42553692402237026, -0.08513004089699158, 0.6856315446185459, -1.1759519077157983, 0.21850656206962468, 0.9023720495115629, -0.700070133537421, -0.2805569765618599, 0.593676481061693, 0.5035011501776333, 1.0645291517752794E-169 ], [ 22.05296834966749, 0.05487581033173177, -0.9220044303816571, -0.1801440197880876, 0.2504857394337537, -0.04490644028985184, -6.727072680534068E-170, 1.9528819624747338E-171, 2.0791857536432595E-170, 2.7258887800954305E-169, -1.7248376161593265E-169, -0.1549397098033025, -0.8956222402822673, -0.24730539286519285, 0.2673664092625177, -0.2478691961244135, 0.060957418311022575, 0.18657796240938418, -0.9638717455236933, -0.13349539812280414, 0.05690437770574167, -0.0812330117692359, -0.18186421504978326, 0.9281608966187262, -0.05973449094330315, 0.42310633575716106, -0.1001006382633951, -0.32211002732207505, -0.06031485974058529, 0.11822448047782895, 0.318311800629265, -0.02155191811639051, 0.2830244799237327, 0.21378849420575002, 0.5857581185459816, 0.34827223322210304, 0.6094342644800839, -0.21795375947923903, -0.0024001810842368613, 0.8764951302628303, 0.2280347122649156, -0.28307486757983336, -0.5575825227704676, -1.0154417823864128, -0.28101733521705546, 0.739127418220715, -1.4009687353719906E-170 ], [ 15.265823774850409, 0.47687985264940913, -0.9837930566288325, 0.03818238390971339, 0.3168559427471893, 0.4792750550606052, 1.0609483339053942E-169, 3.494787637010316E-169, -1.5114516578419193E-169, -1.5893561274609793E-169, 3.1146907752619844E-169, 0.5536837977669564, -0.5476661024670011, 0.16095954787734668, 0.22138544333948756, 0.5560393287078854, -0.18800116086841726, 0.08653152864181358, 0.2501374543243336, -0.7553837598838022, -0.1904689967745858, 0.06570059523154716, -0.11679193487676884, 0.7146494660641595, -0.10405286613742983, -0.04636137871165325, -0.1845918480923455, 0.0023696656431012627, -0.1694555718377865, 0.11261124491849962, -0.001828409613413324, -0.15250329318197126, -0.05978981140672633, 0.3997178585754283, 0.1653644916873063, -0.22604459189330134, 0.21324002443128418, -0.30980047995613114, -0.08514448223899204, 0.42678184105456424, 0.11016985041798964, 0.20185228133402341, 0.055880604438802, 0.16767195757381584, -0.2730349793782098, 0.23850560431637888, -1.7858009394598117E-169 ], [ 13.722344745142534, 0.022327195119105366, -0.2228074108448567, -0.06623099855044169, -0.059017964373458416, 0.011354016740276987, 2.6147098853127626E-169, -2.007407329703578E-169, -1.1651077818412519E-171, -4.6636990880041295E-169, -1.2261452244333814E-169, -0.03579939373763587, -0.2689320849664121, 0.10860116600896627, -0.041516604210977075, -0.025417530341893244, -0.04331292613128203, 0.16565028537676502, -0.6949349026506844, 0.12461433169391316, -0.0402076651718261, 0.4147223695108003, -0.1543092088552371, 0.8859394184288919, 0.14905845337155824, 0.00885225512298633, 0.1898076627291785, -0.04377838884777484, 0.2763827481173012, 0.6054490981493951, 0.04472881000161208, -0.10766358771989465, 0.0671009127806961, -0.2852689980937775, -0.04973115604698727, -0.04929005643330584, 0.014677170510700855, -0.18888535729944467, -0.4841297669207766, 0.36672018215569724, 0.15168201583307092, -0.24594519037498838, 0.4519923857933779, -0.7864536638575229, -0.30812956121061114, 0.19060180645777608, -2.4157995145817167E-169 ], [ 45.362929669264254, 0.36970887997420643, -1.053419504155767, -0.10805955712978076, 0.06852340528584952, 0.3390582581589448, 4.0145340064975815E-169, -1.1314996661797067E-169, 3.509580644613331E-169, -2.5995722080623767E-169, 7.987103119638624E-170, 0.3112907400273437, -0.612857474198648, 0.07694337015309832, -0.08558209021161531, 0.2551983423672012, 0.4341774441913999, 0.1464659598589385, -0.04542783436770968, -1.3104901938618638, 0.4197273469710802, 0.3225309695130029, -0.1407772127375294, 1.7356973301670988, 0.01116857515085839, 0.5384921880782317, -0.0013637285187810633, 0.21594734378155997, -0.07955404655807266, 0.384131499697646, 0.18542124788049527, 0.052885501169119734, 0.07671842803389732, -0.11011881499035417, 0.48287983130037593, 0.25570673047912373, 0.4564650985087571, 0.17310050454311499, -0.12852981235107966, 1.3340473754549311, 0.20515164207906283, 0.10765259674790942, 0.45577137559927644, -0.2173157612622354, -0.17264293496094418, -0.15216499884878049, 1.0250417972631109E-169 ], [ 34.68319130329631, 0.4602863029988762, -0.9418261891908607, -0.1390234003837984, 0.4337679405155885, 0.43610102992919253, 1.53093250682602E-169, 2.055818642273451E-169, 3.43001251706886E-169, -3.9124993405912145E-169, 2.5293181094207778E-169, 0.4970604780881745, -0.3549138152024294, 0.025655845923739273, 0.35424087828708006, 0.4622409072074538, 0.019569170084424367, -0.3663918324866741, 0.36689288109743856, -1.4940030139076943, 0.015323329185736922, 0.421518022190297, -0.12420766709713962, 1.3235145906755441, -0.14401303807915944, 0.3254479774989124, 0.034610942438534624, 0.28703794220203704, -0.07986011798770361, 0.19059450630650682, 0.15950409600270843, 0.011236611496430213, 0.04300379897661189, 0.37714836057192463, 0.04126233764062421, -0.17088181987358364, 0.06402499281223535, 0.15710238296852846, -0.11545342484343163, 1.1145410658475008, 0.043726983208211875, 0.3197108635316689, 0.37788738730756455, 0.2582168335359884, -0.5834418301537471, -0.34900595713075283, 1.5769702615102863E-169 ], [ 26.460166313150037, 0.5438922774151264, -0.4340360800779842, 0.1836643875746102, 0.8447795206536459, 0.4211750078173203, 1.9170527776221437E-169, -1.9820251189356837E-169, -1.135589167667062E-170, -2.2417432784170725E-169, 1.2095862761383456E-169, 0.6351708191433824, -0.031224625357730008, 0.35799529762966137, 0.8420788553078464, 0.5377111805210024, 0.4920491726037938, 1.7625151218726192, 0.6718689934971572, -1.2444830072684006, 0.49891843155998195, -0.07345145509193993, 0.18387661953790854, 0.6832488232199088, 0.13158271704413216, -0.06482788308677595, -0.3546031358962639, 0.02577079961457119, -0.32937587037759547, -0.06407314478027804, -0.08288945913065565, 0.026940376151895675, -0.3230799208774384, 0.8967900633324326, 0.09015315398131984, -0.21603277340630694, -0.15109508990420006, -0.004249836917980759, 0.6794163282724358, 0.8606190217212478, 0.6629426353729945, 0.05105466670017775, 0.07770019987996109, 1.4220128234414164, 0.32109976516240496, -0.7303217183870572, 1.1991218396790017E-169 ], [ -27.53152670172744, -0.08892771571034332, 0.2905482490873576, 0.12944600624152383, 0.24835424031900039, -0.10688830563789663, -2.0383172824901893E-169, 1.3531420295386818E-169, 1.514212671387192E-170, -4.6109134722821876E-170, 5.098622205342915E-170, -0.057767508516775985, 0.1897857489400487, -0.03364595569317045, 0.17467460896209835, -0.006602945167819498, 0.047648101403041696, 0.5753918075692194, 0.12242115844585476, 0.39843440337628194, 0.061839550557832655, -0.4393471802419612, 0.37223778671531604, -1.2659165028638846, 0.06831548229386993, -0.41337636714960446, -0.21072470236921376, -0.025052104205509736, -0.14995091441623562, -0.38046461077993854, -0.21257307086528388, 0.031555046644608474, -0.23758970999302934, 0.36341080599237946, 0.08350621968448473, -0.3847161157160953, 0.0836756303045249, -0.20933900319596274, 0.5692620081855297, -0.7953393732524178, 0.14255883528902336, 0.4451194000402744, -0.3480844039814682, 0.5167100772027661, 0.8653102742691771, 0.08805744446746673, -8.346987512339307E-171 ], [ 4.221802809496795, -0.2858984314633445, 0.5375119672271258, 0.10804063881300943, -0.28942723478355786, -0.3224514697893621, -2.2304418178914194E-170, -2.9637083654359965E-169, -4.017888734541467E-169, -3.0369994688895785E-169, 2.0305488515929023E-169, -0.13658412428861702, 0.41569805643578184, 0.05787650895974064, -0.43764611157827416, -0.14292339904737003, 0.12707976234383472, 0.013177197863776611, 0.0782497935204109, 0.42597477967206493, 0.13549201449505388, 0.09293194629146102, -0.41496425040611734, -0.08885776107019422, -0.16056848570299836, 0.28798102404574655, -0.3110130212242843, 0.21319215541723652, -0.47884695406930616, -0.18143134323568644, -0.07603390021637497, 0.42076744773889074, -0.06333970630421941, -0.31448263500229057, 0.5207056752756688, 0.568770535030081, 0.3278047434216137, 0.7090988705608946, -0.0034747524126360744, 0.31558531679439067, -0.008603488841141742, -0.386248031651914, -0.1785421359824504, 0.4927758920963246, 0.25214179303239237, -0.052751255967569584, -6.602517010825996E-170 ], [ -17.05347082386459, -0.17397324152486954, 0.5452923886901228, 0.07451935026730258, -0.35692986608910243, -0.1178588945130442, -1.131665127576062E-169, -1.4173302253251597E-169, -2.023478155054776E-169, -3.219273537536659E-169, -9.2918340423955E-170, -0.6285974336812571, 0.061012617573175484, -0.18434146104038712, -0.6125946892329085, -0.5403736753632645, 0.18311113476287333, -0.6946128799057056, -0.7670842950855082, 1.0996362608386128, 0.18751151581983852, -0.18622080353319637, -0.2519936987319061, -0.6732251867581127, -0.0961470530909042, 0.26841902730386974, -0.1088131776657669, 0.09745325612185904, -0.19002988374933835, -0.32762308718448985, -0.13348245969066969, 0.40244549165331184, 0.007513112085263474, -0.504269364313577, 0.604423833120049, 0.4957849659240692, 0.6116748914894118, 0.3642314090385785, 0.003402969028776864, -0.3492196420252776, -0.1350267901450423, 0.015447332229260573, -0.11265354879240375, -0.2772917444182029, 0.46727938184882933, 0.5541586782578877, 4.5346484085985225E-170 ], [ -15.006587177733001, 0.08159503007724261, 0.005332097853524809, 0.14236453249490244, -0.0019545324081231795, 0.08274851971055146, 5.359977591773439E-170, -6.480317299185529E-170, 6.098606376887573E-169, -2.1557872300499588E-169, -2.2930329017135395E-169, 0.5969309072851539, 0.005729587518940094, 0.26534532818466283, 0.37243439035423703, 0.6106003140271852, -0.40866278407919254, 1.5560722518041192, 0.6185247816811548, -8.551493368235433E-5, -0.3966869567447753, -0.01889606802546932, 0.049669242450173096, -0.023784290637502817, 0.2834963686699677, -0.8133706409526336, -0.030353939565923565, -0.5499303993243289, 0.0785909577931148, 0.502411872581236, -0.13931065905425954, -0.41101335168178205, 0.03096776285694804, 0.1951477700910321, -1.0167627153765857, -1.058147911712597, -0.8815072117179777, -0.5987998453443534, -0.13676297011931723, -0.18658860531653892, 0.2275841945788278, -0.012175198144724007, 0.04977642240142515, 0.6655563573545992, -0.17288503792809698, -0.33479540823203824, 2.2635447737505708E-169 ], [ 1.6345299849997177, -0.08095856170230917, 0.3149148769218308, 0.10304067663023904, -0.056376201830845914, -0.11194913561835595, 5.110507117530878E-169, 2.4607068874661753E-169, -8.086126381663508E-170, -2.531847646826174E-169, 2.833882812988761E-169, -0.16246425152555763, 0.415831243473597, -0.02217940397237236, -0.1118486013004489, -0.20674381791075178, 0.592180099651101, -0.44671298267994347, 0.4884024068740507, 0.030055842636678584, 0.5911864905234522, -0.4612590995422137, 0.005147095455831697, -0.6216876194622873, -0.08606111100535163, 0.3727802199301007, -0.155064935243781, 0.3456865526298603, -0.30008082639773337, -0.43458067413046203, 0.0031088528493235152, 0.32130746662436116, -0.14379501587707394, 0.06285031555153568, 0.2479053221833457, 0.31373049101672407, 0.06889925223770264, 0.33266627548403205, 0.2950440194769972, -0.22096411079156245, -0.12888592840797009, -0.13055218746886366, -0.36357203213197925, 0.39376174708925854, 0.5454151677419652, -0.14920488195243425, 2.63125871286778E-170 ], [ -6.682803283727565, -0.3420077025427512, 0.5600879565207317, -0.02328779045991829, -0.35270885382340544, -0.38230243587760604, 2.4672730512671444E-169, -2.0580030450553808E-169, -4.30076867991957E-169, -3.2009114121850053E-169, 1.9124512568752632E-169, -0.43316748215050466, 0.2662604637479258, -0.1651779120467922, -0.5002872553769796, -0.48912201578555387, 0.23253304530823016, -0.548569447607105, 0.13663340847491054, 0.3297977593100085, 0.23146197602324048, -0.02372289027785199, 0.010230371493635837, -0.5600857645336128, -0.1697491330115671, 0.42489453862160026, -0.15332978868595593, 0.20819632114444683, -0.24858339960128234, -0.383274879157315, -0.06892632284231023, 0.23506407728832013, -0.09013573783549628, -0.3440256763542209, 0.5529241132911866, 0.7477590970290197, 0.4411127672970043, 0.5009474140664602, 0.11423252355561703, -0.22769043187183016, -0.29745440566265224, -0.16147972510081585, 0.20443745153649215, 0.09591255963970226, 0.12708559327590715, 0.10695289523384797, 1.0870890055629396E-169 ], [ 38.695012805806506, 0.23450224761885627, -0.4385003234054904, -0.07938516501333118, 0.19393718464058038, 0.24764241813144522, 1.3539865110404523E-169, 4.778460071757052E-169, 3.6128855648754473E-169, 2.0444168396515303E-169, 1.31401226350008E-169, 0.4415527723306756, -0.05957076189960073, 0.15125035735493353, 0.2822856979981696, 0.3908464331221733, -0.0625571999872662, -0.27002618112479904, 0.12263610752746644, -1.2781235654492051, -0.07113529530098879, 0.6184184051293242, -0.3004030970342544, 1.5076134149592448, -0.19312226944544617, 0.28863310041309825, 0.060893844396375525, 0.33328878579861987, 0.09134777636652903, 0.4765000841672783, 0.170707367766862, -0.23976236705814408, 0.08806572644070079, 0.211605215783707, -0.20704013182042266, 0.08928056623474093, -0.2731461971538675, 0.19372706170191104, -0.5247832464040855, 1.0587184178779265, -0.10231432135584718, -0.27671553369424057, 0.25617867906235575, -0.3060308684028348, -0.3871283748086288, -0.590427674200909, -1.3636158929262227E-169 ], [ -4.518693740382727, -0.1109043945822646, 0.42579842736002554, 0.13058492673309197, -0.3288174727341083, -0.09228119271506319, 1.3781012732593582E-169, -4.8698959088183325E-171, -3.542740947761145E-169, -3.567157276935096E-169, -7.798152448994635E-170, -0.37442648221195174, 0.2345361410346508, -0.18838509797995392, -0.3230268755877477, -0.413610185792087, -0.008490149935102671, 0.0071541239033947115, -0.25729750792598516, 0.8223188682182857, -0.009156117347451429, -0.36105551953741694, 0.01247963103603201, -0.49591385707376456, -8.551112803274689E-4, 0.2394859380765675, -0.3137281798693477, -0.1371520927777416, -0.42996261759906573, -0.3680902733841348, 0.17640569242371998, -0.01584425982031977, 0.2504368868901637, -0.116452540113894, 0.48128371791782804, 0.2128485394028366, 0.43844917164998803, 0.17856217075216366, 0.3666050408833583, -0.04534330395816999, 0.008808621210841609, 0.22060952560503438, -0.49294698449672475, -0.33860356871324176, 0.23359444013641492, 0.49686883818398586, -1.2856136513806649E-169 ], [ -26.43920574528323, -0.1336887294850767, 0.4722275320499266, 0.12395006994158883, -0.41772179280545574, -0.16816685814226115, 3.5394094615122735E-169, -1.0912488694577241E-170, 1.957629021843699E-169, -7.523125409402736E-170, -2.0017620424716834E-169, -0.44316363244453066, 0.030324631672333617, 0.09632812711213765, -0.6258890478670355, -0.38124269652091025, 0.38600365189820796, -0.5618103045875027, -0.5353411634096794, 0.9191651713228683, 0.39604744455465, -0.34350799854700215, 0.045269970061475096, -1.370541593604496, 0.015142487927810365, -0.22197549856244403, -0.19103427628014222, -0.07460284391517884, -0.1772992840169911, -0.3625102702344969, -0.24317030292590924, 0.32214395040406585, -0.22382089798373733, -0.582240266824729, 0.9633672679073589, 1.0409356180291571, 0.9211192255206699, 0.3176368137899019, 0.31149752842510553, -0.9995923222367364, 0.0476565887785758, 0.058068662934043905, -0.6607888540561182, -0.1980824760476808, 0.21156340361027848, 0.5648015639291863, 5.597530790277496E-169 ], [ 1.6681730010501474, -0.5295906514644249, 0.9268640165456508, 0.018181090270800365, -0.3228459331287724, -0.5728343308690705, 2.771051181722453E-169, -2.431930352208707E-169, -4.177835818826447E-169, -2.6648181742366306E-169, -1.0589821111937016E-169, -0.570418025614631, 0.46298920213621814, -0.08966842775152012, -0.35058532583967056, -0.6363269274289601, 0.27031820531118034, -0.19941989646904212, -0.30666639554721187, 0.5767415822729454, 0.271416492089066, 0.026537508739503557, 0.13159776156752748, -0.2520852451815922, -0.007353684420965601, 0.3789163326528752, 0.08779535845216652, 0.18138297384849253, 0.09171853583052775, -0.1409304371666228, -0.01247955341829362, 0.1221708674449157, -0.008981781796490548, -0.349905903190086, 0.35503608042666296, 0.6812733917826682, 0.2445626650954174, 0.3145220984792782, 0.009732136778399004, -0.043029367767194016, -0.24236487756076874, -0.3603604807928999, 0.023394104059552712, -0.7183492086284147, 0.31294857892499656, -0.05558051005468347, 2.062026007149919E-169 ], [ 5.32736088868612, -0.2243775254364859, 0.028539216338841898, -0.12349684635113219, -0.19515013214825985, -0.30414267057489697, -3.1334569422016366E-169, 1.816980699510004E-169, -2.917641376050906E-169, -1.023879019809188E-169, -1.0569301585363835E-170, -0.28556058332591355, -0.09960207642428606, -0.13028704808645156, -0.14602240351055593, -0.3909740651133181, 0.7197286851900921, 0.27457660911222265, -1.0871149236738147, 0.6473646828442262, 0.7179395606986255, -0.4579989656930279, -0.08432871154515012, -0.23182240018231737, 0.12537929397990794, 0.05941004766171541, -0.007166344837233287, -0.3859490757430174, 0.03833721495851953, -0.06604911633969433, 0.3903184111777553, 0.33434516467065356, 0.40628995800407597, -0.2759938909560846, 5.883603475675246E-4, 0.1138404769603386, -0.05211843318468518, 0.14950238256641296, 0.17176750909422545, -0.025326565252081615, 0.1667906827425762, 0.2106172803025189, -0.6493469007213107, -0.49258289882170436, 0.22707621889870194, -0.05025585059989126, -2.009964931386228E-169 ], [ -20.071670092385926, 0.2888886725421255, 0.26542405958326937, -0.0905288654692725, -0.35730765984756685, 0.26233985644734215, 2.4781427356377207E-169, 5.483292675246945E-169, 6.1635594532600694E-170, -5.112849913292967E-169, -3.6144006073853296E-169, -0.23855160648451462, 0.20682212770608593, -0.35681440082563215, -0.30313932179729824, -0.28706971804763076, -0.48266569556220806, -0.2819217978383951, -0.18360372618601206, 0.9615725543465863, -0.4660115733304984, -0.8900296749515928, 0.2669037974035664, -1.3812134752373173, 0.2602214109253465, 0.27693226710106644, -0.11701766472044188, -0.3452482272423252, -0.23717987063960322, -0.1313937154827789, 0.30416230157826907, -0.07846433090242189, 0.2660947284454131, -0.1158285538015701, -0.10560876409813404, -0.5911593323457806, -0.18635754865623305, -0.3719476651232707, 0.5946192902334677, -0.8369102099671462, 0.269274274079342, 0.12672262424733016, -1.2578920350533582, 0.23232703029426408, -0.34966092682097716, 1.147895646194376, -1.0756548091488178E-170 ], [ 44.6888025623133, -0.4068120090239594, 0.46870658782946684, -0.08052603959373343, -0.13900343699604056, -0.43609661723189475, 4.2053184176170574E-170, -4.561371529606188E-169, -3.649269457270684E-169, 5.886240848747386E-169, 5.289183246835201E-169, -0.4904412808385391, 0.3358125245355936, -0.3205212130983153, -0.3081295555679678, -0.5626034973982235, 0.6169238207657834, -0.447331557693398, -0.7521219979846265, 0.5089933721240782, 0.597013186041985, 0.10923816327694917, -0.5270072504057307, 1.1629608334279955, -0.1320289217747862, 0.9394795407699577, -0.036833913854961604, 0.3373995640936902, -0.18410605847327177, -0.3859334844759127, 0.4178448024302046, 0.727737558740158, 0.4435270010901415, -0.18767330534042181, 0.5262345167676546, 0.5096254300116464, 0.2811012672960325, 0.5673680685703456, -0.37015586860115635, 1.2097085429432068, -0.04177483877755173, -0.829823231452036, -0.5516193440648958, -0.8810097525826908, 0.5433514036100726, -0.032822659338263255, 2.9389333325341515E-169 ], [ -42.175601389875744, 0.23225875117409062, 0.0050437633703581085, 0.10902443427125173, 0.05815250409612499, 0.31085730901605807, 8.880740047085456E-170, 3.85572817266036E-169, 2.0925882043775223E-169, -1.8712528035442952E-169, 2.5402961195582697E-169, 0.30410503808072925, -0.2205460430411244, 0.045944319933204116, 0.3002569599593015, 0.3848135895514604, -0.7954517317640472, 0.4738040028921358, 0.5150114561396082, -0.34655332763073365, -0.7919733696357664, 0.19544185816566675, 0.4858450176699482, -0.9532365057977615, 0.06903836761340788, -0.8467250011198331, 0.14800572430709447, -0.5633782649544365, 0.367826898159165, 0.11819613564647291, -0.3081585637966209, -0.649410440979242, -0.13368346094763942, 0.2417309787269693, -0.67801577312497, -0.29090455994520864, -0.3787974348489873, -0.5649311014491911, 0.08515076029816777, -1.1038648761087724, -0.21421921571146807, 0.29068715737858436, 0.8169197803896994, 0.4392290421815313, -0.44931788704442116, -0.32930537552325473, 4.5212350732168376E-170 ], [ 7.627310253981514, -0.018592105901970843, -0.3897464222669476, -0.12314303151952892, 0.04521918639761078, -0.032842261349588786, 6.725932488131566E-169, -2.130023429156787E-169, -1.9345952494638612E-170, -2.160264943593533E-169, -1.768847346816972E-169, 0.24482344345907353, -0.3695852189368388, 0.18657388449576362, 0.14227498116325177, 0.2810467100820832, 0.18084934823545948, 0.2028204429536007, -0.029290987834286377, -0.27821617953866773, 0.18287811090139708, 0.29397424214727186, -0.0055114640716420115, 0.5928369068975141, 0.1215949896419696, -0.21706931389987683, 0.3022257781851912, -0.1507924092094613, 0.4403342465445917, 0.3843453504524756, -0.07752278547572983, 0.062433552466609074, -0.09940333890944993, -0.11113711445572035, -0.16671881678312678, -0.001692795232551064, -0.05155849210326893, -0.2417035491792251, -0.36023292703003496, 0.059892768556580156, 0.09659170100211997, -0.21402222843384286, 0.10238253461553874, -0.21911028068781171, -0.285811563341861, -0.1167913528319054, 3.90533069366472E-169 ], [ 27.1835515732907, 0.12157874529465189, -0.3411254109854621, -0.19233538822202376, 0.22573048100987628, 0.0905595797788806, -3.74795902853973E-169, -4.413809565283116E-169, 4.860134977300227E-169, 7.366727651781189E-169, -2.947393287778071E-169, 0.4546796069804531, 0.08455605976787553, -0.011653649666452033, 0.4817664724676725, 0.37062751983461173, -0.3369658921033825, 0.5727025905335841, 0.9473952709370013, -1.0717006097381914, -0.3433576745375367, 0.34228120286792857, -0.10246699372819547, 1.368606807287094, 0.04144811845234883, 0.39158321801521917, 0.15845243600773867, 0.06887275117527342, 0.07912222780792272, 0.5128115692215178, 0.15245273452433203, -0.2635487825787975, 0.043643926627429094, 0.43918246910156594, -0.8477141210171221, -0.7187496235270006, -0.8774703986246107, -0.22427381862715687, -0.37114367625436623, 1.021024503088954, 0.009210205469984266, -0.5375018387192309, 0.360106510200934, 0.5152682265378605, -0.47807158259395166, -0.5416029008063488, -2.806386908284144E-170 ], [ -26.48088095414565, 0.027023319283722202, 0.2196336544858388, 0.08330749168029775, 0.17759147222943925, 0.019024573324731106, -3.760707522563163E-170, 2.874445366211429E-169, -2.38082570027505E-169, 1.5342667956531188E-169, -1.8009441471859933E-170, 0.5446896054141388, 0.16047084693321406, 0.13068666849265984, 0.45501108502304655, 0.5295084136148007, -0.4932270526713086, 0.8903107211157709, 0.8707078960899884, -0.49500226640260925, -0.48863309297776863, 0.15219420476928838, 0.06256442816875307, -0.5636206757374608, -0.017460591938997592, -0.8195367960915436, -0.10452669884123511, -0.3793265868779631, -0.009046962795069561, 0.30984594742429605, -0.17933856122491093, -0.56543262502008, -0.08291662502477475, 0.4108536210269271, -0.9388931243904665, -0.7971463645986384, -0.8380712931507951, -0.24511520783398721, -0.006431505021217959, -0.48207725507479987, -0.02823875830327578, 0.01260570166973374, 0.35365698124953726, 0.9700386530235401, -0.35357843627532254, -0.8179123274409855, -3.4327102262681494E-169 ], [ -4.530327989671253, -0.39541023901697264, 1.0734478207661262, 0.1449964018829501, -0.4718502567375996, -0.37029038641717926, 3.447734262526075E-169, 3.7416907778495626E-169, -4.502692020726452E-169, -1.7793738971001953E-169, 5.635544343603403E-169, -0.20271448679096127, 1.0014578308183668, 0.24319203815070264, -0.4595807542414741, -0.2378136509442923, 0.04227823564341213, 0.12200967618672064, -0.29318566853366196, 0.29873360300806406, 0.04662577933774359, -0.15890141070854313, 0.266127351657904, -0.6511087823914836, 0.35908935545636894, -0.04738903699858577, 0.1649169137229793, 0.5340105845300803, 0.19546546459456737, 0.17816424902721775, -0.08406630379221242, 0.07726565402743654, -0.190361318974551, -0.4067969678715057, -0.4470480456861016, -0.15963753024993152, -0.5214465622485194, 0.14816511543767852, 0.14258467261654675, -0.4837689284612819, 0.08180913684833704, -0.39866632366629023, 0.27766676626205117, -0.10515940434292698, 0.43728811165156134, -0.4920388734376736, 4.4221990797563557E-169 ], [ -25.017735168073965, 0.13741174673427198, 0.27479215500827153, -0.24332388994025173, 0.14872151273541395, 0.11610549335706294, 4.417635626624093E-169, -2.736473777120397E-169, 9.479292287908073E-170, 1.807719844295991E-170, -5.329296131864022E-169, 0.40971661860894143, 0.20208822186821251, -0.19423040091333932, 0.2630324409760362, 0.46678450927213233, -0.4076899834051931, -0.21716643969926352, 0.5425861694855957, -0.38359585432199, -0.3956859839402543, 0.3715760587081728, 0.11711123423673893, -0.9633157802323943, -0.11804778136027007, -0.5297397424933888, 0.07580150566759832, -0.17256034648937324, 0.13662260640906174, 0.1419398589072502, 0.029676096758217082, 0.008354947247844677, 0.04102209649734635, 0.24123987785282114, -0.6741763359052265, -0.6901318788479253, -0.6551441833150474, -0.027121655414185108, -0.1582377672349939, -0.791699753091258, -0.312901481134661, 0.03534641086566199, 0.18244045190500566, 0.984301232846259, 0.011750171935993346, -0.4620902202608123, 4.020980156415581E-169 ], [ -23.547134536775154, 0.21069865216606246, -0.3336800391931718, -0.10137035071098435, 0.3108565960373094, 0.3168995965451177, 2.5006921700202413E-170, 7.492560763934766E-170, -1.534513003670103E-169, -1.3642042366988103E-169, -1.5856668380363954E-169, 0.22509306816293528, -0.4292587090010897, -0.18418658215381614, 0.3711012502853579, 0.3335873560559953, -0.5635421605004692, 0.23235705067192675, 0.41149107494441134, -0.30668303831067734, -0.5712569383061957, 0.31720658884323993, 0.2998497832191287, -0.027572539315066653, -0.004026667149922204, -0.5059565587627477, 0.22953980576076713, -0.34369931083258437, 0.3877346279166101, 0.30099043528157826, -0.17230222498538877, -0.35235803020220385, 0.025746510620266855, 0.3163967285227965, -0.5870165217390383, -0.7469351882568223, -0.34174125449899617, -0.547032032118195, -0.19614828504150378, -0.4039460365414355, -0.1831108330472711, 0.5747889295139552, 0.9081899776932505, 0.2904751264687348, -0.2213408411187784, -0.4210000178749299, 7.711171316020292E-170 ], [ -20.222493194578263, -0.09052348948732802, 0.18132036768760426, -0.054619894917755964, -0.38582371111304714, -0.04766028519143652, -1.895206457385092E-169, -1.6074977265698988E-169, 9.340303805408379E-171, -6.040378881184691E-171, -2.136792509633742E-170, -0.6905696452880563, -0.23405618974818876, -0.31237187898417895, -0.7010040578349774, -0.6273830859697959, 0.29155883263264104, -1.0189903101458442, -0.8769177691780946, 1.1905553953972152, 0.296838580139981, -0.35485245248532665, -0.15123690141511087, -0.7075975717933648, -0.02170995428111762, 0.5338256342867137, 0.13405894648257508, -0.029944163569492248, 0.18487234083098567, -0.3923060905655059, 0.03723890317862456, 0.4495377584211883, 0.1856049689655751, -0.7005478162321275, 0.5523881928918373, 0.409999160001117, 0.7375046826727116, 0.12737649235914889, 0.026058913032613554, -0.5849558943780291, -0.035273397254304464, -0.10767556180918285, -0.1491985628143453, -0.6656610981870815, 0.26098051562690244, 0.6420210680094519, 1.2002072408227766E-169 ], [ -30.901478891270393, 0.438711200413945, -0.6645781984346776, 0.3361995899075674, 0.05126726528548473, 0.5092014883923422, 1.6911744280950795E-169, 3.325726234432695E-170, 3.275978911265496E-169, 3.575863211610369E-170, 3.382429558638036E-170, 0.3010905462222012, -0.7467497565879534, 0.16809624657655511, 0.02619147335273334, 0.42610334988587645, -0.09686070092354394, 0.12235654883043647, -0.3258451336787197, 0.9050596881251908, -0.08844904566455378, -0.24980131207860243, 0.3911290497376343, -1.0285401158313217, 0.1375018653287811, -0.6308334056488378, -0.3240973243302798, -0.5111580439499585, -0.2276675395118707, -0.40955425960191383, -0.12168697862816179, 0.07109774590877667, -0.007544723690483574, 0.18238101238715101, 0.4619873652225362, 0.11258772389180831, 0.7103899926483433, -0.6079557614625298, 0.292483325705399, -1.0822453284795168, 0.10113154492073743, 0.7111645940608947, -0.629971696064923, -0.3145257072253833, 0.02064887583814509, 1.0356259671276358, -2.0842580195244924E-169 ], [ -35.90839902255206, 0.35178211253152547, -0.7922633281683988, -0.11172305802244197, 0.2937554260347915, 0.39373343155281887, 6.767854014744115E-170, 3.029797540722525E-170, 1.46336333144143E-169, -2.2181190634488078E-169, 9.173064314649574E-170, 0.5734559044943179, -0.5300493676853107, -0.023682457973281293, 0.49661842612051244, 0.610068749480247, -0.5229927047213957, 0.24066888303363387, 0.7274824183101966, -0.7144613096564528, -0.5215947795450794, -0.20781490871426245, 0.5698210915473592, -0.8722989814885745, 0.13742387834621572, -0.764034587754293, 0.08628460967505408, -0.4580972539931589, 0.23256824718839883, 0.01919057572162319, -0.16041566100993768, -0.5145747850682846, -0.1917432297580513, 0.4443468382840072, -0.5268178300912671, -0.581584961944932, -0.29023040967637104, -0.8137245683913125, 0.24229448521865252, -1.080893597568231, -0.007156232675375122, 0.8225913918967268, 0.27037665927080773, 0.7486900436929845, -0.5487025096431553, 0.11969751114458164, -7.513198244133605E-170 ], [ -40.08516120162328, -0.22192535101497457, 0.32395177139725895, 0.037891132129502084, -0.34354188225960425, -0.2966395231273157, -2.7158250716391096E-169, -5.523680765864222E-170, -1.5796232181866325E-169, 2.2882013207128727E-169, -7.018386193906758E-171, -0.26374215871547524, 0.07934751010868718, 0.07053832257984993, -0.3336398673634045, -0.2857106395506824, 0.11044001795141879, 0.4205777813334984, 0.2569786497533544, 1.1296352088046735, 0.13190748354536935, -0.9147069947540383, 0.49694316468943345, -1.8063241859745178, 0.26013441660219344, -0.21085040110145148, -0.18835654764227058, -0.378168199424142, -0.1719893702113071, -0.36023949457691606, -0.20131704819645355, 0.24101492503849856, -0.3977877428819517, -0.19429826445408377, 0.3355383221915951, 0.06691464382631827, 0.19456286412145055, -0.40488446299558484, 0.6661872520814917, -1.3849578551114317, 0.12559987770761916, 0.20249573372638457, -1.035197554342929, 0.7735355943492042, 0.2970350254414401, 0.9171732829454244, -2.3938816597174677E-169 ], [ -32.15167782371318, 0.1498286700307595, 0.5375715195216455, 0.0490489161971463, 0.11974042703782806, 0.21946128126352143, 2.594046368912606E-169, -5.484994657643585E-169, -7.019493157084101E-169, 8.65294173199983E-170, 1.1631149433928085E-169, -0.14308839048551852, 0.032214405271677085, -0.3056972935294106, 0.2024878200080774, 0.004290664888657768, -0.7703058111269527, -0.06065441034967724, 0.3127327291605536, 0.40367704818518135, -0.7665758064369902, 0.2375243235744949, -0.4609846059131446, -0.9023722908884348, -0.5828129813053111, -0.39195804267333634, 0.006556349076502623, -0.4243463233003897, 0.011988963258328437, -0.18878099358732942, -0.17375127017953765, -0.35036749582984045, 0.14120511955115028, 0.12850259595895827, -0.2967030164913816, -0.06065152536075874, -0.16419058632682113, -0.25774161475877055, -0.6975309509335202, -0.8586154743852743, -0.7836980969739115, 0.08464783125825881, 0.6759795016269513, 0.36852254152979935, -0.5004027917657781, -0.1660856944035151, -9.40094969998907E-170 ], [ -21.779706441779865, -0.13046063798621296, 0.10129059727586472, -0.05679517402743485, -0.442714849994125, -0.12680228429416995, 7.147355636660396E-171, 2.5149576725029588E-169, -1.1060266669011132E-169, 6.489017382881083E-170, -4.067625526539659E-170, -0.5982219679426889, -0.29233409793126997, -0.19767125836143315, -0.483906070878396, -0.6114566064000102, 0.3085845579690431, -0.6888309409534246, -0.6650489499883637, 1.0985227749670727, 0.30901061108436306, -0.5968759141547085, 0.23616865526466851, -1.0563559602039432, 0.027084053389875965, 0.3633827772172445, -0.0010496836734293787, -0.037763100628576136, -0.058030362649439136, -0.3525222252580217, 0.03386583052126461, 0.2216978641466415, 0.038801915862808956, -0.4675116876063322, 0.5153552679992499, 0.4550650033864627, 0.5471154777416528, -0.041907966102400024, 0.28676882419348654, -0.8161168720397579, -0.20183352675379182, 0.20624485513506882, -0.6545055686758158, -0.5558864872890213, 0.4110124129772344, 1.0408383402297228, 1.3624416144331007E-169 ], [ 45.09027015097007, -0.04399997717533267, -0.42988350592627955, -0.22857533620510725, 0.270056840325547, 0.0018260844053791284, 3.1279269930852857E-169, -5.88206296342086E-169, -4.831775535489041E-169, 1.3509948434683112E-169, 5.341046300136605E-170, 0.25659944322897926, -0.25611498624874635, -0.1310492504752426, 0.2997322107203782, 0.21489553120058422, 0.29829706203264145, -0.10985804384690885, -0.21297860162947044, -1.2161839791875793, 0.28197728810531614, 0.8111452858301942, -0.30907372078030204, 1.995341207902825, -0.09183557543378, 0.44926599792269595, 0.32775694213826756, 0.03487472300479274, 0.38039922278155425, 0.47827221309303325, 0.27036755818200503, -0.027193290026867212, 0.2917297204894558, 0.18184086056478604, -0.5036130655887963, -0.4948453482307288, -0.4226346072667426, 0.1894927937412786, -0.752859910953764, 1.41696660767926, -0.2135878055450455, -0.07064480281390573, 0.4964206086264125, -0.1812892033380911, -0.06359103169637932, -0.5662043072768843, -3.022374125428374E-169 ] ], [ [ -49.954136501905786, -0.03183821963706824, 0.13730608583611528, -0.0036478841768533064, -0.2077418213803183, 0.14407638348024257, 0.1551047225975382, 0.07239977807759296, 0.054340056257929086, -0.013495126066153475, 0.05493991889568223, -0.1596652359137539, 0.07114471096218303, 0.09819532328182998, -0.11889996041292922, -0.11541326413016637, -0.06817257757658185, -0.1927495147181904, -0.17650908147371042, -0.13029931259676553, 0.11890662423772295, 0.014844105694072539, 0.08802371783758839, 0.025479455754500002, 0.0714495297791088, 0.05370123190226524, -0.173324448786543, 0.053634662907791585, 0.07057449070678024, 0.07386027782448194, 0.03649924149881627, 0.09877177016646498, -0.037788558320159385, 0.04879110627490061, -0.08349477748232036, -0.1005110030867324, 0.04704797274916099, 0.1354775560011032, 0.05400794149712808, 0.012538666280633349, 0.07671478320266019, -0.05007842999423658, -0.006604515870263403, 0.14987556644840744, 0.11311506899519565, 0.11069108874353416, -0.14812497608330144 ] ], [ [ 94.98489460870081, -0.05253405223593057 ] ] ]
}