{
  "config" : {
    "algorithm" : "ListNet",
    "numIterations" : 100,
    "batchSize" : 0,
    "verbose" : true,
    "nomodel" : false,
    "params" : {
      "regularization" : {
        "regularizer" : "L2",
        "rate" : 0.01
      },
      "learningRate" : 0.001,
      "weightInit" : "xavier",
      "optimizer" : "adam",
      "layers" : [ {
        "num" : 1,
        "activator" : "Identity"
      } ]
    },
    "dataSet" : {
      "training" : "../../../MQ2007/Fold5/train.txt",
      "validation" : "../../../MQ2007/Fold5/vali.txt",
      "test" : "../../../MQ2007/Fold5/test.txt"
    },
    "model" : {
      "format" : "json",
      "file" : "../../../MQ2007/Fold5/models/ltr4l_1.json"
    },
    "evaluation" : {
      "evaluator" : "NDCG",
      "params" : {
        "k" : 10
      }
    },
    "report" : {
      "format" : "csv",
      "file" : "../../../MQ2007/Fold5/reports/ltr4l-report_1.csv"
    }
  },
  "weights" : [ [ [ -60.64827736583115, 0.16326147964189588, -0.015806416735982085, 0.05381552966659076, -0.0356204292752284, 0.18943698563281852, 0.0015480862479418879, -0.008067135260475172, -0.008257479643766084, 0.0029430437167642653, 0.0055436361315831, -0.09301806522402825, 0.08943462158197868, -0.2452312926935958, 0.02652994109322004, 0.07079966542096594, -0.20767371318496247, -0.0864399677174581, 0.19487351593825025, 0.2641372770188688, -0.19758505997470913, -0.1069218677945581, 0.48175961732755684, -0.8733267215791722, -0.09828672631057962, -0.18199393249969117, 0.1274803682857883, -0.16308525811341829, -0.06772951517555767, -0.11091134028388994, -0.012163432747091684, 0.037358602414785516, -0.08893055584475741, -0.07970899563413449, -0.09302466699556354, 0.02717553944115633, 0.053279111669759426, -0.15744972553941963, 0.27036540018515737, -0.5497866650772526, -0.41590718996638854, 0.07192386372452902, 0.010785235349575144, 0.15301878601404323, -0.06535630869286738, 0.07194951031726642, -0.016554582305444192 ] ], [ [ 60.35708928736609, -0.4256308966293058 ] ] ]
}