{
  "config" : {
    "algorithm" : "ListNet",
    "numIterations" : 100,
    "batchSize" : 0,
    "verbose" : true,
    "nomodel" : false,
    "params" : {
      "regularization" : {
        "regularizer" : "L2",
        "rate" : 0.01
      },
      "learningRate" : 0.075,
      "weightInit" : "xavier",
      "optimizer" : "adam",
      "layers" : [ {
        "num" : 46,
        "activator" : "ReLu"
      }, {
        "num" : 1,
        "activator" : "Identity"
      } ]
    },
    "dataSet" : {
      "training" : "../../../MQ2007/Fold5/train.txt",
      "validation" : "../../../MQ2007/Fold5/vali.txt",
      "test" : "../../../MQ2007/Fold5/test.txt"
    },
    "model" : {
      "format" : "json",
      "file" : "../../../MQ2007/Fold5/models/ltr4l_78.json"
    },
    "evaluation" : {
      "evaluator" : "NDCG",
      "params" : {
        "k" : 10
      }
    },
    "report" : {
      "format" : "csv",
      "file" : "../../../MQ2007/Fold5/reports/ltr4l-report_78.csv"
    }
  },
  "weights" : [ [ [ -1.4568694651162792E-34, -1.1417821373080153E-34, -1.9349826631491395E-32, -7.029550797053727E-33, -1.331951419264464E-32, -1.473478279796969E-33, 8.5283829890859E-37, -1.1091989956737962E-37, -4.201317058676701E-38, 6.354864138658453E-37, 2.47000042892085E-37, -1.350434431289348E-32, -1.670783360240418E-32, -3.462844302139833E-33, -1.1593462977365134E-32, -1.4707173117580524E-32, -1.6674555122097036E-32, -1.0840340021856044E-32, -3.556254183211539E-33, -3.396278837105413E-32, -1.667129350089763E-32, -7.93273758812332E-33, -8.689069267971261E-33, -2.1559338835329143E-32, -1.473153672634223E-32, -9.705147554410473E-33, -1.4621616267739724E-32, -1.543845854654249E-32, -1.6910366175374819E-32, -7.375661930956104E-34, -8.540369547272982E-33, -1.80459947567332E-33, -9.849421117529861E-33, -1.0665516449382247E-32, -1.5504101878352548E-37, 2.6501835555523836E-33, 1.2289135013225067E-33, -6.554826696897374E-33, -7.942877200732695E-33, -2.411583571975387E-32, -1.346871884096722E-32, -4.0975742945490534E-33, 1.612521770455265E-33, -2.9355704926948222E-33, -1.2439235913454343E-32, -2.2993622709038708E-32, 8.653407643632457E-37 ], [ -6.194806277829777E-33, 1.858682882727571E-33, 2.573555285905077E-34, -1.4258839036264031E-33, -1.2752213686600779E-33, 1.996512108597761E-33, -1.0617687298796144E-37, 7.716175101541646E-37, 2.105560099190028E-37, -1.6420243805156634E-37, -9.50290416403961E-38, -2.3814489368613168E-33, 1.0976075835996711E-33, -3.722891315581977E-33, 1.3197570799193754E-34, -2.5483959913643766E-33, -1.67881150407903E-33, -8.409088874883521E-33, -1.5344464931433397E-33, -6.538926843699882E-33, -1.7015616938375183E-33, -1.0944199972074137E-33, -5.932481275145382E-33, -9.486288081927555E-33, -3.144097357152675E-33, 2.0178248942243934E-33, -2.0265520343077286E-33, 6.665477343886708E-34, -1.0117327920103908E-33, -1.0523708680215914E-32, -7.645913419359103E-33, -4.6219329909480634E-33, -7.359555727609546E-33, -2.8649576702001487E-34, 1.1886543335710457E-33, 4.723006381875258E-34, 1.122439999329278E-33, -6.157144190575466E-34, -6.155301364670576E-33, -1.0221404897428249E-32, -4.6126914074754833E-33, 4.5011827014968164E-33, -9.300364263912597E-34, -4.252608924610971E-33, -5.21389280817655E-33, -6.765938210197071E-33, -2.2355448057057094E-37 ], [ -2.733758654474181E-34, -4.743648418746774E-35, -1.1315125625995896E-34, 9.130818649045122E-36, 3.2079869270731933E-35, -5.552703381138769E-35, -8.528759504336424E-38, -8.518538611375102E-37, -2.570630613098001E-37, 7.344457927888751E-37, -3.0056320362905516E-37, -4.1490675146603747E-35, -1.1308156049058492E-34, 3.1623595397352165E-36, 2.8995795404805463E-35, -5.115729954891738E-35, 5.704639324842007E-35, -8.570625736318467E-35, 3.9907370390858574E-35, 3.3630559183677676E-35, 5.635856509091979E-35, -1.1897416684783012E-34, -1.121342011928854E-34, -1.2677543182149782E-34, -1.0983636802271202E-34, -1.1416142821772141E-34, -1.0273752141096123E-34, -1.1215313801698134E-34, -9.807782350143175E-35, -5.832689552042035E-35, -3.077629654668222E-35, -2.931208904135669E-35, -2.700585809539018E-35, 3.0196504500426845E-35, 2.552481563400038E-35, 2.3837595027845812E-35, 2.6199422945212807E-35, -1.1879236011481712E-34, -1.1354225818472302E-34, -1.2940348705503899E-34, -1.1411008505879265E-34, -8.34351218224456E-36, -6.23934374484645E-35, 3.5118497318271274E-35, 3.546627933650187E-35, 1.6017835518332186E-35, 7.5827913978161E-37 ], [ -1.8001331879326699E-34, -1.9747317358228017E-35, -5.269004967895692E-35, 2.6462213551043698E-36, 1.2876258070145886E-35, -2.2756104962574713E-35, 1.4010648924521009E-37, -2.350855988841959E-37, -8.645219293195038E-38, -2.757343129042073E-38, -2.9196445339151075E-37, -1.6897704193316278E-35, -5.159811725814761E-35, 1.5084537199663307E-36, 1.1262263775801148E-35, -2.0620935807507746E-35, 2.3012380300195758E-35, -3.698985910489295E-35, 1.657511449801434E-35, 1.2939600298707135E-35, 2.2935540802379632E-35, -5.517954275540016E-35, -5.165133803525975E-35, -6.077605428641303E-35, -5.034189260163363E-35, -5.327068205752561E-35, -4.6370955172760747E-35, -5.064757792107246E-35, -4.396466592510011E-35, -2.3535385235353482E-35, -1.213580691500805E-35, -1.101995009674062E-35, -1.0293639361313672E-35, 1.1865244262180841E-35, 8.901918721885963E-36, 8.524886224125882E-36, 1.0163353855494304E-35, -5.444935994677363E-35, -5.252130637893836E-35, -6.105338046396239E-35, -5.251290032645536E-35, -3.27614802280367E-36, -2.5643909932651347E-35, 1.4557735759124325E-35, 1.4425462231953213E-35, 6.461563468907203E-36, 5.625692904580151E-37 ], [ -2.505709836337069E-34, -3.7237536597830633E-35, -9.486357290137809E-35, 6.496553040390642E-36, 2.628321471783536E-35, -4.5129478955851413E-35, -2.4887633592565907E-37, 9.279572022959134E-38, -1.0000347496921038E-36, 5.231558711498135E-38, -1.0744832418099947E-38, -3.261381047201326E-35, -9.412000746930317E-35, 2.611154871959484E-36, 2.2422341503161187E-35, -3.9433721907336857E-35, 4.5629884248947753E-35, -7.03298013512129E-35, 3.1162454035058104E-35, 2.5536592489559395E-35, 4.565937402300921E-35, -9.918002166804724E-35, -9.345817814563215E-35, -1.0646848793893543E-34, -9.129284880932196E-35, -9.584273953371165E-35, -8.509665014332317E-35, -9.276940312320536E-35, -7.95395669488448E-35, -4.661059285152364E-35, -2.3527033793612467E-35, -2.206044126880918E-35, -2.0944932040739217E-35, 2.3689109427969258E-35, 1.942920836289509E-35, 1.8881830231965541E-35, 2.101343045280872E-35, -9.804675752293633E-35, -9.399544287021318E-35, -1.0767784360187768E-34, -9.495326124414567E-35, -6.027159709559264E-36, -5.066870034437989E-35, 2.840903926784292E-35, 2.797646615486435E-35, 1.2464839730945525E-35, 1.022133163548341E-37 ], [ -1.9779659007664607E-33, -6.387894085881598E-35, -1.4281527038838471E-34, 1.1662156817207239E-35, -1.6436273043444842E-33, -7.512376587588033E-35, -6.662283209767871E-37, -5.527117401346248E-37, -1.3853083072900803E-37, -3.1637640087311953E-37, -1.8339774838034097E-37, -5.586950746203994E-35, -1.4248105608430248E-34, 3.705466504437054E-36, -1.6483623791247335E-33, -1.2342068016248984E-34, 7.501894261678567E-35, -1.1074778848960131E-34, -1.6210060617717172E-33, -1.642831646307008E-33, 7.505230724546852E-35, -1.4838233665545291E-34, -1.406464407639297E-34, -1.5810406283748867E-34, -1.394196320646536E-34, -1.4471911150836481E-34, -1.2975467999512974E-34, -1.398278943451935E-34, -1.2432739981590888E-34, -7.691508294359525E-35, -4.080893477927134E-35, -3.9317814523610767E-35, -3.779240651760035E-35, -1.643575494076185E-33, -1.6501069113118635E-33, -1.6551457092356383E-33, -1.6501643616420628E-33, -1.4716208245557261E-34, -1.4261634988215456E-34, -1.6035086332090766E-34, -1.441073996218902E-34, -1.2590661531216372E-35, -8.281954216217265E-35, 4.869809661749186E-35, -1.6134591267305123E-33, -1.666028013989191E-33, -1.2354164802263155E-38 ], [ -1.1895768768512045E-34, -1.0336495908796171E-35, -2.892963688661978E-35, 2.2954758208321403E-36, 7.537490685519458E-36, -1.2864032350512824E-35, -3.19521238925593E-38, 2.413963707112616E-37, 1.0504640137045459E-37, -4.735103095134338E-38, -2.361276574732087E-37, -9.105418543223057E-36, -2.933912149505191E-35, 9.706029240085894E-37, 5.5367479519339125E-36, -1.165784710926345E-35, 1.2076493479392763E-35, -1.9835360619732694E-35, 8.738623132966734E-36, 6.714924916603416E-36, 1.2712964582077542E-35, -3.0977741246341656E-35, -2.830627064423482E-35, -3.431051302057039E-35, -2.754920919305322E-35, -3.005295679160439E-35, -2.52665977090284E-35, -2.752888032299348E-35, -2.3725162225752622E-35, -1.238693406213019E-35, -6.564648672719044E-36, -5.981945685085985E-36, -5.133690796258213E-36, 6.52320918024029E-36, 5.294387581033818E-36, 5.2091731544070607E-36, 5.389391956292147E-36, -3.0358149593297057E-35, -2.8149709411869823E-35, -3.4096331520178797E-35, -2.8393785192670447E-35, -1.5032355994943619E-36, -1.3588654274547098E-35, 7.132085689358847E-36, 6.212418651445887E-36, 3.2459672481835584E-36, 5.275423437784242E-37 ], [ -5.3548073857110716E-33, -3.073099072194666E-33, 3.221022899236304E-33, -5.776611298215494E-33, -3.923394234727898E-33, -3.7305972076407866E-33, 3.9542576741419567E-38, -1.8010749032570174E-37, -1.270085090345028E-37, 2.731511617944852E-39, 6.789669337932599E-37, -5.554721512703973E-33, 1.6828733316376134E-33, -6.1146134194428614E-33, -3.158327720714071E-33, -6.176527914361026E-33, -7.578938394606782E-33, -1.618115141114457E-33, -1.1185822722671213E-32, -9.502432328749516E-33, -7.593975669975658E-33, -4.001970478511455E-33, -4.671036202283646E-33, -1.2769913540520956E-32, -3.717063091790926E-33, -1.756644964945459E-34, -5.077951843314226E-34, -4.538293119475879E-34, 1.9186450237033883E-33, -2.5609337038429212E-33, -2.7431879598573516E-33, -5.563053281700151E-33, -2.062929086484174E-33, -2.4125903280598233E-33, 3.0655816494188984E-33, 4.776354225635109E-33, 2.961781076587704E-33, -4.356101928014893E-33, -4.407000955231867E-33, -1.3428257455262626E-32, -5.030342753982686E-33, 3.665236614177067E-33, -4.635571349650961E-33, 2.007780403999439E-34, -5.2044312105853765E-33, -4.089313116000041E-33, -6.613808484854959E-37 ], [ -2.4123818615910205E-34, -3.4407270351902876E-35, -8.71757354971085E-35, 5.8277448280246054E-36, 2.3477147180495215E-35, -4.153149368314276E-35, -6.08801342572909E-38, 8.365883977571069E-37, -2.4717419683506416E-37, 2.412498586802073E-37, -6.565775451262532E-37, -2.968110097755932E-35, -8.718973770924352E-35, 1.3598356713081977E-36, 1.9981468853688025E-35, -3.791845436080008E-35, 4.186272144313802E-35, -6.483703727658957E-35, 2.8522832946743937E-35, 2.3718205969384321E-35, 4.116263640216205E-35, -9.283509538573828E-35, -8.563157292621201E-35, -9.829029224263182E-35, -8.535496728635676E-35, -8.792801675426119E-35, -7.819189000363604E-35, -8.604493595476208E-35, -7.393439864650358E-35, -4.281443073506144E-35, -2.1325985955013647E-35, -2.0471696595732107E-35, -1.9290019474849772E-35, 2.159676734714582E-35, 1.7631311647525356E-35, 1.7754955475303392E-35, 1.8516529209345954E-35, -9.096622739711464E-35, -8.779147809843851E-35, -1.001671417773191E-34, -8.819763045129654E-35, -5.2379391133741916E-36, -4.703882134700058E-35, 2.576173283057677E-35, 2.600019667962125E-35, 1.1872881419699503E-35, 4.204161931173412E-37 ], [ -2.55350355953025E-34, -3.941761761360575E-35, -9.811184597178634E-35, 7.305946204480464E-36, 2.686426776368743E-35, -4.801486487720726E-35, 5.336719497982456E-37, -7.255371841669112E-38, 1.0183307588954193E-37, -2.9956226906191926E-37, 3.038096679846358E-37, -3.462840987618539E-35, -9.78748386965451E-35, 2.4397768618594496E-36, 2.4360132932205196E-35, -4.1916170962143863E-35, 4.783444563638583E-35, -7.268257828250279E-35, 3.286670239087192E-35, 2.72537038037643E-35, 4.770464662976923E-35, -1.0345742651806082E-34, -9.618743138041166E-35, -1.101944472787901E-34, -9.542031639455181E-35, -9.949024968611108E-35, -8.853835074275636E-35, -9.635449092404713E-35, -8.338246177371334E-35, -4.827651574144874E-35, -2.4957084055561317E-35, -2.335522015475603E-35, -2.2380415220516197E-35, 2.586092022431936E-35, 2.0871179771406844E-35, 1.9527302095072107E-35, 2.1564482894719547E-35, -1.0174589394278127E-34, -9.777559978052544E-35, -1.1144181180266156E-34, -9.90127683954634E-35, -6.583594401015289E-36, -5.227424452595454E-35, 2.981555480447079E-35, 2.978074155789436E-35, 1.3555414668655553E-35, 2.5673533282347737E-37 ], [ -1.070851253501658E-34, -8.601703518244173E-36, -2.4669087696270907E-35, 1.3004277676187084E-36, 5.6080127941356594E-36, -1.01552387055416E-35, -3.754632330482766E-37, 2.589272727314357E-37, -1.1594479785835627E-39, 4.932143500229924E-37, 3.427573026239717E-38, -7.398390331482672E-36, -2.489756284623362E-35, 3.7306670011227476E-37, 5.55187675445812E-36, -9.423576636884511E-36, 1.0595294471579736E-35, -1.7441023160554952E-35, 7.248113477674185E-36, 5.80707076754173E-36, 1.0871609396304064E-35, -2.6662814933043023E-35, -2.4163440621696045E-35, -2.997993380211717E-35, -2.3552270058840123E-35, -2.515767704120763E-35, -2.1210515412592782E-35, -2.500232661820673E-35, -2.0841060812880816E-35, -9.757507152486866E-36, -5.707815377402071E-36, -4.268012561435118E-36, -5.0215733590560434E-36, 5.772311428030335E-36, 4.2278927636307354E-36, 3.819676697630689E-36, 4.420997143408792E-36, -2.6105277174632874E-35, -2.5489970783048124E-35, -3.0647138647404637E-35, -2.590340120367727E-35, -1.2675558028783835E-36, -1.2516402351163167E-35, 6.412847211976813E-36, 6.21233301651251E-36, 2.4787074721401956E-36, 5.064361302023633E-37 ], [ -1.2514609985674505E-35, -1.4820881837559036E-33, -1.3057927102119461E-33, -8.062386352853718E-34, -1.425721819636668E-34, -1.4224589116347977E-33, -2.97610111419868E-37, 5.090758902182803E-37, -7.413152399349802E-38, -2.6439419243538657E-37, -7.603235179281784E-38, -9.267957077792805E-34, -9.237287328219747E-34, -1.0784514956387813E-33, -2.488917092957131E-34, -8.698836534108967E-34, -9.37409807577467E-34, -1.0062813828438866E-33, -8.977948902228342E-34, -1.4701886415148634E-33, -9.367954436517854E-34, -1.5014318389267078E-33, -1.6318326399344015E-33, -1.719844847619036E-33, -1.1747809159268053E-33, -1.0842414612573975E-33, -7.162863522084763E-34, -5.069260322138436E-35, -1.1611034536082569E-33, -2.259481294393982E-33, -1.3120545950689563E-33, -9.122751461313039E-35, -8.397293697130582E-34, -5.31659373284939E-34, -5.071892011308881E-34, -5.056793220005681E-34, -6.151298171758212E-34, -1.3789397532286972E-33, -1.7576491714408006E-33, -1.727230259428211E-33, -1.4636253061328046E-33, -1.8629260815183126E-33, -1.4837197447450454E-33, -1.749106409997032E-33, -1.2667060155163372E-33, -1.6868579442896363E-33, 1.854046941053118E-38 ], [ -2.343598665135425E-31, 1.0310876438525553E-32, -3.310044068203839E-31, -3.1292284537825105E-32, -3.32671688543092E-32, -1.2198801715494157E-33, -1.8966652953200656E-38, -8.328500146220365E-37, 6.747767506259855E-38, -2.9115117681266763E-37, -5.105747354780394E-37, -2.338952457434964E-32, -3.072661794574558E-31, -2.642197158485503E-32, -6.506435549814195E-32, -3.7163098630242915E-32, -1.1946634802119753E-32, -2.1183150138203825E-31, -1.3926709912971807E-31, 3.981954608554157E-32, -2.52468889473998E-32, -7.779660551870036E-32, -1.0231986883751186E-31, -7.89390821419463E-32, -9.426138812428207E-32, -7.818164043632852E-32, -7.786537938673408E-32, -7.425879193992029E-33, -6.332767345670648E-32, 3.583042266445879E-32, -5.662695102301148E-32, -2.847722666668208E-32, -7.114025878560609E-32, -6.396491747602756E-32, -6.709245510143231E-32, -5.87752290777752E-32, -8.301886451674551E-32, -1.4260411558563592E-31, -1.6427550008045872E-31, -1.2010607438805206E-31, -1.5985803765096381E-31, -2.8587265556742914E-31, -1.6101348376084259E-31, -1.276836745901839E-31, -8.947248653251464E-32, 3.579649785391578E-32, 2.871850134549766E-37 ], [ -7.091232047926213E-35, -5.0401678223305444E-36, -1.4861414887335023E-35, 1.6368889130330176E-36, 3.269256967282294E-36, -6.287021520725257E-36, 1.996164741241016E-37, -1.070297499885858E-37, 1.9104158345002676E-37, 4.0035949764231595E-37, -3.643474807258441E-37, -4.3370624559944036E-36, -1.54066782044748E-35, 2.7761384681668873E-37, 3.320043995346248E-36, -5.429273371921613E-36, 6.406592204641348E-36, -1.0846319798152478E-35, 4.596874341957685E-36, 4.017685489923414E-36, 6.288535802777074E-36, -1.6831034133993137E-35, -1.5921178779099751E-35, -1.8689584999907166E-35, -1.503797096453429E-35, -1.6225488651906875E-35, -1.4280431578512447E-35, -1.5438359845172911E-35, -1.3288407777230988E-35, -6.726223617759151E-36, -3.438698675734865E-36, -3.293953574527283E-36, -2.5471743276252335E-36, 3.137887907956521E-36, 2.6646156945084707E-36, 1.61756877085668E-36, 1.624357187805953E-36, -1.6227421603719403E-35, -1.6619180199803176E-35, -1.8111301437003322E-35, -1.58202158123892E-35, -5.59760706125954E-37, -7.082660089261848E-36, 4.056592962845932E-36, 3.7188307851295565E-36, 9.716447997540475E-37, 2.7490378293296727E-37 ], [ -2.8518060781718613E-34, -5.352328269310096E-35, -1.2412663808972722E-34, 8.902251076302551E-36, 3.624899985992169E-35, -6.398950672467059E-35, 5.1844458520343965E-37, 5.591135793069894E-37, -5.286687004689091E-37, -2.0005762034033956E-37, -4.0265431282621725E-37, -4.7095795800301995E-35, -1.2496638479090176E-34, 2.956105713286332E-36, 3.3215299681661825E-35, -5.734421868104212E-35, 6.389896702405486E-35, -9.561668504719145E-35, 4.522929948116285E-35, 3.757269591586584E-35, 6.407969140598299E-35, -1.3083048266721743E-34, -1.2404237274370708E-34, -1.3904218247906064E-34, -1.2128197427827392E-34, -1.2675520849312466E-34, -1.1371436277630812E-34, -1.2267725753988367E-34, -1.0750602893061667E-34, -6.451756520880936E-35, -3.416453369791661E-35, -3.276002732545836E-35, -3.1725988589070516E-35, 3.41226134924848E-35, 2.925687792446315E-35, 2.743877318590148E-35, 3.02973451712166E-35, -1.2966187927859504E-34, -1.2519318009258146E-34, -1.4095044285900843E-34, -1.2576713579177745E-34, -9.84774935583094E-36, -7.059390076731157E-35, 4.047141650984778E-35, 4.0259908948159223E-35, 1.8078232098324662E-35, 5.437815618164119E-37 ], [ -2.0052480540126878E-33, -6.415586065995428E-35, -1.4244596549809511E-34, 1.2498014867686017E-35, -1.6592542926525524E-33, -7.523875562009383E-35, -1.702410145461132E-38, -7.385421157446565E-37, 6.979762060261518E-37, 2.1015520795665263E-38, -6.283112767202777E-37, -5.644517287988885E-35, -1.4310081996060928E-34, 3.0220131013637634E-36, -1.665678470912882E-33, -5.282242509775392E-34, 7.582680624448736E-35, -1.1157289627357336E-34, -1.649566832924455E-33, -1.660236380531561E-33, 7.561887753137493E-35, -1.4920174117147142E-34, -1.4141716188872234E-34, -1.5794748698796715E-34, -1.391852340130199E-34, -1.4481813952135677E-34, -1.3134217207977725E-34, -1.410263680775737E-34, -1.2488500550718847E-34, -7.672439998778451E-35, -4.0932076157702434E-35, -3.898525140858059E-35, -3.729892651311224E-35, -1.663628694938782E-33, -1.6688528139937726E-33, -1.6713324558243038E-33, -1.6685652811236987E-33, -1.4748068191906704E-34, -1.4326867248592888E-34, -1.6025182851013088E-34, -1.4426158154886437E-34, -1.2161243482017196E-35, -8.311738394903948E-35, 4.806977998111854E-35, -1.653552808868422E-33, -1.6825490693240613E-33, -7.120210799959334E-37 ], [ -8.58497776880823E-34, -1.477462435141951E-32, -2.8709012995463196E-33, -9.688982178230313E-33, -1.4405373690985267E-32, -1.4302322204549594E-32, 4.0051678107336866E-37, -5.211542903896966E-37, -2.8902733084359576E-37, 4.2559079006406144E-37, 4.269365182123232E-37, -4.3486500133650616E-32, -9.17909044879878E-34, -6.34738058877298E-33, -1.51016633305819E-32, -4.3491705047926936E-32, -4.0944088384792284E-32, -2.6645771490375244E-32, -3.9249068393138505E-35, -2.4591917642155582E-32, -4.024968763744421E-32, -4.143122247838598E-32, -2.9955244480857735E-32, -3.651586909045933E-32, -3.550200978219596E-32, -1.403329420714621E-32, -1.6322553419479762E-32, -1.3505326443830982E-33, -1.1955370284980392E-32, -7.349646137070315E-34, -8.068989230350878E-33, -5.519976702484944E-33, -1.3459347111767533E-32, -2.1425447834449672E-32, -2.4324005701170878E-33, 1.110827717226324E-33, -4.210755139250766E-33, -3.4965546351813647E-32, -2.6545801483616706E-32, -3.112575124896029E-32, -3.356187190982389E-32, -1.1245835345870509E-32, -3.4567809751279885E-32, -1.0623699633446501E-32, -4.9219894528258815E-32, -1.936440408118799E-32, 1.4863288241729503E-37 ], [ -2.4282286887189222E-34, -3.509267882140014E-35, -8.860072286322656E-35, 5.4163621501341015E-36, 2.2831247661955316E-35, -4.1440995306182707E-35, 4.261527160207012E-37, -3.323820138081644E-38, 2.8698025946593135E-37, -4.462308836559722E-37, -2.47575760197674E-37, -3.12443091951394E-35, -8.760711410001798E-35, 2.2899022804838716E-36, 2.0984416904297808E-35, -3.831341651506272E-35, 4.2726519791613233E-35, -6.546484306772752E-35, 2.8306376654197697E-35, 2.409669206259032E-35, 4.223588574643909E-35, -9.350668195469077E-35, -8.69720572856871E-35, -1.0025547748595779E-34, -8.574666953433698E-35, -9.011742033473457E-35, -7.884438217414424E-35, -8.872820828836537E-35, -7.535308264466461E-35, -4.20915821524033E-35, -2.210679741186772E-35, -2.0142780124017405E-35, -1.8568810203903077E-35, 2.2062378503306006E-35, 1.791861544177523E-35, 1.6956459930657193E-35, 1.8986491941045867E-35, -9.187279500753197E-35, -8.889172730236847E-35, -1.0215536817186021E-34, -8.902901695172768E-35, -6.056544608225975E-36, -4.696976704649456E-35, 2.5141897674150677E-35, 2.6177539541685955E-35, 1.119681158158599E-35, -6.713702042576824E-37 ], [ -5.231688903853003E-35, -3.775833771048131E-36, -1.1323664166335102E-35, 4.379604304858849E-37, 2.3525003405363093E-36, -4.923906455036985E-36, 4.576466246934911E-38, 2.6264322429306155E-38, 7.09276958747601E-38, -7.606800879457884E-37, 7.730053003928537E-37, -3.279890675147025E-36, -1.183219702285735E-35, -6.446638709208637E-38, 2.1541496793088997E-36, -5.520520473054031E-36, 4.5913565111279623E-36, -8.079533396508662E-36, 2.858613595597023E-36, 2.8161330899047453E-36, 3.9427850401947467E-36, -1.1442458290584677E-35, -1.1057871077189768E-35, -1.2882354421991227E-35, -1.1465601379923181E-35, -1.141587986517126E-35, -9.19061420152531E-36, -1.0548611422318622E-35, -9.040494128166866E-36, -4.230417798937744E-36, -2.1212729691994708E-36, -2.146337927072843E-36, -2.3090500638957793E-36, 2.3064076479805742E-36, 1.8161730365609067E-36, 1.479188962515114E-36, 2.42121475188315E-36, -1.2264753122953242E-35, -1.1992183137979069E-35, -1.289284146449331E-35, -1.0971688892070173E-35, -6.485921188924394E-37, -4.3421874428319765E-36, 3.4992329663146424E-36, 3.426169138054979E-36, 1.0559244284074933E-36, -3.807234251532634E-37 ], [ -2.228278096596403E-33, -4.401064150150011E-33, -2.9114214274018813E-33, -6.481131535726756E-34, -2.77065041097304E-33, -3.813706737658606E-33, 3.6797132237565954E-37, -9.436575881553376E-38, -4.1886330261388956E-37, 5.988822774376528E-38, -1.02645276242918E-37, -4.304559915054596E-33, -1.3460803185150403E-33, -1.091234944923741E-33, -2.6260818253337306E-33, -4.086628067701104E-33, -2.7495647498154205E-33, -5.703526710537876E-33, -2.993184423611237E-33, -3.4586806526708704E-33, -2.7741137182928107E-33, -2.0739806357879434E-34, 6.188967495886171E-34, -4.809429792714949E-33, 3.3405497499581426E-34, -7.379188288835658E-34, -2.623295239577805E-33, 3.387160663236723E-34, -2.0845529246865174E-33, -2.3810684253969676E-33, -1.788581934289012E-33, -1.639754316334696E-33, -2.033289491678345E-33, -3.1089098147441785E-33, -3.1431235087552415E-33, -3.594983794694778E-33, -2.624398212499559E-33, -1.8469717212442603E-33, -1.773884653250196E-33, -5.765264350012117E-33, -1.615985042282388E-33, -4.793692802877222E-33, -1.5029545482373317E-33, 2.4582909560295948E-33, 1.2715046601487202E-34, -1.573257002575714E-33, 2.197271843049073E-37 ], [ -2.4392503502440966E-34, -3.4296393967153894E-35, -8.878670023099999E-35, 6.724692458837302E-36, 2.3202563767875628E-35, -4.2212251457817746E-35, -1.78636151424912E-37, -6.738318588673391E-37, 8.43597080545751E-39, -9.509507511524542E-38, 5.2870436299056184E-39, -3.129094056755553E-35, -8.902871701061078E-35, 2.8151094663230957E-36, 2.107320857596479E-35, -3.7677506382805867E-35, 4.248996692569343E-35, -6.603498157026753E-35, 2.870691147513828E-35, 2.466768647848257E-35, 4.249511193471857E-35, -9.385489528037713E-35, -8.884270220503219E-35, -1.0135033991883734E-34, -8.728152625247673E-35, -9.138923253797098E-35, -7.976600151399766E-35, -8.798068526908812E-35, -7.525988392156783E-35, -4.392322083722431E-35, -2.216832662364417E-35, -2.0976345713653293E-35, -1.9276499562374784E-35, 2.2102902330240989E-35, 1.8797479199841218E-35, 1.8259662845647844E-35, 1.9847528575231547E-35, -9.332666849361821E-35, -9.022808119238106E-35, -1.0309880809034762E-34, -9.020924674490106E-35, -6.19988478878076E-36, -4.706051113869477E-35, 2.648675195253725E-35, 2.685647700001675E-35, 1.1421448516141103E-35, -5.328478204367669E-37 ], [ -1.995984579330792E-33, -5.881842743926167E-35, -1.357047030436985E-34, 1.10568342134822E-35, -1.6618424484516287E-33, -7.048151746932431E-35, 4.876164488744318E-38, 2.253397209038764E-37, -3.451105906061636E-37, -4.3897442174995525E-37, -8.921651168361804E-38, -5.332133514570309E-35, -1.3527166229334687E-34, 2.8477000606518212E-36, -1.666787086690863E-33, -3.28929304914076E-34, 7.123371157674562E-35, -1.0467218713348757E-34, -1.6507111483710917E-33, -1.6613917197861217E-33, 7.051970828142898E-35, -1.413698259329252E-34, -1.3393528507224778E-34, -1.5001311889407263E-34, -1.311383521301279E-34, -1.36969657978702E-34, -1.2360744133221562E-34, -1.3316836424875228E-34, -1.1802657864400476E-34, -7.182417521528104E-35, -3.830407530209494E-35, -3.6520999941533625E-35, -3.446238881952495E-35, -1.6644213290273654E-33, -1.6702512009044253E-33, -1.672051330485195E-33, -1.669523593620091E-33, -1.4007255336663488E-34, -1.3552171749257406E-34, -1.5280587135799337E-34, -1.3703256338090591E-34, -1.0268956983482858E-35, -7.746818953054615E-35, 4.536726473091136E-35, -1.653309613132528E-33, -1.6831824179912917E-33, -5.7390625461462965E-37 ], [ -2.1386419545038085E-33, -1.5720347614271855E-33, -6.36811849007088E-34, -7.520656488209292E-34, -5.464548284014491E-33, -1.6069657431702486E-33, -4.545116589640432E-37, -3.113065497964977E-37, 4.356002522202183E-37, -7.092714989271319E-37, -4.613342885597722E-37, -7.89244676543968E-34, -5.7044873496447705E-34, -7.507133138845254E-34, -4.9693866011398025E-33, -7.648647299220915E-34, -3.235413437068264E-34, -2.8915828038456496E-33, -7.721848724843703E-34, -1.634410910389003E-33, -3.2337332987150133E-34, -2.0914561488683434E-33, -2.321941812628571E-33, -2.747089827682748E-33, -2.568630668517008E-33, -9.701037980877683E-34, -7.512209292695123E-34, -2.0722384212866363E-34, -5.588650352944702E-34, -8.859128096634835E-34, -6.807822440440031E-34, -6.577546333255939E-34, -6.601836767392166E-34, -4.507110894467502E-33, 2.504307796507143E-34, 1.2575946511062124E-34, 9.204832340812644E-35, -1.9382664845460717E-33, -2.1255575934201693E-33, -2.7191880367961765E-33, -2.427661206386206E-33, -1.0101920238716702E-33, -4.560450190306768E-34, -6.530828324384819E-34, -3.409690317137842E-33, -3.216772728215477E-33, -9.755345915877311E-38 ], [ -2.3822580228621436E-34, -2.339155055523037E-34, -5.639822455803203E-34, -6.818407597511566E-34, -1.2578077980376436E-34, -2.3614119552661875E-34, -4.709048893181212E-37, -4.9066476748252546E-37, 2.04835653854691E-37, 1.378990225620501E-37, 3.017746354837105E-37, 4.1766263806075335E-35, -5.790619329994625E-34, -7.004474975023054E-34, -9.815768559008661E-35, 3.346050406799798E-36, -2.2659618230028762E-34, -8.044148908097728E-34, -7.518142095817605E-34, -1.2302190580071433E-34, -2.2537671510748785E-34, -5.468907053775828E-34, -3.420042363291362E-34, -4.604523161850427E-34, -5.473642645864827E-34, -7.090108469647496E-34, -5.994289244741079E-34, -6.638119830133727E-34, -5.720702119643211E-34, -7.181364043392339E-34, -6.5121155961406046E-34, -5.818791191570534E-34, -6.650657510225338E-34, -1.4755731555502795E-34, 1.0456186323890379E-35, -1.4946787176320901E-34, -1.7680903524432558E-34, -5.5988896199524825E-34, -3.7268193164832867E-34, -3.938095563196959E-34, -5.036754843275228E-34, -2.283107922099567E-33, -1.6945225266027725E-33, -8.482218875445787E-34, -5.640453032707672E-34, -1.9815755171387816E-34, -2.5181346441410926E-37 ], [ -3.897019376546942E-36, -1.5441474200994317E-33, -1.4423016057991249E-33, -3.616257208963601E-34, -1.1605338338976684E-33, -1.5135620355356088E-33, 3.4207263861066832E-37, 3.2302644546898154E-37, -4.6174948020533355E-38, -5.076090312901231E-37, -7.901034695807276E-38, -2.3665915933003192E-34, -1.1806237928540414E-33, -4.681518704614898E-34, -9.205670525501955E-34, -1.532970355125664E-34, -1.6760583371830578E-33, -2.866126515344447E-33, -1.4541618981866297E-33, -2.5784196633727523E-33, -1.669951924929441E-33, -1.2637741906233143E-33, -1.0389202479404592E-34, -2.061284923311399E-33, -2.9843101333100033E-34, -1.0396457183514653E-33, -1.4786503239555489E-33, -1.43045567392671E-34, -7.767219718719425E-34, -1.5762659195566197E-33, -9.416039702220912E-34, 6.998824540829859E-35, -1.2606461158564323E-33, -6.646390543112901E-34, -4.089220809407932E-34, -7.684494439476686E-34, -5.748695736136767E-34, -1.4340319987527427E-33, -6.936817981647449E-34, -2.3516726746314874E-33, -6.398331556819896E-34, -2.6959833898869884E-33, -1.389835872053855E-33, 2.61017897976215E-35, 2.0438920955620547E-37, -2.553000294729455E-33, 4.444190891259814E-37 ], [ -2.792599338971083E-33, -4.4827601980575315E-33, -1.871419172332074E-32, 5.3549899613203445E-33, 1.6671117752380327E-33, -4.456009079864375E-33, 1.2419856324107212E-37, 7.27198438101291E-37, -1.148429781649411E-36, 2.8892047225793324E-37, -1.041468699035225E-38, -1.1700382903526362E-32, -1.7747697244286338E-32, 4.678783197383068E-33, -2.660609375269096E-33, -1.2345234957011635E-32, -8.280881413479328E-33, -8.958613170509035E-33, -1.613839330628249E-32, -1.0140770723590183E-32, -8.436033789430054E-33, -7.590351412660227E-33, -4.755520384771027E-33, -2.0806157791731416E-32, -9.188664300686434E-33, -1.6941587848592574E-32, -1.3208689024873175E-32, -1.9046673672938316E-32, -1.367697562753117E-32, 7.680934085147374E-33, -7.404127488694624E-33, -2.370778719792802E-33, -9.778681241783731E-33, -2.3057789867591592E-33, -1.2092978477727557E-32, -1.7270366665586902E-32, -1.1491806435533247E-32, -6.528906424373127E-33, -8.048987119487704E-33, -1.9762588316780513E-32, -1.2725219082955028E-32, -1.1509503656271384E-32, 1.1881675114816643E-32, 1.1984066576877276E-33, -9.35902531572823E-33, -1.639313471367973E-32, 7.407361420745322E-37 ], [ -2.18256338942027E-34, -2.772559717250015E-35, -7.263780185469506E-35, 4.8445905731583254E-36, 1.8155835999224236E-35, -3.275921548026907E-35, 3.591666733413927E-37, -9.19264817399391E-38, -1.9218864167278898E-37, -2.563942677447769E-37, 2.1482649301210113E-37, -2.475699434405864E-35, -7.188694065460525E-35, 1.610711212315959E-36, 1.6422594750624572E-35, -2.9580493220142335E-35, 3.355250912158783E-35, -5.311003522048946E-35, 2.3473784732979377E-35, 1.949035162113838E-35, 3.3465370144118845E-35, -7.719929132628283E-35, -7.170062873660048E-35, -8.171553544256237E-35, -7.074474265935161E-35, -7.319572783027671E-35, -6.4225254472445E-35, -7.097016094966157E-35, -6.0554895340249E-35, -3.375247221730046E-35, -1.6673158321979525E-35, -1.592469093870142E-35, -1.491677785126384E-35, 1.751166443870358E-35, 1.475227940629234E-35, 1.366131936294005E-35, 1.4669973908964243E-35, -7.524408816979847E-35, -7.229519150388361E-35, -8.434064742700648E-35, -7.266206947977817E-35, -4.007895464810146E-36, -3.742000613977998E-35, 2.0115553000223247E-35, 2.0632769219709157E-35, 8.823413793701562E-36, 2.3903403691670186E-37 ], [ -1.2918521249150408E-31, -3.6150124620516805E-32, -5.94777443903825E-32, -4.007840141431599E-32, -2.091675779111994E-32, -4.641910253161152E-32, -3.645957129640489E-38, 9.636497910226564E-37, 2.7739221065972828E-37, -9.900018815205417E-37, 1.5666543438164958E-37, 2.2138778978251962E-32, -5.62336852054947E-32, -3.1315965766399305E-32, -1.6674831048560686E-32, 1.9652525484101545E-32, 2.5565693313158117E-32, 8.806975398343715E-32, -2.6985346251897836E-32, 1.2187553969837626E-32, 2.589775360083407E-32, 2.732726990810667E-33, -4.420386347702718E-32, -2.669654743103297E-32, -2.6822570326368113E-32, -8.385502682359502E-32, -7.573031425356491E-32, -6.175789102696811E-32, -7.45557668201637E-32, -1.9482727300328924E-32, -3.352209708508026E-32, 1.0171479933327968E-32, -3.872459836860381E-32, -9.129985869897872E-33, -1.1981401887629041E-32, 2.9430894866204294E-32, -1.425511446826185E-32, 1.1032680852905412E-32, -4.2703392604418604E-32, -1.5420446264845396E-32, -2.96516004728585E-32, -4.839897984110319E-32, -2.3647663479663047E-32, 6.89996585944505E-34, -4.9176004656872127E-32, 8.105027690119087E-33, -5.621402184890447E-37 ], [ -2.1365483674604686E-34, -2.644575738281359E-35, -6.915210820988392E-35, 4.645899477934819E-36, 1.7156424631293835E-35, -3.120454667939368E-35, 1.9940614334423475E-37, 7.0712378851404705E-37, 2.890403916898148E-37, 5.2901206886698486E-37, 3.3650914660303218E-37, -2.2237521558435553E-35, -6.855035414331272E-35, 1.1705637663508157E-36, 1.537285266630051E-35, -2.79548006806974E-35, 3.2174235007739797E-35, -5.131644609978088E-35, 2.227321956758926E-35, 1.8273346724757944E-35, 3.234243299215531E-35, -7.409963738084603E-35, -6.862157533897018E-35, -8.001454316114231E-35, -6.73526777769069E-35, -7.07304533156902E-35, -6.141461041787129E-35, -6.815919869730729E-35, -5.860714853292547E-35, -3.328948355796833E-35, -1.6154359568631777E-35, -1.5699873704640987E-35, -1.450701241110828E-35, 1.6324282706497707E-35, 1.338148542712105E-35, 1.2545686348242797E-35, 1.4298074965303543E-35, -7.28751617236622E-35, -7.002564997167958E-35, -8.072914237962507E-35, -7.052275277517218E-35, -4.129486667198418E-36, -3.525221027803959E-35, 1.9729942208626028E-35, 1.9089910756605513E-35, 8.660235315394582E-36, 2.4721450364847262E-37 ], [ -2.7081683542676036E-34, -4.633064765185104E-35, -1.1126705878434318E-34, 8.300049425864179E-36, 3.1296677880762374E-35, -5.500418711337754E-35, 8.358974807690287E-37, -6.517578228940516E-37, -6.944402862657221E-37, 1.9686226143971767E-37, 7.886782904475828E-37, -4.04333385667368E-35, -1.0986204847234676E-34, 2.332094759379555E-36, 2.812953027407371E-35, -4.951968439313751E-35, 5.584448746852153E-35, -8.497272247592384E-35, 3.8811910854415853E-35, 3.1263285371661815E-35, 5.495685327946296E-35, -1.1676540857417834E-34, -1.0942941919888247E-34, -1.2477320950541007E-34, -1.0729673320104068E-34, -1.1220313478905145E-34, -1.0071211621271005E-34, -1.095966008885517E-34, -9.511388316001523E-35, -5.647284305089701E-35, -2.961124423548152E-35, -2.771640916651983E-35, -2.651624673759941E-35, 2.977101249540059E-35, 2.529381448482848E-35, 2.2747097167420614E-35, 2.680760042576811E-35, -1.15010951665332E-34, -1.1130579010123572E-34, -1.2623882169136677E-34, -1.113777921995861E-34, -8.484811651531707E-36, -6.150043825179301E-35, 3.4170662416770275E-35, 3.470659704234018E-35, 1.5629254366854227E-35, -1.5599107719907927E-36 ], [ -2.2797223118771305E-34, -3.058928221952634E-35, -7.9106213123832E-35, 4.839119701122356E-36, 2.1470832703587066E-35, -3.581951704271496E-35, -6.956569599746313E-37, -1.9182685475384983E-37, -2.0708728318976435E-37, 6.96478885050871E-37, 2.7458616252720836E-37, -2.6741917490978545E-35, -7.784863547925696E-35, 9.953336199917481E-37, 1.840489854660787E-35, -3.277401727093821E-35, 3.72837467211068E-35, -5.72210693493581E-35, 2.503534117519025E-35, 2.0675957186265518E-35, 3.626536287897249E-35, -8.290539235500068E-35, -7.694542800673169E-35, -8.892326301127755E-35, -7.595945986584882E-35, -8.018098632020637E-35, -7.076442436724425E-35, -7.785853311002088E-35, -6.659301331380689E-35, -3.7508282682549323E-35, -1.930653011324473E-35, -1.751097248177872E-35, -1.6792620168038928E-35, 1.866024862140569E-35, 1.5623540067997786E-35, 1.4764155296883876E-35, 1.6039856793823442E-35, -8.17797057497792E-35, -7.833605476215795E-35, -9.034956712671183E-35, -7.963851432064177E-35, -5.54625065597045E-36, -4.104062951056121E-35, 2.2473090512245819E-35, 2.1651839135473603E-35, 9.740908881441453E-36, 2.7192374525018185E-37 ], [ -2.3241059839557436E-32, 2.4042381893908293E-33, -2.515755863863369E-34, -4.733444162341269E-33, -6.395222952750828E-33, 2.6608231757448222E-33, -1.0324298454767125E-37, 4.4873377349323174E-37, 2.1736647099507438E-37, -2.8744190152807927E-37, -5.324985282392374E-37, -2.9903274564629577E-33, -1.3332511000916414E-33, -6.253143188846958E-33, -6.771340370002907E-33, -2.8353029014772718E-33, -2.9497781129875066E-33, -2.6081178131745778E-34, 1.2927648777956544E-32, 1.4780781154257054E-33, -2.9115124584570055E-33, 1.9036414790993245E-33, -1.1346967945589046E-33, -4.8456540012491925E-33, -1.2699386703681176E-33, 3.403295244790857E-33, -5.899067571165629E-34, -2.8305012306749037E-34, -1.4998978390903275E-34, -5.362252971032847E-33, -7.436570214948242E-33, -7.77230440956459E-33, -7.210661951621237E-33, -6.55164920018538E-33, -3.8337504251183106E-33, -4.884384769066737E-33, -4.269022691403753E-33, 1.5328665870743532E-33, -1.7428493754746773E-33, -4.125209583951136E-33, -1.6777757710273055E-33, -6.422349212522112E-33, -9.127609166225522E-33, 6.03280123029144E-33, 6.310656162470867E-33, -1.1502975204589076E-33, -4.322611560322674E-37 ], [ -1.2287726837669163E-34, -1.0424620158803091E-35, -2.941926685972601E-35, 4.559597733160596E-37, 6.401161815475838E-36, -1.2547579412564172E-35, -1.3476206235430188E-37, 6.3079613986715254E-37, 5.688055043502388E-37, -2.9816680223569364E-38, 9.324553984932079E-38, -9.41902207115023E-36, -3.0345960790475973E-35, 1.3667226712350416E-36, 6.05509861052449E-36, -1.1595851676569438E-35, 1.2998292937086074E-35, -2.1638951522960865E-35, 8.641737666377517E-36, 6.95300467334437E-36, 1.2552827898529915E-35, -3.2008748981665415E-35, -2.934468761151556E-35, -3.547024022880831E-35, -2.8950700973474883E-35, -3.0938070790860744E-35, -2.703324907356228E-35, -2.93020565266028E-35, -2.484690257468853E-35, -1.2653423942065255E-35, -5.9490388757620404E-36, -5.4867366090455875E-36, -5.742537704216235E-36, 5.301001469507196E-36, 4.9075967186976325E-36, 4.346125288467504E-36, 5.529737224674257E-36, -3.133489368139256E-35, -3.005777402460771E-35, -3.5993482762926313E-35, -2.9977696457454635E-35, -1.7954796359310356E-36, -1.494702300557898E-35, 7.117290930109573E-36, 7.869354194871719E-36, 2.2067635960136116E-36, 1.2622434123086026E-37 ], [ -2.381412574658563E-34, -3.3987759109474984E-35, -8.460485013371096E-35, 5.5740003463063116E-36, 2.2771157717230791E-35, -4.042312884130981E-35, -2.1012130540521713E-37, -2.793592934879827E-37, -2.4496018562883804E-37, -2.189353817891591E-37, 2.1160188607912215E-37, -2.943204417445104E-35, -8.516569048889091E-35, 1.1789341999254115E-36, 2.0813782095262323E-35, -3.669580564219249E-35, 3.9675846187011515E-35, -6.240914792522487E-35, 2.789264338747995E-35, 2.2465771382100274E-35, 4.0489028152399E-35, -8.996580478852496E-35, -8.378550583559401E-35, -9.638980901460082E-35, -8.28710900901011E-35, -8.65911515329604E-35, -7.619479284504846E-35, -8.41828057690073E-35, -7.296298942490439E-35, -4.0490010628807215E-35, -2.0668353236055462E-35, -1.9902738453793037E-35, -1.9121997348870153E-35, 2.1211604741902624E-35, 1.8096765227747278E-35, 1.6173527580888127E-35, 1.7864743664655007E-35, -8.89162194418696E-35, -8.526990801528047E-35, -9.786664437323674E-35, -8.683444218500877E-35, -5.1885923951989525E-36, -4.486938766135087E-35, 2.48368210767722E-35, 2.4189866499870084E-35, 1.1190123339162458E-35, -1.9010662154946857E-37 ], [ -2.179174351487592E-34, -2.7677487506998235E-35, -7.224362420507644E-35, 4.771308047782648E-36, 1.8714266798483162E-35, -3.342960882060657E-35, 4.37981542690499E-37, 6.596198838194119E-38, 6.222554661184446E-37, 2.849343746118968E-37, 4.963596690739191E-37, -2.440586489900759E-35, -7.190696458596728E-35, 1.3616371364741003E-36, 1.6295378567940193E-35, -2.931059758666565E-35, 3.301603144692021E-35, -5.317041314377456E-35, 2.316155754533038E-35, 1.8959535099464871E-35, 3.4028803188538277E-35, -7.656521277501181E-35, -7.145443996726129E-35, -8.180324352509114E-35, -6.963828043375302E-35, -7.347062225631528E-35, -6.373189234913092E-35, -6.987839659545344E-35, -6.068991599618259E-35, -3.4419688148035257E-35, -1.7073704437749296E-35, -1.6511155814943742E-35, -1.4347109210015002E-35, 1.7062538980441419E-35, 1.4637051243500344E-35, 1.2437688681914434E-35, 1.466650691104329E-35, -7.539525860284191E-35, -7.246595569404584E-35, -8.361874247418075E-35, -7.304078439487379E-35, -4.323117421752262E-36, -3.782691473809929E-35, 1.9875673805330116E-35, 2.024009691813898E-35, 8.325612956026879E-36, 3.276136472926792E-37 ], [ -2.821277530067273E-34, -5.22458673019473E-35, -1.2271476414323883E-34, 9.90395029665101E-36, 3.589940987638541E-35, -6.257781676440484E-35, -6.660374610324208E-37, 7.921769258176885E-37, -7.180159327060107E-37, -3.6833720207309085E-37, -4.354610063433843E-37, -4.5092386907608215E-35, -1.2173531549680405E-34, 3.2665295983117696E-36, 3.213167968802043E-35, -5.534041974843203E-35, 6.171643879555563E-35, -9.30578787403957E-35, 4.388151686629162E-35, 3.6020783142327134E-35, 6.152285053047154E-35, -1.2725714521241124E-34, -1.214751427473628E-34, -1.3599322027672916E-34, -1.1916952560766809E-34, -1.2321146168915016E-34, -1.102635117554258E-34, -1.2022953028314155E-34, -1.0519610785271145E-34, -6.278106051368312E-35, -3.381364887296577E-35, -3.0864637957984596E-35, -2.921401282914826E-35, 3.303014385301422E-35, 2.8657863159229456E-35, 2.6267442780066734E-35, 2.85386102972154E-35, -1.2586211463482784E-34, -1.220066796153856E-34, -1.3814339790596477E-34, -1.2293319620475863E-34, -9.346271581519556E-36, -6.89430010239748E-35, 3.9265927508217476E-35, 3.9458692180012497E-35, 1.8324111734580468E-35, -1.7860023699991116E-37 ], [ -2.5737777295926295E-34, -6.084446749030323E-34, -4.857972532084098E-34, -4.684335793998634E-34, -4.692653842394166E-34, -6.310102756041506E-34, 7.124478492741203E-37, 4.6505493216326486E-38, 1.4485816109688646E-37, 4.5677549034185054E-37, 5.936855995780052E-37, -2.0311299918573924E-34, -4.846079503223811E-34, -4.508767172780589E-34, -4.509660227609166E-34, -3.935223412394555E-34, 1.033718595887701E-34, -5.3066404949249295E-34, -1.0372305143783292E-33, -2.2544517904009935E-34, 1.0447319880154314E-34, -5.332134954603958E-34, -4.163655560110802E-34, -6.130645203032981E-34, -5.218283967429309E-34, -4.8678253960774685E-34, -1.5254931332210412E-34, -1.6287408971827456E-34, -1.4539836587816744E-34, -4.795534696803862E-34, -4.8398049421256845E-34, -4.4992509491745704E-34, -4.94888587419194E-34, -4.393899802615905E-34, -3.563399347698904E-34, -3.272201563367692E-34, -3.308648613179278E-34, -5.360497965563416E-34, -4.799240551334966E-34, -6.165231533718705E-34, -5.859881857063205E-34, 7.98842146952383E-34, -8.875117493129303E-34, -9.707031433169618E-34, -3.3171893748795155E-34, -1.6271105414274035E-34, -5.5003905176313256E-37 ], [ -1.9240670364235145E-33, -2.5161704869879327E-33, -3.633059923160784E-33, -1.5041094333784139E-33, -9.556480518859108E-34, -2.699182760463488E-33, 3.00497757805081E-37, -4.843052270641874E-39, 6.95879231482829E-37, -5.407053214860571E-37, 2.3254509546667768E-37, -1.55296240918874E-33, -3.367930856329413E-33, -1.2627510737404152E-33, -5.931249430282588E-34, -1.6600623382824473E-33, -5.587716145810128E-34, -1.512619838902927E-33, -5.177000620955613E-34, -1.1583463208973267E-33, -5.5886630159178365E-34, -3.79067375054031E-33, -4.090776063343481E-33, -5.25463642031524E-33, -3.928281461010287E-33, -3.300752932471994E-33, -4.117130870925999E-33, -3.4357832738822955E-33, -4.1378160756343885E-33, -1.2192528434142287E-33, -1.5145227933321884E-33, -1.3918223929854464E-33, -1.9303587455201808E-33, -2.1015483620563635E-34, 4.548561030333539E-34, 8.334778613415174E-34, 5.545303439470357E-34, -3.3078950235100044E-33, -4.055420894032028E-33, -5.283403177205417E-33, -3.930944713960565E-33, 1.4107467336024363E-34, 2.241241916476951E-34, -1.0187997936875624E-33, -9.454396408992842E-34, -1.5169541294210348E-33, 6.535622103182348E-37 ], [ -2.5768517423304516E-34, -3.966213042442874E-35, -1.0050415832473588E-34, 6.42919818223305E-36, 2.801296980908283E-35, -4.878048511093366E-35, 5.5432829849135905E-37, -9.240651527597048E-37, 4.561890978843546E-37, -6.264068082360651E-38, 9.184848789655018E-38, -3.5662350424792257E-35, -9.901403210230896E-35, 2.273165353732177E-36, 2.420806765673867E-35, -4.408731690516697E-35, 4.901625454478428E-35, -7.46205005128089E-35, 3.374283609849835E-35, 2.736862525558441E-35, 4.893486254963587E-35, -1.055322084999036E-34, -9.8064689414236E-35, -1.1150779404400626E-34, -9.686072186795636E-35, -1.0120875430360984E-34, -9.040875213058455E-35, -9.873365349521408E-35, -8.491730335268932E-35, -4.99594344314854E-35, -2.6045450805135895E-35, -2.425825487568456E-35, -2.2185786704564041E-35, 2.540798420609953E-35, 2.2288321843653951E-35, 2.0193459101488594E-35, 2.2511978837878667E-35, -1.040899419841867E-34, -1.004406801754549E-34, -1.1386508386476524E-34, -1.0091517172108948E-34, -7.435464172881456E-36, -5.408474144405835E-35, 2.9539046118336166E-35, 2.9985472352859825E-35, 1.3153774314846725E-35, 2.739842937562075E-37 ], [ -2.6102943930646955E-33, -2.4252514780586867E-33, -7.698432074332478E-34, 1.7223435324108204E-34, -5.643224538835777E-34, -2.6853977995739717E-33, -1.1699697485282537E-37, -6.029851593447023E-37, -5.319644667842624E-37, 4.883080426089722E-37, 9.850535244109202E-37, -6.407376749207279E-34, -3.1572068435001373E-34, 2.3598488670204726E-34, -9.434099163062576E-34, -7.164366086022113E-34, -3.332231297981026E-33, -2.1563003219852435E-33, -8.354549078810299E-33, -3.688028473575432E-33, -3.3354569236030405E-33, -2.6454863810099118E-33, -1.715583186660819E-33, -1.5400380673951022E-33, -1.915110868001742E-33, -3.5785874590262557E-34, -1.903254992175058E-33, 3.972094532535761E-34, -1.6925763932294545E-33, -7.889278580823839E-34, -5.627126437507003E-34, 5.727765642216107E-34, -1.071307743982968E-33, -2.3870108413833245E-34, -6.510793845747819E-35, -3.0369700176731287E-34, -3.4463135266791916E-34, -3.4778100906705255E-33, -3.319871021649686E-33, -2.4155681234468528E-33, -3.467930370597147E-33, 8.456988516939301E-35, -3.401196613517523E-34, -2.998710696074631E-33, -3.119724459154825E-33, -2.6549068698527356E-33, -1.965205463884091E-37 ], [ -9.658147520690555E-32, -5.001664169898473E-32, -8.420974980473673E-32, -8.812812456202162E-32, 1.7611206776510407E-32, -5.246605958315674E-32, 1.9545104293349646E-38, -3.997727208365543E-37, 3.890795322636294E-37, 5.153497864862527E-37, -1.3958361240174415E-36, -7.849323759695815E-32, -9.137654830803376E-32, -8.435871827760932E-32, 2.102845605668749E-32, -7.828867176929311E-32, -3.632053513300641E-32, -2.85051917833196E-32, -4.0939103829175933E-32, 2.444455211172213E-33, -3.6374994646512216E-32, -2.9313229907919343E-32, -1.4049090078608143E-32, -4.1676329556367E-32, -2.1078091615839485E-32, -8.773851205007932E-32, -9.185162754245357E-32, -9.070444580909147E-32, -9.236596717958173E-32, -6.902054178684939E-32, -8.268900558602491E-32, -8.955855564460107E-32, -8.649809118335334E-32, 2.0653827469909457E-32, 2.884189242303688E-32, -4.187002544779997E-33, -7.089382882878584E-33, -4.115113680034119E-32, -2.2430850341629548E-32, -4.692156377894134E-32, -2.263163007194574E-32, -2.8832835435614995E-32, -4.685827617372981E-32, 7.782819310897803E-33, -5.069318427581146E-32, -2.945609755907239E-32, 8.967160562326462E-38 ], [ -4.722038406738153E-34, -2.899535031684356E-33, 1.5580347829383657E-34, 1.8389247846666411E-34, 1.7072980728414834E-34, -3.0477568775306585E-33, -5.926478430924136E-38, 1.6236743695069242E-37, -4.836130392781046E-38, 7.765442293106433E-38, 2.3116747944747965E-37, -3.687303567767836E-33, 3.5621301942415718E-34, -1.5430789719016886E-35, -1.7957877623449122E-34, -3.860096028757007E-33, -3.0128920902186836E-33, -3.34510119292929E-33, -5.649648380388087E-33, -3.2043792575834005E-33, -3.045291823579516E-33, -4.10833126721358E-33, -2.6958033707931928E-33, -1.826810252323808E-33, -2.0611291136053756E-33, 1.5415150565220163E-34, -1.4439725067653936E-33, -3.91277163683241E-34, -1.3909919280002987E-33, -4.863313593680129E-37, -3.2140874709945084E-34, -3.302767916562922E-34, -4.243133244027603E-34, -3.3591383822381232E-34, -1.3297744249889812E-33, -1.7156832598408625E-33, -1.517503979620154E-33, -4.991227944201639E-33, -3.8241713435553364E-33, -2.7394536777431323E-33, -3.042516869560854E-33, -3.0428723883429527E-33, -2.226835590230852E-33, -9.370105652081498E-34, -4.8660648937233267E-33, -4.089262235829626E-33, -2.933292709778817E-38 ], [ 81.80138921462023, -0.06450773076595645, -1.052899383921452, -0.24208556434596526, 0.3671668193312682, -0.2714012942948999, 3.5281463495186454E-37, -2.1354875314209117E-37, 7.624811570159928E-37, -9.481355546342225E-38, -3.3973749346079386E-37, 0.5890882946743781, -0.58633202585658, 0.37571728514121855, 0.10964093355998841, 0.19101974458557003, 1.0257186642403646, 0.0332647080182984, -0.44846896030680944, -1.834192627603155, 0.9721747163400563, 0.4660748680246066, -0.6821059547971858, 3.7541768379623637, 0.006877979521480671, 1.379853374504581, -0.07544362953811327, 0.8195534377958716, 0.07372356551076763, 0.16205949039640064, 0.4220522719603324, 0.26935251466278104, 0.5202834198110631, 0.12668343490318523, 0.4554524480961687, 0.1260733380765949, 0.008366139562971943, 0.8277298057558651, -0.43828083503200005, 3.344355917158882, 0.2724526058708655, -0.7766539248335683, -0.020495746836160605, -0.6138469785866367, -0.2113944090857686, -0.7439985419542998, 6.429551222676797E-37 ], [ -2.9526284551267186E-32, -6.409253917385322E-33, 1.082039594311246E-35, -3.6453940973451995E-33, -8.687784543043567E-33, -5.678404453360575E-33, 2.4776771625422265E-37, 3.6987953959439257E-37, -5.0755831902320105E-37, 5.639112593589738E-38, 3.0090401712236983E-37, -1.1393489730165542E-33, 1.8571638128889712E-33, -1.87180130439178E-33, -5.315625352360441E-33, -1.7868155016791466E-33, -2.0884906242466445E-32, -1.9103503396245558E-32, 1.7247890942864367E-32, -1.9228633264391258E-32, -2.1100887279319862E-32, -1.272839157515558E-32, -1.445233267156685E-32, -1.2448715265586558E-32, -1.343222817725854E-32, -2.1767230370106612E-33, -9.575329538922306E-33, -3.708584519824416E-33, -6.880503465024736E-33, -2.4522630287764878E-33, -8.838891783977087E-33, -2.1745577404972017E-33, -1.0743321964401207E-32, -1.0747453249856125E-32, -1.4315144156951403E-32, -1.1575124133506063E-32, -1.6806265469330672E-32, -1.1737067817087165E-32, -1.3742115900678038E-32, -1.14835416036367E-32, -1.2810771145165253E-32, -3.3084203163983244E-33, -1.7322142952308874E-32, -2.453000682616275E-34, -1.3707652668525506E-32, -9.08231695683808E-33, -3.460430281833562E-37 ], [ -1.728370250816386E-34, -1.7589503124369311E-35, -4.909539427703599E-35, 2.0264830993890384E-36, 1.253462400630149E-35, -2.1277091120860794E-35, 2.3499387229959756E-37, 3.937018039177325E-37, -6.7714815089684E-37, -5.3432369315837834E-37, -1.0494200904505322E-37, -1.5086342796361546E-35, -4.824011694514319E-35, 1.0980672144544447E-36, 1.0686250271515454E-35, -1.880658576603269E-35, 2.13999346457473E-35, -3.456957397237831E-35, 1.4285937851688952E-35, 1.1814140819403326E-35, 2.126529071386802E-35, -5.202658268346558E-35, -4.881471066499175E-35, -5.611960697989286E-35, -4.6869375117638455E-35, -4.925111407174581E-35, -4.2982178068340043E-35, -4.8145116824480874E-35, -4.0663691099376833E-35, -2.2098044487520286E-35, -1.0580922294848153E-35, -1.0329243629740816E-35, -9.960550944026113E-36, 1.0759868166534177E-35, 9.851658857515702E-36, 7.443773498429143E-36, 9.537290450002958E-36, -5.155660931456785E-35, -4.926255775676198E-35, -5.687448347889314E-35, -4.978695955484555E-35, -3.0584976830178017E-36, -2.3828662486802747E-35, 1.360751583046434E-35, 1.2767888395584943E-35, 5.007735964245084E-36, -7.566094452800917E-38 ], [ -3.377177999592797E-35, -1.9305170987496576E-33, -7.371502224451101E-34, -5.183774241638253E-34, 5.427153271352517E-35, -1.8928113236638508E-33, 4.7189848660233155E-37, 2.2931838486836266E-37, 2.2356011185193008E-39, -6.779867510475869E-37, 4.438754679168138E-37, -1.2179857378474624E-33, -6.186055522501018E-34, -6.174317173816193E-34, -1.063444562637832E-34, -1.1623813865509604E-33, -1.7789255616698703E-33, -1.88903918929116E-33, -1.6216889016848145E-33, -1.785463313869145E-33, -1.779857466726541E-33, -1.2757631068937742E-33, -1.0458294227796046E-33, -1.0444602055949581E-33, -8.44703220718787E-34, -6.516427296907131E-35, 2.775781939735646E-34, -4.981806444882492E-35, 1.6123591914366985E-34, -3.795575252180357E-34, -6.695868528843255E-34, -5.909256728145488E-34, -5.512896087531595E-34, -3.997765954878956E-34, -3.3122932362051654E-34, -3.562117065773889E-34, -3.2806914870916787E-34, -1.4840289751450555E-33, -1.1087123521669527E-33, -1.1754299503881913E-33, -9.969519026314323E-34, -7.1419303483269846E-34, -1.3631048208408118E-33, -2.8145771301498845E-33, -2.316591632996392E-33, -2.180696959533726E-33, -2.332326504122814E-38 ] ], [ [ -32.29936239354195, 7.511296208499138E-11, 7.511296208499138E-11, 7.511296208499138E-11, 7.511296208499138E-11, 7.511296208499138E-11, 7.511296208499138E-11, 7.511296208499138E-11, 7.511296208499138E-11, 7.511296208499138E-11, 7.511296208499138E-11, 7.511296208499138E-11, 7.511296208499138E-11, 7.511296208499138E-11, 7.511296208499138E-11, 7.511296208499138E-11, 7.511296208499138E-11, 7.511296208499138E-11, 7.511296208499138E-11, 7.511296208499138E-11, 7.511296208499138E-11, 7.511296208499138E-11, 7.511296208499138E-11, 7.511296208499138E-11, 7.511296208499138E-11, 7.511296208499138E-11, 7.511296208499138E-11, 7.511296208499138E-11, 7.511296208499138E-11, 7.511296208499138E-11, 7.511296208499138E-11, 7.511296208499138E-11, 7.511296208499138E-11, 7.511296208499138E-11, 7.511296208499138E-11, 7.511296208499138E-11, 7.511296208499138E-11, 7.511296208499138E-11, 7.511296208499138E-11, 7.511296208499138E-11, 7.511296208499138E-11, 7.511296208499138E-11, 7.511296208499138E-11, 0.2556010642903162, 7.511296208499138E-11, 7.511296208499138E-11, 7.511296208499138E-11 ] ], [ [ 94.98489460870081, 0.2556010642903112 ] ] ]
}