{
  "config" : {
    "algorithm" : "ListNet",
    "numIterations" : 100,
    "batchSize" : 0,
    "verbose" : true,
    "nomodel" : false,
    "params" : {
      "regularization" : {
        "regularizer" : "L2",
        "rate" : 0.01
      },
      "learningRate" : 0.001,
      "weightInit" : "xavier",
      "optimizer" : "adam",
      "layers" : [ {
        "num" : 46,
        "activator" : "ReLu"
      }, {
        "num" : 1,
        "activator" : "Identity"
      } ]
    },
    "dataSet" : {
      "training" : "../../../MQ2007/Fold4/train.txt",
      "validation" : "../../../MQ2007/Fold4/vali.txt",
      "test" : "../../../MQ2007/Fold4/test.txt"
    },
    "model" : {
      "format" : "json",
      "file" : "../../../MQ2007/Fold4/models/ltr4l_42.json"
    },
    "evaluation" : {
      "evaluator" : "NDCG",
      "params" : {
        "k" : 10
      }
    },
    "report" : {
      "format" : "csv",
      "file" : "../../../MQ2007/Fold4/reports/ltr4l-report_42.csv"
    }
  },
  "weights" : [ [ [ -0.045782777399237806, -0.003568900132902835, -0.010395930868076246, -0.002193437714017482, 0.0025014729384461617, -0.003128248504258553, 7.947739313981821E-5, -1.888022572007927E-4, -3.0521742312111956E-4, 9.90162216038051E-5, 8.701094777008225E-5, -0.0010611708521454438, -0.011445274196398913, -0.00400238324590868, 0.0036707799348408014, -4.999491603867494E-4, 0.0011485113507595484, 4.1625155070981266E-5, 0.00634395610366573, 0.006001761659962027, 5.572264028401824E-4, -0.007614272302767081, -0.007975473840015736, -0.010641025468818222, -0.006974268527387353, -0.012368684688145186, -0.014743852850825941, -0.01194198179714539, -0.01358153191793366, -0.004464208788141511, -0.005122909615841452, -0.004696064796052404, -0.00572194124519135, 3.2207355618525386E-4, 0.005223257601004751, 0.009887329715196657, 0.004926659467263542, -0.007940635140363209, -0.008855153782380542, -0.01018712162177089, -0.00792819486128218, -0.002297704982836803, 0.004687486696808949, 0.009363689358997423, 0.005002136246352618, 0.002969620789074672, -4.413127877268321E-5 ], [ 60.23869357864659, -0.04492765599731104, 0.08472890742846394, 0.017061919013917466, -0.12017699784973443, -0.18423848897769488, 6.401544010733842E-5, 1.3076920321838017E-4, 3.177529216441401E-5, 2.477697226958297E-6, -1.429854530272209E-4, 0.08879798705591416, -0.048635404520637, 0.22660384090453292, 0.018290436995265585, -0.1591829760128676, 0.15471504025785096, 0.030450623397998564, -0.18170654637341485, -0.10743148037791202, 0.12420815270605746, 0.051312413165154024, -0.4051523476062386, 0.6979422677358582, 0.017646889722660136, 0.03735271811684238, -0.07784443896059715, 0.07479857472230472, 0.0744617597418058, -0.003599344875863248, -0.1121211351943419, -0.09494443770224983, 0.1346613897514437, 0.210410640458517, 0.11885153921839155, -0.04871404194047782, -0.04870557932665523, 0.13649005073373918, -0.1646820986546033, 0.3460438746778444, 0.3599054935975425, -0.012935679646513515, -0.07770043887286592, -0.1083357219073814, 0.03186641250162371, -0.12267021945445537, 2.10921191278481E-5 ], [ 60.240722059636276, -0.04492392080698727, 0.08444421952668459, 0.017271620735288696, -0.12033705405101698, -0.183940734539372, -1.9514524229200038E-4, 3.497636995015478E-4, 4.381670597424055E-5, 1.6788947633744573E-4, 2.692508729063632E-4, 0.08883766331771051, -0.04844262815629321, 0.2270296728094981, 0.018168306642281865, -0.15908894128674358, 0.15426858936706175, 0.03029350702172209, -0.18164786281392115, -0.1079062921006113, 0.12367281050122575, 0.050809562574466935, -0.40541585777689, 0.6982999293303398, 0.01747571472622765, 0.03767163642733937, -0.07804603738136967, 0.07466920915032359, 0.07436680608116232, -0.003959298525355793, -0.11242250176474702, -0.09494299649085564, 0.13479202089609543, 0.2101968045543516, 0.11889412070878826, -0.048471860187874874, -0.048802317925756705, 0.13664611421300202, -0.16468273664605773, 0.3459989302228397, 0.359989310026944, -0.012722798855980245, -0.07777966833579729, -0.10857883668166639, 0.031951652537185134, -0.1227103353451555, -9.874038634422562E-5 ], [ -0.028572987562761, -0.007342741942367849, -0.004173405411189475, -0.0015296924079947116, -0.0024598960784533146, -0.007095844484532627, -1.5635757054843278E-4, -1.8527565867525178E-4, 3.9960369373013E-5, 3.28108889686484E-6, 1.868953327202356E-4, -0.005664111765527347, -0.003494007364216727, -0.001860818816147302, -0.002279577231689578, -0.00579720153484809, -0.0018939428755474432, 0.001793376395854427, 0.0017735528696186521, 0.0038338592930063247, -0.002002258979940152, -0.004650294645492241, -0.004144079762175377, -0.005398255629240905, -0.004232214927279894, -0.00259913997402459, -0.003953009431321865, -0.0040328590287984365, -0.004818174870640241, -8.357743416150856E-4, -0.0022292738370516155, -0.0028378019551627545, -0.002238993014028571, -0.0026159171756175966, -0.0028453759621565934, -0.002823122679401101, -0.0025475403977679254, -0.0037087261401556495, -0.0032247998514653826, -0.0043454814011977885, -0.0034012095416833484, 0.0065923357216495365, 0.005453701260326954, 0.006253006155933921, 0.005787299519192771, 0.001956161145525252, 1.2448881407483865E-4 ], [ -0.0022690444847804185, -0.002069524022720976, -0.0025802073402713312, -7.579651008740054E-4, -0.0018162001499686157, -0.00225111109032935, 9.585591111116757E-5, -3.068010911728772E-4, 6.311674079196816E-5, 6.972203735583714E-5, -1.7654739860038218E-4, -1.3122017859288045E-4, -0.0024624914842889156, -1.557335174848637E-4, -0.002066927151079872, -3.6113418898857933E-4, -8.803867744168164E-4, -0.002437719760468088, 0.0011707996210565768, -4.3785645296574426E-4, -9.111221357348333E-4, -0.0030689885726347655, -0.0029215451225740826, -0.0025670216786125378, -0.0028252237631929975, -0.0027150031903927898, -0.0028226787667876, -0.003194042972880979, -0.0028027743148244444, 1.3069777022939064E-4, -3.8027591052651146E-4, 4.47872844075468E-4, -1.9761018574666886E-4, -0.0017053783261095103, -0.0018097222701893192, -0.0015522592271589608, -0.0014557363510122679, -0.002977907168501641, -0.0027507310295738687, -0.0029483831130436753, -0.0027330001877410564, -0.0010896796581550564, -0.0015996983261444724, -0.001634312553944899, -4.295004026632629E-4, -0.0011039834553473842, 2.207114128661777E-6 ], [ 60.23372898458563, -0.04328434607876045, 0.08362719078869844, 0.01715712421374732, -0.12035285016139552, -0.1829369414079526, 1.3962026384978533E-4, 2.0742156056080993E-5, -1.2944160514902008E-4, -1.2422028659059763E-4, -1.1985714696762314E-4, 0.08848464823822196, -0.04990406876018375, 0.2276809481458254, 0.018559154497793388, -0.159702275042007, 0.1531509721842085, 0.029680941981308797, -0.17952326545430275, -0.1075647636252073, 0.12296346419548478, 0.04850634925177761, -0.4085999817579282, 0.6942882642784864, 0.014687889855499613, 0.036997184254921336, -0.07962826880375873, 0.07261827447225164, 0.07305344939824136, -0.003597260242261153, -0.11284324754161434, -0.0962748076247628, 0.13385321246189033, 0.20996067048500322, 0.11989314557228885, -0.04768001486030469, -0.04797072778480448, 0.13464143239586704, -0.16736866948808538, 0.3425367034960261, 0.3574198937663448, -0.011831953244532529, -0.07757326509012105, -0.10957567568865029, 0.03409068216557489, -0.12275949923396573, -1.6979438772916114E-4 ], [ 60.234102424510226, -0.04439951233274129, 0.0842608295347069, 0.01704956238649296, -0.12026684791496815, -0.18346470937135936, 2.6920945677460194E-4, 1.2499430044692214E-5, 1.5746420706581164E-4, -4.005874717232789E-5, -1.3316540591618467E-4, 0.08913346448352628, -0.04923897996581967, 0.22693975609021527, 0.018458585230916844, -0.1588825156826454, 0.15364159295452187, 0.030249509904743326, -0.18086476591471137, -0.10764954102786732, 0.12362560518560335, 0.05009946906467466, -0.4064437820986966, 0.6967885784923729, 0.016586463440886046, 0.03734450091569872, -0.0785084167263581, 0.0743219961922263, 0.0739695562707344, -0.003971052524563326, -0.11242557485906689, -0.09515039718916277, 0.134427516813138, 0.20962311857307817, 0.11940853635158316, -0.04855889308036557, -0.04853015013705905, 0.1359818886578798, -0.165475425027704, 0.34492241778765875, 0.35891528185017196, -0.012291566773201961, -0.07799111006236784, -0.10889503188958906, 0.03193813041924407, -0.12273015311647761, 6.10306143330309E-5 ], [ 60.228101896036925, -0.04198462332964622, 0.08254824588065257, 0.01793959545043693, -0.12023159746828617, -0.1808903175513013, -1.3885147154118685E-4, -1.5164335734921386E-4, -8.787433328068162E-5, 1.854765020731002E-4, -2.621036522409235E-4, 0.08846978742287363, -0.050843558122487226, 0.22770019130303507, 0.01885596257408688, -0.15926297189481942, 0.15226890485224473, 0.028812973832484278, -0.1786393326940662, -0.10737851406287477, 0.12170716432942925, 0.04652839778410888, -0.4114112406725337, 0.6917923439950178, 0.012892599185203798, 0.03672402671506802, -0.07993578788195188, 0.07099280222192307, 0.07232723143304774, -0.0034366515515378763, -0.11355674219463655, -0.09698012518576038, 0.13324156110187022, 0.20973202914868466, 0.12046476768624167, -0.04715120516187737, -0.04848686074754437, 0.13363088020145533, -0.16892718077947186, 0.3397065790654318, 0.3561333810086739, -0.011586408184641043, -0.07751960552059783, -0.11068049669271877, 0.03526017247386818, -0.1222937632443309, -1.9067175763685624E-5 ], [ -0.02788465499784691, -0.004039122911911182, 4.0557744538479714E-4, -0.007165650444221674, -0.003681361751581281, -0.004436615372520118, 3.5021036734518806E-4, -1.8532874117168776E-4, -1.6492394003425408E-4, 1.428866266298079E-4, 1.2926369801392006E-4, -0.0035749057494229184, 1.0129975178215893E-5, -0.007374955629508943, -0.0038640393321958794, -0.003966531683937659, -2.9309137253032364E-4, -3.616880854743366E-4, 0.001954232496149711, 0.008715561087774661, -5.437297742672319E-4, -9.189769127896556E-4, -6.937207290110452E-4, -0.004000158091187963, 5.184441316245541E-4, -3.4611822781887295E-4, -0.0010094434770710789, -0.0030822239014242116, -9.402884969067672E-4, -0.006606127375050185, -0.004777694234777015, -0.0015624819026198629, -0.00658002828154068, -0.004671988406185125, -0.002856299826155745, -0.0034008252576094205, -0.0017021399843393564, -0.0018593057361282236, -0.002474115215868891, -0.004971533605830732, -8.218215941964931E-4, -0.001960283595137141, -6.425804020125228E-4, 0.00414458076262739, 0.008898825546612144, 0.004948648912673149, 1.9852985818297124E-5 ], [ 60.241279578880324, -0.045314251047065775, 0.08494833448726828, 0.017146373269424545, -0.12015192106167906, -0.18451644415520826, -6.368324322640601E-5, 8.938023714450584E-5, 2.836255626962915E-4, -1.0817066533685091E-4, -6.946706987454094E-5, 0.08869564226111694, -0.048695938790050325, 0.22688252459336306, 0.018242305686367255, -0.1593227323128056, 0.1546133273096139, 0.030439692095789738, -0.18159089080028062, -0.10730653127168456, 0.1244566539965269, 0.051277311625844646, -0.405008605854214, 0.6985435895790628, 0.017959694604604153, 0.03749731041016738, -0.07798988668162408, 0.07506706718867973, 0.07445301389745378, -0.0038887019122416707, -0.11214036334542349, -0.09493549197050691, 0.13484914374135135, 0.21023419074184882, 0.11900767609532263, -0.04887485384076737, -0.04881863121426484, 0.13716342178869537, -0.16443075191654274, 0.34643194445327324, 0.36028218218780705, -0.012929542113226713, -0.0776010071002797, -0.10840156663630296, 0.03165926578576416, -0.12263059839338047, -4.485458701057779E-5 ], [ 60.214775328952484, -0.040508379613759964, 0.08179856723823926, 0.01802416302969988, -0.11973704479548035, -0.17967556167374304, 4.767041722920165E-6, -1.5870319378396663E-4, 2.4281576652427546E-4, 2.7998422398909646E-6, -1.5740598991218063E-4, 0.0883679906178365, -0.05240320680454561, 0.22821742961794808, 0.01933867569015353, -0.15964634294459415, 0.15136083163633873, 0.028129398713402743, -0.1769485299758789, -0.10725506344857605, 0.12089151748802297, 0.04461795185611772, -0.41324821933076517, 0.6877976648930897, 0.010663498381001934, 0.036503990146287794, -0.08086014773246382, 0.06990168198374427, 0.07140077563488731, -0.0032325191803168835, -0.1144713588074846, -0.09790582383926336, 0.13212155000378148, 0.20939075085061487, 0.12111411820845529, -0.04635528254823389, -0.04779025020844588, 0.13218095949504227, -0.17117164398928278, 0.3364925287427409, 0.35428293409169903, -0.011426254014257333, -0.07766088381090165, -0.11038460953798007, 0.036849953232323644, -0.12173568075400659, -4.138189452734139E-5 ], [ 60.23502627073154, -0.04451923220187057, 0.08456874113925324, 0.01728992712225643, -0.12017689531565885, -0.18349254336460993, 9.684457221127262E-6, 2.6502378649656387E-4, -1.6104032998202488E-4, 1.102970104771779E-4, 6.3003726821269775E-6, 0.08897889685734132, -0.04894203006164295, 0.2271388392799713, 0.018351515036056473, -0.1593747590839182, 0.15418305387687517, 0.02986623535828426, -0.18102832012014608, -0.1074861649689018, 0.12380933733985075, 0.04989845045735362, -0.40623122259372263, 0.6964666344534167, 0.016558420342511992, 0.03711987000540612, -0.07832461617677844, 0.07426859940262424, 0.07369858943987438, -0.004225856712493167, -0.112562218463147, -0.09544538425628603, 0.13448720873075062, 0.2100856144502257, 0.11913796108374228, -0.0484631866103868, -0.04844886980540215, 0.13609620208606993, -0.16553167366160434, 0.34466676176884353, 0.3588304595768307, -0.012523498629101555, -0.07770001912332516, -0.10905872860881033, 0.03277591966112263, -0.12242977522544099, 3.1808804748310834E-5 ], [ -0.04908064207512858, -0.012062608722430342, -0.0028295027162011594, -0.010727412073334488, -0.009390275144612468, -0.011859957696846472, -1.5988595620604565E-5, 1.6046487160074594E-5, -6.706867555587884E-5, 1.4998378183092553E-5, 1.6187099971473883E-4, -0.009032280029866556, -0.002794777168393242, -0.008559603276198218, -0.009662019720572469, -0.008553941171101542, -0.003527166807196641, 0.0030218935727088785, -0.0070600848801281035, -2.728335560914067E-4, -0.0035953765164100358, -0.01535929903467364, -0.016765498465111717, -0.016446543340401115, -0.015788207501059675, -0.0043280765549740296, -0.004934585775195716, -0.0015911830894400239, -0.005117521809483471, -0.009248963666201078, -0.0020984399688834584, -0.0016722823792149305, -0.0037255494248902166, -0.009746116884179304, -0.012168771881965936, -0.012568101654126803, -0.011522831901419738, -0.01393524861587923, -0.015140615895511729, -0.016961886939674282, -0.014378672635055626, 0.008633346778492885, 0.011413209147244785, 0.012055290109922484, -0.004606431231218633, -0.0036216416339430193, -9.088026821681158E-5 ], [ 60.23602610909489, -0.043878503271552384, 0.08360431600042129, 0.017729907141962844, -0.11996234752913812, -0.18306425049992775, 4.3192813499274505E-4, 1.5945168208100557E-4, 3.1837764886259533E-4, 6.743133796039843E-5, 2.0883475852481826E-4, 0.08805888361066455, -0.049957907948301974, 0.2273865539834838, 0.01893005215184098, -0.1598138611114208, 0.15380974645032952, 0.02953914248338292, -0.18010457567150948, -0.10722464773924352, 0.12327177267529535, 0.04838249958461139, -0.4087728958270533, 0.6946555271989777, 0.01525649615319043, 0.03660488347425834, -0.0796764530885823, 0.07284180123979711, 0.07315348626546206, -0.0036494975676157992, -0.11289349990289727, -0.0960995060155892, 0.13384078266098814, 0.21010669061866274, 0.11964909933341353, -0.047964558672240025, -0.048258007066333625, 0.1348722363210291, -0.16723764814092396, 0.34255533391486453, 0.35768596335350544, -0.012539341097288761, -0.0770793447973729, -0.11014080589335558, 0.03452252720326013, -0.1220283059889039, 3.976666734468304E-5 ], [ 60.239104229486486, -0.044973058020274626, 0.0847309458026793, 0.017282456141972748, -0.12016016519306352, -0.1840964112807619, 2.7994315183010686E-4, -4.171111859849227E-5, 2.6796488610049992E-5, -7.649009275415198E-5, -1.38736215895483E-4, 0.08892820531508591, -0.048367564124801934, 0.22695083567352856, 0.018281760084035086, -0.15915569112300662, 0.1545400848045422, 0.030240608897381085, -0.18166902707521165, -0.10768758372479782, 0.1240325322632326, 0.050998304540055064, -0.4055786550819757, 0.6978593680995654, 0.017846565077081235, 0.037314278032257765, -0.07783394243701072, 0.0751101838408107, 0.07410870176378315, -0.003953995933385039, -0.11192444685510947, -0.09524028960761215, 0.1344898682957905, 0.21007231601613074, 0.11917753976495024, -0.0489397209362089, -0.0485427837502621, 0.1368279019771888, -0.16455976189501684, 0.3462402915500397, 0.3597568586330144, -0.012969748457328697, -0.07789908131014013, -0.10852110517899015, 0.03162324729822213, -0.1228623226040361, -2.0007497372608003E-4 ], [ -0.001824050332259442, -0.0013863384545853199, -0.002352766938704414, -9.86170977953255E-4, -0.0017329754450888823, -0.0014650400107658083, -3.975668259636701E-4, -1.1214926309956733E-4, -5.049061002980031E-5, 9.62560513629933E-5, -1.3893951513543909E-4, -3.728938964644584E-4, -0.0022960751494785427, -8.391054523810793E-5, -0.0017530760381892982, -1.9107324018607276E-4, -5.930123711321689E-4, -0.0020088864186802915, 6.170899272982676E-4, -1.1139759545192008E-4, -5.592441271178092E-4, -0.0027240970946930034, -0.002459460936401854, -0.002588435875107198, -0.002223282450818444, -0.0024396049479901154, -0.002394817604699419, -0.0023822862293793982, -0.00267524513313662, 1.432805224563667E-4, -2.7339507837476177E-4, 5.997368507070013E-4, -4.880896334785183E-4, -0.0012227588424806102, -0.0012789698970802948, -0.0010100798069761561, -0.001581047027540114, -0.0025052418990336232, -0.0025497889813527134, -0.00246674391722763, -0.00265474799783184, -9.027922177128216E-4, -0.001025611142173703, -0.0019660074528492283, -3.511643844079123E-4, -5.164490219824667E-4, -3.8325055755273805E-4 ], [ -0.04155201653753289, -0.009149054297306614, 8.175339184868597E-4, -0.0034538493104645275, -6.958189078513659E-4, -0.008858398776524593, -3.5958388348482937E-4, 2.023602573091823E-4, 2.063089494841083E-4, 5.403669682186404E-5, 5.252479594863246E-5, -0.008763026950820131, -0.0015193227243774452, -0.00458706577230304, -0.003142679571957673, -0.008674479314552834, -0.007772598442625615, 0.009515768073214206, 0.004064506071826754, 0.0013544829778073737, -0.007871469399536517, -0.0027349216922680324, -0.0030876717819804432, -0.007082953858418621, -0.0015978648634069283, -0.004388010389692831, -0.00506042072624621, -0.008024953819612294, -0.0023938503294666, -0.0059800222461850756, -0.006833137304166459, -0.005658527299870594, -0.006681094021027763, -0.0021326362392425735, -8.982357433457598E-4, -0.003580815057401807, -0.0011192438216908092, -0.003145582764609557, -0.003510007637054224, -0.007445656626958268, -0.0015104032038420199, 0.015319255431829448, 0.009841589645265214, 0.003316235165330723, 0.0026814110124184563, -0.0010016304221164107, 1.0462335663466007E-4 ], [ -0.028990361895910515, 1.1434212819659105E-4, -8.6450432731062E-4, -0.0033896036427754567, -0.004448235773239465, -2.5208367861078785E-4, 4.8201507142481365E-5, 8.372351072045511E-5, -1.3338128110713184E-4, 2.0865590914141005E-4, 1.0042003069540949E-4, -9.355789649867469E-5, -9.797951399464506E-5, -0.002892384579093724, -0.004579603270591095, 2.7689628268535456E-4, 0.0036935378125658286, 0.001086292808311115, 0.005498225885187666, 0.008565894466641721, 0.00360814000191918, -0.0030798974561298095, -0.005747846263805566, -0.004729476916767914, -0.005653259709321329, -1.5557142621894587E-4, -8.78713728317389E-4, 2.897819841081919E-4, -0.0014763308944600114, -0.0045752850120291955, -0.0016791523426910866, 2.1560901077641385E-4, -0.0019234090221558705, -0.0044833626734868525, -0.0037442718475810227, -0.004020971652575641, -0.0038788364191193413, -0.00337888459958275, -0.005810968600423159, -0.005219827728362041, -0.0055746017067394675, -6.195901662005655E-4, 0.0028286365632500584, 0.0021528386243999326, 0.006991157846744724, 0.005810727278103665, 2.461965482578575E-4 ], [ -0.08994075569201027, -0.01215769103249339, -0.003725961357919228, 0.0014746151257826222, -0.0020836556035520614, -0.011996182997926208, -1.056363983416887E-4, -6.366498874319813E-5, 5.813694997300683E-6, 1.4725109552541507E-4, 1.1305003710471996E-4, -0.017065079683094345, -0.0040499720333997975, -6.420547956347368E-4, -0.001559256573039225, -0.016960070231088694, 0.014067182922257459, 0.012295122255044868, 0.011575366786303781, 0.027255957861522677, 0.014048403929325336, -0.002574082612147013, -0.013862557084266416, -0.012213252671866862, -0.008582757800296211, -0.0038266949941896723, -0.004727671684322239, -0.004880351779415407, -0.006441025882548639, -9.427772021646699E-4, -0.0017147704262157443, -0.0022082445334032264, -0.002591321230565509, -0.0015342346272925864, -7.34988245752016E-5, 8.947487234700446E-4, -2.902535699804287E-4, -0.0021169582341309676, -0.014731655121164935, -0.012306338926141684, -0.009318356411595298, 0.0050889830799373745, 0.009252940234728415, 0.009650357956324736, 0.0019316125076281707, 0.020552113601438052, -2.9043661931185617E-5 ], [ 60.23763099718498, -0.04448327581448192, 0.08414757274316087, 0.01742127559901683, -0.11988935254548777, -0.18361101398226426, 1.3959831083863478E-4, 2.1801965164927357E-5, 1.7853369715272493E-4, -9.121594228360105E-5, -3.7541199601086675E-4, 0.0887328571527314, -0.049361135475770916, 0.22716125191815956, 0.018127284386395076, -0.15912559015401428, 0.15394551386939812, 0.030295353235574637, -0.18109091044183964, -0.10777177725874267, 0.12341769565045146, 0.04982794803978147, -0.4065301799774689, 0.6969442325864265, 0.016519145830064492, 0.03718244755982715, -0.07837674691077733, 0.07408905705326246, 0.07390175397596128, -0.00352041777507184, -0.11238568096947846, -0.09584419736699125, 0.13455619124886722, 0.2102115832246779, 0.11922418055044923, -0.04814161198445744, -0.04875729197368084, 0.13582014253160488, -0.16566147073671106, 0.3447889491323806, 0.3590845093390346, -0.01272882546734499, -0.07769421353032546, -0.10940450126750703, 0.03235997238307678, -0.12274402670805136, 2.71851863691966E-4 ], [ 60.2435911266734, -0.04581357163871029, 0.08529503730518347, 0.017039260681686718, -0.12019720433340869, -0.18484447449631522, 1.4517318634842035E-4, 1.7574733191168238E-4, 8.927472906212518E-5, 2.0210467346180904E-4, 1.0509062041640647E-4, 0.08870010890146576, -0.04798866963550095, 0.2266975186759538, 0.01818347360780252, -0.15885735145689708, 0.155011752367257, 0.030797523264245678, -0.18262641643938723, -0.10752936635559056, 0.12488884858271179, 0.05214062111998042, -0.4036815517934237, 0.7003454366504721, 0.01923242711421207, 0.037680818709276157, -0.07731191840364585, 0.07584509504994928, 0.07501785229044196, -0.004466473743870883, -0.11150184046045936, -0.0944935162075984, 0.13536100328458459, 0.21046258862334186, 0.11857376078110334, -0.049089582981792376, -0.048975268496057996, 0.13790495351068927, -0.16343314589572544, 0.34772502593444204, 0.3608600769623109, -0.01288816642199284, -0.0779081750392897, -0.10784592833537905, 0.0306825537565411, -0.12288869521098086, 6.912114854936129E-5 ], [ 60.24628488992639, -0.04635197349215618, 0.08541866889368352, 0.016843148046900996, -0.1202534365563285, -0.18523152523248643, 5.646754625353367E-5, -9.987628614675106E-5, -3.847871784662495E-4, -2.5227174876142443E-4, 9.093442752419617E-5, 0.08906274967483972, -0.047709312668459014, 0.22672357577788643, 0.01812539997051746, -0.15935334218331365, 0.15531639245241008, 0.030869757422789183, -0.18286840114089528, -0.10775148303913068, 0.1249880353710787, 0.052916571225363494, -0.4027534356718562, 0.7011031941796886, 0.01932966405661176, 0.03829151682247575, -0.07710455760766874, 0.07642979585823341, 0.07491334698074593, -0.004074608441195242, -0.11128061693013265, -0.09438932969205201, 0.13535269824550275, 0.21052717718077169, 0.11846804000527413, -0.04950327194351043, -0.0488514166351806, 0.13846044588628423, -0.16301350130351872, 0.34899974807503087, 0.36135421289010866, -0.013132722159762335, -0.07755417202099103, -0.10767941484162863, 0.03017604533270595, -0.12304374724805874, 1.0518632777403246E-4 ], [ 60.238883199872326, -0.04503103293499047, 0.084842447671535, 0.01735853012960049, -0.1200215688014557, -0.18425109774338969, 1.2791199380504353E-5, 2.0353082866769458E-6, -1.1755763361040432E-5, 2.4956536722392617E-4, 5.298237750652101E-5, 0.08890882537993494, -0.04830085775963163, 0.22695187232571454, 0.018316434755159997, -0.1591412350747241, 0.15479554557337377, 0.030559965956220892, -0.18163517025045825, -0.10752416349396812, 0.12430616073394703, 0.051428612479403946, -0.4047924739081874, 0.6983099261527714, 0.018132811827940295, 0.037268773658346514, -0.07774254154200426, 0.07524778485852336, 0.07430816999985343, -0.004030980028510985, -0.1121352259022323, -0.09505160983192547, 0.13470997824544617, 0.2102396110598964, 0.11920814458543963, -0.049201266612242694, -0.04880014623141366, 0.13707151904881792, -0.16450101924559787, 0.3463379390830433, 0.35983942718235495, -0.013164251128179988, -0.07768240731662829, -0.10822400348718138, 0.03169275413345812, -0.12237966289716593, 6.879641277892092E-5 ], [ 60.238062041274375, -0.04499587800670418, 0.08485020708492534, 0.01709469308904566, -0.12009657720086389, -0.18379976876784962, 1.2250803255527904E-4, -1.0315819416496429E-4, -8.831977752987275E-5, -7.420021296666893E-5, 1.619725232979647E-4, 0.08870141818350585, -0.04830572715742875, 0.2268313845419054, 0.018239858677676236, -0.15893824435975148, 0.1545808422114322, 0.030362790719279557, -0.18127588762721258, -0.10756512834723331, 0.12390380334253333, 0.05087724745305988, -0.4050766864026608, 0.698174882858074, 0.01732320090991529, 0.03724962634824755, -0.07802976023356063, 0.07490613393288821, 0.07430080673215166, -0.0038896141240869495, -0.11186962312589585, -0.09529622515432959, 0.13469850665449273, 0.2104052595326494, 0.11895676344614073, -0.04886147601926926, -0.048794728108627616, 0.13673277441389134, -0.1648249594699778, 0.34568990556015544, 0.35999898992878376, -0.013007819925584934, -0.0773728631572621, -0.10875627736199525, 0.032025455299081816, -0.12222995305518701, 8.39397588885672E-5 ], [ -0.005304862899890228, -7.878134493589356E-5, -0.0018681186488230625, -3.0688763053997537E-4, -8.027058495656226E-4, -6.538699418025962E-5, -2.1895642824136118E-4, -7.964432087545281E-5, 5.7263343338930375E-6, 2.6522344539322343E-5, -1.0783809790833582E-4, -4.207442358763313E-4, -0.001727869480482768, 1.902619449465716E-4, -9.221375263195515E-4, -7.193435317418025E-4, -3.220369205596391E-4, 8.017761399839472E-5, 0.0012899297097923403, -0.003170644853884562, -1.5951533972199272E-4, -0.006111752362818811, -7.823563044573161E-4, 3.446589783154848E-4, -0.0026073498923211225, -0.002232408596427669, -0.002374299751322478, -0.0017728669833034943, -0.002174925702388587, 5.252417784843751E-4, 8.442351104425786E-4, 0.0010557738336302211, 8.180073784721494E-4, -8.26014428813608E-4, -9.088386710659521E-4, -6.078691973966937E-4, -0.0012315840558410633, -0.005751567848141598, -7.634013404700307E-4, 7.718324846412168E-4, -0.0021375353015022766, 0.0015037244365012543, 0.0020763508000630547, -1.3214886927645383E-4, -0.0012838060175600458, -0.003282343055363678, -1.6400741357299828E-4 ], [ 60.242625470147026, -0.045734389968972826, 0.08498913778682252, 0.017359894160808065, -0.12022273374957847, -0.1845581256923904, 1.4250512439110288E-4, -3.090516677029006E-4, -1.5981944690003356E-4, 1.1249851373544456E-4, -1.5415788543648515E-4, 0.0890576908187047, -0.04808306040690935, 0.22676035814777087, 0.018154638540767477, -0.1592835088237956, 0.15499737419617435, 0.030492012896305716, -0.1823015038312276, -0.10769077166707167, 0.1243097819111818, 0.051763740847712174, -0.4043423541612164, 0.6992507374340357, 0.018602893439049566, 0.03789507696310179, -0.07772278575895356, 0.0755993150747494, 0.07465664923077861, -0.003995679043994359, -0.11188715141186512, -0.09488907400413792, 0.13498881720653602, 0.21035829643955384, 0.11867527975516373, -0.048761041391627354, -0.048920153079804934, 0.13744948184816824, -0.16386031782752558, 0.34753479778226243, 0.3605911517901825, -0.012961750471468313, -0.07782506345902024, -0.10839446391966731, 0.03061933636114419, -0.12272007022314924, 7.740701292483317E-5 ], [ 60.23477581029116, -0.04409678698348482, 0.08381589995699558, 0.01772721175793332, -0.11995813436941048, -0.18314319413687924, -3.225387478197612E-4, 4.4903783322664437E-4, 2.8022458364578446E-4, -1.246560263460136E-4, -1.756889821656223E-4, 0.08798727683813944, -0.04939415768408115, 0.2273516367460876, 0.018787688413748414, -0.15967114802122503, 0.15373608990642212, 0.029413194835622755, -0.18059810207241545, -0.10695909561846431, 0.12345006239095241, 0.04918083487328746, -0.4077985299556753, 0.6951562420332272, 0.01567306319116995, 0.036422758147147044, -0.0795706996622332, 0.07350745425664307, 0.07332623195894816, -0.003859846622159956, -0.11279820101908838, -0.09604754478114656, 0.13409845672756582, 0.2099871605415789, 0.11949893053638479, -0.04810588155006193, -0.048745724723053926, 0.1352525647636453, -0.16668408098701193, 0.34326559778395044, 0.35793212237603794, -0.01266111419797334, -0.07755033111575696, -0.10954242110590964, 0.03402280161433652, -0.12221035923545616, -1.1415102008937705E-4 ], [ -0.03171602702997127, -0.007496753910728429, -0.005149275438409954, -0.00533434734849917, 8.843420538100056E-4, -0.007352000250683967, -4.390990003334859E-5, 3.945913795369193E-5, -6.627706834747318E-5, 2.168363209804482E-4, 1.5354583576068743E-4, -0.00407407591622731, -0.00604490207863067, -0.0038705497802519065, 4.665223937147081E-4, -0.003666662421022078, -0.003350514997750128, -0.004550920486620991, -0.0016133208399580286, 0.010882920652994, -0.0037670616291989936, -0.0032638548967705364, -0.004754908130830027, -0.007707250291663265, -0.004288981307533509, -0.004145912455607144, -0.004834796145059424, -0.003803432218662334, -0.006308113361770362, -0.004468714594162187, -0.004287444317581179, -0.0029055080475096614, -0.005274079548034798, -5.364348323383596E-4, -0.0031760441586994614, -0.0030023173041613203, -0.004565062777445747, -0.0036630709704860366, -0.00557552144083777, -0.0077438697926077976, -0.005514474920981568, 5.731392021773676E-4, -0.0017299851890325054, 0.0026625130313763534, 0.008993448440885747, 0.008270434921767381, -2.1730090062706104E-4 ], [ 60.245246310420036, -0.04581737479226599, 0.08540915983500598, 0.017087904181819533, -0.11991384749701613, -0.18483232944933695, 1.1849233252470639E-5, 9.655285883249973E-5, -2.0528855815871107E-4, -1.4193097326859147E-4, -4.26622874540338E-5, 0.0888031856680695, -0.047986801286693165, 0.22676985582002673, 0.01810681670477233, -0.15894434283857492, 0.1549913760073378, 0.03080770042133485, -0.18264531607675938, -0.10779888994423761, 0.12454239234363064, 0.05220475068074655, -0.40372102971543283, 0.7003901304622684, 0.0190760370045044, 0.03767760355261835, -0.07719878668260331, 0.07606618462815312, 0.07486481150148153, -0.004171973030269208, -0.11136381430735942, -0.09477244154431007, 0.1351105752165523, 0.21063306375232735, 0.11842754395815615, -0.04930242987795185, -0.048789479234727894, 0.13766275108373158, -0.16340092088854555, 0.3480103244053461, 0.36118985671739673, -0.012947093071993467, -0.07781267302563027, -0.10783063874233566, 0.030964853044331404, -0.1228233713316871, -3.0608502787295557E-4 ], [ 60.226999528798025, -0.042878131873696636, 0.08297897650741064, 0.01741342421883129, -0.1201229993724829, -0.18176114691141976, 1.8913188395703362E-4, -6.733175379755207E-5, 2.0595782843761952E-4, -1.5500941382396168E-4, 8.029007651888805E-5, 0.08794160068496615, -0.0505245180616659, 0.2274389576877478, 0.018526677930229538, -0.15976005562227283, 0.1528615281057642, 0.029469394605180582, -0.17856547753236612, -0.10745898718600684, 0.1223950672293157, 0.04763143053779122, -0.40989291266967154, 0.6924492616878679, 0.013673600705971673, 0.03651287361769395, -0.07963852716440457, 0.07184825544362888, 0.0726637634110805, -0.0035592578201123523, -0.1132090847985889, -0.09672182489918986, 0.13333791505318582, 0.2095202093973205, 0.12034284332800324, -0.04721210607915417, -0.047994742315261144, 0.1340907410618464, -0.1683923724348504, 0.3406419122827522, 0.3565014060995061, -0.011520212316589147, -0.07727121296275835, -0.1099443855817602, 0.034816041938468816, -0.1223667603695833, 2.6118224128010076E-5 ], [ -0.05729046960665981, -0.0015452404877736479, -0.0068880488025208275, -6.373999887625905E-4, -0.007829671690388137, -0.001339910367679808, 8.886225275365307E-5, 2.333028381116208E-4, -1.711491800410783E-4, -1.087521243321569E-4, 2.590604536718286E-4, -0.001843819264482184, -0.005393315908749406, 8.04290600877936E-4, -0.0057765027131627235, -0.002174180440312313, 0.002649080386030765, 2.800472090908963E-4, 0.008814004677672332, 0.012612670082035952, 0.0025434591062679147, -0.006301402872644437, -0.012107308796723362, -0.01305799177848558, -0.00965283796976446, -0.003565517193863791, -0.00471635143334159, -0.0022870212602032806, -0.005497858120096417, 0.001624903137530938, -0.0011553456905791727, 0.001987515665285179, -0.0024171731126355614, -0.005819887734321169, -0.0029836418393766636, -0.0025708530895358077, -0.005398535333077749, -0.005057361569868656, -0.0121646135965927, -0.013538572825474281, -0.01067187335208687, -7.000526081179244E-5, 0.011098499210213495, 0.001308487873506426, 0.008714753087839993, 0.01019131825006109, -6.731986606311125E-5 ], [ 60.23139489381329, -0.043524550050122617, 0.08369393174694767, 0.01764897420526027, -0.12006502255392018, -0.18257798932699432, 2.643801751800541E-4, -7.284595955586913E-5, -2.3548095326940015E-4, -1.597638016929578E-4, 1.1561379346244965E-4, 0.08823796407041211, -0.050266142065148296, 0.22728765328386902, 0.01864714937881974, -0.15964474754605654, 0.15357660260234943, 0.02962590477547748, -0.17962692344003614, -0.10678317057069675, 0.12307601442188268, 0.0482661237355412, -0.40926400232271076, 0.6934215827468744, 0.014572914193615467, 0.0367192732875409, -0.07986126721654976, 0.07258972297083388, 0.07275855321598448, -0.0037932236729007304, -0.11280593696891318, -0.09640881609935353, 0.13347186711790454, 0.20997629720355954, 0.11993793772393768, -0.04789304135486403, -0.047843996678472896, 0.13460103864539166, -0.16780247211638183, 0.34143453043598326, 0.3574036664286156, -0.012381548772025134, -0.07746440741528554, -0.10982274391253725, 0.0348828723065468, -0.12187658088354772, 1.390771261457693E-4 ], [ 60.24283242271555, -0.04533785022570644, 0.08505087957747075, 0.017119853465746872, -0.12019996171009431, -0.1844802433992042, -1.1159278018493637E-4, 1.503239728679832E-5, -3.5778974627509857E-6, 1.527052973533318E-4, 1.9734388672176678E-4, 0.08914417567983642, -0.048539956823484644, 0.22708909944164563, 0.018009368251122926, -0.15895294692692186, 0.1546200513096942, 0.03050645587703169, -0.18227801861304713, -0.10798675248300174, 0.12410344104961397, 0.05156141792153635, -0.40473776045121074, 0.6993034364830832, 0.01831785631824264, 0.03760296181496825, -0.07789001428530205, 0.07555917584075957, 0.07473358899530379, -0.0037429371914484816, -0.11193376146904234, -0.09478807323101396, 0.13473130169933856, 0.21006466403759796, 0.11902161696686404, -0.04884699714001824, -0.048566814375079134, 0.13703620712354092, -0.16399232099800895, 0.3472255291368714, 0.36038658641482285, -0.012673421663323489, -0.07800649563883683, -0.10838056710221493, 0.030756300965813003, -0.12331536402480257, -7.536042951431655E-5 ], [ -0.0016245242336428549, -0.0014278538483461529, -0.0021379883543541918, -1.73691221923182E-4, -0.0013840073118499476, -0.0015512672208366374, -1.853300972795634E-4, -2.0741262640672673E-4, 1.2180761858313642E-4, 1.2804132864171252E-4, -4.172350775900512E-5, -8.251411112315473E-4, -0.0021008580754457505, 3.481918948991803E-4, -0.0012581497487455624, -6.186174330658284E-4, -0.0011010006545076527, -0.0017813080669753692, 6.198220616589126E-4, -3.0997784214169814E-4, -8.574977347418868E-4, -0.0026249880423713035, -0.00238329688595943, -0.0023668790016003207, -0.0021708811524250747, -0.0018979222619592685, -0.0023197906363916607, -0.00232339298401186, -0.002250284024689774, 3.943866215199963E-4, 4.978789681194985E-4, 7.07792865058263E-4, -3.8110142933568016E-5, -0.001172946254218702, -0.0010491815622151166, -8.94487414281216E-4, -0.0015016398267640404, -0.0023726886158639666, -0.0024938020852625716, -0.0023345616276033857, -0.0024423571979610447, -5.554558765745666E-4, -7.274523741902862E-4, -0.0016836890245512267, -3.9167438521478114E-4, -3.1118064111352066E-4, 1.3978565490965292E-4 ], [ 60.24357084677394, -0.045217824967818794, 0.08487662380780751, 0.017076998109884285, -0.12015535884976736, -0.1844719841072454, -2.492782474432848E-4, -9.02614466220402E-5, -1.7299117927089744E-4, -1.3880581246242753E-4, -1.667933377438596E-4, 0.08879729227307359, -0.048435167159648185, 0.22705995499536363, 0.018415909912751802, -0.15935839680506642, 0.15454906257737083, 0.030315069276373518, -0.1817700845325775, -0.10761339280100216, 0.12452493448575735, 0.051352289753387896, -0.4049026084541194, 0.6992096232714687, 0.018291989138646648, 0.03747986890492915, -0.07785534692173424, 0.07541973040013863, 0.07448377061147964, -0.0040026674113813054, -0.11173400952947557, -0.09492975294340121, 0.13468544924233666, 0.21029522901310785, 0.1189851044997842, -0.04907965871035948, -0.04865230819787071, 0.13741958144431787, -0.16407153849121175, 0.3470974771700429, 0.3599465632044937, -0.012784155933562273, -0.07761020906131555, -0.10808917522325794, 0.031143544946434513, -0.12269049993898389, -3.0086380704487506E-4 ], [ -0.024469271834149497, -0.006453674158573978, -0.004392135532634399, -0.0035450807846785525, -0.0021769378846030196, -0.006743564767516527, -2.0989880969791974E-4, -5.611549208503776E-4, -2.2726362547614552E-4, 7.853175207278344E-5, 3.148301040630178E-5, -0.005608434790983277, -0.0033194999744249353, -0.0022491329359556884, -0.0022959574863431528, -0.0061246155016162, -0.0015740862911327541, 0.0025827944829551895, -0.001018535507728137, 0.0021058432223520114, -0.0018483083843369046, -0.004755846704855823, -0.0043572225385832795, -0.005937028866198521, -0.005222818014286395, -0.0029041618166256037, -0.003380720248255809, -0.0036370567408582645, -0.004780854552830444, -7.625585623721589E-4, -0.002719592605083023, -0.0028738643009586736, -0.0027401500953682556, -0.001916937207313589, -0.0021768713807987766, -0.00220963437772464, -0.0023080178938858814, -0.0036934986318101154, -0.004270214487181485, -0.005174147092347986, -0.0043836670757270305, 0.006907088165344462, 0.005746205795822214, 0.006421435714907895, 0.0025763124389351247, 5.880950054243799E-4, -2.0563321257329178E-6 ], [ 60.23765641837933, -0.04454942591690391, 0.08448869321761975, 0.01714462813681692, -0.12014831767538324, -0.18377424018615712, -2.9127525873860944E-4, 3.509106470570877E-4, 3.662271185095381E-5, 4.593083092740336E-6, -3.3508627244684956E-5, 0.08891860409741915, -0.04902966096458862, 0.22692932358065715, 0.018483534459087982, -0.15898974380237918, 0.15427517754406797, 0.030161003361716253, -0.1813341237654751, -0.10750026340482054, 0.12391159624046796, 0.05057883059994597, -0.40596507001308485, 0.6973151637369063, 0.017106866044024352, 0.03715147577658035, -0.07863099421490286, 0.07440717509018857, 0.07431461055592102, -0.003822822624071353, -0.11201619718816382, -0.0953721289152879, 0.1344578279687288, 0.21015522273139017, 0.11929565044367804, -0.048448628295085276, -0.04891551563232339, 0.13609395644588537, -0.165415310808998, 0.3449116760771256, 0.3592981503049698, -0.012516426038936733, -0.07773657762575967, -0.10890019933998578, 0.032210723408985946, -0.12250602683273062, 1.6912956198597546E-4 ], [ -0.042024259195265895, -0.003506917573088605, -0.0014526077850417194, 8.134945265380196E-4, -0.002240419624148088, -0.0033708959556704777, -2.4070902340778946E-4, 5.666443060290902E-5, 1.835279808895602E-5, 3.2066440473395464E-6, -3.2267753161978005E-4, -0.0037546190507800705, -0.0016339061034202963, 8.202891925254429E-4, -0.001857271609814047, -0.003942454412330655, 0.0028653956204915984, 0.005500246060200221, 0.0048197328494701385, 0.008892533846459237, 0.002647191428906833, -0.007500120088758484, -0.010395730694697188, -0.008161413890889448, -0.010371700584944807, 1.1370358790681708E-4, -0.0015430429163845567, -0.0022102465508981126, -0.0028674376274031095, 0.0010796256716772337, -9.271828879741833E-4, -0.0015045924129683242, -0.0017881167537871564, -0.00217718963073848, -0.0014999295011725764, -0.0011771922657794556, -0.0015783751723047583, -0.0073719590825047105, -0.008677664235825132, -0.007656012941125284, -0.01010095650134143, 0.002977012161192056, -8.701023474258924E-4, 0.004295426892551694, 0.005222348948271658, 0.008107229950071845, -6.347874176005522E-5 ], [ 60.2434686906665, -0.04511638657948026, 0.0852570374880429, 0.017219831392791495, -0.12007333784260936, -0.1840942278270437, -3.1356389867467736E-4, 3.4184447219962957E-5, 1.7546343414287868E-4, -3.1427166430040003E-4, 4.626380879827011E-5, 0.08889038227474495, -0.04812228686840876, 0.22691758112975174, 0.018243118616331346, -0.1590549105412113, 0.15427027205697852, 0.030444278891142897, -0.18175234439665475, -0.10792478096020422, 0.12395123824395655, 0.05128889213187935, -0.404908285924199, 0.6991993150590209, 0.0182330163584397, 0.0378772736247661, -0.0780037961625308, 0.07528931036545779, 0.07432368563790986, -0.004210789081007249, -0.11191931985440075, -0.09486975619896114, 0.13497150674480266, 0.21032035928310291, 0.11891155683791371, -0.0489676657237812, -0.04889536301561171, 0.13716870002478118, -0.16431642029880134, 0.34697156055948436, 0.360282946539193, -0.012594729448261621, -0.07781404252079543, -0.10827935647511473, 0.031327201487121814, -0.12277568051740906, -8.780211524275517E-5 ], [ 60.21801938410553, -0.04130974894817976, 0.08210418563612558, 0.01828485484417551, -0.11990583818550589, -0.1802580024322439, -4.916762600116114E-5, 8.686036861761403E-5, 3.5209757143288094E-4, -5.268570755116609E-4, 7.405731323000739E-5, 0.08829438785741757, -0.0518379140801343, 0.22761089481052882, 0.01885215694220338, -0.1596871688030829, 0.15202812961246187, 0.028656555075854975, -0.17743045235173466, -0.10699428416726092, 0.12161093404691312, 0.045407420377102, -0.41269335566533055, 0.6886705143499581, 0.01136183895672661, 0.0363425217802028, -0.08076687407572551, 0.06998767341714619, 0.07221049909985991, -0.0031225728761971974, -0.11387216331539486, -0.09789464621016405, 0.13228815612468872, 0.20937655773992425, 0.12071345103499803, -0.046890744198989406, -0.04791796016602314, 0.13287543335226198, -0.17027444740991554, 0.33762195111667503, 0.3544678036375693, -0.011491983842076867, -0.0771752313560704, -0.11122336003930026, 0.03686559757892658, -0.12263020074890285, -3.262717503634385E-5 ], [ 60.44203828845801, -0.05148312116879136, 0.0817903087223618, 0.022534202177632048, -0.11398662188423643, -0.1901328253939831, 3.224586580288241E-4, -3.0307557250584082E-5, -1.4791140302469175E-4, 1.1312549697596139E-4, 1.2995758960157507E-4, 0.07579856758909657, -0.05758739329012421, 0.2333900571167747, 0.02494880396900866, -0.17268171394652163, 0.14301346787608732, 0.039401326390846994, -0.1815994413992157, -0.1040918368285851, 0.11240838686425693, 0.048691709410481135, -0.42559464736609237, 0.7104884194184948, 0.008148144103940392, 0.04069027002754434, -0.07815024417685673, 0.06050852781805297, 0.07746444845260599, 0.002838553246689754, -0.11069978362820682, -0.10193282243245012, 0.13787768973209852, 0.21027227178200905, 0.12573126585615574, -0.04341510811983304, -0.04789514066307638, 0.13531808680342758, -0.18102762395087327, 0.3557217964563532, 0.35569511666532067, -0.011780962855669402, -0.07190398557502455, -0.09215798921719152, 0.05639896309706136, -0.12931478245711794, -1.9911064099124317E-4 ], [ 60.235685938478, -0.044208249842333076, 0.08399503459781889, 0.01729346135446396, -0.1202465740545376, -0.1832547043408169, 1.6704464548504693E-4, -1.8392720794139852E-4, 1.1690036140371949E-4, 2.538428828891369E-4, 1.4825353094017334E-5, 0.08864189916116037, -0.04928702349320149, 0.22704198824951213, 0.018282912003532877, -0.15884778889457257, 0.15385896804449872, 0.029854876957417575, -0.1811615602874063, -0.10827724280183264, 0.12329440822818133, 0.049539442076503626, -0.4066858304532494, 0.6968109219555989, 0.016221100114254507, 0.03751476989805377, -0.07866259015487992, 0.07375222947545251, 0.07379732818440232, -0.003560840206195459, -0.11215643537473932, -0.09531057836524053, 0.13432909479839455, 0.20989293739492704, 0.11915928937046649, -0.04830187681763098, -0.04845534605055066, 0.1363078748476352, -0.1659248236364913, 0.3449603149073766, 0.35874389012454494, -0.012281725497682331, -0.0777959510777347, -0.1092155273673509, 0.03230406481681929, -0.12313954072749136, -8.19333149445388E-5 ], [ -0.02779780134713384, -0.004679780377962724, -0.0025888567296074357, -5.65098510255135E-4, -0.004375649818070632, -0.004897763029953651, -6.342635327857324E-5, -6.842934451174216E-5, 3.026184248796011E-7, -2.0572816376897282E-4, -1.8816847587029253E-4, -0.0033458421059079885, -0.0024823461789006684, -7.768726808264054E-4, -0.0041996357006032015, -0.00343612439740118, 0.003215032770555773, 0.004107104937237004, 0.004341327762808907, -9.555562729088894E-5, 0.003333727918781739, -0.005566083791159189, -0.0043701960984391655, -0.0050937102389520695, -0.003878698890079389, -0.001610354577601129, -0.0034724550401043506, -0.0027598125219561397, -0.004327556931056033, -3.321339593505718E-4, -0.0012665416717195788, -8.887441214646128E-4, -0.0013230363779501314, -0.004377895695963527, -0.0014693430513846592, -0.0013925978783353812, -0.001510551235112525, -0.004985027363205135, -0.003953834933702174, -0.004415992023760242, -0.003808717803056687, 0.003334615202902888, 0.0063694019489431, 0.006706663638057443, 4.1621121634480713E-4, -0.0010110321826422434, -2.1965477165354202E-4 ], [ -0.1937289501664342, -0.03336635221845467, 0.0012427035490810495, 4.3047830616463627E-4, 0.018413009617551827, -0.034140109054582646, 1.2721607548753775E-4, -1.8667843208231545E-4, -2.253589699079618E-4, 1.0607140039301724E-4, -1.8132202988497485E-4, -0.02483211192109503, 0.0038986091082776966, 0.0045931373256102295, 0.016403162782989242, -0.024463525619466422, -0.021376546855888922, 0.009357110208439235, 0.0027488938657315096, 0.005896479943238001, -0.02120203900112339, -0.00478649068500194, -0.0011222246232201994, -0.036214530506784255, -0.001813747545773337, 0.009639416230508869, 0.008667294416732961, 0.00491246649580528, 0.007027503418838319, 0.012160032491692806, 0.0031808443075843746, 0.006898802582838031, 0.0014856913646776031, 0.01124776044220361, 0.016451510972900773, 0.01560663057926427, 0.014718692397564969, -2.509261593630686E-4, 6.467488100522982E-4, -0.02774524896801773, -9.917571339665377E-4, 0.005673267250035621, 0.03613247085383811, 0.010989491389758651, 0.009392708653548253, 0.013009019876899036, -2.6961452671251808E-6 ], [ -0.04002701313600159, -0.002304395115815229, -0.003859534076407252, -0.007343925680320887, -0.005633874741638727, -0.0021380308999431495, 3.281725146306412E-5, 2.1321945968473573E-4, 3.699554976749526E-4, -6.265871547084743E-5, 2.2856478985584915E-5, -0.001339961036332166, -0.005901770776816848, -0.0067109666050638814, -0.004796277376108927, -9.321098832109526E-4, 0.0024041236773593264, -0.0014192495685867769, 0.008412601962172346, 0.008915555878568312, 0.0023342213650113927, -0.002991309268429816, -0.0036778006230973634, -0.003204591052035954, -0.0039159773944324, -0.004342445488273771, -0.0035196628420749295, -0.002886076190948102, -0.0032665293221464356, -0.01032395110132896, -0.005192597803542978, 5.76007712182365E-4, -0.006065348818095273, -0.005541868020374528, -0.002133893003865052, -0.001411633857096936, -0.00217669699332063, -0.002811073007696426, -0.004005346635465723, -0.0036896595386071655, -0.004010037658918016, 5.986568104907291E-4, 0.004634152443894279, 0.007546257521364034, 0.00826900578862005, 0.008190725251923383, 2.2934157988912545E-5 ], [ 60.20815914504203, -0.040316078681961895, 0.08256338703110769, 0.017641904931498045, -0.11993714102773474, -0.18004258182396637, -1.6738144440695696E-5, 7.843028134569627E-5, -3.2527558405791177E-4, 3.099066936524851E-4, 4.832517500556077E-4, 0.08792769208329346, -0.051793179568319955, 0.22793783284701807, 0.01906038960805972, -0.15957722371463903, 0.15095992815909823, 0.02847566356080118, -0.17604842156160286, -0.1072951809333176, 0.12047487908082347, 0.04424772800821944, -0.4137309849437033, 0.6867081532653059, 0.01017261579257488, 0.03623240950637994, -0.08073647897647203, 0.06913278052418062, 0.0719664772613762, -0.003798355308363085, -0.11449881411275542, -0.09837115265839762, 0.13245454221336758, 0.20911331820843818, 0.12143079384654612, -0.045979252429512875, -0.04734204839633957, 0.13169870307374915, -0.17167614297803263, 0.33552931678826436, 0.3530502602486507, -0.010330269701878734, -0.07710510301546616, -0.10951276830681438, 0.03777374417911749, -0.12131379526009477, 1.3911210903613664E-4 ] ], [ [ -60.27539023786253, 0.009597448035590435, -0.14091812534549203, -0.14113670154580488, 1.1727353817793576E-4, 0.00207819240711059, -0.13739615458017915, -0.13971439919429043, -0.1346954002315616, 0.004774167399634689, -0.14160884904980311, -0.13119815547919278, -0.13947189765678025, 0.00998422722481748, -0.1376447793157371, -0.14100754443959532, 8.603271536498495E-4, 0.0013596554370683682, 6.819509944643065E-4, 0.013005864092894514, -0.13987329711860763, -0.1431093555062405, -0.14405712837114057, -0.14128819246451574, -0.14085990360057332, 0.003992364018889075, -0.14239884433366243, -0.138194135758656, 0.0020837342005005414, -0.14321334726440363, -0.13544546421138448, 0.0046119554116494064, -0.13652414145718042, -0.1423025182058219, 3.136389530899308E-4, -0.1420308263383922, 8.295745594275316E-4, -0.1401108303623077, 0.011644545648859105, -0.1420010459098425, -0.13202584271614384, -0.1586828233899717, -0.1397171765223919, 0.0018429076473855238, 0.011676891117939618, 0.0029485051888641844, -0.13013661326250361 ] ], [ [ 60.25571429467796, -0.14012508231332965 ] ] ]
}