{
  "config" : {
    "algorithm" : "ListNet",
    "numIterations" : 100,
    "batchSize" : 0,
    "verbose" : true,
    "nomodel" : false,
    "params" : {
      "regularization" : {
        "regularizer" : "L2",
        "rate" : 0.01
      },
      "learningRate" : 0.001,
      "weightInit" : "xavier",
      "optimizer" : "adam",
      "layers" : [ {
        "num" : 46,
        "activator" : "ReLu"
      }, {
        "num" : 1,
        "activator" : "Sigmoid"
      } ]
    },
    "dataSet" : {
      "training" : "../../../MQ2007/Fold4/train.txt",
      "validation" : "../../../MQ2007/Fold4/vali.txt",
      "test" : "../../../MQ2007/Fold4/test.txt"
    },
    "model" : {
      "format" : "json",
      "file" : "../../../MQ2007/Fold4/models/ltr4l_60.json"
    },
    "evaluation" : {
      "evaluator" : "NDCG",
      "params" : {
        "k" : 10
      }
    },
    "report" : {
      "format" : "csv",
      "file" : "../../../MQ2007/Fold4/reports/ltr4l-report_60.csv"
    }
  },
  "weights" : [ [ [ -4.640224759404299, 0.5211186949635005, -0.27200009158684074, 0.2108523577975338, 0.3668770070751092, 0.5655537021162886, 5.679718223292768E-5, -1.1989696990092745E-4, 2.4635840693423085E-4, -1.0422868674807333E-4, 2.4190294777030682E-4, 0.5146185503063141, -0.20484129862904446, 0.08895950001906698, 0.3918068787584747, 0.5503466662121846, -0.18537788977066275, -0.6895931164961934, 0.8133498342748718, -0.4105502943040603, -0.18935646053694097, -0.26122281561728283, 0.15148967954790926, 1.3105111424340259, 0.22332740655272082, -0.068702946322244, 0.03761560538980884, -0.32051816519759707, -0.09971375106685419, -0.07119974917246237, 0.05792611867996381, -0.577385082246299, -0.1974605580516512, -0.12600045183045508, -0.2793719808322009, -0.38037803492494726, -0.05351180976454188, -0.27015734492765336, 0.3173613449444413, 1.2745215563806298, 0.2769998872089761, 0.3273518249827151, -0.07151884124879644, 1.213959140969864, -1.2261865395330693, -0.17786280940830743, -1.7751454508043582E-4 ], [ -2.7333955680756135, -0.015968541591890338, 0.24142106177183817, -0.08842846646167903, -0.16134720260822025, -0.0024103292550526354, -6.852731633467376E-5, -3.2271019724889334E-5, -5.572008806534128E-5, -1.3445804614091127E-4, -2.7953554915207746E-4, 0.20492166650840798, 0.2593950444546657, -0.1744234401192175, -0.14120659193762664, 0.22881177200345287, 0.04678038398353102, 0.544593633617649, 0.3529190140603782, -0.7171880058423813, 0.043717134341625025, -0.5584765500214467, -0.4561104185139523, 0.5975626146752858, -0.25481538585858354, -0.10977948093824132, -0.13401321056184912, 0.23749419149707476, -0.2501076030116749, -0.306513240006718, -0.3903753006238012, -0.6123685368588001, -0.3528471425946195, -0.4992955367300038, -0.468926761213469, -0.4001435837023012, -0.43856383564802726, -0.20855695246295933, 0.19539934867416797, 0.667142199336339, -0.07144290449000447, 0.6841272045006253, 0.4214760775670404, 0.9290730734888757, -0.36727438102168297, -0.35711555237040765, 2.300414248992482E-4 ], [ -3.88996085407733E-4, -0.0017551113103308552, -0.001406917451049902, -0.0020440667348657483, -7.84051721116274E-4, -0.0019512417896660665, 2.6526160317638555E-4, 7.87134014874558E-5, 1.0044272877227344E-4, -4.683612847295372E-5, 2.4838414873658055E-4, -0.002340415372342126, -0.0017478294195301081, -0.001200951765813163, -9.672663238640828E-4, -0.0021163152378858583, 3.7169370514239286E-4, -3.4857965580312156E-4, -0.0011014827093579903, -0.0011484967425449892, 3.465548373243901E-5, -0.0027683920522891658, -0.00275103335146393, -0.0030816186606140326, -0.002713007038721083, -0.0014758209125611225, -0.002160597377459655, -0.001632014210515043, -0.002481564154629278, -0.0014410585342980464, -5.643723597609757E-4, -7.991040626226919E-4, -6.430219075246689E-4, -8.776060759242071E-4, -8.161448639629634E-4, -3.954482762351418E-4, -5.03405733411124E-4, -0.0025723738708696106, -0.0026081883289439185, -0.0028585484180027993, -0.0023580164965617783, -6.123490269172716E-4, -4.255254316450832E-4, -2.4497310047571114E-4, -8.094575832049491E-4, -8.809791509842552E-4, 1.6358419028698922E-4 ], [ -4.197463801356148, 0.30860101977584153, -0.3096558836437237, 0.10857897444097822, 0.20896047569515835, 0.3234295288571593, 8.399907114089089E-5, 3.496758350848572E-4, 2.054435541739577E-4, 1.7766654936277282E-4, -1.4695735933553647E-6, 0.5580685818685617, -0.24303539963250373, 0.021377948662570524, 0.22470710297991928, 0.5821843730898708, -0.043417296142095406, -0.36451981787015286, 0.6261507128113313, -0.35424000373900566, -0.043879210706476594, -0.19661985689086248, 0.0515096447710135, 1.0805270595408931, 0.17157972820536158, -0.2149197250242581, 0.0029365773507263587, -0.39238426065321874, -0.10576965909568807, -0.0364724994273747, 0.0414918192334214, -0.06372594063745207, -0.20263916372447652, 0.038165309756452236, -0.1386199301632873, -0.3049603657251531, 0.09995072664739192, -0.07944328477087201, 0.17645539841294736, 1.0529697875733495, 0.17105481357380323, 0.46259549589734233, 0.17228810049326967, 1.1106355368811616, -1.0817303823472013, -0.17997437812574496, -2.987687183896422E-4 ], [ -4.43422997195793, 0.5027922941621689, -0.23080800103151758, 0.2393384825249622, 0.4390884576063074, 0.5207987358882114, 1.7320647680758638E-4, -2.0129842637177844E-4, 1.0922241880656547E-4, 1.5862427233308436E-4, 8.23230226614322E-7, 0.4901884119532862, -0.1714277913572331, 0.20552652756018966, 0.4715326179721514, 0.5205551179019184, -0.16505178624361108, -0.808967996137023, 0.8930964068296557, -0.44028898813011064, -0.16813812232722236, -0.2592002849844685, 0.0898107320481149, 1.248988376288362, 0.17265614984810096, -0.08075318861522851, 0.11640119316853154, -0.3285936715707583, -0.010628378012990223, 0.13197195697709252, 0.18953612620124757, -0.4936192363186676, -0.11146703389242844, -0.0697222103798507, -0.17543369686006766, -0.2705808455561774, 0.01793266902393945, -0.2803854448792948, 0.26950923305096375, 1.1874867920788166, 0.233032398934814, 0.29798908508037547, -0.15978647409554342, 1.216382408915767, -1.359640505468687, -0.23371985214505378, -2.3387272914086158E-4 ], [ -8.468133678929712, 0.2800616418977178, -1.0892599926391249, 0.17172189045661532, 0.8091049972282756, -0.3007982143276025, 3.7440399844092124E-4, 8.463679454118149E-5, 1.4600763019885515E-4, 3.204705462914252E-4, 2.8017328746391155E-4, 0.3442523238804636, -1.092989163545433, 0.40528586931900246, 0.6680787500214662, 0.16292340896397445, -1.0888132600096945, -0.0924235537775558, 0.6856509182702232, 1.7234058270735588, -1.064135022371688, 0.7178917216746858, 0.9842361953183019, -0.5094806806123614, 0.8411047508521337, 0.3436641420988757, -0.0871186577418605, -1.2658825027668108, -0.036542112461215116, 0.818765802303037, 0.30600438473836056, 0.43325065062114504, 0.20221775584302684, 0.4152458543445423, 0.298850779689014, 0.6161442671293996, 0.29740533185951346, 1.145377824360867, 0.7505745108926304, -0.8773240944434244, 0.554766038397939, -0.9846741672768585, -0.9273998149218178, 0.05581733188953674, 1.9501751466265973, 1.484140845275924, 1.1500444465945844E-4 ], [ -0.003412783808240407, -0.0025938290548755596, -0.0018797569872213429, -3.2266482970379E-4, -7.09110647289394E-4, -0.002520198110210573, -1.2194145640583353E-4, 3.1120288050689424E-4, -3.285320499121031E-5, 2.756514952220224E-5, -1.2192975075892854E-4, -0.0017424146638155235, -0.002148146750773751, -7.52143235497803E-4, -7.027640492718438E-4, -0.002005414596120233, -8.903698242848289E-4, -7.253206873334835E-4, 3.723352296048404E-5, -9.926037935734445E-4, -0.0010716428081330544, -0.002719816525445078, -0.002496773256239695, -0.002686475922560338, -0.0029584990518900026, -0.0032488255140578717, -0.0034145538303169114, -0.002128889364364778, -0.0033599774412235725, -7.221382023675501E-4, -6.315230910843256E-4, 1.0971286016005857E-4, -5.815767956668099E-4, -4.761162090435493E-4, -7.053573488450414E-4, -3.00861583070012E-4, -9.918536869766E-4, -0.0027084188157208916, -0.002868679479028651, -0.002359747201720864, -0.0026626588704616446, -0.0021435391231666625, -0.001643258843227681, -0.0025275588621265226, -7.884656669614314E-4, -0.0015436526491522903, 1.3376026114649128E-4 ], [ -2.641481940845535, 0.017350292595940713, 0.28425846042475617, -0.12893909858627586, -0.03830785758409401, 0.026714207904384994, -1.4670123912984196E-4, -2.283521111765089E-4, 6.818022075919712E-5, 1.8416068441818366E-5, 1.5785647151590475E-4, 0.17763388686262635, 0.2947249028962634, -0.19515644763082263, -0.018348357918780308, 0.2139007379989186, -0.08269341178906343, 0.505317350243334, 0.8066634878511393, -0.9821727539464995, -0.08300468399602273, -0.551674876865515, -0.4502412267119538, 0.7578830364155401, -0.317125183259684, -0.13167353015432956, -0.12328029517548077, 0.29949045344616926, -0.24709408024644447, -0.33929542227001763, -0.3736817065550264, -0.708242986913056, -0.2921534289145094, -0.4558185937678342, -0.4061819188231481, -0.4055051514375843, -0.3895883581076299, -0.32791822850819274, 0.20237185333195176, 0.7992005375819352, -0.10372359467579895, 0.5924444333327153, 0.31812986791892806, 1.1445475458691365, -0.3508692562898174, -0.6738970534675469, 5.97964529343538E-5 ], [ -4.368614681754881, 0.4906156810648936, -0.14954763401861862, 0.25961023882223777, 0.4976948292508705, 0.5349882323178305, 1.0883265304963366E-4, -1.8706994338364615E-4, 1.8760482505785286E-5, -1.1483066144030617E-4, 1.0868602912855819E-4, 0.46460767654342267, -0.0898769116381737, 0.1759386636236543, 0.4956809759935766, 0.5030232897389272, -0.18699944541768432, -0.9176390162680055, 0.8364080670538725, -0.47891936005055463, -0.18826312479145424, -0.25705513534159097, 0.09998671254660473, 1.24280105929274, 0.1800821731802826, -0.03443754772990311, 0.1586622488293356, -0.27646620945797634, 0.027977842418419052, 0.06898009832913099, 0.22738757014701627, -0.5728125245184933, -0.07264629396990739, -0.0812691930035079, -0.19228579019898975, -0.2649798848906647, -5.573926403697059E-4, -0.2830347202388806, 0.2860188856055406, 1.2035146160652619, 0.24296140629235286, 0.27673323830664376, -0.1926828921408703, 1.2057140570181903, -1.4978814260103452, -0.23843035495229356, -1.8405836935699805E-4 ], [ -7.748660660533832, -0.26508679655619904, 0.2664482602836541, 0.7743828423753298, -0.20997291452324515, -0.8992904718677535, 1.8966472024312556E-4, 2.1299434478782962E-4, 8.38592899019216E-5, -4.3296303762848347E-4, 1.563771744341157E-6, 0.8439566671184368, 0.14521116745822965, 0.997429516298117, -0.4515860241515681, 0.6644343532783539, -1.002901688798818, 0.3184748634657518, 0.9681859921251584, 1.3963605352770536, -1.0373967329546312, -0.12111481768656168, 0.13925565967878234, -1.6280673226551976, 0.03921693063591903, 0.8725710802769905, 0.18996848740386355, -0.4838806330931685, 0.31814108274728425, 1.0553000191914896, 1.1269933501754337, 1.1019232234937755, 0.904362211410172, -0.5542170014972995, -0.9843236277684313, -1.128168365658323, -1.1146275958830567, 0.656368466397817, 0.08692747731495828, -1.8526432484928586, -0.23826579220688934, 0.5386497408126868, -0.5998113129165367, 0.9285674375025456, 1.5834674822644876, 1.0791231350840682, 1.1713500439072214E-4 ], [ -8.603772383002635, -0.4345943230632701, 0.31429492086634253, 0.7968033659495165, -0.20341977658566934, -1.0533475711598683, 1.2656469284820496E-4, -2.3040551758900292E-4, -2.735103074289623E-4, -1.4457901187850159E-4, 5.346353174581698E-6, 0.8316014639904945, 0.1952259270480155, 1.0195771596526497, -0.442435429584582, 0.6427979378975709, -1.2239355516448505, 0.39412399783412927, 0.9680090068102817, 1.3786626987742865, -1.2421410626101126, -0.10982526614831212, 0.16858347867500262, -1.6867613399251382, 0.07468897166697575, 0.9245992582050772, 0.220710412098562, -0.42621400277327093, 0.33443173819106015, 1.0497430881599712, 1.1434114429671438, 1.150767028556477, 0.9209085080746657, -0.5293360461148234, -1.2336102948055094, -1.366780623585319, -1.339882291132729, 0.6600832249660322, 0.11444606845309947, -1.817663185499107, -0.21515183549267647, 0.7591888212547822, -0.3867928771235256, 0.9192677201729949, 1.5435630903989725, 1.0113059512116316, -5.7091384152755626E-5 ], [ -2.789020446719183, 0.08721477156172351, 0.2397697057528707, -0.158854083097496, -0.1933139216363014, 0.08614414452999233, 1.8993484347165298E-4, -3.641802565286157E-4, 1.2864085982625966E-4, 1.4926242732778708E-4, -1.5837407831871615E-4, 0.16201617930188797, 0.2536842524850746, -0.24577610880128578, -0.1457452084127634, 0.19431173854328465, -0.0369582280081612, 0.48568128916985503, 0.8195594377152006, -0.9077274551989342, -0.038644060282632876, -0.5856192266065063, -0.4862259016987055, 0.7592408326801886, -0.31394111070529673, -0.18906040019040568, -0.17514380178760416, 0.23255072510624616, -0.2926773695046248, -0.38151591644872385, -0.2580798221488772, -0.5233385813803105, -0.18907195873965735, -0.5159366564084213, -0.4395823348919191, -0.4182301650262861, -0.41808758280639235, -0.3247202885724163, 0.18140559641064388, 0.7936901659626303, -0.10648827751890018, 0.5981510533296021, 0.29686982140364204, 1.2051952861037412, -0.3347418536138687, -0.5557049467800882, -9.28695084746554E-5 ], [ -0.0014302095531528796, -5.833906301455769E-4, -0.001563197245883539, -0.0018156527496431642, -0.0011579568173805742, -0.0010344118784559448, 1.8828838672830877E-4, -1.7972320570502757E-4, -6.55373100049294E-5, -8.260499537351603E-5, 1.9462054504488545E-4, -0.0010386387244814307, -0.0014216316301976677, -0.0012841371437512037, -0.0010159683672261808, -8.805868983188774E-4, -0.0012703728485864059, -0.001431041022499494, -8.594812484136241E-4, -0.001143495087434752, -0.001209703278810603, -0.001612509931028502, -0.0020694401722895577, -0.0022120614939713777, -0.002276690142543013, -0.0012663130794548388, -0.0012268803702749668, -0.0015520295765947384, -0.0017376195103785694, -8.043827409362452E-4, -4.0658567604879333E-4, 4.309889073915246E-4, -0.0011397490741284222, -7.862209471634166E-4, -8.662423194559643E-4, -6.464077881391782E-4, -6.80790964649153E-4, -0.001782140259928202, -0.0019254556677238618, -0.0020023091814622856, -0.0021530135037451698, 1.248332588683743E-4, -8.860672882633091E-4, -7.663565261504467E-5, -8.378643554947416E-4, -8.066473125088693E-4, -2.241828262377913E-5 ], [ -6.238659075525144, 0.2819616525037072, 0.49455684011494633, 0.16569759200135473, 0.8383586539756034, 0.2981693286626878, -2.0742152866840733E-5, -1.3638048361628164E-4, 1.0222816322698156E-4, 1.3839354132683072E-4, -2.0795216072806708E-4, 0.34457064864261966, 0.46937774470177507, -0.025477480129723014, 0.8534615978875669, 0.3517754814265519, -0.10611228168805634, -0.3014119648933896, 0.48987936358378975, 0.3072652827304831, -0.1025762915521943, -0.11871340517813274, 0.1187999469914251, 0.2833312416469372, 0.014121123360233946, 0.27423147089215333, 0.24309873729985773, 0.17855644960041564, 0.2857039456976862, -0.5162174731865466, -0.010332696306994318, 0.012038019696810436, -0.05918187698491948, 0.5880896829637992, 0.07818216554848895, -0.036301226360145405, 0.304633174771209, -0.01733931529027661, 0.3174640842043299, 0.2778227890113231, 0.01886149475058405, 1.0704932115939072, 1.2166737592809576, 0.5704748138623723, 0.31603821866957005, 0.2421151768379459, -2.30355147752248E-5 ], [ -10.213493229659662, -0.26145900750793527, 0.40277248289136397, 0.8004570412838922, -0.1186383144653876, -0.8295132682649389, -8.480701307711082E-5, 1.3950285350087914E-4, 7.659810844651724E-5, 5.73395850475983E-5, 6.359709911645813E-5, 1.3268278752317721, 0.2713377301925449, 0.980631650385083, -0.40684765149577706, 1.122242949399489, -1.3780973846929028, 0.15717773424079817, 0.8360424383697304, 1.3462788067309226, -1.4344329092660393, -0.0075724617842873165, 0.25042664635421646, -1.2986407075042457, 0.11350274666976475, 1.084740493026639, 0.36458558683287134, -0.3151979384494431, 0.44899322973250083, 0.9940578738124691, 1.1122736931625112, 1.0888740269139658, 0.8861597704756287, -0.48923243948735123, -0.7083312978113315, -0.8430219603720653, -0.7351270228889439, 0.7270040125854372, 0.15712426819976294, -1.3028132354023456, -0.2225295907295678, 1.0183820242079076, -0.08443437693898248, 0.5931232281462433, 1.3907909892219312, 1.0295918360073664, -1.6219354328934432E-4 ], [ -0.06445659848264869, -0.20000941461898658, -0.030561922068641067, -0.14284430932756587, -0.0693304478991555, -0.1913116545429522, -1.6931936317661437E-4, -1.5485685460840573E-4, 1.5532698056031462E-4, 2.396247794208663E-4, 2.602973799085933E-5, -0.0949943801591741, -0.02840341914863738, -0.14610733015909647, -0.048326720234522655, -0.08519603027124985, -0.2146458019431126, -0.1978413872482532, -0.08523417330795209, -0.6462916666099707, -0.21582738805721302, -0.26630849988733185, -0.2825090442606466, 0.30582813305466544, -0.2014833830097096, -0.20696966338594341, -0.13802477644648148, 0.009522895782433505, -0.13451673496704583, -0.17280841484665346, -0.09005781608051755, -0.06923372478234309, -0.10153671744659205, -0.055458271201272245, -0.10878294994809473, -0.09328741760541057, -0.09498382394248898, -0.3104829489229833, -0.23015060939789228, 0.29190831526077204, -0.1364499150362047, -9.381967402569306E-4, -0.15029709232376262, 0.08454765399464165, -0.6406475095067518, -0.577362273346282, -1.239178111726689E-4 ], [ -0.24666920715142254, -0.02375121650412533, -0.013648152267171853, 0.0015791775618942947, 0.024997281486051955, -0.023003711150117043, 1.6270811624586579E-4, -1.523311942989278E-4, -1.473320867552173E-4, -7.03151757770286E-5, 1.4264455930801983E-4, -0.01564648257175094, -0.012483220481397274, 0.00876918773205144, 0.02385953784150549, -0.014754985456668571, -0.006073507001243921, 0.012232102162671728, 0.017050186182550567, 0.052312495155616645, -0.00552733948374003, -0.013700586038710433, -0.007167533708658237, -0.05625786911500584, -0.013516507050810934, -0.001566946437432839, -0.010652519989507036, -0.02217225124412807, -0.013653829478150315, 0.022381133712499498, 2.4728060066188E-5, 0.0014373684071501982, -0.006812058011542884, 0.021477491499756068, 0.002955192853820862, 0.012494919091462811, 5.450506227739427E-4, -0.0050012376963328095, -0.005439315276080556, -0.047534720935502574, -0.01253312081328908, -0.0036364670986882923, 0.03373972348633222, 0.019957073466329606, 0.05013794956291606, 0.04372225569547636, 7.053981955950565E-5 ], [ -8.33262432255309, 0.30911079807124336, 0.05653129969108326, 0.7759144550375513, 0.2617606884254609, -0.4144339371180367, 8.16191367410255E-5, 1.6596979817361913E-4, 3.832071700294072E-5, -1.9907661084372604E-4, 2.871613511670096E-4, 0.7779463057639306, -0.045729381348609675, 0.9736638817713235, 0.08342239487706182, 0.6049142092747973, -1.5698890411732982, 0.1904306949278176, 1.3720528722907002, 1.662172554706549, -1.5989093342954068, 0.19765683191665628, 0.5064558121166753, -1.0682749020504148, 0.3850116831731748, 0.8206280863415111, 0.236659834252999, -0.6074015802576633, 0.3965567435098679, 1.0426628983075608, 0.967544755645686, 0.8488113294860544, 0.7935277627472881, -0.054286811330952735, -0.69066585787965, -0.2557773113891176, -0.7507763925570856, 0.8680212527242265, 0.4014405040315169, -1.4892311521024746, 0.12931326938237475, -0.27246785667626816, -0.680656905929925, 1.0123222530828435, 1.8596502482054351, 1.4567260848309804, -2.445672545380812E-5 ], [ -2.690882947449012, 0.05320734121540981, 0.2559723212556776, -0.15052457989157375, -0.14818983029270455, 0.0590185590767718, 2.3966247466657481E-4, 1.3836845683015556E-4, -1.478534117093657E-4, -1.599728203101361E-6, 5.631237480239506E-5, 0.17375516223840032, 0.2675446973012694, -0.21563409934931768, -0.10417607923515056, 0.20900995160778932, -0.07276870330540297, 0.514369126459785, 0.7931896624254101, -0.8872372827990496, -0.07383666332774495, -0.6092010615875688, -0.4855307014200683, 0.7444658886628404, -0.32281017662817496, -0.17160051434322837, -0.14995652516110658, 0.2670967226165454, -0.2704054627301927, -0.3601168415444705, -0.3271345258582199, -0.6209932250057791, -0.25965070892609926, -0.47764886524885414, -0.3979544371799192, -0.3930214376788703, -0.38104692277674723, -0.3467603172788839, 0.18428908156398469, 0.783669360159887, -0.11144666434190452, 0.6070480844701474, 0.3328826205914945, 1.16085582988819, -0.30508416182516335, -0.5611850976468911, 3.255610499259565E-5 ], [ -8.181672208544967, 0.14056852787228336, -0.3249679020917969, -0.6051827956423449, 0.9046532761045634, -0.15975095949548, 2.5369065114326067E-4, -1.842469044348673E-4, 8.09797828339984E-6, -1.0486767769967058E-4, -2.4659370116175927E-4, -0.3473639174300689, -0.3565497038374776, -0.5482190601140994, 0.853228955624385, -0.43252233901156445, -1.6096220762304623, -0.43696940694760905, 1.1352399028884648, 1.1614065308615151, -1.4980758495339979, 0.920579740691966, 1.0371844850198018, 0.4624613898020568, 0.8884866023798705, 0.39852304344927203, 0.32528487968181674, -0.6928275494218631, 0.519346998747244, -0.012715114096761689, -0.9207093865571732, -1.0452890688037253, -0.7628025567871495, 0.5821458790401807, 0.36165204206878404, 0.7562971787625725, 0.43005329318332164, 0.883559892194814, 0.8319515560059164, -0.07652527813144733, 0.8004675758552032, 0.9027937556043448, 0.8308198060151094, 0.3839673100008457, 1.13161463344802, 1.08421788936194, 1.789034290783958E-4 ], [ -2.8139703305860393, 0.09022440853008862, 0.2289753567265776, -0.15954233624349679, -0.21907583170117687, 0.08768875528388208, 7.641901875679224E-5, -6.68628322606752E-5, 4.4903511590189035E-5, 2.9803067704031494E-4, 2.187773417774736E-4, 0.21230642080960668, 0.24658875373749267, -0.22746039445621766, -0.17487835131947407, 0.24155900253439783, -0.032887188826014054, 0.5263376143751526, 0.7854217210988316, -0.819402419020925, -0.03648864972293962, -0.6361578594602147, -0.5000996075552, 0.7203282666262188, -0.328956650690465, -0.167853473355022, -0.14655682251933524, 0.24297299431101962, -0.2607229695525211, -0.37492708530758245, -0.3884830661356667, -0.5287176096871156, -0.3401822179550553, -0.5319773351751542, -0.4510233068177223, -0.41235579048227644, -0.42459175787037495, -0.4160174793972995, 0.1501672730138298, 0.7552802678827885, -0.12693669226804985, 0.6746963601250554, 0.4139566143193548, 1.2211251002440364, -0.2146816716102929, -0.4701936261620577, 7.381969640555266E-7 ], [ -4.126051078500839, 0.5777330839785355, -0.30849851747624546, 0.20211148581579447, 0.37021171466265795, 0.6245848240667297, -1.526075973588051E-4, -2.4032551680242236E-4, 5.383783677037689E-5, 2.087710789053087E-4, 6.703811760193662E-5, 0.5000647757354802, -0.22901064538878402, 0.0772573076120455, 0.39363267869973234, 0.536181915426751, -0.16289132892171498, -0.4630715811904775, 0.542143239330422, -0.517559299962245, -0.1672645039590127, -0.3205892090179015, 0.14188380342939358, 1.427666577266647, 0.20057565671334474, -0.0887034349473668, -0.05067757903598658, -0.36567145168683307, -0.1758914282933379, -0.12168941179233425, -0.022655480115337873, -0.6951654902554102, -0.29434521026615224, -0.192022192354789, -0.28076512589438923, -0.38642570735736925, -0.046488403657336703, -0.3476911756719501, 0.3174934370156572, 1.4001706716013258, 0.24911118309828567, 0.45175634718129193, 0.0871355590079181, 1.1094264922253034, -1.512399507022706, -0.2974399165063833, 1.5445445259172386E-4 ], [ -0.07328127527082447, -0.19026570993606606, -0.037526743157184746, -0.16859268523690868, -0.10460653255840087, -0.18199195641597513, 1.74441595067261E-4, 1.5364916424758608E-4, 1.8960340971956494E-4, -2.7630067354541806E-4, -3.4521564224950684E-4, -0.10969764251141496, -0.03646902556939642, -0.18094630008041734, -0.074354448185943, -0.09734364133686897, -0.23181496021731657, -0.21618552543161257, -0.09430781213536218, -0.7246433500568221, -0.2329293762253406, -0.29836219284978877, -0.30901149951273715, 0.33081760893517437, -0.217890625896789, -0.25322753602013187, -0.17233250623012164, -0.0018980883849439734, -0.16040038380467797, -0.22702335846621674, -0.1371102675406918, -0.11203213984825502, -0.1391042504742244, -0.07523625875908459, -0.07377423172660919, -0.06062766988955753, -0.0619838588321358, -0.3537941018336709, -0.2595834625425704, 0.3075310101732903, -0.15384774352283695, -0.0050140000866853475, -0.11322723272739414, 0.08166596865608627, -0.7043196998225316, -0.6396268510180086, -2.108713456083822E-4 ], [ -0.07507111536390158, -0.18591534415947708, -0.03828961170749158, -0.16442037583010932, -0.1048454318683314, -0.17714308749450272, 2.235077915378626E-4, -2.074657004450609E-5, -1.4499478506996616E-4, 1.5880767919894154E-4, 2.0215033562655835E-4, -0.10260244589760903, -0.036690035669193315, -0.17684516871740555, -0.0740762464525271, -0.09022273471291217, -0.22776826398041256, -0.21549821921406925, -0.08935787479527686, -0.7204662197647421, -0.22932372127220285, -0.29739529463889725, -0.305702555696727, 0.33434661367155916, -0.21457260939168565, -0.2538819121603068, -0.17262465407233876, -0.001163165878100335, -0.16034483972934768, -0.22104650117832372, -0.13007992818995343, -0.10609573732561589, -0.13226651283710522, -0.07539576143212692, -0.07437548629092228, -0.06058248965798744, -0.0632957317822992, -0.35293018809834137, -0.2559753950098294, 0.3104084773637616, -0.15089359234551575, -0.004685404733284467, -0.11642973788450879, 0.08466636258056706, -0.7047162293406531, -0.6347979191439851, -1.5464696218332215E-4 ], [ -0.0023644290117014475, -0.002142804789447198, 9.358021311307349E-4, -6.294386807180376E-4, -2.3297471568233555E-4, -0.0017936879223373974, 2.1127443167445303E-4, 9.863118327047822E-5, -1.8432927621425308E-4, -7.41727918829339E-5, -3.8461600324082417E-4, -0.0013953906567203585, 8.13443365735102E-4, -7.659868257917783E-4, -1.4056045219853615E-4, -0.0017206618056566174, 1.551778972993598E-4, -2.9720837786521723E-4, -2.7142757002093245E-4, 3.3685284048219237E-4, 1.1585401637643518E-4, -0.0027263115937588476, -0.0020435899309029144, -0.002067826667497429, -0.0025979280529057395, -8.0937437177658E-4, -9.77575886449417E-4, 6.354864935431187E-4, -0.0015738275686768752, -8.587913542158468E-4, -6.674743584803442E-4, -5.45008772449841E-4, -4.221256200747698E-4, -4.0300393345245604E-4, -6.406987240403025E-4, 1.5287184093940722E-5, -5.643213848000253E-4, -0.0023923675490574096, -0.0018218788653553985, -0.00182345985306769, -0.0019601210735035375, 3.181793557543225E-4, 4.4860809945008124E-5, -0.0010644116038135885, 6.333862261393759E-5, 4.148003184732986E-4, 6.311748877779006E-5 ], [ -2.8198973437104216, 0.04903899634562898, 0.2160254038201543, -0.10388817347238206, -0.2125902926130111, 0.05705547509484762, -3.9138130829378487E-4, 1.8724240260561566E-4, -9.364008970263488E-5, 5.583328998800395E-5, 1.6983052973176775E-4, 0.23638306066594833, 0.24014653188310273, -0.1726632869555256, -0.1736830409897638, 0.26330839385041377, 0.03888876439935925, 0.5477480112904967, 0.449797444508794, -0.7731275669780424, 0.034966099945685794, -0.5780280807077424, -0.4494307981313019, 0.6548872808105318, -0.26938931530606103, -0.14875723398640558, -0.14868738225079683, 0.24010753526313675, -0.2636548261960562, -0.3067611993898532, -0.3716368078842587, -0.49421651913349457, -0.3404508626114193, -0.5022002943771908, -0.4423284390398432, -0.3877294431578098, -0.4090207669800041, -0.25226975155427256, 0.2059417171905741, 0.7103319015931351, -0.08474818183835481, 0.6921334365015562, 0.43394775271115593, 1.04433824569116, -0.3670272065434171, -0.3896233399624626, 1.88285220243107E-4 ], [ -3.33348725869049, 0.09921225741812616, 0.26483184084244243, -0.276327895669281, 0.012553557740825968, 0.0963091812227598, -3.0277086018587284E-6, -1.0793051609387931E-4, -1.682836623958278E-6, 3.041239279114491E-4, -4.539467591688559E-6, 0.12939383295461854, 0.30458141022977286, -0.4573916682071297, -0.013159213130207669, 0.14289284529381438, 0.2670046729671858, 0.7714575772952312, 0.2892600521964957, -0.48190946513863075, 0.26367299944523187, -0.5623448245296961, -0.3699570128135096, 0.5528818369944872, -0.24176715434276413, 0.07471959355411202, -0.09053797026316802, 0.2824240552692739, -0.24100351157248195, -0.5792731079423907, -0.4871430645163866, -0.7410452643909908, -0.44728827195781906, -0.7861904691509948, -0.7612886443803824, -0.6540515079981506, -0.7343679702310805, -0.2008230968428198, 0.214275794150022, 0.6098236257722185, -0.028436364871826315, 0.8952105468747363, 0.49664278211536134, 1.0553480402749762, -0.18811376610122307, -0.1192029317859111, 1.3256831046258658E-6 ], [ -0.07566303521724001, -0.18979501568337928, -0.036052568375217954, -0.16193994810639625, -0.10390679827513759, -0.18090431271243843, -3.1469306540480343E-4, 5.4296482725661496E-5, -3.615120500411445E-4, 8.036089635121195E-5, 3.656575351958488E-4, -0.10289442384005346, -0.03491219100934267, -0.1752132165794861, -0.07305588812616945, -0.09068555568220585, -0.22900359865052247, -0.21377255229087572, -0.08428302730040262, -0.7198277511943064, -0.23001519217628968, -0.29650062369152397, -0.30537416471552614, 0.3331292551300198, -0.21490166155519697, -0.24972025907092632, -0.16859995125127283, 0.0029053042850655736, -0.15603339537480812, -0.21982584930708599, -0.12723623713225654, -0.10343335689469357, -0.129268428840798, -0.07399900843660867, -0.07385253327989527, -0.060217649773694856, -0.06328444043754167, -0.35096935778756716, -0.2557388569764636, 0.3101425072631551, -0.15039045607146692, -4.716020809514242E-4, -0.11372941641375026, 0.07900256818171571, -0.7031321777207865, -0.6363013547956038, 1.03723703831665E-4 ], [ -2.8215006922610777, 0.041133783383149554, 0.23784726928133842, -0.10814889475648198, -0.17026697890507825, 0.04619414728899248, -1.6646577307527136E-4, -1.1727677326094234E-4, 1.7483804154905765E-4, -4.413224828858224E-5, -6.871343401805671E-5, 0.2173280535289129, 0.2581543545541657, -0.18741150740112067, -0.1350838495353627, 0.24344381135897758, 0.025497915059010275, 0.5656226315232369, 0.48324316913254567, -0.7337999110152914, 0.02202729334378011, -0.5966311510722128, -0.43604936963981034, 0.6590681506784426, -0.24313584583365652, -0.13641260154975385, -0.13884205223397, 0.24755620194153202, -0.2521873946019284, -0.32392541394944324, -0.36173768147434104, -0.5126442171676815, -0.3168666265441903, -0.4881521230224648, -0.42818125285889, -0.3863904017965682, -0.39931501897936306, -0.26274804189631024, 0.23113575801440783, 0.7120129082837039, -0.05569339288343632, 0.7041175003518546, 0.4307144040033435, 1.0456570011709871, -0.3440052088679398, -0.35854648683096285, 1.4386143111256672E-4 ], [ -2.801528537803429, 0.10636919055707653, 0.23648179013977222, -0.1586048846693933, -0.20217018252798638, 0.10603715904803042, -2.0495692714290632E-4, -3.4794303555222796E-4, -6.662921884134018E-5, 1.6543768970731488E-4, -2.9524407110810064E-5, 0.21130405381779657, 0.25282213263548914, -0.2271578951066222, -0.15586910348166277, 0.24144396057500392, -0.030859099363158195, 0.5310232856687181, 0.7759293641123537, -0.8489520003543944, -0.03378955758153059, -0.6466669905326959, -0.4968613605499195, 0.7292844329101716, -0.32941432674709864, -0.16226986345981936, -0.14218078471472412, 0.24358032335907626, -0.26015588752570223, -0.37522326977774034, -0.3906832365554955, -0.5533018239740214, -0.3407762335484696, -0.5478942172859397, -0.46570928617180246, -0.4413227730696173, -0.43918668573322883, -0.42387041879381615, 0.15540850690581692, 0.7649478404860597, -0.12595631774596222, 0.6694788828373244, 0.4024319918682628, 1.2050330302486927, -0.23469316599112577, -0.49271724177919984, 2.3164610596000847E-4 ], [ -8.276979634901712, 0.1282905974790716, 0.05077837912399471, 0.7978793763038485, 0.222837046423506, -0.5792505799341255, -1.917330732258143E-4, -2.8255075778019874E-4, -1.1610706378065993E-4, -2.4734854549476646E-5, -1.77494667331925E-5, 0.7970611799156689, -0.0492533940305822, 1.0047656409639387, 0.0439370561417888, 0.6201660585230173, -1.6577260090512111, 0.16090774115574807, 1.3206626808905024, 1.5996090976236346, -1.6854581253095333, 0.17012715355348065, 0.4931103041964954, -1.1229174729427267, 0.35654333609179223, 0.843377940937272, 0.2752357903239067, -0.5882513682309309, 0.43333187713220384, 1.085866145276258, 1.0129852716529224, 0.8917929488537353, 0.8372924649057815, -0.08525646298976311, -0.6757681459671183, -0.25434199248374817, -0.7383105257424037, 0.8467173634031481, 0.3864957547821962, -1.526447525977439, 0.10182431217650151, -0.2864144175364237, -0.7320570834985639, 0.9518692133562616, 1.805009978977252, 1.3982419367286034, -1.1739176317306004E-4 ], [ -0.0814194842614281, -0.20052273937012324, -0.034669351465988436, -0.13352220737573223, -0.07457014288817522, -0.19141087640533985, 6.706714093078301E-5, 1.4135720595851196E-4, -2.365416408626789E-4, 1.9395862150291086E-4, 8.77289077095518E-5, -0.09329376777502868, -0.03227860471450514, -0.13476864354925655, -0.05360622058364866, -0.08334441908603743, -0.21651413237282713, -0.2020576703098062, -0.07876745258580724, -0.648209499587362, -0.2179808718644206, -0.26694838754045014, -0.2847724125479343, 0.3162672587791392, -0.20081233297896814, -0.20805872723206975, -0.14233604892356508, 0.008666321676263713, -0.13932868287918954, -0.1645724031847188, -0.08127797228077925, -0.06247288845559404, -0.09202452806051854, -0.06120087634687186, -0.10655224322290546, -0.09088669296743561, -0.09241493454863671, -0.3143491684336118, -0.23323623656950487, 0.2997259969163607, -0.13614048396194436, -0.0011108783881621993, -0.1469203473715732, 0.0861536512012424, -0.6496472053910902, -0.5777608158392064, 2.226748829704752E-4 ], [ -2.1482795152789174, 0.06134590636022995, 0.06447986298262186, -0.05651847737464966, -0.020195037013357203, 0.06854367227325031, 9.198986442433015E-5, -5.316115624875136E-5, -1.6722807410339405E-4, 5.417078682827147E-5, 2.0430832823190015E-4, 0.294558220490448, 0.09423285541213777, -0.1689337276166363, 0.00914537961221198, 0.3117108786866305, 0.0844341783319034, 0.19285464787357068, 0.09040739389119254, -0.918131192997514, 0.08155158418140691, -0.4074845240634254, -0.29894202601783565, 0.6635973706635853, -0.13608863383464576, -0.04825418682855329, -0.08270388146998803, 0.18659462628858745, -0.1255400895643968, -0.3372014334322697, -0.4029578991037384, -0.41270935032134176, -0.35832883925453346, -0.3632744722160333, -0.3646747857876762, -0.35178446277702147, -0.3541625646998083, -0.186116222917213, 0.09645840528642013, 0.6408618592946327, -0.1388930490420318, 0.5520640622087499, 0.178387363642972, 0.6106947813651026, -0.5612797877635802, -0.5541307263152707, 6.367742038947122E-5 ], [ -7.158857818033947E-4, -6.8300009719079E-4, -0.001253199239106844, -0.001361013466482788, -0.0013352397515032561, -5.916382073308917E-4, -1.505671420025757E-5, 3.112032475215312E-4, 1.1253793242024453E-4, 1.2587095454636877E-4, 7.027888098749633E-5, -1.8833441516824377E-4, -0.0012807014062821596, -9.85379971492257E-4, -8.971712381813041E-4, -5.197450709637898E-4, -4.1057908248654087E-4, -5.992235183784224E-4, -5.985489108798814E-4, -0.0011191386189277758, -6.033868530546598E-4, -0.0016312363459264104, -0.001758488269049396, -0.001440078098988482, -0.0017261331530317677, -9.880087674454107E-4, -0.001615508636944856, -0.0016160671469873373, -0.001272459108348507, 8.39650163758338E-6, -2.930803698031146E-4, 1.1311512903589081E-4, -5.569807973638739E-4, -0.0010407383724558824, -7.130578694524542E-4, -6.404788261441082E-4, -8.650297292331254E-4, -0.0012179523754589758, -0.0018617106152971667, -0.0016541111258273327, -0.0019411248365287057, 1.5604850109194923E-4, -6.930549386763749E-4, -3.8183201252197984E-4, -5.519468324890524E-4, -7.242055144400384E-4, 2.9318496554949695E-4 ], [ -2.5664884571287785, 0.022918043628828797, 0.19563771328023088, -0.2072124752822966, -0.1172926257474599, 0.02446875486781327, -1.1504553095292321E-4, 7.656299657110282E-5, -1.2149747810320517E-4, -6.368505843682595E-5, 2.1748149621137584E-4, 0.19232543757756276, 0.2138744275812627, -0.28418261301343456, -0.08703704777762945, 0.20525313389740887, 0.10623578560346045, 0.46455754455613263, 0.19576777984111263, -0.7347762880518109, 0.10164133845801114, -0.4906935504527863, -0.38202725458715703, 0.5217074378025855, -0.18038792073122117, -0.05081757555016078, -0.06675694823332594, 0.2322889448357912, -0.19722500038229118, -0.39999949686876946, -0.3144768271425725, -0.5129143135452955, -0.2967419445251585, -0.46689717378719026, -0.4622547897403152, -0.38411914860798924, -0.4274288802678695, -0.08162652222268765, 0.2529605829302067, 0.5901345724234962, -0.04910055645103914, 0.7407201884845172, 0.3423631794218373, 0.73552892399052, -0.43552201892240716, -0.4713091885174427, -1.5130249500996295E-4 ], [ -0.23625477249399088, -0.02898787173064396, -0.01222589484747329, -0.0028724113106582258, 0.021909011440939586, -0.028771252246912248, -1.3723641766435685E-4, -2.2468040626676548E-4, 1.7169530102523664E-4, 9.454578540750899E-5, 2.717335521826139E-4, -0.007585288043958264, -0.013570616777085638, 7.34062315624978E-4, 0.021805837326981128, -0.011640461533111034, -0.008738340282291007, 0.006868119258594816, 0.018843010024578534, 0.05194966804831915, -0.009028683913066384, -0.014993405310167558, 0.0019349622690175757, -0.061801477424503946, 0.003354260153522421, -0.009174043502963917, -0.018959421663572267, -0.017726643609384318, -0.02500259207521928, 0.012451629971898618, 2.668830370237557E-4, -0.006283420041029013, -0.0012925089729306687, 0.01756357738053955, -0.0011213470678430306, 0.014916891189598621, 0.004390220064530313, -0.008459903442438235, -0.0016089959120729486, -0.048746031225166186, -0.0020994285378037447, -0.005388939093160809, 0.024626020120914888, 0.017252922061030806, 0.04672126418532291, 0.04599059022320393, -1.5711640100882899E-4 ], [ -3.0556435274525815, 0.19853994988312648, -0.12171340144711923, 0.2219030712648446, 0.3840727700012336, 0.2101936244398474, 1.0448694084941979E-4, -2.014076573894338E-4, 1.613126309830662E-4, -1.5596759612985627E-4, 1.5707517501943464E-4, 0.30012572820068817, -0.11260072438348896, 0.053746749808570186, 0.3708263538190724, 0.3138477128375866, -0.0650649438458626, 0.13476654077983333, 0.08919065366438315, -0.31256570071655204, -0.06520328640869437, -0.6781051179798349, -0.14373177425207503, 0.7468762349829182, 0.07391742877352575, -0.20164761888244254, -0.08740602413134577, -0.4293655412793496, -0.10744190429877705, 0.007691915603956457, 0.22858068835071468, -0.0010907636748024173, 0.1722429704007154, 0.1696642619722745, 0.07468875363439956, -0.027027167993818116, 0.309224148220819, -0.45794609520379914, -0.0701951630625352, 0.7190297922315774, -0.03341328154457351, 0.663469327612682, 0.36322886570442287, 0.6966513494506175, -0.8778756361760859, -0.2683316546529566, -2.840697336102565E-4 ], [ -2.6570985772004576, 0.010834406308233839, 0.27511708001491714, -0.15505935446712185, -0.046078057731596296, 0.020543831145537046, -7.383518903559474E-5, -1.346495570335274E-4, -1.4314945895567947E-4, -1.7091504075385534E-4, 1.297577568111205E-4, 0.17168858079930868, 0.28556292987267357, -0.22057134515392993, -0.02168276774625754, 0.20850209338020737, -0.07669846119011076, 0.5216698932196677, 0.8085553309798198, -0.9549695493964001, -0.07705378736114633, -0.5521198942432519, -0.45112752718832455, 0.7505355680883956, -0.3228620062145256, -0.15297149030808044, -0.13845697330869552, 0.28840895039570363, -0.2646246128333971, -0.36269261970302263, -0.35295849266779616, -0.7027792664741832, -0.27547896342098754, -0.46322656210800184, -0.41476080921989167, -0.4152563604608144, -0.4001697350979872, -0.3294034376597155, 0.20208303256299387, 0.7934452423826617, -0.11113718092125836, 0.5999898321448572, 0.3399066387160843, 1.1588537227414917, -0.31927162929537245, -0.6549781805998954, 1.283835601631884E-4 ], [ -2.9159012758944254, 0.12538331280843917, 0.03936712002808916, 0.1805835856101239, 0.11768397611568515, 0.13273996057750218, 3.1998210804007365E-4, 1.2407305200576348E-4, 1.6421866909868934E-4, 4.6701483056564305E-5, -1.6416793135281237E-4, 0.29758653163183435, 0.06271871958601387, 0.040017233603819584, 0.15240823419686014, 0.31300266685126116, 0.06675094895057976, 0.426700256660089, 0.11255754739466316, -0.5907939717361673, 0.06356020564440153, -0.7341946327835133, -0.2668956015104544, 0.7438164638027056, -0.1228389589295432, -0.15426483644053365, -0.18121310782285507, -0.18592446704065282, -0.18846816914097528, -0.06090089802549308, 0.12142881431765001, 0.12865811009291825, 0.1866705296830184, 0.03476034141487996, -0.012917653114548034, -0.18642027935267694, 0.17963780041228056, -0.6178430452665522, 0.07937970743862337, 0.7122093249891556, -0.12819812500852554, 0.7006901974155886, 0.44729096734389134, 0.8971997730831188, -0.6059481652898491, -0.32826842308666554, -9.242254940756521E-5 ], [ -0.014799164403519777, -0.004035912567706754, -0.0011585375366391947, -0.0010226864804499455, -0.0037113520739176595, -0.00458374647203872, 2.950713519061904E-4, -2.107721433615295E-4, -5.112222940552055E-6, -2.4013399336003476E-4, 1.2001271615557073E-4, -0.0026151854546543293, -9.931361494702306E-4, -1.3711059912362958E-4, -0.0038075516153952705, -0.0025832150430835587, -0.0030603115234151897, 0.003702742168888754, 5.209540326756496E-4, 0.0024320503806948583, -0.0031949168626841493, -0.0035129712385146812, -0.0040342313693870185, -0.003779940908519302, -0.0033331651610425954, -0.0017552136880087733, -0.002431558010470413, -0.0018493316760055817, -0.002849516122930661, -2.6080593333144915E-4, 8.348917253622738E-4, 0.002012816233704521, 8.505310802875517E-4, -0.00398914454281656, -0.0019707840219022033, -0.002707833347782679, -0.0013233688368106719, -0.003116911472016083, -0.004314404118025506, -0.0037402480003369855, -0.004584733310140291, 0.0030102925561756866, 0.0035055644053913213, -6.875644721810707E-5, 0.00284350949275891, -3.1409344278125615E-4, 2.4459961544291285E-4 ], [ -2.845355956025511, 0.0902805041557648, 0.2339545328944958, -0.17559181510802951, -0.22982511621644236, 0.09132835249305572, -8.87408257153546E-5, 1.0185502471853118E-4, 8.225583464732837E-5, 4.142054504021951E-5, 1.1906500815859222E-4, 0.2003345207292415, 0.2513573235294752, -0.23853441755036606, -0.18144928482156042, 0.23111116414241742, -0.04134086582969745, 0.5234713841313299, 0.7843774732354646, -0.8504152218172814, -0.04372062036197895, -0.6239669375954552, -0.5071002287644956, 0.7301326331945166, -0.34300786132721556, -0.1705321334090436, -0.14581245314589222, 0.24128585553082801, -0.26302764111021104, -0.39323181273672037, -0.4196599101941233, -0.5376413424237552, -0.3662856875129817, -0.5543045672163577, -0.470912240276175, -0.43052739209129914, -0.4427603835674864, -0.4021049155575705, 0.14486726584281384, 0.7660168526324567, -0.13616548409635468, 0.6644900182097021, 0.41389308526834756, 1.2118280334635627, -0.25059517007705556, -0.4938450804344093, 1.5921940498478653E-4 ], [ -0.4700281592743954, -0.011439967760756729, 0.009808023143869485, 0.024598900662372695, -0.007025507462325726, -0.012125985806033393, 1.343282018069419E-4, -7.816838474114494E-5, 2.3926820632693633E-4, -8.507545652272752E-5, -1.4532520107069606E-4, 0.02683649984150907, 0.007012217547283184, 0.027915816972469223, -0.01459922171481203, 0.03118169752186328, 0.030049218080294263, 0.027777715481597465, 0.052350212303799715, 0.029563927678643336, 0.02946369634172378, -0.012309064366129756, -0.03668322709429154, -0.060108078707823066, -0.0408807113575106, 0.021548869161965276, 0.014230276910101017, -1.7539713539738977E-4, 0.015572499361069633, 0.01791117133668644, 0.01265447363139424, 0.017907849253107105, 0.011273632285060097, -0.00861498832944139, 0.0011481166945261835, -0.0024773036684609478, -0.0010458105641508817, -0.009222431186145486, -0.03358274480999512, -0.055643642902283096, -0.04393799317159509, 0.052082523541124484, 0.06898274568368631, 0.04332802570013516, 0.03999331573435283, 0.02271447193004511, 4.7730448911379503E-5 ], [ -0.0029020254090102384, -0.002062204661209135, -0.002121157196654974, -6.111496524251586E-4, -8.573711937618097E-4, -0.0018375072713871007, 5.5409905047683056E-5, 6.351123192529189E-5, -2.6251400542647767E-4, -8.611717097939106E-5, -1.8509573062885841E-4, -0.0018284793953083041, -0.0018353863094849518, -2.8655373314387676E-4, -6.507886431601545E-4, -0.0018260726319115498, 9.126718103687544E-4, 1.6193603028219654E-4, 5.01059580780941E-4, 3.1788263707784866E-4, 9.265331516102428E-4, -0.0022274121492694386, -0.00206002492168494, -0.001914367619203508, -0.0018414628738809597, -0.003019695580885489, -0.0029935085172501383, -0.0022355397848396745, -0.0031050399985228638, -6.910168359928978E-4, -3.140809886884759E-4, -2.41302568564794E-5, -5.525384573354432E-4, -3.754729984449895E-4, -6.299480550776429E-4, -3.45923646321502E-4, -9.007413026582651E-4, -0.0022168446582286707, -0.0020305236935706282, -0.001991235931011945, -0.0018393660731946572, -0.001257383967798424, 3.37956799584567E-5, -0.0023699444942825694, 5.366431439499467E-4, 2.8090302285947483E-4, -8.795586096329035E-5 ], [ -4.608045742805043, 0.5057421657239941, -0.23411605950778663, 0.22519509920278927, 0.4032157607831434, 0.5516401648645153, 1.3067664780030342E-4, 2.206027310791387E-4, 1.1757830516067404E-4, 3.358789017076707E-5, 1.055706483403798E-4, 0.5002172773979587, -0.171215416671353, 0.10572132909094897, 0.4298940468987207, 0.537751875462809, -0.1839540445186953, -0.7030445271130866, 0.8072877902242543, -0.4253105842357796, -0.1876685534686022, -0.25547277481872255, 0.14842138431484697, 1.297811260023807, 0.2169794354595088, -0.044934272015178064, 0.09658063737089997, -0.2879655104047323, -0.04510427358364407, -0.05226563220486444, 0.04617654334318402, -0.6433127312439822, -0.2097941086750005, -0.10760822653057124, -0.2670145317458646, -0.3370152199193432, -0.048351614344081126, -0.2608739587551002, 0.323444190265883, 1.26221847696032, 0.27150732162072244, 0.3168037191166208, -0.0847216545245956, 1.1939364111664987, -1.2554361315889437, -0.19753635879943132, 1.6848563326139006E-4 ], [ -4.54862212937883, 0.5287070891830888, -0.26346688802802454, 0.1745620560934125, 0.35077720473510704, 0.5756551003400656, -2.0390069807515213E-7, -8.672858121347122E-5, -7.932724877382518E-5, -2.822573095799914E-4, -1.4097427413955503E-4, 0.5009910002171994, -0.19996935054520604, 0.038582828253051475, 0.37099428218346986, 0.538263500439761, -0.18010927694716977, -0.6297439353518267, 0.7618769400237448, -0.44903513727213806, -0.18483070604805113, -0.2734617701499624, 0.1408806452760904, 1.3392942183688743, 0.21076282123844767, -0.08129355313569715, 0.05740354331969378, -0.35290622361675406, -0.07998358153439294, -0.144660710739133, -0.005684784481077238, -0.580077324432002, -0.26166826328548665, -0.16594798996679377, -0.2593286942036654, -0.2514472063276474, -0.04162782748029497, -0.2937533859815103, 0.3071792003404394, 1.3035192970529879, 0.26512494397985414, 0.351956469595736, -0.006633846933168507, 1.197338424879658, -1.3053716850837127, -0.2275067288212033, 5.0772189050204407E-5 ], [ -0.07611901750810629, -0.019862317544799665, -0.0018576434923361035, 0.006906629051817102, -0.004802405327197782, -0.019449693775598183, 1.3088912974941538E-5, -7.332286600980845E-5, -1.867279340775224E-4, 3.0387720091111467E-5, -4.48144759871602E-6, -0.001502544252727539, -0.00236456846516151, 0.00728703792633082, -0.005962237851629715, -0.0016964090738910242, -0.0053327433396986364, 0.01762894438956189, 0.021692277737617765, 0.011982592017303102, -0.0049536834308888545, -0.010105678017645083, -0.004463668716906546, -0.01724746348542682, -0.008088011731563687, -0.01653844492322559, -0.015245667045895675, -0.014197930862358508, -0.014331356663238658, 0.002179977579359215, 0.003879569338451885, 0.002742598952700721, 0.0039633413891673585, -0.006643525053328116, -0.004593587698768187, -0.005004372289068026, -0.003131287592425214, -0.008531743720580923, -0.0034068769443562725, -0.017019994077224317, -0.008488735918704384, 0.01234450180007512, 0.014130067307913042, 0.007862275603058992, 0.007707481353547273, 0.005106968686858672, -7.599759509438139E-5 ] ], [ [ 13.788696281047176, -1.264274687196455, -1.1269360000784483, -3.6774463659012393, -1.138901642684089, -1.3442162481970026, -1.0102281239626345, -3.6796670355679892, -1.3183472459900318, -1.4219719375546562, -1.2075932750215732, -1.2946139030707295, -1.3293433514272959, -3.685321946685888, -1.2253622172315666, -0.5522992651239514, -1.5720507743908625, -2.950106974548367, -0.7643579815374383, -1.2496446375701262, -2.1200296043388804, -1.3001469154212448, -1.4080966440045137, -1.6166377548174233, -1.6131785341470275, -3.680232278023634, -1.2357469696142387, -1.2610878993368166, -1.6110068840123057, -1.2119594343017424, -1.30081298717864, -0.7997703376768406, -1.5686827412396644, -1.2254624923992057, -3.683664112231189, -1.222007079363424, -2.896731740132763, -1.2668369752195243, -1.3455987572628074, -1.2454214311274556, -3.6702268884821834, -1.3187217010356715, -2.702806218869887, -3.6782562151570675, -1.2347253396924636, -1.3370776392944261, -3.5317339287249463 ] ], [ [ 60.25571429467796, 1.239610673540156 ] ] ]
}