{
  "config" : {
    "algorithm" : "ListNet",
    "numIterations" : 500,
    "batchSize" : 0,
    "verbose" : true,
    "nomodel" : false,
    "params" : {
      "regularization" : {
        "regularizer" : "L2",
        "rate" : 0.01
      },
      "learningRate" : 0.001,
      "weightInit" : "xavier",
      "optimizer" : "adam",
      "layers" : [ {
        "num" : 15,
        "activator" : "Sigmoid"
      }, {
        "num" : 1,
        "activator" : "Sigmoid"
      } ]
    },
    "dataSet" : {
      "training" : "../../../MQ2007/Fold4/train.txt",
      "validation" : "../../../MQ2007/Fold4/vali.txt",
      "test" : "../../../MQ2007/Fold4/test.txt"
    },
    "model" : {
      "format" : "json",
      "file" : "../../../MQ2007/Fold4/models/ltr4l_117.json"
    },
    "evaluation" : {
      "evaluator" : "NDCG",
      "params" : {
        "k" : 10
      }
    },
    "report" : {
      "format" : "csv",
      "file" : "../../../MQ2007/Fold4/reports/ltr4l-report_117.csv"
    }
  },
  "weights" : [ [ [ -17.16459387407916, 0.06635740246488273, -0.07551466788261293, 0.18927558548108372, 2.127574868893883, 0.3549759305708191, -1.7977958076488208E-7, -1.7261207198853935E-6, -3.306331261704748E-6, 9.942106056717217E-7, -5.453823785478267E-6, -0.5982634333101274, 0.19172338458117846, 0.21759499989774095, 2.289213171910275, -0.44587441915325504, -3.236440709485092, -0.4652783874959526, 3.114893871971986, 2.491574454692446, -3.0238969242649567, 1.6558637045600897, 1.0070881431581427, -0.72333313990559, 0.8737346041619771, 0.3411005297462557, -0.36479942144629346, 0.48317837487085236, 1.4679928451696835, 0.593829085937061, -0.3332123075308536, 0.0077578305921525755, -0.45574803665282915, 2.066730891049695, 0.4397822424451554, 1.5055956951600702, 0.8951267629277244, 1.6534087701104985, 0.9161955848527031, -0.7286828812988209, 0.7940999006010976, 1.4457356074230339, 1.8931989046544493, -0.742086147676101, 1.6364680398512874, 2.394258802652162, 1.179242509150223E-5 ], [ -12.208173382148559, 0.5008924018857552, 0.3986019079887236, -0.4723063497334869, 1.4133625358819943, 0.5546981108979694, 1.3218686010085361E-5, -1.589168363758099E-5, -9.646189161815012E-6, -1.2293046907697088E-5, 1.2675938574016155E-5, -0.09103044751750039, 0.42467672253015554, -0.6185425238873662, 1.5180381540125907, -0.008936055970887724, -1.1418753571207145, -0.09386685406806139, 1.9687840465770219, 1.7526481888171175, -1.0325373704511995, 1.1774015099093125, 0.6511748521883385, 0.15490293752262813, 0.5495905898873402, -0.7248408139874138, -2.035098376521163, -1.956378925299966, -1.1406141492800128, -0.07330308049101315, -1.3841230383721284, -0.31086788767658574, -1.2941401272152653, 1.1207483039545456, -0.2232772565755579, 0.2997169021647623, 0.05974139560817052, 1.0778708892853603, 0.38035178470040204, -0.11943377248667923, 0.3439278587289714, -0.4657736793016051, -1.153985918884442, 0.677372687696286, 1.1550904684383256, 1.851172116286145, 2.9762646331765366E-6 ], [ -12.845692205970794, 0.5404713267840127, 0.00775970976818983, -0.19903166105638415, 1.5789014394506373, 0.8249164439167345, -5.764263164670651E-6, -3.240109211880521E-6, -1.47521928042904E-5, -7.926264782677644E-6, 1.2106080702740488E-5, -0.4881181568925685, 0.07946765142573432, -0.10619213302623268, 1.652148445800678, -0.3021667084022818, -1.895649213042615, -0.02924239052342733, 1.599144712234972, 1.3620669931043485, -1.6960816613719505, 1.363265448225627, 0.8419147086977646, -0.982736420490017, 0.7752302026876164, 0.2214636035518727, 0.02466196689556871, -0.2817256167324566, 0.8586097551847478, 0.39575222282404954, -0.5861613270757821, -0.1895626371160221, -0.4672738162232712, 1.4229820505616477, -0.45831836992195835, 0.10823504271286212, -0.29126971543088387, 1.2882429364366785, 0.650223958370207, -0.9558753618753422, 0.6543593566784869, 0.6445198042851695, 1.5850459922576667, -0.05501207812205727, 1.6281553020708142, 1.2954829694770416, 8.583970960066794E-6 ], [ -12.811805537440796, 0.5757253891293349, 0.04744022084841635, -0.1869895165288244, 1.571935355356638, 0.8629171493252757, 9.158907288558882E-7, 2.236461556341115E-6, 1.2987806817147686E-5, 9.714509442735056E-6, -7.466865748831262E-6, -0.4934676299070994, 0.10825587047414101, -0.09521009775129605, 1.6449479608314126, -0.3048834380555823, -1.9104118848498006, -0.0075400590755516994, 1.611570175492226, 1.348170346011758, -1.7101105324357662, 1.351066742313441, 0.8260620562094843, -1.021856470410433, 0.7642239736174069, 0.22489816573934351, 0.0354317820417326, -0.27712720325582196, 0.8659944950578213, 0.3961527017391324, -0.5515104920677513, -0.18726655280242582, -0.42891496558328523, 1.4224368271926178, -0.4955635521526296, 0.07703548694687457, -0.32812468993538535, 1.2765890896802623, 0.6371373853472928, -0.9864577372270135, 0.6474689003037228, 0.5075085345745818, 1.5019490088607892, -0.07564608249975255, 1.640774689000428, 1.2822927503611623, -1.5037704959191163E-5 ], [ -12.853584459289745, 0.6831926639321727, 0.14586947996310487, -0.14261936754122306, 1.5735054143342333, 0.9801401811361402, 3.525311691407111E-6, -1.0333557644307694E-6, 4.82675370220636E-6, -1.532155092110766E-5, 2.566480855601753E-6, -0.5155630912072539, 0.17153678057120073, -0.06345623886404586, 1.6450460625559127, -0.31674137484202186, -1.9632793082632558, 0.09387712509588583, 1.6833845865819097, 1.3234394653641488, -1.7610269356647852, 1.3309923414787748, 0.7952265035580894, -1.1317082464938513, 0.7510897960456305, 0.2418938101317324, 0.06060893616334338, -0.2838723195487995, 0.8873887022341087, 0.40723091015521196, -0.4426069356685397, -0.2055743703305775, -0.3081317229018985, 1.451956399469925, -0.6020377613840476, -0.009601149405005886, -0.43454324386623616, 1.259008344242524, 0.6176145096016249, -1.0654184676233998, 0.6502399602454648, 0.1514644576220298, 1.3822715684712201, -0.13492307574919854, 1.6844233321620548, 1.265956719861079, -1.2591387301434434E-5 ], [ -13.505298888011414, 0.706109733128409, 0.474959719294921, -1.2932725210132068, 1.6414332344599316, 0.7616578911469222, 3.0348504519652642E-6, 1.335686339743731E-6, 4.8867007418585435E-6, 1.0503234972358197E-5, -1.1501995627194356E-5, -9.232211037769441E-4, 0.934850561025627, -1.0992295328067705, 1.7633041488788583, -0.05839384811422912, -1.306959956937552, -0.44864613931128644, 1.5604128166435713, 1.7225496332920853, -1.1235083287064342, 1.4337566595278293, 0.7438185943377948, -0.38004400615774414, 0.558378052217994, 0.8270321638212934, -0.10799761897585662, 0.6310088148424917, 1.166927045920404, -0.26204402068483135, -1.6976449231359014, -0.9896714957951153, -1.8062805461449072, 1.5004764506804456, 0.4012784840242331, 1.0462968055513406, 0.7632902017028308, 1.3262807464011155, 0.5385470803835085, -0.7024573635337719, 0.3884530115975929, 1.9369693311460086, 1.0268431072564155, 0.4681204141360763, 1.3615344312282707, 1.7265675635942306, 1.0455887150811432E-5 ], [ -12.275890372742241, -2.0965979840802635, -0.38168723160669205, -0.6017663507151986, 0.9849179515315006, -1.9073582008998522, -1.944041702088317E-5, 6.284218088164914E-6, -6.615205386813841E-6, 1.8159069423462764E-5, 1.3180211256270001E-5, -2.5377629743315233, -0.4840110408436446, -0.4317372145628249, 1.0166349485459767, -2.2762190217485805, -0.9648382966609712, -0.6675759085055689, 0.251141174267922, 0.22158800222486036, -0.8705685371558133, 1.0649812043594327, 0.9819452459281399, -0.44227597608419156, 1.0414445832986434, 0.11669704895904287, 0.31599145693544095, -1.0668850661694247, 0.5630919237639951, 0.301797984811081, -0.9663641526529744, -0.7169502936634098, -0.5709858577627335, 0.8209980921125396, 0.9563475120336798, 1.1345583385063955, 0.8785983249183994, 1.0264949260287586, 0.7907851622029207, -0.38673418614798516, 0.8672048661333064, 1.5083578699755211, 1.6140351775446347, 1.3461841837831365, 1.0282174238443949, 0.059087330533881384, 7.544941479349468E-6 ], [ -12.41475007527172, 0.4754316045485759, 0.4557267513636374, -0.439788019145083, 1.4366324329319848, 0.5291513785009796, 3.140622767036937E-6, 1.2634387243168687E-5, 3.204280399245974E-6, 5.867391386026308E-6, 8.973254746317982E-6, -0.11086759971870871, 0.41824525218876, -0.6107731549104852, 1.5402513076663749, -0.02877244233613863, -1.2540233181655591, -0.17372009762935983, 1.9749055429106204, 1.7851465263859354, -1.1402433087600679, 1.1934703640921451, 0.6647861317216748, 0.12119765104106056, 0.5684162628427359, -0.6907680740265965, -1.870843375253476, -1.3673751016578, -1.0108721062179065, -0.032711890044490835, -1.4151658921839518, -0.3304985867397803, -1.3255782878703155, 1.1460232577979332, -0.27180354594037354, 0.2521770003877388, 0.010760165572028076, 1.1004399148396824, 0.4004287446123564, -0.14542174277159617, 0.3670582078594086, -0.2897403079207905, -1.1200577643520777, 0.5375824448164663, 1.1855910988411211, 1.8715577092946205, 2.1387870726962463E-5 ], [ -12.025932666944573, 0.4362845158036611, 0.21547776862692386, -0.40552754452336726, 1.3799800647775236, 0.5009773501538731, -4.827940004737955E-6, -1.057875548795488E-5, 3.496708129727848E-6, 8.337647480306751E-6, -4.556934374335748E-6, -0.09842474406873589, 0.3222522143320349, -0.5168821884134246, 1.4833378750345376, -0.0034182145134071373, -1.0339094534974258, 0.02737346526949977, 1.9345944796395786, 1.7178845338026945, -0.9271280666222746, 1.1603887012175318, 0.6375132212993836, 0.16953568002327257, 0.5283023949560934, -0.8188526908935795, -2.1947634737041444, -2.558585146455541, -1.2598883542303008, -0.049572338404508254, -1.2328015967300838, -0.1732047490463234, -1.1345848887477956, 1.0824859444854156, -0.2151529120775795, 0.3040774906158621, 0.05464994798374464, 1.0532241131243318, 0.35995951226242495, -0.09131624319681686, 0.32357167636671974, -0.8627355502717114, -1.229724253483898, 0.789886548638373, 1.127053613885282, 1.8325846337679785, 1.262574435707818E-5 ], [ -12.389010386624948, -2.1186187033102564, -0.39893397429738797, -0.6161395764128664, 0.9945630619546635, -1.9212742963680731, -9.956350053711716E-7, 2.2248810374455253E-7, -1.4030795855588013E-5, 2.2677423491763337E-6, -4.985230454699349E-6, -2.6214859636244037, -0.5087882491038218, -0.44943251787443095, 1.0228781953003763, -2.3528193605808116, -1.0367070235522602, -0.6323917847569525, 0.2487878404044408, 0.2263593784510515, -0.9378696568296777, 1.0752096596614154, 0.996485350266052, -0.4554861061131564, 1.0621672784103173, 0.15549207963851155, 0.3364203613125596, -1.0228638674124886, 0.5938637808944166, 0.3014220863442298, -0.9428714766958979, -0.7205092474474001, -0.5458669987174638, 0.8261425361565312, 0.9525712768337788, 1.1393072158192865, 0.8675093428493725, 1.0364524867863742, 0.8111273768114661, -0.4016126833651354, 0.8893959587385246, 1.497081439548024, 1.6598904883425432, 1.3043015231501613, 1.0541645228338457, 0.047849805893978026, 1.968861048462286E-5 ], [ -12.025997954538514, 0.43880256788011435, 0.18514426071748127, -0.41327931418507935, 1.379472710251239, 0.5019866130893741, 1.725993079473364E-6, 7.051827534012068E-6, 4.938819814457167E-6, 4.0528553166240065E-6, -3.4022954518231E-6, -0.09685434942185642, 0.3001804599607343, -0.5212500290169586, 1.483090957473383, -0.0031870541603641342, -1.0202887574654285, 0.034146969886979406, 1.9310314429949351, 1.7152220642139135, -0.9140725230791138, 1.1618521699204736, 0.639654651843705, 0.17931440465755227, 0.5298226853450244, -0.8355089204858204, -2.217031177134826, -2.59897618969888, -1.2760086567334898, -0.05323241351812739, -1.2406004723948187, -0.18208862207250845, -1.1435837208710906, 1.080423350289861, -0.20879552274427843, 0.3115514935043263, 0.06100800041856468, 1.0533362141153046, 0.36085766705475847, -0.08520524489295267, 0.3244625204527101, -0.9024827009260878, -1.2533567954884848, 0.8042027854344611, 1.1248487691361346, 1.829144902954516, -4.525154227756553E-6 ], [ -12.931037053617484, 0.7190330040753957, 0.17904358935387082, -0.12273580211671045, 1.5805655511409618, 1.0197584713798737, -1.9045244076863413E-6, 5.6773929044667394E-6, 5.896142661634622E-6, 9.554977901260638E-6, 4.390283789996472E-6, -0.5263057282720737, 0.18996048423478842, -0.05243599623548844, 1.6507846780916788, -0.32390378466478414, -1.9902325689735398, 0.13859245201959666, 1.7200454450954223, 1.318358144807171, -1.787343817096521, 1.3281714408036025, 0.7888746901088858, -1.171473684691953, 0.7530663137721524, 0.25420157014731676, 0.07261115134049877, -0.29120841387729857, 0.9006186478602566, 0.4134643082643004, -0.40122368805646297, -0.2250162861112319, -0.26117529203658807, 1.4728863590195038, -0.6389284352645975, -0.039411748461178515, -0.4725048840190192, 1.2579358301338375, 0.6178889629741182, -1.0915749918029345, 0.660490628405368, 0.040833284110589445, 1.377887755251213, -0.15627321339549394, 1.7003246644973908, 1.2666273323514317, 1.4295788210415881E-5 ], [ -12.866244703560184, 0.23978352249994636, 0.0870351099789107, -0.381392164361296, 1.4866172383451686, 0.26288051938206386, 6.973820665863162E-6, -4.018376762438645E-6, -7.984001324843355E-6, -6.735397176865937E-6, 3.7683068876062847E-6, -0.24294057718712872, -0.025579747383981603, -0.5840038591743678, 1.5812628996912685, -0.1816712057463968, -1.5006703759110243, -0.31166854522979237, 1.8803598940297013, 1.805504801780895, -1.3783174590420266, 1.2676815242330182, 0.7465981512902203, 0.06599184227990153, 0.6648309157324391, -0.6502930101618986, -1.1904589386775468, -0.6545002256352913, -0.4002355997506689, 0.09280712912184332, -1.4938461985422975, -0.456935968894803, -1.3991454742471607, 1.193403345312392, -0.34923424806749787, 0.166596631210498, -0.09770111967996768, 1.183455162551565, 0.49531730693554793, -0.18499486784484503, 0.47627153272090056, -0.5389242815099392, -1.4237616140898062, 0.19928082770958658, 1.2393156642428218, 1.8392533431588995, -4.893205608047339E-7 ], [ -12.801216249034189, 0.6374421307008035, 0.10602851667055854, -0.16303501785116759, 1.5685544108938418, 0.9291898434657156, 5.921881815249904E-6, -3.597759576553754E-6, 2.0828016028777856E-6, -8.042728624471079E-7, 5.330533440739117E-6, -0.5024114021140553, 0.14840668157657014, -0.07585189044668371, 1.6411017151855836, -0.3088273641740023, -1.9332182508507068, 0.045380906783277955, 1.6453776812499037, 1.330986383052894, -1.7318738302959673, 1.3366041123024637, 0.8049174197956013, -1.085022495229676, 0.7525650367734709, 0.23046730512395555, 0.04677333580722732, -0.27970967379086437, 0.873491185174591, 0.40230518017261363, -0.4906111375129184, -0.18984479406145224, -0.3622834490813319, 1.4337722846368284, -0.5553541447592255, 0.027438285921787275, -0.3876617969854341, 1.2630981254654932, 0.6212970492636651, -1.0338969044248036, 0.6436539609135461, 0.29301529395349546, 1.4084602394027923, -0.10631663524015252, 1.6643690745313493, 1.2690057379739808, -1.8500947226684308E-6 ], [ -13.960327473855989, 0.18535298038578504, -0.5048898125928692, -0.2348131520258793, 1.80876245389626, 0.47548136604612895, 1.2359878089703355E-5, 4.510938277242626E-6, -6.880787793925982E-6, 2.599866137848309E-6, -2.5940711885587414E-6, -0.430540027342442, -0.3223398678466432, -0.12534208894407195, 1.8886196361539742, -0.24763775222405013, -2.04887740448515, -0.1319799804461899, 1.8708471998748426, 1.7769173747049243, -1.8463330095247414, 1.5734547521488207, 1.047368022319561, -0.7008545134662052, 0.943367857133992, 0.12172989122779362, -0.2828396637030249, -0.44699176219689485, 0.6581569366939625, 0.5114881077787441, -0.7692413825276812, -0.16475754095342288, -0.7089133060607733, 1.5943708522945752, -0.195072291093323, 0.4160442746612918, -0.002002664347735209, 1.5073314864575464, 0.8524949158801047, -0.7091628384813186, 0.7973369746374668, 1.4609776618684673, 2.426723316026373, -0.04230590903650653, 1.685616821578852, 1.7187033913097565, -8.117955971454972E-6 ] ], [ [ 12.194820161967383, -1.6868457598349105, -2.026411865688221, -1.7775130759908644, -1.8307574874189199, -2.0360359427427563, -1.8122715631719508, -2.75480881940834, -2.0533496777800346, -1.9552397449477543, -2.7970053057486406, -1.9514713659151388, -2.121394877044618, -1.938777271881605, -1.9390883571905455, -1.6198373934859016 ] ], [ [ 93.95636594019265, 0.8456311503935964 ] ] ]
}